26 128
0 0.0025417055 0.008888481 -0.001623477 -0.0024213884 0.0007434838 -0.009896255 0.00690517 0.013817684 0.020227212 0.010489056 0.00023267418 0.007601681 0.011646397 0.011668798 0.010812097 0.017435806 -0.0011699578 0.021217117 0.0031925167 0.010680055 0.010536935 0.004629498 -0.010408341 -0.013683969 -0.006753002 0.0046704775 -0.014107874 -0.007384201 0.0039330157 -0.0007818058 0.0053848815 -0.007913309 0.017072357 -0.01671235 -0.011208239 -0.008573171 0.009340096 0.009229738 -0.020201666 0.018573059 -0.008736531 0.0051535466 0.010700302 -0.013652203 0.017708696 0.012350089 -0.005127868 -0.009850057 0.0071374215 -0.0036278393 -0.010413277 -0.0055696443 0.009340353 0.016108131 0.00048294285 -0.0016075277 -0.007987122 0.00870961 -0.013284964 -0.012174407 0.010042593 -0.005502114 0.0087615065 0.017665777 0.018606767 -0.006498262 -0.018451238 -0.0017003756 -0.0019138224 -0.010333589 0.010435536 0.0088145565 0.0041910475 -0.007892095 0.010590979 0.024749776 0.02064188 -0.004878987 0.0035486904 -0.0140892565 -0.0021640044 -0.0025508937 0.01579272 -0.0045440327 -0.0068220203 -0.0098602045 -0.0057265903 -0.00076329533 0.012351379 0.0070567676 0.0011101121 0.0202607 -0.021409538 -0.02167252 0.0053708698 -0.017144255 -0.005503539 0.002473937 0.00030018302 0.0088067 -0.016348528 -0.009340927 -0.015572091 -0.016305806 0.010228828 -0.0061964905 0.010082522 -0.022980228 -0.013567111 -0.003362729 0.005671984 -0.0012925856 -0.014698146 -0.008506642 0.009453776 -0.014771655 -0.0073135616 0.024385987 0.013015681 -0.0006795047 0.019350357 -0.0009531497 0.0013182609 0.009467907 -0.016249334 0.016031146 -0.005286691 0.006674479
1 0.0029786287 0.018965969 0.006667346 -0.015749564 0.013369911 -0.015357817 -0.0016318734 0.023104833 0.020723693 0.020894522 0.014937182 0.027354192 0.011787474 0.025674371 0.024803698 0.029241608 -0.0033238092 0.022314373 0.010138296 -0.0025833098 -0.0057560424 -0.0140754 -0.017454347 -0.027816832 0.0024645966 0.010772562 -0.023021935 0.012384949 -0.0010641122 0.0065242182 -0.003926803 0.0009024114 0.0026701374 -0.032649748 -0.017283887 -0.026840212 0.004269874 -0.0115931975 -0.023866536 0.023618067 -0.015617941 -0.00933082 0.029557835 -0.017592473 0.027344493 0.012029432 -0.032346867 -0.016562812 0.029569555 0.016674934 -0.02634799 -0.0063028443 0.0161218 0.016246675 -0.0051888563 0.0020080293 -0.013565962 0.01857989 -0.016237639 0.004953615 0.013594945 -0.030152729 0.024864033 0.012613567 0.023544114 -0.022366604 -0.02154759 0.0098634595 0.002045583 -0.025697697 0.022334514 0.030372223 0.020108683 -0.017522126 0.023999179 0.021145942 0.017205738 -0.023814498 0.01900012 -0.014176289 -0.012212243 0.0031816517 0.026521904 -0.027584227 -0.019474678 -0.029044125 -0.016392203 -0.005574045 0.029860891 0.011458137 0.0012299275 0.027739285 -0.02808658 -0.011305225 -0.0034884354 -0.027046796 -0.028256515 0.015701205 -0.0104038045 0.021228768 -0.022699462 -0.026012689 -0.03357391 -0.027246546 0.015649833 -0.022267153 0.006950435 -0.022958588 -0.028275015 -0.0031946816 0.009843513 -0.0102093695 -0.019079542 -0.0006179275 0.0228338 -0.029844353 -0.024480335 0.02823427 0.021779185 0.00544466 0.02780046 0.0072885463 0.0022972631 0.016762707 -0.02535519 0.020513052 -0.027860565 0.0129897315
2 -0.0024737758 0.0056139114 -0.001001331 -0.00096481043 0.01973046 -0.01567252 -0.0067727095 0.009346294 0.027158346 0.008385822 0.008935527 0.021085838 0.01967554 0.018546741 0.0288002 0.013923261 0.0058127586 0.025487995 0.010445647 0.006115147 -0.012978867 -0.0015004319 -0.023218099 -0.012131067 0.00996772 0.012383854 -0.027926277 0.0026743496 0.015192019 -0.005170235 0.0030278233 -0.0006591398 0.026114523 -0.025636656 -0.0062653413 -0.021882966 0.0113602765 -0.022004405 -0.013255168 0.016974887 0.00200314 0.0030242489 0.026915908 -0.02089683 0.020779375 0.01514713 -0.022783516 -0.009699091 0.028095625 0.0029883275 -0.022001818 -0.0018699274 0.01074893 0.024160104 -0.016754 -0.0014073432 -0.016954342 0.015282185 -0.023796422 0.0024451464 0.001559869 -0.021019464 0.008436127 0.0074252603 0.018112084 -0.015415484 -0.018589277 0.003648345 -0.009037514 -0.018185748 0.025509981 0.011722857 0.009747502 -0.014877129 0.001202689 0.01121252 0.018914301 -0.022357905 0.014847453 -0.00807253 -0.014055819 -0.007454548 0.020985184 -0.0130792735 -0.014303607 -0.009827551 -0.025350254 0.003510337 0.018228095 0.008472286 0.012094737 0.016914597 -0.016713122 -0.010428431 -0.024578057 -0.008867097 -0.028734082 0.007461453 -0.012164631 0.017235972 -0.026192589 -0.023457175 -0.011439979 -0.009148112 0.019456342 -0.019347053 0.016695239 -0.012793018 -0.016341029 0.0046541407 0.007848388 0.012687497 -0.014293603 -0.0069014146 0.012753393 -0.012869375 -0.020206643 0.022772668 0.019350545 0.0024558483 0.013928015 -0.00092959515 0.0009916422 0.020478973 -0.024924029 0.015810937 -0.02840048 0.014895749
3 1.7678249e-05 0.016312085 -0.003413831 -0.0017944955 0.003152066 -0.016103268 -0.013733546 0.017324395 0.017573062 0.03041493 0.017654672 0.014870155 0.009185102 0.02891627 0.020895632 0.019515911 0.0023570713 0.013927792 0.0023288284 0.005283857 -0.011311885 -0.010144443 -0.0068002045 -0.014065699 -0.003868349 0.013592495 -0.01278017 -0.0019360938 -0.007389913 0.021796545 0.0136287315 0.0028076218 0.0009573825 -0.02663845 -0.010636675 -0.0085154185 0.012977873 -0.005478413 -0.020913508 0.0048021837 -0.0045775636 -0.010776017 0.026921753 -0.02017619 0.0046726037 0.009972949 -0.02469659 -0.0030005488 0.014686869 0.00043404952 -0.018358251 -0.026385821 0.0024800922 0.0083859945 0.006256855 -0.000377268 -0.015979849 0.0134731 -0.007406668 -0.006441742 0.026040964 -0.009718273 0.02420367 0.009515259 0.01429148 -0.02388866 -0.01565975 0.00526045 0.003129901 -0.017332477 0.01454033 0.010021824 0.009206985 -0.016639244 0.023191094 0.00714598 0.019636244 -0.015029006 0.013544366 -0.022896487 -0.00597318 -0.003823257 0.021717334 -0.010470433 -0.01433149 -0.021773815 -0.0018503177 0.002460571 0.0044158897 0.0070506968 -0.0076799123 0.015851445 -0.012538792 -0.025538856 -0.016459953 -0.024869412 -0.0073120757 0.017381232 -0.004531198 0.025731055 -0.0108109135 -0.011135459 -0.02364019 -0.009830399 0.023781825 -0.006034934 -0.004332695 -0.008772086 -0.011365119 -0.0094966395 0.008063975 -0.0032349462 -0.015180959 0.008212803 0.0059949867 -0.008508465 -0.0070802975 0.020389447 0.013789712 0.006803513 0.0057931617 0.0130276345 0.010951444 0.02292333 -0.0052746027 0.0044343807 -0.015556097 -0.0010493358
4 0.0074834363 0.002677373 0.011531871 -0.018982578 0.01427577 -0.020611282 -0.017127546 0.017631399 0.02103911 0.019622238 0.017049294 0.0190122 0.0006836506 0.028647784 0.018448792 0.020410534 0.0070712115 0.021872155 -0.0006781948 0.0026274677 -0.0026721722 -0.0056609567 -0.009353964 -0.011506767 0.007947367 0.0026011597 -0.013336254 0.016934711 -0.0144771775 0.014506688 -0.0040376484 0.008933302 0.0051276265 -0.012103431 -0.009893779 -0.017599143 0.0074095447 0.0025124378 -0.026622348 0.015986808 -0.0061406586 -0.015087251 0.018420994 -0.026994355 0.0012471171 0.01517812 -0.020008558 -0.01390743 0.00614024 0.018445415 -0.018407425 -0.01281882 -0.003271444 0.015034752 0.009168537 0.004065121 -0.0078027993 -0.0030254684 -0.00483527 0.0031321743 0.0159692 -0.0093788 0.024232633 0.0077993134 0.02322153 -0.01591194 -0.016311795 -0.0018086211 0.016523914 -0.021267062 0.005173434 0.020150868 0.010392098 -0.008451274 0.021071296 0.016235922 0.008746765 -0.011987133 0.00091220636 -0.015869325 -0.0006930502 0.0057355273 0.01780255 -0.010918017 -0.0028623275 -0.021050325 -0.0038321554 0.011863232 0.004935201 -0.003989292 -0.009010904 0.029227376 -0.007606215 -0.017817846 -0.011697212 -0.018064301 -0.009570777 -7.430598e-05 0.0036711146 0.020938078 -0.0073835338 -0.008268138 -0.026418367 -0.004953459 0.0057013123 -0.0007821723 0.017710866 -0.0267623 -0.013250539 -0.01036958 0.0030582263 -0.0013368286 -0.0065635517 -0.00036218547 0.0064967046 -0.002652849 -0.022513947 0.027061053 0.012844702 -0.018364131 0.008595658 0.001836692 -0.0041485685 0.022459274 -0.002685009 0.0059871613 -0.007284195 0.003120241
5 0.007656309 0.012088062 0.009526653 -0.008609331 0.00012352417 -0.01773598 -0.014125573 0.025274083 0.011786144 0.017451772 0.00892238 0.005126163 0.0032360787 0.023941442 0.011124748 0.00020389067 0.011744837 0.021316538 -0.011947037 0.0013331247 0.00088759075 -0.009199429 -0.006588763 -0.02409191 0.0059002885 0.0051123695 -0.02072437 0.012143563 -0.009123695 -0.0075720516 0.004959879 0.006270348 0.015069491 -0.014210522 -0.009716125 -0.015023319 -0.007147466 -0.0044605955 -0.010415276 0.02557139 -0.013404342 -0.012651473 0.00982516 -0.0214153 0.0050449218 0.024041038 -0.0046118917 -0.010108436 0.010136511 0.007187548 -0.019900022 -0.010515685 -0.00320909 1.5333353e-06 -0.0044493047 -0.0014875733 -0.00415754 0.0054186033 -0.002299821 -0.016899612 0.01430985 -0.017801799 0.017048405 0.0138549805 0.012610927 -0.013071235 -0.0014214267 0.00048860477 0.0092619825 -0.011468146 -0.0025334884 0.005095662 0.00839474 -0.0053029964 0.011772188 0.012443027 0.0052648066 -0.011723543 0.00036510156 -0.015729534 0.008178183 0.004265712 0.0084028095 -0.010651471 0.0073823635 -0.01732376 -0.014008046 -0.0028064395 0.016317716 -0.005856023 -0.0080740675 0.028223086 0.0012979286 -0.017251201 -0.02430835 -0.012112722 -0.010922423 -0.0030181452 0.007971932 0.01645007 -0.0032662523 -0.0012714237 -0.010938937 -0.0126422355 0.014227607 -0.0077939793 0.021902699 -0.013760953 -0.01255908 0.0047304537 0.0015910543 0.0063754115 -0.0014788518 -0.00025045077 0.0010342811 -0.0026775396 -0.024892813 0.020548953 0.010506704 0.0032331406 0.007581751 0.0028495674 -0.007812951 0.021243252 -0.007152214 -0.005668644 -0.00084086106 0.000231758
6 0.009046556 0.006749056 0.0070610098 -0.0050897473 0.0048930105 -0.015300138 -0.01733968 0.022544973 0.010923056 0.009893241 0.0027874776 0.017065482 -0.005871613 0.0151669225 0.022378365 0.021049708 0.01453112 0.014631443 -0.0059067197 -0.0025932614 -0.003993358 -0.020057874 -0.019503664 -0.015854694 0.009766324 0.019769045 -0.018390689 0.01546129 -0.002791465 0.0069293045 0.007735626 -0.00028448153 0.017352674 -0.020204805 -0.008859312 -0.017647177 0.0021548946 -0.005780085 -0.022310562 0.029174954 -0.015053805 -0.004967587 0.027309882 -0.025339393 0.01318143 0.01289921 -0.02653736 -0.0025490744 0.01894886 0.020780234 -0.025122194 -0.019115632 0.0024302308 0.010813871 -0.0016167124 0.004262605 -0.0013450428 0.005055183 -0.0059325234 -0.013275632 0.01666473 -0.019636983 0.015480962 0.012219468 0.01545417 -0.019736478 -0.020498816 0.011085406 0.014347412 -0.019020634 0.014821433 0.019615073 0.013435764 -0.00926879 0.02304903 0.0055509508 0.027533215 -0.011014716 0.01431785 -0.02367934 0.0026783824 0.0022840989 0.020298367 -0.027800411 -0.0057811 -0.020434063 -0.021335064 0.0038436125 0.017333021 0.008813639 0.0066100834 0.015872814 -0.001380909 -0.017990228 -0.00627253 -0.01853846 -0.020975098 0.012890153 -0.005519076 0.020877328 -0.0077046095 -0.0001656033 -0.013166735 -0.010924968 0.017467178 -0.007901838 0.006944923 -0.019635389 -0.023750978 -0.011063298 0.00035752077 0.0035969063 -0.011437596 0.00838697 0.015182019 -0.020920629 -0.029338118 0.0141780265 0.0126453405 0.009217723 0.014860172 0.009092869 -0.010052311 0.015924899 -0.0056625544 -0.0025913597 -0.021997336 0.015717585
7 -0.00026470044 0.017682858 0.011013769 -0.003316329 0.0168629 -0.027436305 -0.014390341 0.018115183 0.019079559 0.01485018 0.023782661 0.0154557265 0.0009503183 0.030681 0.02728744 0.006885101 -0.00037271943 0.018990053 -0.0064581567 -0.005302769 0.0072208215 -0.0057474524 -0.024325205 -0.012346761 0.003982948 0.017961657 -0.0051933285 0.0029874707 0.00076585356 0.008513353 0.01367673 0.0078085987 0.010415924 -0.014454215 -0.014094295 -0.01435917 -0.008804969 -0.010128668 -0.026418688 0.019935727 -0.015832115 -0.00411827 0.013372097 -0.012318482 0.000672894 0.02609967 -0.01247413 -0.008324069 0.021242462 0.027563678 -0.009229362 -0.025589105 -0.0041366685 0.019819433 -0.0016761328 0.005635784 -0.005132675 -3.8471713e-05 -0.00584799 -0.00050332805 0.009689713 -0.02068443 0.02422034 0.013486534 0.012264469 -0.008747357 -0.00663487 0.0071809846 0.0033623606 -0.0104190735 0.0036977155 0.014863054 0.015914442 -0.0083346935 0.016340252 0.010727096 0.014262155 -0.022326682 0.009519264 -0.015395594 -0.016583655 -0.0046605803 0.019786522 -0.022406088 -0.0072355615 -0.024485907 -0.019238068 0.010155089 0.01391791 0.0001198095 0.0020172119 0.019148985 -0.010316175 -0.026647177 -0.004333258 -0.0144771375 -0.0099553475 0.0044186 0.0026071921 0.008869898 -0.016167136 -0.014362982 -0.0075 -0.01947847 0.020471476 -0.018628653 0.008049682 -0.025346145 -0.01574043 -0.016738905 0.022770252 0.0045025875 -0.013506825 0.009306287 0.015151733 -0.029538494 -0.02536017 0.014610808 0.008513912 -0.014689724 0.013739418 0.005310513 0.0071630245 0.017491674 -0.013614854 0.00606383 -0.007822747 7.7344885e-05
8 0.021540532 0.022126796 0.006243452 -0.007786384 0.00999399 -0.027487181 -0.02724881 0.016830247 0.007984891 0.0151309 0.003189988 0.013257209 -0.016998973 0.02992813 0.024635289 0.008590027 0.021732679 0.028563572 -0.011015644 -0.014668813 -0.005550821 -0.02429653 -0.029353624 -0.0145495115 -0.0028902416 0.024100903 -0.020508554 0.014572895 -0.009489763 -0.0089816395 0.011943175 0.0012060243 0.029447114 -0.027084056 0.00019231765 -0.02438818 0.0048077605 -0.019104872 -0.013016744 0.029240213 -0.02317969 -0.009573914 0.022244819 -0.02274386 0.0060906764 0.017228723 -0.025259424 -0.011474475 0.020837272 0.025870359 -0.024162402 -0.016402926 0.005980876 -0.0018283292 -0.003710355 0.010855909 -0.0134625025 0.015584689 -0.007608886 -0.020727646 0.004546224 -0.025633186 0.02532295 0.026830193 0.011687271 -0.020745115 -0.016720576 0.0068214256 0.01101868 -0.023847498 -0.0017268667 0.0142763425 -0.0084497705 -0.0119037535 0.026046818 0.0062022796 0.03022795 -0.014618882 0.014391333 -0.013026114 -0.011967971 0.00789544 0.00018129032 -0.01458534 -0.0009384947 -0.01731158 -0.028254623 0.007986783 0.026571166 0.0035642767 0.005158667 0.020482859 -0.004855072 -0.022859348 -0.024336051 -0.021440577 -0.03093471 0.016712647 -0.011526934 0.02761381 -0.025966227 0.0039200755 -0.023635164 0.0025024083 0.013730609 0.0031669978 0.02829925 -0.024773404 -0.018627265 -0.010078324 0.016825862 0.016812075 -0.02466154 0.020073242 0.0020083569 -0.02473266 -0.01750793 0.025645033 0.005933165 -0.005818921 0.009151476 0.0085469065 -0.019238476 0.016694097 -0.024644068 -0.009694207 -0.017761702 0.012856371
9 0.018067807 0.011497998 0.0047574784 -0.017766729 0.019978015 -0.013706019 -0.022807077 0.022336937 0.0017937747 0.013151759 0.009196099 0.02400601 0.004880684 0.015945027 0.028092673 0.012704996 0.015004879 0.01894717 0.0027487217 -0.017260157 -0.015935073 -0.018287588 -0.019434953 -0.005693805 0.010125354 0.026487311 -0.0099121565 0.007722231 0.0015362059 0.0005762444 0.019961087 0.006952933 0.024144717 -0.02051994 -0.0072417385 -0.032292 0.007646661 -0.02628113 -0.016940523 0.02274605 -0.01877585 -0.0044968016 0.025669593 -0.0276229 0.010168582 0.017702235 -0.026787257 -0.0064084907 0.024070546 0.01904605 -0.0244319 -0.021171652 0.014880238 0.0064321817 -0.004858248 0.008328497 -0.015547532 0.019853575 -0.009063544 -0.005244789 0.015657885 -0.029055169 0.020708447 0.0044260453 0.01866419 -0.025488522 -0.020538982 0.009397469 0.0042969165 -0.031751826 -0.002449303 0.015955852 0.013800664 -0.013471201 0.015720833 0.024815036 0.02588428 -0.019174078 0.019352658 -0.021667633 0.0003349028 -0.006295567 0.010669967 -0.032816973 -0.0022348461 -0.020622235 -0.025679024 0.016146116 0.003589429 0.008385711 -0.00022756358 0.022624329 -0.010372547 -0.018712742 -0.024834977 -0.024044417 -0.022453366 0.010767404 0.0005003161 0.02288169 -0.013673548 -0.011618294 -0.024106337 -0.009832453 0.02747441 0.0039188266 0.019113118 -0.02009835 -0.017405152 -0.004744087 0.022359855 0.011799766 -0.018218251 0.01170918 0.009350267 -0.017842263 -0.010318208 0.024958603 0.014452593 0.004162324 0.023101222 0.022890596 -0.008941846 0.030212583 -0.016664607 -0.010430849 -0.01597503 0.0110274255
10 0.009026924 0.009147553 0.008891684 -0.004306948 0.005637015 -0.010689574 -0.023723945 0.0237537 0.00015827041 0.0068956832 0.018360205 0.017937148 -0.0046802615 0.017078282 0.02048763 0.013456542 0.01031325 0.02311845 -0.01485552 -0.009254139 -0.02140799 -0.01073756 -0.02582911 -0.02176826 0.0030281488 0.009025372 -0.018028807 0.013874505 -0.01352996 -0.0035278401 0.005379387 0.018429054 0.0152750965 -0.021174645 -0.0036063944 -0.016545746 -0.008356734 -0.01920896 -0.015989535 0.028475871 -0.012759271 -0.010601864 0.018220996 -0.02790173 -0.0048760264 0.009103781 -0.014806632 -0.0031732433 0.02172265 0.016237002 -0.026304483 -0.011341477 -0.00089319085 -0.007289651 0.0054794485 -0.003932519 -0.0077877417 0.002559682 -0.0011703388 -0.019684793 0.0071024396 -0.030060364 0.022128528 0.010727908 0.0178436 -0.02089998 -0.024496075 0.0024023862 0.0004775364 -0.02075936 0.0058442215 0.017880622 0.014393912 -0.006058357 0.019263035 0.025557818 0.027087808 -0.013658043 0.009193303 -0.018696105 0.008988891 -0.0035680805 0.014539865 -0.019538576 0.006260749 -0.023796212 -0.022799192 0.0068931202 0.015934462 0.0055348785 0.008704991 0.016925957 -0.004138728 -0.025794039 -0.020529713 -0.0070844525 -0.024661127 0.024498157 -0.003877104 0.015192149 -0.007249817 -0.0039258734 -0.013149846 -0.008017616 0.013588494 -0.00236216 0.023840366 -0.025312481 -0.006835654 -0.0067086457 0.011585859 0.021007532 -0.023190957 0.013991256 0.0022613876 -0.030976139 -0.021076871 0.022773277 0.008415127 -0.010958949 0.019175708 0.012683272 -0.013403018 0.018794823 -0.01550868 -0.013276472 -0.009121049 0.015655667
11 0.026946012 0.00022431283 0.013853744 -0.011630157 0.02236577 -0.029500807 -0.015184995 0.025675476 -0.0065325336 0.01456626 0.019629378 0.025052378 -0.023225157 0.027671054 0.017695175 0.0062177577 0.0276178 0.021503082 -0.01940737 -0.016824055 -0.028307904 -0.015806643 -0.013545586 -0.012227979 0.023558436 0.02561482 -0.016896227 0.014166614 -0.021533225 -0.0056116367 0.009173853 0.024627253 0.022914397 -0.021078266 -0.003414368 -0.02102149 0.0027283183 -0.022521233 -0.030853983 0.026572911 -0.023329472 -0.0010707469 0.029675884 -0.020011256 -0.006586066 0.012762142 -0.031070152 -0.0035545218 0.029498003 0.02432795 -0.020084955 -0.01777701 0.011653416 -0.00041304092 0.00015785452 -0.018626738 -0.012178006 0.012568021 -0.007272379 -0.022141555 0.016790489 -0.024142932 0.006302985 0.007730661 0.011952944 -0.028366158 -0.023987008 0.012337225 0.025662659 -0.021507774 -0.0062143 0.029874787 0.019843 -0.011290902 0.027829945 0.009719596 0.027104331 -0.031465556 0.01951717 -0.023605186 0.012196313 0.006391811 -0.007419257 -0.031655617 0.007352682 -0.020396024 -0.028857203 0.02467005 0.0113262255 0.0004052302 0.006379319 0.027762424 0.013766696 -0.031722303 -0.020975195 -0.027302235 -0.023092438 0.013171736 -0.0058670877 0.021629984 -0.014765021 0.008297862 -0.020623026 0.001414323 0.024481228 0.010834944 0.020003503 -0.020966923 -0.008953236 -0.004463619 0.016674835 0.013805762 -0.016973922 0.029237257 0.0019117174 -0.02903546 -0.027063427 0.031579748 0.00079669873 -0.014388271 0.015958725 0.01601044 -0.017058488 0.03151361 -0.017249826 -0.021224463 -0.022640133 0.017051661
12 0.007011758 0.02319049 0.023361087 -0.017204585 0.0062942132 -0.007998285 -0.011383016 0.009757653 0.012866277 0.010639434 0.020199925 0.013079449 0.001153735 0.017724743 0.013622134 0.020969998 0.007832074 0.012284584 -0.009304029 0.015292972 -0.00771698 -0.009389481 -0.0043348344 -0.0111952545 0.0039124847 0.0030259117 -0.0065036803 0.013656638 0.0007382499 0.007437456 -0.0070492076 0.017699359 0.01147866 -0.01071011 -0.008117178 -0.005830365 -0.007758358 0.0033264908 -0.01097436 2.9740448e-05 0.009735732 -0.010644094 0.0043987744 -0.0028521265 0.00949488 0.021588702 -0.008688417 -0.028427975 0.007048453 0.009547245 -0.015983487 -0.0146285035 -0.011338631 0.0073211705 0.010051321 -0.016977333 0.006023507 0.0023145569 -0.002669326 -0.008173547 0.020581318 -0.0057080705 0.021974804 0.018781325 0.013370345 -0.010132523 0.0016939286 -0.008675451 0.012559653 -0.0063716546 0.0047928756 0.013883274 0.008871989 -0.02099291 -0.0013649613 0.015167523 0.011193883 -0.014319942 -0.0039713 0.0007273519 0.011619004 0.009078379 0.01514544 -0.007153813 -0.014502034 -0.018226175 -0.014052665 0.009189958 0.008245493 -0.012745729 -0.013428514 0.014469249 -0.009997401 -0.0004074279 -0.004629915 -0.011553604 -0.024083145 -0.0012454331 0.005907262 0.019990472 -0.009811083 -0.011778422 0.0023441867 -0.018364869 0.011906214 -0.0012374494 0.0052811806 -0.027137741 -0.01679438 -0.0039324216 -0.008039096 -0.0059531294 -0.003984711 0.009606092 0.009915159 -0.0065636253 -0.0049161017 0.012820365 0.0068467734 0.0020290227 0.008594796 -0.009468642 0.013095114 0.014975563 -0.010889239 0.009565838 0.0013989803 -2.6453868e-05
13 0.0033428567 0.012379186 0.014436646 -0.015378357 0.0045407633 -0.011537772 -0.009042966 0.014418678 0.01701664 0.015131592 0.020365033 0.022468304 0.0066430084 0.011010319 0.018100996 0.026819848 0.00011083527 0.019783918 0.0052785664 -0.006522565 -0.011083585 -0.004638361 -0.018176178 -0.021918818 0.0044184146 0.0036424424 -0.024082366 0.016376814 -0.012759495 0.01086332 0.0053611514 0.017098404 0.022570614 -0.009491882 -0.0072875475 -0.02007946 0.0027805236 -0.0036113523 -0.021103136 0.0174262 0.006362627 -0.004753671 0.016479203 -0.018510144 0.016286982 0.012291873 -0.019823482 -0.016217308 0.011632669 0.0048203827 -0.0086389845 -0.0049955966 -0.005150763 0.0032134538 0.008866788 -0.008226789 -0.004092071 0.017759832 -0.014958761 -0.0057432363 0.021861162 -0.013065461 0.016705375 0.019250719 0.021710081 -0.008317631 -0.011968604 -0.0074146315 0.021974862 -0.004109123 0.008510452 0.017383121 0.026023453 -0.0108087 0.002424192 0.016322402 0.018839043 -0.0038550938 -0.00068920833 -0.005403646 -0.00012969531 0.0053237886 0.020646915 -0.015354302 -0.008570066 -0.007410519 -0.010444736 0.0018994855 0.021629218 0.0027729948 -0.0114126075 0.014142748 -0.0032756687 -0.018680975 -0.005530667 -0.02376622 -0.016215835 0.0043157833 0.005049475 0.01704285 -0.016832598 -0.0057221027 -0.015542546 -0.008521172 0.011044633 -0.0056373063 0.012038642 -0.021553272 -0.017687628 0.010056007 -0.0009027604 0.0038940436 -0.012022276 0.011565398 0.01011931 -0.0146802375 -0.00367865 0.0043310565 0.007909497 -0.003462391 0.014067 -0.006515623 0.004062855 0.021379609 -0.0071382145 0.006126497 -0.016010666 -0.0016094643
14 0.016270794 0.020210784 0.029180774 -0.020854788 -0.0020248722 -0.02011744 -0.026905335 0.015396602 0.009353525 0.025190994 0.030204883 0.027379658 -0.01725186 0.015906066 0.019897576 0.013228387 0.020680295 0.020851726 -0.016409986 -0.009541302 -0.023598095 -0.02410213 -0.02153382 -0.019517858 0.008171203 -9.821326e-05 -0.020441664 0.017207358 -0.021201733 0.019495508 0.0065294546 0.021594718 0.023914699 -0.015340541 0.0018448873 -0.022649046 -0.005367675 -0.012123003 -0.021175684 0.028437488 -0.008948667 -0.027157584 0.026983587 -0.025951667 0.00993765 0.021997362 -0.024849763 -0.023715759 0.01950013 0.025309019 -0.015855873 -0.019270683 -0.014399319 0.012576825 0.019831993 -0.0119627 0.012089599 0.023636034 -0.0067909285 -0.014097151 0.014570932 -0.026863942 0.020024236 0.01672439 0.022767907 -0.013489907 -0.020518623 0.0015241272 0.018251875 -0.022213947 0.0083638355 0.023715185 0.01966212 -0.010748517 0.013357363 0.016126687 0.011947798 -0.019856496 0.002991969 -0.021000747 0.011221597 0.02509662 0.010389749 -0.024266105 -0.0034125736 -0.018818641 -0.024435531 0.01709636 0.019510899 -0.0072760065 -0.022108557 0.020949433 -0.0025559997 -0.028657008 -0.011753811 -0.015551093 -0.017364211 0.005934738 0.014898054 0.029420346 -0.028824095 -0.008390608 -0.013094677 -0.0056932084 0.009632468 -0.0016855646 0.025336431 -0.017415743 -0.016366642 0.012382646 -0.009173918 -0.0013021021 -0.00826391 0.025876105 0.0027635992 -0.019872796 -0.01943632 0.026649883 0.016266685 -0.028680332 0.02127451 -0.0042862417 -0.01859139 0.025976993 -0.017973816 5.960418e-05 -0.015084748 -0.005987311
15 0.0012445028 0.0030205436 0.009042106 -0.007698534 -0.008553965 -0.020947536 -0.009952087 0.021234557 0.012490051 0.023408514 0.016309032 0.02259037 0.0023560042 0.005299405 0.0052966624 0.021831337 0.011587447 0.019520123 -0.003909755 -0.001396655 -0.01783036 0.0013270432 -0.022893416 -0.016917003 0.009722488 -0.0018593753 -0.009001456 0.013455046 -0.01685961 0.0105557395 -0.0037524262 0.012825029 0.007910728 -0.022223892 -0.011089084 -0.0026517333 -0.0047920025 -0.005019875 -0.021213721 0.0063931253 -0.0013010324 -0.013491625 0.010322372 -0.0092850225 0.018923815 0.02080476 -0.0052162968 -0.023288917 0.014316879 0.011191662 -0.012939836 -0.0054374607 -0.0027634448 0.024069922 0.018470773 -0.014741255 0.008631951 0.02163089 -0.0042781075 -0.004836268 0.011488398 -0.015358664 0.02339095 0.017121239 0.026814029 -0.01577682 -0.019498924 -0.0073372554 0.006332101 -0.011678672 0.02135149 0.02830278 0.020536343 -0.01660837 0.0031255214 0.017017676 0.0078213215 -0.0016680978 -0.0011510259 -0.008406325 0.0019356016 0.0120042255 0.015229616 0.00096782413 -0.016773228 -0.02595935 -0.03019566 0.010142879 0.010560701 -0.008900746 -0.018460019 0.010623369 -0.01714229 -0.011849327 -0.005883313 -0.017457403 -0.016828444 -0.0022425984 0.008376115 0.018092424 -0.024597999 -0.0074708783 -0.005705344 -0.020433286 0.009592504 -0.008427152 0.00586276 -0.006235642 -0.02221528 0.013049159 -0.008980865 -0.0062921247 0.001186104 0.012242745 0.02026597 -0.016944205 -0.009859723 0.006904428 0.014280613 -0.009779546 0.023929428 -0.008565195 0.0026503433 0.0019640366 -0.016967159 0.014488376 -0.009768086 -0.0032233205
16 0.012043866 0.021590061 0.02350325 -0.020012502 -0.0005115501 -0.018274965 -0.025369713 0.021255689 0.0020134791 0.008119945 0.02170186 0.014076341 -0.003629895 0.017878272 0.027873175 0.007729029 0.02274965 0.0041375244 -0.021023398 -0.0026412588 -0.023624182 -0.012996023 -0.013781216 -0.025061784 0.022751162 0.00087762414 -0.0003697346 0.012044183 -0.019066904 0.011658261 -0.0046741227 0.015046824 0.024952425 -0.017994871 -0.010220688 -0.014396161 -0.007984105 -0.012619751 -0.02443716 0.020354878 -0.00034383673 -0.011208228 0.016218979 -0.018677436 0.016403658 0.007448264 -0.01692469 -0.022595648 0.021800216 0.029010717 -0.008778052 -0.012652944 -0.016021984 0.0040530865 0.018300343 -0.009758678 0.008072761 0.00741282 0.009130632 -0.02418696 0.0143621275 -0.00689683 0.017959308 0.021796934 0.012205015 -0.012750078 -0.008945801 -0.008149184 0.024966693 -0.006517772 0.0002917557 0.016188456 0.019377032 -0.003862787 0.017535508 0.0022464301 0.007896448 -0.0056482716 -0.0071918294 -0.027775401 0.005155959 0.022159234 -0.0003524128 -0.018893238 0.0039226576 -0.016538203 -0.020677213 0.011698518 0.011901087 -0.013367065 -0.010492136 0.010862737 -0.0067741694 -0.014630897 -0.021223221 -0.024362644 -0.009966801 0.010994852 0.01571234 0.0073617552 7.4965006e-05 -0.0057142996 -0.013918211 -0.01838449 0.005841164 0.003982658 0.017189708 -0.014730067 -0.012554252 0.008402308 -0.0050323117 -0.011620992 0.00070157007 0.013430248 0.0038125287 -0.008957482 -0.017956968 0.017731847 0.011869899 -0.016740823 0.007395113 -0.016718429 -0.01416003 0.015335408 -0.009595378 -0.00021903301 -0.0055774776 -0.005233051
17 0.018479533 0.01956674 0.011271606 -0.0072514215 0.008427171 -0.01917454 -0.020763615 0.01706749 0.008771189 0.019513037 0.014033997 0.008043008 -0.00880032 0.026369922 0.020728413 0.013326281 0.007011231 0.022043142 -0.02666182 -0.012856485 -0.009727807 -0.013841274 -0.020524377 -0.00979779 0.011038677 0.015485938 -0.028027523 0.026951008 -0.01989305 0.011649427 -0.00540631 0.019679062 0.019634228 -0.014370294 -0.00042416953 -0.014164697 0.011167544 -0.016819756 -0.022037948 0.011544417 -0.009181556 -0.013286322 0.01880243 -0.015676545 0.0016112695 0.016110541 -0.023935383 -0.012428775 0.017228814 0.02113592 -0.021809762 -0.016547518 -0.011398512 0.018066296 0.028097184 -0.0031107254 -0.0018749286 -0.006503281 0.01180152 -0.012697409 0.0059953798 -0.013220025 0.016409852 0.008738345 0.00010231219 -0.009102087 -0.007950406 -0.011664554 0.02178468 -0.010675159 -0.009625605 0.017644668 0.012582674 -0.020121144 0.027292589 0.013867026 0.010601557 -0.00014126272 0.0077079018 -0.022711676 0.018874032 0.01643047 0.018614605 -0.019168235 0.0041206684 -0.007976244 -0.012281701 0.0082326885 0.0059080445 -0.014153589 -0.01022024 0.021144085 0.014252371 -0.016930135 -0.011047013 -0.02254419 -0.021034278 -0.0013047399 0.014329744 0.02260619 -0.018311758 -0.0041644243 -0.006043992 -0.0015964565 0.011455647 0.009241106 0.010502925 -0.018415064 -0.022898031 -0.0033427032 0.017208546 -0.0013513 -0.015164372 0.01533278 0.010504818 -0.02204985 -0.016948277 0.016766775 0.010722759 -0.01602084 0.0108638955 0.0060897428 -0.004887866 0.013151191 -0.01777888 -0.017211229 -0.003480427 0.014823838
18 0.020129442 0.022045625 0.023818124 -0.0156562 -0.011586488 -0.0116055515 -0.023562033 0.017506162 0.013223908 0.025591232 0.015511322 0.010767473 -0.010376065 0.026843607 0.01221683 0.0042432044 0.024599267 0.01679688 -0.01035407 -0.011432557 -0.025665121 -0.016527224 -0.0147158615 -0.019277915 0.02351295 -0.011553945 -0.016016485 0.019773439 -0.023650547 0.012716975 -0.0072048004 0.024591286 0.019142278 -0.015251202 -0.023874482 -0.02031571 -0.009576828 -0.009652469 -0.017931003 0.02370971 0.013632737 -0.021360954 0.018146317 -0.016883975 0.0060355426 0.021459261 -0.021461586 -0.019469248 0.012211467 0.026525475 -0.01516959 -0.012311537 -0.01150502 -0.0062821237 0.0241307 -0.017563865 0.023101846 0.012762496 0.0027831635 -0.026516948 0.025501633 -0.007305318 0.02684858 0.018552952 0.014910108 -0.00835057 -0.013390908 -0.023995632 0.021234533 -0.007802002 -0.00028242893 0.008074169 0.006843889 -0.010808075 0.02057253 0.011137928 0.014224675 0.00907454 -0.004100135 -0.028137032 0.021221941 0.025854228 0.015501384 -0.017222963 -0.0009937703 -0.012086597 -0.01666289 0.019325787 0.014043934 -0.01181008 -0.027011488 0.020395815 -0.0052075116 -0.02211039 -0.012204335 -0.0146512445 -0.017530544 -0.02032442 0.018805066 0.013165829 0.00095860823 -0.014841123 -0.01815699 -0.018538907 0.00792426 -0.00668084 0.025975127 -0.013366859 -0.0089318985 0.028805936 -0.01878048 -0.015025857 0.017056456 0.012317189 0.019162368 -0.007705325 -0.024644125 0.025042346 0.0005340348 -0.011480589 0.021603646 -0.016955387 -0.016880443 0.02026895 0.0017339132 0.0029879543 -0.0017122386 -0.014243057
19 0.0024708007 0.007487285 0.012178471 -0.022232488 -0.014688462 -0.006812743 -0.002379749 0.013468536 0.031355765 0.028048247 0.020078428 0.028269432 0.0099053215 0.017412849 -0.0022984454 0.017096706 0.015413476 0.014294606 -0.010112134 -0.0010664654 -0.02099628 0.010103986 -0.0022333986 -0.02440294 0.018112658 -0.013540527 -0.021138428 0.0013966063 -0.010730788 0.016043402 -0.024380814 0.022456206 0.032386586 -0.021147517 -0.020259766 -0.019290134 -0.0025048484 0.015044459 -0.00754664 0.010799261 0.016807264 -0.0036581443 0.012181562 -0.008994065 0.018002441 0.027846135 -0.0077075353 -0.02947452 0.017419899 0.015392916 -0.0041191084 -0.0008507198 -0.006953398 0.003021772 -0.002379293 -0.022505222 0.017522536 0.016021676 -0.0092007425 -0.021975245 0.012985189 -0.011789595 0.029419284 0.024363842 0.02773159 -0.0024587777 -0.029526256 -0.014951434 0.007035002 -0.0046151252 0.016325055 0.0051110853 0.023763077 -0.021979105 -0.007901351 0.0038373445 0.01004301 -0.0098950695 0.008161113 -0.00664898 0.016315045 0.020128984 0.0035782256 -0.014384305 -0.009535492 -0.012726121 -0.029820547 0.00051502656 0.016932199 -0.023394056 -0.030799717 0.030545425 -0.016833682 -0.0007215037 0.00477035 -0.030115243 -0.004214457 -0.016976021 0.016018163 0.0084686335 -0.017043618 -0.024234671 -0.029282592 -0.032038786 -0.0024087843 -0.027577033 0.0029256262 -0.028796053 -0.023607584 0.03057014 -0.008358636 -0.017174713 0.0074531585 0.0062491097 0.014831982 -0.018920112 -0.009644965 0.024497602 0.02270061 0.008285403 0.030091789 -0.02313212 0.0123748155 0.0071027814 -0.02836986 0.022256134 -0.007817754 -0.021555122
20 0.025941126 0.02584544 0.013982472 -0.011436932 0.014464523 -0.009137485 -0.019164732 0.012520378 0.019713696 0.014453029 0.013080446 0.017593285 -0.013328342 0.028440071 0.023879388 0.008963561 0.019792706 0.025845848 -0.023906786 -0.010154288 -0.021222223 -0.019936934 -0.011195545 -0.025647476 0.015290764 0.0053917426 -0.024480043 0.023370417 -0.019250626 0.0041447496 0.0062017282 0.013855689 0.023662735 -0.019925635 -0.0035632076 -0.026027244 -0.010251197 -0.018303094 -0.024035633 0.023591164 -0.005675667 -0.015788207 0.019011782 -0.01490324 -0.002009627 0.02886962 -0.009041739 -0.013719378 0.025106445 0.024310306 -0.026745738 -0.016161412 -0.006132217 -0.0029932964 0.0024206403 -0.009123416 0.016700232 0.010535186 -0.00010159775 -0.025555884 0.01903975 -0.029239157 0.029388865 0.009370828 0.020282218 -0.02663596 -0.019822586 -0.01323932 0.030426562 -0.021922953 0.0030500866 0.012436111 0.02078595 -0.009849721 0.016794613 0.019288642 0.015064589 -0.0159029 0.008329624 -0.021173147 0.0081356885 0.0075767282 0.025801294 -0.018233625 0.0007536734 -0.0068621133 -0.02714026 0.024391506 0.017429478 -0.017569521 -0.013495749 0.024532158 -0.0018385784 -0.01656784 -0.010318787 -0.018546883 -0.020215038 0.0035118712 0.017972792 0.028672481 -0.017422885 -0.0026283516 -0.013916899 -0.0072621657 0.0149476845 0.0027762812 0.020229839 -0.025038606 -0.01725578 0.013973483 0.0017752136 0.0091919 -0.013317472 0.014557109 0.016249217 -0.02467566 -0.014765391 0.025067063 0.0045744283 -0.0018433474 0.019232797 0.0005798116 -0.010475317 0.02376378 -0.014554349 -0.01896921 -0.015274915 -0.0033788253
21 0.006569026 0.011512038 0.008833544 -0.027237006 -0.013880429 -0.0055495496 -0.011309508 0.018812802 0.015502638 0.026773926 0.006998308 0.013634371 -0.0037534807 0.024943884 0.0075803194 0.018461257 0.0147222625 0.011937103 -0.017294742 0.004622992 -0.02079746 -0.01252527 -0.015874565 -0.015394795 0.007999196 0.012466055 -0.017601497 0.011868473 -0.018920124 0.013789605 -0.0025129872 0.025955217 0.018839698 -0.02064823 -0.0119066015 -0.014985183 -0.006044651 -0.0024993317 -0.016712897 0.01567635 -0.007089859 -0.01721933 0.015562502 -0.015401974 0.024869401 0.03077389 -0.013770693 -0.029052094 0.014443971 0.012875706 -0.02607577 -0.014637055 -0.017286519 0.023506165 0.027898706 -0.027512217 0.024000978 0.024578823 -0.0069353245 -0.014559803 0.019832496 -0.008120415 0.015574732 0.023621848 0.024219394 -0.019588482 -0.025982382 -0.0037446965 0.020695053 -0.009521939 0.012125588 0.023410814 0.016052276 -0.028437303 0.009563982 0.018029224 0.018413657 -0.015965473 0.000910217 -0.012549471 0.018429788 0.02563743 0.0141816735 -0.009582484 0.005708102 -0.022090679 -0.013072226 0.010558597 0.015719755 -0.024851276 -0.016235333 0.019318657 -0.007031392 -0.018611439 -0.0043537384 -0.016571786 -0.016547108 0.001168679 0.025749642 0.011284452 -0.021156948 -0.0010442634 -0.013223607 -0.015400849 0.010900104 -1.36424205e-05 0.0071341554 -0.02004042 -0.014540198 0.013773014 -0.015076109 -0.002000767 -0.0049758493 0.02027804 0.0021014696 -0.008548534 -0.012589297 0.023193277 0.019275302 -0.011007375 0.006321788 -0.015491984 -0.018507838 0.01579287 -0.016573943 -0.004956001 -0.01760345 -0.006964877
22 0.013499036 0.023913855 0.016722027 -0.019491948 0.0073167323 -0.023460515 -0.006363569 0.02015983 0.013528573 0.020418553 0.027539631 0.022668656 -0.0058067096 0.022996437 0.018711248 0.028988024 0.016797246 0.024144964 -0.013895433 0.00184316 -0.012352955 -0.013681342 -0.0155096715 -0.01688516 0.016124949 0.007889485 -0.017051427 0.027937239 -0.02489019 0.011449307 -0.0055862316 0.020578764 0.012995667 -0.0063950755 -0.01164839 -0.010538694 -0.0054569393 -0.007954658 -0.020555314 0.015357175 -0.0061087366 -0.015795013 0.01327459 -0.00800262 0.0042470912 0.01653672 -0.02488733 -0.023529222 0.016086625 0.027300673 -0.017431896 -0.007575079 -0.015709298 0.009172187 0.026533157 -0.018867778 0.0053842105 -0.0012735084 0.01221266 -0.0099073555 0.020179925 -0.011902574 0.02845113 0.0062058815 0.015031998 -0.01635168 -0.01585989 -0.012511702 0.020640628 -0.015172155 0.007302988 0.021695219 0.009605853 -0.018013364 0.0062296935 0.017413724 0.023551712 -0.0012941514 0.0064948634 -0.014791118 0.017861841 0.025068179 0.019329222 -0.014629047 0.0022145836 -0.017976841 -0.026864754 0.01973479 0.008983113 -0.021182537 -0.014772519 0.010020173 -0.001517105 -0.023964992 -0.01615074 -0.012690008 -0.011094688 0.004754047 0.007966256 0.030388175 -0.013411287 -0.012901168 -0.008942251 -0.012190527 0.019019965 -0.005332886 0.011483928 -0.010662466 -0.01860879 0.005051074 -0.0027339808 0.0031306667 -0.013743582 0.017244104 0.015893862 -0.017211271 -0.019220317 0.01364278 0.021059683 -0.025680978 0.025762755 -0.00042973083 -0.0046552285 0.013087203 -0.016811458 -0.013601029 -0.02443922 -0.005601913
23 0.018458474 0.026037823 0.02216752 -0.017426992 0.0075123995 -0.021536598 -0.02039361 0.01157094 0.012198092 0.02223843 0.012543177 0.025897734 -0.01508718 0.023399327 0.020410834 0.0120279845 0.02240808 0.027866218 -0.023797674 -0.016070236 -0.02484244 -0.017658228 -0.023053167 -0.015229618 0.017237218 0.0060966434 -0.030267483 0.028138563 -0.014214326 0.00650724 0.0004742412 0.019238073 0.015823836 -0.019909441 -0.00052595424 -0.022539832 -0.0031860534 -0.010228139 -0.01932697 0.028482724 -0.008147715 -0.018245395 0.026836015 -0.021772366 0.0038475418 0.024485422 -0.021693515 -0.013246889 0.027844196 0.028442632 -0.027635105 -0.012770982 -0.009763633 0.005870216 0.0111148665 -0.017537778 0.017037818 0.018077016 -0.013114202 -0.019866886 0.01805486 -0.02359299 0.027223239 0.022294458 0.02655423 -0.027270269 -0.025683971 -0.0036977145 0.016596638 -0.018448327 -0.00057211245 0.023638258 0.010108509 -0.011629281 0.013512845 0.006796273 0.014921214 -0.020915972 0.0073229275 -0.028732523 0.014463408 0.025554702 0.0064961864 -0.014785264 0.002823794 -0.019385567 -0.03110077 0.020148389 0.022738548 -0.015639992 -0.02203283 0.025885757 0.004873161 -0.028441453 -0.020228665 -0.024414929 -0.025380941 0.013441231 0.013422753 0.024382137 -0.008535528 0.0009276483 -0.023246214 -0.010666897 0.0057845837 -1.9143241e-05 0.018840812 -0.030178415 -0.028216317 0.020016931 -0.00033199193 0.012108309 -0.005860024 0.015027052 -0.0062168245 -0.015660465 -0.01589407 0.017781492 0.0036322759 -0.017744081 0.016855141 0.0042523025 -0.011856289 0.023048192 -0.01628131 -0.014235351 -0.01987037 0.00075510173
24 0.016502384 0.01470954 0.021342259 -0.026924446 -0.0069707907 -0.021322843 -0.01919598 0.021701006 0.016002601 0.015898008 0.012575061 0.022630557 -0.008031381 0.01889002 0.025220605 0.023206932 0.024368558 0.027261455 -0.0263736 -0.020206721 -0.015775772 -0.013755907 -0.030319672 -0.01972627 0.0072717937 0.0022611239 -0.017649889 0.0289793 -0.019735875 0.005853449 -0.008044704 0.02718411 0.027441792 -0.02683666 -0.0014950725 -0.012909163 -0.01040519 -0.005555005 -0.026984073 0.024176689 -0.0075157 -0.02292418 0.023802422 -0.013105925 0.013048386 0.016872372 -0.024148626 -0.012115056 0.024776474 0.027523302 -0.016719213 -0.014820135 -0.012611384 -0.00045146904 0.02541697 -0.01885141 0.017544625 0.006883305 -0.0006948252 -0.020280931 0.014528598 -0.01580626 0.024902608 0.022111638 0.020948946 -0.021568177 -0.016861953 -0.0033931301 0.014808806 -0.018805979 0.0006267605 0.017003762 0.029597135 -0.019983904 0.024116183 0.0063686506 0.01209141 -0.019460434 0.008796928 -0.025405973 0.017603649 0.010843561 0.010494437 -0.026605109 0.007249989 -0.02804497 -0.028612578 0.014176056 0.027910557 -0.016294021 -0.024846468 0.02725261 -0.0033210542 -0.020622473 -0.017129928 -0.026174799 -0.017072473 0.009560243 0.011685296 0.018518355 -0.028994653 -0.0077017522 -0.01949115 -0.016410476 0.018192194 -0.005800355 0.02298715 -0.019180287 -0.027801322 0.030078836 -0.005235398 0.0029385851 -0.00985393 0.025122104 0.007392479 -0.027097786 -0.01857205 0.020961389 0.012468184 -0.020434896 0.019708192 0.0012432449 -0.015035015 0.027415792 -0.021292023 -0.0016444449 -0.024866648 -0.01613145
25 0.020065881 0.026630927 0.030559022 -0.026929598 -0.0012296365 -0.023556175 -0.025425136 0.022841685 0.016259436 0.021139158 0.014452206 0.022686042 -0.0054175137 0.030545218 0.022800928 0.02133774 0.01918573 0.028994387 -0.012003263 -0.008673426 -0.030818878 -0.022460071 -0.016544783 -0.021242853 0.021274975 0.020101087 -0.021223584 0.0332862 -0.029467024 0.020202383 0.0055357283 0.013143263 0.011479052 -0.017197598 0.004080352 -0.018547025 -0.0031153017 -0.015037252 -0.030834842 0.019589514 -0.015008347 -0.027090134 0.020443017 -0.027259182 0.003418216 0.014138628 -0.03272796 -0.028043447 0.025034094 0.031526256 -0.020992959 -0.022022052 -0.021075778 0.015284843 0.026488807 -0.0036994554 0.00173003 -0.00041558157 0.005748452 -0.02023172 0.017502608 -0.019839088 0.03313662 0.008113865 0.013015314 -0.030353205 -0.010114795 -0.01596056 0.029223433 -0.017263986 0.0037167124 0.025136484 0.0019686562 -0.024501106 0.01705725 0.017123269 0.020389615 -0.007859072 0.0069841193 -0.026415642 0.026158886 0.014190515 0.016218688 -0.025318934 0.01006562 -0.0154930325 -0.018182877 0.026138334 -0.0032336034 -0.015346052 -0.016523028 0.020369297 0.012415645 -0.025084784 -0.015457514 -0.025590418 -0.020557204 0.0029625646 0.011421221 0.022226227 -0.023838937 -0.0015913302 -0.028356925 -0.006014857 0.01595972 -0.002027394 0.024579301 -0.015437169 -0.01361669 0.00042055317 0.013213916 0.0032171686 -0.015948951 0.027068365 0.02544617 -0.028684536 -0.023146506 0.03231427 0.020781292 -0.013551562 0.019311659 -0.00028932648 -0.014141522 0.025407873 -0.010191862 -0.016232632 -0.008861365 0.01147961
