26 128
0 -0.011066482 -0.0043925284 -0.0045572594 0.0052906303 0.0026044624 0.0017912018 -0.0054808166 0.016621493 -0.0014976291 -0.0152267525 0.0011940554 0.010485256 -0.0006355938 -0.012746049 -0.0053881533 0.0045994828 -0.0069580637 -4.6534726e-05 -0.01814363 0.015829721 0.023464845 0.008377041 -0.009057438 -0.0012477121 0.013374435 0.0073590665 0.006941259 0.017029248 -0.0006270314 -0.019318774 0.010261929 0.022211544 0.015709186 -0.0036733237 0.018202167 0.012757206 -0.0044161174 0.0067347 -0.01867931 0.010891562 0.00446275 -0.0067856843 -0.011507486 -0.021584833 0.009931639 0.004923032 -0.005537957 -0.014309921 0.007081876 -0.012177766 0.0028744796 0.0089609735 0.00659963 -0.0045532174 -0.0020382272 0.0043158536 0.005026445 -0.006113165 -0.012060178 0.012010231 -0.0122754695 0.0051564565 -0.0052971467 -0.018331543 0.019562671 0.02750116 0.00015053779 0.0034429207 0.013981635 -0.007382782 0.018928986 -0.0030327397 0.019015932 0.0026577038 0.0043448093 0.01523553 -0.015595345 -0.016072815 0.0057742363 -0.006926502 0.0118164 0.00812299 -0.012077533 -0.012806175 -0.0031630192 -0.014683202 -0.0126449475 0.0004400498 -0.009235662 -0.010972097 0.00955307 0.003482102 -0.0050938297 -0.012084637 -0.0029441237 0.01270875 -0.013972954 0.0064194766 0.013102612 -0.01456045 -0.008212378 0.015364124 -0.018757783 -0.003028557 -0.0028853714 -0.0013437328 0.005510262 0.017259367 -0.017356155 0.011772466 -0.011570499 -0.017758217 0.007312767 0.0087407185 -0.007730124 -0.01560653 -0.014457268 0.0007295324 0.0035802978 -0.011079837 0.018855477 -0.003474351 0.010109558 0.0107559515 -0.012601315 -0.008287286 -0.0045766295 -0.020381516
1 -0.02196074 -0.024794903 -0.013640607 0.025113573 0.018906213 0.013933124 -0.01829946 0.021860026 -8.642487e-05 -0.017841747 0.0147166 0.0030882154 -0.014542064 -0.009493953 -0.021270998 -0.0034045717 0.005397523 -0.012469001 -0.02243506 0.02450879 0.024244983 0.025280068 -0.014312463 -0.015231063 0.014469565 0.009308561 0.011182141 0.021645732 0.003846677 -0.027247973 0.023685884 0.00553404 0.022960754 -0.024774903 0.016049068 0.0143485805 0.024199797 0.029735098 -0.02356366 0.018694453 0.02339062 -0.02484792 -0.02407274 -0.017235674 0.020004755 0.027077006 -0.019871734 -0.009870148 0.00526427 -0.020460924 0.017441554 -0.0035227034 0.00094047 -0.019055244 -0.0033787275 0.0004461361 0.012872213 -0.014296209 -0.023385251 0.024473233 -0.028167313 0.0068357447 -0.003965135 -0.026328115 0.029139614 0.017215736 0.017224664 0.010472987 0.004087341 -0.02742484 0.02387986 0.0076552834 0.008754809 -0.020329235 0.025526926 0.026365057 -0.0072708875 -0.025345422 -0.005761748 -0.020152435 0.011140377 0.022407563 -0.021711083 0.000847019 0.007449713 -0.013782518 -0.021381851 -0.011501107 -0.022856534 -0.018164895 0.01881779 0.025380753 -0.014685273 -0.018519986 -0.020511677 0.0063695554 -0.03009552 0.021816872 0.012780718 -0.02603288 -0.023555476 0.024604589 -0.028368829 -0.016102659 -0.023900287 -0.021434989 -0.001816331 0.025763813 -0.017515058 0.017221266 -0.021287765 -0.02536758 0.011826012 0.014059242 -0.02186848 -0.022282686 -0.023995742 0.016133243 -0.0056387847 -0.01808069 0.020745695 -0.00026519885 0.0129902195 0.008564574 -0.017748239 -0.026678776 -0.014170574 -0.026427876
2 -0.011357611 -0.018484803 -0.02173293 0.023384787 -0.0009456172 0.014008424 -0.010908793 0.018460926 0.011761443 -0.013824094 0.016791109 0.010759303 -0.01550148 -0.009722032 -0.0067647425 -0.0039727213 0.005101229 -0.015644675 -0.02289309 0.019925904 0.012682371 0.027284019 0.001593725 -0.009419651 0.013698961 0.005666819 0.015541678 0.020871513 0.004900159 -0.015129404 0.014010969 0.008302913 0.011179877 -0.015136983 0.021425392 0.02224838 0.020396072 0.015467255 -0.008814901 0.022675537 0.020693086 -0.016176978 -0.018851602 -0.015165386 0.016556708 0.017938947 -0.0166034 -0.0091500105 0.0014070987 -0.029492645 0.02022981 -0.00064377603 0.016314466 -0.018816069 -0.008308063 0.0017460531 0.024881255 -0.0208925 -0.022437818 0.023160417 -0.025116311 0.01223107 0.0019372903 -0.015354337 0.019472746 -0.0016158479 0.0017508072 0.012880047 0.0072248983 -0.026376463 0.015411547 0.0070254058 0.00436274 -0.00946977 0.020859988 0.0074842973 0.0155190565 -0.022059478 0.006372874 -0.025330298 0.01571358 0.01927123 -0.025521575 -0.007431857 -0.0073997476 -0.018066198 -0.010910286 -0.0246615 -0.016995223 -0.017956465 0.016229792 0.026081305 -0.019288832 -0.015184348 -0.024219604 -0.0038647994 -0.0075330096 0.009378689 0.020150583 -0.017098267 -0.016930165 0.014401134 -0.013598543 -0.010473857 -0.01611306 -0.019463934 -0.003908637 0.021053975 -0.0061981673 0.017483994 -0.0047279047 -0.009347767 0.0042894324 0.016253134 -0.012362468 -0.020810418 -0.017237866 0.025264828 -0.010385842 -0.012561087 0.017811218 -0.007791917 0.014332048 0.016468026 -0.014186095 -0.017208356 -0.009580137 -0.016273683
3 -0.012966614 -0.01706763 -0.011204466 0.009335071 0.02090524 0.0037631763 -0.011945194 0.018875882 -0.00086172076 -0.010475406 0.009648403 0.0064058984 -0.009657266 0.0047370037 -0.009505737 -0.009391167 0.0018086578 0.00059633475 -0.020504039 0.003147812 0.014139849 0.019344056 0.0025021632 -0.004158337 0.012388754 0.014514947 0.016558323 0.01374269 0.008139287 -0.011181543 0.0038591668 0.01726924 0.0073184576 -0.012740812 0.017964946 0.013854706 0.023626521 0.023309926 -0.012264048 -0.0008336804 0.005497324 -0.011713898 -0.01162674 -0.00921707 0.008063496 0.020064661 -0.0067401826 -0.0039158612 0.0067839045 -0.020304596 0.015203654 -0.00078418996 0.0078984825 -0.013860171 -0.00056375493 0.0051345103 0.016435722 -0.0043807263 -0.014230067 0.012727317 -0.014467427 0.0028699527 -0.0007993651 -0.018644135 0.012091297 0.010868626 0.0002720498 0.0015216537 -0.0022092804 -0.011986005 0.012761545 0.00056067517 0.0066580866 0.00082335656 0.023051444 0.016300531 0.000729931 -0.0066738725 0.0003913626 -0.018902864 0.019202944 0.009298346 -0.017907964 0.007541244 0.0017197253 -0.021189999 -0.010443763 -0.012593397 -0.01316071 -0.0041118064 0.021225516 0.010647615 -0.012615964 -0.013084633 -0.008241252 -0.007042227 -0.015827749 0.006712281 0.010280126 -0.015158387 -0.013898515 0.013746147 -0.015553617 -0.005080155 -0.007169656 -0.011052234 0.0052554477 0.012441661 -0.005811423 0.004440702 -0.0048845247 -0.01901903 0.007843017 0.007837626 -0.0058823084 -0.00024067951 -0.0087856045 0.0039487137 0.0019393937 -0.0073489607 0.017145796 -0.001749091 0.014900538 0.021707319 -0.015212792 -0.011589566 -0.010570008 -0.014792295
4 -0.016549839 -0.013965016 -0.0135635305 0.02194771 0.01768191 0.013565691 -0.0029625748 0.018821508 0.01852413 -0.0027148237 0.014771828 0.019265836 -0.016630499 0.012706213 -0.011940861 0.0042918804 0.010193165 0.009727329 -0.023065733 0.007868806 0.01046975 0.0067444015 -0.011459115 -0.008505853 0.0049466677 -0.003751956 0.011868037 0.013069242 0.014920881 -0.016179314 0.009133318 0.018696439 -0.0015391612 -0.017737107 0.021508927 0.0049366327 0.018055093 0.01897679 0.0008945112 0.012996179 0.0026868929 0.0009905577 -0.007292891 -0.0033357276 0.015152264 0.0060893064 -0.020254709 -0.009493548 0.021517273 -0.015547637 0.015808316 -0.017557405 0.00071647327 -0.0072435215 -0.012658187 0.016732441 0.0026942969 -0.014842179 -0.020354744 -0.0028704521 0.0005508209 0.016999844 -0.01919414 -0.0012761967 0.01192 9.979517e-05 -0.015221875 0.0014198942 0.007244873 0.00084919576 0.018920925 0.006279639 -0.013252102 1.2324657e-05 0.019679666 0.012540982 -0.0047967806 -0.016095743 0.011307877 -0.018333524 0.011517994 0.0010784141 -0.0059805717 -0.008257687 -0.008362552 -0.017775409 -0.010309693 -0.0027923603 0.00037840335 -0.0065404824 0.022451706 -0.0014327478 -0.009936476 -0.009768228 -0.010616443 -0.0012681866 -0.016309643 0.0025071467 -0.0022206593 -0.0017525993 -0.012188293 0.0031345722 -0.0047846744 -0.00654353 -0.008792325 -0.0071783056 -0.0016645064 0.014432466 -0.0025364975 0.0034019155 -0.0048715323 -0.012910823 0.0075451583 0.011237063 0.0021955254 -0.0004874423 -0.0009844105 0.009765075 0.0088814935 -0.012314292 0.023836292 -0.017993009 -0.005805489 0.0043116375 -0.008766877 -0.009795696 0.0043144585 -0.016217573
5 -0.015675608 -0.0013882874 -0.014367833 0.008608672 0.0081352135 0.017654138 -0.006888984 0.010597053 0.010641626 -0.008039705 0.012194004 0.014183825 -0.0073465784 0.0023130008 -0.010106968 0.010223277 -0.0010944363 0.010485334 -0.013490326 0.0043287505 0.021276718 0.0070043025 -0.010332038 0.0020861737 -0.008099064 -0.002709292 0.01361611 0.0053414875 0.009699697 -0.010048342 -0.0024061152 0.019100448 0.011062466 0.0016554064 0.00448848 0.007879192 0.022125987 0.02540265 -0.0031547388 -0.0039760745 0.005301216 0.003756195 -0.016687702 -0.01049927 -0.002399502 0.004090172 -0.014408411 -0.0016997333 0.016277205 -0.015304542 0.004523697 -0.006984433 0.009841489 -0.009136661 -0.011771378 0.0070916964 0.0024566546 -0.01879768 -0.013691828 0.0023107005 -0.009118786 0.012749096 -0.020479644 -0.0013328707 0.010171497 0.0034329384 -0.0032434305 -0.008758776 0.004836539 -0.0056505706 0.011595416 0.00766067 -0.015222679 -0.010592553 0.021965774 0.011216714 0.0026629963 -0.0036649592 0.006864384 -0.011749864 0.0024855074 0.0023123778 -5.6215853e-05 -0.006330908 -0.018049525 -0.0055289646 -0.0072716055 -0.01436456 -0.00392048 0.0013031925 0.012063084 0.0029983276 -0.011805336 -0.0010164329 -0.014605328 -0.0071698963 -0.00852046 -0.0015124443 0.0068096044 0.0021875305 -0.012238371 0.010639665 -0.007334953 -0.011395231 -0.0011509453 -0.006629419 -0.01596596 0.011543625 0.0130122 -0.0037893201 -0.0043927906 0.0004875108 0.024568755 0.014895504 -0.010323067 -0.013588644 -0.0013122363 0.017612018 -0.008771808 0.0037555322 0.012476361 -0.0131841265 0.007004352 0.009368589 -0.01253439 -0.005021389 0.0073826504 -0.0057612453
6 -0.016656436 -0.018730447 -0.015707055 0.02517547 0.012159823 0.00804963 -0.008947857 0.018469365 0.010375051 -0.012561898 0.018032154 0.0199651 -0.013404754 -0.012446951 -0.017309407 0.0038853916 0.0083923945 0.008798435 -0.014315627 0.017600581 0.014734161 0.0093750395 -0.009479856 -0.0079854615 0.0016993015 0.009594053 0.015945692 0.01862767 0.014678474 -0.027091557 0.0058452883 0.02228127 0.014944003 -0.022249347 0.024896115 0.014926482 0.025584035 0.012527149 -0.0032685832 0.01697147 0.011522012 -0.001923114 -0.017173028 -0.010021762 0.007606378 0.018644216 -0.013937814 -0.01203177 0.012654219 -0.017981388 0.012818665 -0.016884783 0.0070704734 -0.003548097 -0.017249504 0.009072286 0.02054572 -0.017826349 -0.014939589 0.010841947 -0.011257023 0.015137728 -0.019280365 -0.009558319 0.025974244 0.0077149165 0.005766887 -0.0066617248 0.0011996288 -0.012214926 0.014158636 0.010529088 -0.013259765 -0.0073483824 0.015197009 0.02799132 -0.0076380824 -0.0127142435 0.01678845 -0.020874256 0.022371903 0.0027052565 -0.01947842 -0.016240992 -0.016777823 -0.011188552 -0.020124942 -0.010129239 -0.009160316 -0.018372335 0.015366641 0.0060461354 -0.016808337 -0.01848746 -0.015246908 -0.0089235 -0.026256453 0.01658873 0.00326298 -0.0060168994 -0.022830578 0.019634942 -0.014200866 -0.008430879 -0.018881628 -0.012650109 -0.003401689 0.015627868 -0.003252782 0.012502272 -0.0028749534 -0.023045782 0.014235404 0.022716453 -0.009613723 -0.021822339 -0.017935462 0.0193729 0.003295669 -0.014624688 0.02413073 -0.008515817 0.00791231 0.0012561474 -0.026812254 -0.022384679 0.0066571976 -0.020121388
7 -0.011988979 -0.012011784 -0.024041839 0.02173801 0.004975467 0.011795156 -0.016487382 0.020002855 0.010663731 -0.010776306 0.016315393 0.01986288 -0.014500197 -0.0012450143 -0.005458694 0.005630952 0.0055705337 0.007706738 -0.021681229 0.019601554 0.013573526 0.013265127 -0.018415995 -0.0021300502 0.016684508 0.0040197405 0.025252512 0.007847744 -0.008755438 -0.014626101 -0.0025291545 0.021074023 0.023283968 -0.020480083 0.014738517 0.02527016 0.021239588 0.023814745 -0.0014333521 0.013449806 0.008812162 -0.011227666 -0.020429954 -0.008125912 0.014918214 0.009028911 -0.0077936472 -0.016923947 0.008068076 -0.011110557 0.005627728 -0.010955131 0.006675837 -0.014407203 -0.018806042 0.0040081963 0.010259739 -0.02162662 -0.014211571 0.01178327 -0.01847966 0.02324918 -0.012170367 -0.007208116 0.02479842 -0.0024754805 -0.0015464892 0.0062439805 -0.011669704 -0.006391925 0.020421343 0.008472568 -0.0060924646 -0.007962752 0.019873679 0.0070010354 -0.013317332 -0.013725991 0.007765424 -0.025915833 0.0068174633 0.0052806637 -0.017962547 -0.013787627 -0.0053310394 -0.02198485 -0.023285713 -0.005675336 -0.0073961727 -0.012658043 0.01694277 0.012541182 -0.024418678 -0.008870719 -0.021890182 -0.0117177535 -0.024907032 0.004433862 0.012354829 -0.011898613 -0.021355651 0.014709244 -0.011233734 -0.01769534 -0.022090837 -0.0096876295 -0.0077097802 0.00688616 -0.00079585164 0.013015699 -0.013044171 -0.023862306 0.014487533 0.022909122 -0.011183825 -0.013181002 -0.015335456 0.016648002 -0.01872202 -0.015640778 0.019273637 -0.004925033 0.0036188355 0.018395664 -0.02265722 -0.013954126 -0.0123209525 -0.008059232
8 -0.028096313 -0.014771355 -0.028856363 0.014598928 -0.012395629 0.012654857 -0.006266746 0.019043159 0.014265109 -0.0070706387 0.013937267 0.0077866386 -0.020440904 -0.012665428 -0.008539712 0.007901963 0.00921859 0.008460885 -0.022704247 0.017815402 0.018207569 0.012667244 -0.005730822 -0.013735853 -0.003914765 -0.00053006166 0.018540172 0.012228901 0.0116202375 -0.014515749 -0.012277989 0.012213567 0.02525914 -0.013981845 0.016782034 0.002448618 0.025019903 0.014509121 -0.0042295987 0.015799053 0.022027178 -0.007909789 -0.017879931 -0.011420848 0.0132271275 0.018391754 -0.007781757 0.008495752 0.0068061054 -0.016563112 0.019218331 -0.018566726 0.019647423 7.266004e-06 -0.026326561 0.02017987 0.020781096 -0.02530049 -0.0122325905 0.0030361423 -0.021228647 0.023131117 -0.021571767 -0.009291496 0.023967562 -0.011134813 -0.01446745 -0.013062687 -0.002599205 -0.021084392 0.016932914 0.009459341 -0.014252303 -0.013025135 0.0237774 0.02761671 0.014015026 -0.010118987 0.008095283 -0.019363465 0.015180331 0.013477591 -0.016608201 -0.01806988 -0.026427172 -0.020349275 -0.020430014 -0.01432604 0.005562219 -0.014248057 0.011949883 0.001585569 -0.026275123 -0.01915009 -0.023398574 -0.022694392 -0.021498905 0.02168268 0.0077624912 -0.01102583 -0.014576071 0.009700151 -0.02333822 -0.019623423 -0.018355101 -0.020226989 -0.021966267 0.018984426 0.018237209 0.0043536825 -0.0067528165 -0.015624175 -0.0017966958 0.012884429 0.01004824 -0.015474339 -0.008720339 0.026614882 -0.013943294 -0.020351062 0.026465405 -0.014781915 0.017064042 -0.00049511745 -0.028132638 -0.019194726 0.016211025 -0.01314475
9 -0.022292087 -0.01432266 -0.022082483 0.027515423 -0.0025687532 0.031961 -0.007260475 0.021534063 0.017339934 -0.0089055775 0.018221969 0.012260147 -0.020705882 -0.002184504 -0.010821808 0.005009991 0.010107362 0.0137117 -0.0265972 0.02140086 0.01970385 0.016088674 0.0010909061 -0.015815247 0.002012761 0.0054241125 0.029251948 0.009709004 0.008665872 -0.029816803 -0.0013623439 0.02040841 0.027059725 -0.02551184 0.017815039 0.019460797 0.017313268 0.01865685 -0.0100519145 0.015266833 0.030216824 -0.008990364 -0.011449044 -0.010072218 0.019845845 0.019345894 -0.018133968 -0.011311802 0.02360584 -0.012712392 0.022813689 -0.010698656 0.016141579 -0.005318258 -0.020210994 0.0024600236 0.019421345 -0.031639766 -0.028151494 0.0017821256 -0.017096667 0.021748908 -0.016933963 -0.007132008 0.021729654 -0.009398746 -0.016083768 0.001449373 -0.002587789 -0.008224411 0.026215322 0.016541349 -0.011326917 0.0028046495 0.027514974 0.02911099 0.013696316 -0.0196404 0.026087768 -0.022478793 0.026843391 0.018451618 -0.02004259 -0.019123917 -0.019919818 -0.020021167 -0.015946921 -0.02465145 0.0026308715 -0.02173019 0.017126545 0.0026887862 -0.026247155 -0.011826479 -0.019556496 -0.021917867 -0.029907905 0.020750448 0.0137806665 -0.0119708 -0.028785141 0.010429184 -0.016576322 -0.028502723 -0.02912949 -0.0181234 -0.0076177707 0.014593118 0.012521498 0.0029473505 -0.00041074393 -0.023633573 0.01520635 0.02741596 0.0024196443 -0.010912571 -0.01902185 0.015191202 -0.020954683 -0.019218918 0.020979049 -0.010594041 0.009198546 -0.004441702 -0.03135318 -0.018099505 0.005958861 -0.020969229
10 -0.012942715 -0.014130032 -0.026136134 0.01682102 0.0041998313 0.016813682 -0.0043653115 0.005897732 0.013205043 -0.008407156 0.024714882 0.0067372085 -0.016034994 0.0067196507 -0.0011002795 0.014313225 0.018024376 0.017009772 -0.022015572 0.014232852 0.024389135 0.015500789 -0.017220384 -0.014653398 -0.0014082243 0.0059988466 0.021051912 0.016330099 0.010347702 -0.013180995 -0.005344178 0.012762828 0.017364904 -0.021207727 0.020459875 0.0077907327 0.020835083 0.03009615 -0.0045315195 0.009716049 0.01280321 0.0032170713 -0.009066256 -0.01114696 0.0039536837 0.02442575 -0.025004823 -0.004911111 0.022880703 -0.005234876 0.0071306685 -0.019244963 0.020723369 -0.00023350396 -0.019244932 0.02270553 0.0110477265 -0.021053212 -0.019783763 -0.0064490526 -0.0075435834 0.019678406 -0.025106376 -0.0060273153 0.02079507 -0.009031077 -0.011717448 -0.0065566343 0.012956991 -0.010281679 0.019844666 0.019618526 -0.023594383 -0.015229286 0.017078042 0.017339084 0.016366972 -0.012970858 0.017170358 -0.023014791 0.008924677 0.0048015416 -0.008640232 -0.021708488 -0.019241488 -0.028181288 -0.011119426 -0.025162088 0.0032285415 -0.020328041 0.016122583 0.0034246945 -0.012895412 -0.0016729941 -0.01719509 -0.016457273 -0.024418373 0.01038556 -0.0036324735 0.0011828492 -0.023937855 0.009390954 -0.027366685 -0.021761764 -0.027336476 -0.024024282 -0.02095969 0.0011331951 0.0079411 0.0046801213 0.01171413 -0.012791493 0.018490938 0.023013322 0.001618567 -0.018733805 -0.00741863 0.00822665 -0.0076687816 -0.005672367 0.014933761 -0.015554835 0.0065413243 -0.0001766308 -0.016835432 -0.02752224 0.011522621 -0.017431552
11 -0.021202091 -0.020352203 -0.03035854 0.02930521 -0.004736183 0.015781598 -0.013483677 0.0131995175 0.023946015 -0.011811453 0.01346463 0.02127007 -0.026887242 -0.0025105607 -0.009298544 0.004486409 0.027312912 0.014268387 -0.018858332 0.00925628 0.019472027 0.020087224 -0.016308943 -0.019943314 -0.012682329 -0.014015866 0.017786201 0.0055088857 0.02062468 -0.02809118 -0.021530677 0.020315241 0.025064189 -0.030293237 0.020397821 0.0026467384 0.022358557 0.019360855 0.011404329 0.012997234 0.016552646 0.01099386 -0.014918783 -0.0065351487 0.012367113 0.023284808 -0.019207325 0.015540906 0.01534438 -0.020918936 0.02169016 -0.021127122 0.021854728 -0.0044979844 -0.027187511 0.020744868 0.008868427 -0.029952185 -0.020502815 -0.0147456415 -0.017606927 0.020616444 -0.029454596 -0.0040639956 0.028236218 -0.009567313 -0.014607412 -0.016775023 -0.0030248424 -0.014120414 0.01674639 0.02340781 -0.009893524 -0.022442399 0.019103516 0.027440475 0.010576732 -0.02029123 0.022496346 -0.028738618 0.019969909 0.009201829 -0.028242791 -0.027017303 -0.014755401 -0.021947043 -0.029598834 -0.01806087 0.008193745 -0.022486368 0.01638944 -0.0054152342 -0.025575506 -0.024698883 -0.022854228 -0.02402564 -0.030833028 0.026406901 -0.0026170595 -0.010994591 -0.022263886 0.0038090544 -0.026781563 -0.016542526 -0.021461034 -0.027023323 -0.016942441 0.005706848 0.0189447 0.0031514133 0.0190728 -0.021714695 0.0032609825 0.03058399 0.0035803034 -0.010424317 -0.015998308 0.030909393 -0.013967067 -0.011154096 0.018805338 -0.021069761 0.009484487 -0.0041485974 -0.031173961 -0.029094426 0.013752681 -0.015825948
12 -0.008907427 -0.0013790145 -0.0029248465 0.0043780217 0.0064561274 0.003116492 0.00021867151 0.00050143525 -0.0020344555 0.00839741 0.0070453384 -0.008938766 0.0012093371 0.0065833186 0.0018067905 0.007391059 -0.0027871362 0.008135994 -0.004414877 -0.002180693 -0.0037916496 0.0009997209 -0.015240811 0.00818437 0.013313595 -0.011120402 0.0015470859 0.0037680834 -0.0047047827 -0.0052950177 0.010869675 -0.0016315728 0.006618289 -0.0070603797 0.0007769172 0.01689941 0.0059768297 0.003328874 -0.010492586 0.0032895198 0.0042410516 -0.010609963 -0.012407237 -0.010716298 0.004388984 0.0018710527 -0.007010107 -0.014444181 0.008184057 -0.009432854 -0.006142902 0.0017758578 0.002406843 -0.008926357 -0.007031271 0.0045716553 0.0038920466 0.0016478586 -0.012214729 0.01627606 -0.018798722 0.005346082 -0.00578997 0.007798313 0.0014957562 0.011812806 0.006174811 0.0023673833 0.0036754613 -0.012845362 -0.0025677702 0.0018260259 0.005065387 -0.014441033 0.0028887636 0.0076407795 -0.011972671 0.0065709585 0.0032728803 -0.0067038243 -0.009710732 0.0059863855 -0.005225849 -0.012509424 0.0012139966 0.00553147 -0.0065921177 0.004807243 -0.011743654 -0.0023070583 -0.0063967346 -0.0039170734 -0.0051192557 -0.014277641 0.0045651495 0.00088756916 -0.01121471 -0.0045895437 0.002495993 -0.004758886 -0.0022696469 0.0061660884 -0.00050848105 -0.00013076898 -0.0005839047 0.0017051517 0.009199448 0.010122248 -0.0060963817 0.010889801 -0.002695166 -0.01732692 0.0060163713 0.0081421165 -0.010074512 -0.0016238182 0.00032744548 0.0075315367 0.011072637 -0.0026634384 0.00075649604 -0.011648644 -0.0096876705 0.011456954 -0.013707466 -0.004906729 0.0054985303 -0.005354812
13 -0.0032283813 -0.007277872 -0.017982913 0.008729429 0.008584553 0.0041002794 0.0013034551 0.009404839 0.004768287 -0.0026300065 0.0029413877 -0.006265596 0.0021312104 -0.0053705885 -0.024495503 0.005189984 0.007620576 0.010892715 -0.0045343554 0.0067743147 0.010423853 0.0153251365 -0.016245017 -0.011557558 0.010311552 0.001782657 -0.0011047479 0.010822028 -0.002243284 -0.01308672 0.0113538895 0.011692703 0.012855848 -0.012398349 0.0061603147 0.009480516 0.010679028 0.0012323349 -0.009979038 0.006572273 0.004556329 -0.015453283 -0.006111406 -0.010565043 0.01710603 0.017609747 -0.013064846 -0.007435571 0.012723984 -0.011740214 0.008155184 -0.014182351 0.00785859 -0.012082844 -0.0078909425 0.0028571186 0.010909807 -0.004630804 -0.012930669 0.01327448 -0.0111399675 0.006086264 0.00092855014 -0.0131588625 0.018904988 0.014141963 0.0052835443 0.0022012305 0.0034707126 -0.011596058 0.006199997 0.0054702717 0.0025782723 0.0023211793 0.011639077 0.01167056 -0.00027022295 -0.0121232085 0.0024300378 -0.009889177 0.007818516 0.0045094825 -0.017105138 -0.00919652 0.003723178 -0.011230482 -0.012200467 -0.0050593093 -0.0145558305 -0.0072695264 -0.0011912535 0.0010080852 -0.017369848 -0.012278056 -0.009627703 -0.004483188 -0.010454871 0.00018506931 0.013074317 -0.018042395 -0.013663227 0.0098350635 -0.016117973 0.0016543237 -0.00624074 -0.0050924723 -0.002667937 0.008940356 -0.006408821 0.0148436325 -0.0045806426 -0.007189277 0.024295993 0.007403176 -0.014790887 -0.008936156 -0.007068766 0.014289857 0.0048659868 -0.010968354 0.019342598 0.004909735 0.007980745 0.020362277 -0.013347087 -0.0035490224 -0.0005332964 -0.014125617
14 -0.019287731 -0.014430951 -0.017208042 0.017428074 -0.0011703734 0.005720713 0.004022186 0.018825259 0.013918162 -0.0020328125 0.0031622653 0.0012791351 -0.010027646 0.027480977 -0.026257087 0.017646376 0.01666752 0.025958749 -0.019191764 0.016967513 0.013277126 0.018714316 -0.022253029 -0.004442696 -0.004796192 -0.026579298 0.010658303 0.010429734 0.02252924 -0.022072623 -0.0037112497 0.021316523 0.026678037 -0.013087517 0.009116733 0.016996365 0.021894073 0.023767468 -0.005581402 0.028510716 0.001940821 0.0054180953 -0.02082799 -0.008471151 0.025311844 0.022222584 -0.02233939 -0.0045303195 0.027484749 -0.013120508 0.0023166959 -0.01955525 0.004569605 0.0035142354 -0.023182278 0.022216087 0.021368116 -0.022295984 -0.023628142 0.0011867246 -0.02051222 0.013887729 -0.011963035 -0.0072034756 0.019661043 -0.0027934965 -0.007822501 -0.012374969 0.015936945 -0.021626009 0.008025807 0.0055483845 -0.007380739 -0.007253977 0.021416482 0.018316885 0.0050723855 -0.02373241 0.019928418 -0.014900129 0.012116656 0.016999077 -0.024881633 -0.01865919 -0.011599834 -0.009226835 -0.013783334 -0.006266546 0.00018330548 -0.0143773835 0.002038111 0.013892944 -0.008524367 -0.019933462 -0.01228912 -0.012316873 -0.015059152 0.0058370256 -0.005624798 -0.0010861815 -0.0122903865 0.012525112 -0.021710416 -0.0072118333 -0.009187409 -0.0031433196 -0.009620254 0.014941605 0.0059410366 0.011070058 0.012887203 -0.024919115 0.022176702 0.018824732 0.008324944 -0.011254798 -0.013951131 0.011489425 0.0060235546 -0.0069360747 0.02796277 -0.018527478 -0.007067076 0.006629005 -0.0092746075 -0.009088054 0.021628397 -0.014670782
15 -0.009096734 -0.0054155807 -0.007892038 0.010892862 0.015322161 0.0036110557 -0.0040615248 0.0073940605 0.00819232 -0.00011527361 -0.0019766157 0.0036762806 0.0012726864 0.008090938 -0.027870473 0.021014147 0.0077011464 0.016845088 -0.007089615 0.016048482 0.003227687 0.019600403 -0.027946128 0.003537748 0.0077878856 -9.6889664e-05 -0.008096666 0.010523024 0.004267295 -0.011326505 0.003405164 0.012998157 0.007956295 -0.009145416 -0.0028044304 0.008848986 0.004288988 0.00987865 -0.00518546 0.016445745 0.007776652 -0.018406149 -0.009604729 -0.01221313 0.018916806 0.009829455 -0.026102569 -0.007490314 0.01614058 -0.025774123 -0.001897427 0.005361285 0.0033679707 -0.010389226 -0.004288381 0.00949212 0.0077211987 -0.0072500873 -0.015223075 0.019842556 -0.014270679 -0.004559557 -0.01996422 -0.021452019 0.014761403 0.0073338337 -0.00038444146 0.0016115103 0.008466758 -0.02100831 0.005802459 -0.000998848 0.0008195235 -0.0023018578 0.014402939 0.0052938163 -0.014277183 -0.007831502 0.0052763196 -0.011653157 0.009001422 0.0050495644 -0.0150965685 -0.0019637507 -0.0045175487 0.00016522658 -0.010726856 0.001187226 -0.0038920077 -0.002186065 0.003985487 0.005261236 -0.021972302 -0.0064174514 -0.0044991206 0.0060242214 -0.0056815664 -0.001384737 0.0041891015 -0.014326174 -0.008142827 0.02093845 -0.017280646 -8.062943e-05 -0.0039910083 -0.0021295107 0.013488851 0.018937455 -0.009446604 0.014351019 -0.009959495 -0.004079086 0.014025486 0.012348026 -0.008214152 -0.013838184 -0.018194165 0.0030725545 0.0091717485 -0.003972729 0.01862555 -0.007744333 -0.0081701875 0.01894564 -0.01004033 -7.229278e-05 0.003071566 -0.013531581
16 -0.012803427 0.0035292432 -0.010380366 0.016682947 0.0054140426 0.0060663437 0.0003615488 -0.0017653387 0.023552766 0.0023558773 0.006756542 0.0074830926 0.0043092654 0.003750366 -0.0062511666 0.018151013 0.020853613 0.0070799137 0.002575324 0.0005460251 0.011708151 -9.056687e-05 -0.020035384 0.003765596 0.0020797246 -0.0018177291 -0.003874165 -0.0018134718 0.011822075 0.00014277716 -0.00072777766 0.016169311 0.016588736 0.002055363 0.0022186264 0.012299607 0.0076337475 0.010644141 -0.0015267059 0.003701532 -0.0059642913 -0.00074716343 -0.013155322 -0.004635877 -0.004972578 0.012119823 -0.022852235 -0.0035450903 0.016374748 -0.008557446 0.0063793873 -0.015366542 0.0027547402 0.003282235 -0.020270567 0.017956646 0.0073356098 -0.017497674 -0.024034247 -0.011639944 -0.0019685454 0.01234145 -0.020549096 0.0066301287 0.006606443 0.01906599 -0.021218147 -0.008870286 -0.0029678051 5.316164e-05 0.006760031 0.0026205657 0.0037930103 -0.014821697 0.009549752 0.026663834 -0.004954541 0.0030532633 0.016046662 -0.013834992 0.0014175152 -0.000353017 -0.0073026973 -0.018233605 -0.010346301 -0.012364819 -0.0036106368 0.0102675 0.008893186 0.008191332 -0.002982382 -0.0109215835 -0.006963673 0.0024039056 -0.01638454 -0.011159398 -0.00832207 -0.0054193246 -0.0054527638 -0.00422901 0.002974523 -0.007332098 -0.0037404702 -0.0010253979 -0.008660339 -0.002595368 0.0053173164 0.0002779155 0.015751068 0.012639339 -0.0024232743 -0.01636708 0.021798328 0.008624148 -0.00379602 -0.003071683 0.005661297 0.014887537 -2.5289213e-05 -0.0031686814 0.01553037 -0.012638601 -0.0025023918 0.013032738 -0.007553811 -0.004071755 0.009756753 0.0047325776
17 -0.017514555 -0.01716204 -0.008849974 0.011069214 0.016787363 0.004375479 -0.008511336 0.026935518 0.017251125 0.0037404192 0.009210128 0.010466932 -0.014754404 0.008387173 -0.012758883 0.00885163 0.014810533 0.0052907793 -0.008414683 0.01470306 0.015074287 0.018520214 -0.013917066 0.0013751654 -0.0016571648 -0.017594373 0.005950229 0.014517371 0.01738566 -0.018392814 -0.0030015744 0.021277448 0.02373439 -0.006729324 0.016905127 0.014362246 0.015188136 0.022394601 0.0013832559 0.008037751 0.013201979 0.008168921 -0.014760966 -0.017112749 0.029158851 0.011484652 -0.02712268 -0.0015539029 0.0256006 -0.011934595 0.00835703 -0.028881572 0.0012890275 -0.0041167918 -0.010787799 0.0115303565 0.010060031 -0.025245083 -0.0255586 -0.002931 -0.01805583 0.007073818 -0.016884256 -0.004056678 0.011835335 -0.004885534 -0.019839719 -0.019208929 -0.0048862216 -0.0065549044 0.012655864 0.007871871 -0.0068945372 -0.0018576196 0.006657857 0.013189217 -0.004806467 -0.013056057 0.020376485 -0.01069911 0.009017789 0.001955511 -0.017316017 -0.005903712 -0.01726742 -0.01785509 -0.023339324 -0.006819636 0.00029419822 -0.006251095 0.006095511 0.00063288223 -0.02575378 -0.010126917 -0.012951812 -0.020834727 -0.010983207 0.012920395 0.0039480766 -0.010530999 -0.019258931 0.013526311 -0.019912096 -0.004798811 -0.012226546 -0.013103184 -0.004244712 0.019174507 0.008697055 -0.004438625 0.007925984 -0.026647525 0.0087308865 0.018221268 0.01427423 -0.029752878 -0.013501307 0.013713071 0.0027697233 0.0066798665 0.011489847 -0.012406428 -0.0007970531 0.022990592 -0.016025234 -0.01916704 0.012089141 -0.012427347
18 -0.013666775 -0.0007176056 -0.018048353 0.009302502 0.013067552 0.006096811 0.009253717 -0.0014551996 0.02429903 0.020213142 -0.009714619 0.0005798632 0.020025056 0.015223286 -0.019846225 0.024581274 0.018355284 0.016512223 0.0009475841 -0.0067477114 0.015793346 -0.0062632193 -0.021299375 0.00979168 0.003588247 -0.01700312 -0.017213628 0.008176617 0.00338115 0.005319077 0.0072874534 0.021504754 0.0070664613 0.0089203715 -0.00081806513 0.015352296 0.021737318 -0.007959982 0.0045236535 -0.0027208144 -0.0034380013 0.0033382098 -0.011858363 0.0050390502 -0.006628181 0.018029444 -0.018233277 -0.026171878 0.015850691 0.003872552 -0.0014175944 -0.025973631 -0.0056604813 0.0035531563 -0.012226393 0.020849735 0.003937935 -0.028699005 -0.02411025 -0.0012651491 -0.004477206 0.017986914 -0.0112846475 0.010734232 -0.0039289095 0.023480948 -0.0078164805 -0.015343214 0.018535908 -0.0119666 0.00097009086 0.011454672 -0.0008882089 -0.004502347 0.008540731 0.020222116 -0.019791566 0.010901067 0.020975066 -0.022287253 -0.006697895 0.00064820785 0.0030675454 -0.012315589 -0.013815632 -0.0036800066 0.005799826 0.020870658 0.013137911 0.0070820902 0.0035986404 -0.009008523 0.0022215957 -0.004615212 0.009371816 -0.007973529 -0.00781284 -0.0016994525 -0.006290604 -0.008814971 -0.0050280937 -0.012997837 0.00026039855 0.019212097 0.010729784 0.0010231792 0.002496527 0.0132931275 -0.0023036925 0.020988941 0.0073495987 -0.0023296836 0.01691215 -0.004386639 0.0015007274 0.00121089 0.012248528 0.011759181 0.0097242175 0.006031621 0.0033399444 -0.014417018 -0.024268001 0.010021991 -0.0056192437 0.010855 0.0067403805 -0.009111906
19 -0.0021163444 -0.012813494 -0.0034191692 0.022399087 0.012604618 0.0039330088 0.015123885 -0.0018910863 0.0005573129 0.007927707 -0.007850572 -0.017023914 0.017263046 0.0017323964 -0.0140866805 0.01729815 0.021159666 0.00026898037 0.0070581883 -0.000651016 2.4753826e-06 -0.0040951306 -0.021565866 0.011677141 0.012482068 -0.016962085 -0.013530984 0.007161476 0.0087202 -0.0064138193 0.022972858 0.0038574808 0.0063216155 0.0045243856 -0.0136938505 0.013741834 -0.003809934 0.004150592 -0.020424372 0.02481821 -0.008079109 -0.026196232 -0.012154175 -0.0058872793 0.022114648 -0.009461295 -0.021686863 -0.014883006 0.004757587 -0.004388308 -0.011790043 -0.0025404412 0.0002978663 0.008946417 -0.0012211076 0.009633943 0.003696331 0.007136434 -0.013990682 0.0171989 -0.010457378 -0.0077090813 -0.0027850983 -0.019433303 -0.0027054364 0.019432938 0.0035622423 0.007659342 0.02123045 -0.019289557 -0.011702598 -0.010430243 0.011785615 -0.01065332 0.0011505767 -0.0018796759 -0.014967636 -0.020701012 0.011195075 0.011058062 -0.0074537443 0.018345464 0.00034893944 0.0026579339 0.0052592824 0.0004256474 -0.0065126363 0.015261367 -0.017067997 0.017030293 -0.0059269797 0.008788186 -4.711593e-05 -0.0067722844 0.003556986 0.014758756 -0.003210618 0.0134449145 -0.0030477606 -0.011887416 -0.0022502483 0.021238683 -0.008703676 0.01375863 0.0031071308 0.008432608 0.01479053 0.0066729635 -0.009961744 0.030525325 -0.015632069 0.008618372 0.024341445 -0.008447874 -0.013433848 -0.012530973 -0.016540272 -0.0046365676 0.020342719 0.0006077651 0.0051807715 -0.012357721 -0.009150299 0.018998435 0.0018758292 0.0008196225 -0.013997724 -0.023782006
20 -0.02889612 -0.026470313 -0.01824847 0.01891755 0.004196133 0.00638939 -0.009665699 0.016942613 0.020048328 0.0015319764 0.009593854 0.006279396 -0.009427356 0.01673092 0.0027424544 0.007598283 0.010225442 0.012931178 -0.017542504 0.0110503845 0.01713252 0.021977648 0.0070348433 -0.00049333327 -0.00065729587 -0.015873462 0.012763565 0.008948329 0.022913076 -0.027568612 -0.010679113 0.014919777 0.020124901 -0.011551691 0.022924682 0.026121324 0.020326093 0.021967053 -0.00024551165 0.009060985 0.021039188 0.0061903424 0.00043910323 0.004518104 0.016526084 0.018158503 -0.018742843 0.0012781442 0.014781391 -0.021342227 -0.0038800268 -0.024959132 0.014783911 -0.0076356465 -0.012046389 0.011855428 0.018690828 -0.023779811 -0.013515919 0.0010923356 -0.0029850462 0.014554963 -0.02589858 -0.023164522 0.024671834 -0.00031344747 -0.016262822 -0.02485572 0.00970254 -0.021723308 0.024935814 0.02326283 -0.007020276 -0.00642479 0.026368156 0.019200182 -0.0024180626 -0.013229124 0.024451712 -0.022071684 0.015542581 0.011647134 -0.024681509 -0.012516869 -0.017773578 -0.0160911 -0.025415093 -0.005809025 -0.0021303261 -0.019883499 0.014034431 -0.003546106 -0.0276698 -0.011939661 -0.011729482 -0.012235901 -0.021019572 0.016929526 -0.005610944 -0.004454044 -0.011228552 0.012366362 -0.024207916 -0.017443916 -0.02328833 -0.019389361 -0.0131953675 0.0070708357 0.01259376 0.0048352745 -0.0013300239 -0.014853585 0.010524091 0.020128712 0.004385787 -0.014509608 -0.011411442 0.02214878 0.0041316645 -0.015831148 0.016281936 -0.013307728 0.0021869943 0.002360516 -0.02305479 -0.025068365 0.016454352 -0.010537275
21 -0.012414634 -0.0033984452 -0.01070267 0.009598661 0.0074415714 0.01214512 0.003063309 0.014299247 0.003968859 0.0017369136 -0.0008568079 -0.002355087 0.0036520772 0.023628848 8.19533e-05 0.02493405 0.014136399 0.012743424 -0.015058349 0.0144684715 0.012862218 0.021182418 -0.0023434225 -0.0016537667 -0.00048150943 -0.02109249 0.015116089 0.0069733495 0.011270908 -0.021593422 -0.0042395084 0.019302726 0.015117135 -0.004283761 0.008122512 0.0139204785 0.0032824331 0.013899986 0.0022924333 0.017525742 0.0047840104 -0.0013369493 -0.016547792 -0.012394622 0.018996274 0.008290507 -0.01923356 0.0016248258 0.015891172 -0.016255429 -0.0010557736 -0.008908246 -8.960458e-05 -0.006238852 -0.011386273 0.009167286 0.017461054 -0.01985716 -0.016418494 -0.0004772609 -0.005333821 0.015885934 -0.014431963 -0.006697348 0.012932876 0.0063970285 -0.012142557 -0.022226349 0.016023684 -0.02566719 0.016536832 0.009071803 0.0012829562 -0.0021151388 0.009343697 0.012423496 -0.014551454 -0.021350896 0.01994703 -0.014523656 0.007832489 0.003912871 -0.025056018 -0.0067875027 -0.021536777 -0.008605714 -0.019331167 0.0062865205 -0.008833476 -0.014733673 0.0057219286 0.0063793277 -0.018774612 -0.025453782 -0.0054639284 -0.013892215 -0.010356021 0.010477153 0.008091389 -0.0151258595 -0.021739408 0.01653357 -0.0015351984 -0.0015597823 -0.011524578 -0.005033422 0.0010595109 0.02371255 0.0027075477 0.008403782 -0.0029264814 -0.018968541 0.0045590224 0.007491613 0.0019430295 -0.007923003 -0.0077945217 0.013625579 0.008047104 -0.015497733 0.0130056385 -0.017372848 -0.006804135 0.006180474 -0.016788548 -0.00630569 0.0092403 -0.017815392
22 -0.0019947435 -0.018100284 -0.018179977 0.025562635 0.00031391048 0.009233331 0.0037132883 0.0128097925 0.014403673 0.007819137 -0.0006748246 0.01178666 -0.0015616687 0.013548543 -0.016372772 0.013057361 0.014109064 0.016031127 -0.0028584541 0.023033006 0.010419805 0.014116412 -0.007431619 0.0013661224 -0.00097037305 -0.02760947 0.012521873 0.017044028 -0.00028043834 -0.0033362235 0.0008968837 0.021589298 0.010575001 -0.009655617 0.015953545 0.020660961 0.004155794 0.00943409 -0.0031558403 0.012144536 0.0036541044 0.0021242357 -0.017303634 -0.012608901 0.013572796 0.007592103 -0.011056038 -0.0010650104 0.016345711 -0.0075291814 0.0044198837 -0.012669395 0.014908286 -0.0059816074 -0.00524327 0.0040139547 0.010681066 -0.0029344417 -0.028420798 -0.0073902574 -0.0061888183 0.0052323816 -0.008751118 -0.010541664 0.0124412235 -0.006567378 -0.0024739003 -0.014875245 0.01064062 -0.011305218 0.011170535 0.015945625 -0.008996892 -0.01761493 0.018439153 0.0063218693 -0.0024233693 -0.005407921 0.024852706 -0.011296117 0.010863127 0.005786714 -0.014083865 -0.0038845502 -0.017647 -0.009439791 -0.010401243 0.0021283415 -0.002516833 -0.0026738269 0.0059379 -0.0010080334 -0.013885498 -0.0032094344 -0.014108499 -0.0054058884 -0.0042400872 -0.0005480997 0.010287082 -0.014651255 -0.01606922 0.01572598 -0.006478851 -0.00438875 -0.010200871 -0.006681336 0.0011125485 0.011374986 -0.0024490224 0.0060022036 0.00755695 -0.021927914 0.020362912 0.008336299 -0.006608656 -0.02403264 -0.015010252 0.0031474782 0.0063865157 0.010028958 0.0062762694 -0.011083139 -0.013612554 0.012288824 -0.0041001257 -0.010682873 0.007874102 -0.01635405
23 -0.021134729 -0.023137473 -0.023509068 0.017701425 -0.004376651 0.013956508 0.003701739 0.012719123 0.017786926 -0.0035232673 0.006561201 -0.00242408 -0.016070848 0.01660598 -0.009898631 0.010121058 0.015649322 0.02505917 -0.010480048 0.015978163 0.015579978 0.011644238 -0.0022575033 -0.01370017 -0.0012082909 -0.026783962 0.008523173 0.015986508 0.018003823 -0.017457008 -0.010828319 0.016384188 0.019445822 -0.017424777 0.020904988 0.012058569 0.019736692 0.01510666 0.006414367 0.02443767 0.008671548 0.00093841064 -0.02110633 -0.011418215 0.019374238 0.021574851 -0.022884319 -0.020404238 0.025389412 -0.016576674 0.0022936075 -0.016849995 0.012164306 -0.014065736 -0.0201759 0.022817273 0.0124935545 -0.01818795 -0.024847727 -0.0073153186 -0.019475427 0.023313612 -0.0057262075 -0.008724375 0.024579637 -0.00093430234 -0.013556897 -0.021508455 -0.0034371102 -0.009813758 0.020438066 0.006391233 -0.018655937 -0.0065960563 0.021719078 0.025529444 0.007899013 -0.012394495 0.018215304 -0.013309227 -0.004413848 0.020440834 -0.022494346 -0.014982831 -0.023511276 -0.02214822 -0.021859407 -0.0162057 0.0023954539 -0.0075081186 0.020347819 0.002295699 -0.025165398 -0.022960884 -0.015443732 -0.013568797 -0.024250183 0.015114123 0.004223468 -0.009889187 -0.01824005 0.013334608 -0.017427377 -0.011250573 -0.026905341 -0.011566707 -0.0026452343 0.016699579 0.019637592 2.239435e-05 0.010023016 -0.0115768835 0.02371948 0.01900429 0.004209686 -0.005189839 -0.013907175 0.015864305 0.004877223 -0.0020316625 0.02777132 -0.016928708 -0.003113257 0.0133398995 -0.02261071 -0.011829304 0.025676085 -0.017811658
24 -0.025722899 -0.015646676 -0.017647957 0.011685726 0.005919496 0.012050076 0.005562749 0.025454842 0.022855211 0.00829019 0.00070352637 -0.0015817623 -0.003891959 0.018300831 -0.020686565 0.016263783 0.026628068 0.011003732 -0.013560431 0.011059324 0.019897941 0.01746846 -0.0134192025 -0.0035858657 -0.007950391 -0.02357733 0.0015169677 0.0085455775 0.008380482 -0.012783377 0.003263207 0.022385519 0.019266924 -0.016553322 0.009724861 0.022719331 0.022353893 0.01785565 0.008648025 0.026829442 0.0060523283 -0.005632639 -0.021182531 -0.02003765 0.009922514 0.00857717 -0.023526652 -0.011017068 0.022332095 -0.009091462 0.010607113 -0.022012599 0.006135718 0.004909458 -0.0195336 0.012379873 0.008480264 -0.023167621 -0.023072744 -0.0015267659 -0.014829855 0.008856256 -0.022595685 -0.0072864518 0.02434234 -0.0036292924 -0.011938783 -0.016527269 0.0013181971 -0.022770224 0.019543704 0.008357791 -0.0015681748 -0.015371913 0.012972104 0.016323136 -0.004028386 -0.026197182 0.024384234 -0.020636793 0.0066531366 0.018900089 -0.021224583 -0.01919904 -0.02082452 -0.013083816 -0.021662015 0.0004662 -0.005121288 -0.015264759 0.011368626 0.007908622 -0.023090411 -0.017239833 -0.009560863 -0.00920508 -0.015005536 0.00886982 0.005095778 -0.013974605 -0.022179563 0.015476101 -0.023823246 -0.013891442 -0.0083957035 -0.00738983 0.0019105673 0.02141698 0.018159475 0.0030898447 0.014746062 -0.026185188 0.013284091 0.01938967 0.00044072347 -0.021024069 -0.025814304 0.017666822 0.00073835696 -0.012367099 0.018504435 -0.020265536 -0.00031463616 0.008783695 -0.0106092915 -0.022899764 0.020775832 -0.027380634
25 -0.026279753 -0.0142721385 -0.027588163 0.021129522 0.013741548 0.0032250092 -0.0062243138 0.015861446 0.016623778 -0.005451578 0.010930098 0.017656771 -0.018339565 0.017476091 -0.009780017 0.008282063 0.024367673 0.024759639 -0.01763598 0.019796953 0.023644902 0.028515829 -0.012727689 -0.016763307 0.0055138855 -0.008025516 0.017464463 0.017765509 0.022203462 -0.015555955 -0.011223291 0.026221776 0.030627327 -0.027865903 0.025099462 0.012939416 0.027487382 0.027317498 0.007692102 0.0072468817 0.010201477 0.010173914 -0.016376046 -0.020658648 0.029898835 0.023078697 -0.011791402 0.0022904256 0.024064355 -0.009444171 0.0225747 -0.013685422 0.022269556 -0.0031821604 -0.015876139 0.014635316 0.019513614 -0.025562307 -0.01988068 -0.009539373 -0.014157578 0.016418518 -0.024756975 -0.013814143 0.020397887 -0.013733392 -0.012328045 -0.013877209 -0.004283783 -0.0059791803 0.02392198 0.019890506 -0.018011691 -0.006243876 0.02479455 0.026468942 -0.0010192734 -0.025741875 0.016668567 -0.023679823 0.011069176 0.0057783686 -0.027917888 -0.016644783 -0.02609439 -0.013202193 -0.027668871 -0.0058052596 0.00032241445 -0.01271894 0.019897636 0.005875287 -0.01601693 -0.012148963 -0.01961628 -0.014994659 -0.01826004 0.014211148 0.012459632 0.0009690989 -0.023305766 0.010860601 -0.02477162 -0.010400909 -0.016609475 -0.014555601 -0.01340917 -0.0012332024 0.0017442845 -0.0033642985 0.010129137 -0.020127926 0.0047194064 0.015572873 0.0022295301 -0.018985009 -0.011875965 0.021799574 0.0056909323 -0.0019949418 0.017953455 -0.028401846 -0.014831284 -0.0020779478 -0.026094042 -0.023169156 0.02297933 -0.01412715
