26 128
0 -0.011044192 -0.0050375406 0.014296057 0.022261878 0.0067398753 0.010022734 0.012282664 0.015781717 0.001312953 -0.014381218 -0.020776251 0.016582035 -0.01189344 -0.007085226 -0.015175368 -0.021601453 -0.018881954 0.0037706972 0.014834359 0.012605036 0.011773836 -0.005067124 0.0043763984 -0.011281535 -0.006025809 0.023416147 0.008600722 -0.005636343 -0.0063624927 0.018729629 -0.008680135 -0.0061012413 -0.0027496177 0.0059741093 0.015191229 0.006579018 -0.012830503 -0.006942866 -0.017962128 0.012511405 0.017814849 0.019155687 -0.003694649 -0.0149502875 0.0077562383 -0.004320558 -0.008240293 -0.0013660304 -0.016700411 0.0055075744 -0.0075332113 0.011941727 -0.012667978 0.008435449 0.018925276 0.019048093 -0.011543265 -0.013553574 -0.013184173 0.011358477 -0.0101227425 0.018677142 -0.0023040776 0.0082140565 0.0006477521 -0.01142521 0.012139777 0.015658353 -0.018035384 -0.023609236 0.0051745605 0.0029783852 -0.0059267045 0.01256283 0.0020220312 0.014084032 0.005222898 -0.014327488 0.0009766838 0.0006803619 -0.0073051592 0.008829613 -0.008021835 -0.01958685 0.0012298408 0.006920888 -0.006430385 0.0052145063 0.015204464 0.0029463365 -0.013457896 -0.0026793312 -0.024548888 -0.009788887 -0.0018760294 -0.011681688 0.0051235184 0.008294855 0.0066482387 0.018676111 0.0064812293 -0.013067848 -0.012084186 0.01090718 -0.00932909 -0.0140492385 -0.009820359 0.0011173089 0.010206927 0.013344413 0.0057046283 2.037565e-05 -0.0038750656 0.015891798 -0.008820217 -0.020678064 -0.008493843 -0.015913315 -0.008155673 -0.012386517 0.0059955064 -0.013069842 -0.014611217 0.010890149 -0.0050062146 0.0060212626 -0.0040267603 -0.012597515
1 -0.022648782 -0.02681301 0.025062514 0.018821131 0.014798115 0.027522437 0.0016849537 0.020329164 0.016081735 -0.019436829 -0.024025248 0.023295645 -0.016872494 -0.023360942 -0.022910248 -0.017426152 -0.012793466 0.02213754 0.017721802 0.008926134 0.01929651 -0.0065691853 0.0035162643 -0.027328905 -0.014495036 0.02429364 0.025629457 -0.018164834 -0.007792409 0.02140195 -0.025875637 -0.016011769 0.013548103 0.005853089 0.014468082 0.0099356165 -0.024357338 -0.018622631 -0.024390528 0.025478257 0.026163148 0.017753512 -0.002896951 -0.024521064 0.01694617 0.007661866 -0.024388554 0.01804323 -0.02668551 0.016592445 -0.019265734 0.01386427 -0.025474772 0.01966201 0.013314513 0.017588004 -0.021664253 -0.024286648 -0.024350485 0.018286549 -0.014543942 0.024175331 -0.012489754 0.013014792 -0.0025568216 -0.019121805 0.02629883 0.013061624 -0.027869573 -0.020567376 0.0041693216 0.0027958343 -0.016529892 0.022502499 -0.015252009 0.022919158 0.013390113 -0.027491957 0.017991088 -0.0058280868 -0.008757756 0.011883438 -0.028174639 -0.01926036 0.0075419005 0.019308804 -0.018178264 0.027382148 0.017475097 0.014532503 -0.021726707 -0.020621557 -0.019184561 -0.027293501 0.0018121612 -0.005158166 0.012125857 0.019565318 0.014430063 0.025032945 0.017199289 -0.018179318 -0.022069026 0.024082195 -0.030109929 -0.026838059 -0.022618504 -0.0054405495 0.01916659 0.020954844 0.0006615071 0.02212807 0.016419716 0.01634003 -0.027754243 -0.02480318 -0.0059459256 -0.012641836 -0.017920025 -0.025443684 0.023979887 -0.025205983 -0.026273398 0.019212766 -0.019576622 0.02100479 -0.014482936 -0.01083685
2 -0.023507359 -0.02515981 0.018954545 0.024501113 0.013420497 0.018306248 -0.014563019 0.014686061 0.009703815 -0.023461841 -0.02437573 0.0119616585 -0.013060816 -0.023581196 -0.025882484 -0.009109303 0.003774815 0.015101094 0.013868348 0.017421206 0.015682261 -0.015250613 0.024094101 -0.019576373 -0.019137504 0.022345673 0.023226611 -0.015256843 -0.0024043045 0.017820379 -0.025435043 -0.022704748 0.023102328 0.0023336255 0.023961347 0.015570995 -0.023319889 -0.024817964 -0.021417385 0.009483576 0.026132192 0.023524199 -0.010076441 -0.02665814 0.023700058 4.606205e-05 -0.0130942045 -0.007812703 -0.015701933 0.014838496 -0.01723579 0.01724366 -0.02343133 0.0047764694 0.0068468996 0.012140179 -0.017804392 -0.021897167 -0.016278993 0.015330682 -0.017146552 0.017286137 -0.0114172995 0.0057555526 -0.0069849407 -0.011013193 0.020447724 0.020464169 -0.013092233 -0.002643668 -0.0054567596 -0.018307518 -0.013567884 0.021172082 -0.014720874 0.022693494 0.016872626 -0.02395156 0.013028309 0.00095840555 0.005503495 0.00012620055 -0.012254902 -0.016304946 0.02426243 0.025791109 -0.022028461 0.014979283 0.010093521 0.001858392 -0.02111024 -0.016284032 0.008512942 -0.017414711 0.02125052 0.0024402565 -0.00057293184 0.012267089 0.019127 0.02005775 -0.005262025 -0.017769855 -0.019067246 0.024071835 -0.02006905 -0.013471074 -0.012340941 -0.008480836 0.021230245 0.023504691 -0.010706338 0.009532322 0.009934911 0.026962085 -0.016747676 -0.021323169 -0.003911483 -0.017066143 -0.023569494 -0.02423443 0.017771842 -0.018592823 -0.018688977 0.007245322 -0.00014165753 0.0117531605 -0.012289195 -0.013582197
3 -0.00593556 -0.007039756 0.012052342 0.015052173 0.008634077 0.0073387274 -0.0005411276 0.014905152 0.0068576033 -0.0058123763 -0.011663214 0.010327384 -0.0010070899 -0.006259102 -0.016941406 -0.00073879235 0.006938592 0.011824623 0.018453952 0.004366286 0.005096579 -0.007266316 0.025205797 -0.009311069 -0.012451576 0.016417515 0.011895704 -0.010353958 0.0012527182 0.0015603269 -0.0057773185 -0.01388265 -0.0024806792 -0.0065682866 0.005878102 0.00986739 -0.0014398419 -0.009156408 -0.008550866 0.021750927 0.014120749 0.01433198 -0.018024523 -0.021676496 0.011014485 -0.0053831204 -0.005015055 -0.0043406547 -0.0058498136 0.011977513 -0.0076380586 0.0041487687 -0.014703591 -0.004244898 0.0006946974 0.010543456 -0.011687064 -0.0072349655 -0.020263344 0.007149661 -0.0056529697 0.015642233 -0.016828695 0.009297693 -0.0008620207 -0.008964959 0.024267431 0.010731987 -0.013190148 -0.01313904 -0.004884735 -0.0031928835 -0.007800253 0.0068014325 -0.02443654 0.014843748 0.005240294 -0.02085926 0.017663201 -0.0040682647 -0.0023428653 -0.003248913 -0.010645221 -0.017487312 0.01014984 0.0010176711 -0.010354368 0.016986368 0.009505596 0.0030034985 -0.021050708 -0.0140349185 0.0046780244 -0.018395217 0.008560387 -0.013204607 0.003561149 0.00065478927 0.0070886975 0.016007408 0.00016497474 -0.00625284 -0.01418671 0.007794849 -0.013673071 -0.0016312303 -0.009731501 -0.0017679766 0.008400233 0.023514977 0.0019462538 0.005379095 0.005871849 0.019305853 -0.012016527 -0.0038138775 -0.009064472 -0.013190551 -0.012599923 -0.0067488244 0.0054972987 -0.01770126 -0.014968725 0.007943234 -0.0026692422 -0.004833963 -0.013603108 -0.009154497
4 -7.6349825e-06 -0.002217574 0.007804355 0.0059043095 0.018097783 0.0043994114 0.010778498 0.0029376345 0.019621264 -0.010524299 -0.011195851 0.009781436 -0.006670763 -0.013294807 -0.018503092 -0.007984592 -0.0024526033 0.01781766 0.0077374806 -0.0017828926 0.015501499 0.0025274812 0.008909524 -0.010703554 -0.016322037 0.01261276 0.014378645 -0.0034523995 0.0009109797 0.0031840147 -0.001803691 -0.0074137985 -0.00043802848 0.0060440223 0.007635133 0.016606096 -0.013378921 -0.009269652 0.0031168032 0.007281839 0.0027708858 0.007678455 -0.008738857 -0.0074937036 -0.0023081535 0.014280741 -0.015014242 0.0029391337 -0.006444985 0.010826806 -0.007092577 -0.0007929314 -0.0057879584 -0.0068745967 0.00963066 0.0014705535 -0.010619868 -0.013649855 -0.014517377 0.01787339 -0.004375862 0.02020312 -0.011769975 -0.0051107868 0.006187849 -0.0050248946 0.018925216 0.014901617 -0.011424565 -0.011086219 -0.007976854 -0.0015748057 -0.017066224 0.008479535 -0.0149032045 0.0126089 0.009676921 -0.011925364 0.016046958 -0.006370902 -0.015034337 -0.010741701 -0.00061235024 -0.018488716 0.012505216 0.010328072 -0.009221956 0.0044834125 0.012778997 -0.0046322197 -0.0078473585 -0.00333818 -0.011124942 -0.010356531 0.00074401434 -0.013594475 -0.00031808042 0.013249961 0.004943032 0.013600871 0.001421687 -0.009597877 -0.01236372 0.0054487893 -0.022280246 -0.00465609 -0.0076231663 -0.0176483 0.007367892 0.008177814 -0.0009928893 0.0126793 -0.006810763 0.008631631 -0.015151658 -0.011675852 -0.0047615925 -0.009715049 -0.024410926 -0.0052389693 -0.0059221317 -0.014305398 -0.0115815215 0.017831685 -0.009120274 0.0052384017 -0.0117945755 -0.00820511
5 -0.0070837126 -0.0012279861 0.0044969325 0.008077421 -0.00067278754 0.0041338364 0.0010571205 0.0117114885 0.020315973 -0.0035619857 -0.0052290442 0.015706178 -0.017223341 -0.008295838 -0.017926358 -0.011333408 -0.00010583174 0.0100869965 0.009748792 -0.004113736 0.0120279705 0.006166559 0.0034270184 -0.00024474476 -0.005555561 0.010518579 0.014203575 -0.014361519 0.0073903343 0.008160903 -0.0035148712 -0.009482365 0.01852837 -0.00085429463 0.00026582394 0.0106390035 -0.0037985505 0.0009185873 6.24251e-05 0.011305082 0.009777983 0.009139441 -0.0028573992 -0.0127028255 0.00270689 0.010180883 -0.0047133747 -0.004806091 -0.011634557 0.0129452525 -0.0028203838 0.016758882 -0.0051363893 -0.00020076438 0.009220482 0.010102995 -0.006508078 -0.0062748655 -0.012029703 0.013378934 0.0012672517 6.310246e-05 0.0031342562 0.0047586528 0.004619807 -0.0066425228 0.017731879 0.016932767 0.0035845637 0.01004275 -0.004332706 0.0027702507 -0.0134643745 -0.0028806045 -0.011593367 0.009324395 -0.006074862 -0.017688902 0.011415203 -0.0014332675 -0.008598307 -0.009635781 -0.019430736 -0.0116396565 0.012708381 0.010659104 0.003823247 0.005518622 0.023356508 0.0015716584 -0.011215815 -0.022550939 0.0051953252 -0.006459774 -0.0003508071 -0.015019331 0.00278928 -0.0042557884 0.0057496736 0.0045377435 0.0051125297 -0.00061950285 -0.0050778575 0.014760873 -0.007613804 -0.012227664 -0.009401949 -0.012817471 0.0046376204 -0.00020839745 -0.011661136 0.006904594 0.018547636 0.017052412 -0.008796617 -0.0025007825 0.0021065483 -0.026073989 -0.015861323 0.00012499103 -0.0025106703 0.002048057 -0.0003179568 0.008552965 0.0029078752 0.0036824092 -0.021358661 -0.013885086
6 -0.010682215 -0.009054864 0.022044146 0.01078191 0.009260626 0.018207962 0.0024128454 0.02463278 0.012084963 -0.004570175 -0.017646492 0.02269632 -0.018844925 -0.012576809 -0.020293852 -0.01721096 0.006321482 0.015348286 0.021416187 -0.0069461926 0.009464156 -0.007959429 0.02061799 -0.016206224 -0.01633422 0.024724392 0.0075179003 -0.022083921 0.0053021954 0.011691229 -0.015776014 -0.00620202 0.010390959 -0.008246361 0.016997844 0.008077179 -0.014046541 -0.0017893122 -0.0108020175 0.01857415 0.01938935 0.011894315 -0.017867966 -0.025292445 0.0042203646 0.013095381 -0.022925055 -0.005690911 -0.0012512817 0.018314388 -0.023194104 0.006764115 -0.01474952 -0.0003662493 0.020846583 0.010772097 -0.01828341 -0.013826539 -0.02249237 0.011105748 0.003257046 0.020092627 -0.01258088 0.005776396 0.0124121485 -0.0030916892 0.019974977 0.020114962 -0.013933363 -0.0033103595 -0.0016985842 -0.004618478 -0.01873684 0.016609002 -0.023005363 0.02267199 0.004762678 -0.02340007 0.011314852 -0.01214857 0.0032573454 -0.0009974552 -0.014068409 -0.012346178 0.011313181 0.009150546 -0.0026179305 0.016398601 0.013414756 0.010945311 -0.0228653 -0.02349669 0.0019810828 -0.021501023 0.0042912876 -0.009205751 0.0016110739 0.010446766 0.0031220883 0.01404791 -0.00082508824 -0.0076911165 -0.02403011 0.012344738 -0.017752167 -0.013844076 -0.02445714 -0.0048021604 0.01353062 0.027250359 -0.017025981 0.009038875 0.015947206 0.027935585 -0.025295228 -0.018260997 0.004043086 -0.025121339 -0.018434163 -0.019061828 0.0020024718 -0.009870209 -0.022583831 0.015353971 0.0025673981 0.002602322 -0.019001594 -0.013533936
7 -0.016107146 -0.023733659 0.020919688 0.010998823 0.006397891 0.017739547 -0.008308587 0.022636056 0.010450181 -0.0076423287 -0.01863536 0.023295615 -0.014057995 -0.010955847 -0.0123843765 -0.011136749 -0.0033109812 0.017319368 0.012357121 0.00067447743 0.016196419 -0.0125712 0.013640442 -0.019703068 -0.004516081 0.023150459 0.007879075 -0.016746612 -0.005077815 0.016510045 -0.02059695 -0.008605759 0.014852347 -0.0006307764 0.0075058057 0.012524674 -0.014778799 -0.018867161 -0.0127506275 0.018790334 0.014097072 0.016753577 -0.016291248 -0.011800816 0.010001546 0.012503076 -0.017511215 -0.005543753 -0.0024256357 0.012909911 -0.02277414 0.011179776 -0.019346783 -0.0010836114 0.013340488 0.011415306 -0.010115498 -0.015479377 -0.01874355 0.008309201 -0.015345593 0.019153755 -0.012323394 0.021157995 -0.00049575546 -0.015944285 0.0133416215 0.018623553 -0.011490638 -0.009016774 -0.0055802297 -0.011285422 -0.023026366 0.01806759 -0.023117604 0.016670972 -0.003656222 -0.009228833 0.018807244 -0.0041339383 0.0018117072 0.0029883638 -0.015304067 -0.016298104 0.0025519608 0.014781009 -0.0055489857 0.010657665 0.015062432 0.007882481 -0.017755715 -0.019622102 -0.0030842323 -0.024189383 -0.00036808068 -0.009242394 0.006427906 0.020823069 0.011976407 0.02294174 0.011114681 -0.0032605068 -0.01573991 0.022573797 -0.023369554 -0.017145416 -0.013284821 -0.013016253 0.015532718 0.021476261 -0.0045318212 0.021232113 0.008482496 0.018653804 -0.016763648 -0.019668743 -0.0045478204 -0.011464905 -0.0074207843 -0.003628992 0.0043896693 -0.0028516878 -0.024857216 0.0073504765 -0.0035639023 0.008815499 -0.020857569 -0.005741831
8 -0.012272152 -0.016539924 0.015603307 0.0019276252 0.01080169 0.01980751 -0.0020133902 0.023117736 0.011794885 -0.0044452557 -0.01698098 0.017404716 -0.010669518 -0.02222058 -0.027046295 -0.012918026 0.013620975 0.02402579 0.025346227 -0.0025586626 0.0070614214 -0.013360611 0.01956211 -0.020463409 -0.024474297 0.024397247 0.015945818 -0.022072239 0.004466438 -0.010801647 -0.018294219 0.0018500262 0.019016916 -0.0038005544 0.01291756 0.024339203 -0.008272217 -0.008632871 -0.006521878 0.021634452 0.0201142 0.014258135 -0.005492299 -0.023654403 0.01496583 0.015709892 -0.02528704 -0.009290209 0.0006262766 0.027164951 -0.021715319 -0.0013836466 -0.009768863 -0.01966088 0.027406123 0.0142001 -0.020584716 -0.024508564 -0.019478979 0.028191516 0.0021042402 0.028260047 -0.02136084 0.0150245 0.020361783 -0.009875735 0.01449424 0.01914322 -0.025241498 0.0025173256 -0.019082878 -0.013623114 -0.028410198 0.011602613 -0.027225416 0.015195189 -0.007889244 -0.022729833 0.02041781 -0.014883087 -0.0049753846 -0.020178469 -0.024388641 -0.02515964 0.013799623 0.022709563 0.006181839 0.024349706 0.021216994 0.007138143 -0.018016089 -0.026221085 0.021301502 -0.026837504 0.0066527305 -0.026568385 -0.014595469 0.017198725 -0.0056640557 0.014302636 -0.006309942 -0.000291772 -0.023757607 0.018650759 -0.014669591 -0.0078007854 -0.028790547 -0.022256026 0.026011253 0.022417983 -0.017875515 0.021839188 0.022301702 0.029777957 -0.020245617 -0.01692808 0.006899769 -0.028514812 -0.020399611 -0.022405526 -0.0016413112 -0.008726748 -0.013984098 0.017954346 0.015837627 -0.006627573 -0.0248206 -0.01623311
9 -0.008371252 -0.02323406 0.027483474 0.015353505 0.017594825 0.019215263 0.0010894196 0.023964185 0.012054161 0.0022001974 -0.03155779 0.027301071 -0.022668887 -0.028683966 -0.017133683 -0.028937768 0.018858295 0.027156625 0.024372038 0.008055379 0.0008439652 -0.0033484688 0.016431618 -0.021720609 -0.014483987 0.021292869 0.012621973 -0.017425863 0.0033515717 -0.0024170117 -0.025090884 -0.00052045175 0.023395937 -0.0075560925 0.01731265 0.013794816 -0.01290399 -0.008169124 -0.011593525 0.024882475 0.025682507 0.02371379 -0.013046017 -0.022644347 0.017623225 0.0051478 -0.004881025 -0.0099919075 -0.0071381005 0.024642225 -0.027871972 -0.0043004374 -0.010395369 -0.010025232 0.022687491 0.024200045 -0.027111745 -0.021066306 -0.028996605 0.022338923 -0.01032821 0.028700318 -0.019468734 0.027500613 0.015884766 -0.014304906 0.018796826 0.014928332 -0.015741417 -0.006291628 -0.013573535 -0.013119367 -0.02777673 0.001481123 -0.014161709 0.0227598 -0.008865927 -0.019341163 0.019419324 -0.012933035 -0.0042729825 -0.018126298 -0.015729215 -0.023850832 0.024747968 0.015396952 -0.018059418 0.023968646 0.027841106 0.013915407 -0.027484482 -0.01583838 0.012390197 -0.0157564 0.020053266 -0.021189926 -0.009167605 0.014673902 -0.0018253747 0.025471894 -0.003758916 -0.0025591017 -0.030793868 0.016237509 -0.022510685 -0.01082492 -0.021539923 -0.0107829785 0.025817478 0.0099495165 -0.013222386 0.018704152 0.01656139 0.02109852 -0.018502912 -0.025739415 -0.0077581257 -0.022197811 -0.027039217 -0.027514972 0.005333034 -0.008033327 -0.020653958 0.01824244 -0.00038865753 -0.0026073302 -0.02221539 -0.023834543
10 -0.003205863 -0.009141165 0.027487626 0.002736626 0.017061539 0.022859273 -0.0042044986 0.025565552 0.0081631765 -0.0008149481 -0.019049194 0.026397632 -0.019933918 -0.025328765 -0.02806034 -0.02498604 0.012398442 0.022384781 0.025099158 0.003173621 -0.0005639957 -0.01373803 0.016962586 -0.01742457 -0.019688288 0.014625447 0.0038963715 -0.016494507 0.011399981 -0.008890176 -0.0097285155 -0.00075842044 0.019640211 0.0013838878 0.014929638 0.015001666 -0.009135177 -0.013499037 0.0007538367 0.015306783 0.018172165 0.0069626556 -0.0002768573 -0.028724436 0.015264224 0.020758655 -0.009595678 0.017189777 0.008761736 0.022852559 -0.01895523 -0.005546527 -0.0045278217 -0.014358242 0.018749345 0.010594214 -0.013444932 -0.018755881 -0.026089488 0.024192233 -0.0017328329 0.026204115 -0.021706898 0.004407567 0.017293468 -0.0033336277 0.028804077 0.01597848 -0.025228668 0.0038994905 -0.02084015 -0.0023297113 -0.026876377 0.013333464 -0.022763994 0.022120772 -0.012071576 -0.015034391 0.02168042 -0.0077776257 -0.0070257876 -0.0126214875 -0.012628324 -0.013855626 0.020155849 0.008812364 0.01190223 0.022913394 0.019678337 -0.001580118 -0.0006484306 -0.018629702 0.006726459 -0.030011132 -0.0030543164 -0.02107746 -0.0066285953 -0.0007623184 -0.010944824 0.010370508 0.0012848029 0.008941038 -0.021776672 0.021163069 -0.008606274 -0.0063873753 -0.025256854 -0.023121515 0.02641167 0.011481509 -0.0053153224 0.028902417 0.016772829 0.023581851 -0.025734212 -0.020893734 0.012879072 -0.023588179 -0.017696626 -0.016578352 0.0013775318 0.0012937554 -0.01714644 0.016463157 0.007076714 -0.011411654 -0.02790214 -0.01690176
11 -0.0055247704 -0.02273759 0.016122838 0.003138294 0.023495812 0.023562739 0.0095196115 0.021251637 0.014981 0.005519168 -0.024009703 0.027918495 -0.026039474 -0.023804849 -0.014780717 -0.026862353 0.011643272 0.022311432 0.028391978 -0.01971337 -0.007534089 -0.0029512944 0.02884812 -0.020502925 -0.0119917635 0.024077792 0.0033387772 -0.018290449 0.012946072 -0.008651301 -0.023636885 0.021140257 0.010918893 -0.004555795 0.023545729 0.028345712 -0.010050382 0.007056248 0.006212527 0.019075442 0.027570706 0.01686846 -0.026356485 -0.02897877 0.011084259 0.015548132 -0.020375976 -0.011820053 0.017397355 0.02486248 -0.028197076 -0.015567737 -0.014998986 -0.01919408 0.028682359 0.007500951 -0.0219258 -0.026293958 -0.017445134 0.01872619 0.01658949 0.019794196 -0.02547792 0.009530707 0.02642608 -0.0062102415 0.018326335 0.026206968 -0.015862256 -0.0071385093 -0.023867292 -0.012168384 -0.023890853 0.004654639 -0.026120631 0.027808651 -0.0061585526 -0.023758743 0.023669057 -0.015025483 -0.0059666494 -0.012663524 -0.020814357 -0.03015871 0.026630806 0.016973907 0.0020409995 0.02563989 0.019364934 0.0047452794 -0.020577708 -0.015670132 0.022662083 -0.017106064 0.014856973 -0.025209958 -0.022466216 0.018478338 -0.016748214 0.03050747 -0.011137318 0.016241264 -0.016487483 0.01390957 -0.020447278 0.0024809293 -0.017388586 -0.022852551 0.02650952 0.019318027 -0.016270334 0.01924653 0.0135212485 0.026681148 -0.029785715 -0.025004921 0.008541512 -0.018304855 -0.016852107 -0.019118918 -0.010402695 0.0046755206 -0.016195398 0.013247217 0.014241665 -0.010036053 -0.02140955 -0.028588455
12 0.0023292063 -0.0132254325 -0.000946914 0.010339595 0.01166666 0.002547391 0.0101666665 -0.00088784884 0.014261043 -0.010583148 0.005280646 0.0061603687 0.005864095 0.00575102 -0.0049437033 -0.008809274 -0.008869431 0.0002959557 -0.0031261113 -0.009434375 0.0074107954 0.0024099662 0.0097577665 0.0031533625 -0.008989899 0.020850785 0.006888806 0.0069339415 0.0029978452 0.012167527 -0.0017351784 -0.005493586 0.0077597154 0.014647389 0.00568298 -0.0006970299 -0.00024906726 0.00463477 -0.009012785 0.0012433478 0.0027285079 0.009695953 -0.010300167 0.0007343488 0.014238559 0.01786359 -0.0050293333 0.0009581648 -0.014873871 0.0048612473 -0.009981588 0.010757598 -0.011264472 0.007879919 0.011301286 0.0091478 -0.0019843217 -0.0015543432 -0.010124144 0.00022723287 0.0023648527 -0.0019357386 -0.0009398592 0.0048706136 -0.00040782886 -0.00022507826 0.008061553 0.011243194 -0.0011486795 -0.018266158 -5.9023994e-05 0.00172476 -0.008797695 0.0047235996 -0.02026732 0.0045459224 0.001605273 -0.0010140181 -0.002162705 -0.011449617 -0.012529364 -0.0029477873 -0.005909071 -0.008647811 0.0037784728 0.0064384663 -0.0071300543 -0.0015380469 -0.0024619391 -0.002390649 0.0028210126 -0.006373754 -0.018139968 0.0005045324 -0.001144001 -0.0058474517 -0.002500161 -0.0027805252 0.00183315 0.0052304883 -0.00041836727 -0.0070984187 -0.005654791 0.005679627 -0.0051177647 -0.005330415 0.0008443709 -0.0048765885 0.008789385 0.018651979 2.4377776e-05 -0.005700012 0.0025261468 0.0009613702 -0.012695506 -0.004367812 0.010948854 -0.0028024092 -0.009466427 0.0038707529 0.01856249 -0.005610837 -0.0055675004 0.016498627 0.0003116874 0.012223637 -0.012480793 -0.0028522494
13 -0.015930165 -0.019834775 0.00047316554 0.0121531645 0.0044124806 0.004546782 0.0038361552 0.013501176 0.021727012 -0.013582374 -0.016990207 0.008053013 -0.0020817453 -0.0050663 -0.0049140626 -0.018236293 -0.007757688 0.010723709 0.0136214215 1.10365945e-05 0.0005543382 -0.0011704164 0.010627849 -0.020457478 -0.0018365711 0.024025396 0.014291683 -0.001759273 0.0017002 0.010803654 -0.0034369412 -0.0091872495 0.0032323732 0.0035950853 0.013850463 0.00698391 -0.010172131 -0.0066194213 -0.01958447 0.014677225 0.006375953 0.01982301 -0.022460919 -0.009915531 0.015006079 0.005313873 -0.012239301 -0.0024870797 -0.015023025 0.0020598788 -0.010622683 -0.0010096473 -0.00074256514 -0.003998879 0.008018659 0.02174547 -0.006875197 -0.013679901 -0.011071816 0.006807686 -0.001834696 0.0051482944 -0.0012556282 0.017482355 0.0008555987 -0.017311305 0.007122538 0.013740654 -0.0061971657 0.00074178545 0.0027825213 -0.0010546405 -0.005283837 0.009403607 -0.011872623 0.011338033 0.009076008 -0.015142159 0.014703698 -0.0068663796 -0.0064643817 0.0034257476 -0.02116629 -0.00017794454 0.0031966206 0.0017561726 -0.008572861 0.011559706 0.0089348005 -0.0029036624 -0.0017761354 -0.008703975 -0.009627529 -0.014481565 -0.004051706 -0.0025168294 0.0014443937 0.00239444 -0.00031147042 0.007459447 0.009144941 -0.011361726 -0.01553015 0.0026234044 -0.003946483 -0.014154035 0.0021887766 -0.0032277417 0.0036799535 0.0042564324 0.0008960478 0.0059363786 0.0070388564 0.0047306474 -0.010171093 -0.015212347 -0.0008289762 -0.013600965 -0.020619072 -0.0046030493 0.010307245 -0.007827135 -0.005981565 0.011868701 0.0051915613 0.00088946446 -0.015065951 -0.0104010645
14 -0.018045316 -0.015024601 0.021232074 0.01276222 0.017008265 0.024397733 0.018061686 0.01938654 0.02673433 -0.0055725393 -0.026457848 0.015616181 -0.013216618 -0.014004229 -0.023093123 -0.011791328 0.009800751 0.010471009 0.020608459 -0.024536945 -0.0048193866 0.011114327 0.021033231 -0.024549022 -0.006941607 0.02402337 0.014652921 -0.006919155 0.027682927 -0.007095271 -0.020838618 -0.00092667964 0.010602684 0.0010469067 0.01966807 0.012207578 -0.018418256 0.0032538087 -0.010833709 0.018972522 0.019299047 0.027429715 -0.018858837 -0.021501089 0.013555996 0.02172178 -0.022289589 0.007176374 0.00024354254 0.015662258 -0.013382343 -0.0038039945 -0.026078949 -0.006622052 0.017199844 0.023115037 -0.015912885 -0.010942098 -0.016430445 0.019680602 0.010981516 0.014656183 -0.013307184 0.014457158 0.022966012 -0.015122015 0.017554484 0.018684363 -0.02069342 -0.01280925 -0.023188716 -0.01240834 -0.016241131 0.015346052 -0.012967689 0.019022888 -0.004778965 -0.011942643 0.02268492 -0.027482163 -0.020998577 -0.020644521 -0.027212922 -0.01542105 -0.00025280996 0.013851604 0.016185582 0.01839642 0.013322974 -0.006843314 -0.01245372 -0.0017637725 0.011545493 -0.024070125 0.0047568 -0.01916729 -0.009375168 0.0018136255 -0.008685591 0.011415591 -0.0036296854 -0.0037605772 -0.017075967 0.0128060365 -0.023013007 -0.015026521 -0.018601753 -0.022137124 0.017947288 0.02005739 -0.012857268 0.0035432759 0.0110003445 0.013140344 -0.023513202 -0.023441922 0.022189222 -0.020000208 -0.015269676 -0.009468153 -0.006194351 -0.0075285346 -0.022286868 0.023373 0.015518517 -0.0035585302 -0.018137442 -0.024775807
15 -0.011317676 -0.01658379 -0.0050825803 0.007989966 -0.0029892558 0.011728212 0.0010987367 0.0033061425 0.0183536 -0.018685268 -0.015088517 0.011182397 0.008491995 0.00479134 -0.0036139996 -0.005065698 -0.0071606482 -0.0021543463 -0.005188507 0.0044849818 0.018563816 0.011472287 5.8842677e-05 -0.0049057733 0.009191815 0.009141909 0.0063884477 0.0010030713 -0.0013798735 0.004690629 -0.023395255 -0.010633797 0.0069052936 0.01197065 -0.0005673779 -0.0039691804 -0.014211731 -0.010399591 -0.0068385866 -0.0041620177 0.020687874 0.010006451 -0.009306685 -0.0013830034 0.005505891 0.015012338 -0.0057606865 0.006636931 -0.0073029115 0.0024433085 -0.0077838674 0.015096145 -0.016432865 0.01106233 -0.0021750918 0.015341144 -0.004015195 -0.011072239 -0.003874499 -0.0017526966 0.0031580348 0.0038890024 0.0094675375 0.013363984 -0.00583863 -0.015825735 0.001623742 0.009927773 -0.0041032033 -0.002758334 -0.0016472283 0.013266365 -0.0067107705 0.019221766 -0.011863911 -0.00063919765 0.0073957243 -0.0068985056 0.0041061793 -0.0010621196 -0.0058835046 -0.0018118629 -0.011232241 -0.0105353845 -0.0037618899 0.0011747646 -0.013256365 0.00850807 -0.0069312444 0.0024068407 -0.002598735 0.003477019 -0.006159101 -0.0014289165 -0.0077599823 -0.002170988 -0.00042653392 -0.0071164803 0.002451357 0.006518816 0.0079172645 -0.012900751 -0.001652665 0.002188017 -0.008728607 -0.015229519 -0.0058507356 0.0030283148 0.005717171 0.0069523714 -0.006049347 0.0017019279 -0.0006945693 0.0118036475 -0.017743275 0.0034872524 0.003244992 -0.021869348 -0.012725743 -0.0075382916 0.012990072 -0.0128384195 -0.009873521 0.00834355 -0.0018580299 0.004231313 -0.00785907 -0.008592495
16 0.0031630266 0.0041385 0.009769891 0.0015662651 0.01971935 0.0048512947 0.023211157 -0.00043430855 -0.0033736727 -0.0052910233 -0.010743906 0.01004615 -0.001467289 -0.0018613625 0.0027194424 -0.019882899 -0.0012365669 -0.0039967364 0.0025426475 -0.016609998 3.5239238e-05 0.010696984 0.006541704 0.003520429 0.00031221437 0.008768769 0.002566873 -0.011064957 0.012831789 0.0036591054 -0.001024066 0.004319344 0.001172663 0.015384624 0.0023753147 0.0085011 -0.004266682 0.0028666498 -0.0052702203 -0.0017156455 0.0026127514 -0.0069126617 -0.01637739 -0.011961024 0.0030160449 0.0075659016 -0.0021403525 0.0038259472 0.011510738 0.012735102 -0.018537007 -0.0039296625 0.0007672423 -0.0068523036 0.007996884 0.0041006026 -0.0037059863 -0.0014407876 -0.008443 0.018923853 0.013248242 0.011384575 0.008741089 0.011465142 0.01095844 -0.012919093 0.005587888 0.021947281 -0.00600848 -0.0026234146 -0.0156069 -0.010527629 -0.021189105 0.015829248 -0.009447909 -0.0049139755 0.013111641 -0.0031592017 0.011132555 -0.018005935 -0.021263978 -0.008749729 -0.016882619 0.0005600668 -0.0062629445 -0.007888106 0.0129849035 4.2648404e-05 0.011526964 -0.0053762854 -0.008206287 0.0024531097 -0.007473577 -0.003114582 -0.0056185247 -0.018841818 -0.005096352 0.0027069398 0.003670423 0.005195599 -0.0060081254 -0.003271512 -0.010144918 -0.0069126585 -0.023240868 -0.013460852 -0.0072360616 -0.011638865 0.0033812744 0.022594169 0.004703841 -0.0033029916 -0.00092555076 0.008411542 -0.021330599 -0.022392653 0.0164332 -0.0117862895 -0.011616034 0.005167036 -0.005376617 -0.0025504003 -0.00918463 0.013088412 0.018245326 -0.0021772832 -0.014508586 -0.027477259
17 -0.0032064328 -0.014806853 0.016278652 0.004454048 0.017258525 0.016946029 0.012692052 0.024217496 0.015738225 0.0038791785 -0.013322458 0.0165583 -0.01725602 -0.012089729 -0.009121133 -0.01707289 0.007058476 0.01744198 0.013627077 -0.019394463 -0.00522342 0.009176742 0.006631097 -0.009668231 -0.013205582 0.014872736 0.023106689 -0.005083818 0.027080325 -0.013160491 -0.013913127 -0.001810051 0.009034999 0.005024329 0.0016875316 0.013130172 -0.0020132095 -0.0035931612 0.0063387784 0.0114754215 0.016440986 0.0160212 -0.0250548 -0.009951442 0.011982028 0.018916694 -0.016906545 0.0082170535 0.0035511293 0.019106707 -0.018589009 -0.0036150825 -0.005656589 -0.008475794 0.001514259 0.015687471 -0.0076146233 -0.018381393 -0.018737024 0.012666225 0.0062103616 0.020309025 -0.013685297 0.020323057 0.011714854 -0.0080806175 0.010623513 0.008220272 -0.019197563 -0.009162756 -0.019158673 -0.0087945545 -0.010096077 0.007948877 -0.009027579 0.00486529 -0.0075123403 -0.01898386 0.013421729 -0.010342752 -0.028089631 -0.010479291 -0.00510309 -0.014000694 0.0049217497 0.0072391457 0.01184562 0.007419477 0.0101012755 -0.01683932 -0.023235377 -0.017543936 0.008959943 -0.012553024 0.0024365461 -0.014727434 -0.017047072 0.001542125 -0.010577747 0.016626643 -0.006483889 -0.0056259865 -0.00496656 0.018236885 -0.02313498 0.00034927236 -0.0025275988 -0.012312494 0.011684945 0.022855984 -0.018454203 0.008107049 0.0036584418 0.01726818 -0.026347192 -0.014854405 0.017218346 -0.013356818 -0.006197867 -0.012359793 0.0015237893 0.0033081716 -0.014860315 0.01599952 0.01585742 0.0054029995 -0.021164747 -0.019596944
18 -0.0028866336 0.0067633386 -0.011052199 0.015063366 0.017720181 0.0073687932 0.022274654 -0.0017685101 0.02254536 0.001240591 -0.010616613 0.004836057 0.000813827 0.0107467715 -0.0072027226 -0.011262179 -0.024041869 -0.006970796 0.013698899 -0.010188289 -0.0003248842 0.021084106 0.0062492853 -0.0032283717 -0.015231784 0.0044075605 0.0022031257 -0.0070790597 0.020571832 -0.0026272307 -0.005380422 -0.011990765 0.000110604335 0.023526171 -0.0048366445 0.0070026387 -0.00751733 0.0073038493 0.0039245295 0.003550084 -0.007721228 0.02123106 -0.01210005 -0.012387487 -0.011815051 0.021436386 -0.011418213 0.013452035 0.0013672756 0.01366979 0.008890723 0.016426729 0.00767598 -0.0025248253 0.01658428 0.015301209 0.012207527 0.0062949173 0.0009624404 0.0108836135 0.015600434 -0.009357203 0.01138923 0.014689205 0.016334144 0.0066645443 0.01665916 0.011586449 -0.0028052875 -0.01784327 -0.021412414 0.008862429 -0.022689087 0.012259107 -0.019534359 0.001906085 0.025086284 0.003323947 -0.0028045578 -0.022887597 -0.0002491519 -0.022884503 -0.011388656 0.006090498 -0.008487822 -0.005790011 0.016172327 -0.0045614946 0.0067911795 -0.013185366 0.0028686356 0.0068216436 -0.025995195 -0.0041798158 -0.013327895 -0.016663305 -0.012584401 -0.005850741 -0.01808658 0.0013257929 -0.00025905023 -0.010222966 -0.0035919868 -0.015127934 -0.0014615504 -0.003461303 -0.022707246 -0.016726512 0.01143319 0.010198366 -0.016866032 -0.018943643 -0.0061031184 0.0073658945 -0.009162169 -0.0033338773 0.025586277 -0.016703939 -0.0043363743 -0.0014362462 0.012306378 0.0031799637 0.007666996 0.0005591712 0.017961938 -0.0034303644 -0.01717305 -0.02226068
19 -0.019461762 -0.00018203224 -0.012385704 0.021464478 0.004345583 -0.0012056845 0.011885717 0.017112158 0.012816871 -0.020788362 -0.006231001 0.0062557934 0.016834559 0.007532442 0.008935622 -0.010408405 -0.015797166 0.009453159 -0.013181432 -0.0075142984 0.021583326 0.008859145 -0.005516206 -0.010298055 0.009980967 -0.0006386597 0.013542155 0.016705688 0.0057729976 0.011614157 -0.012130953 -0.01891442 -0.014668817 0.013600475 0.011244515 -0.012994606 -0.0058259014 -0.015495905 -0.028120346 0.0006361346 0.0048501627 0.020986747 -0.010842893 0.011668938 0.013195722 0.015027027 -0.024990093 0.008719305 -0.02594581 -0.0007804428 -0.0024498948 0.01829836 -0.022408454 0.014499868 -0.011872947 0.009112744 -0.0014726412 -0.0021029876 0.00900012 -0.008668174 0.014676507 -0.0077664433 0.0186397 -0.006351707 0.0016508325 -0.01069335 -0.0047519454 0.0076968567 0.0054429853 -0.003533911 -0.0018750314 0.011355352 -0.0047784704 0.023610817 0.0030226577 -0.0059044953 0.0053709024 0.008209341 -0.0032811319 -0.005996795 5.370303e-05 -0.0027023493 -0.019953767 0.008065802 -0.004635231 0.011854246 0.0039677345 -0.0038817148 -0.00088123063 -0.016193856 0.0021514401 0.00160636 -0.01143156 0.01280677 -0.0045878496 -0.0025596966 0.00928597 0.00196619 -0.0022745684 0.010010182 0.018071849 -0.025090775 0.0004877984 -0.0049484256 -0.016083894 -0.023972 -0.024154551 -0.013906725 -0.013745131 0.015646484 0.0050317473 -0.01211495 0.003044508 -0.009059058 -0.008354371 -0.004665666 0.018738609 0.009672533 -0.0034053745 0.0014014409 0.012677942 -0.02896564 0.0024729634 0.023805989 -0.00071429973 0.019912148 -0.0012904308 -0.008396981
20 -0.007853326 -0.02162195 0.023975262 0.009742701 0.012771488 0.021878282 0.0082695205 0.021596907 0.025921883 0.0014587301 -0.017776903 0.01867602 -0.016713224 -0.022365678 -0.017352404 -0.014526281 0.0062390026 0.019133724 0.019191721 -0.0219201 0.007924154 0.0025457384 0.020153254 -0.008506131 -0.02039113 0.02129275 0.010928283 -0.008957121 0.017687842 -0.011508321 -0.027212527 0.0085148 0.010470789 0.006045356 0.01032465 0.023320504 -0.008596547 -0.00041340053 -0.009727026 0.017597223 0.022714322 0.024185108 -0.018779414 -0.022492545 0.003708416 0.024402654 -0.015463991 0.015890496 0.007761891 0.020379538 -0.02297655 -0.009658333 -0.012030109 -0.015237374 0.0076965364 0.022443121 -0.013460079 -0.0225522 -0.023656102 0.023014698 0.021633036 0.018363522 -0.018393165 0.016479222 0.023862638 -0.0048134057 0.019006016 0.023761954 -0.013735006 -0.018343855 -0.018155081 -0.01729223 -0.020090668 0.0067691104 -0.00876508 0.022494769 0.00026080292 -0.018894017 0.013633674 -0.020945922 -0.015238448 -0.017974159 -0.013773653 -0.021457586 0.017503928 0.014326615 0.025426075 0.01119349 0.008890324 0.0035788936 -0.02397475 -0.017352497 0.0069209617 -0.022348389 -0.0007841681 -0.020799212 -0.011247077 0.017807614 -0.008503068 0.01731508 -0.014857977 0.0020871593 -0.023901103 0.024006724 -0.0177825 -0.0104249595 -0.0076472666 -0.017104417 0.011561239 0.015888404 -0.025777128 0.013112083 0.017491197 0.01717055 -0.023567915 -0.015671598 0.011794388 -0.016602803 -0.025119262 -0.023240993 -0.0075812917 -0.008048457 -0.013251754 0.019278675 0.014109127 -0.0025060882 -0.011945153 -0.012023197
21 -0.020562269 -0.012946119 0.018564232 0.006806363 0.018275537 0.019977164 0.004668143 0.017647114 0.020137556 0.0010057624 -0.0040053995 0.01702416 -0.009445462 -0.017771019 -0.019315952 -0.01062633 -0.0043233633 0.009871959 0.014659795 -0.01868046 0.0067323972 0.0061122547 0.0023994977 -0.014927122 -0.014070773 0.01383628 0.009556422 -0.0034337977 0.0121072335 0.010310518 -0.012230332 0.004023069 0.0054519377 0.014987876 0.0011388906 0.016122332 -0.020972375 0.0041753515 -0.006220787 0.013840763 0.012507012 0.0013729538 -0.018135985 -0.015255324 0.018172057 0.011800669 -0.009004786 0.013761505 -0.00011739325 0.017257178 -0.007333782 -0.0017823963 -0.02941527 0.0006377365 0.0023501446 0.008714076 -0.015711693 -0.0056128604 -0.008413513 0.01478223 -0.0007244141 0.0073983506 -1.6242615e-05 0.0057023945 0.014979725 -0.004869624 0.016985368 0.003316789 0.00012120069 -0.017115938 -0.015272431 0.012667607 -0.014024623 0.027536679 -0.015247191 -0.00083250523 0.010652042 -0.0155587 -0.003583345 -0.023990385 -0.013127209 -0.014094461 -0.027684046 -0.0077680782 -0.0012721547 0.0070849927 0.004169542 0.008038952 0.009615281 -0.009765449 -0.004199002 -0.005886722 0.0018806391 -0.0066688024 -0.010515819 -0.019886587 -0.0020856494 0.011052791 -0.0044929953 0.0143925585 0.009997634 -0.0055293236 -0.019945927 0.01395793 -0.025940133 -0.013603097 -0.017702121 -0.006711432 0.008354665 0.020370621 -0.000687543 0.008657368 0.014220043 0.011557485 -0.01906857 -0.01866353 0.024277737 -0.020278668 0.00014604582 -0.0044134837 0.0011447122 -0.00026416435 -0.016216746 0.021623984 0.01814852 -0.0049659633 -0.01006993 -0.014525088
22 -0.0101682395 -0.014716863 0.012857962 0.023589056 0.021255933 0.01205147 0.0039146733 0.016570462 0.014450617 -0.0097124325 -0.00752745 0.020532476 -0.007354036 -0.0033226933 -0.011060909 -0.0015541719 0.010853415 0.003267932 0.012179548 -0.024567474 -0.005360503 0.0046270485 0.018460479 -0.011250469 -0.019129036 0.016978614 0.0058386503 -0.009721415 0.02374706 -0.002431124 -0.01430708 0.0017363033 0.007324691 0.007532572 0.008460308 0.014045358 -0.00427661 -0.018838441 -0.011950725 0.025534827 0.012622379 0.021326575 -0.020641476 -0.0063445764 0.0088542 0.014244943 -0.01569764 0.009345711 0.0029283285 0.01467626 -0.009060267 0.0042691417 -0.0019909288 -0.008770447 0.002403932 0.0029145211 -0.0061798533 -0.025222568 -0.010589104 0.0040444294 -0.003221292 0.015615266 -0.0018181427 0.008928202 0.016092515 -0.009786533 0.0040329034 0.01878017 -0.0049648318 -0.01434434 -0.0070650186 -0.0054620174 -0.009047906 0.013498291 -0.022112032 0.014518887 -0.0028218015 -0.01624658 0.001822055 -0.018612683 -0.02824905 -0.018693736 -0.01948947 -0.004398741 -0.0007585724 0.018182596 0.015220997 0.0041582207 0.0026113056 -0.007457832 -0.013954802 -0.009409327 0.005993043 -0.010467258 0.006404828 -0.010094414 0.00063785864 0.004901807 -0.008329972 0.0150203 -0.0035122493 -0.0030493655 -0.024829315 0.005879211 -0.019820364 0.0016305177 -0.01069371 -0.009376408 0.005543745 0.016896643 -0.01707736 0.010956194 0.010392963 0.005595071 -0.0075333207 -0.0072950036 0.010813511 -0.005911446 -0.020224672 -0.014390662 -0.0018615676 0.0045433156 -0.0048261215 0.014237027 0.0027795047 0.0021969853 -0.012497924 -0.017171057
23 -0.018960582 -0.0184553 0.018971441 0.015733829 0.022749964 0.02011666 0.025164898 0.013355327 0.026178405 0.00072894036 -0.019062296 0.024947844 -0.01095885 -0.01314788 -0.0120038 -0.011373015 0.0007696842 0.024426123 0.013567261 -0.015321173 -0.014002279 0.006983127 0.011481432 -0.02477396 -0.019793203 0.02311127 0.013668851 -0.00866858 0.023173679 -0.0057679033 -0.021182295 -0.001954751 0.01004421 0.0077880756 0.006726243 0.023010872 -0.009130154 -0.011883241 -0.010169735 0.022201274 0.013362197 0.022405716 -0.02084558 -0.011366492 0.01903806 0.00976121 -0.02204767 0.010687069 0.006412785 0.025357263 -0.021131678 -0.008156502 -0.017630197 -0.012586613 0.008984015 0.008986473 -0.023198973 -0.021658845 -0.015653608 0.02386107 0.01141375 0.013470378 -0.0075861174 0.007012739 0.013199123 -0.003844929 0.01150134 0.025644988 -0.02274843 -0.008651218 -0.019729398 -0.0041800677 -0.024878686 0.01438153 -0.027759043 0.022922337 -0.007691363 -0.013077606 0.017417755 -0.01970907 -0.019555159 -0.015315454 -0.02316859 -0.018286416 0.011970031 0.012950126 0.011503156 0.019282734 0.019850457 -0.002816704 -0.019923085 -0.012340772 0.0050266446 -0.020869326 0.005933215 -0.016645504 -0.01246527 0.007090745 -0.020669194 0.025619641 -0.010951778 0.011834112 -0.013157835 0.010841429 -0.01029874 -0.006157277 -0.02102905 -0.024167348 0.0203754 0.028672462 -0.0153188305 0.007890264 0.011475917 0.016363436 -0.025888015 -0.0251729 0.01393281 -0.01729748 -0.027857259 -0.020695962 -0.009431572 0.0016087664 -0.020708548 0.011608439 0.0106078675 -0.005873615 -0.023484742 -0.018521942
24 -0.014569359 -0.019443622 0.0118428115 0.020906534 0.0254777 0.027126616 0.013049467 0.014103796 0.025269147 -0.010811693 -0.027591093 0.019576425 -0.0009747067 -0.010959718 -0.018331688 -0.026249545 0.0051366556 0.013010079 0.015176276 -0.020784268 0.002679533 0.022162968 0.021103565 -0.011064156 -0.0038659344 0.026887788 0.015298317 -0.0016264115 0.025093136 0.0056494023 -0.015737383 0.0016433431 0.0021652428 0.012714412 0.01926464 0.02321467 -0.026206704 -0.0063200095 -0.0020320537 0.023338983 0.030219093 0.023716735 -0.025545858 -0.008894346 0.016007757 0.021672526 -0.027651032 0.025206037 -0.0006936553 0.02515824 -0.018025814 0.0046656188 -0.024123522 -0.00030579555 0.016695447 0.03071072 -0.012528774 -0.014718337 -0.015898354 0.020263145 0.020843418 0.010765493 -0.004657879 0.008446241 0.012131652 -0.0060458896 0.018504936 0.022443457 -0.021845546 -0.016398598 -0.021448508 -0.011777783 -0.02020981 0.011623522 -0.013511301 0.011678964 -0.0010553731 -0.01994317 0.008693742 -0.024103755 -0.008991272 -0.009253469 -0.022715792 -0.023578836 0.012890722 0.020413322 0.023432955 0.01465729 0.00491031 -0.0063553033 -0.024860594 0.0011922917 0.003651602 -0.024025794 -0.0052557816 -0.024605159 -0.007639481 0.0048470157 -0.007938603 0.019157194 -0.0069111646 0.0047747567 -0.019161113 0.005589583 -0.011594102 -0.009122996 -0.019078413 -0.014452543 0.019349089 0.020022321 -0.00856434 0.0009453144 0.017491749 0.020358503 -0.013868325 -0.01697586 0.022309087 -0.023954919 -0.025419943 -0.014540676 0.00078208203 -0.003419896 -0.022669457 0.030366514 0.0099013075 -0.006049742 -0.02358414 -0.01517473
25 -0.00071079866 -0.015928894 0.016445523 -0.0046948255 0.018631926 0.024817813 0.015966324 0.011821196 0.014654085 -0.005155759 -0.016588405 0.027302353 -0.020085292 -0.010635672 -0.023545124 -0.017355438 0.011519054 0.020563746 0.018177593 -0.022195956 0.0040994897 0.00835916 0.004988191 -0.02864968 -0.015241087 0.023062222 0.013744231 -0.018112915 0.02150482 -0.011650228 -0.027188573 0.0096854875 0.022933906 -0.0051132906 0.007598925 0.022479385 -0.01817202 -0.0070541156 -0.0046203258 0.015792299 0.02946718 0.009077899 -0.015733121 -0.019003589 0.0039505265 0.018141767 -0.019369286 0.0021484648 -0.0022901958 0.013704734 -0.02809254 -0.016634576 -0.021419732 -0.022527894 0.024776736 0.009298476 -0.02042528 -0.017841892 -0.016752468 0.026470259 0.014885868 0.024334658 -0.0096987635 0.010733416 0.018431894 -0.008329717 0.027603617 0.016706241 -0.01582424 -0.01903475 -0.022170201 -0.005360475 -0.023102088 0.0141168665 -0.024712842 0.016371442 0.0033465854 -0.02403471 0.026312456 -0.019642368 -0.007023771 -0.011794668 -0.013537298 -0.017021444 0.008232469 0.007889057 0.009380498 0.024510935 0.023513999 -0.0006003339 -0.020982917 -0.024527593 0.013693215 -0.022588408 0.01714666 -0.016607346 -0.018363351 0.007969655 -0.016600506 0.014649762 -0.00352062 0.006284974 -0.029292656 0.018776866 -0.012866257 -0.0015508219 -0.017060695 -0.021171855 0.025351318 0.014581475 -0.011160871 0.017012589 0.003496312 0.023266794 -0.02603921 -0.021442164 0.014559063 -0.023664935 -0.019842029 -0.020353338 -0.013138263 -0.007090758 -0.02061756 0.0139730135 0.009597297 -0.013563978 -0.026986536 -0.01969054
