1034 128
0 0.07833874 0.057124823 0.05000324 0.049051523 -0.13022652 0.05229188 -0.069919005 -0.038477495 -0.05357655 0.027437434 0.1312637 0.06361848 -0.058399767 -0.051838394 0.044642664 0.06988017 -0.07364426 0.03460108 0.038610566 0.080815926 -0.037399758 0.05008565 -0.039356217 -0.054362826 0.07813863 0.07864991 -0.043209795 0.050899092 0.053903025 0.057179876 0.052009184 0.038684163 -0.030195162 -0.0372474 0.10503319 0.03808238 0.06658703 0.07305985 0.055517178 -0.06218636 -0.05554888 -0.035978816 -0.04477472 -0.045134254 0.030013232 0.041407757 -0.04615381 -0.07073216 0.08844076 -0.06506985 -0.057107992 -0.058280326 0.06278957 0.03537372 0.100753516 -0.04070101 0.10166452 0.095298015 0.043868165 -0.11944653 -0.037708238 0.09536275 0.06315782 0.08399214 -0.033363122 0.041374665 0.04803597 0.052477375 -0.049330037 -0.054075032 0.054751504 -0.09589733 0.052999247 -0.051829178 -0.037661638 0.055162754 -0.06888399 -0.10944089 0.04698818 -0.13343191 -0.064937875 -0.027610088 -0.038417354 0.068242535 0.08134943 0.05361137 0.051060885 -0.12203802 -0.029333748 -0.0305062 -0.05849852 0.05703575 -0.12700759 0.037621293 0.08613303 0.09349604 -0.07211914 0.096725106 -0.03597627 -0.025399385 -0.047584783 0.049270384 -0.12798728 -0.042789984 0.06410494 0.08144695 -0.11823838 -0.111271925 -0.06573753 0.040111125 -0.076466024 -0.06710142 -0.034678865 0.061367456 0.0889845 0.03837894 0.12890542 0.062761314 -0.1167524 -0.051431768 -0.043573476 -0.05328553 -0.0744342 -0.11252542 0.05287687 0.09572422 0.02657128 -0.103025466
1 0.051441375 0.13726784 0.027918674 0.12637444 -0.09993237 0.09469179 -0.09932878 -0.10330508 -0.05432086 0.06661342 0.0849252 0.12665538 -0.08889225 -0.03646533 0.11493148 0.054912977 -0.078594826 0.120307095 0.0029760762 0.09746416 -0.020113392 -0.006651477 -0.09315738 -0.13750371 0.07443857 0.07296246 -0.0056132884 0.047963608 0.042901088 -0.023095744 0.051891357 0.10042547 -0.0035631896 -0.09974729 0.12601103 0.14550753 0.02544203 0.09400993 0.04236183 -0.012788457 -0.07413717 -0.023787156 -0.011934289 -0.06548863 0.02305302 0.021475747 -0.12117994 -0.026765687 0.0982791 -0.07921982 -0.1779366 -0.024339648 0.14141203 -0.021484623 0.10538849 0.00660717 0.16745818 0.09014741 0.0034496398 -0.08206542 0.0055020074 0.19174397 0.18147188 0.09184982 -0.0034858936 0.103953056 0.041958094 0.12596153 -0.1449049 -0.11063398 0.031204505 -0.04826271 0.04426241 -0.011719811 -0.109338835 0.06882437 -0.19648798 -0.11981816 0.018160554 -0.13045491 0.0032636535 -0.10477957 -0.044698905 0.098636195 0.079881094 0.113636866 0.08971252 -0.09607136 -0.09467383 -0.020264633 -0.088796146 0.11640843 -0.124591365 0.0060773427 0.08842459 0.16366532 -0.104650795 0.062705755 0.010139561 0.014237879 -0.051086456 0.03964232 -0.10304488 -0.021929314 0.19306567 0.032568183 -0.120469384 -0.04994967 -0.1137554 0.02205797 -0.08862935 -0.08371927 -0.12867774 -0.045087337 0.08116222 0.042670146 0.067599304 0.044436846 -0.12962058 -0.032771852 -0.0388631 -0.028126769 -0.065736234 -0.08573116 0.007124406 0.04919688 0.12281865 -0.067271255
2 0.043049898 0.10810827 0.0510252 0.06863254 -0.096382774 0.066606574 -0.076717 -0.06786837 -0.044968165 0.031302627 0.13943103 0.061884068 -0.0485399 -0.04018792 0.056031737 0.056090027 -0.063675776 0.045795914 0.04266763 0.044641525 -0.038949598 0.04745092 -0.03844385 -0.04102643 0.059442736 0.084420145 -0.03246896 0.01834044 0.066472344 0.040122867 0.065662816 0.09029594 -0.045482226 -0.0656803 0.04491523 0.092802234 0.057482954 0.084657915 0.05923062 -0.05274061 -0.11934107 -0.05938347 -0.045435894 -0.055517167 0.041731127 0.042390723 -0.044023577 -0.08805803 0.07851543 -0.0725451 -0.09247864 -0.04613091 0.06304645 0.048879907 0.18596022 -0.03787405 0.23248702 0.07933376 0.03993957 -0.09933522 -0.0504558 0.12327008 0.086224794 0.06263379 -0.03327781 0.04393933 0.061289847 0.046885323 -0.052368086 -0.05382863 0.066193774 -0.07162667 0.087220825 -0.033529095 -0.05549681 0.03186835 -0.23125932 -0.043458432 0.05138325 -0.07093673 0.0011497026 -0.038659994 -0.16006531 0.045122147 0.047785662 0.08570894 0.08168147 -0.10465729 -0.035468563 -0.058637403 -0.04924089 0.08112152 -0.13232175 0.04707539 0.12791035 0.088994555 -0.09838702 0.11060329 -0.042900536 -0.035113867 -0.04900914 0.06592835 -0.14177246 -0.053890385 0.07984422 0.055898905 -0.13819747 -0.09818148 -0.06583943 0.06920265 -0.084501855 -0.06368661 -0.05825561 0.031951938 0.037492145 0.064807646 0.048792675 0.06826747 -0.12242754 -0.03956604 -0.028856281 -0.02281359 -0.028981058 -0.088371776 0.050612234 0.107873134 0.043052815 -0.07642137
3 0.064924784 0.10684323 0.05855045 0.13857861 -0.09593259 0.027483465 -0.13369344 -0.07438985 -0.041743852 0.06393586 0.07899536 0.12077707 -0.022466682 -0.0005553382 0.1061882 0.068619706 -0.12764318 0.0035810885 0.030412188 0.101175636 -0.03226521 0.06697215 -0.056971878 -0.019272191 0.09490896 0.08060948 -0.047271997 0.016694883 0.05079164 0.03458994 0.081935786 0.09541857 -0.04382026 -0.068076104 0.07743203 0.0978316 -0.03591686 0.13538806 0.06556903 -0.00042681635 -0.003817128 0.006741303 -0.058341283 -0.050022837 0.051524337 0.010368777 -0.07952022 -0.06768155 0.15615103 -0.054822408 -0.1220208 -0.07428523 0.12961958 0.020211985 0.10777096 -0.03852866 -0.0113915885 0.12532099 0.047673114 -0.046560064 -0.031415686 0.13922086 0.023730483 0.0955458 0.018867321 0.0029320396 0.038096752 0.11048675 -0.15384872 -0.09492508 0.05031845 -0.046915777 -0.07419719 -0.058956265 -0.03243298 0.047464024 -0.10898155 -0.12570466 -0.0035340302 -0.0061757667 -0.081896015 -0.09095678 -0.10265534 0.090883605 0.0910307 0.13754593 0.027554167 -0.11440093 -0.043605417 -0.0036444655 -0.12780724 0.13104783 -0.102212824 0.075747386 0.07557793 -0.054212984 -0.13374439 0.08102775 -0.009004391 -0.023885248 -0.02004283 0.04829822 -0.08335707 -0.03584318 0.11477909 0.096049756 -0.035373677 -0.053619787 -0.06704368 0.057661213 -0.06531151 -0.05807698 -0.077174455 0.018446697 0.11432024 0.12921523 0.05936636 0.03709692 -0.16667905 -0.08533058 -0.0481472 0.023232654 -0.14030059 -0.0671331 0.07738003 0.13490511 0.048179384 -0.064961605
4 0.06588663 0.030782683 0.10208221 -0.007326059 -0.15785539 -0.017354112 -0.05943683 0.017472517 -0.11073209 -0.040194068 0.13454755 -0.029879697 -0.07648877 -0.07121438 -0.041596733 0.088908665 -0.1321557 -0.051138394 0.0881205 0.11256037 -0.08070593 0.07443673 0.035276186 0.057398185 0.073266536 0.06945775 -0.08455025 0.075223625 0.109636344 0.081337295 0.1073631 0.0053892913 -0.08669062 -0.0025405495 0.120657474 -0.0060189823 0.055456128 0.07119708 0.0969286 -0.12498376 -0.14814192 -0.09355334 -0.08383641 -0.08579829 0.10149289 0.0805807 0.03952517 -0.12522578 0.096630745 -0.14973524 0.010435888 -0.06863886 0.05835039 0.075706124 0.105997846 -0.090267666 -0.020368718 0.08826379 0.07632752 -0.11501883 -0.077529855 0.026159773 -0.02081068 0.18229634 -0.07971054 -0.048139896 0.116795644 -0.027989063 0.01928658 0.021090282 0.08700479 -0.07574537 0.037338227 -0.08134866 0.047829237 0.11266318 -0.14583938 -0.13754277 0.085456826 -0.07023893 0.009511411 0.04173811 -0.11057301 0.094623215 0.16784269 0.11077483 0.07373634 -0.07409196 0.031664282 -0.0901605 -0.10443986 0.12117876 -0.19072749 0.09114701 0.09126437 -0.013075155 -0.18906805 0.119284704 -0.07868794 -0.085629515 -0.08556361 0.13754164 -0.105516374 -0.094596654 -0.019901078 0.111262955 -0.05860027 -0.043563996 0.035931602 0.10189396 -0.1428171 -0.06420602 0.030555682 0.07612196 0.09333817 -0.010739063 0.09982211 0.09425356 -0.1244125 -0.10273575 -0.102621496 -0.07245366 -0.26764834 -0.062007755 0.07272495 0.15325512 -0.03010079 -0.05867184
5 0.08170467 0.04684738 0.13579696 -0.020012053 -0.11445024 -0.052167792 -0.06740789 0.046855997 -0.13208593 -0.03199662 0.098176114 -0.017086372 -0.088725775 -0.077120185 -0.045751084 0.09523964 -0.17010383 -0.04306021 0.120796055 0.124332964 -0.0984649 0.101124 0.033500724 0.084214926 0.107713066 0.07252258 -0.09218303 0.11528393 0.10639381 0.09127491 0.11018624 0.01237306 -0.11263649 0.002465904 0.1382363 -0.026189966 0.07276879 0.16176079 0.12044866 -0.14587642 -0.11715081 -0.10756145 -0.099576496 -0.11153894 0.10524297 0.07771159 0.04929566 -0.12360658 0.12890495 -0.16493897 0.039842233 -0.106764734 0.052814614 0.10204936 0.07382465 -0.10559448 -0.109978594 0.0705046 0.091089964 -0.11800619 -0.08615576 -0.012429393 -0.031027824 0.16646798 -0.10082631 -0.06157994 0.11812025 -0.027996615 0.011707058 0.040458772 0.09770685 -0.07657106 0.03245921 -0.1109916 0.04439574 0.15623496 -0.0071903896 -0.12367537 0.0986018 -0.06314931 0.010329386 0.031196073 -0.09984054 0.13936536 0.20708762 0.14405124 0.1146121 -0.04996199 0.025361821 -0.09545966 -0.13920811 0.10118801 -0.21122953 0.10542403 0.07455765 -0.048397135 -0.23205522 0.1429123 -0.09469401 -0.09813715 -0.11986537 0.13408284 -0.061611705 -0.12360354 -0.06114111 0.11559646 -0.050984062 -0.047328588 0.037371557 0.12240384 -0.13391723 -0.07072242 0.04076904 0.09879444 0.110376425 -0.003084782 0.09634134 0.12168595 -0.12263709 -0.10845932 -0.14853083 -0.083833426 -0.21888837 -0.06515782 0.10861513 0.13174778 -0.012373349 -0.07178739
6 0.039399356 0.09537638 0.03158519 0.042185716 -0.070982866 0.039174758 -0.08652862 -0.030892894 -0.053093128 0.0076477397 0.10597288 0.046452135 -0.1416639 -0.04379071 0.03979649 0.046894874 -0.084594816 0.027683297 0.02253639 0.08644098 -0.032332234 0.024256181 -0.032865044 -0.03838487 0.051631056 0.11398334 -0.036415737 0.024205236 0.041778907 0.037337475 0.07739095 0.05600646 -0.03758211 -0.07002011 0.040532045 0.14381728 0.043873996 0.06644265 0.053963285 -0.07224116 -0.10709156 -0.0676659 -0.046123073 -0.07332158 0.04441501 0.04314561 -0.023561131 -0.0671578 0.107383996 -0.054333866 -0.11506465 -0.03950744 0.21832198 0.031740885 0.078168176 -0.034184504 0.21680348 0.13854797 0.032362632 -0.086804256 -0.03638775 0.11243343 0.065779015 0.09813222 -0.03833962 0.035167836 0.04647499 0.045779508 -0.057996422 -0.045153175 0.04547569 -0.068948515 0.070739314 -0.041167047 -0.054129157 0.052296486 -0.2554471 -0.10006358 0.029497094 -0.063281156 0.012280013 -0.024201468 -0.095141165 0.078592084 0.109219104 0.06076508 0.084021255 -0.13024195 -0.025716115 -0.04869103 -0.077230774 0.07382565 -0.12915353 0.049485702 0.06895896 0.154352 -0.11691669 0.0737473 -0.024732985 -0.039880667 -0.04540965 0.04661789 -0.15942459 -0.056815296 0.12913498 0.062595196 -0.09077481 -0.07832998 -0.07140316 0.044642203 -0.105258696 -0.058652267 -0.053484768 -0.016200209 0.06323127 0.01004428 0.0700842 0.06731916 -0.15062192 -0.057126455 -0.058807597 -0.037047654 -0.12016029 -0.07845052 0.039790474 0.08159361 0.028619856 -0.04627186
7 0.08363203 0.10902476 0.0977755 0.028874695 -0.120952114 -0.019878648 -0.054839857 0.019370712 -0.08925158 -0.031702764 0.10986828 -0.010702136 -0.06069253 -0.06429805 -0.023874568 0.08728372 -0.1343743 -0.028053308 0.07192444 0.090571634 -0.06513422 0.060683094 0.028274009 0.0626284 0.078348815 0.04503363 -0.08186215 0.09030811 0.09266467 0.06897815 0.07656286 0.023229564 -0.07194654 -0.011762881 0.081784025 -0.0032233652 0.051156245 0.2027206 0.09984317 -0.11807469 -0.093509294 -0.07478325 -0.074529044 -0.08547782 0.0818996 0.05196831 0.023976175 -0.08101993 0.11642812 -0.16181158 0.019969536 -0.07658732 0.12103419 0.06681969 0.1089873 -0.08038507 -0.021750422 0.07001863 0.05903331 -0.10829121 -0.056999918 0.04317956 -0.008381933 0.14139363 -0.07920262 -0.046669938 0.09785747 -0.00845357 -0.011158762 0.012564995 0.071315296 -0.0718611 0.01893452 -0.07694989 0.05257333 0.11097614 -0.12518694 -0.110042036 0.08616909 -0.07535357 -0.008266273 0.025993979 -0.11448989 0.09991782 0.11700598 0.12307182 0.07618541 -0.048255336 0.023799334 -0.07227321 -0.11940805 0.09951237 -0.22524892 0.08844134 0.07615351 -0.016071534 -0.14748077 0.09984799 -0.06420389 -0.060800843 -0.09446278 0.112681426 -0.09484762 -0.08294953 -0.05516743 0.08025869 -0.04655487 -0.030150449 0.034906674 0.097582005 -0.12747887 -0.070442215 0.019865595 0.08427445 0.09613942 0.024321288 0.08109183 0.0866409 -0.16742568 -0.088044405 -0.098160386 -0.07767588 -0.2419944 -0.050284166 0.07141121 0.112716846 -0.009240968 -0.06165846
8 0.036339242 0.17787547 0.06949979 0.0563411 -0.019581072 0.06307385 -0.06610008 -0.08018831 -0.04420268 0.047681905 0.022293657 0.063884385 -0.0743281 -0.053750023 0.050333496 0.04306211 -0.084670424 0.03660111 0.04947505 0.02589771 -0.038631577 0.023609476 -0.03808578 -0.036717426 0.048233878 0.043953244 -0.026758205 0.033071283 0.06433479 0.005489228 0.05416737 0.1028857 -0.03907177 -0.0993868 0.019198362 0.13405952 0.055019565 0.15658051 0.06320337 -0.03533385 -0.12392804 -0.038035575 -0.06034858 -0.076217175 0.035416905 0.049568653 -0.04256445 -0.07835779 0.08376094 -0.08273605 -0.13226908 -0.021491492 0.21786137 0.02102954 -0.02832404 -0.037303615 0.38525334 0.10258484 0.03796654 -0.0846145 -0.052521925 0.104926586 0.093709886 0.13270336 -0.051603973 0.023311771 0.074149154 0.04898543 -0.07072217 -0.045518924 0.06505605 -0.061773527 0.06964736 -0.038272172 -0.059181463 0.04947824 -0.28687823 -0.088196784 0.04312301 -0.042756964 0.0026781117 -0.036772225 -0.08200672 0.078886606 0.08847326 0.077819906 0.052271936 -0.08685899 -0.04564509 -0.037347417 -0.042608768 0.096962065 -0.16142322 0.05241293 0.083206706 0.11224982 -0.099505484 0.056885507 -0.03912202 -0.040116083 -0.045294866 0.04244813 -0.13273922 -0.03933876 0.18338338 0.05818158 -0.10692878 -0.052127123 -0.08042561 0.04946632 -0.08118057 -0.09047085 -0.053933494 -0.04396223 0.05019778 0.06768441 0.09551684 0.07840824 -0.17448585 -0.028545808 -0.046518024 -0.03027647 -0.15605739 -0.08604552 0.0477506 0.04203548 0.054876093 -0.028798182
9 0.044638738 -0.03105217 0.06647637 0.056400914 -0.086983554 0.04012731 -0.0715223 -0.01885204 -0.08285284 -0.013633243 0.172495 0.035469666 -0.09082377 -0.068505384 0.016633846 0.08239287 -0.10252002 -0.0009751329 0.09548783 0.059974104 -0.055018526 0.078202985 0.0009036692 -0.022173751 0.062469766 0.09532765 -0.08846405 0.051412765 0.058586255 0.10199775 0.08602282 0.028202197 -0.07889133 -0.014029168 0.103549816 0.07617625 0.08195535 0.07594192 0.07286994 -0.08372245 -0.098409645 -0.061431475 -0.058351103 -0.038496 0.08104754 0.06954278 -0.005540328 -0.09268151 0.07955204 -0.08595462 -0.06842076 -0.10475638 0.14079846 0.07405532 0.21084623 -0.079394184 0.052154962 0.11965467 0.068408474 -0.13953604 -0.05516342 0.14575964 0.08519877 0.08131263 -0.07724198 -0.007621593 0.076776534 0.001691486 -0.012937009 -0.05331375 0.059926562 -0.10601656 0.051161494 -0.0713684 -0.03244913 0.06973223 -0.1041901 -0.08212629 0.067219995 -0.068119064 -0.07584128 0.006731724 -0.0814401 0.04954082 0.09362259 -0.010735257 0.085657254 -0.14396091 -0.007298773 -0.084728785 -0.066178076 0.034139384 -0.06887795 0.06462482 0.07516428 0.09861403 -0.05851647 0.04581656 -0.06362334 -0.066499785 -0.06637564 0.09415929 -0.12438028 -0.07613408 0.055181034 0.09177951 -0.045543514 -0.10333774 -0.05697747 0.06823447 -0.051177103 -0.07433572 0.004694367 0.12372739 0.040402852 0.017388515 0.055245113 0.07981127 -0.12860416 -0.082456306 -0.07713318 -0.0917431 -0.08218756 -0.07897487 0.068825394 0.056425698 -0.009619513 -0.05844053
10 0.06652557 0.18312575 0.07022356 0.030784648 0.04978983 0.06514119 -0.07592298 -0.06506117 -0.07198429 0.041951045 -0.0057376893 0.021159347 -0.047577783 -0.11227725 0.060153324 0.07075074 -0.08779621 0.042069457 0.08495288 -0.0037089835 -0.090716176 0.07114521 -0.048880972 -0.04750625 0.026840344 0.056497376 -0.07637185 0.057783 0.08327573 0.04422908 0.09225056 0.049794935 -0.08335526 -0.16305315 -0.024714667 0.10240729 0.10924462 0.086398065 0.08031344 -0.0035813246 -0.12814999 -0.08426793 -0.093495786 -0.07986178 0.0750911 0.0893897 -0.055998456 -0.09102183 -0.002908085 -0.051530074 -0.12543777 -0.01511687 0.19092433 0.07516638 -0.22194658 -0.08861596 0.3173755 0.049422543 0.087229446 -0.07707311 -0.11088549 0.019483821 0.041753005 0.09086752 -0.08281151 0.048877023 0.10338127 0.041116033 -0.041880284 -0.04309173 0.08986692 -0.09531899 0.12576039 -0.07202725 -0.058498677 0.06714391 -0.267941 -0.01757607 0.08420937 -0.06129527 0.030856362 -0.045937568 0.011955583 0.054943047 0.07620473 0.05648832 0.021736735 -0.09501723 -0.034501012 -0.07607511 -0.060407314 0.09368987 -0.018386152 0.10131853 0.09040787 0.06549788 -0.08270928 0.0025302279 -0.09454935 -0.06943172 -0.07641508 0.06910704 -0.09602799 -0.07559857 0.18625289 0.08668209 -0.13930176 -0.09870299 -0.16692114 0.08550946 -0.04636622 -0.08541906 -0.05433473 -0.03115107 0.04040208 0.032194722 0.10967317 0.102270655 -0.0460532 -0.055486403 -0.071887136 -0.055781335 -0.03861972 -0.108217224 0.082915425 0.03536671 0.042455394 -0.039199896
11 0.059367325 0.17526913 0.06744369 0.021815792 -0.0032124734 0.03878272 -0.07917204 -0.03554735 -0.077760495 0.032674488 0.032694403 0.036060385 -0.07625453 -0.082275204 0.06014848 0.06802177 -0.09047204 0.045823306 0.066598356 0.034681384 -0.08051381 0.05154588 -0.039069053 -0.057209224 -0.0216394 0.096221596 -0.073671825 0.0673604 0.07160191 0.047040325 0.07017322 0.06478259 -0.07148238 -0.16517746 0.018966362 0.12280975 0.09205086 0.06795348 0.06988674 -0.005106661 -0.13234076 -0.08116556 -0.0947106 -0.09567309 0.07164459 0.07883893 -0.0346629 -0.06770109 0.04346313 -0.04379234 -0.12948015 -0.03881911 0.1741569 0.060293566 0.038155712 -0.06894158 0.22827454 0.10348498 0.0830775 -0.06094978 -0.0972053 0.06293375 0.074523196 0.090877034 -0.09315306 0.042930406 0.08457456 0.030238086 -0.067306586 -0.03456575 0.06966713 -0.0713484 0.12643291 -0.06793218 -0.06322941 0.050903615 -0.14329067 -0.014660168 0.06390458 -0.0877848 0.013875256 -0.04574266 -0.02694337 0.05621786 0.06539155 0.066230915 0.07633056 -0.09894644 -0.030904304 -0.06903858 -0.08083132 0.088660374 -0.05499567 0.09315359 0.08019054 0.08877698 -0.08636047 -0.0032311697 -0.08995926 -0.07895024 -0.07648585 0.080626 -0.1079809 -0.07164086 0.1678351 0.07798534 -0.109292865 -0.07927631 -0.083182424 0.055657383 -0.022399612 -0.08053236 -0.034576207 -0.025567425 0.06877523 0.024630751 0.08895009 0.088050716 -0.12047909 -0.06381655 -0.060002837 -0.07158676 -0.022334334 -0.10548912 0.069722846 0.00695198 0.052255712 -0.05606077
12 0.05075212 0.15892133 0.07534462 0.008720561 -0.015446026 0.028058685 -0.08597464 -0.02198049 -0.08391088 -0.011758561 0.08813749 0.008523492 -0.086625814 -0.07451318 0.026066901 0.06101262 -0.06639283 0.00713925 0.058653023 0.058834895 -0.068425834 0.060897175 -0.0074888635 0.012855651 0.012416076 0.09236346 -0.056082588 0.057106975 0.08637152 0.055755 0.07750533 0.021416308 -0.06608273 -0.115016334 0.0391614 0.16446382 0.080172956 0.09494874 0.07340781 -0.07443335 -0.17458096 -0.061627455 -0.065451436 -0.09153533 0.07301952 0.057152167 -0.0041580256 -0.088259615 0.01633357 -0.07023943 -0.18622741 -0.06510768 0.18314569 0.08064532 0.097030744 -0.06122469 0.2613418 0.12414147 0.05808843 -0.08242113 -0.07209028 0.15685804 0.045311507 0.0976808 -0.0834073 -0.010901522 0.06460046 0.001773651 -0.026632383 -0.020809233 0.06941045 -0.1077037 0.09236832 -0.070498794 -0.036626372 0.0807913 -0.38641474 -0.052649297 0.0619099 -0.08463668 0.022532454 0.011242258 -0.03526508 0.060265202 0.060140766 0.057713076 0.084468976 -0.19033067 0.0048905523 -0.06497376 -0.09384892 0.09726099 -0.050957885 0.07725951 0.063356705 0.15100837 -0.09709671 0.05246492 -0.05411768 -0.0641531 -0.09267554 0.09098972 -0.13535593 -0.06964877 0.12609409 0.0644645 -0.13792074 -0.074445 -0.14204453 0.07505143 -0.04671117 -0.058694255 -0.008498212 -0.003033772 0.031142946 -0.011234369 0.0784178 0.09487444 -0.11991165 -0.08655986 -0.06787434 -0.04750401 -0.04247457 -0.09886418 0.06599452 0.06848412 -0.010201176 -0.06511429
13 0.060039654 0.12506232 0.067318596 0.05165567 -0.04793385 0.09840006 -0.08865021 -0.07176495 -0.08561046 0.018758336 0.08967729 0.037066266 -0.09779513 -0.030853435 0.034932304 0.06850748 -0.061461765 0.035501875 0.034215823 0.05016781 -0.040923003 0.032928027 -0.013621253 -0.03814457 0.05551405 0.06559403 -0.06918186 0.055727143 0.05868884 0.04270185 0.057623427 0.07522653 -0.04048686 -0.16001259 0.06060764 0.1536856 0.058501676 0.12178969 0.069748625 -0.059396196 -0.08522381 -0.04841068 -0.05226214 -0.044607837 0.04243233 0.035021607 -0.022707473 -0.057440083 0.05576563 -0.06426572 -0.18922557 -0.04163123 0.16966912 0.046913687 0.23997344 -0.041596558 0.16176042 0.076816075 0.034173924 -0.06891655 -0.03675321 0.09946199 0.082399994 0.04847261 -0.033426058 0.01599888 0.043027427 0.03862741 -0.05590064 -0.032678355 0.04507673 -0.06353689 0.08129873 -0.03479292 -0.053169895 0.06279698 -0.18277308 -0.060265053 0.048577793 -0.04965196 -0.04669343 -0.038718678 -0.060296703 0.09354531 0.13799477 0.087129384 0.08926314 -0.11860704 -0.011147326 -0.047786914 -0.039460625 0.0432896 -0.111365 0.040294897 0.061687753 0.15374671 -0.07896141 0.06661544 -0.044704396 -0.04063809 -0.048999276 0.06125276 -0.082640216 -0.053849038 0.088567205 0.030639427 -0.103470996 -0.0633129 -0.12341882 0.050301045 -0.053013638 -0.08414427 -0.040648133 0.029588727 0.07444389 0.03809915 0.050144892 0.062147703 -0.13104767 -0.0691138 -0.045981366 -0.03135253 -0.09426337 -0.06360153 0.048283365 0.051015984 0.01673139 -0.04408261
14 0.061270747 0.08069941 0.06476635 0.020671885 -0.019595362 0.063641265 -0.0887018 -0.035797272 -0.06653086 0.024745606 0.09431282 0.031704593 -0.05248315 -0.095770285 0.04882493 0.073127046 -0.05588352 0.04271637 0.076035425 0.049321294 -0.069913186 0.08766687 -0.034025285 -0.055141475 -0.006301639 0.082314394 -0.061234713 0.06641973 0.074622735 0.061544467 0.08241974 0.031155113 -0.08325789 -0.12108546 0.011266483 0.13768525 0.101025626 0.015532935 0.06897688 -0.046736877 -0.13226171 -0.06931704 -0.083166145 -0.06375133 0.06785598 0.08016538 -0.03415497 -0.0813316 0.0053114025 -0.06266114 -0.14666246 -0.0756093 0.105695605 0.07561821 0.11442246 -0.08752204 0.255112 0.09887443 0.07819472 -0.090460114 -0.08246911 0.12622438 0.074069776 0.044842184 -0.08446172 0.040970754 0.07991048 0.022692883 -0.029497042 -0.05253322 0.07482283 -0.09944545 0.1218673 -0.07357616 -0.05868017 0.063494585 -0.23814467 0.018553028 0.07608822 -0.06317801 -0.01330719 -0.020695891 -0.029860996 0.058867335 0.038245577 0.032648988 0.06855611 -0.15072596 -0.02328336 -0.082865395 -0.06140927 0.05971153 -0.0039386884 0.0814497 0.08498046 0.12679946 -0.07365851 0.030883614 -0.08121091 -0.082313985 -0.07318479 0.08265445 -0.11509751 -0.06688364 0.13766629 0.06567206 -0.12799172 -0.09669579 -0.14119686 0.052882727 -0.005555624 -0.074896015 -0.034952395 0.072526865 0.02304938 0.012270506 0.04807745 0.08496658 -0.036026567 -0.0694219 -0.061820813 -0.071982615 -0.00048038593 -0.10381505 0.069435336 0.04732612 0.022661624 -0.08342614
15 0.035940256 0.16763026 0.08639693 0.041495185 -0.0004388371 0.07361259 -0.06909585 -0.06726196 -0.058095064 0.022445267 0.05154299 0.020014217 -0.08409953 -0.06603552 0.027373312 0.043794267 -0.1064478 0.023447579 0.061857745 0.053228278 -0.06337512 0.04326602 -0.016847301 0.0004778774 0.064590864 0.052972957 -0.045222927 0.0385278 0.058838718 0.0275204 0.0643003 0.10064128 -0.04564449 -0.14789434 0.040771913 0.20057206 0.05554443 0.10808128 0.085156396 -0.030066455 -0.111434616 -0.051819615 -0.06172509 -0.073400415 0.057298534 0.05690269 -0.020334236 -0.083989345 0.03963945 -0.09183856 -0.20889148 -0.033815768 0.17958438 0.041038565 -0.06300708 -0.05250033 0.22701885 0.0985266 0.05665772 -0.065644175 -0.06493764 0.081179306 0.063725084 0.13345395 -0.056847796 0.003723783 0.09118079 0.025333392 -0.068393536 -0.035893515 0.059509914 -0.063502535 0.0701748 -0.045616798 -0.051374692 0.073163055 -0.31329423 -0.0770139 0.0625865 -0.0544107 -0.027042596 -0.027467716 -0.047224164 0.086369425 0.10540111 0.08496816 0.049730018 -0.10671736 -0.019988919 -0.05087902 -0.04781131 0.06914437 -0.11226654 0.065792605 0.07252116 0.13342106 -0.111298494 0.05516973 -0.05509419 -0.05361649 -0.06200398 0.077081814 -0.120274775 -0.06179487 0.11297349 0.065054566 -0.08729867 -0.047657546 -0.20461571 0.07015839 -0.053099073 -0.06490924 -0.03907897 -0.027250921 0.07771459 0.033968028 0.08303043 0.07165892 -0.13688032 -0.05668656 -0.06127716 -0.022324055 -0.09444158 -0.067919776 0.06448864 0.05554337 0.028121775 -0.02471586
16 0.034331486 0.26464128 0.044964995 0.04878873 0.01713135 0.10346839 -0.06967716 -0.08870085 -0.065543294 0.039833244 -0.0070256595 0.030585255 -0.06779751 -0.068388745 0.06308611 0.07751413 -0.06931331 0.03587276 0.051053718 0.034514066 -0.054681376 0.011519222 -0.032684106 -0.036738236 0.04749482 0.059054323 -0.024178343 0.03739634 0.07285826 -0.010301225 0.08353149 0.09381619 -0.045575082 -0.1947354 0.0054907408 0.2541527 0.06009961 0.13868505 0.0703079 -0.008543188 -0.12507446 -0.035507742 -0.0721064 -0.038836896 0.046401896 0.04878741 -0.031967416 -0.07517153 0.058381066 -0.06564689 -0.22394992 -3.9823994e-05 0.1798191 0.019820388 -0.14851621 -0.051689744 0.2688266 0.06882042 0.05318785 -0.0650764 -0.06015092 0.08187726 0.13220952 0.13211219 -0.054590896 0.019147407 0.077738285 0.044577252 -0.06669824 -0.082770124 0.05750674 -0.06282981 0.07875959 -0.04005675 -0.10502812 0.091323435 -0.28774458 -0.07298248 0.031983014 -0.04228487 -0.029660663 -0.03663575 -0.040630445 0.07357743 0.13705611 0.1193033 0.04080214 -0.08873297 -0.049704198 -0.044591498 -0.042903893 0.089161694 -0.12477985 0.06590885 0.065282896 0.1185969 -0.105101004 0.03716961 -0.049852014 -0.024770327 -0.056809526 0.05362292 -0.106268324 -0.034615383 0.22670162 0.08652802 -0.08751923 -0.062452544 -0.19709827 0.052929528 -0.07382822 -0.07018788 -0.054207522 -0.08455047 0.06591418 0.04248417 0.09036224 0.07293445 -0.17713493 -0.030161658 -0.05146367 -0.010253184 -0.12160729 -0.07778596 0.03900476 0.056490272 0.06862254 -0.019507172
17 0.116295926 0.008658879 0.049880926 0.028482215 -0.03926245 0.121727705 -0.12349138 -0.09034478 -0.107318185 0.045287747 0.24643552 0.055818286 -0.06724201 -0.060709406 0.09842843 0.009617206 -0.018885233 0.04836417 0.11033046 0.050933857 -0.057425708 0.084905684 -0.07340632 -0.0069494834 0.0809741 0.21156752 -0.101805754 0.05411542 0.030923156 0.1196767 0.08792183 0.062703095 -0.0685163 0.038146827 -0.017843558 0.119661085 0.15098195 0.061962783 0.087890536 -0.08706917 -0.12568097 -0.034928404 -0.086495206 -0.027006606 0.06357707 0.078712404 -0.06461772 -0.0763228 0.026391704 -0.013921361 -0.14561996 -0.12314202 0.13219887 0.062445402 0.18160933 -0.08864465 0.20731954 0.26773265 0.06452754 -0.1280721 -0.11339259 0.26783475 0.12192145 0.14477463 -0.08782471 0.059719782 0.06482168 0.05025205 -0.05390098 -0.107754044 0.07407412 -0.15264158 0.14328118 -0.07323188 -0.10998476 0.0051187505 -0.0728537 0.05449205 0.090518326 -0.10516764 -0.1523644 -0.026776964 0.014057974 0.008711218 -0.06723755 -0.08752599 0.00249157 -0.2566866 -0.039335467 -0.058751535 -0.077464156 0.012393087 0.14169826 0.0905797 0.082148455 0.23101252 0.004256288 0.009228979 -0.092819184 -0.08501312 -0.04662434 0.04765608 -0.051324844 -0.067039125 0.21446949 0.040265027 -0.12417337 -0.14234065 -0.1916744 0.07343247 0.010738354 -0.08047775 -0.0634111 0.18463261 -0.01861525 0.048765995 0.009506434 0.061249834 -0.047961693 -0.019835113 -0.1060089 -0.11278351 0.055654854 -0.16569503 0.059049334 -0.011841819 0.0068617812 -0.015035159
18 0.07873534 0.070451275 0.12753372 0.0019325622 -0.11742072 -0.021927327 -0.07543123 0.030756926 -0.17160766 -0.06443729 0.06387487 -0.03701624 -0.051759284 -0.078439705 -0.06670447 0.10569704 -0.12518263 -0.07085128 0.10364532 0.12985319 -0.0935253 0.10563575 0.061712548 0.12244854 0.09591022 0.079018004 -0.11198646 0.10817176 0.10886291 0.113157526 0.09808929 0.049814194 -0.10508012 -0.019352758 0.14259422 0.016753634 0.06306032 0.11801561 0.119784 -0.15370466 -0.08602625 -0.11254038 -0.09373482 -0.09965806 0.10419684 0.0826565 0.07100914 -0.09780281 0.08685148 -0.12993017 0.03541841 -0.12653221 0.11676541 0.10634499 0.0768601 -0.10832827 -0.043555308 0.089121565 0.09993012 -0.1175175 -0.09971433 0.03903799 0.0001704114 0.1301937 -0.09978878 -0.09810281 0.10443016 -0.043091815 -0.009718326 0.037005678 0.106258765 -0.07542208 0.03923202 -0.10791208 0.034347005 0.14124708 -0.050852492 -0.1060456 0.10005745 -0.07153737 -0.04407977 0.043937437 -0.11712081 0.14396891 0.19718409 0.12712729 0.11113318 -0.08320508 0.053027116 -0.105849534 -0.12911145 0.11991995 -0.14797845 0.110168636 0.08154579 -0.056814596 -0.1436465 0.10704528 -0.10416398 -0.11374183 -0.123272896 0.11747517 -0.0900393 -0.1292894 -0.09256752 0.107271485 -0.07146203 -0.051589616 0.026553176 0.11458226 -0.095411845 -0.08664295 0.058936283 0.120054446 0.14159817 0.060128316 0.098524496 0.0999207 -0.13564444 -0.119646676 -0.13480358 -0.09558997 -0.1430228 -0.067416154 0.11483318 0.111304484 -0.024555147 -0.08350158
19 0.05318489 0.196096 0.07987733 0.068683736 -0.0012713985 0.087483495 -0.086407945 -0.10814325 -0.07115534 0.03675974 0.018924275 0.038617373 -0.05914552 -0.06650784 0.06236545 0.049701177 -0.094814025 0.044147346 0.08091752 0.033653058 -0.077717714 0.025032261 -0.025442902 -0.0319056 0.04881126 0.036428377 -0.036636114 0.048187263 0.06894954 0.0055910964 0.068014234 0.11271557 -0.05377453 -0.1422961 0.027149118 0.17888993 0.06539838 0.106316395 0.0720011 -0.021227323 -0.09318661 -0.05188761 -0.059676934 -0.07273277 0.052187845 0.045283277 -0.04029843 -0.050626658 0.041322738 -0.062284544 -0.2127013 -0.010992619 0.14605244 0.047588397 -0.069949545 -0.045547474 0.1789115 0.07138765 0.04669279 -0.061214067 -0.06921378 0.046188 0.110991664 0.09172252 -0.05510745 0.011529903 0.08989998 0.03935236 -0.116807856 -0.06992944 0.051305566 -0.0502519 0.08401449 -0.05327009 -0.07218574 0.08951984 -0.23962675 -0.0620686 0.06019609 -0.05085716 0.04930354 -0.04295517 -0.053263713 0.053666424 0.1327346 0.08615683 0.053289507 -0.10155132 -0.048904903 -0.03816661 -0.05244376 0.0912054 -0.09565983 0.07617369 0.06446115 0.11272383 -0.091741845 0.04881959 -0.056463793 -0.034306165 -0.07724152 0.06591769 -0.10769025 -0.046052385 0.22691672 0.0735912 -0.08884626 -0.045611434 -0.15580703 0.052557956 -0.06683265 -0.09424113 -0.052255183 -0.059953853 0.062184244 0.06427902 0.11014373 0.077752426 -0.11667975 -0.03806249 -0.06290148 -0.015522198 -0.09690073 -0.06139232 0.05471607 0.06985574 0.04519203 -0.03705436
20 0.032090742 0.16832839 0.038973738 0.1154122 -0.018194335 0.17845409 -0.06126252 -0.12690836 -0.062912315 0.06932534 0.014134689 0.065296166 -0.06733866 -0.055988997 0.11708503 0.053678226 -0.07345017 0.07931052 0.037035793 0.035266805 -0.024749393 0.023722533 -0.06845322 -0.049621213 0.061821178 0.03525239 -0.026584819 0.017355105 0.07760048 -0.0078102876 0.047785673 0.12805256 -0.021958452 -0.17102343 0.028005391 0.18174449 0.03941326 0.11896458 0.056382857 -0.0065546418 -0.1017634 -0.03276187 -0.051060785 -0.052603606 0.03358356 0.03783552 -0.0436455 -0.05555629 0.046106454 -0.06731683 -0.1815686 -0.013248897 0.116491646 0.017759772 -0.03380473 -0.029180951 0.18868057 0.06968045 0.031368975 -0.08954602 -0.045673918 0.1282929 0.16009511 0.07777309 -0.038021382 0.044395324 0.044297677 0.06272803 -0.13816416 -0.11617108 0.04495259 -0.05188217 0.08140871 -0.037368454 -0.13367118 0.0750081 -0.21812782 -0.10989507 0.042409502 -0.04914034 -0.010381705 -0.04762693 -0.034227025 0.06679653 0.13665108 0.06528819 0.047440365 -0.06636386 -0.060914688 -0.053743523 -0.049411923 0.077042386 -0.13218579 0.039123647 0.059882727 0.114686415 -0.083433636 0.04655855 -0.034162723 -0.01219972 -0.055032104 0.039168067 -0.11586062 -0.033636842 0.20601036 0.07520953 -0.09711666 -0.043172512 -0.16060571 0.03787541 -0.08057647 -0.062421475 -0.082017235 -0.08016884 0.088230595 0.07490387 0.08010611 0.050341923 -0.119412154 -0.042403325 -0.05420057 -0.0059437696 -0.08324626 -0.07073887 0.028574957 0.04753848 0.09018679 -0.014950752
21 0.034421407 0.19543394 0.041379735 0.14677632 -0.023484925 0.16492033 -0.08219342 -0.1386137 -0.046998233 0.04536693 0.013663579 0.09255962 -0.06966732 -0.07306714 0.101164274 0.053970672 -0.122546844 0.048351027 0.053909868 0.03787895 -0.049770642 0.02378814 -0.047186017 -0.027393142 0.08081534 0.04250344 -0.024574868 0.028545782 0.06602552 -0.006569475 0.07997202 0.14901817 -0.04880691 -0.1940555 0.017856393 0.23808965 0.050401326 0.1353283 0.06312733 -0.016172064 -0.09978315 -0.03801789 -0.063300624 -0.048332162 0.052230027 0.055757668 -0.03052418 -0.06556514 0.048214976 -0.07090841 -0.2105583 -0.0074366145 0.13976946 0.027014375 -0.08960945 -0.036588136 0.21093377 0.059714742 0.043406006 -0.08268122 -0.05621265 0.08101811 0.15507169 0.09095027 -0.048121024 0.028603977 0.07555489 0.047923833 -0.15067373 -0.15280363 0.063682154 -0.062503405 0.07292127 -0.036431883 -0.14695105 0.065912284 -0.20689419 -0.09158832 0.051592205 -0.04939474 -0.03293673 -0.03148469 -0.04405699 0.08976281 0.117038295 0.06834644 0.049509954 -0.08127448 -0.06798534 -0.040511135 -0.03460389 0.10184943 -0.08751804 0.033135463 0.06940325 0.12678674 -0.06991447 0.04426185 -0.041461192 -0.017542118 -0.048397593 0.049098402 -0.10335507 -0.02327574 0.21383104 0.0833625 -0.1006513 -0.057258245 -0.17107208 0.04846858 -0.0847338 -0.06828971 -0.07013291 -0.06370251 0.059962317 0.06549225 0.07497476 0.059951134 -0.1265066 -0.040386766 -0.07412555 -0.016354691 -0.09106359 -0.069905356 0.039481726 0.06722976 0.07709511 -0.022207657
22 0.03459273 0.16160686 0.054644566 0.08640263 -0.03355362 0.054681353 -0.0592737 -0.07412574 -0.06709462 0.058808956 0.013402621 0.028740928 -0.058785662 -0.07325345 0.09565818 0.049414683 -0.112057514 0.032472532 0.051231205 0.04779619 -0.065538056 0.026883869 -0.048185345 -0.02694361 0.06739881 0.03998307 -0.030557852 0.038742896 0.06325645 0.0053797653 0.057891212 0.10569124 -0.062034316 -0.18364756 0.03901767 0.15592062 0.049425278 0.123601936 0.05563516 -0.022530697 -0.11427975 -0.045751274 -0.073082514 -0.072548755 0.050555512 0.053615663 -0.025711011 -0.060793024 0.076202676 -0.06190085 -0.16345236 0.00047180656 0.12469322 0.03695396 -0.0640509 -0.055976804 0.19068731 0.07298751 0.057216547 -0.07345445 -0.06339154 0.04125342 0.08994053 0.105770275 -0.065298915 0.025027191 0.08772127 0.062202662 -0.12777355 -0.07847002 0.06363313 -0.054203786 0.074992985 -0.051314842 -0.10108561 0.077381484 -0.17293786 -0.09956798 0.042151093 -0.046906937 0.052712485 -0.04720368 -0.02525444 0.09060076 0.1571136 0.094323665 0.07861803 -0.06983071 -0.06654121 -0.047960006 -0.06641728 0.0872619 -0.09686181 0.06854964 0.060403034 0.057778843 -0.096149586 0.052506346 -0.056084696 -0.02410274 -0.04308183 0.038295623 -0.078771435 -0.08517052 0.20024854 0.08088588 -0.06743715 -0.04236537 -0.11532586 0.10765567 -0.058325253 -0.087269925 -0.06882372 -0.09936445 0.074939065 0.043342546 0.09363977 0.07846285 -0.15868694 -0.046788823 -0.05769163 -0.016727958 -0.09674881 -0.058143128 0.041522793 0.062084265 0.093596615 -0.0413984
23 0.035845358 0.0977318 0.03399772 0.081861496 -0.055520818 0.10803583 -0.057084735 -0.10212229 -0.04275056 0.036222935 0.041859593 0.08572822 -0.08322426 -0.0437723 0.07208432 0.039145406 -0.07537813 0.06597035 0.04395676 0.06260712 -0.02955768 0.034230925 -0.058497306 -0.023196038 0.08191607 0.054768454 -0.033252005 0.03455731 0.058088608 0.030742258 0.050873984 0.1305256 -0.03432742 -0.13137062 0.063357666 0.110440254 0.032369304 0.10440244 0.062682465 -0.0732271 -0.07921478 -0.041434232 -0.053477515 -0.0491977 0.034141857 0.049009223 -0.033555705 -0.06424311 0.07252508 -0.06280914 -0.10769842 -0.04841033 0.104279526 0.0238173 0.04976025 -0.0370002 0.08028996 0.08424891 0.03179312 -0.06757036 -0.028318597 0.11343213 0.11724468 0.07704548 -0.042651754 0.037378952 0.039570075 0.06667638 -0.084453575 -0.13419293 0.04186833 -0.05100175 0.033603847 -0.03920433 -0.1645162 0.07022637 -0.14182138 -0.08638495 0.032889813 -0.036273483 -0.049964342 -0.04070738 -0.08478803 0.063991025 0.09111084 0.063860774 0.07384896 -0.08011929 -0.05927974 -0.046705186 -0.07549276 0.05602926 -0.11747146 0.04905654 0.047976565 0.08765016 -0.0758961 0.093540564 -0.030116232 -0.03259792 -0.04841009 0.054878034 -0.07092871 -0.049238645 0.09227637 0.045131348 -0.06278804 -0.051069763 -0.07508101 0.07607261 -0.06987335 -0.06350443 -0.071378805 0.011104215 0.05269632 0.068143 0.05246925 0.041008264 -0.120346114 -0.05182936 -0.041358672 -0.031187564 -0.08026607 -0.039092466 0.0422701 0.06244516 0.05232115 -0.039789293
24 0.028279288 -0.01613281 0.046760067 0.10053503 -0.09121003 0.15104885 -0.04144646 -0.104529925 -0.06548798 0.05194625 0.15106471 0.120094225 -0.12544423 -0.04639012 0.08749736 0.04580853 -0.043907516 0.078335166 0.07759016 0.061156675 -0.048180897 0.077858 -0.08196341 -0.08568052 0.02255788 0.040932998 -0.06154238 0.04754443 0.04431863 0.06791577 0.0666229 0.06273508 -0.04347288 0.0014568436 0.05377937 -0.024169976 0.078890726 0.045686636 0.038549524 -0.073963754 -0.07151582 -0.0378485 0.009189595 -0.028884072 0.060100615 0.041379005 -0.06562785 -0.06383725 0.03412067 -0.07859513 -0.082022205 -0.10445364 0.13775952 0.03596739 0.245552 -0.06496267 0.01643092 0.114143275 0.05280337 -0.10724654 -0.04861582 0.21830745 0.16191012 0.045100767 -0.060123865 0.05619754 0.04327102 0.05440873 -0.061927453 -0.120325714 0.045849223 -0.0790988 0.019333497 -0.055360142 -0.09876402 0.061897293 -0.088358186 -0.07232065 0.061373517 -0.06950559 -0.2110019 -0.045933057 -0.10301269 0.051513724 0.059068345 -0.0012224128 0.050306812 -0.1402652 -0.06854673 -0.045032255 -0.049775276 0.010623812 -0.04838116 0.030796768 0.044470277 0.107180566 -0.059366226 0.043895647 -0.06427119 -0.053802002 -0.055823155 0.064886615 -0.13307917 -0.062378656 0.082102165 0.04287078 -0.03691939 -0.07522411 -0.15500599 0.03511212 -0.033021104 -0.050772443 -0.06546564 0.12177294 0.017893856 0.11354834 0.01950666 0.051375642 -0.11009937 -0.07061462 -0.06412731 -0.08501741 -0.06145208 -0.07299228 0.064521834 0.039648276 0.037034076 -0.04830049
25 0.082802884 0.099863686 0.10591486 0.062180225 -0.10461667 -0.039095845 -0.09568394 0.01864599 -0.13608092 -0.019477662 0.04516297 0.034797333 -0.057896446 -0.051498406 -0.038964167 0.08803356 -0.14298229 -0.033192895 0.097267754 0.12559044 -0.09614932 0.08298769 0.031459898 0.08899887 0.12621719 0.06545998 -0.0815193 0.09053338 0.111585006 0.08767799 0.09700084 0.0566832 -0.09083919 -0.008950999 0.11917683 -0.060544595 0.043650374 0.09863484 0.11616592 -0.13495423 -0.08003896 -0.10614338 -0.08162564 -0.10186678 0.09280269 0.08580249 0.06043759 -0.10800853 0.13221435 -0.15463708 0.01529551 -0.100969516 0.07119953 0.087633565 0.06352608 -0.09617541 -0.091914855 0.07838645 0.07988894 -0.07626669 -0.08890735 0.0125373565 -0.019795327 0.10616768 -0.093449116 -0.05857665 0.13973033 0.005219514 -0.07696071 0.005345323 0.08188316 -0.085502766 0.015912533 -0.12951016 0.054468 0.14103752 -0.0455124 -0.11842707 0.071477525 -0.06895637 -0.065195195 0.006555598 -0.11786132 0.09434098 0.19203919 0.13728772 0.09644483 -0.06468846 0.014434202 -0.09670843 -0.15182652 0.123481944 -0.17088254 0.14064544 0.06582395 -0.06759417 -0.14495471 0.07705832 -0.0774957 -0.09850994 -0.11233118 0.1085345 -0.10149364 -0.11902618 -0.15123051 0.10640116 -0.039352596 -0.032834902 0.049454845 0.121614665 -0.10908944 -0.070918575 0.0036475116 0.10352197 0.12504338 0.071304575 0.07668377 0.10079783 -0.124582455 -0.113727055 -0.13392057 -0.079238996 -0.1316835 -0.053656965 0.08866279 0.119987786 0.007915346 -0.0859448
26 0.06717413 0.072762094 0.0569148 0.058589257 -0.03448332 0.07960746 -0.0779018 -0.10579119 -0.075304545 0.00920224 0.07653389 0.054583315 -0.044746026 -0.07029765 0.046142522 0.07666873 -0.059508916 0.034439713 0.05827885 0.04339486 -0.060568996 0.06292785 -0.010171958 -0.02299314 0.049873743 0.09257384 -0.04417299 0.05049346 0.09221914 0.052101865 0.063001916 0.09434444 -0.057903647 -0.1308733 0.048684202 0.14243655 0.08988391 0.07944035 0.07154496 -0.06697319 -0.097495355 -0.07704739 -0.077823825 -0.06885527 0.048438642 0.056017313 -0.010794851 -0.0910226 0.0006241007 -0.06579979 -0.16587584 -0.07314552 0.11216819 0.053562634 0.120878175 -0.06512539 0.17408966 0.05532615 0.062015574 -0.09200907 -0.05649797 0.102314115 0.09067315 0.06007277 -0.062734574 0.009919603 0.049427196 0.027873881 -0.06517122 -0.08702696 0.06727512 -0.082658045 0.10104304 -0.046140328 -0.0947075 0.0629449 -0.18045983 -0.057045266 0.067644306 -0.07150866 0.043415956 -0.011969617 -0.06027959 0.0981741 0.042138092 0.07721249 0.08720132 -0.13469324 -0.02555978 -0.066985145 -0.059415195 0.10785083 -0.072398394 0.07430807 0.07563667 0.14694582 -0.09182515 0.08538599 -0.0673991 -0.0575417 -0.09513001 0.06262027 -0.093526475 -0.07242321 0.10100884 0.06658362 -0.1354763 -0.07928682 -0.09864048 0.07705645 -0.057334203 -0.069295056 -0.037510358 0.029501185 0.06629303 0.022449745 0.07553221 0.074183024 -0.04491812 -0.07686272 -0.060192518 -0.033862114 -0.0783631 -0.08840456 0.058518104 0.06268716 0.022297932 -0.074143365
27 0.08424569 0.058921114 0.10041912 0.0751712 -0.11480575 0.015186131 -0.07915441 0.00838849 -0.11667658 -0.04351894 0.08571977 0.012062708 -0.06234459 -0.07783509 -0.039970182 0.09540653 -0.1456234 -0.054202873 0.10382599 0.13086078 -0.084658384 0.10539211 0.054226767 0.097628154 0.110903025 0.07549142 -0.1021743 0.09058689 0.10268762 0.10914582 0.09458446 0.0612399 -0.10094726 -0.023469249 0.13280715 -0.0045293192 0.049860537 0.10852324 0.10172398 -0.13366756 -0.08762049 -0.10496171 -0.10924963 -0.09013521 0.11556051 0.10365072 0.08672578 -0.10938465 0.10851803 -0.14328793 0.02368269 -0.12591879 0.070575655 0.09824576 0.06421328 -0.10666418 -0.087538816 0.06257831 0.092062116 -0.106459685 -0.085296065 0.04508903 0.0109177595 0.118325435 -0.087810434 -0.091184795 0.108433224 -0.022313252 -0.06693278 -0.013549129 0.09634834 -0.08189474 0.03698983 -0.11033964 0.0136373965 0.108537465 -0.050209925 -0.11133285 0.097379915 -0.050303467 -0.08009749 0.04443025 -0.10129873 0.11321724 0.14461014 0.1227852 0.10628 -0.07202418 0.02364516 -0.10310346 -0.121563636 0.105891 -0.12803708 0.10916367 0.073053025 -0.03712523 -0.12001399 0.082921736 -0.097920194 -0.10416653 -0.1313669 0.124923155 -0.090114385 -0.13146964 -0.105500646 0.1154578 -0.068614714 -0.048789456 0.02279143 0.13631354 -0.10639495 -0.06448692 0.027181478 0.12967543 0.108770475 0.059734497 0.074505486 0.086019985 -0.11027819 -0.14368656 -0.102930576 -0.08736652 -0.12473794 -0.03638168 0.101673156 0.113003924 -0.012892324 -0.085848965
28 0.059560254 0.10533351 0.08384929 0.1648218 -0.11858102 0.044444647 -0.12642404 -0.106223494 -0.06990529 0.102623604 0.057502855 0.15037394 -0.029305102 -0.0041061155 0.08655757 0.05790777 -0.12474961 0.0028534788 0.044208314 0.100840025 -0.02617719 0.07570407 -0.022233775 -0.014397387 0.1317538 0.072989136 -0.077068605 0.0073926663 0.051634792 0.011175132 0.07536361 0.11773601 -0.04041812 -0.05190842 0.07218647 0.1314248 -0.050493304 0.1556364 0.07155102 0.04049242 0.027953606 0.0021456145 -0.07326638 -0.057984747 0.052905697 0.012157058 -0.059605077 -0.04231647 0.17884201 -0.06935075 -0.12034376 -0.072049886 0.14872047 0.007910011 0.12642345 -0.061086133 -0.04044617 0.1334457 0.06060928 -0.056602485 -0.044860065 0.09847821 0.011426066 0.10138734 0.035236847 -0.013615069 0.009836932 0.10029157 -0.1748907 -0.13933025 0.066560246 -0.028399486 -0.10911005 -0.04509576 -0.027234996 0.03533489 -0.07692191 -0.115928344 -0.014554615 0.037858713 -0.15638392 -0.10534179 -0.1368332 0.12806894 0.079170704 0.1337212 -0.018123036 -0.11512541 -0.052569065 -0.0012013337 -0.1463272 0.1350764 -0.10032989 0.08540827 0.056077387 -0.08518684 -0.15571359 0.10985746 -0.011111851 -0.031917244 -0.025647137 0.027972825 -0.047442164 -0.05220237 0.12676674 0.08661363 -0.011097385 -0.05143813 -0.06404272 0.05223936 -0.08416609 -0.044252142 -0.05757233 0.045606162 0.1300412 0.17115429 0.055492148 0.019935189 -0.18823114 -0.09875036 -0.077443175 0.025657475 -0.15741691 -0.086341865 0.10179851 0.119366884 0.057874974 -0.03247401
29 0.10657831 0.056071553 0.18382917 -0.007103257 -0.15218182 -0.066886015 -0.09179711 0.05712407 -0.1929391 -0.072727166 0.077576615 -0.04380578 -0.03265069 -0.09712469 -0.07992864 0.14690322 -0.17812623 -0.109108165 0.1721609 0.17413206 -0.1456284 0.15642838 0.08076149 0.1627244 0.09917829 0.08409767 -0.14916755 0.14975038 0.15264356 0.15327683 0.11979935 -0.0035929256 -0.14419438 -0.031020412 0.15730913 -0.016488584 0.07628079 0.09725258 0.14712878 -0.1977592 -0.09915905 -0.14690635 -0.16310447 -0.1436584 0.15698773 0.12506792 0.12593405 -0.13849719 0.06444874 -0.20087036 0.04630751 -0.16297081 0.066678084 0.1419563 0.081605256 -0.15267041 -0.08168472 0.04877975 0.14387462 -0.14117137 -0.12170166 -0.002914306 -0.054041583 0.13260932 -0.1605929 -0.13619037 0.16682369 -0.043659177 0.0002949692 0.07594904 0.12536968 -0.08786688 0.03287595 -0.14654139 0.07863671 0.15115774 -0.018305508 -0.088859126 0.13851821 -0.11354059 -0.04011268 0.07119839 -0.100781836 0.14274476 0.10696162 0.15865436 0.14231785 -0.06374697 0.057540715 -0.15119275 -0.16741866 0.14777681 -0.1284889 0.14540952 0.10005727 -0.097848296 -0.16304535 0.11840144 -0.12948643 -0.16582571 -0.17153448 0.17705877 -0.08471203 -0.16799286 -0.13379702 0.1408023 -0.056450807 -0.05523774 0.06471377 0.17263213 -0.113520056 -0.11533221 0.052132104 0.18376128 0.17688178 0.005131407 0.113633566 0.12585887 -0.09038279 -0.17812149 -0.18416415 -0.12585379 -0.17111067 -0.075907186 0.16593508 0.13293777 -0.013310272 -0.114738084
30 0.057249643 0.079438835 0.07302921 0.11052172 -0.113315284 0.003504034 -0.07878629 0.0051009622 -0.101988256 -0.005404771 0.0615839 0.05993326 -0.07309821 -0.042912006 0.017060857 0.080912314 -0.1358237 0.008158051 0.067426644 0.109817386 -0.06506519 0.076642305 -0.01822503 0.04825924 0.111123845 0.060324207 -0.07220122 0.06827216 0.07473784 0.07618937 0.07121456 0.05022324 -0.07334899 -0.01694836 0.13989355 -0.010719878 0.037172396 0.0999941 0.064920105 -0.10072761 -0.052562132 -0.073341146 -0.074097455 -0.06515639 0.08806828 0.068175375 0.025479494 -0.07881075 0.08747286 -0.11740311 0.000111655296 -0.085742496 0.08246622 0.060194597 0.09803832 -0.06362208 -0.08065294 0.06430551 0.055307668 -0.06685809 -0.05414327 0.056934826 0.010476253 0.08839925 -0.058807287 -0.033437386 0.10259527 0.05689505 -0.07436198 -0.023946062 0.056072593 -0.06079352 0.000986003 -0.08091804 0.035762835 0.10479274 -0.07402246 -0.096594885 0.066609986 -0.08350124 -0.12771295 -0.003163694 -0.09592399 0.10212989 0.14827771 0.1095784 0.067118175 -0.054617602 -0.026372965 -0.07594672 -0.11054403 0.09429586 -0.14298311 0.08802302 0.058803495 -0.023873387 -0.11640988 0.08313776 -0.0564272 -0.06068727 -0.09703041 0.09871253 -0.09337173 -0.104401164 -0.12857293 0.11094548 -0.039408226 -0.02753503 0.022813665 0.08239155 -0.08779811 -0.04523356 -0.03298593 0.09918846 0.1308655 0.08963453 0.09399176 0.07160709 -0.13359983 -0.11272698 -0.074584864 -0.07786996 -0.1272933 -0.04010081 0.06585151 0.08796467 0.048083782 -0.06431813
31 0.03217598 0.06122257 0.04540778 0.09733834 -0.038335677 0.2043957 -0.08259845 -0.1907994 -0.08234767 0.090962246 0.21232481 0.11276009 -0.095035546 -0.025549486 0.11032353 0.0028947769 -0.067537084 0.1302731 0.06452077 0.03345766 -0.038747407 0.07111002 -0.056483693 -0.06966626 -0.018841734 0.120509155 -0.074672766 0.03428299 0.016059075 0.076953545 0.03662108 0.10444743 -0.049369693 0.046024416 -0.04831149 0.17726186 0.10117092 0.0765569 -0.0015106929 -0.09083788 -0.061846655 -0.016585441 -0.0632618 -0.005167271 0.0635799 0.031579025 -0.0838638 -0.043169994 0.14748129 -0.045122884 -0.15744819 -0.08469624 0.12973481 0.0527304 0.31156433 -0.048201717 0.07685201 0.11696115 0.05327069 -0.062605545 -0.05551383 0.35285217 0.23791732 0.111673705 -0.04726465 0.061061867 0.02823321 0.037035536 -0.16353045 -0.1759347 0.038726978 -0.073309325 0.06124036 -0.040458664 -0.15674333 0.028733337 -0.17179476 0.030757835 0.03775045 -0.025041701 -0.25521943 -0.04519102 -0.09883076 0.08826548 0.060974248 -0.02274309 -0.007922415 -0.14185381 -0.10261988 -0.03168778 -0.05209426 0.0024630213 -0.03667171 0.049268585 0.0029459286 0.2408957 -0.05892828 0.05389243 -0.04687438 -0.063553505 -0.038018998 0.035923343 -0.05805513 -0.04521806 0.2214438 0.014071199 -0.06648281 -0.078427486 -0.23401853 0.101213165 0.009978494 -0.024478897 -0.14646065 0.15017714 0.05414182 0.13524932 0.0006816141 0.010948176 -0.07929803 -0.0048012887 -0.09586301 -0.07901471 -0.056529675 -0.09115192 0.05133495 -0.017590571 0.08558787 -0.06186085
32 0.05200386 0.028178105 0.06013952 0.06840984 -0.09752283 0.088239364 -0.06188882 -0.061928526 -0.07284068 0.046767406 0.16236219 0.07905889 -0.114189856 -0.062473286 0.05621964 0.069566295 -0.08040913 0.05668177 0.07164044 0.073218636 -0.054689392 0.07066716 -0.069688536 -0.07175587 0.042784356 0.08113239 -0.07258952 0.04970484 0.049106546 0.091463536 0.06733387 0.058367204 -0.06431625 0.0035453937 0.05922026 0.020893173 0.08157839 0.08188417 0.049281802 -0.0854555 -0.063422196 -0.045568798 -0.024561603 -0.0346958 0.069683336 0.05617724 -0.061808683 -0.07995494 0.07203725 -0.07912473 -0.059432086 -0.10499604 0.10831831 0.057571765 0.19279487 -0.07289186 0.021077672 0.10898053 0.06248048 -0.10731941 -0.056348957 0.17395476 0.122386254 0.06944325 -0.06099356 0.051936258 0.03473242 0.03094756 -0.05780747 -0.08630101 0.047391318 -0.09109666 0.028528843 -0.06212933 -0.077343054 0.07060723 -0.07628864 -0.07456771 0.059209686 -0.06956724 -0.15928198 -0.0427135 -0.10462108 0.05256422 0.088247865 0.027070303 0.02900427 -0.15576188 -0.061927915 -0.06752224 -0.05943441 0.035804074 -0.058409538 0.04912563 0.045542408 0.09464332 -0.07168231 0.07105273 -0.062485177 -0.057963483 -0.068185285 0.04951393 -0.08704793 -0.06911136 0.06662487 0.05714043 -0.036854308 -0.08210473 -0.12574844 0.052165654 -0.06296011 -0.05849504 -0.04340866 0.13975897 0.03506166 0.07692111 0.0518408 0.058973923 -0.11344816 -0.06913473 -0.08095069 -0.08969737 -0.06444385 -0.080600195 0.059850592 0.061516255 0.030341946 -0.070698984
33 0.038529035 0.24826577 0.08707248 -0.035760496 0.0997996 0.030119903 -0.053703547 -0.08978569 -0.08655357 0.041852787 -0.024624359 -0.020144729 -0.0423887 -0.14091358 0.08534825 0.06863267 -0.13171637 0.01995304 0.09699102 -0.02598404 -0.09012643 0.058060702 -0.030021776 -0.012989573 -0.016213771 0.08568311 -0.045723412 0.052155383 0.10709801 -0.003586324 0.10859694 0.0419513 -0.09752287 -0.2816406 -0.0846606 0.26362753 0.11511231 0.10843535 0.095903724 0.028019635 -0.18688743 -0.07888945 -0.113094285 -0.12226466 0.080215275 0.09580838 -0.011435159 -0.09644531 -0.051682603 -0.08039433 -0.2398215 0.07803016 0.16907418 0.062243175 -0.26469254 -0.08664504 0.37331796 0.054838292 0.11111474 -0.0787571 -0.13931829 -0.04617733 0.039658695 0.12516588 -0.11804493 0.013544396 0.12923819 0.007950756 -0.084432445 -0.026754249 0.090935044 -0.10224987 0.16657975 -0.058614127 -0.09903992 0.092453495 -0.20354882 -0.0101907635 0.087950416 -0.062124033 0.19211297 -0.018536478 0.03912882 0.077325135 0.1173526 0.0980734 0.047815762 -0.09575051 -0.031233622 -0.078829326 -0.08519666 0.1250862 -0.07631164 0.12059597 0.09795172 0.0710753 -0.13464645 -0.016977485 -0.105048865 -0.069421895 -0.08440748 0.0771102 -0.08951032 -0.07325987 0.38592872 0.13626347 -0.14140885 -0.092877015 -0.18747877 0.07819357 -0.08591026 -0.08185119 -0.056955066 -0.20205273 0.066103205 -0.02283348 0.148789 0.12382332 -0.09062096 -0.041645303 -0.061935753 -0.008938293 -0.08150766 -0.11600704 0.077251896 0.054154176 0.063342094 -0.020184578
34 0.031865504 -0.22360061 0.06993458 0.051392462 -0.07058538 0.23350556 -0.0327074 -0.08639488 -0.11278618 0.045364838 0.25421005 0.106847115 -0.18250008 -0.13552302 0.102187656 0.05757616 -0.006994054 0.12486682 0.15114902 0.0030964587 -0.09067806 0.16671433 -0.107224554 -0.22374503 -0.12247288 0.07576021 -0.14270876 0.064102635 0.033781953 0.17195636 0.099133514 -0.11906994 -0.104951724 0.25126445 -0.049675 -0.23048085 0.1969394 0.01070544 0.023995146 -0.08458354 -0.08902247 -0.058096834 0.011313659 -0.033729114 0.11127037 0.104963794 -0.11870818 -0.08553588 -0.07374715 -0.056754634 0.01732845 -0.20698805 0.13098116 0.123166874 0.39648402 -0.13057318 0.05733403 0.14227204 0.12647519 -0.16380635 -0.14361323 0.31912464 0.23762211 -0.0061997143 -0.14376974 0.0830127 0.04296657 -0.008562253 0.10073985 -0.15046196 0.070037395 -0.15225583 0.08871623 -0.092689045 -0.13332635 0.08219126 -0.041939594 -0.018775174 0.12407662 -0.080664955 -0.47342554 -0.02887594 -0.08766535 0.021195263 0.0376512 -0.11339656 -0.011676569 -0.2295424 -0.087579146 -0.09867306 -0.05364156 -0.0714973 0.07511515 0.07800924 0.06442883 0.0869517 -0.033474732 -0.058031403 -0.12729914 -0.1309482 -0.057054788 0.08333262 -0.1443417 -0.07836061 0.25048319 0.05773389 -0.013491234 -0.17020977 -0.26033315 0.0015949513 0.060758077 -0.0904796 -0.025313066 0.3120396 -0.07829548 0.111200966 0.0018156131 0.074918814 -0.07470769 -0.11452589 -0.121902615 -0.19929534 -0.020997541 -0.14347371 0.13080092 -0.0373012 -0.064319916 -0.076001115
35 0.04486238 0.069515586 0.06749918 0.09313243 -0.10989767 0.10669761 -0.06596633 -0.09541492 -0.09989074 0.052959718 0.12826204 0.061150312 -0.08652771 -0.035816934 0.045950964 0.042396236 -0.06917567 0.0767155 0.060160466 0.09552017 -0.050848342 0.05263925 -0.042894308 -0.04361725 0.093831986 0.057603523 -0.048748586 0.08347945 0.05334792 0.056115557 0.043703616 0.08509191 -0.050723094 -0.03155786 0.08303824 0.07241791 0.042265512 0.07100646 0.062340103 -0.08683778 -0.0469427 -0.040992357 -0.027588466 -0.060762793 0.06215178 0.03291232 -0.041411817 -0.04034403 0.07184644 -0.076030135 -0.054571662 -0.115689665 0.0931532 0.04101062 0.14767751 -0.05000289 -0.016590422 0.07782632 0.04401093 -0.0768467 -0.0346576 0.10712257 0.09386884 0.07150844 -0.06150366 0.030151375 0.042567153 0.056237414 -0.09103441 -0.097784914 0.055175666 -0.043835577 0.023678634 -0.05396748 -0.08780494 0.08660404 -0.09939052 -0.09512616 0.05601948 -0.06387524 -0.14502761 -0.04620147 -0.10869245 0.08676779 0.07643712 0.06712776 0.058779173 -0.08327299 -0.065146536 -0.04403451 -0.059934583 0.04176201 -0.08713553 0.03906148 0.040051505 0.094651304 -0.08338815 0.08434294 -0.050966255 -0.041320458 -0.06418443 0.058477778 -0.10213527 -0.053885456 0.027998028 0.04883593 -0.05479654 -0.03158752 -0.087262735 0.061210103 -0.06119859 -0.09168598 -0.054461006 0.08530692 0.09404872 0.08119587 0.038868003 0.038589433 -0.10488396 -0.073514245 -0.0873379 -0.06489425 -0.08237193 -0.054865323 0.06397625 0.044148233 0.049724683 -0.045373507
36 0.030350165 0.13160124 0.066456385 0.051006403 -0.0043835454 0.050381545 -0.07861015 -0.08870828 -0.06705539 0.022412218 0.06337592 0.078417405 -0.080426365 -0.057269838 0.07187892 0.05781263 -0.09984215 0.08714986 0.038144153 0.03916541 -0.05755017 0.029206404 -0.05372267 -0.08408383 0.01806077 0.09461967 -0.030838478 0.044793483 0.06073207 -0.009543718 0.068702675 0.10941606 -0.050650317 -0.18319674 0.038639788 0.17537585 0.06356957 0.06238226 0.060316473 -0.022594683 -0.12619577 -0.053343732 -0.0671891 -0.105259895 0.0499519 0.035000067 -0.05049605 -0.0623659 0.020707179 -0.067522444 -0.1638125 -0.01674639 0.124720976 0.043853454 0.07084576 -0.030091833 0.2854843 0.07683495 0.058469165 -0.08048162 -0.06163946 0.10648471 0.107631996 0.06994538 -0.06911852 0.06184635 0.0753793 0.049281023 -0.12949686 -0.06607208 0.05598815 -0.05810948 0.11605838 -0.03699826 -0.1040211 0.05505588 -0.1746934 -0.043380275 0.052072413 -0.08994898 0.053919733 -0.054235633 -0.04225868 0.07384514 0.07019083 0.08937367 0.090429395 -0.10826004 -0.052724477 -0.04384464 -0.107941605 0.11084944 -0.087264664 0.053650513 0.08968686 0.10689741 -0.10457782 0.021688888 -0.05883752 -0.037213072 -0.079033956 0.080491215 -0.11414688 -0.06149938 0.23314998 0.064084 -0.1400033 -0.079075195 -0.12116188 0.034098487 -0.03425289 -0.07216015 -0.081072465 -0.10513777 0.09848594 0.016462905 0.06229186 0.096255444 -0.1340975 -0.028378291 -0.05510338 -0.011558034 -0.060142312 -0.10093968 0.05305566 0.033957403 0.07877388 -0.0828269
37 0.019214857 0.23165093 0.06647042 0.036846746 0.09751003 0.11027856 -0.06990513 -0.17998789 -0.07162396 0.12335152 -0.007997541 0.06174119 -0.05974391 -0.08285692 0.13699973 0.044748023 -0.109924026 0.12106519 0.06014885 0.01158826 -0.04589985 0.008515884 -0.08445234 -0.08924163 0.051587127 0.029195648 -0.02541455 0.018948909 0.07585276 -0.036800086 0.062042855 0.17043184 -0.058656514 -0.3501313 -0.020322604 0.31591618 0.053477824 0.12790777 0.06048162 -0.0039977897 -0.115984075 -0.03183885 -0.07281618 -0.100220785 0.048421025 0.04734131 -0.08109632 -0.09527086 0.030266033 -0.06296174 -0.26738635 0.056584254 0.16071151 0.030026259 -0.2600989 -0.040861808 0.33965993 0.09130359 0.06417075 -0.08731699 -0.08887382 -0.058744784 0.09032009 0.12860717 -0.07323097 0.09362175 0.09148444 0.08551232 -0.15278755 -0.08850285 0.05692694 -0.055145647 0.103643514 -0.043549277 -0.18196145 0.1076733 -0.16242069 -0.09527005 0.040395908 -0.04920324 0.102128826 -0.12227115 -0.044776097 0.08568093 0.10974648 0.12201236 0.038312584 -0.061680794 -0.11026988 -0.03220588 -0.057512682 0.09503349 -0.09388757 0.068342194 0.07013483 0.105505615 -0.108824104 0.053423874 -0.045552168 -0.015205489 -0.06753927 0.04911929 -0.09664501 -0.04224147 0.39748594 0.07712966 -0.10826893 -0.055699907 -0.21499854 0.07544322 -0.08140949 -0.09197354 -0.14969382 -0.19874658 0.1070337 0.05759053 0.113963224 0.09011921 -0.12239092 -0.03690564 -0.06745201 0.0117326975 -0.119711995 -0.072281815 0.03596138 0.04055061 0.17860411 -0.007311933
38 0.043153647 0.16850592 0.072670355 0.043890428 -0.03142161 0.060387023 -0.050690893 -0.12031673 -0.07087441 0.03082126 0.05265872 0.10135572 -0.0757051 -0.050901435 0.14808476 0.06688013 -0.08725904 0.09031738 0.048723448 0.058288377 -0.049065128 0.022087188 -0.11975054 -0.07515578 0.0012701036 0.07240624 -0.04690726 0.0385798 0.06513811 -0.0097112525 0.08927467 0.12868907 -0.037753984 -0.22720289 0.05083913 0.19232266 0.046030328 0.085443445 0.057680048 -0.020768667 -0.12810072 -0.052379977 -0.06660026 -0.093212 0.048111822 0.030990869 -0.054072287 -0.06144969 0.034626972 -0.055515766 -0.17196338 -0.01201705 0.13412076 0.040341213 0.0416067 -0.028569795 0.23178901 0.12522957 0.0546089 -0.07565968 -0.05417531 0.12875342 0.12918007 0.07244768 -0.07074564 0.06795193 0.07234766 0.07337505 -0.10063163 -0.083557755 0.04550803 -0.04003895 0.07735857 -0.029767776 -0.15029347 0.04796711 -0.15925021 -0.052476075 0.036473993 -0.07049564 0.06390543 -0.04088632 -0.0578652 0.060941704 0.08979699 0.11297886 0.075496554 -0.11844914 -0.066697046 -0.04224845 -0.089374326 0.108174466 -0.11115645 0.059657965 0.06944503 0.13173458 -0.103948325 0.037186757 -0.06036969 -0.042298045 -0.06725836 0.07004262 -0.099615164 -0.053970795 0.24402665 0.07189424 -0.09826056 -0.052002307 -0.12188593 0.044893213 -0.068112314 -0.069423564 -0.087195836 -0.06793034 0.07893353 0.008458001 0.06289626 0.061168287 -0.123422354 -0.052952826 -0.050140835 -0.024082175 -0.07088028 -0.08455794 0.03885238 0.03564794 0.10068472 -0.060575407
39 0.089136176 0.008006856 0.09404698 0.062433876 -0.09993287 0.048021983 -0.06676969 -0.023873808 -0.13973507 -0.004586298 0.12172437 0.042278714 -0.05838692 -0.07815357 -0.01766925 0.07025826 -0.082971886 0.062505394 0.10018939 0.06556828 -0.0873783 0.099892 0.019615453 -0.00408234 0.04526932 0.06913609 -0.087535515 0.09646703 0.08627717 0.11173172 0.08240188 0.03858862 -0.08700965 0.015727395 0.080352634 -0.010338073 0.08608277 0.0786158 0.06493173 -0.08237178 -0.06819589 -0.0820101 -0.061851647 -0.09002296 0.09937361 0.07210933 -0.015724229 -0.07490401 0.06731624 -0.105565876 -0.050505772 -0.12866257 0.094569065 0.09997275 0.12950112 -0.08607257 -0.018850263 0.07285362 0.08430712 -0.09558903 -0.07029531 0.10267672 0.06908222 0.05889381 -0.0873445 -0.018337615 0.083454706 0.062478416 -0.050933357 -0.06366442 0.08528787 -0.06647735 0.0534266 -0.09611996 -0.029897526 0.0815267 -0.076183535 -0.067002036 0.084442616 -0.05511225 -0.15349294 -0.009651983 -0.08317022 0.08428189 0.086234935 0.046252273 0.07616603 -0.09758907 -0.01488584 -0.08389652 -0.09125584 0.06844159 -0.069796205 0.07509106 0.055987418 0.043661952 -0.066728525 0.06136289 -0.083279915 -0.09454048 -0.11305287 0.083175704 -0.09715666 -0.08434026 -0.03878639 0.09744537 -0.049999114 -0.06931927 -0.031349972 0.08392188 -0.055862453 -0.07340926 -0.00503114 0.14166026 0.09762516 0.06086902 0.056561314 0.07783822 -0.10524155 -0.09072345 -0.084300764 -0.09764456 -0.10212042 -0.07055006 0.121241115 0.053820714 -0.00023379318 -0.075566135
40 0.08508596 0.08332569 0.106027685 0.06402503 -0.21528998 -0.021460893 -0.01054638 0.026896043 -0.12800343 0.023649206 0.0028754855 0.0191899 -0.033186205 -0.023260554 -0.012360318 0.12684235 -0.14234996 -0.022093777 0.105151445 0.16534184 -0.08879299 0.081316896 -0.0081844805 0.084769405 0.17509164 0.03340393 -0.10682448 0.12225844 0.125699 0.14405005 0.072394826 0.072058536 -0.096526116 -0.06150667 0.19988972 -0.05269093 -0.009984762 0.11830151 0.10792679 -0.20031145 -0.0046618334 -0.12361236 -0.083455116 -0.10316758 0.10388899 0.090492025 0.050951105 -0.08689775 0.18664913 -0.18043196 0.022527654 -0.11546911 0.012061555 0.092001565 0.026290897 -0.088194825 -0.14515398 0.051931117 0.084875 -0.036225304 -0.065339334 0.012214372 -0.031730343 0.114539646 -0.10883425 -0.036027167 0.11669275 0.053621374 -0.09377432 0.013658133 0.08413379 -0.028297318 -0.065233 -0.16492224 0.03635095 0.14749096 -0.004845417 -0.14006168 0.06470834 -0.026710747 -0.15316074 -0.019849623 -0.19585109 0.123475924 0.15576963 0.11651082 0.122164056 0.012457178 -0.058945462 -0.117853664 -0.16517043 0.111212544 -0.19950585 0.09150631 0.040485654 -0.06680405 -0.14086 0.09695799 -0.06714579 -0.09513495 -0.16806032 0.14006165 -0.048249714 -0.1279056 -0.15943766 0.108976774 0.021758994 0.024158819 0.04734236 0.13974349 -0.12042416 -0.04724372 -0.014768947 0.16526166 0.16583827 0.12326305 0.13172781 0.07872082 -0.11168693 -0.19802788 -0.13045152 -0.0929173 -0.17497878 0.022185864 0.09356469 0.16472453 0.06761263 -0.100204155
41 0.07495227 0.09086995 0.1124857 0.053390626 -0.16226894 -0.038670633 -0.044790957 0.031467773 -0.10697573 -0.004872132 0.07578237 0.0467051 -0.07901762 -0.053264037 -0.03948063 0.12353707 -0.15706028 -0.019664587 0.11352075 0.15567596 -0.091207385 0.10103465 -0.0073564933 0.08996534 0.15860908 0.078982934 -0.08951192 0.099115886 0.11695127 0.1078342 0.08008428 0.06308126 -0.08259249 0.00010264636 0.16452365 -0.055338625 0.03196571 0.12654498 0.10404558 -0.15995423 -0.07662524 -0.13456397 -0.086798355 -0.11234975 0.103644505 0.08963357 0.04365445 -0.121433266 0.15189566 -0.170829 0.041951466 -0.07720709 0.061435066 0.07738151 0.06364719 -0.092795 -0.17155547 0.07250412 0.07799644 -0.08609756 -0.0738197 -0.010028464 -0.06699848 0.14250045 -0.09536923 -0.038285393 0.12455143 0.029048258 -0.08569678 0.022064717 0.088291265 -0.07247094 -0.020697495 -0.12574612 0.072629906 0.12029461 -0.0334728 -0.14961158 0.073097244 -0.06553574 -0.113524534 -0.001600869 -0.17128932 0.13750103 0.14780916 0.13469365 0.10853049 -0.041620944 -0.0088241035 -0.104563095 -0.11971683 0.12903394 -0.18411446 0.10193071 0.0743865 -0.106010325 -0.18175869 0.14516458 -0.08114771 -0.09449977 -0.12349323 0.11828602 -0.09097345 -0.11720377 -0.21533498 0.13222492 -0.033455726 -0.013732789 0.10220991 0.14486603 -0.17448813 -0.0666842 -0.0012344428 0.1427224 0.164497 0.10438962 0.13181016 0.093508996 -0.1433674 -0.123952836 -0.11151226 -0.09557754 -0.16165648 -0.03206912 0.08716043 0.1502002 0.04545032 -0.10837566
42 0.06619647 0.14622678 0.07815196 -0.035312418 0.05843411 0.011070041 -0.12967826 -0.010752428 -0.084598064 -0.037777852 0.120409295 -0.013293736 -0.08467053 -0.12202928 0.03597239 0.0893086 -0.06610694 0.016170394 0.069529094 0.062398557 -0.08112152 0.058694467 -0.012033086 -0.041525908 -0.091443434 0.16902286 -0.044205017 0.07225539 0.08597298 0.039859578 0.101608805 0.007796722 -0.07734957 -0.11952119 -0.0444851 0.17486975 0.14456405 0.029850464 0.09076302 -0.019598687 -0.23352018 -0.07086308 -0.1048824 -0.12728716 0.06510261 0.07472477 -0.019560972 -0.12229449 -0.054748747 -0.04731008 -0.22790375 -0.027763108 0.17514122 0.060413536 0.12847081 -0.07988117 0.44355184 0.11004973 0.073595114 -0.12048175 -0.11091125 0.09191825 0.0856698 0.03167762 -0.09394674 -0.0011620999 0.10543516 -0.030904643 -0.019615857 -0.012920242 0.0861615 -0.11423772 0.19064753 -0.05442152 -0.06901956 0.069596775 -0.26354852 0.01293658 0.09667444 -0.12697642 0.17689417 0.020631982 0.056619816 0.060499996 0.017601069 0.040531665 0.08860989 -0.23553006 0.026655074 -0.094109796 -0.11004833 0.12529081 0.046284832 0.08845119 0.13697718 0.20570801 -0.06891961 -0.036839325 -0.1107495 -0.08876293 -0.07054892 0.108293176 -0.17899409 -0.043998305 0.36425215 0.07923515 -0.22489871 -0.15151817 -0.17962633 0.0009131537 0.011878788 -0.08290438 0.0054694857 -0.08694712 0.01110878 -0.08952936 0.07861681 0.1392471 -0.0640148 -0.058650177 -0.048797607 -0.066916555 0.0184563 -0.18999308 0.08489291 0.005362504 -0.03902035 -0.11261108
43 0.034144092 0.15337579 0.016661905 0.08067259 -0.059622683 0.105074205 -0.09490834 -0.13448909 -0.037304614 0.0640663 0.08416942 0.1364814 -0.1277071 -0.034668263 0.121525764 0.04465281 -0.07023618 0.11292718 -0.006120839 0.08021263 -0.017029583 -0.0024078654 -0.10677368 -0.1363706 0.051133126 0.09840748 -0.0024919577 0.048219867 0.028895944 -0.01715389 0.046792902 0.11405475 0.0043283417 -0.14466885 0.05146549 0.18807895 0.051407296 0.09147104 0.056589905 -0.043298278 -0.08959295 -0.014462522 -0.021387327 -0.102465 0.018728448 -0.0014068759 -0.12619174 -0.031159494 0.077428415 -0.06223766 -0.16795935 -0.013506678 0.16335273 -0.0023003155 0.1174339 0.016514374 0.3594443 0.11514098 0.01439072 -0.107588015 -0.006828223 0.21211307 0.20582256 0.08665796 -0.015101274 0.10209687 0.013726604 0.09592893 -0.12504797 -0.12717989 0.036983695 -0.04121477 0.08112428 0.00483254 -0.1180249 0.07617926 -0.22671136 -0.11216736 0.039345253 -0.10576073 0.0039245356 -0.098131225 -0.06441113 0.09217789 0.07204098 0.076144636 0.08216529 -0.10497647 -0.07338487 -0.011767076 -0.11944962 0.11671017 -0.09321655 -0.0022014282 0.09218651 0.23793554 -0.077275656 0.06956958 -0.008452652 -0.008514586 -0.032368317 0.037784908 -0.14721456 -0.0124463355 0.33473355 0.025959387 -0.14754444 -0.10440505 -0.1899036 -0.0236988 -0.075358495 -0.08332299 -0.14118178 -0.08513494 0.04931912 0.026816377 0.06910989 0.057693575 -0.14702623 -0.009420341 -0.04640328 -0.020561224 -0.050019998 -0.13628176 0.0057723955 0.0645582 0.09216316 -0.07755881
44 0.05256073 0.07158217 0.03625027 0.12577564 -0.08374726 0.15670493 -0.07862452 -0.16217396 -0.08300374 0.15328704 0.14162609 0.102185994 -0.098912634 -0.014859725 0.17542203 0.012957533 -0.06823982 0.16910017 0.037432645 0.053303253 -0.019759865 0.043626763 -0.121920995 -0.16137744 0.06770366 0.091607146 -0.044887807 0.026363365 -0.00029277426 0.056209553 0.036813796 0.075788155 -0.02621894 -0.03850865 0.04468773 0.12762223 0.04040626 0.086230375 0.007362389 -0.078194514 -0.018861245 -0.010250544 -0.03438357 -0.015140885 0.0334812 0.025640085 -0.14524369 -0.01150704 0.09632332 -0.06863758 -0.115097895 -0.061567653 0.10798918 0.03109517 0.16067892 -0.012663808 0.04090411 0.10378255 0.034446344 -0.07802279 -0.02420783 0.20417652 0.16566625 0.09855663 -0.039006148 0.12979883 0.008156169 0.13462183 -0.14358519 -0.20418261 0.02042072 -0.06330971 0.020490743 -0.028484669 -0.12240556 0.035779707 -0.099532135 -0.041054927 0.0239622 -0.050819416 -0.21863754 -0.11028808 -0.078071564 0.085482724 0.07552308 0.033066377 0.028111827 -0.06792109 -0.15741156 -0.031609498 -0.07423355 0.056073166 -0.07812629 0.039234083 0.013827444 0.16695797 -0.060507845 0.055102397 -0.015545 -0.016660033 -0.06740655 0.028239759 -0.0351985 -0.0486945 0.1665914 0.03519812 -0.06964181 -0.051634394 -0.15304211 0.06251499 -0.056762427 -0.045211725 -0.19761492 0.098310366 0.0662745 0.11862887 0.034967583 0.021902833 -0.09587969 -0.036814254 -0.065426975 -0.061715804 -0.061370227 -0.064344004 0.031776715 0.031406272 0.108459376 -0.057435136
45 0.021494228 0.2084117 0.045360416 0.03557463 0.08809763 0.14804846 -0.057573467 -0.17465308 -0.079695195 0.045846775 -0.01702503 0.013497633 -0.06817142 -0.13776991 0.09064122 0.052277826 -0.09124968 0.05332014 0.065488584 0.020070195 -0.0697358 0.025739996 -0.081892096 -0.060578354 0.06649896 0.048627842 -0.0043833773 0.0071491143 0.07428447 -0.024290323 0.105838105 0.098894075 -0.07856873 -0.18232283 -0.10388175 0.23516798 0.08462279 0.13247086 0.09549755 0.005830587 -0.18270296 -0.04460392 -0.10379451 -0.10330571 0.044215363 0.082131706 -0.06533831 -0.10988231 -0.014155408 -0.050739143 -0.2608224 0.06624408 0.1479694 0.021887124 -0.24703918 -0.06261133 0.40828794 0.08530937 0.067736015 -0.08755449 -0.1107546 -0.02406586 0.10248027 0.1462775 -0.08727091 0.054055538 0.1110659 0.05941816 -0.09543703 -0.09688138 0.08561547 -0.123442695 0.1549539 -0.061538197 -0.14948714 0.069739126 -0.24856506 -0.07728651 0.061274745 -0.05025911 0.09057924 -0.036740553 0.019213192 0.080622226 0.12607738 0.09624977 0.040140636 -0.12652849 -0.051198535 -0.08909246 -0.037373643 0.15183352 -0.10342866 0.09505114 0.070865974 0.13847443 -0.10273156 0.0024056758 -0.05394976 -0.03625409 -0.06297752 0.048659083 -0.13178289 -0.056980427 0.31395987 0.10618418 -0.17927018 -0.095900744 -0.1795066 0.071715936 -0.09360635 -0.08303498 -0.10991316 -0.24618278 0.07475058 0.02458919 0.13456345 0.10031567 -0.09972114 -0.03827922 -0.04859599 0.01625211 -0.10034755 -0.10348968 0.031034056 0.044188082 0.08931572 0.007122398
46 0.024703225 0.031319436 0.06592712 0.088297494 -0.048074577 0.21685198 -0.06628578 -0.17868721 -0.08665223 0.08033801 0.2315293 0.10649522 -0.09267494 -0.032044325 0.112023264 0.009677209 -0.077207394 0.14375556 0.05608766 0.058131248 -0.038643096 0.07069497 -0.0845507 -0.060682435 -0.0024511109 0.0947825 -0.07313286 0.037536368 0.020613233 0.097868726 0.042724043 0.075731225 -0.047031764 0.022206768 -0.01798564 0.12906577 0.0840609 0.053405922 0.016097149 -0.09667779 -0.02613345 -0.017004183 -0.04310268 -0.01065194 0.06643001 0.029345164 -0.08891856 -0.023101445 0.12557916 -0.05527647 -0.098903865 -0.109092094 0.11280667 0.067178786 0.18754807 -0.035169583 0.01718157 0.09878987 0.056040358 -0.07549545 -0.0452484 0.31459084 0.18798491 0.10873149 -0.055990126 0.076763555 0.03458634 0.049630854 -0.108795635 -0.19081475 0.04407027 -0.07535906 0.031940624 -0.035703853 -0.18064645 0.059958033 -0.14019886 -0.0024221668 0.040265974 -0.012479261 -0.3012838 -0.02791381 -0.097096235 0.09423356 0.065711506 -0.012890958 0.034627013 -0.12223535 -0.111720756 -0.02798544 -0.065967225 0.0013180788 -0.04204982 0.05400434 0.0021869545 0.19894092 -0.057080854 0.038906544 -0.055752903 -0.06337633 -0.060027845 0.044980947 -0.0691581 -0.056287795 0.16991681 0.023004085 -0.054573294 -0.07510147 -0.20646794 0.10886429 0.012668334 -0.026393646 -0.14659038 0.16620986 0.054860145 0.15321751 -0.0026256042 0.010132677 -0.10337671 -0.032979548 -0.116128646 -0.07374548 -0.060127914 -0.083782636 0.05976608 -0.0113787865 0.07374542 -0.046498127
47 -0.022076365 0.10642438 0.013148895 0.04953119 -0.056141306 0.10411575 -0.055896234 -0.088681825 -0.0926427 0.041867733 0.13389423 0.12769593 -0.09438388 -0.011210872 0.10065731 0.074201964 -0.11203782 0.09368183 0.07238824 0.062235065 0.0038801567 -0.00566467 -0.09267401 -0.08984885 0.09726956 0.13573767 0.008663183 0.04031869 0.038582444 0.017586175 0.077947065 0.09172859 -0.043069266 -0.0923844 0.038250916 0.09384175 -0.007972163 0.099267185 0.020124907 -0.038246904 -0.11266927 -0.052841187 -0.04756164 -0.017802242 0.048321668 -0.00078704004 -0.071822084 -0.1380564 0.08814751 -0.0498751 -0.13426751 0.014918598 0.12927698 0.007946269 0.04306226 -0.030438881 0.1821686 0.07719932 0.036464635 -0.116809145 -0.03436132 0.09618433 0.07774676 0.08765764 -0.033182863 0.06956496 0.09945025 0.065770485 -0.06521564 -0.06141582 0.031981874 -0.072359085 0.014631903 -0.036882803 -0.07613336 0.07782171 -0.1410779 -0.07544987 0.004939629 -0.065745324 -0.093196355 -0.05554869 -0.118179485 0.08063431 0.13468593 0.07278617 0.036844756 -0.15056309 -0.041290894 -0.038053937 -0.09535308 0.07765289 -0.06821642 0.049358215 0.052515745 0.14336066 -0.1363922 0.07070577 -0.022282952 -0.004200517 -0.04350167 0.034362502 -0.09770288 -0.061183978 0.18991765 0.07787245 -0.08342488 -0.061826218 -0.10586326 0.048124373 -0.07201427 -0.0016428703 -0.06287233 -0.08293395 0.101768255 0.0595619 0.1031657 0.075970024 -0.10847925 -0.007399171 -0.060364943 0.022106657 -0.14811896 -0.07274843 0.0130332345 0.096986465 0.055711266 -0.10505999
48 0.11244228 0.027424201 0.17165656 0.03438348 -0.12743206 -0.07614963 -0.090636864 0.047061164 -0.1850942 -0.0671031 0.12823687 -0.013384217 -0.036865182 -0.08996875 -0.08971979 0.13575628 -0.15531619 -0.106053405 0.13824861 0.15033297 -0.12350286 0.13765526 0.07880324 0.17714517 0.11069143 0.08087217 -0.14301856 0.1288842 0.13851582 0.1414567 0.120786846 0.048282173 -0.1328021 -0.020882161 0.1459801 -0.0073088612 0.07640981 0.1325563 0.11963218 -0.16608323 -0.101722024 -0.13556097 -0.11994387 -0.124670945 0.14483619 0.12608519 0.12206333 -0.13249505 0.102120206 -0.16916607 0.026528563 -0.14284447 0.054490976 0.13224223 0.09602148 -0.13824098 -0.088628866 0.11471412 0.13889632 -0.116756186 -0.120900035 0.043974485 -0.022610394 0.102130294 -0.14361966 -0.13241445 0.1365323 -0.040461585 -0.005527015 0.0668974 0.1204544 -0.09125169 0.03716411 -0.144113 0.10141681 0.14549935 -0.03051 -0.09955156 0.13368717 -0.10928303 -0.08932693 0.045662124 -0.12355369 0.16756216 0.12587795 0.1280419 0.10721683 -0.0752945 0.0469246 -0.13758765 -0.1407195 0.12815441 -0.15900493 0.13613023 0.09610547 -0.099180974 -0.15416427 0.112654254 -0.12012791 -0.13656448 -0.17251316 0.1603618 -0.12867764 -0.15960588 -0.17634884 0.14562878 -0.073197655 -0.05325704 0.03651674 0.1564155 -0.12445171 -0.10445534 0.05631618 0.18431512 0.14118393 0.04713227 0.11134923 0.1133235 -0.12081485 -0.169998 -0.15874355 -0.1341836 -0.15088792 -0.07262178 0.13877897 0.129778 0.029384281 -0.11245806
49 0.15122817 0.03804457 0.1628861 0.025061557 -0.19613038 -0.069002524 -0.10569872 0.06941047 -0.17034335 -0.015830737 0.071123555 -0.03657968 -0.059187185 -0.10748808 -0.10024683 0.18898222 -0.18320231 -0.100292 0.1848129 0.17260386 -0.17169929 0.1808157 0.05835728 0.13728598 0.17278531 0.100954995 -0.17008461 0.14062332 0.18998818 0.19624189 0.13429078 -0.009089427 -0.17764685 0.029106371 0.20031942 -0.031880666 0.08807551 0.121871226 0.14664908 -0.17337702 -0.07452881 -0.18545209 -0.16366224 -0.13660996 0.18580347 0.17617545 0.11642207 -0.15658861 0.17418335 -0.18513902 0.11031851 -0.15560998 0.044409774 0.16524367 0.07687762 -0.16651864 -0.26318035 0.071985565 0.16851391 -0.11204916 -0.15447053 -0.05355805 -0.089837015 0.16113788 -0.15372458 -0.11564078 0.18180509 -0.013890945 -0.009954099 0.089870326 0.14329477 -0.08859253 0.018590722 -0.20582598 0.14200434 0.17447561 0.002854789 -0.1541078 0.14102791 -0.11017132 -0.099533066 0.0063526505 -0.17207891 0.13225976 0.15147193 0.14268641 0.121897034 -0.035916906 0.018760113 -0.2015855 -0.1610208 0.14525366 -0.17313159 0.17707711 0.11105172 -0.13585226 -0.19531737 0.15917225 -0.15301038 -0.17532039 -0.1898668 0.18689069 -0.096667476 -0.1963175 -0.28482178 0.20487177 -0.045814466 -0.04687076 0.11380553 0.20313367 -0.17032833 -0.11104324 0.04833555 0.23717761 0.18138681 0.06906143 0.17475368 0.13984846 -0.13953619 -0.19421737 -0.18242769 -0.18204464 -0.16064754 -0.058926553 0.16311292 0.17358418 0.019558586 -0.18334636
50 0.09670548 0.019459795 0.1541449 0.023744315 -0.17568347 -0.06283858 -0.093327925 0.04439185 -0.14189485 -0.0488087 0.10363441 -0.010626078 -0.056847464 -0.08483361 -0.06353038 0.15400527 -0.19920878 -0.080721244 0.15312003 0.1740675 -0.12727064 0.13034374 0.033344105 0.12275085 0.16885924 0.081315026 -0.13081244 0.105281286 0.15093641 0.14059788 0.121027514 0.019434698 -0.13987707 0.013122067 0.21119022 -0.020282947 0.06160869 0.13097355 0.13474536 -0.18962803 -0.091981836 -0.14657122 -0.1242887 -0.1251556 0.14943443 0.11069755 0.09068705 -0.17171648 0.12050913 -0.18307585 0.07059354 -0.12049409 0.0698435 0.11952294 0.058175404 -0.12598285 -0.1863955 0.064120166 0.116378635 -0.122955054 -0.10454938 0.0095659 -0.053151336 0.13996413 -0.1307582 -0.08341701 0.16584086 -0.022097072 -0.012533692 0.062383253 0.11545588 -0.08969713 0.023912001 -0.1617734 0.07660721 0.17321786 -0.022643436 -0.15969723 0.11448105 -0.094343334 -0.04302052 0.051625036 -0.1501185 0.15177852 0.13773794 0.15360354 0.11734966 -0.04671834 0.040568236 -0.1332653 -0.1561543 0.14645168 -0.15837231 0.13805832 0.0899317 -0.08860788 -0.21464583 0.15352252 -0.111472644 -0.12509072 -0.14815761 0.16795504 -0.07435707 -0.15150079 -0.19474252 0.14716324 -0.046165124 -0.043636095 0.10263979 0.1979608 -0.1715895 -0.089393154 0.054139078 0.18406577 0.17440346 0.02911052 0.1316945 0.12916054 -0.11414117 -0.17478967 -0.150925 -0.11280737 -0.14115979 -0.053418778 0.14374483 0.15641397 -0.003971924 -0.12738913
51 0.049762018 0.039213788 0.07482051 0.10692061 -0.09049207 0.08799302 -0.083608545 -0.09282093 -0.09438962 0.07372821 0.098159075 0.091431 -0.06911176 -0.020044815 0.06600566 0.067403816 -0.067192934 0.10764758 0.03699267 0.052678447 -0.028088868 0.04691639 -0.10991019 -0.19587065 0.040423255 0.033763032 -0.05496128 0.06959602 0.04690535 0.040992085 0.016353056 0.062062908 -0.05207423 -0.03521429 0.08376815 0.08477747 0.03445828 0.106773436 0.045858745 -0.059285473 -0.043492638 -0.024460435 -0.025900222 -0.054257456 0.051486317 0.02613903 -0.15519041 -0.03719924 0.083019316 -0.07905199 -0.056802146 -0.08886051 0.09722751 0.030099723 0.15309197 -0.026378136 -0.01582894 0.06976767 0.04587547 -0.09649368 -0.020824354 0.06567106 0.07396408 0.06748854 -0.036180668 0.11748102 0.03408048 0.09330271 -0.091706894 -0.13770638 0.03766912 -0.02300527 0.006190561 -0.027117312 -0.054669593 0.091058984 -0.0707478 -0.079783835 0.049545243 -0.07376699 -0.17987576 -0.10951834 -0.063445404 0.07614834 0.11113152 0.070396364 0.039670214 -0.052436423 -0.06666489 -0.026152711 -0.07268835 0.06569612 -0.06353663 0.029864347 0.05429092 0.1286817 -0.07513049 0.07111206 -0.0385459 -0.04442907 -0.058232214 0.042091988 -0.069157094 -0.041634344 0.035600066 0.04531716 -0.03651622 -0.030320453 -0.08029823 0.05287903 -0.078958675 -0.08163635 -0.075421 0.088115156 0.06640488 0.10098788 0.029548105 0.030706069 -0.08954484 -0.033649664 -0.068172775 -0.05828464 -0.07226933 -0.05914171 0.0485974 0.034951195 0.08636243 -0.03818026
52 0.025178388 0.15806517 0.06358309 0.0031758451 0.026687767 0.08859205 -0.088128045 -0.06946214 -0.092146315 0.012658997 0.09810324 0.031445894 -0.089748256 -0.06287685 0.08758286 0.056144226 -0.07302206 0.089262545 0.0611031 0.034727238 -0.04986448 0.034391172 -0.06794643 -0.06745766 -0.006706402 0.10676213 -0.010423491 0.039891414 0.08713794 -0.002931816 0.072830126 0.058970004 -0.03258273 -0.171322 0.010582092 0.20153236 0.087289855 0.06339975 0.09184427 -0.046187893 -0.1396176 -0.032029215 -0.053547617 -0.12754212 0.036702786 0.02316591 -0.07171414 -0.10789855 0.008720784 -0.074457265 -0.19785163 -0.015610116 0.18268375 0.045742903 0.07143525 -0.040821385 0.3848758 0.09894636 0.04586686 -0.08485081 -0.069906056 0.16142716 0.106048 0.1042321 -0.07053604 0.062162783 0.08827665 0.037743013 -0.06982625 -0.07782353 0.052776862 -0.04327219 0.12917596 -0.018390402 -0.12032921 0.08737083 -0.18960269 -0.025601327 0.06978512 -0.09026836 0.09226676 -0.021649377 -0.02258962 0.08754143 0.035313647 0.096741766 0.111220986 -0.1536115 -0.032780375 -0.039013106 -0.09109824 0.116412655 -0.05059946 0.059331007 0.10035641 0.16560997 -0.112217575 0.028708013 -0.055269316 -0.058579765 -0.07680985 0.08641534 -0.13024011 -0.03314068 0.2668744 0.04337085 -0.2054615 -0.08714623 -0.1729053 0.03825663 -0.024063911 -0.058335565 -0.046581224 -0.1327651 0.058404144 -0.014889547 0.05818988 0.0843737 -0.11443918 -0.02799152 -0.048901964 -0.011812138 -0.06118168 -0.13979617 0.06104921 0.010766128 0.0445115 -0.056117672
53 0.044701517 0.12265085 0.065997854 -0.016592596 0.02056612 0.022509078 -0.085014366 -0.030171623 -0.06610338 -0.023713604 0.08997233 0.019548036 -0.0675606 -0.07379248 0.06735496 0.09257835 -0.056100924 0.05455705 0.07655201 0.054815207 -0.069452405 0.04098545 -0.020454207 -0.02713213 -0.027244205 0.13196248 -0.034822058 0.049731787 0.07670538 0.031684402 0.091450624 0.01633002 -0.06260918 -0.16138485 0.009004422 0.19991243 0.100467645 0.05206663 0.06866673 -0.056883134 -0.14052631 -0.09932413 -0.120889656 -0.087730505 0.072059184 0.037193872 -0.038942624 -0.11306526 0.012029743 -0.043026768 -0.19122304 -0.049683888 0.12588376 0.06540595 0.089655966 -0.04911657 0.37846187 0.072700776 0.05164453 -0.113043934 -0.086121865 0.15043685 0.09351713 0.05589041 -0.09121666 0.026343042 0.10803998 0.008823791 -0.036673766 -0.080015615 0.051678654 -0.07338271 0.13641566 -0.035208635 -0.09754546 0.05458308 -0.16883421 -0.04152984 0.060713544 -0.09069403 0.10858051 0.009245194 0.016435353 0.078450195 0.036935028 0.052599866 0.096513666 -0.17487669 -0.0106383795 -0.07277213 -0.0869548 0.10260917 -0.02137453 0.112053156 0.09562922 0.13872707 -0.09112147 0.028345088 -0.07128084 -0.07249937 -0.07181041 0.09059916 -0.15415296 -0.055220027 0.27999786 0.054082777 -0.14743736 -0.105157554 -0.11989847 0.05552077 -0.04352534 -0.047955323 -0.0036067897 -0.06002773 0.07044058 -0.04998268 0.050467156 0.10050256 -0.07298185 -0.05741723 -0.04889681 -0.042446584 -0.03937268 -0.10933677 0.06777864 0.047977153 -0.0012621484 -0.11506775
54 0.15193695 0.039816674 0.0115987295 0.09381092 -0.052886266 0.1609391 -0.15803568 -0.14504895 -0.092150375 0.073816225 0.24879107 0.15150376 -0.07458665 -0.010762964 0.12684265 -0.00564718 -0.007241192 0.0922592 0.053938903 0.05149639 0.0030071759 0.040239487 -0.11246129 -0.10853638 0.101221435 0.21057753 -0.05700857 0.062846735 -0.0037043677 0.059109066 0.05628287 0.06892705 -0.016605297 0.040733505 -0.0013246364 0.12032238 0.11908694 0.09178591 0.06510331 -0.06629502 -0.073632166 0.026184056 -0.03828673 -0.01337131 -0.0022817962 0.0057798927 -0.14774637 -0.016689686 0.094458655 0.008704668 -0.111952566 -0.08600599 0.10753015 0.014472983 0.2165175 -0.020440519 0.24431212 0.1582386 0.021129267 -0.13246784 -0.061079048 0.23368752 0.13701409 0.13735925 -0.030466197 0.14651883 0.004770502 0.111457564 -0.090188354 -0.14769176 0.070215754 -0.13030428 0.10776575 -0.006550285 -0.1111218 0.03325101 -0.11857295 -0.016406873 0.07032312 -0.11294247 -0.15863289 -0.08978384 -0.034898803 0.011174795 -0.042859994 -0.07329588 -0.012268723 -0.18113811 -0.071633436 0.006889399 -0.069952965 0.025461227 -0.009415874 0.024492193 0.11341718 0.237617 -0.021548634 0.045002203 -0.025028735 -0.011987667 -0.00027065288 0.010512244 -0.06267355 0.003254924 0.2635265 0.029666724 -0.16591802 -0.18158124 -0.16938283 0.006831526 -0.016052246 -0.073608376 -0.14109197 0.22162129 0.014572338 0.07747865 -0.027086714 0.05098735 -0.11189573 0.024349347 -0.12400154 -0.09453366 0.035882365 -0.19743812 0.0153536955 -0.009087356 0.05916517 -0.037508346
55 0.07818797 0.058745928 0.122139975 0.03719687 -0.20489505 -0.035764914 -0.044784542 0.021281635 -0.14449996 -0.010985469 -0.005064905 0.009540031 -0.04531358 -0.027711438 -0.032515783 0.14858904 -0.16573827 -0.03767044 0.13136214 0.15457323 -0.11210966 0.09779698 -0.01328026 0.0710859 0.14065495 0.04145731 -0.112941064 0.120145135 0.14813817 0.119089335 0.098942004 0.044156745 -0.102810055 -0.048537854 0.23021233 -0.018046508 -0.016842939 0.103917584 0.15301144 -0.20605604 -0.032066032 -0.1345737 -0.10594249 -0.13623206 0.13150929 0.08365086 0.0539082 -0.12718467 0.12381361 -0.22769643 0.039629914 -0.09592425 0.009571625 0.09127302 0.02158624 -0.09363039 -0.14653404 0.043294363 0.08615195 -0.057213478 -0.07096139 0.0026664508 -0.029531365 0.16360547 -0.11018922 -0.03561801 0.1496426 0.019132873 -0.042939056 0.029330652 0.09901674 -0.016975379 -0.0671258 -0.14809765 0.011667628 0.18617037 0.0025131558 -0.10685344 0.07078857 -0.04369994 -0.05629271 0.0003059522 -0.13505422 0.13257329 0.16439478 0.1532894 0.09749493 0.024628395 -0.0027613111 -0.098611936 -0.14390074 0.1353291 -0.17314996 0.110687934 0.065373406 -0.063223645 -0.1870188 0.12791817 -0.07720761 -0.10184628 -0.14398032 0.1687153 -0.0464464 -0.13354498 -0.12590319 0.15935472 0.007516303 0.032429237 0.03994479 0.1846564 -0.15633266 -0.07008531 0.009910322 0.16522445 0.18083169 0.04619802 0.12383989 0.11850883 -0.114367425 -0.14803335 -0.15064093 -0.09625122 -0.16938487 0.012749932 0.10588153 0.20046425 0.045005515 -0.11744645
56 0.10032791 -0.03490027 0.13358472 0.12912038 -0.14832552 0.06916442 -0.020516677 -0.097379 -0.19318826 0.02850554 0.31140992 0.08144736 -0.08872137 -0.094231114 0.0062945657 0.10020747 -0.105349205 0.053696435 0.14154114 0.09722298 -0.11775813 0.16724807 -0.028994696 -0.20380491 -0.07122788 0.07112055 -0.21809736 0.13299187 0.05736751 0.21014705 0.0023373044 -0.04391638 -0.15074933 0.11004426 0.12427335 0.030696867 0.18582314 0.04924482 0.044332594 -0.13696498 0.08475868 -0.059232928 -0.093883514 -0.01900713 0.11710711 0.1644906 -0.07781475 -0.050578628 0.10590354 -0.13033085 0.22350128 -0.2579385 0.043871544 0.17198029 0.38945362 -0.10396521 -0.30065936 0.11957737 0.2096592 -0.114795625 -0.22491819 0.0532397 0.061889403 0.1783789 -0.16128802 0.01689191 0.09358346 -0.034021705 -0.01884374 -0.10304965 0.08657263 -0.0025102682 0.014147749 -0.10560437 0.035679977 0.18537763 0.06956627 0.085331805 0.11739418 -0.0128158545 -0.41944242 -0.020142512 -0.078430176 0.019107804 0.0902625 0.0018333712 -0.11034967 -0.115077384 0.01738114 -0.13972458 -0.08025122 -0.052876923 -0.05360847 0.14368203 0.027697558 0.15813205 -0.10096874 0.16455826 -0.16702975 -0.19248952 -0.0931588 0.060311507 0.09737184 -0.12536092 -0.23141992 0.11783194 0.0029671062 -0.081237316 -0.09290782 0.18624042 0.07982689 -0.03929733 0.019807678 0.4637017 0.095273465 0.21198983 -0.05279233 0.0017181094 -0.023607671 -0.0826498 -0.20467423 -0.3256391 -0.08281521 -0.13407533 0.17518398 0.008209946 0.07737463 -0.026665522
57 0.11285926 0.04366893 0.17820832 0.04168331 -0.16615748 -0.056129925 -0.066678725 0.035592023 -0.17034562 -0.016569057 0.06796348 0.0014018031 -0.033557672 -0.071046904 -0.049404398 0.1508572 -0.16977376 -0.07105176 0.15145454 0.18707259 -0.14328794 0.13177268 0.031068282 0.13837889 0.11333891 0.08921092 -0.1518526 0.16254215 0.14557618 0.14315918 0.13236377 0.027172694 -0.13177975 -0.021943461 0.16114359 -0.06904019 0.034209788 0.11435553 0.16523674 -0.20589323 -0.078389235 -0.12921998 -0.11360489 -0.15187849 0.14177759 0.09668205 0.089138985 -0.12415339 0.11124252 -0.23808171 0.034477673 -0.122934505 0.020113302 0.1332483 0.052485034 -0.119588114 -0.19853625 0.07964694 0.12675822 -0.106616974 -0.1207582 0.010275353 -0.045718294 0.14326027 -0.13764825 -0.08234215 0.1508927 -0.00095144566 -0.031389035 0.060277652 0.117167056 -0.06989698 -0.039002296 -0.12732762 0.06356384 0.18965663 0.0001764591 -0.11645748 0.12399422 -0.083283804 -0.05641654 0.0044347686 -0.12235045 0.15141763 0.15199392 0.1498191 0.114620976 -0.033180483 0.004390696 -0.11985725 -0.17956427 0.13770136 -0.18058933 0.13866234 0.118327476 -0.104989454 -0.19422445 0.11673036 -0.13296391 -0.12925424 -0.15369868 0.17815427 -0.09544236 -0.16942081 -0.21726097 0.1418623 -0.015621022 -0.025327783 0.063815996 0.15398887 -0.11534264 -0.099193126 0.027784966 0.19035052 0.17594676 0.0654403 0.12401478 0.14301103 -0.10923046 -0.13741392 -0.20816563 -0.13376407 -0.20104933 -0.038287494 0.1462886 0.14820077 0.019586692 -0.12523039
58 0.11391464 0.100142315 0.031263888 -0.005466004 0.03149449 0.15182549 -0.12838246 -0.121205255 -0.07536853 0.04758518 0.20656662 0.08547011 -0.07889247 -0.06201459 0.17177856 0.014181986 -0.00046020705 0.08477281 0.085594326 0.041722313 -0.041084774 0.05613458 -0.11750601 -0.0646127 0.060709678 0.1914 -0.06720088 0.037654564 0.005814349 0.06805713 0.065441415 0.038817495 -0.040672176 0.030706668 -0.071805045 0.16483976 0.15666315 0.09141038 0.055881083 -0.042171955 -0.10972922 0.011075097 -0.07514497 -0.038114935 0.012929645 0.021475477 -0.1320528 -0.041804988 0.0447747 -0.0025651017 -0.20553806 -0.083412185 0.12033685 0.034751847 0.114279814 -0.0614572 0.3261513 0.19623734 0.05097087 -0.123617865 -0.12030238 0.24274148 0.13286377 0.1246828 -0.06442324 0.13740996 0.030988697 0.07746282 -0.08091635 -0.13139969 0.06991666 -0.10800861 0.17388086 -0.01090331 -0.17882346 0.03008267 -0.13238393 0.020362157 0.07355449 -0.10854452 -0.06842227 -0.03778511 0.03930346 0.023445472 -0.05127341 -0.052530933 0.021367205 -0.19665563 -0.06324542 -0.01835806 -0.08326897 0.05194469 0.05418807 0.071804814 0.102930136 0.2917932 -0.00061325345 0.006171089 -0.072890155 -0.059792466 -0.01538026 0.03475767 -0.08727705 -0.009410914 0.39303797 0.031175638 -0.16706017 -0.18235055 -0.22983989 0.01907184 0.009836665 -0.059746686 -0.095891915 0.14476788 -0.0011141693 0.009912356 -0.0059542353 0.058880877 -0.08472436 0.037155967 -0.0850812 -0.08638428 0.02392189 -0.18900815 0.044215716 -0.008073397 0.01298574 -0.021643342
59 0.06801971 0.028364308 0.08728299 0.069926426 -0.10846741 0.08535577 -0.058998875 -0.043712575 -0.10048498 0.011862841 0.1561492 0.084583476 -0.09990695 -0.047398213 0.016673302 0.08161243 -0.085116446 0.023321442 0.101894766 0.07911097 -0.05092354 0.098146886 -0.057079375 -0.030378338 0.117797114 0.06754119 -0.09091133 0.07735113 0.06978326 0.091737404 0.074716754 0.066062205 -0.05179436 0.0319421 0.110308476 -0.015806258 0.06772608 0.085427344 0.070830904 -0.117203236 -0.025912272 -0.06498877 -0.030690972 -0.07816963 0.065889224 0.03908229 -0.025512915 -0.10364136 0.07943206 -0.13525781 -0.004155152 -0.113304354 0.065894715 0.0745276 0.1785005 -0.06746951 -0.08386015 0.11913821 0.06831089 -0.08236167 -0.058184456 0.110896945 0.08154667 0.09120706 -0.086333945 0.015992844 0.08921585 0.035018496 -0.05670124 -0.046824444 0.05793502 -0.06818391 0.0029434457 -0.08157593 -0.037508093 0.09740375 -0.027245741 -0.09775426 0.091340944 -0.061346237 -0.20081183 -0.015580912 -0.13186078 0.080934644 0.08798155 0.058464743 0.06265174 -0.07369653 -0.029968075 -0.07930453 -0.08544683 0.045225464 -0.08267475 0.056318518 0.04430849 0.026991935 -0.10237433 0.090323046 -0.06961883 -0.09663905 -0.07261724 0.09934402 -0.07687759 -0.07997136 -0.076962836 0.07922779 -0.032189615 -0.05848668 -0.041064084 0.06929602 -0.09463541 -0.03365995 -0.026497733 0.19047055 0.0929778 0.09202561 0.050362475 0.061796725 -0.08424448 -0.09102925 -0.12826627 -0.09424733 -0.07514477 -0.059009258 0.095170476 0.0798094 0.031657733 -0.05355834
60 0.13870743 0.05589991 0.20944148 0.021234276 -0.21144356 -0.07152264 -0.103786625 0.038204204 -0.2052768 -0.053517073 0.09882952 -0.04585192 -0.04216106 -0.1065726 -0.12007254 0.16451636 -0.19206919 -0.10169078 0.19590037 0.20218062 -0.16195346 0.17164065 0.09326794 0.21118176 0.14510556 0.10023645 -0.17587313 0.1652577 0.19151074 0.17032845 0.1510629 0.02449361 -0.17234732 -0.010654662 0.175218 -0.07895226 0.084545255 0.12378765 0.18713596 -0.22098875 -0.11762781 -0.17229337 -0.16181897 -0.17186247 0.1692068 0.13403831 0.13152365 -0.16372606 0.1283687 -0.25114772 0.07561807 -0.15430349 0.023133414 0.18370944 0.043404337 -0.15961947 -0.20921133 0.085158296 0.15349965 -0.123434395 -0.15140742 -0.013461272 -0.047130194 0.15684827 -0.17460434 -0.13630901 0.16190624 -0.041544795 -0.018250104 0.09133072 0.16306034 -0.11460674 0.025975456 -0.17277741 0.12497624 0.21012804 -0.025700046 -0.13942459 0.1599333 -0.120330974 -0.04329 0.03723524 -0.16428873 0.15828066 0.1703704 0.21601197 0.14233078 -0.06504839 0.043120965 -0.1662917 -0.19075455 0.16748886 -0.16473506 0.16727808 0.14736636 -0.16799206 -0.20875034 0.16242793 -0.15948667 -0.1740616 -0.18191458 0.18664815 -0.10386226 -0.17887488 -0.2875832 0.15848789 -0.059292927 -0.06610256 0.048746042 0.20268719 -0.14274952 -0.11378772 0.062134538 0.24068548 0.18840325 0.045872502 0.13888392 0.1792712 -0.103923365 -0.17399625 -0.23691337 -0.14982113 -0.19215818 -0.07579345 0.19444562 0.18225591 -0.003978746 -0.14692006
61 0.01096058 0.1419528 0.048055563 0.0145703275 0.11551597 0.07961182 -0.09406396 -0.12943967 -0.09430875 0.05406318 0.032134917 0.04199651 -0.05410438 -0.13888672 0.076373994 0.033535324 -0.110541366 0.07554644 0.049953878 -0.026359823 -0.04979966 0.019884696 -0.06127969 -0.07491524 0.046629082 0.05684613 -0.01682883 0.006883613 0.0839059 -0.04445544 0.08806722 0.07756719 -0.06642772 -0.19025828 -0.03589514 0.21179569 0.08558083 0.09483765 0.071422055 0.007495083 -0.15405028 -0.03906449 -0.09779226 -0.098317824 0.063812315 0.087066494 -0.066601075 -0.11038105 0.02314101 -0.059629437 -0.21615699 0.0426142 0.16669029 0.019100936 -0.1905625 -0.0669876 0.37855956 0.078640886 0.06390121 -0.1527363 -0.10307614 0.012422741 0.106196634 0.12103638 -0.0805894 0.058882777 0.11664626 0.043527815 -0.090279356 -0.10371141 0.08274755 -0.11081193 0.142592 -0.03611094 -0.12029096 0.11100416 -0.2109252 -0.06824435 0.0484814 -0.047758084 0.07838528 -0.055731904 -0.015931828 0.10385639 0.09073452 0.110005826 0.018972933 -0.123229645 -0.04040743 -0.055384286 -0.03794014 0.1462069 -0.09712436 0.10115087 0.09581564 0.15219669 -0.11519254 0.045122553 -0.057495784 -0.024593474 -0.05568413 0.06263533 -0.15377995 -0.04558573 0.28543708 0.09934648 -0.18136846 -0.08877145 -0.15847304 0.06620148 -0.07436031 -0.110073 -0.09000526 -0.28112325 0.07153995 0.02632358 0.12013674 0.10956584 -0.09396292 -0.03104476 -0.051678367 0.03818481 -0.1458883 -0.11133327 0.019255092 0.07443584 0.10180881 -0.008870868
62 -0.038147017 -0.19889472 0.06558505 0.07973717 -0.11946899 0.29116085 -0.024181033 -0.11899791 -0.13661215 0.069325924 0.31868598 0.15360922 -0.23073746 -0.18800849 0.17491415 0.03678177 0.049582705 0.1917991 0.18690321 -0.0027896042 -0.07550838 0.22199687 -0.21311331 -0.3091942 -0.1417721 0.08073056 -0.17008847 0.04876454 -0.03256227 0.21520843 0.10702 -0.10556945 -0.09826115 0.14773911 -0.08840429 -0.12042535 0.3319765 0.0068212943 -0.011678931 -0.06222591 -0.124267444 -0.018465018 0.12754849 -0.010756537 0.11808373 0.09542937 -0.22118933 -0.055089556 -0.08774853 -0.050450552 -0.08076149 -0.2329752 0.18086824 0.14432901 0.44591093 -0.12528136 0.14391838 0.14978361 0.16742164 -0.23013121 -0.24193546 0.32456818 0.259216 -0.052968606 -0.18324672 0.16926919 -0.04397652 -0.04382329 0.10775728 -0.21625842 0.06909753 -0.17619567 0.10751428 -0.074365065 -0.20544276 0.06576066 -0.06285944 -0.006563685 0.1350543 -0.10652253 -0.46644536 -0.05231 -0.13091214 0.016806157 0.048910115 -0.15592282 -0.042857815 -0.3017089 -0.11960723 -0.07933418 -0.0061984328 -0.113072984 0.064910874 0.0364919 0.060924493 0.15855679 0.020646822 -0.10533161 -0.18171197 -0.17004204 -0.015834758 0.052474104 -0.17361172 -0.06328276 0.39239994 0.022986192 -0.0051617213 -0.26566774 -0.28504875 -0.074785605 0.08621419 -0.12763435 -0.043378502 0.46774113 -0.0982336 0.16509967 -0.028004492 0.050947517 -0.07420716 -0.096001506 -0.14232405 -0.30418882 -0.002733291 -0.22383514 0.17445588 -0.087747805 -0.073099986 -0.06573311
63 0.08392021 0.13230175 0.06248207 -0.016858436 0.018490436 0.053576827 -0.089100905 -0.05251106 -0.07271014 0.03796255 0.087916836 0.038443353 -0.033164196 -0.07489512 0.11261657 0.051945273 -0.05623826 0.071097314 0.06473792 0.05097368 -0.06546102 0.057304785 -0.079836614 -0.1017636 0.008863422 0.100830086 -0.0655613 0.06324871 0.048482917 0.034712985 0.070080005 0.0010597184 -0.05285395 -0.12306076 -0.020694423 0.18028711 0.119732864 0.071560964 0.06911353 -0.046002332 -0.108412184 -0.05491789 -0.07722336 -0.081692144 0.048145723 0.03458024 -0.08974984 -0.049530342 -0.0031448328 -0.04817719 -0.19735253 -0.043213308 0.12175245 0.0566923 0.102575734 -0.05077051 0.3582423 0.089115545 0.073845826 -0.073585935 -0.10806576 0.105302244 0.052415527 0.06968117 -0.069018774 0.11439992 0.05946156 0.048873566 -0.04564116 -0.052337516 0.08353383 -0.070727356 0.15767828 -0.025632953 -0.12096818 0.06432333 -0.1450574 0.013920428 0.07804068 -0.08158029 0.0834828 -0.049593303 -0.029693576 0.044918086 0.014579676 0.064753555 0.06506913 -0.11637354 -0.036775324 -0.044096325 -0.0951066 0.07297117 -0.026321448 0.07371106 0.10265122 0.19136815 -0.06860424 0.03185918 -0.08942518 -0.06874444 -0.055022992 0.06879452 -0.08436849 -0.03862253 0.28666416 0.057915688 -0.1616861 -0.112794995 -0.1160778 0.029037323 -0.026859494 -0.06786041 -0.06470137 0.025989566 0.039452028 -0.0069172885 0.048100807 0.08674233 -0.06498922 -0.035536896 -0.07607226 -0.058417194 -0.03684967 -0.12864651 0.07193927 0.03171376 0.0438316 -0.08860318
64 0.093583174 0.068385355 0.15464737 0.060382273 -0.23628017 -0.052042 -0.036258366 0.03756621 -0.161712 0.012683044 0.030594565 0.019193992 -0.030423842 -0.030696075 -0.047882203 0.1942747 -0.2069325 -0.049540587 0.16041377 0.21048893 -0.12750155 0.116797455 0.0077712266 0.12291669 0.20660882 0.07993477 -0.117463075 0.11283177 0.17325935 0.13149801 0.10164804 0.06858695 -0.13221286 -0.026054613 0.25767457 -0.10412378 -0.020472072 0.13747877 0.14659145 -0.2355176 -0.042447146 -0.15210512 -0.13012312 -0.17201573 0.15304503 0.096642084 0.067075215 -0.13560972 0.16821542 -0.25500578 0.06316177 -0.11583817 -0.015543563 0.115593486 0.04975879 -0.1361375 -0.25556126 0.0750737 0.101439275 -0.0715426 -0.08730589 -0.004807966 -0.040196355 0.13522553 -0.1182223 -0.064810276 0.17741765 0.012356815 -0.058692712 0.057250977 0.10216485 -0.032437176 -0.082083665 -0.18157443 0.06100175 0.19955921 0.01933495 -0.17239676 0.09161548 -0.06662204 -0.1273324 -0.008745218 -0.19711433 0.13930963 0.1619934 0.1976533 0.12520708 0.0483741 -0.020485563 -0.12511234 -0.17064643 0.17366879 -0.23704086 0.1255447 0.10018466 -0.11229641 -0.22310102 0.194492 -0.08686768 -0.11577021 -0.16043253 0.17594205 -0.07345255 -0.19865394 -0.25353435 0.18574896 0.04797446 0.045034785 0.09499104 0.1930965 -0.1969073 -0.051153656 -0.0008861964 0.22761907 0.23460361 0.10914246 0.15875767 0.111145176 -0.14167118 -0.14543048 -0.17586629 -0.10868929 -0.2323479 0.02687154 0.12565029 0.21656352 0.07737877 -0.13926724
