26 128
0 -0.011509625 0.01577786 0.013752626 -0.0057619335 -0.0016028449 0.022151245 0.012778905 -0.019646192 -0.012039834 -0.0039118403 0.010415269 -0.0052649016 0.016961308 0.0040897755 0.011784887 -0.00087841455 -0.019664694 -0.0072015524 -0.010011308 -0.018537598 0.004025412 0.026803087 -0.015627716 0.00870217 -0.006294675 0.0069219195 0.0010963165 0.015342376 -0.016674256 -0.0018669427 -0.012148605 0.012605647 0.0044859843 -0.0023674269 0.0017076742 -0.012164067 -0.010180819 -0.010394257 -0.010526468 0.02350727 0.005553409 0.012206724 0.016569605 0.0018889057 0.010116721 0.0075870254 9.25042e-05 0.0026871834 -0.0028669261 0.0054433174 -0.000315925 -0.01809011 0.010071478 -7.529801e-06 0.00027226418 0.008762427 0.0075318906 0.009315427 -0.0054407488 0.004248855 0.021190848 0.012272335 -0.017131025 -0.014742026 -0.018109709 0.023198877 0.004304486 0.00488304 -0.021407884 -0.00066458253 -0.018339599 -0.016799888 0.005457704 0.016703865 0.007312644 -0.0015283087 0.015702492 -0.012137667 -0.009331566 0.008958323 -0.00034557137 -0.013505505 -0.012812387 -0.004200014 -0.0009980673 0.0006872901 0.0052250754 -0.0105991755 0.014606795 0.005967878 -0.022266407 -0.013995587 -0.023357637 0.004362202 0.01144578 -0.009944463 0.01657406 -0.006932453 -0.005872303 -0.019578993 0.018073106 0.006802865 0.009644554 -0.017852038 0.021945368 0.017290661 -0.016311832 -0.0038776188 0.0017834073 -0.0065894197 0.010410176 0.014805344 -0.009924831 0.00920819 -0.014608385 0.0077658216 -0.0214074 -0.0021290437 -0.020533716 0.011590278 0.02215427 -0.020930178 0.007120894 -0.018773181 0.008678894 0.0070980457 -0.0037027495 -0.008033873
1 -0.020604873 0.015742023 0.030273791 -0.015267501 -0.013365701 0.03135413 0.020067133 -0.0193871 -0.028305782 -0.016675558 0.030710122 -0.029101904 0.02662452 0.010515978 0.02272386 -0.027013345 -0.025342487 -0.010381309 -0.020854022 -0.00016402348 0.02697883 0.023099834 -0.019118305 0.030256623 -0.00714875 0.023216268 0.0029094196 0.03182685 -0.020205306 0.016819287 -0.029400898 0.018866204 0.0050115185 0.0115993675 0.010566151 0.001811957 -0.016792001 -0.029618159 -0.02971628 0.0035433625 0.009735794 0.011123631 0.024282392 -0.01188916 0.033116635 0.02314527 0.021876073 -0.028535556 -0.007128933 0.025277156 -0.0155056175 -0.027352601 -0.005923775 0.02642355 -0.004103833 0.028880415 0.008646545 0.031330034 -0.017398214 0.011831434 0.021903807 0.026035052 -0.023472175 -0.029688628 -0.02925481 0.024707466 0.0072380016 0.008617122 -0.016578743 0.01105693 -0.015949626 -0.029276997 0.008401865 0.024712278 0.013247841 -0.015058758 0.026603961 -0.028397752 -0.02815611 0.022702781 -0.01305985 -0.026359446 -0.025360866 0.004594516 0.016815858 -0.01675159 0.017075773 -0.016800664 0.01407495 0.015778841 -0.03298348 -0.021859223 -0.0137726925 -0.008414188 0.022522151 -0.026290847 0.020709384 -0.016354742 -0.011005847 -0.023402303 0.02387308 0.00135434 0.00488541 -0.024151428 0.032357577 0.031154254 -0.018116396 0.019463727 0.004505506 0.012705559 0.012437873 0.02447915 -0.021912118 0.025432264 -0.02400319 0.026736582 -0.030010436 -0.0113302395 -0.020605914 0.023018796 0.025010398 -0.02135689 0.0036475735 -0.02627398 0.013144799 0.024510838 -0.0056745145 -0.012115106
2 -0.023642581 0.0285156 0.025977906 0.00047264795 -0.016694123 0.027014501 0.01700357 -0.024450827 -0.025074529 -0.010520262 0.017570708 -0.018132057 0.016689396 0.01855619 0.021123633 -0.022546818 -0.023101429 -0.012228402 -0.023895005 -0.007039224 0.005273747 0.012492713 -0.019673746 0.021125732 0.003735773 0.017441668 -0.0062435847 0.0074850153 -0.016270498 0.021637065 -0.02505427 0.023839056 0.009212566 0.016516788 0.007779599 -0.009259487 -0.016014433 -0.02586265 -0.017965203 0.011466278 0.0080877375 0.017500505 0.016403943 -0.008509726 0.011214419 0.024848728 -0.00062962004 0.007129724 0.016119305 0.021406658 -0.015717357 -0.027757056 -0.00035112858 0.024813775 -0.013626909 0.024752015 0.0028328046 0.021244254 0.00866861 0.013579716 0.027980931 0.022554748 -0.018284397 -0.03290784 -0.027447624 0.02577583 0.01026705 0.00701349 -0.025783274 0.017667389 -0.028073477 -0.017444156 0.018250313 0.028790463 -0.004583222 -0.00072547176 0.009424829 -0.024572505 -0.017416995 0.022181494 -0.0017454122 -0.018521247 -0.010149741 0.018371735 0.010511452 -0.004598319 0.02837161 -0.008187562 0.022890484 0.00858137 -0.016453182 -0.010402694 -0.01481032 -0.0010595601 0.022699349 -0.009867246 0.0135894725 -0.01678784 -0.007703009 -0.027733864 0.015318517 6.60285e-05 0.0032994398 -0.022604773 0.022196177 0.021887299 -0.019154476 0.008147626 0.016077537 -0.0046009044 0.020129383 0.015833084 -0.020239908 0.029140206 -0.028726943 0.024188336 -0.027287178 -0.006959353 -0.011802189 0.009924845 0.016181836 -0.023334054 0.009390682 -0.023534037 0.0098055 0.01307906 -0.010301048 -0.007885347
3 0.0050226324 0.011641208 0.008083183 -0.013161585 0.003649755 0.007981487 0.0049133357 -0.014894136 -0.004747086 -0.01717302 0.008213082 -0.010920185 0.013276676 -0.008959999 0.01106414 -0.0013199506 -0.0048756064 -0.010028017 -0.009971194 -0.013356113 0.006548992 0.019271005 -0.010900385 0.00992217 -0.013464648 0.0042093475 0.021806916 0.005179327 -0.006783502 0.021921955 -0.01346008 0.008923096 -0.010069836 0.012135436 -0.0058114743 -0.005925809 0.008054382 -0.0063282996 -0.003033733 0.008322049 -0.0017712297 -0.010285351 0.0056194533 0.007995858 0.008193123 -0.0025042288 0.0009994193 -0.001543542 -0.01357736 0.008399447 -0.017119272 -0.0040973285 0.0096706655 0.014033303 -0.01711828 0.0071389372 -0.010187195 0.007898857 -0.01905016 0.0016556606 0.010449426 0.008409885 -0.020180643 -0.012043568 -0.009954458 0.0060575455 -0.0079022655 -0.002175054 -0.0046811015 0.006805372 -0.011129892 -0.0073248283 0.01914867 0.006752713 0.008256668 -0.020887528 0.019537639 -0.0102775395 -0.005445213 -0.00061157043 0.0069978703 -0.0066943904 0.002221003 0.015454958 -0.0046759807 -0.0008758384 0.0009815758 -0.017294938 0.010555463 -0.0069960486 -0.007867495 -0.025049275 -0.021758744 0.009703643 0.0053881425 -0.00039608544 -0.0005759775 -0.0151260495 -0.015526418 -0.0069704372 0.0003745465 -0.005939697 -0.010495162 -0.008494307 0.020594198 0.01794744 -0.006746955 0.0071536717 0.009160235 -0.0036342002 0.0002872004 0.01288042 -0.0065368535 0.0021478585 -0.01837802 0.0100424085 -0.008339257 0.004153985 -0.013264275 0.023066806 0.012638408 -0.010384096 0.0113325305 -0.011330473 -0.0063111354 0.0028282264 0.007917367 0.010712844
4 -0.01441693 0.028865447 0.020026987 -0.0242298 -0.0018798384 0.016946506 0.017154198 -0.014848305 -0.020933738 -0.017137716 0.018889371 -0.013843978 0.021436514 -0.0010512131 0.018768419 -0.013779904 -0.022348141 -0.019571988 -0.025732704 -0.015877414 0.017314393 0.02270011 -0.014049585 0.024234878 -0.009617661 0.030732872 0.008998995 0.0111854095 -0.014254393 0.014749076 -0.013055418 0.011519089 -0.0076857074 0.019726839 -0.0063128127 -0.010482082 -0.007455253 -0.01583308 -0.018579429 0.007603864 0.0050268276 -0.005065228 0.019782359 0.0055804285 0.02699435 0.019099498 0.025371285 -0.006880117 0.0036159293 0.01589695 -0.016669784 -0.0146229 0.005207769 0.021100929 -0.016854485 0.017380511 0.005181603 0.025276678 -0.0113098575 0.0044254526 0.022712966 0.025497878 -0.0076678596 -0.02515126 -0.015938858 0.017021615 0.0025899734 4.7794383e-05 -0.028402256 0.0044558947 -0.027143855 -0.011682673 0.022558302 0.022067795 0.007582691 -0.017050652 0.026563555 -0.025331262 -0.015039344 0.020440983 0.0017345973 -0.025375806 -0.018245889 0.0011940976 -0.0010810872 -0.0041828575 0.014313565 -0.028666006 0.018619742 0.0026410092 -0.018005196 -0.013605145 -0.022435235 0.0036300619 0.010890727 -0.021293873 0.022780307 -0.028095558 -0.017849196 -0.022246035 0.022809284 0.0011232934 -0.00094187487 -0.014314065 0.029154908 0.028098004 -0.021659592 0.007557688 0.0056773005 -0.009530043 -0.0022824588 0.026721459 -0.021798048 0.025726104 -0.026169406 0.016712239 -0.015285436 0.007641197 -0.023073874 0.026879909 0.019704506 -0.012041128 0.013671089 -0.016913533 0.0030453368 0.029401943 -0.0035182722 -0.008155995
5 -0.02299775 0.025776442 0.019090591 -0.0079704905 -0.019628584 0.017294029 0.017542003 -0.016049014 -0.010061859 -0.005371541 0.02671398 -0.019573642 0.0154027 0.0073167267 0.026060864 -0.015604781 -0.008347104 -0.0019564086 -0.008420596 0.0053628446 -0.0100438 0.01984933 -0.017254185 0.020180102 -0.00769231 0.024535123 0.0028787814 0.01989473 -0.017663201 0.010005251 -0.003456249 0.023330977 -0.002387852 0.01769342 0.0067834198 -4.6415895e-05 0.0023457664 -0.026227606 -0.02825544 0.009104942 0.019464128 0.004197382 0.00634042 0.00359025 0.014507793 0.023567822 0.019618366 0.011247257 0.025098331 0.022787668 -0.011323058 -0.014856325 -0.013078981 0.022770934 -0.008085061 0.008048142 0.009677314 0.025807917 -0.0046467735 0.012753776 0.017630506 0.017434234 -0.020917915 -0.025426444 -0.012809879 0.013663238 0.0036692969 0.014058404 -0.022782201 0.012828861 -0.01820318 -0.022452798 0.022425922 0.020939376 0.009016778 0.00017427266 0.025165983 -0.0294176 -0.018207952 0.016405156 0.0035056167 -0.02489815 -0.010935694 0.016945109 0.008642066 -0.0119525 0.023860035 -0.017086118 0.017239532 0.003175934 -0.026087742 -0.015723716 -0.010157393 -0.0020334544 -0.0001452904 -0.011050382 0.011588005 -0.011744248 -0.0040408615 -0.009328163 0.016876599 0.01029128 -0.0021022789 -0.0036289068 0.026134852 0.014022553 -0.02695589 0.0027565393 0.014333123 -0.0061360532 0.020036511 0.017543452 -0.0127276685 0.019612968 -0.019521423 0.025466122 -0.016384527 -0.00051186595 -0.027862502 0.022863673 0.017175611 -0.015816106 0.0067100604 -0.020205276 0.004622629 0.028710404 -0.00046052638 -0.004876187
6 -0.008963049 0.023792142 0.017447546 -0.018561594 -0.010605659 0.010368483 0.018447183 -0.025244141 -0.022474138 -0.015283374 0.008788792 -0.012835288 0.0188384 0.008333196 0.008795526 -0.012071786 -0.014030032 -0.0018228525 -0.021372471 0.00128219 0.00608261 0.024598042 -0.012037514 0.011915366 -0.0133597255 0.018129557 0.003226872 0.013686842 -0.014969067 0.01932194 -0.009458011 0.0046424405 2.2123364e-05 0.014532266 0.000252022 -0.0050679115 0.0019738907 -0.020050596 -0.013765154 0.0052777515 0.0051121167 -0.0024387157 0.012158216 -0.001714209 0.019752316 0.007464796 0.02130169 -0.0026390573 0.0048183696 0.014912001 -0.013732363 -0.021941764 0.0026705507 0.0073756324 -0.021787832 0.0113398945 -0.0053785983 0.016355943 -0.009136795 0.015589229 0.01753535 0.026120653 -0.008266734 -0.0210961 -0.008132815 0.021702724 0.008763881 0.009097537 -0.017029176 0.00748601 -0.021945778 -0.027260538 0.013595447 0.017013695 0.008509771 -0.010359949 0.0122769065 -0.019603916 -0.011651181 0.02063459 0.007065199 -0.020888042 -0.014404782 0.009501737 0.00049224595 -0.002136498 0.01826709 -0.019264225 0.0055743167 0.00977537 -0.008971028 -0.00870011 -0.0097330855 0.004893862 0.011544893 -0.013338293 0.013988298 -0.016567692 -0.02208455 -0.016626297 0.008502428 -0.013412188 -0.010148946 -0.009801118 0.010396055 0.006022115 -0.02538865 0.005343994 0.012326601 -0.004771088 0.0047708796 0.02210243 -0.018691696 0.025976509 -0.02035749 0.027297935 -0.011523205 -0.0074784886 -0.0075446526 0.021122046 0.022790294 -0.019075252 0.010789805 -0.020548947 0.0021584993 0.014988743 -0.0024938108 -0.0026229096
7 -0.009445638 0.0015714559 0.0064507453 -0.008800494 -0.0076276697 0.0143682165 0.0054531973 -0.010123505 -0.008485805 -0.019034402 0.01152455 -0.011349961 0.012576088 0.006882404 0.0065360563 -0.010850911 -0.010067478 -0.004028846 -0.005336305 -0.0030919963 0.010413758 0.012758288 -0.012367349 0.015561459 -0.010642906 0.020513775 0.0009743422 0.013383314 -0.008997198 0.010901101 -0.009807449 0.010057058 0.00311889 0.016480446 -0.010188918 -0.007715717 -0.002321022 -0.019694816 -0.007921385 0.020357072 0.00700395 0.004279965 0.0035743117 0.008530847 0.015255984 0.0064924397 0.019843262 -0.003463073 0.00018849978 0.016984541 -0.016637277 -0.021827437 0.002792617 0.0065424587 -0.0097992895 0.012192827 -0.008809218 0.006299546 -0.006639161 0.0054706354 0.01832986 0.010123558 -0.006332894 -0.022124697 -0.01597445 0.006354831 0.00015756064 -0.0018529256 -0.023399174 0.0023186095 -0.015527159 -0.002315944 0.009319379 0.01611462 0.008831777 -0.022790024 0.004310772 -0.005875176 -0.010752411 0.012583727 -0.0021500303 -0.016215483 -6.5951346e-05 0.014957247 0.0042643193 0.0073379716 0.010434756 -0.02098189 0.011061285 -0.0023069242 -0.008464818 -0.024557889 -0.012927391 -0.00012410257 0.009051287 -0.00477788 0.017726196 -0.021147821 -0.017696377 -0.004649573 0.0039602416 -0.0008683687 0.0043451777 0.0021287259 0.0061892034 0.012718683 -0.013614226 0.010365991 0.008369358 -0.0034504444 -0.001056832 0.015758289 -0.0032469635 0.016617157 -0.007104444 0.012578177 -0.014533597 -0.001987755 -0.012541634 0.0119990595 0.020429565 -0.01516652 0.021192933 -0.003581064 -0.003595681 0.0077081826 0.01032336 0.003188137
8 -0.011655448 0.024676668 0.020096293 -0.008343678 -0.007995464 0.01628663 0.012690004 -0.017809866 -0.021932412 -0.021270335 0.022568464 -0.020699644 0.009994607 0.005163376 0.021124082 -0.018296288 -0.008813701 -0.018215548 -0.018445734 -0.007203975 -0.009153917 0.029391732 -0.026509348 0.025316121 -0.014480917 0.025490992 -0.002957803 0.006916184 -0.030265871 0.017133752 -0.002879335 0.01668888 -0.010684909 0.01643207 -0.019699747 -0.013243169 0.0016105829 -0.02605469 -0.020325001 0.01780362 0.022034016 0.004350973 0.014449797 0.00052419346 0.013230849 0.027056165 0.020521209 0.011239372 0.021651872 0.01789648 -0.02599123 -0.025596762 -0.0046258643 0.024149867 -0.008278451 0.0056971377 0.0014232456 0.024859432 0.005205336 0.020085977 0.02210766 0.01994771 -0.013855421 -0.023516264 -0.029049613 0.012019426 0.0016347694 0.010752281 -0.02080727 0.012130587 -0.026775623 -0.023332288 0.019374503 0.01451295 0.0052410923 0.005685854 0.019896928 -0.0152492635 -0.011652986 0.023806527 -0.0052316654 -0.0123422835 0.0073114084 0.028707508 0.011256891 0.005698309 0.012518838 -0.01979548 0.0298037 0.0026496416 -0.025185414 -0.026295869 -0.020674367 0.01612657 -0.0019187832 -0.008401412 0.010511934 -0.020807168 -0.00916101 -0.017062817 0.012346145 -0.008967614 -0.016157057 -0.0073716627 0.032460924 0.016442603 -0.020625055 -0.0024697059 0.024798028 -0.022285499 0.016345032 0.01725195 0.0042857616 0.025714748 -0.016732994 0.024932887 -0.025609074 0.01714821 -0.020200988 0.015172884 0.022779595 0.0030362483 0.02090533 -0.01949302 -0.0021402577 0.019596132 0.012073681 0.0021068058
9 -0.0037182043 0.024202626 0.010576362 -0.011908158 -0.0038683347 0.01014519 0.016425509 -0.024389049 -0.025789151 -0.01095883 0.010250136 -0.013245178 0.014256438 0.0071071372 0.016850643 -0.010130358 -0.008329534 -0.012531722 -0.011054074 0.00013513645 -0.012264862 0.01936656 -0.0148132965 0.011484032 -0.014040056 0.015024098 -0.014428198 0.012073895 -0.011790539 0.018751519 -0.003044917 0.021903774 -0.002552968 0.0168357 -0.005810296 -0.013525077 -0.0009192137 -0.026092242 -0.009362859 0.020132115 0.00918297 0.004769451 0.012618989 0.0007947705 0.0038477955 0.021321816 0.010322445 0.007021256 0.019034898 0.011459454 -0.0073883194 -0.014927216 0.00173586 0.015372171 -0.0149036255 0.017117674 0.006787992 0.007139943 0.015820418 0.015319203 0.011746328 0.021910835 -0.009702604 -0.016626455 -0.014982207 0.02022088 0.0041230847 0.010920149 -0.015501136 0.014655693 -0.020500671 -0.012917011 0.028478634 0.014937605 -0.007781834 0.01446331 0.025217285 -0.017289931 -0.015302956 0.014698282 -0.0035977648 -0.012613254 -0.006256267 0.023297902 0.008788789 -0.0012304372 0.016460352 -0.02311574 0.018169101 -0.0057591954 -0.022493545 -0.014300685 -0.021607544 0.014427196 -0.006833751 -0.0012164225 0.011744982 -0.02679386 -0.011261582 -0.004894158 0.01715127 -0.0073508583 -0.010595774 -0.0116955135 0.0056331623 0.014394917 -0.014690756 0.0060652588 0.023762349 -0.0056216167 0.009868635 0.019014653 0.002075985 0.013691927 -0.015311329 0.015919166 -0.016527487 0.010585604 -0.0156168435 0.011247777 0.023753915 -0.0070012044 0.018117283 -0.018071987 -0.0053906087 0.02082828 0.0036847023 0.0068826927
10 -0.01603518 0.022477875 0.010633996 -0.009069311 -0.004462379 0.013001611 0.026388688 -0.019411169 -0.017354682 -0.01417308 0.013457775 -0.022317091 0.026318256 0.007487472 0.020134864 -0.027693532 -0.010638067 -0.027186172 -0.025736125 -0.005267423 -0.0016137316 0.011094198 -0.016491612 0.013094244 -0.009350432 0.02020025 0.008077319 0.013099559 -0.018902458 0.015879018 -0.023701683 0.011880958 -0.00022330438 0.006127336 -0.0071527315 -0.013506934 -0.012436663 -0.009762147 -0.013861302 0.01410608 -0.006219724 8.31802e-05 0.0127592655 -0.0020664847 0.021442784 0.016709955 0.022607116 0.008894811 0.0066702534 0.01740187 -0.018433426 -0.013634955 0.01111 0.021709837 -0.017998196 0.022837609 -0.010915991 0.023312045 -0.016973542 0.010957304 0.027457114 0.022321355 -0.018158106 -0.017962476 -0.009819536 0.018912433 -0.0049558133 -0.0095848935 -0.026040083 0.0044319304 -0.025509538 -0.026558438 0.018895911 0.026548307 0.022816015 -0.021061596 0.022376813 -0.02314803 -0.010095802 0.013628675 0.0035706565 -0.02580978 -0.02069222 0.016380034 -0.007939099 -0.0053709443 0.024984227 -0.021570142 0.01957039 -0.00021874795 -0.012035629 -0.016997054 -0.022142582 0.012887116 0.020367155 -0.02241719 0.018775126 -0.015646094 -0.01922857 -0.018834868 0.02411258 -0.019855626 -0.0027407734 -0.008847184 0.017581329 0.020309526 -0.02833677 -0.0044394312 0.008091086 -0.0035155371 0.00613784 0.019193923 -0.006493542 0.02602124 -0.011160616 0.014185823 -0.013262497 0.0027155168 -0.016677968 0.024693256 0.015350289 -0.015548846 0.014976762 -0.01681834 -0.00431558 0.022828571 0.009944654 0.00796202
11 -0.01711819 0.02180344 0.021235745 -0.021703511 -0.018734183 0.03127573 0.003183981 -0.017330252 -0.027885655 -0.009339414 0.024924416 -0.013591094 0.009050651 0.025253268 0.029388852 -0.032843627 -0.0021525782 -0.008426319 -0.0054726508 -0.008496458 -0.0198515 0.019964302 -0.025875004 0.012289089 -0.0037024603 0.021105064 -0.015959311 0.032354314 -0.021847118 0.015440728 -0.0022420941 0.02876686 -0.012252379 0.025194515 -0.027047299 -0.022979178 0.019341763 -0.033919606 -0.029158039 0.015216211 0.010693824 0.01976641 0.005410105 0.008243816 0.008396596 0.031047925 0.021944081 0.0114436755 0.031316616 0.02181345 -0.023072254 -0.033590302 -0.0220217 0.0108895 -0.013359378 0.014759474 -0.0015277896 0.020564692 0.018838277 0.020612655 0.020605309 0.033021502 -0.015292703 -0.019321728 -0.017427541 0.020393088 -0.0044237417 0.021612981 -0.023049593 0.013584429 -0.022816949 -0.029779674 0.02057425 0.031362727 -0.00998646 0.010976178 0.025649983 -0.032206465 -0.025929349 0.026880514 -0.0046135727 -0.026193507 0.008007596 0.031377316 0.015673945 0.004615869 0.01775401 -0.010582139 0.014292413 -0.0017549841 -0.023720758 -0.020851087 -0.0061246646 0.015690401 -0.0073670084 -0.015886215 0.0051546805 -0.020902526 -0.0068435348 -0.024483757 0.01998065 -0.0001514497 -0.009981587 -0.0059755803 0.01707806 0.010451742 -0.027046183 -0.008151541 0.019843807 -0.020472601 0.021964954 0.01204374 0.0018439151 0.031259067 -0.028934568 0.017113958 -0.01518289 0.011058721 -0.026452743 0.02843469 0.02531197 0.0005035597 0.026516413 -0.03068943 -0.013592564 0.018320573 0.007192972 0.0007817156
12 -0.0066185105 0.024970055 0.016229542 -0.01565493 -0.002817392 0.014810246 0.010170475 -0.019258555 -0.006238521 -0.0071359416 0.023931772 -0.016395548 0.014387731 -0.0025320943 0.0032670163 -0.0160445 -0.004364223 -0.02129831 -0.006245405 -0.009036374 -0.008468213 0.017193127 -0.007945897 0.022146558 -0.008704486 0.021514745 0.0035203483 0.012394672 -0.017424248 0.029810593 -0.009798615 0.0248676 -0.019006584 0.026649648 -0.015019061 -0.026746403 0.006850844 -0.022973048 -0.016448524 0.023771403 0.0025472157 -0.00314321 0.008503597 0.0147845335 0.017065983 0.0065685967 0.018064367 0.01259995 0.007845922 0.020208647 -0.027251344 -0.0113882655 0.002013191 0.020789646 -0.018966328 0.01401454 -0.00677872 0.018746074 0.0011371812 0.012232562 0.0071603195 0.008691997 -0.014480948 -0.021719461 -0.017021427 0.019882536 -0.00033392984 -0.0017775667 -0.010780103 0.014159573 -0.016756652 -0.0062089167 0.020314358 0.018372128 0.002050384 -0.0133188395 0.029587837 -0.018963382 -0.0068415143 0.018740397 0.014406405 -0.016408185 0.006308429 0.024840534 0.010507902 0.010043852 0.007268857 -0.017873824 0.027167933 -0.014606942 -0.014898865 -0.024913773 -0.01801901 0.012592109 -0.0003302621 -0.0061660963 0.0036277496 -0.027128503 -0.009763017 -0.02054598 0.021879511 -0.0064025596 -0.017559683 -0.0010496763 0.020662364 0.016807135 -0.021197136 0.002831371 0.019441172 -0.019862648 0.0015470778 0.015045002 0.0017790992 0.014851839 -0.023646537 0.02571806 -0.0042660013 0.005888474 -0.02101367 0.019944223 0.019487554 -0.016931558 0.023410827 -0.022188187 -0.013280613 0.017048799 0.011436718 0.008599704
13 -0.0122428145 0.007890595 0.014989927 -0.006784222 -0.011623343 0.017952196 0.0017758304 -0.025172124 -0.017543655 -0.0021538946 0.014188974 -0.011530702 0.0076575805 0.004236482 0.011626153 -0.0044781156 -0.01429837 -0.018513333 -0.005921272 -0.0053571314 -0.0032321399 0.024766909 -0.005920125 0.01429578 -0.013130574 0.016398754 -0.004354348 0.008547347 -0.013424877 0.011063248 0.004027658 0.018719865 -0.008895531 0.015280594 -0.01469958 -0.020675378 0.014136559 -0.01308718 -0.017514631 0.018703077 0.0054391073 -0.0016384218 0.002981791 0.004802604 0.011805979 0.01792033 0.011052418 0.0030731317 0.015634872 0.024551846 -0.0104046045 -0.01702328 0.0013315527 0.015493132 -0.009635772 0.006125812 -0.0084078135 0.013116897 0.0011177772 0.010453509 0.01004071 0.013035405 -0.017198022 -0.024732627 -0.021247933 0.01684425 -0.012547583 0.00069370045 -0.013457136 0.006069181 -0.02381109 -0.015463125 0.018205656 0.015713934 -0.0036415907 0.007929737 0.014237499 -0.013347305 -0.016489284 0.014384731 0.0019887853 -0.007716623 0.0061598034 0.018203706 0.0072996765 0.0037043826 0.016480237 -0.017584737 0.011358178 -0.0019804132 -0.0150082 -0.020858912 -0.003324367 0.010183814 0.004135124 -0.0015409412 -0.0011049011 -0.009468807 -0.015638791 -0.009157103 0.011020867 -0.0049887146 -0.012337773 -0.000100424804 0.021008972 0.017782716 -0.016338779 -0.0007210594 0.012387702 -0.008209027 0.01044003 0.016690819 0.0061493474 0.021531109 -0.0186036 0.023394858 -0.013330148 0.016270887 -0.023423277 0.010862354 0.012964759 -0.0031954856 0.014140166 -0.0065933755 -0.010859478 0.021418806 0.00605226 0.010946749
14 -0.007439921 0.014757632 0.026555423 -0.010054779 -0.005817352 0.0194269 0.009203654 -0.019223914 -0.019471955 0.000852278 0.015723731 -0.021635327 -0.0022299462 0.015874496 0.015359229 -0.0174156 0.0020660693 -0.012937864 -0.0102124335 -0.011185276 -0.007221206 0.0238315 -0.01873035 0.018377068 -0.010148491 0.016939223 0.019084955 0.0072672023 -0.021989731 0.018040758 0.005950703 0.023780342 -0.019489475 0.019896174 -0.02904956 -0.018790787 0.022664243 -0.015884986 -0.01722795 0.018101098 0.018893516 0.005543179 -0.003479818 0.014406924 0.016025629 0.019073367 0.017507482 0.0025365478 0.011694465 0.0077698976 -0.015170948 -0.017429227 -0.014567949 0.02579794 -0.009709827 0.006802038 -0.019911202 0.02453116 0.01259093 0.023532065 0.013808412 0.021437194 -0.011831058 -0.023413403 -0.023313664 0.007856797 -0.017013026 0.0040876344 -0.01876959 0.005930929 -0.02016365 -0.017832488 0.01503608 0.012967183 -0.00094378006 0.0011402878 0.010955415 -0.016617933 -0.014509082 0.01870502 0.012300649 -0.014106566 0.01934813 0.014285974 0.012595961 0.007428746 0.014199677 -0.024338316 0.02491847 -0.019141458 -0.029748395 -0.026910443 -0.014052847 0.021001192 -0.010762265 -0.0055949376 -0.0010846457 -0.017253445 -0.012298121 -0.018079735 0.003148676 -0.027455663 -0.022435589 0.004107291 0.018587394 0.026621817 -0.014860445 -0.001625251 0.01873555 -0.018227726 0.019620353 0.020997062 0.012486117 0.022916194 -0.0152585935 0.01996998 -0.022455698 0.024319477 -0.021252727 0.022161137 0.021758772 0.0043225856 0.019639025 -0.023467658 -0.016690567 0.027410142 0.017061334 0.0146527095
15 0.007237248 0.023013515 0.015901001 -0.0130040385 0.015278314 0.019624049 0.0032165204 -0.017546132 -0.01655102 -0.02171035 0.017779524 -0.01335664 0.0017884017 -0.011573723 0.0129321 -0.022343436 -0.006734227 -0.02124399 0.00023920124 -0.024731738 0.0018504072 0.013281779 -0.011555445 0.017479988 -0.01450093 0.022209886 0.021417296 0.009280875 -0.016875224 0.018066432 -0.015607683 0.019926365 -0.010371386 0.026192725 -0.0153878275 -0.017991966 0.019992786 -0.016192969 -0.012950173 0.029746642 -0.0063399137 -0.014457478 0.002688615 0.01647917 0.018838055 0.005290228 0.0120632 -0.008759474 -0.00064511533 0.025356792 -0.011871457 -0.0049409764 0.02236458 0.019603651 -0.012833064 0.016186066 -0.013584854 0.019046538 -0.018701302 0.0009996329 0.010562508 0.013721205 -0.02349928 -0.020562055 -0.01762809 0.007103873 -0.022953972 -0.020959802 -0.02082051 0.009566443 -0.02500842 -0.0025045155 0.02447399 0.017171334 0.013754911 -0.007805126 0.020938393 -0.0086952625 -0.005705582 0.012822651 0.014518166 -0.003468605 -0.004884749 0.014713862 -0.021471132 0.0069743316 0.007945641 -0.010424837 0.021679118 -0.017675793 -0.017052386 -0.022443421 -0.027850373 0.01046719 0.005688389 -0.00089948374 -0.0010907443 -0.010978773 -0.029780291 -0.012989884 0.008947973 -0.012512542 -0.019314041 -0.0028564236 0.02627234 0.017396493 -0.01822528 -0.0022591613 0.0119163515 -0.025753092 0.005327003 0.012192362 -0.0062620575 0.012508954 -0.020259172 0.017475067 -0.014644687 0.019109316 -0.014895283 0.026813313 0.017019922 -0.0043177754 0.019720642 -0.015860118 -0.013528083 0.010175467 0.024878647 0.017054351
16 -0.0025077236 0.025512803 0.024731936 -0.021849759 0.0035116163 0.025082963 0.02677688 -0.03028924 -0.020211887 -0.02386397 0.02219963 -0.031802837 0.01860218 -0.010266981 0.0241058 -0.027075863 -0.018621711 -0.021401351 -0.018198624 -0.019856183 -0.002191255 0.022030432 -0.018849526 0.030350229 -0.023458706 0.026438555 0.020433344 0.030145254 -0.027718581 0.025859749 -0.021910785 0.026181323 -0.019799354 0.021440497 -0.011145619 -0.026490634 0.014433365 -0.021872785 -0.0301131 0.01936892 0.00671265 -0.0018342088 0.02433397 0.012657836 0.020414088 0.024880169 0.02800605 -0.011869519 0.011379686 0.026343416 -0.026946895 -0.022045648 0.0088608535 0.017623348 -0.02006925 0.02402639 -0.011421016 0.02536619 -0.010170232 0.011783814 0.017299177 0.017900525 -0.017018056 -0.01775323 -0.026599754 0.022783034 -0.0104618445 -0.003662909 -0.018411893 0.008076296 -0.022487544 -0.01723326 0.024170352 0.016209254 0.014805822 -0.022197645 0.021630758 -0.026363075 -0.019885302 0.0160426 0.012844894 -0.023426065 -0.012171192 0.01887867 -0.00827899 0.0023194456 0.018182471 -0.019279027 0.03138593 -0.01938562 -0.022960065 -0.025125451 -0.02780811 0.019595407 0.008233055 -0.0249127 0.018037321 -0.015679188 -0.017087739 -0.023698546 0.019911697 -0.019604024 -0.008659111 -0.024383727 0.023831004 0.025364764 -0.021235062 0.027603459 0.020660445 -0.011729459 0.012784591 0.023821142 -0.02115568 0.019306928 -0.028599791 0.018931951 -0.021631237 0.007234341 -0.018440286 0.025145167 0.01597948 -0.01905113 0.016967183 -0.030798484 -0.0041800444 0.020272538 0.016698772 0.013836706
17 -0.021553984 0.018493533 0.016320052 -0.009351211 -0.013364721 0.0056752237 0.01433594 -0.019347839 -0.024900382 0.0070910216 0.02141929 -0.024327636 0.015992636 0.011387804 0.027064865 -0.022207996 -0.0038429808 -0.027078938 -0.007081274 0.002989357 -0.018155025 0.019513557 -0.023104133 0.016074488 -0.023492632 0.022460883 -0.00346386 0.011194579 -0.027028056 0.019965345 -0.0029369267 0.02639798 -0.026974685 0.022960879 -0.022656012 -0.019056253 0.02073467 -0.030700183 -0.016956303 0.016863551 0.003787166 0.0041545453 0.017157754 0.023071326 0.018063663 0.020025238 0.026131665 0.013946441 0.0050117057 0.029853044 -0.027903954 -0.017029565 -0.0110965725 0.028538404 -0.0305027 0.022473415 -0.027268676 0.018775977 0.014373107 0.024256267 0.0147826895 0.027638342 -0.0053865467 -0.024739983 -0.022931885 0.027097704 -0.019125443 0.011181211 -0.015166689 0.0076740403 -0.026105626 -0.026156396 0.020837864 0.021489143 -0.008057411 -0.0007432522 0.028462162 -0.024416361 -0.020674426 0.028357023 0.017349672 -0.02567934 0.0046111248 0.029894795 0.012614027 0.013201111 0.012326403 -0.029542925 0.026125291 -0.017850228 -0.022911677 -0.02285866 -0.011723903 0.02447593 -0.018910905 0.0028685888 -0.0056382576 -0.01828669 -0.026517918 -0.024833346 0.025144055 -0.026655324 -0.02030128 -0.0076398887 0.015261809 0.022196556 -0.026818493 0.00055748643 0.022768099 -0.029966386 0.013374572 0.018298324 0.00872563 0.025060233 -0.021008391 0.016756734 -0.012128764 0.023390718 -0.020635907 0.027326602 0.027820744 -0.0062019667 0.027373618 -0.016531281 -0.025025006 0.018563597 0.016421705 0.010621909
18 -0.0011109614 0.02785822 0.023226915 -0.021078132 0.01881992 0.024092168 0.020369492 -0.017399712 -0.018953582 -0.019191211 0.02936943 -0.018324431 0.03112197 -0.02578511 0.022672405 -0.015847376 -0.030378716 -0.028297871 -0.02667707 -0.017006164 0.026017556 0.02475177 -0.019137662 0.02705169 -0.025486398 0.029517 0.022811485 0.01965537 -0.02645893 0.024653679 -0.020570261 0.02164467 -0.021594727 0.03001032 -0.017656676 -0.02022335 0.023287194 -0.028460402 -0.0242271 0.025825564 -0.024897192 -0.009650612 0.023839124 0.029386856 0.028283412 0.021071864 0.024003865 -0.025405005 -0.018241765 0.025137598 -0.022656066 -0.015992768 0.0271191 0.03003182 -0.030057764 0.017961632 -0.021271463 0.027273143 -0.021271957 0.008291434 0.0261406 0.029580321 -0.010914538 -0.020921372 -0.028514104 0.023370283 -0.024398107 -0.015484711 -0.03017679 -0.01361392 -0.03032305 -0.017477226 0.020060884 0.023633473 0.021378156 -0.018395068 0.023276543 -0.016345218 -0.014255064 0.027721882 0.030315356 -0.029851586 -0.019377641 0.019557685 -0.01821167 0.021025332 0.025650272 -0.0281514 0.023541272 -0.03007198 -0.028691525 -0.022462934 -0.021249292 0.030919243 0.024541005 -0.02559489 0.028120644 -0.017526636 -0.029771442 -0.0184062 0.025942354 -0.013314733 -0.030259265 -0.022318276 0.021794874 0.016917543 -0.01574093 0.02706269 0.027294358 -0.030227415 -0.0028111485 0.028087849 -0.026645105 0.026351213 -0.024135156 0.028012678 -0.02983265 0.028502136 -0.017404156 0.02669232 0.025322344 -0.022482071 0.02433222 -0.029367218 -0.016314216 0.026992531 0.029970603 0.028307775
19 0.011001046 0.015718594 0.0025080855 -0.012175979 0.017899895 0.016610203 0.020463051 -0.0145425005 -0.011459917 -0.030018512 0.012776136 -0.0079622 0.01785825 -0.020085134 -0.007167423 -0.0011703442 -0.018127467 -0.023060363 -0.0018893587 -0.007944554 0.017196575 0.022062425 0.00016013451 0.008092113 -0.024513464 0.027151166 0.021525465 0.021359742 -0.004172635 0.0059948387 -0.0148258675 0.011446411 -0.018998299 0.006578382 -0.017541364 -0.017737422 -0.0031361033 -0.0095037175 -0.016209932 0.02925789 -0.02221061 -0.021796573 0.005633029 0.02494488 0.019999152 -0.007920507 0.0062895888 -0.02536885 -0.009457459 0.008762656 -0.02399581 -0.007815648 0.024768587 0.023613147 -0.010132065 0.0154524725 -0.0228496 0.017012522 -0.018850999 -0.0030043358 0.009458933 0.019231623 -0.012897664 -0.008737799 -0.018430581 0.016177027 -0.018312909 -0.029330641 -0.009838365 -0.018194364 -0.008781493 -0.019017939 0.02304431 0.0027040187 0.029387083 -0.02529215 0.014373187 -0.006229952 0.0059098154 0.00230186 0.020697394 -0.014920533 -0.016001051 0.01670758 -0.018765546 0.019511528 0.0049236068 -0.016637115 0.019894531 -0.018302323 -0.0077803805 -0.027689636 -0.027565103 0.019260243 0.005517499 -0.006100857 0.008611647 -0.022305712 -0.015130699 -0.002932697 0.018635226 -0.008834264 -0.02486381 -3.929733e-05 0.011947078 0.015657024 -0.016599726 0.00942875 0.015094619 -0.021902792 -0.014991349 0.01853565 -0.015646096 -0.005765838 -0.00923956 0.018599508 -0.012875188 0.020820979 -0.02164734 0.020848628 0.017960586 -0.010029849 0.0032559484 -0.016491147 -0.010140995 0.009009115 0.021963434 0.009065491
20 -0.011808819 0.019586537 0.012648916 -0.004895626 0.0011320733 0.017128004 0.0044240323 -0.023222098 -0.0209392 -0.018157965 0.023630548 -0.024267435 0.007174496 -0.016395444 0.013704261 -0.021255253 -0.012781666 -0.012728422 -0.013548389 -0.005382644 -0.0074973293 0.02189347 -0.0023052383 0.025776787 -0.0070967157 0.012477404 0.01159278 0.00895866 -0.0038656315 0.014129334 -0.012001874 0.017730443 -0.018847402 0.011645436 -0.0050888895 -0.02263755 -0.0019634382 -0.014472133 -0.007834491 0.020230694 0.008018202 -0.0015859066 0.013977243 0.024294306 0.027052382 0.008199851 0.017490992 0.003301395 0.0068671987 0.0014354764 -0.016098697 -0.012059118 -0.0005575863 0.0030041393 -0.023072869 0.02245608 -0.02360344 0.022113908 -0.0014116062 0.0153008755 0.026267879 0.013383497 -0.0072026113 -0.016473718 -0.010986689 0.028737014 -0.019913606 -0.00784268 -0.01992074 0.007839197 -0.020663455 -0.023457486 0.017283464 0.02121753 0.009738201 -0.004943992 0.008746969 -0.0058882646 -0.017487248 0.0076211947 0.023565495 -0.006718856 -0.012521533 0.009885905 -0.009217511 -0.0023818992 0.01771578 -0.009390919 0.025246585 -0.012855892 -0.01684169 -0.019343607 -0.027157377 0.0162911 0.00768211 -0.0012174768 0.017990943 -0.012323146 -0.018390043 -0.018351408 0.0060060387 -0.017325558 -0.023108466 -0.0073630842 0.025503691 0.015770657 -0.015194222 0.003222865 0.0012933223 -0.013333274 -0.0055633676 0.024888031 0.002289164 0.022529231 -0.012059563 0.02039306 -0.017367952 0.0170251 -0.010094997 0.022043891 0.017523076 -0.016207537 0.008904 -0.012980655 -0.01907177 0.020325946 0.01850708 -0.00031756575
21 -0.013104844 0.0026024983 0.015643515 -0.014094037 -0.0036556139 0.023672873 0.0088715805 -0.029662345 -0.011729396 0.0007726699 0.014078219 -0.0246243 -9.592803e-05 -0.00463535 0.024553481 -0.011100502 -0.010441513 -0.021300131 -0.009792125 -0.022066044 -0.006588421 0.021125747 -0.024992352 0.020711076 -0.013287149 0.02846853 0.003996231 0.0036958838 -0.026673518 0.026196146 -0.0101342 0.026441963 -0.015071749 0.020569015 -0.027716551 -0.017712511 0.019437544 -0.02303504 -0.025773276 0.014463191 0.011572938 0.009073666 0.0007340628 0.014442038 0.014989617 0.023962995 0.009779035 0.0054596737 0.014533823 0.02074212 -0.021900075 -0.024979642 -0.013100794 0.009981746 -0.01130332 0.00046675862 -0.018291866 0.0039558727 0.0045700218 0.019911567 0.017398046 0.023115907 -0.018325442 -0.023776576 -0.01774328 0.018427672 -0.020331075 -0.009150138 -0.026508719 0.008201551 -0.013768826 -0.0209662 0.011495049 0.021158423 -0.0033298254 0.010304218 0.017872566 -0.024346681 -0.025410965 0.013221055 0.009983334 -0.01260549 0.0026825476 0.023469435 0.00057507807 0.014949092 0.017941892 -0.02278823 0.020063702 -0.0048807766 -0.015563119 -0.019059915 -0.012336846 0.025700092 -0.014930413 -0.010693644 0.014376892 -0.024701029 -0.01348601 -0.0077228937 0.016112989 -0.011704903 -0.013713373 -0.00789518 0.016778508 0.01989251 -0.024848297 0.0008806901 0.015204426 -0.020999538 0.014388603 0.016813964 0.008762988 0.020928977 -0.01601876 0.022445576 -0.016636642 0.025523763 -0.026839487 0.022361517 0.020974405 0.0007998054 0.025222408 -0.00628108 -0.025441524 0.01959862 0.01730703 0.023321727
22 -0.011411425 0.01527774 0.029363105 -0.023873843 0.0019422134 0.012835641 0.0049401736 -0.012036088 -0.027989348 -0.010867467 0.028926227 -0.024639737 0.010459106 0.009787713 0.020945085 -0.021108925 -0.0043565487 -0.01495818 -0.0102359485 -0.0064324196 -0.015688738 0.026005898 -0.022854446 0.027843608 -0.01998536 0.028239772 -0.00806014 0.016143035 -0.020215908 0.02107253 -0.009119586 0.018701427 -0.022089066 0.017047111 -0.0240757 -0.025078187 0.017048584 -0.02487518 -0.023389377 0.022902165 0.008887998 -0.0102905305 0.010596649 0.016145851 0.005708384 0.0133725535 0.015395548 0.0121402135 0.014218081 0.021381233 -0.015761504 -0.013034406 -0.0019268391 0.024795236 -0.019144485 0.019370288 -0.015443913 0.014317354 0.012374287 0.019125862 0.025126634 0.025948288 -0.014412186 -0.029108109 -0.026093522 0.025859935 -0.016571151 -0.0023528382 -0.012780122 0.01893348 -0.021175276 -0.021389293 0.02997282 0.016548038 0.010385952 -0.0004210589 0.022636726 -0.026277304 -0.009148311 0.01994579 0.020351967 -0.026509017 -0.0004043687 0.023722284 0.011746841 0.0013275687 0.01113973 -0.01631512 0.021536775 -0.0174704 -0.030495107 -0.02228024 -0.0047610006 0.020429017 -0.015591673 -0.001755459 0.002298949 -0.026288172 -0.029547434 -0.023542605 0.017631939 -0.018541697 -0.02191736 -0.0016761791 0.01958968 0.01823174 -0.017941372 0.007708084 0.015394527 -0.018521179 0.009873294 0.03067957 0.012996989 0.026361078 -0.026854193 0.01817335 -0.00533164 0.024768556 -0.022197584 0.03040367 0.027537348 -0.015637347 0.027366 -0.015610113 -0.018967092 0.028516341 0.021406969 0.024067305
23 -0.00041940427 0.005192353 0.01533788 -0.004531933 0.0069719013 0.016263068 0.011884983 -0.018274376 -0.012221987 -0.008681045 0.025951784 -0.012039248 0.0070457878 -0.015919207 0.0139415525 -0.021947673 -0.012554212 -0.0064793974 -0.012716384 -0.01260816 0.002864561 0.013168094 -0.022424875 0.012652636 -0.01731027 0.009059996 0.008491825 0.008600395 -0.012341278 0.014955072 -0.011375843 0.0031824014 -0.015309654 0.016890366 -0.014440015 -0.014699322 0.015037216 -0.0148912035 -0.025275156 0.0056661987 0.0056525604 0.0020846338 0.006447071 0.013775752 0.017735617 0.005313375 0.016212322 0.003303884 0.0023860217 0.021488257 -0.016955903 -0.01606233 0.0057576 0.005733788 -0.01426009 0.019456346 -0.01834206 0.018134087 -0.0116090365 0.010736503 0.026889898 0.0040287646 -0.007056432 -0.021399593 -0.011884128 0.023506796 -0.015189584 -0.019056225 -0.011983306 0.002125459 -0.015077707 -0.021607671 0.012968003 0.024680402 0.0107698245 -0.008442123 0.00462839 -0.020472068 -0.009862319 0.01163892 0.013107763 -0.009124838 -0.0071156006 0.006300383 -0.011201289 0.014339322 0.023819948 -0.018641619 0.0052865823 -0.011329247 -0.0113078095 -0.022949884 -0.025020417 0.02682767 0.009274885 -0.014229963 0.0030477261 -0.0133297965 -0.029437192 -0.005470367 0.0065088677 -0.016175626 -0.028425897 -0.016931118 0.024630006 0.01763732 -0.01685255 -0.0023251572 0.017473357 -0.017757135 0.005444289 0.014601644 -0.0066040643 0.0063509247 -0.017097302 0.018519433 -0.015674207 0.009149178 -0.016632624 0.01025469 0.01989222 -0.013496615 0.015071544 -0.016684996 -0.005167814 0.023106119 0.0242132 -0.0002874694
24 0.00042471953 0.017788947 0.01161181 -0.01943469 0.0057996223 0.014675286 0.011934012 -0.015812432 -0.0025746939 -0.0020541607 0.005738061 -0.017537087 0.0073507396 -0.0021208439 -0.0049616047 0.004008658 -0.014028814 -0.008610688 -0.0017314979 -0.0072965827 0.0076307515 0.013787693 -0.004445861 0.012647765 -0.019596346 0.016053943 0.015861874 0.01825894 -0.011720136 0.008970936 0.0010565673 0.00774292 -0.0140729435 0.009593858 -0.011181707 -0.014589319 0.0033143838 -0.009863747 -0.007129541 0.020361288 -0.0029087267 -0.004583217 0.008740617 0.014468288 0.017827056 0.0009116833 0.0011689732 0.0040462497 0.007248941 0.014249368 -0.01254326 -0.007575177 0.006299598 0.013029035 -0.018606357 0.010322319 -0.02100275 0.02231063 -0.0055058603 -0.0002124878 0.01892949 0.022326116 -0.010464793 -0.026188701 -0.0073874597 0.02122442 -0.026806934 -0.0018102226 -0.022960767 0.0038986197 -0.014304805 -0.015822073 0.007864465 0.0059169405 0.0053029056 -0.010723939 0.002284033 -0.016593417 -0.008421073 0.012113744 0.020264238 -0.012921863 -0.008163275 0.019590553 -0.0014530397 0.0075142556 0.013207433 -0.005113495 0.017319726 -0.013388063 -0.018772626 -0.013174729 -0.02819979 0.015295695 -0.0018213139 -0.02024517 -0.009578012 -0.017524915 -0.0046718605 -0.01998425 0.015844062 -0.0126904985 -0.019345362 -0.010984443 0.01131029 0.018344725 -0.015364556 0.0021810066 0.011881911 -0.011816865 0.0051480043 0.011266591 -0.002719448 0.001029107 -0.010751792 0.012681904 -0.021709412 0.010538056 0.0033381998 0.01836567 0.01649823 -0.01545735 0.020309493 -0.019769246 -0.015111186 0.016248798 0.027985346 0.004863262
25 -0.00074321346 0.020199183 0.02657814 -0.015971344 0.015791409 0.028866947 0.017995842 -0.020469043 -0.02663307 -0.03122237 0.022368224 -0.023550875 0.026967324 -0.019020695 0.016775927 -0.020449568 -0.021850295 -0.027603934 -0.029248405 -0.026828472 0.011845256 0.028535971 -0.025774106 0.021623053 -0.020552544 0.025774952 0.026156064 0.017535115 -0.019993953 0.02440097 -0.02387429 0.026883174 -0.026733791 0.015840128 -0.030441228 -0.030870505 0.019606793 -0.021896375 -0.022324603 0.029285563 0.00070077047 0.0039255247 0.03139007 0.014379963 0.020494323 0.019080989 0.022572001 -0.017337434 0.0056572184 0.026917242 -0.023578275 -0.025431376 0.017538609 0.02247679 -0.019713782 0.030800987 -0.023091257 0.027609695 -0.022538874 0.0065236953 0.030135648 0.028645938 -0.013443811 -0.02997438 -0.024378486 0.019222315 -0.016349921 -0.023860998 -0.018936843 0.0011272547 -0.016358636 -0.022476213 0.021249937 0.030370444 0.026700437 -0.01603217 0.018922089 -0.023776008 -0.0155163165 0.028669167 0.02775196 -0.024048766 -0.02104635 0.02787752 -0.02439831 0.024457462 0.023094697 -0.016100392 0.017072618 -0.027365804 -0.024708854 -0.026120909 -0.02031903 0.02973416 0.012378683 -0.01204168 0.025098834 -0.018408656 -0.022185052 -0.018886974 0.018551255 -0.021802153 -0.020318376 -0.012778011 0.021072175 0.028506426 -0.029792149 0.01875768 0.02547347 -0.029520445 0.0059727784 0.02705658 -0.020788219 0.02729854 -0.018620215 0.026341587 -0.025636269 0.018412106 -0.024966827 0.030418562 0.029783202 -0.012985326 0.029978389 -0.024870275 -0.022115044 0.015727188 0.029595386 0.02590223
