26 128
0 -0.016443292 0.004083345 0.00051552575 0.00453871 0.003896902 -0.008396753 -0.015228106 -0.009349758 0.006956205 0.013746569 -0.0007188512 -0.0016253025 0.011119278 0.0067622904 0.005699663 0.010869716 0.0010400352 -0.008679195 0.011274229 0.0193583 -0.0014128035 0.018904908 0.012752534 0.019168928 0.0077372645 3.6968442e-05 -0.01485461 0.014282182 0.0076006926 -0.010767561 -0.0053176535 -0.0117765 0.0010966456 -0.009864025 -0.012063103 -0.004883949 0.013858241 0.013797295 -0.011227531 -0.013601117 -0.0049800966 0.0051728934 0.014145134 0.0050969436 0.012793952 0.0034633465 -0.013670212 -0.02027645 -0.00288411 -0.0012335377 0.010993073 -0.004320327 -0.0037140378 0.0055917082 -0.007071022 -0.01166486 -0.011082851 0.0009807931 -0.008622191 0.0046368684 0.00080516393 0.013630224 0.008605295 -0.015710237 0.008136247 -0.026860705 -0.0058049676 0.0016940674 -0.0042581246 0.013669391 -0.007033836 0.0061217593 0.010128555 -0.0017401327 -0.0098631615 -0.016953124 0.00820119 -0.016748546 0.0046749297 -0.0002017669 0.0069005275 -0.010318269 0.005306064 0.004839411 0.008722261 -0.011386272 0.003550691 -0.0094965715 0.008748933 -0.014965489 0.0043891743 0.0051441574 0.01596646 -0.003541796 -0.0062551512 0.020245437 -0.002020906 -0.004167629 0.0040299827 -0.0018411463 -0.019961545 -0.0019048487 0.00325185 0.0012658552 -0.011616928 -0.0097194845 0.017249154 0.002323169 -0.0032616265 -0.017954875 -0.004280669 0.0018240543 0.0127697475 -0.00923269 -0.014268819 0.014469337 0.0045581255 0.014487118 -0.0129305525 -0.005229738 0.006203899 0.0027068441 -0.009921173 -0.0023175946 -0.017713293 0.003220431 -0.0021437285 -0.006752316
1 -0.029855233 0.009958878 0.00074723014 0.02664197 0.003731532 -0.022904387 -0.027399685 -0.018682932 0.009150724 0.02553469 0.0066760434 -0.02325442 0.021891292 0.02249665 0.020215904 0.020594275 0.015939664 -0.020325677 0.016410135 0.0067320685 0.02576804 0.023891348 0.015352416 0.024958942 0.017874455 0.014487603 -0.025623348 0.010644216 0.020701528 -0.023086576 -0.012792364 -0.022917533 0.015335366 -0.019430842 -0.023100547 -0.0127648 0.022044111 0.01891199 0.005168311 -0.022609366 0.022959977 0.013916621 0.028533565 0.015347529 0.0152325 0.02185292 -0.027181178 -0.02135837 -0.022036165 -0.005203663 0.012230162 -0.015442264 -0.0011446095 0.026713926 -0.022999972 -0.01729886 -0.020313589 0.01121161 -0.014592332 0.020942964 -0.017049648 0.024869822 0.024072947 -0.023695301 0.027282162 -0.012017361 -0.009568295 -0.0019326918 -0.019043367 0.019258875 -0.0137321 0.0064937025 0.018548178 -0.009260648 -0.016787697 -0.030588126 0.023618618 -0.018109296 0.013748827 0.003335759 0.01701677 -0.010358733 0.030711193 0.023077985 0.012846051 -0.020080466 0.0025954538 -0.020182038 0.006723789 -0.017578676 0.028464882 0.0083612 0.0060864165 -0.02423187 -0.011099418 0.024621123 -0.01328744 -0.015222649 0.023548128 -0.00666663 -0.024033913 0.024567693 0.014311517 0.0017659853 -0.023693105 -0.015086197 0.018949563 0.007957283 -0.017806472 -0.028822213 -0.013027699 -0.01872191 0.010626425 0.0095725935 -0.016968846 0.020744318 0.022279251 0.020491427 -0.01669919 -0.0005471349 0.013701345 0.0030877714 -0.02039939 -0.018729046 -0.017836029 -0.011518189 -0.017820574 -0.015216018
2 -0.021650765 -5.202256e-05 0.019842045 0.01158127 0.0010987462 -0.02396285 -0.01792396 -0.011375703 0.01443358 0.023681175 0.004997433 -0.017934639 0.01652248 0.016014049 0.00037830917 0.016704837 0.017130794 -0.013136423 0.015810728 0.01402352 0.017706202 0.023543311 0.016108587 0.01653042 0.012416912 0.0016943282 -0.018672999 0.01409688 0.024481984 -0.016860152 -0.016422067 -0.010825624 -0.017012263 -0.021131873 -0.02157832 -0.017383689 0.012947798 0.0067535904 0.010083204 -0.0029586852 0.027233394 0.021211432 0.016960965 0.012228022 0.010927994 0.018056484 -0.011522033 -0.023331359 -0.022563757 -0.0036386405 0.00011786222 -0.012169554 -0.0071428055 0.025346262 -0.011869391 -0.021688053 -0.0064261155 0.0058226236 -0.020356227 0.020194935 0.0041409587 0.018830314 0.018225377 -0.013428504 0.018008629 -0.018634718 -0.01760259 0.015153023 -0.015713852 0.015435557 -0.012656466 0.0034928166 0.016646756 -0.0024425157 -0.022611467 -0.020119179 0.0008726082 -0.019595683 0.014533623 -0.004925113 0.02112569 0.006839816 0.022440227 0.008490693 0.0117742475 -0.011774329 -0.006985316 -0.017343635 -0.0011246285 -0.017001197 0.013922698 0.007595291 0.015118103 -0.01369916 0.002614413 0.020515336 -0.014739708 -0.013013302 0.005549937 -0.008066822 -0.019103862 0.020200012 0.0043363166 -0.009570011 -0.019007074 -0.027026884 0.015602635 0.010797202 -0.0060176053 -0.016205657 -0.02423978 -0.027257549 0.016379543 0.016032463 -0.023437671 0.0032784138 0.01297684 0.010323483 -0.024701897 0.005866087 0.009404177 0.0149330245 -0.0075021274 -0.025564449 -0.023407377 0.008002685 -0.0086918855 -0.013388253
3 -0.0047257985 0.0035950625 -0.011789049 0.00045978677 0.015034628 -0.005370443 0.0012147025 -0.014629807 -0.0027929896 0.009152168 0.0075642336 0.0019273155 -0.007005005 0.010580033 0.004741869 0.0136081595 0.005606939 -0.0073140445 0.0018647071 0.0005019199 0.0028938733 0.0070545194 0.001033373 0.0017274729 -0.0012419549 0.005218276 -0.0036050393 0.008778396 0.0022853944 -0.00022918891 -0.0005602892 -0.003848043 -0.0020534662 -0.015756946 -0.0037147638 0.003171803 -0.0025384794 0.0038665044 0.0093298135 -0.0034985794 0.011610404 0.005966092 0.0062390743 0.0039664367 0.015140663 0.0051603424 -0.011537277 -0.0029987881 0.0014663785 -0.013483876 0.008147478 0.0019036568 -0.008215851 0.0032421346 -0.0047234436 -0.002964568 0.00015050382 -0.0074764923 0.0049074227 -0.0024256893 0.0038481422 -0.0022503668 0.0048313653 -0.004904135 -0.002719433 0.0042018257 -0.0034866738 -0.01426288 -0.0058356873 0.015278131 -0.007318808 -0.0054385248 0.0072439965 -0.0117992945 -0.006370415 -0.0018427982 0.003953746 -0.0031495965 0.017329492 0.0013015327 0.002949406 0.0040008617 0.0042816894 0.0031509541 -0.0065271244 0.005472554 -0.010459903 0.002321742 -0.005843365 -0.0051350673 0.008109127 0.0053051775 -0.004486868 0.006991874 -0.0012940089 0.0075420598 0.003975628 0.008476728 0.0023915297 0.005812309 -0.002673608 0.0054837703 -0.009607692 0.008746696 -0.002378861 0.00038018392 0.002547321 0.010785345 0.0074185045 -0.008504257 0.0028766228 -0.009544564 0.019899203 0.0055549424 -0.007515928 0.0094489595 -0.003971071 0.010547409 -0.0014560344 0.011751728 0.014611686 -0.0127183 -0.018850366 -0.0105632935 -0.0013990991 -0.008308011 0.008003346 0.00429295
4 -0.013843974 0.0041119927 0.0045288717 0.018499557 0.0009287936 -0.0102809435 -0.012904109 -0.0140423495 0.013829642 0.018005334 0.0102136005 -0.0099704955 0.009236354 0.0042088334 0.01511047 0.026507769 0.0151106445 -0.02289967 0.017474853 0.003841648 0.021112885 0.021196535 0.0066983826 0.018890336 0.01711931 0.027835377 -0.020541552 0.009051129 0.017575933 -0.018870102 -0.017125381 -0.012232709 0.022248236 -0.01727719 -0.020732827 -0.015747085 0.01312395 0.011020724 0.014788438 -0.0050530783 0.020087888 0.021484746 0.012035974 0.007176582 0.026577126 0.02231809 -0.02025964 -0.022447499 -0.010567423 -0.009347224 0.016590588 -0.003465906 0.00030464784 0.0144068375 -0.018730856 -0.021025052 -0.022588197 0.0017331493 -0.011288901 0.016952958 -0.009972643 0.016556561 0.012200098 -0.022449372 0.018410578 -0.027688663 -0.010250557 0.009655746 -0.009368471 0.020000933 -0.014633879 0.010650398 0.023219112 -0.019194739 -0.01027539 -0.025927434 0.010753422 -0.02525339 0.015415085 -0.00056173245 0.019515337 -0.008024511 0.02519139 0.010823863 0.0033778122 -0.000340061 -0.008192634 -0.012711937 0.0034111887 -0.0158573 0.018113736 -0.0044024116 0.02012783 -0.005744117 -0.0011727246 0.017063716 0.001526155 0.0015869532 0.0131205 0.0005931294 -0.021285793 0.01642158 0.019588998 -0.002890171 -0.020755453 -0.022899136 0.01937287 0.011586969 -0.0060596713 -0.011166617 -0.010381126 -0.0032336966 0.011358631 0.009506886 -0.026556732 0.010811902 0.021814426 0.023775293 -0.0117934765 0.0026223818 0.013613092 0.008032981 0.002917307 -0.005486716 -0.012276402 -0.006388253 -0.007910201 -0.0030732024
5 -0.014446149 0.004341982 0.013084176 0.01873244 0.0045674555 -0.015565597 -0.01248778 -0.018691806 0.012120221 0.023598107 -0.0027966462 -0.014130226 0.022251127 0.0007885206 -0.00041440554 0.008115294 0.015916478 -0.025654724 0.012783864 0.026157483 -0.0006020007 0.019951286 0.013669712 -0.0009941913 0.020484956 -0.012531258 -0.004695497 0.019724978 0.0024383317 -0.010254988 -0.016322052 -0.0059260386 -0.009692173 -0.020641942 -0.026809068 -0.020333566 0.014525552 0.014715232 0.011650622 -0.0016151569 0.012579734 0.009874427 0.0073823696 -0.0032920705 0.01971825 0.011321233 -0.01112612 -0.013722224 -0.010251829 -0.012901761 0.00030893064 -0.0064232 -0.01071702 0.008792897 -0.011515756 -0.008816837 -0.00089828507 0.0011660582 -0.01808877 0.005918444 -0.004691992 0.01466402 0.00842968 -0.0043073497 0.004975907 -0.02427537 -0.019624606 0.0053429846 -0.023416918 0.012789438 -0.0009972036 0.0065659983 0.027940013 -0.011709637 -0.0035832694 -0.0018669493 -0.0024318937 -0.02114143 0.016318735 0.009224442 0.00020593082 0.009885933 0.0041277036 0.015376 -0.008472379 -0.011382331 -0.0048246263 0.0015863155 0.0016470015 -0.0035573312 0.013272187 0.005869024 0.01656226 -0.011757739 -0.0067895832 0.009309426 -0.014936525 -0.016148528 0.0072206752 -0.019057233 -0.02666128 0.026356773 -0.0023256436 0.0037218933 -0.012335863 0.00032507034 0.021801572 -0.00035129563 -0.00010212938 -0.0035507167 -0.022228621 -0.021102842 0.018305348 0.013314971 -0.022648346 0.01422941 0.024277518 0.009161445 -0.025942683 0.0027418805 -0.00087375985 0.010649987 -0.0021875324 -0.017303383 -0.009952294 0.004703346 -0.015099635 -0.011686203
6 -0.019217689 0.007091011 0.0042158463 0.018134037 0.02080583 -0.007296256 -0.017706593 -0.0071616266 0.000305361 0.011135962 -0.0003175424 -0.006473887 0.010301093 0.012153823 -0.0022885152 0.014704832 0.011034682 -0.012007011 0.00906085 0.0077943723 0.015760899 0.012867629 0.012538898 0.01105454 0.0054129856 0.003378225 -0.016653784 0.018956082 0.016565343 -0.01874123 -0.014015696 0.0005048974 0.008736183 -0.00618772 -0.00777182 -0.009701459 0.009688613 0.011464184 0.01607968 -0.008316442 0.015741706 0.0050108284 0.019883592 0.010697693 0.004368801 0.0153431455 -0.00932068 -0.01571399 -0.014221875 0.0025069478 0.003035583 -0.014468382 0.005129924 0.017100187 -0.0060177455 -0.018367363 -0.0070533934 0.0073739607 -0.0010825687 0.01368303 0.0038395606 0.0044336696 0.0060078353 -0.003154381 0.006623254 -0.0054601193 -0.008479823 0.011671739 -0.021677399 0.010918704 -0.011527146 0.0048463074 0.0131905535 -0.009358655 -0.01349989 -0.018129982 0.013177438 -0.012362723 0.015208058 0.00042677944 0.009932834 -0.011882424 0.016025009 0.011288147 -0.00031832908 -0.0020273835 -0.0044673965 -0.006617979 0.008557191 -0.008266334 0.012817257 0.0029030098 0.00960062 -0.015100567 0.008717594 0.022368222 -0.0067398367 -0.006155816 0.0005227438 -0.003247052 -0.013480007 0.013691246 0.008121568 0.008228847 -0.009253525 -0.009319112 0.0032036374 0.0024790044 -0.0068188603 -0.01399061 -0.0058445097 -0.01787842 0.017283747 0.00772332 -0.010148514 0.012722127 0.018454885 0.017423857 -0.013877735 0.0039602695 0.0013650047 -0.0061968663 -0.010906342 -0.011608589 -0.003352743 0.0045950054 -0.007020943 -0.011761017
7 -0.013340855 0.0026970382 0.0056145643 0.0038555823 0.009041538 -0.006603574 -0.0015296354 -0.005406455 0.010296954 0.00538327 0.009515622 0.002321623 0.006759635 0.0022413384 0.008811542 0.011588749 0.01688777 -0.008373372 0.015400883 0.011218927 0.0035071182 0.011376475 -0.00057526934 -0.0029303783 0.0056332955 0.0028906106 -0.0127770305 0.015787207 0.009621801 0.0012897276 -0.0061425604 -0.0031763269 -0.0022610724 -0.010995589 -0.017587021 -0.00043749117 0.0011991131 0.0116691785 0.01397721 0.0025983548 0.013454564 0.010619361 0.007116014 0.0023334476 0.0011434554 0.008587656 -0.0018797638 -0.008919438 -0.0043161954 -0.0031314981 0.012505502 -0.00028372597 -0.0013487648 0.002427673 -0.0067662327 -0.0049479892 -0.0128029715 0.00075511495 -0.0027220096 0.002542589 -0.0054252204 0.007425585 0.0050805733 -0.01728904 0.004808302 0.0031715618 -0.0022182006 -0.004181884 -0.009212467 0.0092055835 -0.0006175131 -0.0002104829 0.014875858 -0.015569736 0.0047340384 -0.006005275 0.011963653 -0.01519973 0.007778154 0.009321821 0.005773622 0.012054823 0.001193035 -0.0018144633 0.001507173 -0.00025796547 -0.0038052036 -0.0010084432 -0.0009599223 -0.0018522851 0.01916051 0.005654279 0.0109983245 -0.010348805 0.0020806307 0.005558503 -0.0032505698 0.0037551066 0.009730161 -0.005628064 -0.013362416 0.003938711 -0.0025951045 0.0004562801 -0.007403408 -0.0145706525 0.0052056056 0.016581884 0.006875612 -0.006933921 -0.0036933501 -0.0028571142 0.017733263 0.0023493809 -0.014250344 0.0074043088 0.006253854 0.009967078 -0.0076172 0.008139836 0.00021016014 0.004419971 -0.008390358 -0.005038604 -0.006951744 0.0055084545 -0.005205817 0.0027685869
8 -0.022626352 -0.0028477828 0.017965455 0.022104368 0.011615798 -0.02372703 -0.02507531 -0.015872901 0.019708265 0.017218245 -0.016388062 -0.011868581 0.017824406 -0.007450534 -0.015136838 0.0035434028 0.011296004 -0.01735171 0.011579842 0.0122442655 -0.006394187 0.028318796 0.010856627 -0.00085679005 0.013557812 -0.0074621313 -0.005552547 0.01874049 0.022277098 0.005452287 -0.023299977 0.0004894701 -0.015313263 -0.010586416 -0.020822762 -0.024135498 0.012839002 -0.006514924 0.002879658 0.014977999 0.02349825 0.015178003 0.018955672 -0.009339564 0.025829533 0.007847333 -0.0037040105 -0.0008542904 -0.0016123059 -0.019615563 -0.008246524 -0.004104525 -0.013779877 0.00641207 0.001921528 -0.002980552 0.014699557 -0.0066170683 -0.021931972 -0.0020467464 0.0148868365 0.022921933 0.0027861379 0.008729199 0.0010666334 -0.015984511 -0.019749487 0.0054325815 -0.019519467 0.0066817645 -0.0017529001 -0.0014556134 0.016376479 -0.0027066274 -0.0054004006 -0.0063008387 -0.0008677521 -0.018209355 0.016130716 0.0069877123 0.0039977767 0.019332252 0.014945087 0.023420766 -0.01085282 -0.017928997 -0.017216334 -0.0020081515 -0.011688445 -0.012963746 0.022169495 0.005658078 0.016480885 -0.0114934 -0.0076760263 0.016250363 -0.0011972266 -0.017030755 -0.00897243 -0.015303656 -0.023706889 0.027967878 -0.009276928 0.00057472254 -0.018209115 -0.01269222 0.015659127 0.024133785 0.006305979 -0.0020000725 -0.027840735 -0.029092433 0.014987668 0.019751076 -0.023388766 0.015605183 0.018102301 -0.0024201178 -0.015244323 0.016722402 -0.013661185 -0.005124881 -0.01823518 -0.026824966 -0.007797049 0.008907442 -0.012851083 -0.0041888524
9 -0.013137715 -0.016437564 0.007019122 0.016283339 0.0030368976 -0.027024694 -0.011721925 -0.021597486 0.010418462 0.023745496 -0.006094173 -0.0017463367 0.016767079 0.0028502888 -0.012190395 0.012544662 0.010348898 -0.01953178 0.016671816 0.022661569 0.005204494 0.013792185 0.016713763 0.010859371 0.02240136 -0.006568604 -0.0029498623 0.006956365 0.009492548 -0.006383496 -0.015732776 -0.012103039 -0.015804019 -0.014338071 -0.015154694 -0.0155953765 0.020334883 -0.002524398 0.002108088 0.016656825 0.017725212 0.016670136 0.019551994 -0.006086878 0.014423544 -0.0011310412 -0.0026949507 -0.006553615 -0.0060322466 -0.025006168 0.0014102978 0.0037549639 -0.01543899 0.008240114 0.0022318675 -0.013862291 -0.0036346477 -0.0075391917 -0.013318602 0.004062192 0.007168936 0.011297886 0.003414731 0.00068180455 0.010412996 -0.015347755 -0.025086932 -0.009368113 -0.014546653 0.020249246 0.0021952596 -0.0020136645 0.014840127 -0.0029951422 -0.0099286 -0.019311083 0.002073291 -0.017217979 -0.0028365562 0.0110278865 0.002709265 0.009762238 0.019692598 0.014906419 -0.009519962 -0.021434296 -0.01775202 0.0068642856 -0.011514851 -0.017894607 0.022078915 0.003898235 0.015980855 -0.010913138 -0.000251184 0.00515569 -0.0017314279 -0.018256003 -0.0072462303 -0.02015823 -0.023519134 0.015891658 0.0012214896 0.008888418 -0.021908898 -0.013833417 0.021565402 0.018559346 -0.00019511758 -0.0071905623 -0.019463558 -0.0059355106 0.021965541 0.023021836 -0.028246352 0.001995844 0.015120585 0.0066731656 -0.022156468 0.014597965 -0.017604524 -0.010872111 -0.012868826 -0.023719423 -0.015204617 0.005273539 -0.0012922819 -0.006495728
10 -0.013996684 -0.004182308 0.0010131538 0.011853057 0.009953147 -0.014716899 -0.008135271 -0.0015910409 0.006541731 0.009734563 0.010667521 -0.010232828 0.0058499584 0.0029247557 -0.0033297793 0.015463152 0.009018133 -0.009769538 0.021618264 0.013087753 0.016405586 0.013573405 -0.00021068542 0.008630317 0.011758623 0.009143928 -0.007993416 0.005466356 0.012662572 -0.02325771 -0.012220725 -0.012228373 0.006712664 -0.021606447 -0.014263771 -0.0059263124 0.005790788 0.012203942 0.011928643 -0.0027426814 0.011541798 0.0205157 0.019365 0.011783785 0.017313832 0.008697887 -0.01616595 -0.02292651 -0.019490194 -0.009979963 0.0010257288 -0.01212432 0.005933997 0.01869024 -0.015525294 -0.016080027 -0.00949082 0.0043281578 -0.014156696 0.008062064 -0.0017337208 0.012616303 0.010907186 -0.009672328 0.022366425 -0.021857228 -0.0033778744 0.00082869676 -0.020614905 0.0037797957 -0.013568843 0.0020581612 0.011225919 -0.0020703608 -0.019286117 -0.011804935 0.004750573 -0.025345445 0.012732202 0.0071726427 0.0108564515 -0.0014646507 0.01345736 0.00160733 0.007332695 0.0010525917 -0.01150845 -0.0057974034 -8.338e-05 -0.0018844255 0.013741518 0.0026493375 0.0043466263 -0.016017081 0.007774361 0.008196687 -0.0034418467 -0.0011105107 0.0023156474 -0.0011593538 -0.014687883 0.0078192055 0.0062563824 0.010543295 -0.013731125 -0.005359304 0.008583131 0.0037108087 0.0005228905 -0.024614668 0.0015311532 -0.011669214 0.016176956 -0.0024674458 -0.016889695 0.011008751 0.007366716 0.019925907 -0.015209301 0.015115392 0.010909978 0.0010747297 -0.0034871218 -0.012697526 -0.0077486206 0.0023297388 -0.01440222 0.0006405644
11 -0.014806019 -0.008803484 0.017423546 0.030883612 0.017866516 -0.024237426 -0.019657295 -0.018486315 0.011719998 0.028625939 -0.024157304 -0.017630294 0.019458562 -0.011221801 -0.017493375 0.011331126 0.014077857 -0.020588798 0.022065882 0.02147907 -0.0020790843 0.024600657 0.021439051 -0.0034786137 0.026302729 -0.018338567 -0.0034548878 0.029821161 0.01747767 -0.00047167705 -0.025285635 9.366288e-05 -0.021173624 -0.025823181 -0.026082892 -0.020023547 0.029671982 -0.008066864 0.0124725 0.01938469 0.021570614 0.018640462 0.02797143 -0.011544719 0.025240319 -0.0030067724 -0.0073954724 -0.011018878 -0.0030927882 -0.015208228 -0.020585507 0.006899582 -0.027519425 0.016884625 0.006932469 -0.023477303 0.006010857 -0.01321196 -0.023551159 -0.012486606 0.018025126 0.02469686 0.0014364149 0.010110497 0.009953169 -0.022894882 -0.029895866 0.0034914217 -0.015109953 -0.007595284 0.0053284713 -0.015212938 0.023491161 0.0026126509 -0.0099118585 -0.009375328 -0.01846816 -0.021427153 0.021388019 0.012509886 -0.006218162 0.022586178 0.022787347 0.013612276 -0.008814914 -0.025218971 -0.023045685 0.012129168 -0.014177129 -0.018870281 0.022830313 -0.017691439 0.017478121 -0.020182366 0.0047888895 0.022074562 -0.014747017 -0.026986143 -0.008345654 -0.026840452 -0.031629484 0.030021496 -0.01054529 0.010932228 -0.031099208 -0.019648533 0.022779949 0.019476788 0.013156356 0.0061364584 -0.026206363 -0.0063527385 0.02677748 0.022890799 -0.022296876 0.014815803 0.033533845 0.00018658738 -0.016542792 0.011687791 -0.012139679 -0.0066762334 -0.012761342 -0.030093197 -0.015842726 0.01895755 -0.007986585 -0.0023318806
12 -0.011826949 -0.007446677 0.0038477245 0.0008726696 0.011015405 -0.010841762 -0.014166714 -0.006498462 0.0020944364 0.020250343 -0.0043730075 -0.005046426 0.019259226 -0.0012211392 -0.0054374323 0.021292055 0.007527505 0.0006750793 0.0061927754 0.015300751 0.013805495 0.00696491 0.017204214 -0.006188118 -0.00035057892 -0.007139301 0.0046618036 0.007172183 -0.0014097636 0.004897227 -0.0057993736 0.001113473 -0.019531514 -0.011235368 -0.010473399 -0.0033659432 0.0035457856 -0.00021790678 0.014580724 0.0032469109 0.022995634 0.0027217148 0.0100102145 -0.0044347784 0.013912725 -0.0034915905 -0.014906192 -0.00937813 -0.012017524 -0.021173494 -0.011042094 0.006531873 -0.018230632 0.008838726 0.0057297847 -0.00867121 0.0016003376 -0.0012016586 0.0024877712 -0.006611447 0.009571126 0.010180901 0.0052076806 -0.004390922 0.0021929543 -0.021229442 -0.0068940762 -0.00277176 -0.012191877 0.014046351 0.008680896 -0.0046192463 0.013538631 -0.009906827 -0.006624428 0.0022931467 -0.00931667 -0.011208176 -0.0036678533 0.016014509 -0.0032189693 0.01667884 0.015276822 0.02163209 -0.0047922023 0.0018839431 -0.016401358 0.008244888 -0.011378638 -0.005734809 0.0060463673 -0.0011480873 0.024146404 0.0048452565 0.004093741 0.0011741659 0.006611759 -0.00070727826 0.0013231476 -0.0036776953 -0.012524745 0.02274504 -0.013127273 0.0022466176 -0.010221742 -0.012142315 0.01723621 0.019924553 0.003952297 0.005413591 -0.011901485 -0.0112986015 0.005230034 0.012514797 -0.013873567 0.007960066 0.005746604 0.0024168668 -0.00582926 0.022124937 -0.016673477 0.00483286 -0.013063349 -0.01355071 -0.015101763 0.0057366667 0.0073229396 -0.0010535014
13 -0.006485176 -0.008395028 0.002154616 0.0031722626 0.0071807583 -0.020255696 -0.015581962 -0.022410661 0.004261582 0.024050629 -0.00390891 0.0043511046 0.011310209 -0.011408001 -0.013881627 0.019496387 0.012536214 -0.017893204 0.0055432813 0.02193321 0.006799875 0.019072387 0.017556386 -0.004209371 0.017074259 -0.006954546 0.0024948504 0.007846105 0.011786124 -0.004626793 -0.012216898 -0.016101034 -0.004312271 -0.009422452 -0.010119932 -0.01715816 0.011147425 0.0027674318 0.005814289 0.0050400356 0.022622725 0.003087083 0.01216606 -0.0038211886 0.011379986 -0.003991787 -0.0020858413 0.00063158484 -0.0071209297 -0.022136524 -0.0127669275 0.0076678605 -0.019940421 0.012358071 -0.002852693 -0.00910305 8.4000945e-05 0.00021915874 -0.013855941 0.000843249 0.0055156774 -0.00015759753 0.0044157333 0.005733379 -0.0049355817 -0.021344135 -0.015464658 -0.0041018873 -0.004829011 0.021404311 0.00799977 -0.014659596 0.021624781 -0.01396859 0.0005877831 -0.020178644 0.0066515054 -0.0080563845 0.002592152 0.0230169 0.0017885679 0.018696835 0.019392693 0.00684627 -0.007990586 -0.0037630638 -0.019922633 0.012245213 -0.011758619 -0.005384759 0.011431103 -0.0039547626 0.020151647 -0.0057700984 0.005447911 0.009709343 0.008081182 -0.0014115805 -0.009963214 -0.0112152 -0.023746096 0.017378379 0.00093545415 0.005531414 -0.012733097 -0.014811901 0.022039507 0.023223601 0.01417355 -0.009366356 -0.013368134 -0.027333025 0.020310469 0.00176629 -0.020826649 0.009222169 0.011720199 0.010100435 -0.002801249 0.020969521 -0.010576355 -0.006385457 -0.015463535 -0.015971055 -0.000109470944 -0.0022159682 0.0069911727 0.0022731347
14 -0.009922808 -0.020589933 0.00972309 0.017633079 0.011483872 -0.018036712 -0.010997896 -0.015754122 -0.0034867493 0.024846012 -0.020278886 -0.008180973 0.022448478 -0.021800274 -0.021546084 0.009094766 0.012432989 -0.013514354 0.008133622 0.02037965 -0.0069537377 0.026273238 0.008570821 -0.011963854 0.018201347 -0.0055566137 -0.0046172836 0.010458859 0.008610776 0.01113981 -0.022715744 -0.0065040383 -0.009927387 -0.024668442 -0.022892753 -0.023876756 0.017459422 -0.01069055 0.023138156 0.020070469 0.011712179 0.014141158 0.008111209 -0.016088448 0.01755956 -0.007520458 -1.3345852e-06 -0.0030730458 -0.016785346 -0.012382084 -0.019287214 0.016647965 -0.013266822 0.017789202 0.016914323 -0.02090398 0.0057810172 -0.022192307 -0.0188469 -0.005622907 0.02434684 0.013075018 -0.013862665 0.012431964 -0.0052803247 -0.019865703 -0.019112922 0.0002310783 -0.017367978 -0.0065639075 0.016055837 -0.021625387 0.012864113 0.0027240042 0.009725635 -0.013499729 -0.003586658 -0.007738731 0.0028782594 0.013044104 -0.014191579 0.018387916 0.023425074 0.023507996 -0.015259405 -0.011889294 -0.02371128 0.013533434 -0.021544142 -0.0038462076 0.014331623 -0.0052785594 0.024994629 -0.02110589 0.007377696 0.017638827 0.00042160982 -0.015524063 -0.006099596 -0.012574676 -0.023036273 0.022789864 -0.018082054 0.029494135 -0.016034728 -0.01343809 0.019829813 0.017613377 0.020043073 0.0024921433 -0.011693328 -0.009461243 0.01939479 0.021530703 -0.02228202 0.006204124 0.023015212 0.00028764454 -0.018154915 0.027066894 -0.015276486 -0.015346238 -0.012096076 -0.027073117 -0.019589648 -0.0062220125 0.017883465 0.012127689
15 -0.0064712935 -0.009728892 -0.0073060044 -0.0025989262 0.015061021 -0.009908404 -0.021595111 -0.023932545 0.0067951675 0.007070425 -0.009447431 0.008842365 0.0042162607 -0.004346891 -0.008318511 0.014489749 0.0052020727 0.0043283626 0.0038603 0.015512869 0.0134172235 0.016257698 0.018598026 -0.0101889465 0.0026181252 0.013459974 -0.0013969826 0.0043542455 0.004841343 -0.0048416364 -0.006415903 -0.0067978953 -0.003159914 -0.009865487 -0.009263855 -0.012022915 -0.003131613 0.0043443926 0.017687026 0.013987812 0.025965879 -0.00026771304 0.00395967 0.0007110826 0.0137141375 0.0130671 -0.01597675 -0.016206425 -0.024800247 -0.0056114956 -0.0027301493 0.017183507 -0.0149998395 -0.0027918299 0.00278689 -0.015470043 0.011544261 -0.020119125 -0.003718909 0.0033221734 0.011766504 0.002684591 0.0005181741 -0.00015090435 0.0020673426 -0.010367917 -0.004464838 -0.014662956 -0.00011407037 0.00986563 0.0013879548 -0.023830423 0.008262534 -0.015233966 -0.0014364425 0.004888674 0.015737282 0.004286795 0.0031928532 0.026767462 0.0028273745 0.017228793 0.011759563 0.011703214 -0.0037936794 -0.004973244 -0.010123376 0.006574475 -0.010709684 0.0004269422 0.022009624 -0.011607057 0.009130978 -0.01379826 0.010388019 -0.0029533927 0.017906755 0.0029119907 -0.0075115887 0.007224722 -0.007568669 0.011409723 -0.0003130061 0.022026481 -0.0102690775 -0.009225497 0.0068382565 0.01929544 0.017226573 0.0013421301 -0.004937215 -0.02559287 0.012465097 -0.0041140174 -0.0087816985 0.0048822844 -0.0005454536 0.010765514 -0.00214549 0.02658614 -0.0017020905 -0.016860764 -0.026532471 -0.029305622 0.0070934687 -0.010279537 0.0023184214 0.012615415
16 -0.021985473 0.00088618195 0.0011984227 0.010322523 0.024172023 -0.029577205 -0.01746621 -0.024463471 0.01307689 0.02772208 -0.01203157 0.0003916687 0.019705473 -0.009515439 0.003970363 0.02057272 0.018687077 -0.027398795 0.018148692 0.010933177 0.016889812 0.020023374 0.009472174 0.015148354 0.007731596 0.011390038 -0.012787763 0.009669134 0.026198145 -0.014444903 -0.013379688 -0.006843666 0.0044516027 -0.020430729 -0.020840747 -0.015648365 0.0035235074 0.0029241953 0.029848756 -0.0013276378 0.023734776 0.016425379 0.014195037 -0.010898932 0.024617577 0.01533158 -0.023603544 -0.023761401 -0.019443305 -0.022955175 0.0062615904 0.014704027 -0.008621659 0.02157963 -0.017865587 -0.01515481 -0.004770872 -0.001123555 -0.016712913 0.011750596 0.015744261 0.017350508 0.016460031 -0.020853784 0.013740581 -0.026732348 0.0032248755 -0.0099146785 -0.018794665 0.01975402 -0.015501507 -0.01463077 0.020474784 -0.016821748 -0.018271599 -0.029313667 0.015106447 -0.020235829 0.026738865 0.0148708355 0.011801861 0.008010942 0.01743409 0.011003204 -0.00031581463 0.003062459 -0.017862579 -0.0028061217 -0.010571095 -0.015570509 0.024399454 -0.007864254 0.011836743 -0.009315866 0.018899122 0.01868057 0.008178102 0.006163826 0.0048337206 0.007697354 -0.021883247 0.016965237 0.011584774 0.017016308 -0.019570699 -0.011132313 0.021501327 0.02495517 0.018825091 -0.012485072 -0.0029766227 -0.024872148 0.01920948 -0.0012274967 -0.022903834 0.024021022 0.02398212 0.017150767 -0.026128208 0.012020651 0.005531929 -0.018968027 -0.014070607 -0.022883255 0.0044051334 0.004028734 0.009143728 0.007345734
17 -0.0041200686 -0.014534889 0.011498474 0.008328482 0.0233947 -0.013557476 -0.020528186 -0.024659082 0.0076974565 0.0150204785 -0.01182832 -0.01150018 0.025712598 -0.014627909 -0.016507084 0.008350478 0.0039069317 -0.024582615 0.012862364 0.018920565 -0.006342116 0.026318721 0.010184263 -0.013264791 0.012687613 -0.0035709438 -0.009091245 0.011515632 0.0023850426 0.010077336 -0.024273353 -0.008867728 -0.023009563 -0.014646229 -0.021385042 -0.013990531 0.024832241 -0.018014796 0.02549452 0.017638488 0.023025004 0.022225726 0.010947605 -0.01527786 0.020293495 -0.015559057 -0.011742745 -0.014534732 -0.01727332 -0.016980058 -0.015235253 0.020113863 -0.012883512 0.018877445 0.01533334 -0.009476824 0.008436677 -0.025247317 -0.024292048 -0.016440116 0.018136255 0.00466217 0.011223972 0.012518806 0.0025932873 -0.018478224 -0.017025683 -0.014955737 -0.019208383 0.004337901 0.019791722 -0.013993827 0.020776883 0.0036010784 -0.0020323505 -0.0033834341 -0.0031032802 -0.01667698 0.027324336 0.021121435 -0.018565664 0.017253345 0.024485104 0.022123229 -0.022590674 -0.007931923 -0.02639501 0.017798973 -0.023375731 0.017257739 0.018176917 -0.015299634 0.0077178357 -0.010402642 0.00841689 0.009552706 0.0032026884 -0.01595561 -0.018035218 -0.00977013 -0.021411553 0.02321541 -0.011523849 0.013438011 -0.015756806 -0.016668957 0.016500108 0.013709898 0.020740854 0.003987133 -0.015187728 -0.012757662 0.016093014 0.0052663344 -0.024067681 0.01139415 0.017771779 0.0024699024 -0.010637899 0.014075627 -0.018733492 -0.020024097 -0.021118782 -0.014131467 -0.0068999236 0.0081706215 0.01914506 0.015950207
18 -0.02422624 -0.021471493 -0.01715272 0.023272235 0.018517314 -0.02354464 -0.030152898 -0.029803434 0.0076730386 0.025478758 -0.006569308 0.023866989 0.01511592 -0.022895405 -0.011380219 0.023155352 0.019922914 -0.022075858 0.029407976 0.015306798 0.016840069 0.01777018 0.007993878 0.018513348 0.024458906 0.026469175 -0.016825914 0.0099977 0.018849503 -0.021638762 -0.027176809 -0.021588702 0.02155678 -0.0154488655 -0.020165253 -0.015309955 -0.002245514 0.022889035 0.02605868 0.01347804 0.016528174 0.028574089 0.025455039 -0.016015572 0.018595139 0.030825092 -0.021488903 -0.03038338 -0.026842233 -0.028017053 0.023490015 0.02440555 -0.015984464 0.02953029 -0.02880643 -0.020240974 -0.019709222 -0.016342884 -0.008208895 0.023477674 0.016470881 0.025420476 0.01847211 -0.026838522 0.024017194 -0.019012636 0.0012539291 -0.016089164 -0.029189033 0.017582292 -0.026332885 -0.028455406 0.022082377 -0.025094297 -0.019694887 -0.024173962 0.019229664 -0.023012271 0.030666389 0.015330492 0.016771208 0.025932487 0.030887293 -0.0054942938 -0.0069354163 0.01524307 -0.023048861 0.023218105 -0.026552627 -0.0252164 0.016278367 -0.02159773 0.029402597 -0.0031461876 0.023731675 0.018072153 0.027284084 0.023637744 0.015980488 0.023979997 -0.030791564 0.022088956 0.017631732 0.024226684 -0.023782082 -0.027778486 0.024947904 0.02567623 0.019221658 -0.02492307 -0.0051995837 -0.029028464 0.021335559 -0.0072435485 -0.016899012 0.018550279 0.026040584 0.028061692 -0.02489084 0.018062694 0.025468789 -0.021192342 -0.026605701 -0.022661915 0.014191958 -0.013507697 0.02892877 0.022206126
19 0.0006702062 -0.015624487 -0.024345167 -0.0036599536 0.016675202 -0.015291618 0.003157805 0.009839031 -0.0071072076 -0.0006381306 0.00041700003 0.018761003 -0.01344721 -0.0029920635 0.007947882 0.00072321505 0.004212416 -0.006451252 -0.0019113675 -0.013792438 0.016721848 0.007844127 0.001660368 -0.0058597797 -0.012442357 0.019429656 0.00538909 -0.0074418057 0.0051797153 -0.00026098697 -0.008443986 -0.02034147 0.009982479 -0.009697267 0.0027936113 0.010946895 -0.0152684 0.013823903 0.012194623 0.0015231249 0.014950299 0.00089146174 -0.009438412 -0.012820251 0.0024857228 -0.002696257 -0.020340262 -0.015769577 -0.011721997 -0.0061328467 -0.0010729311 0.016033119 -0.0011911005 -0.0036678081 0.0034173075 -0.0018402946 -0.007442241 -0.015642565 0.0066921655 0.008838371 -0.0022537105 -0.014843476 0.0024782056 -0.01756567 0.0068387073 0.0028206236 0.012679667 -0.013207711 0.009127665 0.010213826 -0.011544054 -0.0051437044 0.0024695166 -0.013411603 0.0020185853 -0.008756018 0.01135202 -0.011564467 0.0086343 -0.00061584555 -0.002480126 0.008915967 0.011294057 -0.0030986355 -0.01206121 0.016956095 0.011066047 -0.0031786913 -0.012866826 -0.017227486 0.014827904 -0.0063847057 0.0046071485 0.0096572 0.01559971 0.00044035807 0.013155902 0.01077035 0.010055266 0.012419404 -0.0006055046 0.0026727256 0.0022474253 0.01853429 -3.7697202e-05 -0.016823525 -0.0041142316 0.008894931 0.0070265466 -0.00027375243 0.014176683 -0.00044777011 -0.001764961 0.017893244 0.00976202 0.014135317 -0.011321179 0.010263222 0.0060006366 0.012837862 0.01813012 -0.017252302 -0.021302443 0.0008797491 0.00889204 -0.001605118 0.01479638 0.0212872
20 -0.01740076 -0.0080277305 -0.0018570251 0.007958313 0.0191455 0.0026997414 -0.0067297867 -0.0007767513 0.01704547 -0.001935903 0.0033671814 -0.0046940995 0.0100808665 -0.005924243 -0.0076604104 0.020093754 -0.0019841501 -0.011500566 0.013450259 0.008155455 0.011813899 0.0061808378 0.005933973 -0.0036741171 0.009788447 0.0036931508 -0.0040906444 0.0069483295 0.011918126 -0.0009236315 -0.0014077008 -0.013321368 0.0028027783 -0.016752949 -0.008113663 -0.003151329 0.00041593122 0.004964647 0.01263002 0.0043275803 0.0038144987 0.012850254 0.010680741 -0.0050015976 0.0029952168 0.0045415363 -0.012602391 -0.015934654 -0.016331043 -0.006805419 -0.0044127167 0.01524345 0.002091159 0.013010603 -0.001391229 -0.015087068 -0.0064721964 0.0013276499 -0.0012604892 -0.0011281202 0.00034219548 0.008506573 -0.0009127219 -0.005538726 0.0064333 -0.016856043 -0.0055429903 -0.01716552 -0.01775189 0.006833721 -0.0041446793 -0.015601988 0.009495987 -0.008499753 0.0021766736 -0.019234167 -0.00083706004 -0.010220333 0.0113308 0.0008337982 -0.007975859 0.00097381347 0.010016719 -0.003994361 -0.010763109 0.0020232834 0.00029057974 -0.0028807828 -0.001237975 -0.022267302 0.009628944 0.0039740866 0.004337306 -0.008592632 0.010991164 0.0138174845 0.02362191 0.006826764 -0.0034457692 0.0002887802 -0.009700936 0.010194558 0.0066018524 0.013979207 -0.009420481 -0.0083777495 -0.00021606009 0.017153554 0.0012086511 -0.012249673 -0.00043442164 -0.01648061 0.005518661 0.008241629 -0.007998145 0.010406387 0.007885776 0.00231697 -0.005538524 0.008764828 0.0025765528 -0.0067585814 -0.025270792 -0.013963954 0.004439552 -0.001030655 0.010376178 0.016259734
21 -0.020365445 -0.00808263 0.0043175924 0.014355363 0.01700173 -0.011446029 -0.026755676 -0.025028426 0.018060217 0.018493062 -0.013044493 -0.006636789 0.016379999 -0.015949901 -0.012217238 0.011856376 0.011410636 -0.018715985 0.009371729 0.019517502 0.00096089207 0.022995126 0.011610384 -0.012148524 0.018654076 -0.003666187 -0.007134165 0.012028724 0.016634336 0.0068189777 -0.021264046 -0.0054770224 -0.021781672 -0.016045636 -0.021137312 -0.02250442 0.016314784 -0.013910978 0.01805201 0.01598907 0.014782983 0.005964212 0.008459553 -0.008090183 0.01949068 -0.008635645 -0.0023673123 -0.0056849886 -0.013236205 -0.023592455 -0.008643666 0.02160855 -0.016619394 0.015796833 0.0035178456 -0.024780797 0.018017758 -0.023531044 -0.015007373 -0.011491329 0.020888295 0.022450225 -0.0038542205 0.0060142977 -0.00363974 -0.015257596 -0.018243823 -0.028508946 -0.023771191 0.007309715 0.0073097306 -0.0210978 0.012473479 -0.0016055458 0.002849424 -0.025212426 0.0032516867 -0.014760774 0.009965941 0.013420882 -0.010732626 0.021913735 0.025601536 0.01604596 -0.013102107 -0.010871737 -0.02073165 0.009746009 -0.009273872 -0.008136986 0.0178989 -0.014219397 0.023706868 -0.015926706 0.009307845 0.01683368 0.0069031846 -0.015950402 -0.017170817 -0.006579475 -0.022624545 0.016010085 -0.0128458 0.022484593 -0.0151672 -0.022986593 0.021187708 0.01409962 0.02545547 0.0038626676 -0.022692066 -0.016919049 0.020873114 0.0109260315 -0.015521416 0.015017834 0.0144016035 -0.010228317 -0.014360875 0.023477057 -0.010263878 -0.013817714 -0.012371604 -0.013968908 -0.0062631797 -0.0014138989 0.0118828565 0.008434302
22 -0.010817032 0.0018310763 0.010633589 0.02180156 0.026683195 -0.019582013 -0.024745766 -0.025746427 0.020152327 0.014700521 -0.0075723524 -0.0073597725 0.023835722 -0.017236013 -0.012927609 0.017880462 0.01614948 -0.019955304 0.007147366 0.02240695 0.010201295 0.027706143 0.015739413 -0.0033747787 0.009877626 0.0013481679 -0.016041832 0.021514334 0.017974207 0.008542382 -0.013197751 -0.010128512 -0.0081892405 -0.015350221 -0.020858292 -0.014145143 0.018758861 -0.0012866487 0.020092461 0.00990572 0.018759051 -0.0012983938 0.013137553 -0.015089516 0.023308538 0.0013683648 -0.015286132 -0.021567674 -0.008542708 -0.021009935 -0.00853084 0.011860546 -0.015175222 0.010405948 0.011360537 -0.009668108 0.011163906 -0.024941131 -0.014217059 -0.00610203 0.019907678 0.018412821 -0.0043560485 0.012587286 0.009720355 -0.018612174 -0.02275879 -0.026573073 -0.014883132 0.018851982 0.019716507 -0.013442127 0.016280344 -0.016460689 -0.014104393 -0.014548816 0.014409711 -0.015489526 0.016483251 0.013011604 -0.0032640612 0.014070295 0.014955429 0.006197221 -0.015628645 -0.014098391 -0.022500083 0.011926045 -0.025927925 -0.011369692 0.016759517 -0.02299314 0.01432796 -0.015291984 0.009445002 0.02352006 0.015252466 -0.0035598094 -0.0050186184 -0.0122865215 -0.021093868 0.02083353 -0.015270991 0.010730354 -0.021883186 -0.019294804 0.013359214 0.024094557 0.027070638 0.0009851143 -0.011189397 -0.014411309 0.022331545 0.017878195 -0.015489502 0.0022300228 0.011703254 0.010469655 -0.012585809 0.020669889 -0.0060110567 -0.012250016 -0.028880794 -0.014209971 -0.0190762 0.006432222 0.013553178 0.011074002
23 -0.021337066 -0.015607989 0.0041134465 0.0093933605 0.011670365 -0.010793147 -0.018756783 -0.0065038633 0.017685594 0.013724138 -0.008895077 -0.001593734 0.009523783 0.0008222222 -0.009875952 0.009322874 0.01560082 -0.01343103 0.016348124 0.011864576 0.012067767 0.013937731 0.008962788 -0.003711358 0.0074422024 0.00322362 -0.009720131 0.0031594806 0.00670279 -0.008176495 -0.008029029 -0.008275325 -0.010891021 -0.013640796 -0.01594922 -0.0057503 0.007830165 0.0071414784 0.023920089 0.0024726838 0.012385832 0.009130848 0.0058416505 -0.00852574 -0.0017297635 0.0049391645 -0.0070450758 -0.0038851853 -0.011295318 -0.013331917 0.0029406738 0.024059111 -0.0031342697 0.0176078 -0.0063172774 0.0004774246 -0.0015178099 -0.01197923 -0.0021627226 0.008287856 0.0047350605 0.012672898 -0.0010226378 -0.007660057 0.011030163 -0.0074393298 -0.007729067 -0.010901461 -0.0067101205 0.0122175915 -0.010544411 -0.0126304645 0.00687983 -0.016879521 -0.0026519254 -0.019975083 0.0013783502 -0.021239188 0.00066211727 0.012080454 0.0066766636 0.0026609385 0.01289729 0.002061157 -0.011165812 -0.013303268 -0.0040153232 0.012323318 -0.011080561 -0.010249172 0.010840456 -0.005232835 0.008122926 -0.005276034 0.012917738 0.014632022 0.009620499 -0.005501267 -0.009141244 -0.010216736 -0.012384276 0.017493345 -0.009082925 0.01615629 -0.02609116 -0.021116557 0.0076030577 0.0072609703 0.011648106 -0.011580476 0.00031158322 -0.019893127 0.024154365 0.015926149 -0.013328498 0.015822778 0.0006976835 0.0049339347 -0.00969124 0.009438474 -0.010045402 0.0021994752 -0.016625565 -0.0042969277 0.002928826 0.013848776 0.016501052 0.012495073
24 -0.010770163 -0.010210985 0.0027616748 0.006094458 0.003462945 -0.010509144 -0.0035622306 -0.011407863 0.01674506 0.008768872 -0.0006938967 0.0029774045 0.0068184845 -0.00021148747 0.001634934 0.016003292 0.00956197 -0.00082446815 0.010213792 0.009540211 0.008706635 -0.0017525423 0.00087871734 -0.0023344485 0.008040272 0.0016303 -0.0014297985 0.0056819054 0.022942634 -0.006175728 -0.0004955458 -0.022837207 -0.008701082 -0.011621133 -0.0030358592 -0.004969699 0.010299494 -0.0039378237 0.012210323 0.00075619714 0.0036560372 0.007384859 0.008832434 -0.010073347 0.0057929256 -0.010422743 0.009053658 -0.010646847 -0.019228777 0.00064613443 -0.0036302493 0.006405452 -0.0083038695 0.012139499 -0.0032436042 -0.016212977 -0.0016880966 0.0010971813 1.6883074e-05 -0.0006512874 0.009471674 0.015458447 0.014464794 -0.0008036429 0.0133274505 -0.015716873 3.6396814e-05 -0.0102448035 -0.007926673 0.017901888 0.014320456 -0.0005575229 0.009231544 -0.01051879 -0.0107446425 -0.024385015 -0.002290461 -0.019375242 0.022441173 0.008500556 0.0022377754 -0.00045691448 0.0040271217 -0.00077356445 -0.0027633728 -0.003905904 -0.010994991 0.0077802376 -0.022687748 0.005020641 0.0035925994 -0.005631361 0.018713422 -0.010178578 0.018253017 0.013093587 0.011793921 -0.002392789 0.0050225635 -0.009309658 -0.008626552 0.006527324 0.0066063534 0.009450527 -0.01478563 -0.0040827612 0.013873462 -0.003258415 0.0063227075 -0.017308459 0.0026015097 -0.011501575 0.009062538 0.00149281 -0.0040368023 0.0018825824 0.0041015623 0.0061207553 -0.011610227 0.0025573496 -0.0012976056 -0.0104155615 -0.009512055 -0.005022695 -0.004715405 -0.006193598 0.01391028 0.0135171125
25 -0.022195896 -0.008747865 -0.015360266 0.028698258 0.021050394 -0.02391873 -0.029115878 -0.017078307 0.0035470233 0.027612992 -0.011706456 0.015138856 0.023452839 -0.016107796 -0.0033274258 0.0237224 0.01371444 -0.026771793 0.023844339 0.023360025 0.010630479 0.031130655 0.010693356 0.014411623 0.014125503 0.025299197 -0.020557052 0.014878038 0.018493418 -0.012308378 -0.021002574 -0.01755774 1.5824684e-05 -0.031106137 -0.019887565 -0.0063522826 -0.001106177 0.019044716 0.03147041 0.007697568 0.024424655 0.029806223 0.03207791 -0.019077094 0.0260096 0.015135782 -0.022850564 -0.02480016 -0.021849677 -0.020573318 0.006806861 0.029835407 -0.012984607 0.018219458 -0.012419722 -0.02590245 -0.00455253 -0.015650025 0.0004169239 0.017530778 0.019338008 0.017913667 0.01469075 -0.020428149 0.021090405 -0.0305658 0.002101249 -0.021517651 -0.028649475 0.016590755 -0.008708254 -0.020507084 0.023932219 -0.029105412 -0.0143917175 -0.033193793 0.015120321 -0.014851561 0.027365318 0.02377757 0.0061140587 0.012389292 0.027605575 0.0014287974 -0.007807225 0.00385228 -0.020275414 0.0166743 -0.016307006 -0.022998506 0.03210491 -0.014599998 0.014765081 -0.011656607 0.026058737 0.025501324 0.022509217 0.0067626364 0.005637546 0.0060723806 -0.015681166 0.022075208 0.0043668095 0.021286666 -0.021849522 -0.024077745 0.012085604 0.025438536 0.026138851 -0.02383556 -0.00081204285 -0.02856098 0.020244567 -0.0044341576 -0.027335478 0.013779749 0.014228032 0.021639358 -0.020403989 0.02192899 0.0032186948 -0.031475864 -0.027940694 -0.019912193 0.0029338486 0.003010535 0.024612157 0.03224787
