1034 128
0 0.019516885 0.026219964 -0.06622208 0.038944982 -0.054852046 0.026907992 -0.051171336 -0.037263043 -0.12481449 0.047959026 0.046055153 0.019174509 0.045547754 0.007854396 -0.04653095 -0.014874074 0.017248468 -0.06038816 -0.03533065 0.0012208652 -0.05649802 0.010261549 0.021849945 -0.06778906 -0.04383329 -0.037339535 0.013598633 0.02999369 0.09385108 -0.021457467 0.020077627 -0.035613608 -0.050364226 -0.038409617 0.028556326 0.02165151 -0.05985222 0.007240404 0.03182324 0.09914923 -0.07030744 0.03417265 0.033033676 0.0142021235 -0.021907361 -0.023792118 0.015144708 -0.03134991 0.023408545 -0.029784115 0.030454366 -0.029102402 -0.078699216 0.016222093 0.019851113 -0.0103369495 0.020555861 0.06259804 -0.00699063 -0.039787415 -0.04615919 0.019075157 0.018794684 0.041645173 -0.024916798 -0.050121486 0.022311445 -0.02921026 -0.020571584 0.014141816 -0.021718971 -0.025771674 0.024935957 0.029446116 0.022316724 -0.045546994 -0.024867527 0.024374416 -0.056080896 -0.015915727 0.017619628 -0.027756425 -0.031897377 -0.019892208 -0.06531795 -0.023158997 0.07959255 -0.018865524 -0.032518823 -0.04682888 -0.023737282 -0.030975156 -0.020164099 0.018918712 -0.036692455 0.031823654 -0.046996247 0.040791087 0.032432035 0.035062674 0.01883349 -0.034141082 0.07128125 0.04733482 -0.028983926 0.07074304 -0.032365087 -0.024360746 -0.050955143 0.057146974 -0.038328066 0.011892178 -0.03676715 -0.013697276 -0.03295565 0.0304475 0.030292388 0.039210204 -0.022383086 0.026606122 -0.05299708 0.035816014 -0.04607865 -0.0145442905 0.05903247 0.053001095 0.026317732 0.020333147
1 0.027434263 0.025856182 -0.07030223 0.039514713 -0.11245028 0.05704605 -0.14556874 -0.17777391 -0.21132599 0.099500716 0.055024814 0.026524834 0.05200573 0.016498465 -0.09765274 -0.0766518 0.034078263 -0.20447849 -0.034592833 0.01626807 -0.12400442 0.021165004 0.053971555 -0.14182375 -0.061295904 -0.04558214 0.082375795 0.030614201 0.07058859 -0.028578421 0.069184594 -0.1150478 -0.055384945 -0.04610929 0.104013905 0.017742867 -0.18025354 0.05237951 0.07748702 0.11241843 -0.14853428 0.02898942 0.048325513 0.02187063 -0.028323622 -0.03849657 0.03945062 -0.05484855 0.08586903 -0.024647793 0.058590114 -0.011483605 -0.16796266 0.009794128 0.014147954 -0.004618585 0.03650813 0.15836348 -0.033498686 -0.0906092 -0.06677549 0.03673817 0.031250767 0.032625332 -0.07191916 -0.029734831 0.021981299 -0.031122653 -0.03695498 0.048910115 -0.028709104 -0.030383047 0.05243041 0.030362554 0.03812419 -0.08081581 -0.012563616 0.04319674 -0.13301073 -0.031161925 0.028954776 0.015560886 -0.05819704 -0.02717648 -0.114780255 -0.022202095 0.07056832 -0.034668047 -0.036171164 -0.13587175 -0.07319909 -0.020074392 -0.015238988 0.04150013 -0.05632375 0.01912678 -0.11063907 0.087813206 0.041713364 0.032563895 0.035607014 -0.07686626 0.14201303 0.15991178 -0.021719944 0.12634832 -0.06360857 -0.031649917 -0.052023277 0.14313428 -0.04596995 0.031023547 -0.047937356 -0.025609815 -0.0416315 0.03787501 0.06229264 0.05061672 -0.024502685 0.02347854 -0.04197412 0.044659514 -0.11058682 -0.03544811 0.14050134 0.078732766 0.072316006 0.04575
2 0.0030772474 0.05148275 -0.08745584 0.010787104 -0.10319318 0.0645479 -0.10486811 -0.16152926 -0.043811925 0.043631047 0.08188758 0.0078004985 0.025689865 0.014802201 -0.15329927 -0.041444853 0.059376165 -0.061553124 -0.010856928 0.01041286 -0.09258354 0.0567404 0.042190682 -0.11481862 -0.0054337066 -0.05188174 0.044625856 0.008328309 0.09022999 -0.047704574 0.053396944 -0.110623784 -0.058797117 -0.0018962963 0.17976323 0.066236794 -0.18158163 0.11332765 0.08601675 0.0968607 -0.080156654 0.0103291925 0.020521868 0.018104365 -0.018853687 -0.014151813 -0.0026876025 -0.01747624 0.08713711 -0.007886562 0.06971577 0.010842458 -0.20772739 0.046306603 0.043780383 -0.03415473 0.05232679 0.1785549 -0.06687494 -0.076189384 -0.058495887 0.012859055 0.060522612 0.068886094 -0.21902207 -0.058679394 -0.007647453 -0.003011497 -0.044666775 0.058538314 -0.0030421703 -0.054895367 0.02385909 0.06928869 0.06499958 -0.10862913 -0.0028242061 0.05820509 -0.15172601 -0.051542934 0.0117174 -0.035011362 -0.06461566 0.00056233624 -0.11210006 -0.011382046 0.029482199 -0.008508566 -0.030935092 -0.11652228 -0.031933617 -0.017704422 -0.037574477 0.026636725 -0.08668432 0.08717441 -0.09217774 0.07982633 0.027508108 0.0035068563 0.04547527 -0.07812427 0.11783803 0.09911641 0.003323802 0.09865453 -0.08534232 -0.06258505 -0.027831148 0.09805845 -0.017912174 0.04501958 -0.042132296 -0.019242682 -0.01838634 0.07852561 0.06845901 0.067914575 0.0042093936 -0.001552266 -0.027664065 0.033336166 -0.0861017 -0.023762597 0.12818353 0.03994596 0.06912538 0.05060292
3 0.05490725 0.033990014 -0.048335887 0.06531472 -0.11428773 0.0072713187 -0.07530806 -0.22483443 -0.14528552 0.11366557 0.0452208 0.049511343 0.07852306 0.075057805 -0.18838415 -0.07106099 0.032944623 -0.1366245 -0.032518677 0.041695304 -0.1061821 0.041076947 0.06980871 -0.193513 -0.047394596 -0.06692308 0.12025651 0.06267843 0.02464178 -0.0106201125 0.088980496 -0.21481659 -0.087323435 -0.03240309 0.15933703 0.01978923 -0.08722092 0.12546414 0.0719219 0.10984937 -0.16230462 0.03065656 0.040744405 0.038417008 -0.03250073 -0.030791087 0.017011933 -0.08938535 0.026501369 -0.04862057 0.051688954 -0.04670974 -0.19099878 0.050163046 0.10505601 -0.007984323 -0.040747356 0.02799406 -0.029572615 -0.08656671 -0.06469724 0.049643066 0.019046491 0.08490326 -0.05047835 -0.113955386 0.06550652 -0.05508365 -0.017071977 0.006033623 -0.05157935 -0.02323402 0.05985249 0.009564085 0.043387104 -0.09041146 -0.033157077 0.025769638 -0.22291984 -0.03456615 0.04638402 -0.039026514 -0.19716915 -0.07197732 -0.16783997 -0.05098645 0.05611358 -0.07304799 -0.01167603 -0.14303084 0.07460514 -0.03135046 -0.09490751 0.08804669 -0.034008585 0.0044583557 -0.12489261 0.09689579 0.043462757 0.018926613 0.03570328 -0.089311555 0.018676681 0.12298362 -0.05312274 0.13131817 -0.084225446 -0.03708836 -0.058201324 0.104364805 -0.02720859 0.034840386 -0.03302282 -0.029704195 -0.02924571 0.022766018 0.024373729 0.06529699 -0.031171454 0.043522168 -0.047747094 0.042363577 -0.059945084 -0.08431879 0.07262594 0.045342855 0.03744396 0.010206851
4 0.026630435 0.08287734 -0.09899387 0.0011566798 -0.0393618 0.113323726 -0.067564994 -0.22693844 -0.0030871725 0.05067515 0.06788972 -0.010888909 0.03356149 0.01072462 -0.3544746 -0.04197604 0.07876631 -0.17686087 0.026019927 0.0316491 -0.08714107 0.08410203 0.032048613 -0.14084306 0.0033631057 -0.07897464 0.18141665 -0.0026731614 0.15193455 -0.0774456 0.093812056 -0.19080207 -0.104905345 0.013614561 0.26403254 0.0654674 -0.21092995 0.28854436 0.06929219 0.1467828 -0.10590719 -0.0027258035 0.003401963 0.009925162 0.017286714 0.0045075603 -0.0024436186 -0.032212306 0.18333122 0.011069407 0.0992097 0.018256433 -0.11833521 0.07454184 0.113298744 -0.058372002 0.06635439 0.14069246 -0.06838589 -0.10076831 0.03184926 0.031390607 0.072720885 0.08193525 -0.21433093 -0.08813459 -0.0014576615 0.0107005825 -0.067507826 0.042517558 0.01615198 -0.06591413 0.026307998 0.07541464 0.08840895 -0.13643812 0.0058459383 0.051389728 -0.16402395 -0.0675521 -0.008122663 -0.06833603 -0.13446523 -0.006942956 -0.12854078 -0.0034209806 -0.0021623438 -0.016340442 -0.015598556 -0.2586799 0.0690541 0.003358824 -0.07722607 0.02124195 -0.083407044 0.078606926 -0.052388173 0.077818014 -0.007617116 0.0029147046 0.077108584 -0.10170987 0.16279452 0.05979369 0.0086221965 0.16036408 -0.09192659 -0.05952097 0.0068632397 0.13866386 0.0042189555 0.058636356 -0.035864495 -0.017248856 0.013962279 0.059311647 0.083961055 0.10658936 0.024549386 -0.0047327285 -0.008478507 -0.02340702 -0.071998015 -0.07009838 0.11744728 -0.0047823596 0.10464565 0.07243441
5 0.016729984 0.12845775 -0.1589843 -0.053409394 -0.06278012 0.21359695 -0.09695765 -0.14993587 0.039537992 0.08969791 0.1263262 -0.062778816 0.0051468867 -0.01060915 -0.17219403 -0.15200545 0.12248602 -0.1425808 0.07188112 0.03941254 -0.11033257 0.11981424 0.04248903 -0.18536235 0.058155794 -0.112991616 0.21339022 -0.049894206 0.12143064 -0.15181859 0.29429767 -0.16552402 -0.13263607 0.086635046 0.11907676 0.12558068 -0.13899902 0.13658234 0.11538281 0.1689754 -0.063482516 -0.06210623 -0.035801947 0.020311011 0.062839076 0.046817884 -0.04815525 -0.029359253 0.1679504 0.0542923 0.13666433 0.06069096 -0.071780525 0.12492608 0.17545573 -0.11677081 0.12967797 0.12406588 -0.112199426 -0.14190102 0.059066623 0.052691575 0.11252874 0.11775843 -0.19868596 -0.17429902 -0.022436107 0.074142344 -0.13271028 0.08187713 0.080321066 -0.13941889 0.10551263 0.13768049 0.12688419 -0.27146214 0.060372844 0.098161206 -0.25238296 -0.10976751 -0.06762966 -0.13824616 -0.20611699 0.022429736 -0.23286614 0.027444884 -0.043069616 -0.063274264 -0.0006241751 -0.24166347 0.15154389 0.03629685 -0.12351768 -0.008231322 -0.13220997 0.13572024 -0.12763743 0.1409305 -0.050270014 -0.038012974 0.11530965 -0.113996826 0.19875881 0.07521066 0.057809986 0.16350427 -0.1350926 -0.103770636 0.048103884 0.18863866 0.059623163 0.10288505 -0.07833604 -3.197181e-05 0.046202518 0.09553196 0.12959139 0.14727159 0.06334455 -0.06802532 0.021916138 -0.07054829 -0.09302386 -0.21944557 0.16336797 -0.03698506 0.13891925 0.11565388
6 0.0116470205 0.06052687 -0.047681823 0.022482917 -0.12907192 0.07591695 -0.0898996 -0.24904148 -0.079717204 0.086460166 0.053782683 0.0062948163 0.05003902 -0.00014237055 -0.135472 -0.039953824 0.053299997 -0.08747559 -0.009305344 0.016935078 -0.10390519 0.06362007 0.033863347 -0.13906483 -0.05345397 -0.056996845 0.13618207 0.006556398 0.055003602 -0.069099024 0.08405829 -0.12108641 -0.0565741 -0.02300026 0.16258386 0.05535918 -0.13508606 0.112640575 0.08307153 0.060843114 -0.027789775 0.011600177 0.04639064 0.029917318 -0.009775567 -0.0053628697 0.02017638 -0.028365806 0.22547126 0.00085089717 0.057492986 0.0093562845 -0.21953093 0.053682264 0.08590733 -0.049783774 0.058107805 0.121511385 -0.06894662 -0.07230667 -0.09656815 0.012694485 0.06432303 0.04358352 -0.12603998 -0.06346585 -0.0047458094 -0.007962696 -0.058792256 0.077465065 -0.022073114 -0.07435157 0.020961305 0.042142086 0.062309954 -0.08537754 -0.002443829 0.072243184 -0.13180886 -0.06518396 0.009689972 -0.010915133 -0.15432769 -0.000418716 -0.13079384 -0.01006152 0.023542838 -0.0132051455 -0.030000633 -0.2382074 -0.05801401 -0.00876886 -0.045126382 0.020650802 -0.07094077 0.041879665 -0.12048267 0.076962925 0.027106376 0.008409677 0.057169635 -0.07686732 0.13648084 0.16486414 0.017110495 0.06412137 -0.08223342 -0.06595931 -0.01896278 0.1822288 -0.01876153 0.06584763 -0.109443605 -0.00842817 -0.018829698 0.059621017 0.10493348 0.07169095 -0.009653103 0.007015712 -0.015986899 0.017470405 -0.09215534 -0.05058111 0.10192554 0.0830941 0.081091344 0.068017185
7 0.02722719 0.11715599 -0.10667358 0.021251367 -0.06369545 0.12128632 -0.09681992 -0.12234648 0.00088890136 0.009651084 0.10366954 0.015621843 0.021962363 0.01904966 -0.1288195 -0.026387338 0.113075435 -0.10553116 -0.016193084 0.015927225 -0.10381693 0.11642047 0.031953394 -0.11554253 -0.001094275 -0.10435086 0.107919544 0.011475694 0.118695304 -0.10513938 0.06796129 -0.11786762 -0.1175258 0.008224209 0.123065494 0.104187645 -0.1268481 0.12160473 0.10787646 0.101176515 -0.052554753 0.020165123 0.014898353 0.030154752 -0.010603363 -0.02108746 0.01881553 -0.02193223 0.084708914 -0.01877558 0.11169112 -0.023818705 -0.081005126 0.1150771 0.113479525 -0.108618185 0.10019589 0.09212212 -0.11248434 -0.11473291 0.030699447 0.028096525 0.10242691 0.104136996 -0.100449115 -0.11977233 0.019425116 -0.020352894 -0.105907746 0.0956045 -0.007212119 -0.11330873 0.023281075 0.11937309 0.11111776 -0.14058039 -0.018647706 0.10357576 -0.101765305 -0.105912365 0.004488832 -0.105247445 -0.12315024 -0.017548962 -0.10738992 -0.014958148 0.011412841 -0.024538567 -0.020431912 -0.123207174 0.108955465 -0.02061887 -0.11029275 0.014255995 -0.1011894 0.11278708 -0.018109549 0.103542976 0.008720249 0.020376856 0.100842655 -0.117195204 0.1125037 0.02357925 -0.01856097 0.13214047 -0.10871136 -0.10814456 -0.008027559 0.07742348 -0.0054966197 0.10370523 -0.00056406326 -0.022284998 -0.0045549474 0.09996092 0.10975085 0.10282217 -0.02059668 0.013436088 -0.020912604 0.010044476 -0.09368669 -0.05232686 0.11269943 -0.0024267815 0.12035447 0.11995187
8 0.023409083 0.058101773 -0.03276731 0.050695367 -0.09532543 0.045654736 -0.05172299 -0.17329577 -0.09672008 0.19491069 0.077388376 0.027594447 0.07877771 0.015763113 -0.100946985 -0.09177891 0.04056962 -0.06491611 -0.023118574 0.024640251 -0.059003964 0.042726394 0.06569832 -0.093006566 -0.03445169 -0.03982601 0.13207588 0.012472911 0.047461372 -0.055972923 0.124882095 -0.105547525 -0.035233438 -0.04019584 0.12007989 0.029643932 -0.0994162 0.112367235 0.051804718 0.0630566 -0.14139055 0.018609993 0.047101006 0.02873617 -0.02227808 -0.0044252537 0.02552085 -0.04877894 0.1992646 -0.015913557 0.07074267 -0.016904237 -0.1395162 0.037398607 0.18645434 -0.02627787 0.03422009 0.081986256 -0.059303362 -0.06930685 -0.0976508 0.034785386 0.056400888 0.047590517 -0.12525623 -0.032553818 0.0012284181 -0.011063119 -0.03960836 0.04748587 -0.021274937 -0.059659507 0.046157975 0.022739263 0.044299193 -0.08674785 0.003053618 0.04916126 -0.10940701 -0.05838157 0.017153457 0.011462497 -0.17591278 -0.0098531945 -0.12315968 -0.016791305 0.04207293 -0.034118403 -0.07368028 -0.1482418 -0.07858011 -0.025369002 -0.047531266 0.054828987 -0.09670873 0.033323932 -0.20209932 0.06922431 0.06541194 0.018724406 0.045302432 -0.060861707 0.104765825 0.21720664 -0.0056411135 0.0326679 -0.07246202 -0.046698224 -0.0449593 0.18341385 -0.04615018 0.048493348 -0.12486006 -0.04014263 -0.02999364 0.055143446 0.08500059 0.06275334 -0.009504493 0.015441746 -0.024275111 0.0455467 -0.08563222 -0.0806767 0.07525043 0.06018046 0.07077988 0.05803724
9 0.04260158 0.08677638 -0.08860218 0.04121834 -0.1262898 0.081507996 -0.12013489 -0.15943624 -0.051170677 0.063191324 0.083291404 0.026009776 0.033789244 0.04418069 -0.073278986 0.0015520421 0.08104971 -0.14313425 -0.025031496 0.028304016 -0.13675208 0.09719875 -0.0025172632 -0.076279245 -0.050178804 -0.09032911 0.06755489 0.024861656 0.08622704 -0.09538145 0.039853014 -0.12912394 -0.10027168 -0.022857089 0.06616795 0.0955771 -0.09005007 0.032313444 0.07853961 0.085326016 -0.10772114 0.032489043 0.051116616 0.04953922 -0.035867605 -0.0078461375 0.019248106 -0.021010842 0.019755825 -0.0157994 0.07888314 -0.027906545 -0.18276745 0.09019684 0.10893055 -0.09831634 0.08823617 0.12192626 -0.069742635 -0.07159866 -0.09175908 -0.0004845879 0.0848526 0.09763063 0.0077861226 -0.1117989 0.025663385 -0.01808706 -0.09309137 0.09798037 -0.03450463 -0.091951236 0.03361489 0.09442511 0.09593347 -0.06818387 -0.016840633 0.0796879 -0.13250616 -0.07954965 0.018484015 -0.116416305 -0.1259403 -0.023287492 -0.10609504 -0.0005825965 0.032090154 -0.01978908 -0.0464388 -0.063975714 0.09922416 -0.024484187 -0.10514655 0.0170799 -0.076776825 0.0970558 -0.22807166 0.12642331 0.0352338 0.020312162 0.08744049 -0.09415706 0.09372986 0.009935771 -0.031239867 0.07449561 -0.093188114 -0.09231023 -0.019637551 0.043755468 -0.018145572 0.09348465 -0.14947538 -0.053819258 -0.02384508 0.07837787 0.11787075 0.08495113 -0.030978495 0.011694497 -0.039719753 0.021020252 -0.08487056 -0.05059319 0.06485241 0.055459198 0.087969534 0.09253738
10 0.0021401173 0.07633914 -0.039681666 0.021112222 -0.15572615 0.11458779 -0.061635014 -0.18392758 -0.07644335 0.31461027 0.06962583 -0.0075475075 0.04596289 -0.025867978 -0.06047824 -0.08646835 0.061962344 0.054291334 0.004681086 0.024056762 -0.07155898 0.056286618 0.04776039 -0.1559371 -0.042568702 -0.05951123 0.08046858 -0.028388096 0.05200736 -0.07670948 0.16895202 -0.10833525 -0.08519044 -0.0038982946 0.12888527 0.032536246 -0.08415612 0.06042479 0.06682537 0.060870543 -0.12623677 -0.00017402251 0.018103005 0.014933648 0.007764065 0.0133439265 0.0066721556 -0.04706724 0.18893015 0.003927042 0.07636582 0.018523118 -0.1672791 0.06274591 0.14528464 -0.026938159 0.06277819 0.11012743 -0.09565717 -0.083062135 -0.13340597 0.036704678 0.07431366 0.04816038 -0.087085344 -0.021842632 -0.025296854 0.022607295 -0.04843173 0.06980645 -0.006202139 -0.079840116 0.027030269 0.040537003 0.075303406 -0.15153028 0.026923139 0.07571552 -0.16119409 -0.08183347 -0.012653934 0.005954369 -0.18256964 0.019214911 -0.11704527 0.0039411834 0.013222644 -0.02021569 -0.05593485 -0.20912701 -0.09658493 -0.0064652734 -0.052934237 0.00809459 -0.09125557 0.033850353 -0.27545384 0.08958138 0.027337868 -6.289581e-05 0.057659622 -0.07645374 0.19384573 0.22660072 0.030567896 0.026817968 -0.07434808 -0.07206525 -0.010634466 0.23582354 -0.010372535 0.07065018 -0.22196952 0.0044571334 -0.013910353 0.059251484 0.10498237 0.074822016 0.013164002 -0.003193453 0.0035058274 0.0113655245 -0.09787549 -0.095355816 0.10262078 0.08953905 0.08880412 0.08022446
11 0.04731779 0.04935124 -0.028550636 0.040098265 -0.08022623 0.062675886 -0.058538415 -0.16921276 -0.11776976 0.18648998 0.0525596 0.015445953 0.1058094 0.017336529 -0.11568705 -0.13042152 0.041878656 -0.13492294 -0.014139876 0.038901012 -0.07535926 0.04877142 0.05365939 -0.1316814 -0.055293802 -0.032872092 0.15703791 0.019282497 0.04818927 -0.051278017 0.17690219 -0.11118099 -0.03987041 -0.028095884 0.14784251 0.03671999 -0.13191848 0.094369285 0.06259563 0.06597229 -0.18643221 0.008286611 0.032588318 0.014252508 -0.013504972 -0.029369043 0.014476968 -0.07783382 0.09802944 -0.017741755 0.042479955 -0.003442505 -0.09880563 0.029184178 0.14517945 -0.0214647 0.0414183 0.07191812 -0.04791562 -0.07139164 -0.0890099 0.062674366 0.043744188 0.035518337 -0.12543392 -0.041133344 0.018725097 -0.012228007 -0.053025328 0.055305514 -0.021711953 -0.04271639 0.062569745 0.029167736 0.05470389 -0.085545816 -0.0139223365 0.051979266 -0.13531007 -0.041241392 0.021765666 0.014819315 -0.156541 -0.018201863 -0.11051116 -0.028925953 0.050927427 -0.06376678 -0.05581699 -0.1637811 -0.06645122 -0.024460338 -0.030450141 0.050345507 -0.07818768 0.034159575 -0.16919482 0.054615263 0.041775547 0.017561361 0.035115782 -0.07176715 0.08917528 0.25981724 -0.009153474 0.08797204 -0.059703846 -0.043114316 -0.0691123 0.11285569 -0.057555947 0.046268903 -0.16280639 -0.025854364 -0.036588065 0.050245937 0.063080795 0.053865016 -0.0078159785 0.013963123 -0.036090072 0.0364395 -0.07561688 -0.12045689 0.08163864 0.08698842 0.06682029 0.065452136
12 -0.0001858659 0.05401133 -0.027226504 0.043177333 -0.13528539 0.08370644 -0.0987192 -0.12639438 -0.093028 0.26089022 0.044555817 0.01654011 0.106220394 -0.00035085098 -0.09551744 -0.056714643 0.05722401 -0.07130702 -0.0035435348 0.044300485 -0.1216897 0.06683441 0.042341653 -0.123660825 -0.04848299 -0.05019142 0.0617542 0.009495325 0.037848026 -0.06218444 0.13766924 -0.09710848 -0.04721498 -0.020917434 0.13346688 0.05622633 -0.11901368 0.07581847 0.081125006 0.046478543 -0.056477547 0.016305301 0.054682393 0.028344277 -0.016371205 0.0026889683 0.020240378 -0.06199984 0.10884032 0.0018729041 0.062226985 0.004175682 -0.18747248 0.0539074 0.09742026 -0.04025834 0.059784632 0.07646258 -0.08102692 -0.090067476 -0.097970635 0.014369729 0.071086586 0.041391138 -0.07086256 -0.04729054 0.0005022291 -0.010591961 -0.050163988 0.08480645 -0.013334475 -0.078556925 0.04414627 0.048284348 0.06881896 -0.10242515 -0.0014861944 0.08640986 -0.13234691 -0.07217079 0.007906854 0.007647506 -0.15355653 0.0030999084 -0.13696873 -0.005078569 0.02548641 -0.019784957 -0.034878124 -0.1526141 -0.073413394 -0.0042409077 -0.051293485 0.01786229 -0.073067635 0.035531368 -0.22556128 0.081511326 0.043723784 0.0049634078 0.049570993 -0.095258355 0.11431175 0.27878034 0.013104895 0.047003314 -0.07848716 -0.076327994 -0.015845595 0.19395393 -0.014901003 0.071357146 -0.21285756 -0.015744912 -0.024304168 0.044704307 0.10824104 0.058711246 -0.0062098154 0.0050319647 -0.019516682 0.0307128 -0.091824256 -0.08524543 0.09606335 0.105171666 0.08559439 0.07541122
13 0.04003917 0.054555304 -0.05369344 0.05708688 -0.08666587 0.08241877 -0.07343981 -0.030250823 -0.12714013 0.16485105 0.04674511 0.024200942 0.088576734 0.011974537 -0.06485808 -0.12858151 0.04152308 -0.11450847 -0.030813308 0.04947332 -0.10810334 0.047727022 0.08139272 -0.08664009 -0.066598654 -0.057681486 0.03578394 0.022208227 0.05009416 -0.05970055 0.1377059 -0.061046768 -0.05146934 -0.03754988 0.08087456 0.031804875 -0.11207918 0.08193626 0.06622483 0.046007887 -0.10386397 0.026168803 0.07843411 0.04907577 -0.0262308 -0.029595701 0.039111182 -0.10303462 0.16382265 -0.030367719 0.07457662 -0.02330411 -0.11153998 0.03986738 0.0994308 -0.031273525 0.046789758 0.07465888 -0.048553713 -0.061256886 -0.11407827 0.027730038 0.04918615 0.03838737 -0.10059855 -0.03509688 0.02177281 -0.02516189 -0.04387823 0.053542756 -0.024395049 -0.064191274 0.093598686 0.033871338 0.06519813 -0.09392084 -0.020549688 0.06559414 -0.033069324 -0.045156006 0.026826588 -0.008042949 -0.09944215 -0.027631218 -0.085072145 -0.037506394 0.0562111 -0.0458677 -0.077731535 -0.10904397 -0.07506177 -0.039049137 -0.024133693 0.07731321 -0.094552666 0.046728093 -0.13206935 0.087537564 0.049961936 0.040972143 0.035221424 -0.07590066 0.106287114 0.13861741 -0.016724182 0.057772905 -0.04437069 -0.050194897 -0.056159545 0.12384267 -0.05822489 0.030146938 -0.1491746 -0.070612185 -0.059016813 0.02682464 0.069605246 0.046834942 -0.023010444 0.025397072 -0.08225416 0.039104495 -0.07996496 -0.11590491 0.093766116 0.0990415 0.05784835 0.052388094
14 0.06629602 0.03080883 -0.020941162 0.08383888 -0.08492295 0.038089536 -0.0896213 -0.07258515 -0.15667006 0.122061476 0.033454288 0.05601259 0.10655008 0.06172254 -0.11780465 -0.080518626 0.030641556 -0.06605819 -0.06072938 0.06577142 -0.09747043 0.036419794 0.07466921 -0.08306601 -0.103662506 -0.0309264 0.06916722 0.06401821 0.03058024 -0.031168051 0.10650816 -0.07593081 -0.030076722 -0.077323034 0.08892824 0.032642104 -0.08869108 0.07161884 0.04756115 0.0572127 -0.088107124 0.062963985 0.08885433 0.07904358 -0.06014595 -0.05617297 0.06571412 -0.07562017 0.07275135 -0.05444755 0.046691168 -0.048879445 -0.11962053 0.03440481 0.09375689 -0.027207995 0.031021299 0.0888667 -0.03862141 -0.05090782 -0.14095931 0.05902965 0.026506435 0.015322137 -0.07842636 -0.014603795 0.047635842 -0.066073686 -0.024907915 0.048356753 -0.07273729 -0.038936008 0.08532866 0.03494093 0.043060627 -0.06052325 -0.05729043 0.053275105 -0.04697093 -0.031642236 0.06082534 -0.00067718263 -0.09008278 -0.06424942 -0.093343854 -0.07102312 0.09147075 -0.059106216 -0.08816463 -0.1333202 -0.109020114 -0.067871 -0.030143743 0.06770432 -0.058285233 0.023692705 -0.15400445 0.06878342 0.08406223 0.07161581 0.034736626 -0.045792628 0.1008026 0.14973986 -0.06566825 0.038036615 -0.035423268 -0.03846359 -0.07629047 0.13170107 -0.07117438 0.026423696 -0.12914973 -0.094064765 -0.08501194 0.032179613 0.063493 0.03709397 -0.05842679 0.05643655 -0.08998589 0.07555489 -0.055751268 -0.060644995 0.051862225 0.13412055 0.039894953 0.03528705
15 0.0058485856 0.0917594 -0.046175282 0.013025298 -0.13790873 0.12789822 -0.07915854 -0.13675138 -0.058610957 0.3037704 0.10516296 -0.018416043 0.07683635 -0.030824522 -0.06728775 -0.13500054 0.076606326 0.039439026 0.02297468 0.0393593 -0.07599939 0.08058623 0.065881975 -0.116660595 -0.029145883 -0.06610527 0.06079331 -0.042504355 0.058677934 -0.10250728 0.14704032 -0.13086648 -0.08233014 -0.020313252 0.116930306 0.055740718 -0.11771866 0.1082114 0.07054055 0.091395006 0.0018290643 -0.02548524 0.013876382 -0.012905 0.026535725 0.0217487 -0.0144991875 -0.057705488 0.12466539 0.019304246 0.094890736 0.04245281 -0.16377233 0.07982723 0.08169889 -0.046237387 0.08701708 0.10033929 -0.12274293 -0.11684745 -0.13528836 0.09401278 0.10677919 0.057641845 -0.119101636 -0.022791188 -0.03997958 0.03223481 -0.07094937 0.09308351 0.017783033 -0.11514833 0.05876703 0.054351393 0.08378115 -0.16128652 0.029460156 0.09734996 -0.14320521 -0.10392881 -0.012470052 0.01275397 -0.09338408 0.027919522 -0.13221836 0.026254287 -0.0043023387 -0.02245511 -0.045899123 -0.1460762 -0.09281034 0.0081052575 -0.08645439 -0.013620641 -0.11845173 0.031788617 -0.18907967 0.10319015 0.011770949 -0.015542397 0.08605501 -0.09441547 0.14036202 0.41125593 0.03381911 0.05751779 -0.086026974 -0.09921284 -0.0013665417 0.16602859 -0.007793287 0.09420745 -0.17929891 0.013805361 -0.0017213644 0.07846127 0.12400496 0.08935769 0.021274237 -0.03442506 0.034887847 -0.0015834088 -0.118148774 -0.08319176 0.13347083 0.07061905 0.10737757 0.11490155
16 0.058355607 0.08400009 -0.08264952 0.019526152 -0.106702834 0.07858549 -0.026832802 -0.12076242 -0.08357352 0.17546552 0.08430753 0.0028753008 0.09854445 -0.0012227335 -0.06861405 -0.16142172 0.052758098 -0.023596048 -0.00674422 0.0692058 -0.030374639 0.07478888 0.07721593 -0.12920827 -0.058176193 -0.055364344 0.06257683 -0.00277202 0.03894392 -0.06340713 0.100236915 -0.122133724 -0.06474591 -0.02038235 0.1334469 0.027961101 -0.07576728 0.07719731 0.049163166 0.08379409 -0.06690985 -0.0025462208 0.0205657 0.041282326 0.005875499 -0.0062130513 0.014776097 -0.08884224 0.10152351 -0.015143586 0.07192711 0.0023479757 -0.10948681 0.05742808 0.1026016 -0.031807456 0.06829672 0.06834033 -0.07579886 -0.07914742 -0.12188327 0.09902492 0.0737689 0.050729387 -0.12442059 -0.032842387 -0.0001496715 0.011285929 -0.053958092 0.06005466 -0.009373877 -0.08732844 0.086143225 0.03711933 0.06417216 -0.119602494 0.009117185 0.07366236 -0.15804829 -0.077859126 0.015481165 0.024486521 -0.09750786 -0.0064747324 -0.10485142 -0.027618613 0.0441352 -0.07449598 -0.077548034 -0.15285203 -0.1152919 -0.017441364 -0.07091562 0.036270604 -0.07698089 0.028815152 -0.15810367 0.0648599 0.055437554 0.015906518 0.06296613 -0.05870116 0.11793424 0.33499527 0.01944507 0.06558124 -0.07823765 -0.06262239 -0.037932847 0.1847633 -0.016461046 0.060780473 -0.1489074 -0.05500531 -0.022038842 0.058437537 0.08948033 0.09448043 -0.0016552206 -0.00037685057 -0.024605105 0.036485408 -0.08278269 -0.0802354 0.08353766 0.106785506 0.092017055 0.07533027
17 0.04651803 0.059955012 -0.06264334 0.06817613 -0.19170392 0.08149677 -0.1392257 -0.1757372 -0.11533383 0.13206258 0.052647766 0.06915399 0.06266555 0.0261151 0.029971788 0.0064040124 0.04052915 -0.08776535 -0.04749843 0.12775198 -0.14711145 0.07696964 0.07951384 -0.03368968 -0.121565275 -0.08697946 0.08571422 0.040628605 0.06806084 -0.06533873 0.011441072 -0.09631688 -0.08621631 -0.08473067 0.015547827 0.050163157 -0.073384866 0.0012507378 0.08511357 0.03524827 -0.0628087 0.04595651 0.083691925 0.03137322 -0.041819435 -0.041404147 0.040724143 -0.16141699 0.053071436 -0.0310104 0.04444591 -0.012474035 -0.17449236 0.08281353 0.019113263 -0.04760217 0.059713434 0.07217234 -0.06223968 -0.03861357 -0.16561462 0.14998375 0.07172158 0.08507877 0.058241103 -0.104601085 0.040478095 -0.02855408 -0.09133556 0.11641474 -0.050699566 -0.0659232 0.09687198 0.012695796 0.09033683 0.022288684 -0.023447033 0.054933976 -0.20707539 -0.07637117 0.030146139 -0.018338008 0.0028380265 -0.051794276 -0.0506236 -0.028494 0.12562743 -0.09704794 -0.12067095 -0.05953546 -0.02715054 -0.045605294 -0.06548788 0.009225043 -0.035940405 0.058289222 -0.24943553 0.16996324 0.054821953 0.021174798 0.07299988 -0.094145834 0.091022566 0.14731978 -0.012055628 0.001717779 -0.048303377 -0.06445497 -0.012341957 0.011031467 -0.066066734 0.08460236 -0.17418621 -0.07964864 -0.03103423 0.059190292 0.09948415 0.08210992 -0.032474596 0.017932983 -0.08709798 0.048485164 -0.08353728 -0.091089964 0.0396764 0.21963903 0.07214926 0.07962162
18 0.11952519 0.11695409 -0.13737372 -0.02794254 -0.062723935 0.14641544 -0.06800126 -0.14459254 0.03255849 0.10515356 0.10213491 -0.040894065 0.050749104 0.014954055 -0.1359543 -0.09302571 0.10778349 -0.26978716 0.06281916 0.069230355 -0.081797525 0.104378775 0.14212804 -0.12684286 0.060455725 -0.10200107 0.15220244 -0.02347184 0.10385785 -0.11898101 0.1358751 -0.13560481 -0.102496706 0.05799752 0.10343992 0.109641254 -0.11344066 0.111497514 0.10796329 0.13458031 -0.2255565 -0.03858722 -0.0016142557 0.09518456 0.05128237 0.029178916 -0.03290378 -0.14209895 0.11683463 0.02027767 0.1153009 0.026987625 -0.066341385 0.0978407 0.092681356 -0.10339193 0.11140339 0.085703515 -0.09809152 -0.12900466 0.079288416 0.09367086 0.096992746 0.110150546 -0.14699186 -0.13900898 0.0010065042 0.04393097 -0.102577515 0.072960064 0.056795556 -0.11315272 0.10874357 0.11296919 0.109677725 -0.2319532 0.037057597 0.08509266 -0.17438199 -0.10028443 -0.046016082 -0.11777028 -0.11680269 -0.005346466 -0.16537674 0.007702879 -0.008852652 -0.08886082 -0.027380578 -0.16170955 0.15472902 0.022701142 -0.10371346 0.04685532 -0.11738755 0.12077711 -0.0929733 0.09444877 -0.032558337 -0.009676744 0.10337789 -0.10291284 0.13940066 0.118938915 0.04518489 0.14193091 -0.09819708 -0.10317531 0.023250809 0.12760447 0.04318054 0.084708326 -0.08654339 -0.069364786 0.035167325 0.09243793 0.10970666 0.11820841 0.047008447 -0.03882182 -0.006181415 -0.04920881 -0.075865544 -0.12589833 0.119217135 -0.005502993 0.12215952 0.096999295
19 0.04378958 0.06938287 -0.011475898 0.056764115 -0.1399522 0.07292666 -0.034626942 -0.10384066 -0.106175214 0.20836797 0.08527646 0.03504959 0.10452358 -0.0047736173 -0.049866293 -0.10314081 0.05422725 0.0431469 -0.040491264 0.015772766 -0.02856194 0.058197625 0.101135276 -0.12799455 -0.08097575 -0.029078418 0.0678014 0.012580811 0.03975375 -0.07405768 0.09287174 -0.10289255 -0.057816345 -0.04014961 0.11188057 0.01518124 -0.07038735 0.08058225 0.06294183 0.07165223 0.020439986 0.02954425 0.04727022 0.049660496 -0.016952278 -0.024568986 0.041403815 -0.06183702 0.1377836 -0.034540817 0.06525905 -0.015798163 -0.124980435 0.046727166 0.09604062 -0.017609216 0.07014188 0.0983885 -0.08158337 -0.07004946 -0.22466868 0.06622734 0.08041643 0.03901719 -0.11212154 0.023890618 0.0030469892 -0.009822922 -0.048297066 0.071669914 -0.040923454 -0.09253785 0.049135372 0.04241835 0.054810334 -0.15922752 -0.012373056 0.09290417 -0.1384386 -0.080401324 0.04605495 0.094570614 -0.09535807 -0.021405773 -0.10999026 -0.040564775 0.03164232 -0.05114838 -0.10043437 -0.13190114 -0.24599716 -0.03845866 -0.06273186 0.028176595 -0.06880303 0.010401584 -0.1113933 0.07850533 0.07035889 0.03850326 0.0654255 -0.077656746 0.13481772 0.23276642 -0.013455834 0.03678976 -0.075327195 -0.07323479 -0.045447253 0.13858831 -0.04324406 0.061442252 -0.23738995 -0.053694233 -0.054764356 0.06146529 0.0944743 0.067096755 -0.03257229 0.026645035 -0.020326717 0.056364063 -0.10553441 -0.05768636 0.09392048 0.12622535 0.08524391 0.08417293
20 0.08811292 0.040394723 -0.06642511 0.06104287 -0.10076821 0.080787875 -0.02703783 -0.09740206 -0.16002552 0.22398728 0.07174862 0.02154497 0.17132592 0.01722395 -0.011330128 -0.16949977 0.0686443 -0.01538786 -0.037970483 0.029729115 -0.035511315 0.048083626 0.13855992 -0.102489494 -0.10939995 -0.023896888 0.058477975 0.0023166023 0.008737343 -0.05825177 0.09135313 -0.09784078 -0.043857176 -0.053388067 0.11433277 0.007026454 -0.07304662 0.08656629 0.03741254 0.061357167 0.047509678 0.035435937 0.068649136 0.08591422 -0.012514167 -0.023810841 0.03164832 -0.09787824 0.14498761 -0.023017228 0.056009147 -0.020266104 -0.10742255 0.037506595 0.038450338 -0.016683783 0.05544749 0.08167077 -0.0699238 -0.074687116 -0.25591624 0.08938287 0.061489116 0.015985489 -0.09176404 0.009006577 0.009295377 0.0046887025 -0.03024849 0.05624463 -0.045539647 -0.06419717 0.12233889 0.024513314 0.052419752 -0.09468911 -0.0035667247 0.07216057 -0.10358066 -0.05814257 0.03694088 0.07134105 -0.085817695 -0.0038790659 -0.083271384 -0.04358205 0.06460816 -0.086866215 -0.17625727 -0.12038155 -0.17086107 -0.04517445 -0.036351383 0.06810732 -0.08915476 0.0004009981 -0.17952536 0.055099133 0.08391531 0.05049334 0.050798796 -0.054389462 0.11568615 0.29124662 -0.00354577 0.052456416 -0.054043405 -0.06132574 -0.051341325 0.18813625 -0.04629595 0.050868627 -0.1886477 -0.124935634 -0.05354048 0.03934486 0.068955876 0.04251677 -0.018405382 0.02237644 -0.033691686 0.051943608 -0.088838376 -0.054203793 0.07141651 0.16277476 0.08567585 0.061515536
21 0.025082394 0.063517354 -0.027524723 0.047031235 -0.15619646 0.0890259 -0.0644471 -0.10891733 -0.12795934 0.26537544 0.08591256 0.01540515 0.116215706 -0.015568143 -0.05095937 -0.08845922 0.074322075 0.021797176 -0.01190271 0.0016437295 -0.057722047 0.07631247 0.12929188 -0.10536041 -0.08395786 -0.050850097 0.044434793 -0.012387498 0.042843293 -0.08512675 0.08535787 -0.09362984 -0.06923252 -0.016652249 0.11491012 0.030041268 -0.08374106 0.09305798 0.067012355 0.066533804 0.071166694 0.014574967 0.035066973 0.028919134 -0.012005047 0.0038055382 0.029408198 -0.061633006 0.15171045 -0.011433362 0.07948186 0.02081609 -0.14580008 0.07328711 0.08308469 -0.03676376 0.082602315 0.09243186 -0.10708168 -0.09418263 -0.25598812 0.035558656 0.10136614 0.039310608 -0.10169199 0.0020403431 -0.028885197 0.009723194 -0.05589707 0.1032223 -0.02452 -0.11014356 0.048873775 0.037655488 0.08259986 -0.14817818 0.015682565 0.108475536 -0.11119411 -0.099235415 0.020435631 0.070468865 -0.06722767 0.009099501 -0.107886255 -0.0022081854 0.031794924 -0.033842944 -0.1092922 -0.12726064 -0.17303912 -0.019069709 -0.08021459 0.0018400055 -0.08437089 0.018033616 -0.164355 0.08984625 0.06716855 0.006427139 0.08076904 -0.07786574 0.13369589 0.22078508 0.028602155 0.04936338 -0.07629879 -0.092492424 -0.027856538 0.15946755 -0.026271366 0.08338171 -0.21298401 -0.06503991 -0.03269893 0.06276645 0.10773759 0.063715845 -0.0027454195 -0.010288071 -0.010341517 0.035599407 -0.11764558 -0.04416576 0.09254883 0.13047533 0.084133945 0.08862146
22 0.07986287 0.088472664 -0.06417544 0.048463307 -0.079931766 0.096993044 -0.021174755 -0.12069588 -0.07968397 0.17346326 0.10072111 -0.00048130425 0.11028475 0.038587146 -0.06254169 -0.122182615 0.07623925 -0.04764701 0.009792942 0.02304775 -0.016873999 0.066719666 0.1917556 -0.1139492 -0.044460516 -0.049286287 0.10637466 -0.003913174 0.054912437 -0.09537646 0.105423406 -0.10393036 -0.06577427 0.0022934366 0.10816551 0.035195936 -0.07063381 0.10601361 0.06846636 0.108186185 -0.024037495 -0.011183619 0.009287866 0.07884115 0.012935483 -0.013266677 0.022252508 -0.11557621 0.10590591 -0.0250439 0.09600709 -0.0073303008 -0.06438354 0.0720182 0.099230014 -0.022820666 0.07404752 0.056084327 -0.10271913 -0.08963978 -0.14139423 0.10539648 0.10324764 0.046582446 -0.14076458 -0.025914075 0.01605988 0.033952042 -0.062005077 0.054769073 -0.00070362276 -0.091982655 0.071791865 0.06614467 0.07146752 -0.15580963 0.0032259624 0.094467476 -0.1293122 -0.09356838 0.028202446 0.037994843 -0.09167691 -0.024208661 -0.114136234 -0.050325703 0.019353079 -0.097250804 -0.07195596 -0.10221081 -0.16931787 -0.029063016 -0.082787395 0.050884668 -0.08897661 0.026673252 -0.099263094 0.054834593 0.06752937 0.028085837 0.07917312 -0.07648154 0.117393665 0.20408042 0.017226726 0.032513708 -0.08365595 -0.075153485 -0.046713777 0.13171956 -0.0069722217 0.07723345 -0.1296708 -0.028285123 -0.050395016 0.07057877 0.09447659 0.093500584 0.011165777 -0.0020062113 -0.020185929 0.02871513 -0.091057554 -0.06909029 0.105039775 0.06307637 0.08756301 0.09987867
23 0.0639737 0.08081142 -0.06738684 0.04390058 -0.0852559 0.07964878 -0.06317581 -0.08369013 -0.07198687 0.10616874 0.07431168 0.027305692 0.09244836 0.031636488 -0.089243926 -0.09441452 0.07852229 -0.07286404 -0.023013277 0.048043966 -0.07631456 0.070901446 0.090401895 -0.07955041 -0.06858191 -0.06865133 0.07257339 0.018836271 0.06278063 -0.079932876 0.09760553 -0.08979531 -0.0691275 -0.008817091 0.08035933 0.068189606 -0.075115986 0.09012244 0.08007861 0.088585 -0.051895306 0.021683795 0.05460327 0.08983964 -0.015460067 -0.020606913 0.03784574 -0.08797962 0.08166483 -0.015812984 0.07603375 -0.017818829 -0.08429251 0.07912816 0.08233037 -0.073516764 0.063993216 0.057606906 -0.078426525 -0.08417843 -0.034345236 0.056614537 0.08040375 0.06782808 -0.094441414 -0.048600897 0.011124075 -0.0032063776 -0.07204457 0.08298807 -0.011542177 -0.08193402 0.08011468 0.080319524 0.07654383 -0.10804708 -0.01869097 0.08263544 -0.08888988 -0.07265497 0.016211953 -0.03350065 -0.08451034 -0.018680664 -0.0988043 -0.03294506 0.061426222 -0.0644598 -0.06679003 -0.08364324 -0.045037165 -0.027103808 -0.079238705 0.045350917 -0.06798558 0.0618333 -0.09370971 0.080240004 0.056553826 0.02508517 0.082921006 -0.07752747 0.081783354 0.11629374 0.0023891497 0.07012067 -0.06989018 -0.0850054 -0.03149091 0.09835299 -0.018838564 0.077267185 -0.08987774 -0.06899617 -0.029649502 0.07136404 0.103526935 0.081937365 -0.0090028 0.018103288 -0.037138496 0.024076283 -0.085420534 -0.06427621 0.08616092 0.07351879 0.07930426 0.08610713
24 0.14868525 0.079459004 -0.121938296 0.1244709 -0.1534679 0.0572471 -0.16342811 -0.13618968 -0.12854683 0.02073159 0.08158667 0.07997388 -0.005956689 0.1301402 -0.04517071 0.09663346 0.07544083 -0.109614044 -0.055719987 0.051820748 -0.14037439 0.09594719 -0.13568552 -0.048519332 -0.14891094 -0.09845748 0.047094796 0.059837937 0.06598946 -0.0774341 0.015053608 -0.12903385 -0.086164676 -0.085175715 0.019619012 0.10740424 -0.04767644 0.018887963 0.032079484 0.09561041 -0.11349277 0.043847244 0.14998707 0.1228759 -0.063959196 -0.0012182229 0.047325473 -0.02033298 -0.008578731 -0.01664095 0.06645459 -0.07805668 -0.18481074 0.10197191 0.07941984 -0.114982665 0.085351475 0.10065882 -0.039392844 -0.022571152 -0.28822076 -0.062967345 0.049495954 0.11353659 0.07406259 -0.16483904 0.04632846 -0.048994005 -0.08143304 0.14307371 -0.07451611 -0.04741256 0.044055734 0.12444705 0.09207812 -0.002985761 -0.04210431 0.07139891 -0.1290306 -0.03962066 0.0233314 -0.19672379 -0.08239725 -0.070164256 -0.11384863 0.018593632 0.058910783 0.0020370155 -0.106817566 -0.038913473 0.27046886 -0.03510845 -0.12563045 -0.030678404 -0.03198852 0.10336517 -0.19410697 0.13674697 0.069405735 0.011254478 0.08035103 -0.0697411 0.04722987 -0.03111712 -0.06281512 0.06780714 -0.103741325 -0.0715542 -0.013131746 -0.057830192 -0.044019014 0.07776669 -0.16162471 -0.13168812 -0.0325608 0.07274953 0.107057214 0.05426283 -0.05098746 0.029066142 -0.055657294 0.04309554 -0.06661887 -0.025763214 0.012339725 0.16902955 0.05696577 0.062349863
25 0.121190056 0.14195523 -0.15279388 -0.0442963 -0.043658163 0.15980665 -0.07549463 -0.13571733 0.029230153 0.11531085 0.13651244 -0.055762596 0.08299691 0.048074894 -0.15322508 -0.11812244 0.13676801 -0.18468386 0.0885204 0.06507284 -0.097215295 0.13687155 0.1426316 -0.14156747 0.07072256 -0.13462336 0.16645065 -0.02648315 0.13004248 -0.14179613 0.14023228 -0.15268493 -0.13218027 0.0936072 0.12547183 0.12722036 -0.15911521 0.14863968 0.12192739 0.14936812 -0.22692394 -0.07520295 -0.0030833527 0.08332054 0.0697764 0.032289963 -0.05276633 -0.12670319 0.10650241 0.023463426 0.14239424 0.025970645 -0.057329636 0.12836514 0.1462869 -0.13237035 0.14662303 0.086412705 -0.1105241 -0.12928417 0.07817991 0.087856434 0.12717962 0.13773106 -0.17195444 -0.18497531 0.0015949991 0.07672955 -0.14571534 0.089440726 0.092675075 -0.1394226 0.13025275 0.16319005 0.14272918 -0.20529738 0.044121668 0.107098766 -0.14619066 -0.11768768 -0.054058474 -0.17184842 -0.12285434 -0.022663055 -0.16404592 -0.021216283 -0.037454832 -0.1015937 -0.014612328 -0.16009092 0.23148748 0.04443663 -0.12793687 0.068317674 -0.14340685 0.16394523 -0.104745984 0.113203384 -0.065533444 -0.0070651895 0.13441782 -0.13547048 0.1338735 0.078297205 0.04951813 0.13995028 -0.12996286 -0.11960962 0.021604162 0.12330297 0.06623994 0.12524974 -0.0647021 -0.026793232 0.061947785 0.12693612 0.117327355 0.13942984 0.07734599 -0.06429929 -0.028888656 -0.08105206 -0.08611427 -0.13774434 0.15465525 -0.017867817 0.13573737 0.13692951
26 0.079123974 0.04975412 -0.040136743 0.079268426 -0.059171487 0.040877324 -0.06122248 -0.049466573 -0.15703788 0.097555414 0.04488815 0.05405735 0.15798266 0.063100785 -0.071517065 -0.11098599 0.041955516 -0.049809907 -0.05958233 0.037380252 -0.05949383 0.03952547 0.16072161 -0.039498456 -0.14019574 -0.04164988 0.048817553 0.03611384 0.05131495 -0.052920364 0.06910364 -0.05653847 -0.04130162 -0.045232024 0.06496906 0.034394905 -0.08054242 0.037787832 0.063472874 0.039585337 -0.10393203 0.048669063 0.13051538 0.114345275 -0.037132528 -0.046205718 0.054711908 -0.057410195 0.05986611 -0.042035807 0.03817381 -0.03867238 -0.06481846 0.03625511 0.052912615 -0.031944778 0.021932472 0.060932864 -0.05220147 -0.0593526 -0.177304 0.08015068 0.048828334 0.038481124 -0.08030579 -0.029291267 0.048690002 -0.03740439 -0.03284421 0.035229146 -0.035024643 -0.047528833 0.09588885 0.039945222 0.045866914 -0.0885239 -0.03552941 0.050577287 -0.06641344 -0.052777655 0.04052936 -0.019566838 -0.07007281 -0.048694856 -0.06879109 -0.074513406 0.09939315 -0.07865971 -0.12907843 -0.104370765 -0.067576975 -0.056771923 -0.021188674 0.14382914 -0.086865 0.07168384 -0.11114832 0.046110686 0.11040911 0.07288934 0.047936223 -0.037572388 0.0819685 0.12048341 -0.03504736 0.046859406 -0.029919488 -0.04768576 -0.077095434 0.1109539 -0.067394756 0.03648519 -0.093172915 -0.09230029 -0.057037834 0.034219246 0.0555403 0.07085181 -0.028797392 0.030514661 -0.10730237 0.054415986 -0.051304262 -0.03693848 0.049014233 0.13159835 0.036845572 0.030266706
27 0.11723181 0.10679318 -0.12642896 -0.01881586 -0.031956594 0.15244181 -0.07479566 -0.113581315 0.039869882 0.07406538 0.09233266 -0.042784717 0.1291545 0.069088675 -0.12570597 -0.120395 0.1097648 -0.16812788 0.060692426 0.11314884 -0.07252127 0.1031729 0.1656075 -0.14300011 0.046968 -0.11085765 0.15920006 -0.020738114 0.11659816 -0.10804332 0.13226177 -0.11704922 -0.11501803 0.06782712 0.103022784 0.09121772 -0.14200677 0.1377625 0.09076449 0.14147797 -0.19701348 -0.056538414 0.051791534 0.1178415 0.054911874 0.015292334 -0.02157846 -0.1210891 0.13835295 0.0058733337 0.1446319 0.008823107 -0.053476896 0.10552624 0.10635528 -0.09318018 0.11101405 0.083900675 -0.08379284 -0.13023019 0.14244798 0.082714416 0.093663685 0.111514874 -0.15027586 -0.14570059 0.016967384 0.043379735 -0.10471155 0.07027255 0.071950786 -0.1079706 0.13227409 0.13255312 0.10768809 -0.18115631 0.034691367 0.073753215 -0.15363383 -0.08711604 -0.04707262 -0.13886514 -0.12790246 -0.012265107 -0.13419528 -0.01813205 -0.002733241 -0.107618555 -0.07317329 -0.14971973 0.20125115 0.014281036 -0.10418621 0.09750289 -0.106036894 0.13614689 -0.11217009 0.090374835 -0.021322552 0.0018320469 0.09384759 -0.11520414 0.11825765 0.07528152 0.040499426 0.14590515 -0.10115616 -0.089276746 0.011431948 0.14093329 0.05587636 0.09263142 -0.08009281 -0.06590274 0.03679378 0.092765175 0.0910724 0.11585247 0.06043241 -0.03295171 -0.057384193 -0.051779088 -0.07035159 -0.14989816 0.13551977 -0.03617003 0.11631809 0.097923264
28 0.11341077 0.014648179 -0.07229009 0.121237464 -0.096272685 0.010501557 -0.048502922 -0.10629767 -0.13935293 0.11719935 0.057847228 0.07702285 0.111741014 0.12941466 -0.089546144 -0.113802195 0.051648714 -0.14255607 -0.045151096 0.063848354 -0.0713404 0.063892454 0.13007328 -0.14461525 -0.073802546 -0.06154334 0.09772211 0.11028067 -0.011581006 -0.02312632 0.060455546 -0.14129683 -0.06321619 -0.04567677 0.0811049 0.029923104 -0.01990718 0.10137833 0.06765406 0.06322349 -0.11279442 0.018501192 0.05515669 0.074204855 -0.05230608 -0.033061728 0.036955725 -0.14294344 0.039210137 -0.09770861 0.03588722 -0.062147442 -0.12662561 0.060881395 0.07504825 -0.04014427 -0.020659171 0.0045245443 -0.042329457 -0.043842625 -0.11567489 0.114934586 0.022019116 0.07127206 -0.03659469 -0.120420635 0.092289485 -0.053105514 -0.0369653 0.009812007 -0.06614514 -0.0353081 0.0670785 0.0084967 0.07074707 -0.07727893 -0.051581245 0.03811035 -0.13651688 -0.03250015 0.07231488 -0.06113975 -0.17363298 -0.13085157 -0.15445748 -0.092887245 0.08963142 -0.13662992 -0.03519858 -0.11779535 0.14997412 -0.0323422 -0.091142125 0.13810343 -0.02294692 0.011663199 -0.14002272 0.04937686 0.04721179 0.04995425 0.038295213 -0.04114512 0.0055903974 0.10311068 -0.08507064 0.090125434 -0.056623135 -0.030758647 -0.06755271 0.0760953 -0.058277182 0.049054213 -0.04607625 -0.05931571 -0.047206357 0.01002376 0.020943338 0.044267833 -0.027233765 0.0555154 -0.05185401 0.040473238 -0.04492827 -0.07886204 0.07437233 0.12040128 0.03980753 0.01053254
29 0.11095963 0.16051249 -0.15392691 -0.068915 -0.030555155 0.17701924 -0.0846335 -0.14928332 0.07402799 0.08295979 0.14688219 -0.07695361 0.0905179 0.062174503 -0.16449888 -0.113436915 0.14940597 -0.18432118 0.08753671 0.085624754 -0.09688467 0.1419241 0.13441151 -0.15714872 0.10878022 -0.13234936 0.17183068 -0.021326654 0.15437604 -0.15501706 0.14147207 -0.1553368 -0.14970352 0.109857254 0.14358903 0.1526528 -0.1564782 0.15002464 0.12529974 0.17435323 -0.15425028 -0.0732799 -0.0059590912 0.10617615 0.0721835 0.019294675 -0.060035978 -0.110697635 0.12524258 0.017335966 0.16921785 0.014445601 -0.05392706 0.14438477 0.14864257 -0.13235196 0.15659557 0.09986564 -0.123649 -0.15900637 0.16757005 0.094758876 0.13092948 0.1501495 -0.17746103 -0.20480068 0.025461828 0.05050746 -0.15099038 0.0888339 0.094549984 -0.15060599 0.13802053 0.17644416 0.14365804 -0.20461455 0.032196783 0.12358974 -0.1474498 -0.12947394 -0.043962013 -0.1769044 -0.16084473 -0.026822435 -0.15139963 -0.014494345 -0.03802113 -0.1146875 -0.012647098 -0.14832993 0.26955563 0.034915812 -0.15117915 0.06959019 -0.15959285 0.17665994 -0.08037922 0.11449277 -0.07434116 0.0041176206 0.1372281 -0.14572316 0.1393862 0.07475779 0.028314898 0.15714672 -0.15505695 -0.13958332 0.0028907892 0.1330304 0.07216427 0.12751733 -0.061413966 -0.03174798 0.052444827 0.14225684 0.11518936 0.14936472 0.052340586 -0.053866804 -0.020448687 -0.09260948 -0.08597431 -0.14539044 0.16141018 -0.062242568 0.15945815 0.14651577
30 0.100504085 0.12698428 -0.130442 -0.0019877849 -0.069027565 0.12695971 -0.09716779 -0.11303393 -0.011806095 0.10091701 0.12967774 -0.0435253 0.11999057 0.06921782 -0.13118117 -0.09692114 0.11513155 -0.17280492 0.07439212 0.095350906 -0.104902625 0.11891861 0.115610965 -0.109519176 0.0067342925 -0.11134819 0.12335066 -0.03388223 0.11950043 -0.13452779 0.12745741 -0.102294475 -0.118261226 0.07829261 0.11534349 0.11105504 -0.122019865 0.12625176 0.10612645 0.1406386 -0.13711177 -0.05844726 0.045025937 0.12675495 0.05578881 0.028266493 -0.027106958 -0.09140606 0.122118145 0.03072457 0.13164155 0.042604957 -0.10480969 0.118754975 0.10814903 -0.120916896 0.11453896 0.10798689 -0.09115063 -0.10316056 0.026237443 0.0651672 0.108018085 0.121450394 -0.122131236 -0.16788262 0.00067879574 0.051303867 -0.120252855 0.09508926 0.082969084 -0.1212933 0.10275444 0.13995114 0.1213405 -0.15368362 0.054338038 0.10135253 -0.1489065 -0.110621616 -0.070118636 -0.12972294 -0.118917584 -0.0138061335 -0.11519884 -0.0044185165 0.008877018 -0.06020655 -0.0646827 -0.12281991 0.21072268 0.020794855 -0.11779714 0.057064075 -0.09811952 0.13455045 -0.10978713 0.107079364 -0.02064071 -0.0048689134 0.10411998 -0.10692249 0.12903258 0.08927322 0.0535604 0.11660058 -0.1077923 -0.10531401 0.031751506 0.127213 0.053148706 0.104710035 -0.086601526 -0.044963684 0.05372858 0.110089935 0.119830996 0.13650946 0.0713507 -0.062777735 -0.052306022 -0.063459456 -0.09753198 -0.09537734 0.10999824 0.017078035 0.116250284 0.10472946
31 0.15008381 0.06810096 -0.14608848 0.20003827 -0.118204616 0.04967896 -0.12875398 -0.11486362 -0.24380128 -0.009443933 0.09068979 0.15021423 0.033891324 0.105396956 0.056748047 0.033560216 -0.029452465 -0.08264257 -0.07491661 0.14866087 -0.15571922 0.08218096 -0.008245159 -0.029684136 -0.300134 -0.056113537 0.15373701 0.063577965 0.022752758 -0.022454979 0.049647763 -0.08244241 -0.07505848 -0.19926369 0.013309778 -0.0051178816 0.013311919 0.08042533 -0.028761853 0.045884553 0.10621945 0.11304252 0.24324349 0.08134346 -0.101194985 -0.057892144 0.11603095 -0.13747144 0.022720467 -0.0683108 0.041108403 -0.1350173 -0.14450403 0.046169795 -0.10707203 -0.05534946 0.13701166 0.010083004 0.008448599 -0.013349313 -0.4027116 0.08332261 0.002055291 0.0862375 0.033694666 -0.16568439 0.10099394 -0.058021054 -0.0776799 0.1068227 -0.114784226 -0.026765062 0.072727114 0.0345741 0.011646405 0.028656919 -0.06299624 -0.015579879 -0.10855047 -0.018900175 0.030856865 -0.053682942 -0.047199655 -0.21689586 -0.03950176 -0.057987966 0.19279349 -0.11368536 -0.15521535 -0.041918572 0.14352468 -0.05520866 -0.059794072 -0.05395694 0.014847267 0.046235826 -0.19525926 0.13385236 0.083078146 0.099002786 0.06556852 -0.13881157 0.035531536 0.09068087 -0.060328763 0.08211032 -0.119204454 0.008250397 -0.0369333 0.07033851 -0.14869854 0.0934232 -0.15821259 -0.16699299 -0.04989291 0.03293652 0.035974916 0.019021234 -0.055560715 0.015367077 -0.14307095 0.14650284 -0.06424749 -0.060807023 -0.0063301455 0.36660028 0.039722126 0.08347201
32 0.10592022 0.029259263 -0.060281657 0.08145333 -0.056682166 0.031597953 -0.05307666 -0.02974005 -0.099541135 0.07783615 0.0350457 0.08471462 0.06920746 0.07472806 -0.03661577 -0.0525102 0.052955627 -0.056919 -0.07376868 0.059276685 -0.031738732 0.045282487 0.09500691 -0.036483746 -0.113304146 -0.018351248 0.046092417 0.0606486 0.058537737 -0.02743676 0.06972841 -0.034642965 -0.046734244 -0.06087303 0.019942217 0.030126298 -0.051896837 0.05171087 0.0328554 0.07605989 -0.13885035 0.07234508 0.06958243 0.069335 -0.05757659 -0.057970334 0.056787398 -0.069943845 0.033921935 -0.06387706 0.020184945 -0.09173298 -0.07224868 0.028494481 0.03295841 -0.056558546 0.027286999 0.053981867 -0.013504423 -0.054026753 -0.091213666 0.053021185 0.023908786 0.040365405 -0.049646474 -0.055670176 0.07538833 -0.05739746 -0.033476982 0.02641278 -0.06387177 -0.022877 0.07264025 0.056074116 0.030141227 -0.04632585 -0.050783157 0.018685302 -0.06364845 -0.020932095 0.037988994 -0.038051225 -0.03811015 -0.047360204 -0.062763415 -0.071643814 0.10492193 -0.056739528 -0.06604869 -0.08389979 0.039828636 -0.059058208 -0.014831169 0.058914643 -0.03289533 0.03813178 -0.080365464 0.04649388 0.10524565 0.0610583 0.025651045 -0.044049684 0.049956027 0.060128298 -0.06924882 0.03140966 -0.041948434 -0.038420763 -0.04459421 0.07655471 -0.0763401 0.022952147 -0.08520043 -0.09804721 -0.05076533 0.04012341 0.03901266 0.055954315 -0.050119925 0.052842166 -0.12071396 0.0640009 -0.04358513 -0.036048196 0.035701122 0.07533082 0.04641719 0.015882216
33 0.02828945 0.0747749 -0.020405378 0.07529533 -0.15430732 0.11925089 -0.050802562 -0.12029955 -0.13719498 0.20454596 0.11545545 -0.0017020305 0.060891893 -0.026717508 -0.039653447 -0.113966905 0.11234646 0.047040522 -0.009218126 -0.029528605 -0.01984509 0.09117593 0.14828984 -0.14870657 -0.0822402 -0.04078415 0.08072871 -0.03150253 0.031592943 -0.10851588 0.0976744 -0.12625799 -0.063421175 -0.010228985 0.14021176 0.02537017 -0.056445807 0.06710872 0.068462186 0.09412197 0.06658811 -0.012242875 0.03955658 -0.0007746927 0.01300016 0.0075506857 0.02220788 -0.04422375 0.13160118 -0.014234478 0.101707876 0.03714722 -0.1290748 0.073181435 0.055355046 -0.01626368 0.11490223 0.09288798 -0.14058699 -0.11805561 -0.29530075 0.043388106 0.12526293 0.037693325 -0.11812419 0.0084767 -0.04032598 0.040586904 -0.074803255 0.11433057 -0.012168968 -0.13300742 0.03799208 0.051719945 0.09025122 -0.14749986 0.038434263 0.1371765 -0.11506658 -0.114338115 0.033194218 0.15298975 -0.121497974 0.0053066914 -0.09442144 -0.00781757 0.013542902 -0.051615685 -0.09277452 -0.104131445 -0.32532898 -0.020367926 -0.09604152 0.009847624 -0.095708296 -0.00910311 -0.13670404 0.09155152 0.07910919 0.031124653 0.0875264 -0.08768508 0.11849479 0.25874028 0.036114924 0.017800145 -0.095955715 -0.09313517 -0.03526588 0.13970543 -0.024594279 0.09497811 -0.19059442 -0.011501672 -0.060460024 0.088502124 0.122148365 0.083275385 0.02061535 -0.016376646 0.032993075 0.044161268 -0.13564375 -0.05886581 0.119430885 0.11979306 0.13335018 0.13497695
34 0.2193394 0.066754915 -0.1277627 0.20939949 -0.17420265 0.03581338 -0.18620327 -0.16994204 -0.27009887 0.029356109 0.08252665 0.124339834 -0.122567736 0.17601131 -0.028705597 0.25579563 0.08235653 -0.09044298 -0.077289134 0.054066185 -0.14653511 0.092656046 -0.25042304 -0.046384674 -0.29258442 -0.09306315 0.02710223 0.066223875 0.037573833 -0.07320003 -0.014236481 -0.14240628 -0.08076149 -0.12402732 0.016529195 0.08633529 -0.041908957 -0.04380234 0.023787294 0.101476856 -0.17410673 0.07220353 0.23984882 0.17575537 -0.099227935 0.010043227 0.061091244 0.022696298 0.008667401 -0.017247396 0.07879274 -0.09978405 -0.21906044 0.10676379 0.06813165 -0.12284109 0.08385013 0.12226265 -0.04358455 -0.024014154 -0.4991729 -0.19944985 0.040202707 0.121043816 0.078567535 -0.155025 0.04574891 -0.07791408 -0.055700924 0.14947681 -0.13296989 -0.04774051 0.012741719 0.12253851 0.08684453 0.022482075 -0.05225115 0.065690905 -0.14911433 -0.040152654 0.034803297 -0.19365081 -0.061521143 -0.07790442 -0.13143602 0.06040455 0.095802985 0.09675985 -0.20011234 -0.045769323 0.3151981 -0.05123203 -0.13853018 -0.1263557 -0.034336545 0.088559344 -0.25104767 0.13995303 0.12687057 0.0030761666 0.08606975 -0.074746005 0.06975008 8.873793e-05 -0.093456134 0.055032466 -0.118547745 -0.08055778 0.00073756324 -0.0743828 -0.04652236 0.072327 -0.20522511 -0.18459305 -0.043225247 0.0637722 0.10743867 0.05175362 -0.06410428 0.038583033 -0.064461045 0.08436413 -0.08410996 0.010004854 -0.008179505 0.28357062 0.06886037 0.05901081
35 0.06983525 0.05211606 -0.090847515 0.057198476 -0.07745247 0.07028827 -0.06300859 -0.09334919 -0.078919515 0.10137805 0.063393705 0.041436482 0.12607577 0.0677623 -0.09787213 -0.086802125 0.05436497 -0.16469707 -0.03387173 0.088913366 -0.069306985 0.046357818 0.0707071 -0.07650862 -0.06750616 -0.050414644 0.09530231 0.03895673 0.08563809 -0.055348422 0.10848676 -0.09496171 -0.065246426 -0.033493508 0.076608606 0.037816156 -0.082274 0.085083626 0.046055697 0.08004387 -0.12351533 0.035778727 0.08483243 0.08088413 -0.031138496 -0.03427728 0.04501537 -0.09449149 0.095038146 -0.045024037 0.057591863 -0.03775812 -0.08168434 0.04257662 0.08711449 -0.047746338 0.056308415 0.08807969 -0.03235837 -0.06432438 -0.10753942 0.08381787 0.039184295 0.05044188 -0.08439804 -0.07319233 0.050851613 -0.02953696 -0.05841652 0.028638443 -0.0228879 -0.044131797 0.092565104 0.06255702 0.0545552 -0.0985555 -0.023658443 0.04075952 -0.1144622 -0.0379114 0.028846756 -0.06636108 -0.101930864 -0.048170343 -0.10827557 -0.044882208 0.06035404 -0.07262895 -0.08608671 -0.11644854 0.045395486 -0.0508785 -0.05010422 0.06903086 -0.06476869 0.059954923 -0.10060676 0.06265509 0.05280141 0.054402187 0.040604364 -0.06427892 0.090295486 0.098915674 -0.0478781 0.06984149 -0.056501664 -0.03474781 -0.055177636 0.10678807 -0.050159533 0.044679563 -0.13579477 -0.07424394 -0.038887784 0.04742784 0.06039682 0.06185247 -0.033516776 0.02595241 -0.08368385 0.03833525 -0.048105735 -0.09139892 0.070569955 0.110762365 0.06498499 0.055648576
36 0.056207914 0.062587 -0.027121007 0.09208469 -0.05840176 0.09580136 -0.046317343 -0.098256186 -0.13366087 0.087759316 0.061391797 0.052639432 0.13123491 0.07470019 -0.063794754 -0.13201262 0.049267378 -0.07205545 -0.06307829 0.029631304 -0.057883415 0.05692429 0.15899266 -0.08735252 -0.09827833 -0.020823956 0.097978845 0.077724755 0.019551178 -0.046128012 0.078031175 -0.10560016 -0.0346976 -0.05448463 0.09736111 0.048553713 -0.08302372 0.107384756 0.055046 0.055623222 -0.022125144 0.06590005 0.0839264 0.073266506 -0.054321952 -0.07721745 0.07827055 -0.08600113 0.055108756 -0.07588985 0.063829824 -0.05123058 -0.056441348 0.043216266 0.047253583 -0.025958959 0.04367752 0.03322894 -0.07698303 -0.07888154 -0.1324787 0.06734602 0.05568176 0.033409894 -0.09563876 -0.05585586 0.049140327 -0.032239504 -0.058449883 0.05149128 -0.0664341 -0.055208255 0.05421597 0.039135486 0.044221744 -0.07758716 -0.04887802 0.068075635 -0.112126485 -0.07065871 0.088301525 0.069433935 -0.11177451 -0.07116513 -0.105650246 -0.09409457 0.08551943 -0.07904985 -0.057736 -0.07224136 -0.22075355 -0.07460381 -0.055928122 0.077510715 -0.07779771 0.013268941 -0.07471385 0.03299057 0.08709325 0.09983177 0.04526526 -0.07571189 0.07271128 0.1517164 -0.06166332 0.04368042 -0.08566178 -0.04962658 -0.0836227 0.080563396 -0.061842084 0.063277446 -0.065882064 -0.06309124 -0.12128524 0.064783625 0.054623168 0.04397182 -0.03139847 0.047961272 -0.0643682 0.070346445 -0.055393837 -0.049655877 0.09028974 0.113363065 0.07908628 0.06941638
37 0.0656933 0.09179874 -0.043483496 0.07287891 -0.12329244 0.06491778 0.04217046 -0.12813865 -0.17668469 0.2000485 0.14950547 0.03513147 0.13962366 -0.013300692 -0.029193034 -0.117148094 0.042273507 0.028456036 -0.04365507 0.018410558 0.062757134 0.043861236 0.12229032 -0.16672316 -0.09775757 0.018873794 0.08951621 -0.0064663203 0.012945427 -0.06357652 0.10567215 -0.12938273 -0.06846959 -0.059621777 0.17098883 -0.028723408 -0.049302015 0.09707171 0.029259684 0.09652242 0.0071542473 0.041182075 0.0532954 0.03074083 -0.017876478 -0.035238884 0.047602307 -0.059888277 0.19793063 -0.06573987 0.08233316 -0.02456677 -0.109329134 0.034139253 0.08166364 0.021926774 0.056922756 0.119183995 -0.12438681 -0.08095588 -0.21549638 0.10149229 0.088133544 0.006578835 -0.14090434 0.04781949 0.0056769466 0.006530468 -0.04327679 0.038394816 -0.0588198 -0.08142846 0.0435139 -0.002240454 0.04015388 -0.1453076 -0.023187056 0.087346576 -0.15328945 -0.09545565 0.0801801 0.20549047 -0.13381724 -0.022178702 -0.09204894 -0.050749794 0.038379516 -0.08536797 -0.112266935 -0.15039101 -0.37982795 -0.046866048 -0.06499003 0.017906874 -0.07784869 -0.050030407 -0.09521033 0.058514055 0.093161836 0.046575997 0.045571268 -0.07339967 0.19449574 0.32796985 0.0007079905 0.0033255564 -0.095980644 -0.051204406 -0.09788283 0.20561461 -0.07052826 0.07647396 -0.2222896 -0.02712763 -0.10749622 0.05935467 0.08811383 0.072072625 -0.028703488 0.019149495 -0.0002613138 0.08787689 -0.12628657 -0.05159687 0.10635696 0.12987448 0.09342852 0.09496435
38 0.021329809 0.061362997 -0.037250135 0.09358939 -0.07167185 0.059750892 -0.072951205 -0.099842474 -0.14882287 0.0936346 0.045377303 0.07008054 0.12491246 0.029854162 -0.082092166 -0.10460975 0.03642286 -0.052920815 -0.07998499 0.038219817 -0.068623625 0.060966834 0.105232574 -0.115815476 -0.10869707 -0.026945723 0.08065005 0.072230056 0.029118488 -0.05302509 0.0809445 -0.07833808 -0.039029665 -0.07594636 0.105445236 0.032445658 -0.098965846 0.09172315 0.06266998 0.058719035 0.015499751 0.07853273 0.08126937 0.07247365 -0.07396121 -0.081544355 0.08078584 -0.088025235 0.073816225 -0.07545565 0.06479525 -0.035069495 -0.082069196 0.048578955 0.06344803 -0.02795832 0.059307367 0.04466921 -0.07791383 -0.061458945 -0.12593424 0.055253226 0.048260693 0.03651623 -0.088142835 -0.021442004 0.051249858 -0.06623248 -0.04850019 0.070134744 -0.09805762 -0.053426772 0.059455175 0.026729973 0.0468395 -0.05558675 -0.069313355 0.09232447 -0.10137731 -0.06677464 0.10029865 0.09526329 -0.1066482 -0.070929624 -0.09481518 -0.08419116 0.09701271 -0.063092336 -0.02997694 -0.053132553 -0.258393 -0.07126938 -0.05388508 0.052174103 -0.07042663 -0.01043421 -0.08128475 0.03758111 0.09821015 0.083362795 0.04760645 -0.08500916 0.078180864 0.16867004 -0.060056973 0.06071283 -0.082642004 -0.05637989 -0.09764899 0.08714863 -0.070273384 0.06464521 -0.099852525 -0.051077664 -0.12677114 0.06061239 0.065181956 0.034634683 -0.05765047 0.064484015 -0.06252475 0.08544692 -0.05596551 -0.04429404 0.0953722 0.13234878 0.07152447 0.07399813
39 0.088679075 0.06827071 -0.09648834 0.07522538 -0.06391256 0.07464771 -0.06694245 -0.10309161 -0.051051468 0.08067389 0.07285403 0.0408084 0.112139836 0.09322855 -0.09254929 -0.059569277 0.06375054 -0.1256255 -0.033979546 0.08940564 -0.06852766 0.056845244 0.061327007 -0.07931032 -0.056799255 -0.071763754 0.09880268 0.048176832 0.095799014 -0.062155545 0.105009414 -0.100586936 -0.07533948 -0.018746287 0.08333518 0.058376577 -0.065361686 0.08595351 0.043672383 0.08800387 -0.14203918 0.03511658 0.14848503 0.10945535 -0.030352095 -0.036077935 0.03531542 -0.10214607 0.055000804 -0.03016053 0.075886264 -0.052839965 -0.07453652 0.05642482 0.12164046 -0.06341537 0.06604282 0.07251475 -0.04225176 -0.05828831 -0.094392546 0.06712945 0.045930456 0.07996607 -0.08486584 -0.104430005 0.06362288 -0.021301037 -0.07243797 0.05012953 -0.031450614 -0.050349433 0.06504665 0.086919606 0.06283525 -0.0755261 -0.019204944 0.042858567 -0.13223237 -0.042029466 0.01254563 -0.11858531 -0.09617548 -0.05341666 -0.093623765 -0.037507806 0.050588917 -0.05836928 -0.09798143 -0.09662282 0.121469066 -0.036185 -0.07091961 0.05983297 -0.050138026 0.084164165 -0.094787404 0.07940478 0.075357854 0.050621137 0.06945233 -0.071637526 0.083435066 0.07045097 -0.054229498 0.084707215 -0.07787434 -0.054334898 -0.04146521 0.08303983 -0.027319157 0.054918297 -0.09727663 -0.09526147 -0.026659284 0.05790511 0.06186281 0.082964785 -0.012036265 0.03182036 -0.0991476 0.024755996 -0.038397558 -0.0840463 0.06422875 0.07465994 0.06271777 0.05655106
40 0.12450909 0.1060052 -0.12846878 -0.030691152 -0.008574874 0.14425056 -0.037244536 -0.0870985 0.048566494 0.089022234 0.11249054 -0.02698253 0.1077406 0.08179829 -0.10466638 -0.11688287 0.10463249 -0.14024013 0.024646023 0.07533158 -0.03522194 0.090555236 0.14388126 -0.10321334 0.06292261 -0.09342805 0.097555146 0.04038646 0.095870025 -0.10057487 0.10582128 -0.08156742 -0.09815073 0.06117335 0.10834702 0.08516617 -0.098093554 0.09265745 0.07673332 0.11801621 -0.19861656 -0.015985211 0.0025768892 0.093372956 0.033388883 -0.03091049 -0.017475037 -0.11001731 0.11075165 -0.03680907 0.093462236 -0.04878881 -0.02455743 0.07903736 0.109381795 -0.08743274 0.07568453 0.061980966 -0.09989289 -0.089776546 0.105331376 0.11221627 0.083006434 0.09134957 -0.15333468 -0.13280845 0.07156135 0.021536367 -0.08894687 0.027585348 0.054187737 -0.09360072 0.12426156 0.1137045 0.089648664 -0.12987225 -0.011624508 0.066087015 -0.12097139 -0.08399879 -0.0031109424 -0.12469523 -0.118226856 -0.08694883 -0.1046225 -0.062851265 -0.0042215046 -0.11740481 -0.028398205 -0.110392496 0.17825706 -0.0020552955 -0.08527437 0.11296145 -0.11877433 0.11753777 -0.057916462 0.052082147 -0.036918968 0.050590057 0.08350815 -0.08022464 0.10444993 0.061985888 -0.01991107 0.13475493 -0.10029038 -0.070423104 -0.05085183 0.098717675 0.0053755357 0.08074212 -0.045593876 -0.04720824 0.010750173 0.07757831 0.06692763 0.09826562 0.015132482 0.0072370865 -0.11046804 -0.044230293 -0.05674785 -0.097544536 0.11276143 -0.028271459 0.12215494 0.077479646
41 0.11334249 0.11908131 -0.13776322 0.025201315 -0.025113171 0.17354327 -0.076200455 -0.13175362 -0.0016879055 0.07906801 0.114710264 -0.04352788 0.12781055 0.1040808 -0.12568717 -0.14088397 0.1292053 -0.17217527 0.06423961 0.09413861 -0.07568937 0.124362975 0.117991045 -0.10110779 0.06390046 -0.11776649 0.13522553 -0.013769175 0.11153446 -0.12725475 0.1037068 -0.112203225 -0.12754741 0.08161146 0.10911547 0.11740144 -0.12297637 0.10066753 0.09582641 0.12599124 -0.18393756 -0.04494105 0.0483071 0.10719684 0.06254143 0.009542893 -0.024523942 -0.13166155 0.090993054 0.0031037773 0.11389789 -0.01215634 -0.035444696 0.114911936 0.10543492 -0.12103837 0.109644905 0.07728338 -0.102185875 -0.11072678 0.13039365 0.102311075 0.096658476 0.11092523 -0.1551329 -0.16843936 0.05261175 0.05496706 -0.11374767 0.061706882 0.1014218 -0.12961511 0.090596996 0.1460672 0.10384321 -0.1542288 0.031089388 0.08722092 -0.112132125 -0.104008265 -0.046806376 -0.16602325 -0.13293315 -0.095761895 -0.1240204 -0.103897035 0.053172182 -0.120300606 -0.021312036 -0.13680427 0.23631115 0.014059339 -0.11185032 0.13128051 -0.12898768 0.13245389 -0.07892142 0.10067528 -0.025088055 0.0485643 0.11037088 -0.104894385 0.12715258 0.06850177 0.021771269 0.12924503 -0.12663114 -0.09539444 -0.031894185 0.0919315 0.039234206 0.08740837 -0.041718334 -0.031971317 0.038515143 0.10244376 0.08362326 0.11140608 0.05448558 -0.035398867 -0.08656683 -0.078773305 -0.06763626 -0.11266986 0.123654485 -0.037334852 0.14720526 0.11202826
42 -0.0940401 0.024423655 -0.0059678275 0.17022967 -0.1243189 0.043194868 -0.13281795 -0.07059283 -0.3362459 0.11147439 0.017712742 0.107382335 0.16086408 -0.03073573 -0.0726399 -0.10819243 0.038647033 -0.030993022 -0.10683193 0.05134009 -0.114619955 0.053316265 0.068704054 -0.11505782 -0.22389612 -0.029883109 0.051072598 0.07937238 -0.0021837023 -0.0441447 0.082170196 -0.06826585 -0.016082162 -0.14852914 0.09441564 0.045635343 -0.08382152 0.04048296 0.08976116 0.014891335 0.094290875 0.11321014 0.17598104 0.12987484 -0.11803333 -0.06425417 0.12507686 -0.0722778 0.08596918 -0.06693285 0.052081015 -0.029685697 -0.16299294 0.034370966 0.0029036244 -0.0503038 0.044119027 0.050527316 -0.08055167 -0.06858291 -0.32266653 -0.06906759 0.055439763 0.015820054 -0.057708766 -0.011359444 0.0091391485 -0.1061304 -0.035922736 0.12120253 -0.15677182 -0.06428485 0.035987962 0.013645125 0.053747237 -0.05466762 -0.06602941 0.11789712 -0.07591122 -0.081593476 0.107166015 0.09692971 -0.08695664 -0.03499482 -0.092597686 -0.042041913 0.13136631 0.057910297 -0.026024092 -0.08247509 -0.4037166 -0.084782 -0.05168119 -0.0025728578 -0.07737532 -0.036867626 -0.10412247 0.071533285 0.14571509 0.094784625 0.055241924 -0.071677156 0.099503055 0.1950798 -0.05559972 0.04326401 -0.07645442 -0.07507798 -0.080060825 0.08896245 -0.08927313 0.07194028 -0.11915322 -0.029313637 -0.17084609 0.059536524 0.09323788 0.018842824 -0.09215096 0.08521412 -0.058725916 0.14408681 -0.11708023 -0.024373624 0.07280552 0.3008577 0.056484666 0.07241448
43 0.055275995 0.015035328 -0.05128226 0.09567216 -0.069555596 0.032283828 -0.047107678 -0.08947646 -0.19934148 0.10150863 0.025314085 0.087966405 0.1315996 0.055118028 -0.08266698 -0.10405022 0.013447156 -0.1114828 -0.10449046 0.06853589 -0.05346619 0.010844147 0.085504726 -0.07262127 -0.14716575 -0.016764702 0.076815 0.0841692 0.028870715 -0.017163565 0.09451658 -0.08159365 -0.021614999 -0.10777918 0.07325623 0.009664641 -0.09368663 0.080890246 0.046544526 0.05629397 -0.092079744 0.08861207 0.13669242 0.06948484 -0.06857393 -0.0747552 0.109161474 -0.0928626 0.0979709 -0.072052255 0.03159171 -0.062202755 -0.07857921 -0.00062153686 0.05009336 -0.0016085065 0.025174692 0.05252249 -0.012917219 -0.06785358 -0.12861878 0.04919671 0.027138643 0.007358327 -0.07242268 -0.029408166 0.066776805 -0.072009854 -0.021787858 0.03020955 -0.095293805 -0.03170365 0.11902615 0.008644498 0.024394004 -0.05502619 -0.063960746 0.03567331 -0.10843528 -0.023586314 0.0827931 0.022003945 -0.100461684 -0.060520325 -0.0754845 -0.066775985 0.12668052 -0.079557665 -0.10601685 -0.12467437 -0.1671479 -0.07664123 0.009058523 0.08618384 -0.053526916 0.012630647 -0.1200595 0.06452718 0.10177842 0.09066825 0.009063435 -0.040426705 0.07342906 0.15221792 -0.06823416 0.089547314 -0.022268277 -0.017157076 -0.12735863 0.13818176 -0.10008156 0.0033851922 -0.09970031 -0.05173719 -0.12870428 0.021700183 0.038832463 0.043816335 -0.06633795 0.07680325 -0.11492661 0.102708355 -0.047778875 -0.093645476 0.08738712 0.13739492 0.05460929 0.02325103
44 0.10933927 0.10111337 -0.14954132 0.17730851 -0.1419031 0.074817345 -0.12100284 -0.1287901 -0.17987336 -0.0142652 0.122347966 0.1648283 0.013024837 0.0981213 0.053560168 0.03059907 -0.030415425 -0.066832565 -0.07501588 0.12198765 -0.18347552 0.1015935 0.014315243 -0.0644513 -0.29313746 -0.062893175 0.1441469 0.07172121 0.05425871 -0.046357065 0.036445763 -0.07882046 -0.10110915 -0.21557862 0.022480166 0.03255495 -0.00754955 0.06739594 -0.021587053 0.07225635 0.064625934 0.15609406 0.21869951 0.040372696 -0.07457044 -0.047477353 0.07713219 -0.1361541 0.0030519685 -0.0817027 0.04719875 -0.12180909 -0.14481497 0.08775529 -0.060496744 -0.07360527 0.150354 0.009474425 -0.012408959 -0.015584905 -0.36460328 0.13756093 0.018842427 0.11593281 0.019560087 -0.20802914 0.10557368 -0.047531556 -0.118158996 0.11720053 -0.11828636 -0.014287746 0.047887586 0.07468673 0.015381959 0.024920935 -0.07169599 -0.008650352 -0.149468 -0.017731352 0.03586481 -0.02326045 -0.06455631 -0.16816251 -0.0643418 -0.0308763 0.17722736 -0.13287665 -0.13001442 -0.05282904 0.12591064 -0.02165502 -0.09355308 -0.102053955 0.031733856 0.045136344 -0.16936815 0.1790936 0.08424463 0.019129446 0.08410011 -0.13654764 0.01608377 0.029757995 -0.057299282 0.04364771 -0.11476143 0.015284208 -0.012900988 -0.0037524437 -0.13887924 0.13728122 -0.12715697 -0.13137715 -0.026867183 0.04549496 0.039666235 0.05140251 -0.064649664 -0.0007271031 -0.086264685 0.1541948 -0.0906184 -0.056662977 -0.028224045 0.28546545 0.06239291 0.11516107
45 0.053211994 0.04650908 -0.03307643 0.13977122 -0.050915018 0.046321504 -0.042146504 -0.075863086 -0.1699497 0.10596363 0.040872555 0.07227592 0.14050028 0.0042453757 -0.04029603 -0.10242933 0.031879485 -0.06507607 -0.07309633 0.036849942 -0.02742142 0.030189872 0.080212206 -0.070959926 -0.1618713 -0.02403889 0.09010389 0.03722802 0.035039373 -0.050515868 0.10822841 -0.06578262 -0.05362228 -0.10074236 0.05529974 -0.0048498074 -0.0519197 0.078638755 0.03221047 0.05346725 -0.03475405 0.08579273 0.06785065 0.03774389 -0.044175927 -0.06992307 0.080333926 -0.07814593 0.09908945 -0.0831354 0.054411665 -0.0686221 -0.06194497 0.024330674 0.09058336 -0.007615666 0.01817103 0.058772314 -0.06957765 -0.03598465 -0.21523236 0.08910075 0.037277047 0.051525272 -0.09199759 -0.029208481 0.011556348 -0.048335575 -0.022535296 0.013933574 -0.09087632 -0.058655847 0.0810367 0.030750308 0.03069342 -0.069118515 -0.04015987 0.037825767 -0.113706425 -0.04083859 0.09277486 0.010935787 -0.061770268 -0.026386864 -0.091488205 -0.048193004 0.10964634 -0.079219915 -0.14772375 -0.09699601 -0.21561144 -0.120986864 -0.023604667 0.055867955 -0.046806663 0.008589736 -0.12276793 0.03876281 0.16769113 0.08585157 0.02572141 -0.032750215 0.10780518 0.099549405 -0.03426026 0.03073722 -0.050260063 -0.023287445 -0.14820929 0.085684195 -0.10599884 0.021491477 -0.11869993 -0.059914228 -0.13915095 0.047747057 0.045361497 0.0454647 -0.0645339 0.05775565 -0.087408856 0.105216786 -0.06485778 -0.047371455 0.051984884 0.1323119 0.049399603 0.04512038
46 0.1766445 0.10302891 -0.1444788 0.2705723 -0.17324267 0.05766243 -0.23138702 -0.19064517 -0.22641575 -0.07757476 0.0928811 0.23896535 -0.011725429 0.16580707 0.09613871 0.090979934 -0.03170539 -0.07171263 -0.05250524 0.15084241 -0.21812077 0.124296196 -0.03589184 -0.023887025 -0.36178812 -0.0770557 0.13297537 0.062390305 0.022131672 -0.046706036 0.021077678 -0.106187664 -0.10730945 -0.21336436 0.0053387918 0.013670194 0.043114524 0.05790949 -0.0635377 0.08044156 0.07677031 0.14084503 0.26404762 0.07832397 -0.092609905 0.0018130704 0.12049981 -0.12793453 -0.012475751 -0.035450596 0.025951782 -0.16801073 -0.26282957 0.07445546 -0.08125096 -0.086810775 0.20053202 0.03269529 0.0316469 0.01736085 -0.40572214 0.06757731 -0.036670778 0.16999039 0.04725986 -0.25546426 0.15441912 -0.07587086 -0.09851326 0.17486781 -0.1635415 0.00057955517 0.07557304 0.044415534 0.01684439 0.07702645 -0.06556526 -0.040548082 -0.12767418 0.015953034 -0.025663055 -0.10094616 -0.05025093 -0.218193 -0.057815704 0.024398789 0.22485732 -0.13978578 -0.14111997 -0.011585134 0.3159992 0.009108853 -0.10304243 -0.16501045 0.03880588 0.058525186 -0.23659515 0.19323431 0.11966427 -0.020256035 0.0774171 -0.1599877 0.0035521428 0.022041375 -0.079814404 0.066650905 -0.12567046 0.03528473 0.008237039 -0.022992542 -0.11833899 0.15029961 -0.15171759 -0.20156033 0.004513143 0.040431 0.03833 0.037716877 -0.053391986 -0.027912164 -0.09699532 0.21836895 -0.102475084 -0.056374516 -0.071476884 0.3277449 0.06295148 0.110712714
47 0.06455726 -0.017717136 -0.0079080155 0.08753546 -0.031120192 0.008671511 -0.024224587 -0.007447481 -0.11953895 0.04755193 -0.0011089083 0.08170984 0.09260985 0.061329782 -0.023597457 -0.049358264 0.00542783 -0.014346168 -0.07247389 0.052078344 -0.019048443 -0.02305277 0.07060123 -0.0055351686 -0.095562786 0.0048652655 0.019388571 0.0509838 0.006350016 -0.007651765 0.04577545 0.009974655 -0.0036810143 -0.08163011 -0.0019596138 -0.012755212 -0.029280063 0.03301251 0.0102873305 0.0061127623 -0.04140508 0.069060385 0.09728192 0.070577614 -0.057618856 -0.06357922 0.06883297 -0.06460003 0.05064611 -0.06127135 -0.0023171995 -0.058232833 -0.028960675 -0.014786088 0.021521974 0.0072328197 -0.002015072 0.015417714 0.005054919 0.002250806 -0.12375825 0.040718097 -0.011982598 -0.0063286354 -0.007990318 0.00089392095 0.05799098 -0.059157282 0.0055130916 0.008179274 -0.05628511 -0.007862599 0.05473556 0.002726434 -0.0028395315 -0.023384025 -0.048093166 0.0006893705 -0.02859871 0.005734248 0.038632657 0.0058417916 -0.026676938 -0.051915806 -0.01386109 -0.056535583 0.11149596 -0.041525353 -0.10592548 -0.06504126 -0.044642482 -0.0682693 0.022108776 0.08518163 -0.01615599 0.012037143 -0.05486796 0.0098771965 0.10106936 0.050995525 -0.017693276 0.016545175 0.03867808 0.06710241 -0.05376496 0.015296642 0.010440122 -0.001630396 -0.08055136 0.06032776 -0.102544926 -0.007584278 -0.08222631 -0.07843418 -0.06952338 -0.016519021 0.016785612 -0.0011131834 -0.050165087 0.054951813 -0.11601617 0.07319782 -0.01105003 -0.044011615 0.010130369 0.06742315 -0.0017621447 -0.0023218677
48 0.14078592 0.15149464 -0.17418063 -0.04536154 -0.040048815 0.16451538 -0.08439913 -0.1466886 0.0795863 0.09958956 0.13280341 -0.05521437 0.08419101 0.06811558 -0.1621511 -0.112623975 0.14617585 -0.17635736 0.068998426 0.10278123 -0.100134835 0.13756332 0.107640244 -0.15060833 0.10946737 -0.13080785 0.16856764 -0.013500192 0.15545622 -0.12953807 0.14496073 -0.14770843 -0.15500228 0.08751064 0.14352654 0.13990302 -0.15588738 0.15300308 0.1156082 0.16080484 -0.22053748 -0.05490278 -0.0075116428 0.12616518 0.046136282 0.008539827 -0.044252597 -0.10435626 0.12484341 0.005955911 0.160907 -0.013568303 -0.05957285 0.14279048 0.14646965 -0.15623295 0.12261483 0.10541012 -0.1212429 -0.15113081 0.19453767 0.07992661 0.123644084 0.1450217 -0.17777081 -0.18693762 0.042497236 0.038584776 -0.14090388 0.08281488 0.08372913 -0.13306308 0.13595477 0.17754623 0.1338742 -0.1954261 0.010900608 0.10557652 -0.15833664 -0.1259466 -0.047012422 -0.20589846 -0.15557846 -0.03608239 -0.15981552 -0.013956226 -0.030930331 -0.096365675 -0.006917938 -0.1534632 0.34280682 0.012229585 -0.14071503 0.09284437 -0.15285023 0.16818911 -0.08291391 0.112067506 -0.059278976 0.014632199 0.13695672 -0.13904305 0.1379838 0.07478632 0.02212368 0.18910003 -0.14567536 -0.12452209 0.019070607 0.13849908 0.044747923 0.12449184 -0.0640632 -0.065870665 0.052935623 0.12796481 0.107235804 0.13722505 0.042760953 -0.023263259 -0.058792207 -0.07778028 -0.08349204 -0.16265644 0.13931017 -0.051908 0.14153588 0.1243233
49 0.083090484 0.09349038 -0.15896915 -0.017181544 -0.06325147 0.13651307 -0.052047074 -0.08705961 0.0009855683 0.07184835 0.08937636 -0.028216416 0.102069154 0.07314318 -0.096838616 -0.0940313 0.094913036 -0.14513153 0.020106204 0.07326013 -0.07251377 0.10088347 0.10071163 -0.098643646 0.048321 -0.08699438 0.10640249 0.044361997 0.08744661 -0.10248414 0.10051885 -0.08186255 -0.12804759 0.0790887 0.11423518 0.08817755 -0.12630582 0.096061096 0.086402275 0.121005684 -0.13054793 -0.022788962 0.04476093 0.094223216 0.027774883 -0.021853494 -0.01872217 -0.1089282 0.0875415 -0.036644764 0.09571519 -0.036571052 -0.049810905 0.093670666 0.09943614 -0.099227935 0.10202867 0.07920003 -0.08381313 -0.09423169 0.058494303 0.07491766 0.08588727 0.109260194 -0.10941222 -0.15614745 0.060602102 0.01869558 -0.08785696 0.052501224 0.075376734 -0.08985484 0.10019598 0.1188166 0.095803864 -0.13165595 0.009235757 0.06017883 -0.11942935 -0.08063969 -0.019239433 -0.14855 -0.118359506 -0.07077946 -0.115398146 -0.058924884 0.035739873 -0.07881789 -0.067625105 -0.10095933 0.23358686 -0.0026416434 -0.0803179 0.101990476 -0.104746 0.10540478 -0.054657027 0.08676571 -0.028235152 0.03596575 0.08164872 -0.1090711 0.112665795 0.08717813 0.0014460923 0.1334305 -0.1137208 -0.0774773 -0.044262696 0.10012074 0.02356645 0.07881041 -0.08089148 -0.06418544 0.024829606 0.09394314 0.06804875 0.090879045 0.025512854 -0.0045858035 -0.07473768 -0.05860064 -0.048290163 -0.09611616 0.12135255 0.054170124 0.10204694 0.09758092
50 0.09622065 0.13056245 -0.13048668 -0.021654164 -0.027307449 0.12605304 -0.07173604 -0.09228198 0.027782101 0.07394731 0.10281364 -0.023913361 0.092630774 0.05215086 -0.1654731 -0.08091455 0.09739501 -0.13693123 0.024284892 0.07324707 -0.069586515 0.102323815 0.07743516 -0.14398825 0.058161706 -0.09538907 0.11717645 0.0048086876 0.1434405 -0.10734325 0.102467924 -0.12429672 -0.11492291 0.062089313 0.12940077 0.09570625 -0.12581268 0.11539128 0.08252926 0.13615611 -0.18775395 -0.01864668 0.018938309 0.076429985 0.022269676 -0.008084013 -0.009078835 -0.0756443 0.106284305 -0.011694679 0.110997625 -0.020625293 -0.07357043 0.09198473 0.118163206 -0.09591256 0.099985614 0.09258031 -0.07466244 -0.11009412 0.10274226 0.07853644 0.08207177 0.12304063 -0.1700157 -0.14967589 0.042401377 0.020988455 -0.09482811 0.045529395 0.050479565 -0.09469492 0.08968775 0.123708494 0.105725914 -0.16002403 -0.0022738979 0.08000705 -0.13015734 -0.07601059 -0.02180513 -0.15267974 -0.117833324 -0.045137968 -0.15428707 -0.030236738 0.0017761393 -0.07786933 -0.028156549 -0.1318204 0.19771358 0.005225172 -0.10068344 0.088041075 -0.11272021 0.1440116 -0.08780409 0.07881835 -0.036132354 0.02042723 0.09617724 -0.09963829 0.13236855 0.06476679 0.007366637 0.14467356 -0.097229235 -0.08181947 -0.033168677 0.1158789 0.016514977 0.076574035 -0.05891947 -0.06151961 0.030925574 0.093489945 0.08853649 0.13074349 0.023485828 -0.012462085 -0.06833338 -0.02743725 -0.06261549 -0.106914245 0.11525262 -0.031098984 0.13285606 0.10773724
51 0.10820301 0.130181 -0.1567669 0.13536535 -0.12175295 0.06482411 -0.21283378 -0.14644977 -0.04714542 0.018224671 0.09548368 0.16881615 -0.14241642 0.16347069 -0.055268068 0.05251504 0.098212294 -0.14651977 -0.047256105 0.0666112 -0.16820733 0.12748802 -0.078221925 -0.008774748 -0.19027112 -0.0757928 0.0739359 0.07238066 0.10525846 -0.11072046 -0.008744579 -0.07144353 -0.118354626 -0.14804651 -0.001439766 0.19059685 -0.015927374 0.032195304 0.014945462 0.0842887 -0.14955312 0.08335009 0.20621301 0.10324528 -0.16355221 0.05069949 0.095264986 -0.054613892 -0.038883135 0.04937678 0.08429515 -0.12449184 -0.18848884 0.11191848 0.05529258 -0.16996078 0.14034012 0.13939978 -0.0040599643 -0.044518717 -0.29327238 -0.053760942 0.07666155 0.16441749 0.05330508 -0.26939663 0.12330216 -0.07110441 -0.11914623 0.17149813 -0.18903966 -0.046921477 0.03938367 0.13131395 0.18687065 -0.009193194 -0.04376231 0.07126502 -0.14037457 -0.035784278 -0.048225235 -0.26850116 -0.019473094 -0.13058405 -0.043428767 0.026875872 0.06965575 -0.02348376 -0.07816538 -0.052392974 0.5696048 0.008616207 -0.1732909 -0.077569075 0.005323738 0.13899882 -0.12669164 0.17618974 0.04570636 0.020786284 0.11971155 -0.12937278 0.042003684 -0.06901126 -0.16347705 0.08229471 -0.11061471 -0.09689954 0.100926206 0.0041900612 -0.07154908 0.09373584 -0.100220434 -0.13990591 0.024273561 0.100688644 0.0904669 0.10321435 -0.0754171 0.055028502 -0.07313857 0.08690927 -0.029353317 0.010822451 -0.022386368 0.17077944 0.062201306 0.09661028
52 0.08138024 0.027162196 -0.0800861 0.10106533 -0.022688119 0.028272139 -0.021383692 -0.057196844 -0.12876853 0.0952654 0.06691262 0.101014964 0.13290688 0.06712332 -0.042834267 -0.1197076 0.023540141 -0.08715793 -0.09740803 0.052874543 -0.020903522 0.026708612 0.13539845 -0.101063415 -0.08287248 -0.00906264 0.09998295 0.12495763 0.031304806 -0.018610347 0.11095528 -0.053153113 -0.025934063 -0.082690224 0.06558089 0.010513457 -0.06899219 0.073528334 0.028879663 0.053992942 -0.09932333 0.11142586 0.07779076 0.060829107 -0.08516011 -0.13153869 0.09316909 -0.10115169 0.064548515 -0.13647205 0.029256618 -0.14151803 -0.03091172 0.015098143 0.06639431 -0.009328708 0.019479096 0.031896662 -0.031634714 -0.038905907 -0.10850173 0.07741134 0.03531768 0.026831668 -0.084242396 -0.015505652 0.10954627 -0.086299434 -0.019559387 0.0019397301 -0.0938142 -0.025446191 0.103131026 0.035735305 0.032659613 -0.059097927 -0.10864702 0.030188601 -0.09049608 -0.027068648 0.13484713 0.011962686 -0.071917236 -0.10969589 -0.06027125 -0.11966728 0.10786594 -0.0965641 -0.07318479 -0.0882251 -0.19390605 -0.13741803 -0.020442916 0.10111982 -0.07183953 0.019842913 -0.05645779 0.030736133 0.09552905 0.12336646 0.026780983 -0.047008187 0.041089736 0.108061895 -0.10745542 0.05396896 -0.045158952 -0.027937274 -0.14989662 0.09700157 -0.11439833 0.027676826 -0.0589181 -0.0609235 -0.158376 0.03006502 0.03275539 0.047368236 -0.08807184 0.10231316 -0.12772173 0.11374178 -0.017607274 -0.060361747 0.07836588 0.079843566 0.03169892 0.026099725
53 -0.027742682 0.08439813 -0.024372106 0.071393855 -0.14125142 0.08916158 -0.13548641 -0.07066473 -0.20570989 0.09791938 0.05354456 0.031622835 0.099392325 -0.021171922 -0.08595473 -0.057608344 0.07349507 -0.07204496 -0.03827329 0.015504923 -0.1424843 0.091777384 0.04886356 -0.15113601 -0.12615481 -0.055758107 0.02400603 -0.0019260591 0.031667057 -0.08326139 0.078439 -0.12612556 -0.039886985 -0.052833598 0.105167925 0.065198146 -0.10804019 0.06905849 0.11050653 0.06482048 0.06828992 0.025747813 0.09445156 0.024133848 -0.0176124 -0.016005334 0.043910474 -0.022679998 0.102691084 -0.0007163987 0.067072935 0.037201617 -0.1862018 0.06742333 0.02926722 -0.052444227 0.080174 0.057429228 -0.10934528 -0.10074799 -0.20483643 -0.0014193513 0.09412768 0.036016546 -0.08709912 -0.040437978 -0.028097944 -0.016043633 -0.06816138 0.13714844 -0.037429877 -0.10286506 0.03312809 0.037257694 0.071067855 -0.07002472 0.015766827 0.13717897 -0.09707035 -0.112411685 0.023106623 0.097919784 -0.091634415 0.012259509 -0.12721956 -0.004586419 0.083873734 0.01051717 -0.027087666 -0.08021098 -0.23777191 -0.013011845 -0.083133765 -0.004755385 -0.09574626 0.017554058 -0.11031747 0.08504716 0.069534585 0.012133795 0.07628203 -0.117397614 0.1084359 0.22071932 0.029386733 0.061253782 -0.10630295 -0.10528393 -0.026636539 0.11939819 -0.01770629 0.08850075 -0.13253008 -0.017441915 -0.06162639 0.077114575 0.12001744 0.046927907 -0.00068543205 -0.011788803 -0.017702771 0.06319155 -0.13473451 0.015290891 0.12470554 0.14963458 0.103295445 0.102739535
54 0.049528528 0.09598988 -0.045668826 0.1448173 -0.1279299 0.07135859 -0.16358022 -0.10388074 -0.21575747 0.1133957 0.047329973 0.074787185 0.05581862 0.038438503 -0.019012759 -0.026180858 0.02822508 -0.09264063 -0.057196558 0.079126194 -0.15289855 0.082317926 0.07604453 -0.04439868 -0.14877923 -0.06928613 0.0545746 0.03907687 0.039642777 -0.055753328 0.082797624 -0.082424246 -0.06872613 -0.09146545 0.07735995 0.04404943 -0.1060285 0.04599771 0.07862167 0.038870078 -0.025427535 0.048109837 0.13194437 0.086240225 -0.038952973 -0.020681461 0.08621244 -0.11660939 0.047113426 -0.015477179 0.04729436 -0.014507836 -0.22587183 0.06501992 0.048954103 -0.057343714 0.045749657 0.04155185 -0.08569626 -0.053875133 -0.21062322 0.0636134 0.07690632 0.05999619 -0.021389754 -0.07967908 0.05336041 -0.020312717 -0.04700527 0.12160249 -0.047846895 -0.057063747 0.09912251 -0.00980442 0.055115685 0.027141351 -0.009455347 0.06523919 -0.08473348 -0.0640463 0.007289175 0.01928069 -0.012464027 -0.024049552 -0.027569275 -0.020474847 0.1442925 -0.048923917 -0.11153555 -0.056064792 -0.07335611 -0.028163658 -0.057637054 0.040584233 -0.030935463 0.025746921 -0.11903972 0.15873206 0.09377132 0.05811558 0.07790738 -0.086585 0.07536393 0.118000284 -0.040009066 0.031415496 -0.05287101 -0.06594262 -0.030351616 0.031043887 -0.07160007 0.067305155 -0.09022665 -0.10332883 -0.036515392 0.04110675 0.07840293 0.040707555 -0.014853655 0.028387234 -0.046644483 0.09045946 -0.09109208 -0.079482205 0.041897286 0.16376695 0.061293405 0.07048397
55 0.11530098 0.15461455 -0.13170537 -0.031136166 -0.015011898 0.15070753 -0.03979506 -0.10663321 0.020616263 0.03517054 0.14248666 -0.050664052 0.07626762 0.0764377 -0.18007873 -0.12942645 0.15163566 -0.1620055 0.05386856 0.11165053 -0.041528676 0.15571328 0.120650396 -0.14723928 0.033762194 -0.15189186 0.154261 0.010342821 0.15819561 -0.152233 0.10440725 -0.11993298 -0.16040827 0.048628394 0.1361197 0.1551099 -0.15506054 0.14557491 0.13522579 0.13993661 -0.14880066 -0.05559696 -0.008673056 0.079160824 0.05269312 -0.017982159 -0.026453456 -0.10629134 0.06961274 -0.024593985 0.14929326 -0.023337126 -0.02150056 0.15987869 0.12695478 -0.16452275 0.13526078 0.059460264 -0.13891247 -0.14637688 0.06316312 0.10423336 0.14915806 0.14286602 -0.1739571 -0.14909971 0.06601137 0.0482081 -0.14423814 0.039962623 0.07138697 -0.16351889 0.108090214 0.16867916 0.14606659 -0.15977834 -0.01368009 0.13289152 -0.113111325 -0.1464739 -0.037714384 -0.20898129 -0.14639646 -0.0829312 -0.12289397 -0.064713165 -0.024644926 -0.120019846 -0.010583994 -0.09187392 0.34471217 0.03194672 -0.14600751 0.100148715 -0.15730838 0.1991069 -0.030111302 0.06720084 -0.04926883 0.010086024 0.16756111 -0.14475772 0.074022256 0.03153534 0.010933157 0.1690709 -0.12728982 -0.15224224 0.0009707174 0.08153952 0.053090714 0.13189574 -0.015195194 -0.02449297 0.07892297 0.13833638 0.068843305 0.14281505 0.06624525 -0.058666214 -0.0114945145 -0.059222598 -0.04004583 -0.14128771 0.14632031 -0.02158291 0.16350813 0.13693187
56 0.095116735 0.09924347 -0.1779548 0.047775067 -0.06270835 0.112249985 -0.09254352 -0.14459977 -0.034822553 0.06794681 0.100165635 0.04753809 0.025911015 0.06666371 -0.091166824 -0.04433368 0.083001405 -0.15441673 -0.01300269 0.06298409 -0.107126534 0.097913705 0.03218428 -0.098019816 -0.04046121 -0.07142972 0.14967446 0.04130568 0.11965037 -0.08323476 0.06586378 -0.096640036 -0.113642134 -0.026425831 0.07444386 0.08828155 -0.08532042 0.10054848 0.04210106 0.13182192 -0.16982679 0.032428443 0.08490077 0.07624146 -0.032633916 -0.015043646 0.028927265 -0.099410065 0.046223305 -0.02796206 0.09218268 -0.045942064 -0.100505695 0.07071167 0.0807313 -0.07698375 0.10355703 0.10125361 -0.03295232 -0.08486048 -0.10401516 0.042541638 0.05171086 0.09996465 -0.06513252 -0.1541931 0.058453463 -0.012346331 -0.0827057 0.059838146 -0.023317553 -0.06807173 0.08959245 0.10143186 0.11529751 -0.09808047 -0.014056949 0.04513891 -0.16120246 -0.0500144 0.0056363456 -0.12986653 -0.089307524 -0.077234365 -0.08006286 -0.03764758 0.049544375 -0.07580009 -0.05747772 -0.11948951 0.21868725 -0.014651351 -0.11001199 0.03328208 -0.05804626 0.10705232 -0.118339576 0.11185471 0.018541597 0.045917742 0.068270296 -0.1081616 0.0866565 0.02299873 -0.043516155 0.14025599 -0.11975399 -0.06518907 -0.0060623833 0.10164314 -0.025187941 0.059655488 -0.07447017 -0.084296055 -0.016056238 0.078177385 0.0673693 0.087257855 -0.010573255 0.021358188 -0.063512914 0.023115993 -0.032036435 -0.08067652 0.06805408 0.053725664 0.082815096 0.088498026
57 0.122795135 0.12245255 -0.2487775 -0.03407897 0.0037595665 0.20748042 -0.046898577 -0.09829151 0.0672454 0.08988188 0.1001975 -0.028771551 0.086680494 0.086640015 -0.13182801 -0.12614521 0.15720974 -0.21319306 0.039016876 0.14419979 -0.0658067 0.11169352 0.085735604 -0.14472337 0.09596048 -0.1078147 0.11781636 0.038266715 0.091154866 -0.16320887 0.14707205 -0.1229956 -0.14493865 0.12608975 0.12234412 0.10541194 -0.12932742 0.09665493 0.09925462 0.18153371 -0.15810367 -0.047871053 0.060090184 0.14174461 0.049454927 -0.0336684 -0.03264405 -0.12795283 0.11691731 -0.017376553 0.13941458 -0.050715193 -0.024624083 0.119789995 0.07974319 -0.16065463 0.12687409 0.07052883 -0.09880563 -0.13080142 0.13999592 0.13578717 0.08924472 0.10185693 -0.1321894 -0.1989745 0.10438235 0.03527332 -0.12112904 0.030873 0.1078624 -0.13135965 0.12715805 0.1565607 0.10908256 -0.16225395 -0.0022012454 0.07043092 -0.13072543 -0.095755085 -0.034052122 -0.19634737 -0.1359674 -0.0723267 -0.13524988 -0.06735533 0.024791412 -0.1179824 -0.06605667 -0.14408529 0.38118967 0.0028249596 -0.122643 0.07817955 -0.1328565 0.11069085 -0.07584768 0.09104592 -0.016716419 0.057876095 0.10706955 -0.12230845 0.1504403 0.07014045 -0.014921002 0.21488895 -0.14001067 -0.093773685 -0.020307943 0.116157874 0.04762012 0.0840878 -0.10727178 -0.058747243 0.019556861 0.123786576 0.05888647 0.09160329 0.06114015 -0.011944991 -0.086847484 -0.08090292 -0.046013333 -0.15529723 0.13897878 -0.060391948 0.1324336 0.12915444
58 0.020187553 0.017717171 -0.064837515 0.20924729 -0.20161888 0.032596655 -0.1911265 -0.17087345 -0.21987526 0.10470975 0.00911459 0.20925519 0.051014166 0.013156075 0.04170655 -0.04084705 -0.026599763 -0.03402173 -0.13994996 0.13559039 -0.18309571 0.04434682 0.10655784 -0.041479923 -0.26879665 -0.012731477 0.09104566 0.08806702 -0.00019369315 -0.010388421 0.051414765 -0.048249733 -0.057602383 -0.21594235 0.038735732 -0.01868529 -0.08038094 0.0038726388 0.06272453 0.014468794 -0.012629937 0.15289316 0.22767252 0.053430744 -0.120279714 -0.087489545 0.15216327 -0.19767438 0.079750925 -0.09364641 -0.0070884926 -0.06181578 -0.21069142 0.04458625 0.015040084 7.69568e-05 0.020371059 0.05653025 -0.026715769 -0.01509917 -0.29836246 0.19788194 0.026534908 0.0026052764 0.03944933 -0.07829665 0.09552804 -0.10730665 -0.023162877 0.17661753 -0.18805264 -0.01696963 0.12443831 -0.06914816 0.05261116 0.05551045 -0.0665977 0.02465838 -0.14210601 -0.051309217 0.08578142 0.12456249 -0.0002654194 -0.12388301 -0.0059823263 -0.046483766 0.25102577 -0.14201088 -0.19516094 -0.056508258 -0.3345091 -0.10152851 -0.025546338 -0.035547294 -0.003681982 -0.06617712 -0.11752291 0.19937442 0.14935926 0.09923965 0.043248113 -0.09312222 0.088391855 0.11337726 -0.05277783 0.0014742599 -0.027756413 -0.004154498 -0.019840674 0.03324955 -0.15433182 0.064905986 -0.15238325 -0.12911223 -0.12965575 0.006798856 0.08393602 0.012373096 -0.11018684 0.07392614 -0.07698015 0.15782055 -0.11087247 -0.09565939 0.011218245 0.27432117 0.029888578 0.05563805
59 0.121498406 0.07770964 -0.086363874 0.09425997 -0.023464909 0.070639625 -0.08090306 -0.12041185 -0.038536087 0.077535786 0.08318863 0.051054727 0.09604348 0.07644135 -0.10528206 -0.037679937 0.045393202 -0.12298273 -0.022982173 0.10029834 -0.076711774 0.07419027 0.063908234 -0.09562105 -0.05044681 -0.07071404 0.11213152 0.05708256 0.10729596 -0.04073777 0.10262818 -0.114344805 -0.08016514 -0.037834488 0.09672591 0.0487099 -0.08356278 0.103911534 0.036467165 0.10103357 -0.11653336 0.037031185 0.1559433 0.13027957 -0.043953 -0.02914753 0.06679808 -0.087642185 0.052971058 -0.043158624 0.08718658 -0.062496483 -0.05353403 0.065312035 0.1324582 -0.05125079 0.040642194 0.07102517 -0.029553216 -0.065485 -0.072669186 0.074845195 0.03960517 0.08912959 -0.09134798 -0.096873984 0.09191147 -0.021019625 -0.04353193 0.039199613 -0.023748115 -0.017633136 0.106423445 0.08849409 0.05284357 -0.045218967 -0.034782894 0.02276751 -0.13530102 -0.03088168 0.011256622 -0.122577704 -0.12597398 -0.082929954 -0.11334455 -0.02766915 0.065991536 -0.09183289 -0.09356223 -0.06738673 0.2107314 -0.024746275 -0.060031004 0.061201893 -0.04314345 0.07202098 -0.10077963 0.07707123 0.04819983 0.056225654 0.064337194 -0.09938108 0.054019876 0.047894165 -0.053048473 0.1180308 -0.088843636 -0.0379027 -0.0329557 0.057619076 -0.043299157 0.0320404 -0.1048439 -0.1254293 -0.022612363 0.044659603 0.046546172 0.08383201 -0.023599854 0.03333862 -0.09363192 0.03305393 -0.031459082 -0.09807833 0.062272258 0.053024437 0.0698644 0.04433267
60 0.087945335 0.10029542 -0.13558953 -0.011431004 -0.038285427 0.10901797 -0.037167966 -0.0841355 0.007108945 0.081012845 0.10590026 -0.015743468 0.12170896 0.07253155 -0.10579317 -0.078696504 0.07503731 -0.12525369 0.016630482 0.090307735 -0.07717625 0.09856332 0.08743113 -0.12257195 0.07409533 -0.09142164 0.09835784 0.04404278 0.09873091 -0.07647945 0.11828998 -0.0830045 -0.10156884 0.065986626 0.10008829 0.08314489 -0.14651516 0.08688237 0.0698438 0.12954633 -0.13126707 -0.008586404 0.054477155 0.08815526 0.021394795 -0.034703318 -0.021644082 -0.09484436 0.1008939 -0.04794052 0.09747141 -0.062475838 -0.030198006 0.07915794 0.10631755 -0.08534996 0.08174783 0.061681036 -0.0607537 -0.09183145 0.072580665 0.09640643 0.08327405 0.07745805 -0.12625553 -0.095609106 0.07568907 0.00627145 -0.08936062 0.025113488 0.05518506 -0.08624648 0.09475419 0.105175264 0.08332183 -0.14470385 -0.021245806 0.04576892 -0.10549814 -0.058189202 -0.014494625 -0.13837056 -0.09210712 -0.07260943 -0.09663929 -0.054349698 0.03564913 -0.100924395 -0.07146474 -0.09589889 0.22670077 -0.01730959 -0.080884054 0.102890074 -0.10555936 0.12723102 -0.07441543 0.077767156 -0.019662907 0.06267522 0.0748951 -0.08653297 0.11063661 0.0686299 -0.024346428 0.116616726 -0.08246067 -0.07246932 -0.03855848 0.08651073 0.0063414373 0.074999064 -0.03684187 -0.060622197 0.014378804 0.06674824 0.054898217 0.11958489 0.007892745 0.0159601 -0.08973039 -0.038273584 -0.046424482 -0.10809746 0.09443084 0.018908337 0.099309236 0.069052674
61 0.087456204 0.045599334 -0.024749555 0.12482851 -0.05528013 0.035743333 0.025234388 -0.0910952 -0.13769302 0.12883589 0.09959411 0.070794486 0.17674315 0.033237256 -0.05623978 -0.13918841 0.03694843 0.0070537776 -0.09175247 0.02835183 0.04684177 0.013891518 0.12114791 -0.096683666 -0.1242421 -0.005856319 0.09277389 0.044395 0.07164625 -0.028681463 0.084728174 -0.100556724 -0.03916044 -0.08846027 0.12385174 -0.021946969 -0.054123785 0.10078569 0.016866034 0.09891533 -0.058731817 0.09528701 0.0607708 0.081395075 -0.06644765 -0.097033404 0.07726967 -0.111054905 0.13030644 -0.1156521 0.050073136 -0.09481265 -0.032402575 0.0054787896 0.0904239 0.051901814 0.022867694 0.081912674 -0.06417398 -0.050990734 -0.15711506 0.13967296 0.061220564 0.01539407 -0.1304441 0.039683558 0.051930323 -0.037403096 -0.024085393 0.005742438 -0.097611874 -0.036420822 0.08394824 0.0070627294 0.032704122 -0.0899602 -0.07801093 0.045152504 -0.11261874 -0.052506 0.1276503 0.124611825 -0.12667067 -0.06827563 -0.10542888 -0.104088016 0.08084626 -0.10328674 -0.100020155 -0.077464126 -0.39173353 -0.12077724 -0.03194453 0.078579396 -0.06564068 -0.02277594 -0.08933127 0.0078016296 0.14282861 0.109831564 0.021268724 -0.035121344 0.11479224 0.19749352 -0.06433458 0.041833073 -0.07578827 -0.030856948 -0.16397402 0.14020106 -0.107734434 0.027503887 -0.13501872 -0.07247142 -0.18312463 0.039241686 0.05659051 0.05203571 -0.090913236 0.08113757 -0.06780364 0.13705568 -0.08714136 -0.07536701 0.05999924 0.123989366 0.08604139 0.04800627
62 0.24455209 0.009328915 -0.1165025 0.31778368 -0.22334482 -0.01149041 -0.26059198 -0.23735772 -0.33094403 0.03683604 0.08094796 0.24726328 -0.0049536857 0.28672647 -0.0044265343 0.16963801 0.048548028 -0.08950032 -0.15130542 0.07384089 -0.18397678 0.08054312 -0.14619747 -0.025116334 -0.39250177 -0.052542564 0.010302021 0.14190355 -0.027157031 -0.021434948 -0.0016143334 -0.16244571 -0.06917737 -0.20488963 -0.04844135 0.07712536 -0.008993023 -0.09272801 -0.03434136 0.096928254 -0.13607113 0.1544355 0.33068553 0.20446515 -0.17634054 0.017007513 0.10764384 -0.034472138 -0.036960486 -0.0096086515 0.041050065 -0.19820236 -0.30263567 0.083922714 0.0813942 -0.106356576 0.04929093 0.1459434 0.013682884 0.05027563 -0.47338644 -0.110413805 -0.02090054 0.10054931 0.1137353 -0.1704448 0.104948 -0.18818453 -0.02256459 0.19246788 -0.28334528 -0.0013189899 0.067203715 0.11280878 0.063394874 0.07705336 -0.10584803 0.015003767 -0.18851854 0.051167335 0.06421643 -0.2538503 -0.0755203 -0.1474341 -0.14130911 0.1399728 0.21309645 0.11308049 -0.23162107 -0.016361335 0.39664343 -0.10947891 -0.1526213 -0.14017977 0.020819051 0.07529596 -0.30101556 0.17024003 0.2297716 -0.028848046 0.036934182 -0.043664172 0.046277 -0.008757258 -0.19583644 0.053102005 -0.1318607 -0.025534788 -0.011052516 -0.104866855 -0.10314198 0.04276364 -0.22132115 -0.2833522 -0.10184216 0.015720878 0.10813817 0.0054246536 -0.122423515 0.08120713 -0.09567454 0.17106251 -0.07519598 0.04559659 -0.068960585 0.321522 0.02258229 0.015705511
63 -0.020669349 0.04237059 -0.045684658 0.12958916 -0.11159373 0.06968008 -0.11914906 -0.073747694 -0.20407756 0.07598258 0.039781373 0.09999925 0.07159373 -0.08586348 -0.05885758 -0.07225584 0.057587147 -0.04525246 -0.09075102 0.07145086 -0.10572188 0.073909 0.080792144 -0.09024951 -0.16627122 -0.039324604 0.05648406 0.048560075 0.014293944 -0.0698734 0.06830002 -0.05983079 -0.04502162 -0.099397115 0.09273503 0.042343043 -0.07516437 0.048163667 0.08126343 0.040588338 0.034257416 0.09032663 0.1338215 0.0929712 -0.08699396 -0.06583715 0.085565075 -0.08467534 0.07734286 -0.057378113 0.060159903 -0.020252008 -0.11238842 0.06254627 0.01212784 -0.054438706 0.07028065 0.058370028 -0.080464505 -0.077575326 -0.17691751 0.030874584 0.059875708 0.007432134 -0.060485184 -0.028646616 -0.002652836 -0.085424334 -0.04646057 0.12630896 -0.12810002 -0.06910372 0.05489354 0.03344806 0.06987575 -0.06986051 -0.049309663 0.09874772 -0.083481655 -0.07775213 0.07756794 0.03024871 -0.06811771 -0.036015127 -0.08016284 -0.036793206 0.10654774 0.004549797 -0.038816277 -0.06157216 -0.29044792 -0.056032293 -0.071052864 -0.02560989 -0.07869446 -0.010753592 -0.075369075 0.094213285 0.10375746 0.07184538 0.06576559 -0.09010616 0.07781536 0.12980519 -0.040961333 0.05382663 -0.078879625 -0.078776546 -0.035500415 0.075257435 -0.06325246 0.08095035 -0.10032814 -0.033557165 -0.11254587 0.069241494 0.0876635 0.030736543 -0.06627961 0.05962531 -0.030863445 0.11855464 -0.09203308 -0.042105436 0.08389643 0.1969952 0.06523843 0.091185175
64 0.07757952 0.23769212 -0.1870124 -0.060736787 0.01736313 0.21603458 -0.046623122 -0.12631194 0.08067208 0.065768726 0.17707236 -0.056545515 0.08445873 0.0556547 -0.2596599 -0.100524664 0.16479369 -0.23619491 0.055543415 0.09268298 -0.053309266 0.17054877 0.06057217 -0.19630896 0.109983616 -0.19184448 0.158443 0.0076347995 0.24203876 -0.14187925 0.13455808 -0.16060585 -0.22760774 0.10479849 0.18672857 0.13106227 -0.22042523 0.1770369 0.11246295 0.22030494 -0.13387215 -0.046566546 -0.018140674 0.085044265 0.046980772 -0.0031068868 -0.038869098 -0.08543759 0.12026607 -0.010836977 0.2390555 -0.019013938 0.021034732 0.1526084 0.17199443 -0.12670538 0.14187562 0.115707524 -0.13406152 -0.2143701 0.18295345 0.07153188 0.1254358 0.18880926 -0.22299892 -0.26442993 0.030421672 0.0379819 -0.16152869 0.035794083 0.09732277 -0.12698577 0.11150044 0.21313137 0.13973106 -0.23322858 0.004287852 0.076211445 -0.1497342 -0.12065587 -0.027555078 -0.25991464 -0.1928726 -0.047684107 -0.16583279 -0.025192257 -0.034695677 -0.075482406 -0.002743986 -0.17126682 0.3668735 0.018477533 -0.16909966 0.065022945 -0.19156371 0.21222883 -0.019393867 0.098755784 -0.058746554 0.019829681 0.15854634 -0.19821356 0.1546654 0.010075325 0.024436096 0.26930532 -0.20770265 -0.10727088 0.0015944361 0.13456151 0.04777374 0.1191778 -0.008724818 -0.02970736 0.044505484 0.14377137 0.08561031 0.20108625 0.036778208 -0.03166501 -0.047512546 -0.08545052 -0.037880655 -0.14937124 0.15399505 -0.074146874 0.1855429 0.1400937
