26 128
0 -0.012412334 0.0115848975 -0.018355101 0.017331261 -0.020451918 0.021347763 0.002643777 -0.0045923083 -0.02388904 -0.0096148215 0.0091933925 0.013125497 0.003819557 -0.018745199 -0.0116023645 -0.012421531 0.02237467 0.01624327 -0.0030337744 0.0062250094 0.015603501 0.012210108 -0.021235317 -0.0191643 -0.020952672 0.021907546 -0.004385056 0.013761209 0.008729022 0.010662994 -0.006674788 -0.017559567 -0.019431273 0.020142661 0.002039866 -0.017400065 -0.01738292 0.013020999 -0.021477303 0.012159157 -0.026809424 0.015299812 -0.016242757 0.0003582185 0.008881295 0.01567993 0.009977371 0.019641414 -0.020069096 -0.0057386626 0.0102607915 0.014296161 -0.008536578 -0.0035538473 0.0109122945 -0.014273517 -0.01025456 0.0016501325 0.022567851 -0.014301136 -0.016603714 0.019435747 0.011626195 -0.007769518 -0.0057838634 -0.025111282 -0.010415763 -0.021066004 0.0062425407 0.010861965 -0.015607673 -0.005889678 0.007219794 -0.015931843 0.021623852 0.005676275 -0.017049676 0.01582391 -0.013855983 0.017692754 0.01672981 0.013006633 -0.014914869 -0.012245672 -0.01815413 -0.015980378 -0.017322993 -0.010955404 -0.0045861583 -0.009706327 0.00306564 0.009970131 0.0115111545 -0.017220303 0.015813971 -0.019579513 -0.0050995396 0.0024154482 -0.019366764 0.007982483 -0.016430797 -0.017030897 -0.011453083 -0.016503284 0.01778509 -0.015183588 -0.014403932 0.0007682131 -0.011483737 -0.016600827 0.008133505 -0.020064367 0.022115588 -0.019074632 0.021585973 -0.0066258633 0.019255463 -0.008999974 0.013760573 -0.0034118376 -0.009191464 0.0023266962 0.018994471 -0.004832601 0.010691822 0.005312309 -0.019764923 -0.01337327
1 -0.02002454 0.02441832 -0.018649567 0.015821341 -0.018067703 0.022501463 0.0065171137 -0.0076788277 -0.023892323 -0.0204861 -0.0037502889 0.02061189 -0.007644426 -0.026033828 -0.0053739827 -0.019856595 0.018610984 0.013073411 -0.014082408 0.008803831 0.020958642 0.01609746 -0.01638195 -0.021400148 -0.017464483 0.013417498 -0.023886101 0.018581025 0.0031147136 0.025509076 -0.020947685 -0.018415183 -0.0158273 0.020619152 -0.0060841143 -0.028773122 -0.012202372 0.028732806 -0.027209396 0.027566064 -0.019568294 0.004349632 -0.016943298 0.006048888 0.01536397 0.003365633 0.010772944 0.029801946 -0.019458545 0.004635173 0.002169931 0.01965527 -0.0119881155 -0.014773124 0.0028312043 -0.022137363 -0.02808705 0.0060982234 0.023255795 -0.025659513 -0.0012534511 0.018977879 0.031563744 -0.005155904 -0.02052233 -0.027903553 -0.0018010463 -0.017181195 -0.014775659 0.02255131 -0.019437307 -0.014557027 0.005663419 -0.026623968 0.02710167 0.0070702652 -0.01859163 0.020270333 -0.0040982408 0.014794496 0.020215126 0.010490703 -0.02134594 -0.025150295 -0.026410924 -0.014116368 -0.02624353 -0.016853232 0.0094591845 -0.012180448 0.020270266 -0.0018157075 0.026778767 -0.015938193 0.020605065 -0.0098716905 -0.005300812 -0.007316915 -0.031370785 0.017487343 -0.02330895 -0.026548179 -0.017031388 -0.026438337 0.024576586 -0.017494602 -0.018943919 -0.0023789164 -0.021957943 -0.02332012 0.010734306 -0.023723992 0.020166693 -0.0113033885 0.024835084 -0.007683897 0.026246345 -0.0076700826 0.021155976 -0.019988552 -0.020342665 0.016078878 0.015309267 -0.004974073 0.0052295136 0.028558867 -0.016772056 -0.011283642
2 -0.016692055 0.014134302 -0.013924274 0.018318236 -0.0250244 0.019859944 0.025833778 -0.013040552 -0.025536276 -0.019419499 -0.010031452 0.018131193 -0.014160051 -0.01686613 0.006607935 -0.017781569 0.016102392 0.008800487 -0.022568999 0.01070588 0.016099837 0.0039003957 -0.024292877 -0.024032868 -0.025485901 0.006397494 -0.027197525 0.009095811 -0.001411169 0.014895543 -0.022049472 -0.014295051 -0.013542431 0.013568457 -0.004070068 -0.02538009 -0.0078933835 0.022557711 -0.021595364 0.01658137 -0.028978432 -0.002640448 -0.020822303 0.023245208 0.013913913 0.0013854355 0.0054132813 0.029323172 -0.019469 0.011510926 0.01331879 0.021158626 -0.01736415 -0.007137971 0.001194661 -0.02246705 -0.026754742 0.0079686595 0.0053729694 -0.010005328 -0.005865285 0.0035101997 0.015395473 -0.023612102 -0.015411221 -0.017205585 0.0050544585 -0.018365422 -0.015131349 0.022875484 -0.022068817 -0.01664648 -0.0068246657 -0.028217377 0.024180204 0.0027115894 -0.021468505 0.015597801 -0.008307794 0.007058538 0.016247256 0.010470228 -0.011122501 -0.025838606 -0.023526467 -0.016425185 -0.009197343 -0.013363102 0.01322166 0.005887961 0.022933902 -0.016005538 0.019687496 -0.012545974 0.024917368 -0.013659394 0.0108666 -0.01998649 -0.017722076 0.021473872 -0.016802264 -0.012721125 -0.022401476 -0.013121454 0.0076670046 -0.025100868 -0.025150677 0.011298147 -0.012682863 -0.007879718 0.013323337 -0.018944364 0.018311009 -0.013167636 0.027512288 -0.009228399 0.0130183 0.008114036 0.013240563 -0.027688 -0.019689757 0.0151356 0.014206994 0.0021808397 0.0017947219 0.010298539 -0.009676537 -0.01648426
3 0.003436007 0.0011788904 -0.007052152 -0.0012994356 0.0006495773 0.010028988 0.002101555 0.005667734 -0.0041125813 -0.005116077 -0.008147687 0.009646096 -0.011298629 -0.0046782093 0.00023816581 0.0024153944 0.013631493 -0.003918416 -0.009455372 0.0028769772 0.0024326856 0.0049941996 -0.012597578 0.0032290947 -0.0014448697 0.009117955 0.0012757604 0.004790474 -0.003458796 0.011290552 -0.0045558107 -0.0053720735 0.001660341 0.008920363 0.0004565885 -0.00849272 0.0041524926 0.021700427 0.004052849 -0.004848635 -0.008342149 -0.005949262 -0.0019754283 -0.0049423096 0.0026371886 0.0056247255 0.016920509 0.01124957 -0.00684616 0.007429771 0.012060022 0.00029890222 -0.005123185 -0.0107961185 -0.005113117 0.0068132984 -0.009839127 0.0057860143 0.0016597224 -0.005434241 -0.007739358 -0.004460872 0.006929119 -0.014137113 -0.005070404 0.0045991554 -0.008291487 -0.0014391963 -0.007451412 -0.0028760002 0.0045517576 0.008247416 -0.008566382 0.0024656504 0.004566552 0.0026952727 -0.011809546 -0.005655863 0.003815168 0.0008744164 0.017531179 -0.006978901 -0.0025561491 -0.01499818 -0.007205602 -0.0053820075 -0.017124917 -0.0048868847 0.0014620225 0.0053897877 0.012048002 -0.0089824665 0.002000196 0.00553479 0.013292365 -0.0061479155 0.00070543983 -0.021369947 -0.009838986 0.0022517163 -0.0012854593 -0.00991043 -0.0052622557 0.0009278661 -0.0024833002 -0.0013295948 -0.00793925 -0.0022948887 -0.0029790148 -0.0051324302 0.005207825 -0.008903715 0.0015192493 -0.0067959195 -0.0016789645 0.0069327094 0.0032091113 -0.0051864274 0.0008501406 -0.019069184 -0.0073930304 0.0005685862 0.0041592424 0.0059356727 -0.0063381833 0.0035110703 -0.0025246968 -0.0016991221
4 -0.01552709 0.0167265 0.0010630129 0.004821267 -0.009949279 0.009392553 -0.010012938 -0.0070663043 -0.017431842 -0.0013882318 -0.0045386194 0.020382628 -0.00034551194 -0.0066208662 -0.002230961 -0.0041496633 0.00871552 0.006820809 -0.002501007 0.0026968052 0.0023350972 0.014141047 -0.008599601 -0.014252795 -0.018526014 0.014362234 -0.013432626 0.004460708 -0.019219296 0.0074200914 0.003037904 0.0014527601 -0.023438236 0.0065052095 0.00046736372 -0.005828068 -0.0026665756 0.0043013934 -0.013333713 -0.0007630743 -0.017483532 0.0154432 -0.013632475 0.0014241855 0.008200523 0.0060207713 0.003235941 0.0007415706 -0.0087040365 0.0082129305 0.015622653 0.018302662 -0.0037206789 -0.01555095 -0.0031499744 0.00010013877 -0.012597608 -0.0012171689 0.013150407 -0.022108065 -0.009528457 0.011255137 0.006071381 -0.004569885 -0.0061872266 -0.022171665 -0.011432307 -0.014335878 0.00087310025 0.010009534 -0.0076746233 -0.0035877242 -0.004896291 -0.00893836 0.010878439 0.0072833784 -0.015368461 0.006360318 -0.012898954 0.0103469975 0.0038981088 0.008680551 -0.0044988543 -0.00035311468 -0.0049067605 -0.0060215103 -0.01800046 -0.027548637 -0.0024141564 -0.012701694 0.0016959148 -0.0062537165 0.02072629 -0.004171712 0.016159216 -0.0023603302 -0.013302715 0.0004851806 -0.018856922 0.018090425 -0.003151626 -0.016053984 -0.007109817 -0.013147034 0.015155365 -0.007850887 -0.01637486 -0.0013599795 -0.0066937082 -0.0061295805 -0.004696264 -0.018480515 0.010215001 -0.011405822 0.020597713 -0.010747657 8.92629e-05 7.386056e-05 0.0080949245 -0.014010343 -0.0053703682 0.01740865 0.012382562 0.0012983129 0.008174223 0.009289868 -0.015561075 -0.019400202
5 -0.021217695 0.017975293 -0.007125467 0.008035445 -0.021660317 0.021610307 0.010483303 -0.011430105 -0.023341917 -0.016478414 -0.0036953513 0.0066606835 -0.0034486055 -0.013259588 0.0038397498 -0.020384504 0.0148237925 0.001680292 -0.02245178 0.026105229 0.02628512 -0.00061253237 -0.022456292 -0.022344545 -0.02267614 0.0036365655 -0.02191802 0.017293107 -0.0003038401 0.017277181 -0.02084524 -0.02015833 -0.0071573784 0.02134436 -0.0006150667 -0.015763054 -0.011369053 0.009737551 -0.008624312 0.016693901 -0.022559956 0.009647296 -0.018580385 0.0018078062 0.011776995 0.008871894 -0.00020121328 0.017789114 -0.016333757 -0.0013768293 0.0031297458 0.0082180295 -0.008869047 -0.01406721 -0.0049779015 -0.013315494 -0.021224305 0.0065554706 0.0031408938 -0.013813068 0.011835158 0.006042183 0.027886936 -0.015194316 -0.010569366 -0.011066655 0.003477334 -0.01605723 -0.013546216 0.019645201 -0.016784508 -0.010862966 -0.005212363 -0.022881579 0.021173388 0.008483552 -0.01684299 0.0092857955 -0.0054485016 0.0046297465 0.017194383 0.007669519 -0.019866355 -0.022247713 -0.011800799 -0.018067708 -0.008253706 -0.016332999 0.0038166877 0.007898263 0.015742034 -0.014113174 0.020222992 -0.018838208 0.00716591 -0.007442323 0.0068579894 -0.014942161 -0.018344719 0.017841224 -0.013543731 -0.021437112 -0.015326081 -0.020179164 0.008433461 -0.012500642 -0.011919732 0.011244786 -0.0069737276 -0.015265064 0.01202194 -0.006338899 0.014789164 -0.003690043 0.015657892 -0.00902571 0.021922624 0.0032157302 -0.002977439 -0.012257957 -0.017562682 0.014333012 0.016687943 -0.0017486705 0.0029729414 0.015889456 -0.014615388 -0.024317777
6 -0.013386497 0.022819402 -0.01380267 0.004762194 -0.026527975 0.01244654 0.019106138 -0.008624552 -0.020751547 -0.016855525 -0.0069238124 0.014642024 -0.023469219 -0.00018861535 -0.0017444531 -0.015796522 0.019731577 0.0012298244 -0.018302877 0.008498443 0.01871694 0.0032445604 -0.02105161 -0.018265191 -0.022783523 0.0034173806 -0.015172897 0.006557672 0.0062689083 0.02524005 -0.016461235 -0.011861236 -0.019306391 0.023586232 -0.008059719 -0.018491821 -0.0073433113 0.014016282 -0.02075366 0.004443234 -0.008745976 -0.0007454213 -0.010744446 0.0052238014 0.012795126 -0.0024558415 0.0030925013 0.013210705 -0.0131411245 0.006345956 -0.008848527 0.013772619 -0.008862429 -0.018572796 0.00018618863 -0.013532465 -0.01706165 -0.010894154 0.009554462 -0.007396765 0.0031996882 0.0016864475 0.012985043 -0.01750677 -0.0041288016 -0.013190854 0.011210279 -0.0057162475 -0.004664562 0.014321866 -0.011823313 -0.013509526 -0.004190987 -0.008102149 0.017217306 0.0017539766 -0.012668094 0.016953362 -0.0054251957 0.010429008 0.014145046 0.014902921 -0.01330973 -0.014691054 -0.013514708 -0.014403663 -0.011697653 -0.009881334 0.0013434032 0.005516307 0.022044502 -0.004204085 0.006712708 -0.017787881 0.009215219 -0.013220128 0.00027569605 -0.0068365955 -0.005367252 0.00979607 -0.003347973 -0.008068794 -0.016880428 -0.018267017 0.01542095 -0.012805162 -0.0016731434 0.014254802 -0.017382398 -0.014794471 0.016329495 -0.009169517 0.006508647 -0.007144762 0.024512298 -0.0018063581 0.022552904 -0.006040758 0.0057493127 -0.0110742375 -0.011069076 0.0052004564 0.01307524 0.0036100245 0.011616963 0.009853321 -0.005668802 -0.021959743
7 -0.0065494636 0.007744525 -0.011395564 0.01833552 -0.0002740972 0.017039204 0.013024609 -0.0031677007 0.00037945958 -0.010950981 -0.017217483 0.0023536307 -0.018942658 0.004358692 0.0058105723 -0.009953806 0.009332117 -0.0066886046 -0.021052413 0.018744655 0.015149597 0.0023514002 -0.013703175 -0.0141182495 -0.018897315 -0.008243769 -0.0030630701 0.018742153 -0.0014996837 0.009662864 -0.015482251 -0.018469594 0.004272401 -0.00049833016 -0.008359441 -0.008668172 -0.0025592954 0.007434196 -0.008671268 0.0018685645 -0.022176733 -0.007345982 -0.016615486 0.019248938 0.0085816365 -0.005180256 -0.0023363205 0.0110370135 -0.015432078 0.004092542 0.0049079782 0.0072586252 -0.0018714784 -0.008882886 -0.009162753 -0.016291613 -0.014377533 -0.011727655 -0.0006598374 0.0013103066 0.00034248707 -0.0037598372 0.009072363 -0.013527213 0.008618994 -0.014676951 -0.0021874383 0.00063285604 -0.013414539 0.019671382 -0.0076015466 0.006653187 -0.0026407717 -0.015567856 0.0034691342 -0.005801208 -0.0060131494 -0.0028426365 0.0137505755 -4.9012655e-05 0.016697612 -0.003594895 -0.011732377 -0.010402096 -0.007501457 0.0014357034 -0.017172448 -0.0047942707 0.016907038 0.009674961 0.008287865 -0.015980411 -0.005277706 -0.008664613 0.0015521689 -0.015433395 0.014077514 -0.015514526 -0.0015472462 0.012441535 0.0066064815 -0.0073595615 -0.023975616 -0.009787259 -0.0038138584 -0.0005924923 -0.005326494 0.01528747 -0.0008564694 -0.008332021 0.012247083 -0.010084241 0.0010322819 0.003985373 0.009957839 -0.0054863333 0.008151635 0.013309074 0.0043698773 -0.020890608 -0.016628629 0.0041227983 0.009901664 0.0076793004 -0.010911792 0.009475533 -0.0025275338 -0.015394736
8 -0.009746865 0.019884298 -0.027049702 0.014951931 -0.020122943 0.018398356 0.016684853 -0.019753156 -0.025050202 -0.025787802 -0.016206987 0.00918619 -0.015677353 -0.00714748 0.013316642 -0.015042398 0.013424028 0.007671669 -0.013171465 0.01760696 0.024487376 -0.0036182045 -0.01635719 -0.020395767 -0.025377618 -0.014293659 -0.028714085 0.01261943 -0.005649015 0.029292587 -0.011542909 -0.015129996 -0.014301542 0.018421106 -0.027995996 -0.02380017 -0.0048739742 0.029931523 -0.023037422 0.009355677 -0.026531968 -0.010945141 -0.02169098 0.02421155 -0.00087379455 -0.015823603 -0.008665757 0.016810747 -0.010676983 0.016118566 0.010858912 -0.0006240574 -0.0020404859 -0.018546399 -0.01256944 -0.022731056 -0.020134762 -0.012380169 -0.008750199 -0.0053153 0.019596208 -0.008815116 0.020219952 -0.020160045 -0.002153125 -0.011082518 0.022702878 0.001925822 -0.014159596 0.006985984 -0.014031428 -0.013803046 -0.017675908 -0.012536843 -0.003615869 0.0022667847 -0.015430769 0.010452217 0.012918203 -0.001532656 0.020683432 0.018653475 -0.0029492765 -0.012238985 -0.010664541 -0.013627254 -0.015027037 -0.0060275896 0.011797913 0.015665952 0.016997295 -0.011487006 0.0071151312 -0.012559408 0.002364489 -0.016069548 0.023062661 -0.02362663 -0.0062007643 0.018701784 0.0017097009 -0.02036711 -0.019827057 -0.011248362 0.004621637 -0.021192286 -0.00013681455 0.014966848 -0.017958092 0.004364847 0.02402354 0.004885779 -0.0049812905 -0.022006765 0.026731012 -0.0072537907 0.020578817 0.012281786 0.0022839399 -0.022365002 -0.0074087977 0.010230642 -0.0056925737 0.007699218 -0.00445179 0.0031629417 0.0066534197 -0.012445507
9 -0.016163018 0.01641706 -0.015589336 0.014627367 -0.02872528 0.023216303 0.02201207 -0.014025339 -0.016060345 -0.017096017 -0.00963335 0.009444927 -0.02064024 0.0024514613 0.0052650594 -0.019401623 0.017838882 0.0030539052 -0.014207773 0.01889688 0.026280181 -0.005526698 -0.020279959 -0.019091265 -0.014357079 -0.013029791 -0.01626969 0.017180815 -0.004221615 0.018620715 -0.028520826 -0.024760451 -0.01974617 0.024320228 -0.016399167 -0.023923175 -0.0050409087 0.025181422 -0.022168767 0.026794234 -0.021835273 0.0037050233 -0.028254464 0.014658344 0.010976586 -0.014656956 -0.0030316636 0.011720474 -0.015854523 0.018992683 0.0033792905 0.010769118 -0.016567167 -0.013418562 -0.011957684 -0.01689893 -0.022597989 -0.010619049 -0.002349015 -0.011839442 0.011050076 0.008171768 0.028119389 -0.012571722 -0.009353043 -0.01407212 0.016586062 0.0049304403 -0.021127421 0.02106375 -0.023487117 -0.009269646 -0.011106968 -0.016527362 0.012895111 -0.0009694515 -0.028490053 0.023574086 0.010486037 -0.0013892712 0.021491013 0.0029200232 -0.010393152 -0.01653955 -0.012661205 -0.014887744 -0.020271135 -0.009466099 0.020358058 0.0071586827 0.021920929 -0.006854702 0.0111623965 -0.018366465 0.009906823 -0.017918266 0.015546255 -0.023608534 -0.009297794 0.022972578 -0.014992915 -0.014488855 -0.026001645 -0.015047818 0.015975 -0.01930331 -0.015429761 0.0063566854 -0.024295552 -0.0101627875 0.022309622 -0.01585062 -0.0006999875 -0.010354168 0.01839878 -0.01172798 0.015371084 0.013516487 -0.0003188045 -0.019433107 -0.02139343 0.009842077 0.016877262 0.003911514 0.0033937392 0.014670846 -0.008683111 -0.02021272
10 -0.023041626 0.0011226416 -0.012503547 -0.0010403262 -0.013721078 0.0124686565 0.0062771617 0.009445457 -0.01793072 -0.012678134 -0.0054521454 0.010757876 0.006446761 -0.006013113 -0.008724921 -0.020688605 0.012586693 -0.0055663064 -0.0041464996 -0.0055629015 0.0016311448 0.011274252 -0.010160952 -0.026289854 -0.0065736687 0.0076793134 0.0035469132 0.00539628 -0.010874553 0.018622823 0.0032759274 -0.009189232 -0.011045114 0.0011316274 -0.0027261428 0.00021797733 -0.0104024615 0.0070396825 -0.016557774 0.005141343 -0.0038483674 0.011971671 -0.0057611144 -0.0066542905 0.016284894 -0.00025156108 0.016180016 0.029643498 -0.012173027 0.007039696 0.005093687 0.0030340287 -0.013952909 -0.00036267913 -0.0018016797 -0.011073006 -0.005816252 -0.0039037988 0.015851839 -0.01971288 -0.006703811 0.00853091 0.007691445 -0.024458446 -0.0052931644 -0.012182352 6.0438702e-05 -0.02115255 0.001764101 0.009283927 -0.009445962 0.0017693758 -0.0036628605 -0.0036397015 0.017241737 0.0019321352 -0.00953791 0.0032228478 -0.004406219 0.006071235 0.0018019299 0.012411607 -0.0066688205 -0.015141503 -0.010668381 -0.009141635 -0.01505736 -0.008346811 0.0038641368 -0.0009929996 0.0020142244 -0.010278912 0.001452669 -0.004953096 0.025277078 -0.010924522 0.008925757 -0.012053206 -0.021044075 0.015164903 -0.005500628 -0.009500884 -0.008661158 -0.0007325581 0.015667431 -0.0042435206 -0.012803889 -0.0029913667 0.0012402714 -0.003985011 0.012125207 -0.01726755 0.013649636 -0.012620152 0.009644392 0.00047811968 0.004623892 0.0013378693 0.014837696 -0.008446406 -0.0046272743 0.011373488 0.01706174 0.0075089326 0.0012226249 0.011002555 0.0018554055 -0.01819781
11 -0.01438713 0.021677414 -0.031303197 0.017575225 -0.017922359 0.021891115 0.029147504 -0.018339207 -0.02017632 -0.027734416 -0.01465529 0.024496216 -0.01841608 0.0017128452 0.011047021 -0.01474849 0.020208238 0.018410519 -0.031763654 0.0055148597 0.020627234 -0.017454999 -0.029183641 -0.017337307 -0.03005668 -0.019013252 -0.028046792 0.024931874 -0.008301557 0.021612009 -0.01520331 -0.02945605 -0.013574953 0.019798052 -0.019781804 -0.019115929 -0.013305094 0.020286014 -0.027849361 0.02145801 -0.026230922 -0.008884162 -0.020742115 0.02635771 0.0038958534 -0.008860537 -0.006969382 0.022966947 -0.025564745 0.023708353 0.00884943 -0.0007972299 -0.019938562 -0.017928341 -0.014038887 -0.01579345 -0.030360075 -0.023601579 -0.018496992 -0.020803925 0.013704016 0.003615739 0.022319326 -0.020970361 0.014010363 -0.017068967 0.015622183 0.0047710687 -0.011769427 0.03012481 -0.01253944 -0.011613805 -0.02585655 -0.021150777 0.0004530042 -4.8425514e-05 -0.019472644 0.027067263 0.012873078 -0.0060322233 0.023400811 0.009397854 -0.019960945 -0.019332416 -0.025181005 -0.023867154 -0.014490359 -0.01760342 0.011534692 0.022599582 0.013223791 -0.023518905 0.02111351 -0.02264331 0.014062571 -0.023225492 0.024893131 -0.023096679 -0.021663666 0.018532535 -0.009995961 -0.0123314895 -0.029636005 -0.021148657 0.026703805 -0.02130022 0.006939709 0.008719466 -0.017796345 -0.008022716 0.021590415 0.005536125 -0.008985011 -0.029057506 0.025585681 -0.01874324 0.018194696 0.02387207 -0.015956799 -0.014820711 -0.01713276 -0.0022986217 0.008834959 0.012985715 -0.003356737 0.015631435 0.0045905686 -0.01098724
12 -0.008116112 0.012638247 -0.0025476273 0.020404011 -0.014905659 0.020586254 0.018077357 -0.0025958072 -0.020541767 -0.01057684 -0.0044774897 0.024699051 -0.021913081 -0.012853467 -0.0006627172 -0.026717776 0.023058549 0.0011210265 -0.025190653 0.00965821 0.024180615 -0.0040193936 -0.025247736 -0.020388307 -0.011629015 -0.008335911 -0.02430424 0.0143764755 -0.0003252597 0.026472243 -0.025993647 -0.026325159 -0.013403641 0.017040776 0.0019773883 -0.024399025 -0.0080850925 0.017178556 -0.011787727 0.024008945 -0.02024709 -0.0013449877 -0.022766503 0.00632062 -0.00051971094 -0.010399968 -0.00845382 0.015417873 -0.01886632 0.009737945 0.009395478 0.016179012 -0.015939172 -0.024429835 -0.0041622096 -0.012557197 -0.011647964 -0.0028199384 -0.00033948576 -0.007349137 0.009440615 0.014899148 0.015764564 -0.023198161 -0.005073616 -0.0132351965 0.012258514 -0.01198428 -0.014478142 0.010717538 -0.016172145 -0.008880969 -0.018520502 -0.02809525 0.016355922 0.009800204 -0.015776047 0.015793802 0.0030530817 0.017083555 0.022586366 -0.00090078247 -0.019879328 -0.019043215 -0.01071583 -0.022024376 -0.017745622 -0.024472713 0.009602354 -0.008449263 0.005863408 -0.013723633 0.017003672 -0.01943487 0.00996794 -0.014849489 0.011117138 -0.014264135 -0.02235016 0.013472524 -0.014658168 -0.008461326 -0.010892231 -0.024467617 0.021646852 -0.023375591 -0.00669587 0.005958239 -0.023112774 -0.0065756664 0.008954774 -0.011618304 -0.0010053946 -0.0070706005 0.025511362 -0.015626347 0.0198399 0.012639351 -0.0012715356 -0.025287239 -0.021354439 0.008393467 0.012904525 0.00230296 -0.0011508494 0.013578279 -0.005754853 -0.010749137
13 -0.017305464 0.013409095 -0.011467379 0.012331065 -0.018654957 0.018378299 0.0041640247 -0.0076814685 -0.013938632 -0.011104008 -0.01028101 0.012302679 -0.0074895676 -0.011641782 0.014915581 -0.015317844 0.018575182 -0.002573051 -0.013750222 0.014290353 0.018104423 0.009587038 -0.01197927 -0.014620983 -0.02414183 0.004353974 -0.017595287 0.0064741536 -0.0051154396 0.016976308 -0.017267479 -0.015872898 -0.011057221 0.010270505 -0.012199235 -0.012130833 -0.0041563967 0.01200623 -0.020023018 0.017414223 -0.021619868 0.0064299107 -0.007888063 0.01731024 0.006444992 -0.008567357 -0.0005055573 0.02227592 -0.015172612 0.01845569 0.006956212 0.0013018657 -0.018101824 -0.018036729 -0.0040720343 -0.018187927 -0.021185616 -0.005113287 -0.0033902174 -0.018249847 0.0027938858 0.00055237336 0.012959294 -0.025781943 -0.0067826333 -0.005272493 -0.0025993336 -0.011230393 -0.013329012 0.022221658 -0.0039654514 -0.0029026745 -0.017922746 -0.02330992 0.0053978995 -0.009654877 -0.013381444 0.01261415 0.011882271 0.006151443 0.020142151 0.00029495402 -0.013460954 -0.024672922 -0.011624876 -0.020326981 -0.027507663 -0.019496234 0.012223089 0.014440329 0.015811624 -0.015294253 0.0230777 -0.01743357 0.008249352 -0.0135315405 0.0024541842 -0.016649438 -0.010992045 0.0032184166 -0.015765645 -0.023994578 -0.022622772 -0.024989726 0.01917912 -0.012953386 -0.0067794207 0.004089618 -0.016302543 -0.011190891 0.010100543 -0.010059055 0.0093878545 -0.011227484 0.0151753435 -0.006459958 0.023942875 0.008531654 -0.0015236322 -0.0253363 -0.007035898 0.016835872 0.012557648 0.0018795914 -0.00056529033 0.010574201 0.0052660466 -0.01571967
14 -0.011954594 0.013554981 -0.0058893417 0.0038943016 -0.013283174 0.014484221 0.012972245 -0.009554346 -0.026236862 -0.024783915 -0.024840623 0.019380057 -0.00085582584 -0.011172484 -0.004012405 -0.016756834 0.0034776796 0.012102633 -0.019864865 0.0015246428 0.008729643 -0.0005289048 -0.009454886 -0.02175522 -0.023128811 -0.009665443 -0.016172756 0.024372427 -0.017323002 0.0143250385 -0.01365093 -0.017490806 -0.023665152 0.018892417 -0.0112044355 -0.021135524 -0.015642175 0.013999194 -0.01387917 0.020655256 -0.020087494 0.0016892704 -0.0070463247 0.015427881 0.0067765573 -0.003570368 -0.0012869606 0.025397893 -0.014429391 0.009889023 0.01338352 -0.00067106046 -0.008819456 -0.016262207 -0.0075260606 -0.01102661 -0.015679326 -0.0047448496 -0.014504039 -0.0182249 0.007922272 -0.0009960957 0.015519303 -0.021869915 0.00427185 -0.009835796 0.006132858 0.005156319 -0.0016587924 0.017933434 -0.007837928 -0.012549665 -0.0084163165 -0.00736751 0.0072587244 -0.007877536 -0.013014917 0.015480758 0.0030819874 -0.00056877045 0.019884722 0.0075272205 -0.015815824 -0.019651165 -0.014275308 -0.014521087 -0.009369043 -0.024958264 0.0013824573 0.001125673 0.010155663 -0.0061721196 0.0100769065 -0.011148052 0.011526816 -0.02028187 0.0035561468 -0.008050168 -0.014974533 0.015606089 -0.0044817333 -0.010089702 -0.008682544 -0.01590463 0.017382544 -0.018496798 -0.009198326 0.0054607675 -0.005786909 -0.01472925 0.018512346 -0.0103547685 -0.0050879633 -0.018321835 0.010230931 -0.008498998 0.018451571 0.008083072 0.0060393303 -0.017354537 -0.020494003 0.013955653 0.008971621 0.013230862 -0.008948427 0.013891907 0.006890041 -0.02459072
15 -0.010010251 0.006145434 -0.009536343 0.018123584 -0.012461333 -0.001404258 0.008314457 -0.003273885 -0.00915419 0.0013428901 0.0007115874 0.017455634 0.0076280045 -0.014513727 0.0045963647 -0.010657181 0.010902831 -0.0090643205 -0.0054503656 0.020181583 -0.0016506431 0.008104873 -0.01870257 -0.0049867397 -0.002941595 0.0059839482 -0.012149248 0.013963344 0.002248003 0.004681175 -0.012674055 -0.012613964 -0.01321556 0.0019835609 -0.004054791 -0.00033850997 -0.0032268413 0.0141466325 0.0025597145 0.009774062 -0.015572546 -0.008817349 0.0063472446 -0.0018142846 0.0058062826 0.0011740668 0.011860515 0.013689402 -0.013161086 0.009979798 0.010482378 0.011009597 -0.024518937 0.0021965648 0.0043123127 -0.0015940055 5.128706e-06 0.0039510136 0.005145487 -0.007007609 -0.013333416 -0.0030821757 -0.0025742606 -0.010357206 -0.011746134 -0.01308905 -0.008264764 -0.009643477 -0.003577833 0.006311398 -0.005219372 -0.0032895007 -0.0019590512 -0.0048770146 0.0074603423 -0.0018750174 -0.0021605648 -0.0037991751 -0.0014562963 0.014667706 0.004968239 -0.004192083 -0.009488155 -0.0059944363 0.0037511247 -0.008693805 -0.02403297 -0.018527614 -0.0069941515 -0.008907467 0.007278222 -0.0012646976 0.017419921 -0.003293594 0.016482431 -0.0076314583 -0.0007003633 -0.00403646 -0.019177018 0.012353077 -0.009684218 -0.026513217 -0.005254301 -0.014624711 0.0047420636 -0.0072661745 -0.010688061 0.00419296 -0.008444244 -0.008329447 0.006583303 -0.011449844 0.00862769 -0.005227846 0.0040887487 -0.006486511 0.0023310452 -0.0055717374 0.00902663 0.00015606818 0.001039177 0.023032106 0.006749508 0.011133616 -0.005050454 -0.004118149 -0.0009971887 -0.015839519
16 -0.0118206665 0.011250413 -0.008498173 0.018177137 -0.014384785 0.00807497 0.008393949 0.008366346 -0.00642449 -0.0021443598 -0.012609008 0.006580139 -0.0019911984 -0.01807422 -0.0060929004 -0.023230713 0.010359285 -0.014568443 0.0043024095 0.006850372 0.0057378006 0.016809769 -0.010276364 -0.0085581895 -0.0227742 0.012584604 -0.01272691 0.0062017906 -0.018551249 0.012148621 -0.017691586 -0.015174422 -0.009211952 0.0065815304 -0.0016500906 -0.008722496 -0.0014021994 0.010029321 0.0062846295 0.008068079 -0.005900843 0.0008270276 0.008002805 0.007668406 0.011446475 -0.007812904 0.014505781 0.011223363 -0.019353205 0.011452089 0.012786211 0.017055135 -0.010009609 -0.0151538355 -0.0035967634 0.004092496 0.0009029941 0.00037962577 0.0066289357 -0.023573428 -0.0013186118 0.0047129677 -0.001222559 -0.020584822 -0.005146461 -0.020842561 -0.016890282 -0.019597365 0.0072394866 0.0067112027 -0.0057939524 -0.002062445 -0.0041895113 -0.021745063 0.026881415 0.0012979745 -0.006709162 0.0068051037 -0.012235296 -0.005040483 0.005915419 0.017733842 -0.0011226952 -0.0073258635 -0.017661795 -0.0114132 -0.02508484 -0.02699505 -0.01118887 -0.0041628103 0.016035516 -0.005023204 0.020105561 -0.017547423 0.015596657 -0.0063611004 0.0018299251 0.004847 -0.025849957 0.013539907 -0.014573429 -0.026827358 -0.019841595 -0.018279983 -0.0018877136 -0.00988568 -0.016650151 -0.003423632 0.006091809 -0.0075519257 0.010743061 -0.017594125 0.020709435 0.0076279854 0.012905935 -0.0006320139 0.0051600733 0.009616301 0.005375541 -0.00088243105 0.0017039849 0.009407325 0.020577813 0.020159269 -0.007376636 0.016255355 -0.000113412185 -0.019555327
17 -0.005262681 0.0040911944 -0.0145918755 -1.7305021e-05 -0.010858333 0.012261036 0.023164734 -0.01862793 -0.007028552 -0.017467944 -0.020801818 0.012992403 -0.021175524 0.014034953 0.024627525 -1.4477293e-05 0.0054384256 -0.008870703 -0.021559983 0.017321285 0.011989989 0.007927505 -0.029441033 -0.010269301 -0.014981777 -0.015151122 -0.018992992 0.010213133 -0.017187225 0.018157255 -0.012516588 -0.020719664 -0.010931022 0.0112957675 -0.021034356 -0.014226843 0.021329125 0.0197376 -0.02026414 0.009532301 -0.018295558 -0.017599065 -0.01606846 0.012263038 0.0024279358 -0.019261388 -0.0001417062 0.025497187 -0.01464869 0.022800623 0.008625719 -0.019397432 0.0083643645 -0.0264267 -0.018940317 -0.022437066 -0.023174003 -0.027806615 -0.01239701 -0.012459474 0.02159228 -0.004565414 0.014255691 -0.010833136 0.02245279 -0.005142046 0.011260508 0.012930602 -0.016793065 0.019480461 -0.0034633456 0.013114731 -0.028103106 -0.020332528 0.009395338 -0.016424173 -0.02336491 0.018250415 0.017519144 -0.020742105 0.018901724 -0.006600683 -0.0023129394 -0.009891429 -0.011819611 -0.011250039 -0.02670029 -0.0166907 0.013181018 0.016020337 0.022592863 -0.022189243 0.009193302 -0.0069055404 0.019976351 -0.019229725 0.028661089 -0.02931211 -0.00077470584 0.0045081074 0.012653171 -0.021176916 -0.012365539 -0.0020458507 0.01225257 -0.002912088 0.006888627 0.028010206 -0.025816081 0.0065968134 0.030049007 0.0044270093 -0.017292593 -0.01114847 0.016017726 -0.0044340477 0.006800948 0.020169709 -0.0074601783 -0.020660538 -0.013050698 0.010947083 -0.005943448 0.01229139 -0.022879664 0.018610738 0.013304063 0.0034525248
18 -0.016540524 0.000694028 0.011606727 0.016978525 -0.00307903 0.0035082225 -0.0014421357 0.01012291 -0.0027783664 -0.0025536707 -0.00540102 -0.00071975926 0.0068644355 -0.012825821 -0.0036945695 -0.015967775 0.002159927 -0.01276106 0.0041698935 0.0122356145 -0.0071129883 0.02003091 -0.006906227 -0.008018648 -0.0057890434 0.0074509997 -0.00024154794 -0.004768293 -0.006748547 0.0064336807 -0.010112589 -0.0036156373 -0.0044260803 -0.0026090073 -0.0022206246 0.00979671 0.007259023 0.01124451 0.003824975 0.005057457 -0.0012126705 0.0071595022 0.012510688 -0.006786095 0.025353285 0.00835131 0.014568828 0.017435221 -0.0010783884 -0.008995739 0.00767538 0.02268346 -0.008744624 -0.007880245 -0.003849643 -0.0068785017 0.001891556 -0.005553151 0.018295417 -0.017278671 -0.016042974 -0.00815814 -0.0028662398 -0.01822634 -0.010606125 -0.019318044 -0.013497164 -0.022428824 0.0011758107 -0.0003948295 -0.0037583653 0.0095584355 0.0016134683 -0.015228122 0.015436137 -0.030096028 0.001005535 0.003503005 -0.0062821065 0.0097709885 -0.008939836 -0.002628191 0.008821733 0.0048012105 0.0026829708 0.0017228003 0.0026454986 -0.016426226 -0.015534675 -0.0024138337 0.006168933 0.011210065 0.006754084 -0.0026054524 0.009349636 -0.0003389068 0.00096940284 0.010893675 -0.027825316 0.01563691 -0.0072143804 -0.015913185 0.0078100185 -0.0134480335 -0.0124848 -0.00036528826 -0.0100933425 -0.008813822 0.0012180771 0.0060192626 0.0026173764 -0.025576094 0.018476954 0.004863486 0.0043744314 0.009294076 -0.006359348 0.016364126 0.018536527 0.0027113408 0.006446176 0.018225627 0.006333086 0.008518982 -0.012216097 -0.002137768 -0.0077275 -0.017298777
19 -0.024974728 0.0024745287 0.011365182 0.008792993 -0.0032056235 -0.002125553 -0.00834826 0.0059563587 0.0023731363 -0.002823595 -0.014216629 0.02687435 -0.00012783652 -0.02228075 -0.0099991225 -0.02552023 0.0059087374 -0.022438005 0.004111565 -0.004527867 -0.010705312 0.021337185 -0.0003183884 -0.005533414 -0.0069429874 0.010442016 -0.0033975947 0.01641923 -0.012595217 -0.0061652754 -0.017962191 -0.011888806 0.009415121 -0.007866795 -0.0004413044 -0.0026634969 0.010155386 0.027951926 -0.003395431 0.011081353 0.00020980346 -0.019494735 0.0061239013 -0.0010361663 0.018247683 0.014276827 0.028856125 0.0108192535 -0.0015633581 0.010374715 0.0159722 0.01093551 -0.020346949 0.00043788741 -0.007961239 -0.00016365555 0.0041978527 0.0015339301 0.00906578 -0.0194061 -0.0014500374 -0.001637143 -0.0072616283 -0.023594294 -0.008392447 -0.01780442 -0.017631467 -0.0034031922 0.0031603985 0.006047965 -0.023160955 0.014565015 -0.0060929484 0.004152478 0.016145054 -0.013318833 0.0010383344 -0.006412682 -0.012578846 -0.007121332 -0.0012649822 -0.013765969 0.009242412 0.0041763783 -0.0021308665 0.007978631 -0.0058703423 -0.008352114 -0.008303587 -0.002309443 0.0056988685 -0.013777726 0.018317953 -0.00016190673 0.0152248135 -0.013873726 0.0025843235 0.012652848 -0.02315472 0.022122346 0.0041419514 -0.010477697 -0.0045342953 -0.013352457 -0.004669889 0.009033653 -0.01688589 -0.011159193 0.014277441 -0.011389953 -0.0059862486 -0.015789947 0.019427104 0.009254085 0.0040830676 0.020416655 -0.003438462 0.01443647 0.012737187 -0.003843754 -0.025396138 0.007845463 0.023343606 0.010317776 -0.0057833195 -0.0050352076 -0.0077803466 -0.01967267
20 -0.0026974012 0.013425909 -0.014929395 -0.0012257892 -0.023561632 0.02549078 0.017139086 -0.017149527 -0.017522221 -0.017728595 -0.00910749 0.002768565 -0.014742589 0.015311415 0.01689178 0.013087062 0.021878887 7.793357e-05 -0.018980063 0.009036446 0.02188847 -0.017647889 -0.015274388 -0.026462793 -0.015087974 -0.025166288 -0.015516402 0.016039073 -0.018266413 0.019417282 -0.008773792 -0.011597003 -0.0011130893 0.023030171 -0.020180335 -0.021243494 -0.006289008 0.015007441 -0.026436632 0.028262591 -0.019543901 -0.013930684 -0.02093592 0.021580506 -0.0054358486 -0.014365492 -0.020273527 0.008117528 -0.03050384 0.024513783 0.0057094162 -0.015617735 0.005245903 -0.021472536 -0.023252148 -0.0033113125 -0.026322944 -0.010429834 -0.021930916 0.00937087 0.0176164 0.0013749066 0.027444594 -0.0013552512 0.010505578 -0.019606316 0.014927362 0.0079735145 -0.023451744 0.028755086 0.0054155015 -0.0020881838 -0.017226325 -0.016988102 -0.0204239 -0.021514589 -0.030375523 0.013396954 0.019819384 -0.016227517 0.023557652 0.0062944507 0.004768305 -0.024980702 -0.0153449075 0.0055340836 -0.014710396 -0.0049631284 0.025046919 0.021334799 0.01563681 -0.021643527 -0.0018609688 -0.016291356 0.0003822942 -0.018126652 0.025982607 -0.018692812 0.007469505 0.02191013 -0.0018462937 -0.0099738 -0.022337832 -0.01894597 0.02197365 -0.02288684 0.013734711 0.022385785 -0.028363362 0.0067059435 0.023181101 0.010659391 -0.01393522 -0.020441534 0.016720867 -0.005640949 0.024995359 0.024388753 -0.010764939 -0.016980097 -0.017623149 0.0057373764 0.0047127916 0.017673584 -0.022904433 0.020548994 0.018480798 -0.0011390459
21 -0.009672674 0.005360855 0.007557376 0.0035696055 -0.0149366595 0.0075568254 0.009608422 -0.0017120491 -0.007563551 -0.007905258 -0.01790817 0.014620353 0.0010869168 -0.0163779 0.00034316568 -0.0141035095 0.014860043 -0.014795466 -0.006332465 0.008109692 0.0037621355 0.0063680657 -0.015618429 -0.016905645 -0.022215024 0.009461996 -0.013433279 0.0031924867 -0.022413332 -0.0005238787 -0.009799367 -0.019813573 -0.0038199215 0.0026190833 -0.0049702735 0.0018534578 0.0029356813 0.00864852 -0.015828548 0.008498095 -0.011757283 0.0009491249 -0.0069633136 0.002428257 0.0031881512 0.00017789227 0.014472889 0.011251578 0.0010963798 0.0048239077 0.003204887 0.016791627 -0.023464113 -0.0151955215 0.00013570266 -0.008251243 0.0019775056 -0.005555932 0.012925455 -0.0081517035 -0.0005920167 -0.006967379 0.010324632 -0.008445594 0.001752495 -0.001986111 -0.0031565512 -0.011244417 0.0037230183 0.0064222463 -0.012357198 0.013725056 -0.018843383 -0.022040246 0.011902509 -0.018478017 -0.013849972 -0.0035300127 -0.0045310673 0.00028257526 0.007310784 -0.0030345337 -0.0071086218 -0.008018932 0.000997347 -0.010458121 -0.00915197 -0.011255137 -0.004511862 0.0143893305 0.015688326 -0.0128084 0.014807212 -0.0066769044 0.019614553 0.007251542 0.009913656 -0.005161281 -0.007907914 -0.00035621028 -0.008578993 -0.012302828 -0.009758188 -0.0082991365 0.001088246 0.001622619 -0.012606974 0.0128405485 0.0011355958 0.0051832353 0.00616776 -0.009641207 0.009048237 0.0016388902 0.014354836 0.011841734 0.010379246 0.0054904483 0.007930244 -0.010916941 -0.01716704 0.012896291 0.012697509 0.007595795 -0.017492574 -0.0031034686 0.0038680825 -0.015361404
22 -0.015773322 0.017162826 -0.0071257143 0.006337206 -0.025389701 0.02421138 0.022476966 -0.0037548104 -0.021633143 -0.020977583 -0.025295489 0.02136753 -0.024759576 0.005177071 0.027424792 -0.027121712 0.024952706 -0.015604997 -0.025028506 0.015272152 0.01608682 0.0017679613 -0.014354789 -0.014671489 -0.014156189 -0.008082839 -0.027633522 0.015501066 -0.030408418 0.0232967 -0.019840006 -0.026229985 -0.008222356 0.023372298 -0.019404544 -0.021834256 0.012511922 0.024490293 -0.021076119 0.01185736 -0.026639702 -0.027880628 -0.019086866 0.011218967 0.013401319 -0.005492875 -0.0053308397 0.015363852 -0.016023207 0.027394162 0.019553423 0.00042658646 -0.019564845 -0.022223115 -0.021361822 -0.024318721 -0.023374492 -0.019914437 -0.007825629 -0.017045463 0.011084541 0.0011026377 0.025601832 -0.025221646 0.017705102 -0.004902322 0.016344821 0.0052232156 -0.015512031 0.024919068 -0.014505973 0.006580307 -0.02079908 -0.026075762 0.012329039 -0.020907583 -0.026722297 0.016841222 0.02436236 -0.0225429 0.013653414 -0.0075211106 -0.026481938 -0.017777493 -0.018969899 -0.024730526 -0.02126167 -0.022621017 0.012805342 0.016808493 0.019880239 -0.013814463 0.018362278 -0.012182897 0.007164699 -0.024944255 0.014301215 -0.024507869 -0.016331112 0.008875741 -0.0048304806 -0.026349066 -0.016490484 -0.021019826 0.022601064 -0.021620614 -0.007821323 0.024947397 -0.0153334215 -0.008059122 0.014764262 -0.006051748 -0.0028159488 -0.008866303 0.02124377 -0.011011516 0.021445828 0.022030162 0.005138037 -0.025704157 -0.02791482 0.017223997 0.00087312557 0.01914589 -0.014096263 0.008800975 0.010758373 -0.00877049
23 -0.008300081 0.023849258 -0.014370543 -0.00093211356 -0.024055393 0.024471538 0.01875693 -0.011510103 -0.023174025 -0.0244279 -0.013306657 0.020840717 -0.01537825 -0.003374579 0.026412763 -0.021043906 0.023556132 -0.011697625 -0.01414411 0.0045433547 0.023213958 -0.005673108 -0.015932323 -0.017209917 -0.012571663 -0.012066575 -0.021604355 0.017135741 0.0014777611 0.024077881 -0.014228654 -0.01402761 -0.013416625 0.01629138 -0.024408052 -0.024307318 -0.009067137 0.008311281 -0.026794644 0.012608303 -0.01951445 -0.007443048 -0.0157243 0.017463163 -0.0017191839 -0.013164394 0.003884425 0.029725924 -0.016506514 0.019170295 0.004582603 -0.014830442 -0.014689816 -0.015922561 -0.01524443 -0.023395471 -0.022472173 -0.020850357 -0.017606754 -0.02969224 0.017518329 -0.011993599 0.026409673 -0.005954166 0.019280626 0.0027822056 0.010238561 0.0013975654 -0.024058942 0.008553373 -0.012576327 -0.009941153 -0.028057735 -0.022433704 0.021238793 0.0020229237 -0.015632499 0.01488408 0.013781313 -0.0029190083 0.014796963 0.004906248 -0.022143757 -0.024884213 -0.026213866 -0.013590353 -0.03006786 -0.018106809 0.007820044 0.019999776 0.02119702 -0.021081178 0.016517496 -0.01849371 -0.0011165033 -0.01887387 0.022506442 -0.0248322 -0.015623268 0.01818859 -0.005304552 -0.012343537 -0.025018856 -0.029337334 0.023520866 -0.018951055 0.0061830184 0.02402162 -0.020102805 0.0129053295 0.016794108 0.016181681 -0.007304893 -0.01696881 0.018733358 -0.017101623 0.025749732 0.019003835 -0.014770673 -0.021286795 -0.021994805 0.008234458 0.0018752974 0.019035377 -0.013057924 0.027503604 0.022931764 -0.006811438
24 -0.018067503 0.018937213 -0.020038709 0.012080438 -0.026464956 0.024360698 0.0123775955 -0.017609444 -0.024538686 -0.024483558 -0.014886837 0.019083414 -0.016114015 -0.0102470955 0.023816569 -0.007814242 0.0139576 0.007429686 -0.014702938 0.0017240788 0.013298168 -0.012826399 -0.012940859 -0.02862093 -0.015221913 -0.013379389 -0.012938689 0.0108474055 -0.008395029 0.015342032 -0.013126638 -0.019968208 -0.012727923 0.012334089 -0.020756079 -0.023870766 -0.011134088 0.008504642 -0.022398967 0.01964587 -0.02624492 -0.015261649 -0.014244214 0.010426088 -0.011680849 -0.022771727 -0.008036969 0.022536526 -0.026909959 0.011844849 0.0042772437 -0.0012948536 -0.028774235 -0.014967474 -0.023897288 -0.02222178 -0.025064614 -0.019682175 -0.013212449 -0.010501511 0.0164102 0.0056498856 0.017705495 -0.014726546 0.01922591 0.0024503018 0.021037772 -0.00042943424 -0.024157753 0.019265102 -0.00520226 -0.0019774213 -0.019725168 -0.019586194 0.025889108 -0.015317947 -0.013603014 0.008560402 0.01023502 -0.006872361 0.020376917 0.008093076 -0.011814034 -0.013264869 -0.01144261 -0.0013465418 -0.019840095 -0.026556626 0.017723335 0.022302402 0.021974213 -0.025478844 0.0046094614 -0.020574268 0.00852132 -0.0045274063 0.019897174 -0.013940281 0.004909287 0.013451414 -0.0051717507 -0.011326551 -0.023061495 -0.023411015 0.016779453 -0.019633044 0.013734315 0.023335379 -0.011656681 0.0109498715 0.015087672 0.01419624 -0.011893802 -0.020935055 0.011710894 0.0011931779 0.025186354 0.014561757 -0.002494673 -0.018774077 -0.01845599 0.014841992 -0.004115947 0.017858705 -0.028597513 0.016280338 0.01916556 -0.005276483
25 -0.013194282 0.015850756 0.011110274 0.011857543 -0.020105872 0.004629991 0.011726344 -0.0027220044 -0.006528517 -0.010643436 -0.0044351714 0.025750365 -0.002439021 -0.021201055 -0.0015103961 -0.017782858 0.0042581037 -0.01550693 0.00018887705 0.0043129483 0.009802249 0.012071625 -0.013911541 -0.024403162 -0.022246016 0.009968208 -0.00413887 0.00049904897 -0.029502489 0.0019281267 -0.02025382 -0.01587599 -0.014258482 0.00066414446 0.00057805877 6.905699e-05 -0.0061112093 0.029288718 0.0017777946 0.007769564 -0.0023946313 -0.0077368245 0.005262623 0.0018391775 0.014685952 0.0037949828 0.015621837 0.006056719 -0.0021536194 0.00803086 0.017344436 0.019120699 -0.018015025 -0.012697273 -0.027097182 -0.0059737824 0.0014560523 -0.00937192 0.013096086 -0.026849683 0.0036721805 0.005905167 0.0011415449 -0.021558356 -0.0016440052 -0.017261183 -0.0066990023 -0.013205146 0.005597707 0.011651949 -0.00376821 0.008411675 -0.015804604 -0.0074685565 0.017754184 -0.025948077 -0.0034638862 0.0018987334 0.0016485245 -0.0036714817 0.0114100445 -0.0037022464 0.0021593822 0.0029883527 0.0025640586 0.00058535574 -0.018564286 -0.02314522 0.000768466 -0.0029879967 0.008834744 -0.015301183 0.019287257 0.0062663346 0.025560841 0.00444154 0.0057197413 0.00845349 -0.018638793 0.028144507 -0.0032071795 -0.020635575 -0.008445417 -0.019216042 0.009997295 -0.011685163 -0.015220819 -0.0075083124 0.008322212 -0.011747503 -0.0043305885 -0.013881214 0.015260971 0.00619085 0.004547324 0.02049005 0.001238849 0.019978235 0.014238884 -0.0060320087 -0.008616648 0.010652015 0.013604382 0.02494061 -0.0080830585 -0.003311786 -0.0080326805 -0.026344996
