26 128
0 -0.0030227443 0.003616821 -0.008551644 -0.005210671 0.00038522237 0.0069025694 -0.0101682665 0.0072889593 0.0012868724 -0.02020727 0.006830021 0.0035768873 -0.016446892 0.0041453848 -0.0078115556 -0.0043256376 -0.008805775 -0.005436896 -0.008994063 0.0065699574 0.0028221777 -0.006823629 0.0022908766 -0.0028855256 0.008486324 0.004416224 -0.0033057893 -0.012341545 -0.0027469022 -0.0021011974 0.0016369883 -0.00034670846 -0.006971872 -0.0020920378 0.009470855 0.010359301 -0.004953582 -0.01801236 -0.003353386 -0.010124278 -0.018386573 0.0035205055 -0.016775327 0.015147798 0.0012633068 0.008248092 -2.0722771e-05 -0.0063864165 -0.010554098 0.0021381183 0.007384905 0.008287947 0.008459384 0.0070663793 0.006236304 -0.010056695 -0.0028402514 -0.007862488 -0.009114889 -0.0042116656 0.0007341133 -0.01876577 -0.0044132974 0.0048942054 -0.013940838 -0.004403909 0.0044771587 -0.0036354484 0.005837207 0.0024521651 0.0011060359 0.0025894968 0.011734673 0.0026116576 0.0070129423 0.0011704831 0.009400857 -0.0043157088 0.0058058845 0.0067212703 0.0034448076 -0.009175549 -0.012026696 -0.012458785 -0.002380068 0.0074519827 0.010102164 -0.01365279 -0.015851265 0.017607516 8.333783e-05 -0.004190831 0.0031623752 0.008997801 -0.0057420256 -0.0071149482 -0.009161073 0.008004297 0.0018335767 0.009091618 -0.008552927 -0.013840753 -0.0019263778 0.013925863 -0.0073859636 -0.012877381 0.0026345386 0.016372018 -0.0027999468 -0.013195979 0.005313405 0.0011919888 0.002189094 -0.0006461874 -0.00093901437 0.0048358645 -0.013632956 -0.00023357855 0.012994762 0.022046488 0.009498021 -0.005121121 0.0014932341 0.0020324418 0.0033861077 0.008916765 0.0062451614 0.003217138
1 -0.021655362 0.013877134 -0.016855942 -0.020377552 0.023874875 0.019556789 -0.019380648 0.005088529 -0.014884041 -0.027518127 -0.013603126 0.020336669 -0.021973785 0.0014423376 -0.011567578 -0.022353716 -0.01868889 -0.02294952 -0.0009967159 0.016767308 -0.011101042 -5.5929995e-06 0.018178066 -0.003457641 0.019778615 0.012427044 -0.011892269 -0.023750791 0.0006074029 -0.023585845 0.00015060336 -0.013512769 -0.020727295 0.016050465 0.00557213 0.020149475 -0.02043795 -0.022443889 -0.010562177 -0.018201664 -0.020144193 -0.00020739675 -0.028204735 -0.008043235 -0.0008801664 0.009493246 0.016466169 -0.0090054795 0.0047659148 0.016667975 0.024299525 0.019804668 0.008954828 0.018446486 0.024809426 -0.01938102 0.001725253 -0.021968815 -0.022880973 0.009658925 0.022730725 -0.008096059 -0.0072677075 0.024322957 -0.01684529 -0.015084406 0.013027767 0.021490794 0.0024750773 -0.017036347 0.0076295324 0.0032647448 0.023095893 -0.00798987 -0.001911737 -0.004476808 0.0148079 -0.002859959 0.014695224 0.018716462 0.019292066 -0.016962988 -0.016738016 -0.018030537 -0.005973875 0.026290165 0.00093035377 -0.020837674 -0.017481433 0.023608694 -0.0058205277 0.016766055 -0.005100015 0.02379301 -0.015916886 -0.024732364 -0.01485176 0.020860296 0.0017388116 0.014737072 -0.025176123 -0.018015843 -0.010702971 0.0014967758 -0.018404353 -0.027983425 0.019660763 0.02910968 0.017986659 -0.020408118 0.0084624505 -0.015588194 -0.012989963 -0.020952621 0.008031091 0.015695829 -0.015967323 0.0016912506 0.022599896 0.02459031 0.0183346 -0.025050957 -0.009140504 -0.016243244 0.016481243 0.00387563 0.023987671 -0.0032739993
2 0.00031787856 0.020390969 -0.019244455 -0.025496742 0.021856703 0.01678121 -0.009233567 -0.009817946 -0.010828042 0.0002373507 -0.000575729 0.0206994 -0.024000132 0.004889381 0.00395336 -0.0031840915 -0.008039514 -0.0077372096 0.01617117 0.012047403 -0.006926649 0.0014707372 0.018577605 0.005242628 0.018177463 0.016494265 -0.0025069362 -0.025655525 -0.0026799592 -0.023147855 0.0011706322 0.006246023 -0.014375386 -0.0032432878 0.018694162 0.022688696 -0.021344932 -0.023608088 -0.002960014 -0.02515338 -0.006120884 -0.009401312 -0.017434416 0.0037760006 0.008451888 0.008740643 0.01004073 0.0049728174 -0.010169478 0.027619015 0.021105342 0.00714868 0.0068312953 -0.007123612 0.016237121 -0.0040364005 0.0015345891 -0.017246837 -0.014774588 -0.0046020565 0.013404167 -0.023824148 0.001101352 0.025878234 -0.025123162 -0.012938793 0.0045438786 0.013621839 -0.008016526 -0.01396909 0.01554791 0.018876523 -0.0048325304 -0.00919139 -0.00024708366 -0.0210092 -0.00052028295 -0.017500678 0.017148633 -0.0025399665 0.023488622 -0.014768218 -0.027793294 -0.024609348 -0.0072286185 0.02130749 -0.0188223 -0.025857894 -0.02055647 0.0025551177 0.010987488 0.017008986 -0.012355114 0.024557069 -0.007589139 -0.02681386 -0.020872878 0.030127985 0.009310235 0.023325872 -0.019769398 -0.014956276 -0.019176872 0.018681424 -0.017869951 -0.013057435 0.023487723 0.028941084 0.0038296473 -0.02877511 0.013799255 -0.014606561 -0.008016653 -0.022973988 0.024259137 0.015526984 -0.021546472 -0.013160051 0.019177848 0.027469082 0.0147054745 -0.009090835 -0.01645127 -0.014955959 0.0163574 -0.0052878843 0.017945819 -0.011832278
3 -0.005009777 0.0069821393 -0.015823685 -0.008711824 0.009186465 0.016980596 -0.006959697 0.0052516283 0.0003566256 -0.013855185 0.0016943314 0.015583987 0.0013432538 -0.0076065175 -0.0021280865 -0.006857391 -0.01586128 0.00051974464 0.0037797187 0.0028296853 0.0025332645 0.0005250955 0.00062707777 -0.011559487 0.01005246 0.0032732398 0.0031973664 -0.00392269 -0.0026377914 -0.015943471 -0.012835765 0.0018027024 -0.014748845 -0.006895426 0.0021076975 0.0141897 0.0044462653 0.00060998986 0.0023955498 -0.014810198 -0.00058185565 0.012077705 -0.014928137 0.0004741807 0.00493316 0.005774582 0.0006182885 -0.0042727715 0.0065046037 0.0045761615 0.008468091 -0.0015162742 0.0058781197 0.0036398717 0.015626686 -0.014605522 -0.010405943 -0.0025709902 -0.0129436115 -0.012431614 0.0068336483 -0.019204507 -0.0035576397 0.012316194 -0.0072885137 -0.0020355876 0.0040725563 -0.0027835993 0.008557082 -0.011214843 0.006939018 0.003242108 0.0015031745 0.0022332605 0.0093220845 0.005856056 -0.0041060476 0.0063203964 0.004751953 0.018829329 0.010415121 -0.010401933 -0.0005620796 0.0023593148 -0.012386511 0.01544445 -0.0027478072 -0.0047371406 -0.018534057 0.013729421 -0.00032047072 0.004520423 -0.0044756113 0.02558493 0.004894879 -0.01039039 -0.00530544 0.010933015 -0.007286919 0.008787434 -0.0056309537 -0.0007623697 -0.0076939864 0.0069051497 -0.003147835 -0.005133288 -0.0012280706 0.01983824 -0.002928299 -0.0047191842 0.003545308 -0.000835165 -0.00495076 0.00020609991 0.0077675967 -0.0018805406 -0.0033339928 0.0015481649 0.012799687 0.015217621 0.013922551 -0.01481956 0.0015491148 -0.0011299632 0.011727454 -0.0034639856 0.004834997 0.0075282725
4 -0.010865409 -0.004068354 -0.016408864 -0.010519616 0.0036619892 0.004985338 -0.002726762 0.011143442 -0.0074138236 -0.010321979 0.008628176 0.0067769736 -0.009699558 0.010282766 -0.008942632 -0.02218426 -0.01692019 -0.006707683 -0.014681269 0.008446439 -0.0042429734 0.0036030086 0.014867927 -0.005555441 0.0021503267 0.009692205 0.0023333833 -0.0005795779 0.0030601292 -0.0141464425 -0.0037079502 0.006491646 -0.008051386 0.0046955305 0.0093386 0.00060869975 -0.008449934 -0.017016772 -0.0034983882 -0.0037876861 -0.007444487 0.018672697 -0.019873688 0.008992556 -0.0052737608 0.0014742429 0.0047878916 -0.005160997 0.011720547 0.0015407966 0.013621407 0.008357477 0.017062427 -0.0023458344 0.016521735 -0.018957997 -0.005699829 -0.020698242 -0.013276094 -0.0120623065 0.0060403515 -0.015563909 -0.0082471315 0.0016927475 0.0010926821 0.0038053307 0.011895024 0.011292351 0.0047112675 0.0004514571 0.010198492 -0.0067708185 0.011337761 0.0034952136 0.01450955 0.0013016075 -0.0017063023 0.0053512636 0.0008076434 0.022862148 0.013251939 -0.009925394 -0.011806339 -0.012724745 -0.014830847 0.016143272 0.008965892 -0.009699655 -0.02060594 0.01343341 0.0050151777 0.0060584787 -0.006750159 0.010921711 0.0001858996 -0.012860734 -0.006579144 0.016741326 -0.0030891385 0.02719561 -0.020785956 -0.006724804 0.0022195606 0.0053913263 -0.0024049226 -0.009447952 0.010450583 0.014415 0.0030693898 -0.011776896 -0.008646123 -0.0054679024 -0.0015951071 -0.010175523 -0.005856229 0.0010597138 0.0035708288 0.009976565 0.008625486 0.0023865313 0.00355664 0.005683892 0.009221619 -0.01014541 -0.0028254588 0.00866041 0.0067962096 0.005356916
5 -0.004350327 0.012788304 -0.0059901793 -0.009794458 0.0054197535 0.019561615 -0.008748516 0.0033297455 -0.0023144733 -0.0059295087 0.0006276221 0.009367409 0.00081888656 0.00091970945 -0.0092973625 -0.019637443 -0.011760902 -0.003197902 0.0013063817 0.010490433 -0.0011390187 0.00096080685 0.002611224 -0.0168475 0.013826894 0.0062624994 0.008962848 -0.019075498 0.0016035689 -0.010982137 -0.005944358 0.0123198535 -0.010611081 -0.012363309 0.022689143 0.00859863 0.0004025793 -0.014459011 -0.015118565 -0.015433704 -0.0072633605 0.001083358 -0.02614173 -0.0011103759 0.0039054134 0.0030746118 0.0031842145 -0.0040365215 -0.0006325291 0.023242023 0.012706224 0.000837688 0.01844417 -0.006616224 0.017620377 -0.016498936 -0.010612055 -0.018310435 -0.011430853 -0.016023615 0.01544824 -0.020736884 -0.015275815 0.008372014 -0.010987223 -0.01266058 0.01576799 0.003973174 0.010519274 -0.005247324 0.01752594 0.011507337 0.00020290923 0.0024604322 0.011001058 -0.0055102706 -0.006040042 0.0045994394 0.01678848 0.0040459926 0.02727488 -0.012284283 -0.016555896 -0.011354561 -0.023052206 0.0041951966 -0.0039157984 -0.010260798 -0.01700804 0.00658895 0.011317808 0.002633065 -0.0060723126 0.020162873 0.007783667 -0.017637184 -0.005923125 0.012578322 0.0033708704 0.02402011 -0.018664196 -0.00690067 -0.020516856 0.017722834 -0.015195391 -0.008147702 0.0045684488 0.023887642 -0.0074446825 -0.017780384 0.0050113737 0.0008031751 0.007813921 -0.011217108 0.0052779764 0.01269052 -0.0021846814 0.0031688095 0.00594218 0.024469435 0.013144856 -0.011112319 -0.005005164 -0.01043358 0.019934254 -0.003632111 0.009474255 0.013956813
6 0.0024792552 0.015323711 -0.023172483 -0.015844926 0.0073263757 0.019268107 -0.016862907 0.006657935 0.008173464 -0.009204721 -0.011453143 0.019285463 -0.006782945 -0.0044734944 0.00882981 -0.010742635 -0.018915234 -0.0153712975 0.013937569 0.0038872994 -0.00844591 0.015205013 0.020413509 -0.0103102615 0.012979492 0.011262071 0.00933671 -0.013894535 0.006246512 -0.022392938 0.004832573 0.0014637058 -0.02155214 -0.0015188537 0.014546048 0.014539501 -0.010291999 -0.003037449 -0.007915175 -0.02222484 -0.0022691393 -0.001261635 -0.011240149 -0.008294158 -0.004052035 0.0032511067 0.011878472 -7.341869e-05 -0.0062213554 0.021648744 0.010688131 0.008266655 0.0065491404 -0.008690607 0.02467959 -0.018510459 -0.003118408 -0.01923355 -0.018185405 -0.006027614 0.019381387 -0.014136201 -0.017948946 0.01732571 -0.015626388 -0.008335212 0.013676743 -0.00033364477 0.0055842595 -0.017838167 0.015309549 0.007221049 -0.008176938 0.009441625 0.017851336 -0.0114241075 -0.009198518 -0.0021434524 0.020917762 -0.0071569 0.018873934 -0.018069314 -0.0034950976 -0.011072658 -0.008805692 0.0017786052 -0.010140714 -0.009327358 -0.02326192 0.021270407 0.0012449676 0.0077655828 -0.004136604 0.006337326 -0.0027477443 -0.01384188 -0.012423994 0.015775165 0.018486379 0.015048074 -0.020656882 -0.016622806 -0.0105929 0.0112987785 -0.006233012 0.0022130096 0.009065339 0.024379948 -0.00893651 -0.015855236 0.014009095 -0.006894009 -0.0034415403 -0.018371511 0.020283125 0.021029294 -0.005995546 -0.0025667138 0.013308739 0.021774076 0.01088705 -0.014656918 -0.009704389 -0.016626565 0.013936344 0.0006098279 -0.002925621 -0.005379295
7 -0.011565997 0.008196574 -0.016182402 -0.023924328 0.017077949 0.01591556 -0.012834581 -0.007546967 0.010247534 -0.0043006595 -0.0042018876 0.019737657 -0.0027966364 0.0030472316 0.0077577583 -0.014413872 -0.020845965 -0.015719565 -0.01050156 0.0143789435 -0.0021763647 0.011062322 0.003902713 -0.020230977 0.0031712106 0.011698627 0.008334933 -0.015830249 -0.0056212693 -0.024140555 -0.0007280812 -0.0017746723 -0.020209432 -0.0124336835 0.016169889 0.021625612 0.0055398718 -9.540352e-05 -0.0076613845 -0.01646929 0.006949864 -0.002504867 -0.018965641 0.009229366 -0.010466014 0.002621887 0.007496168 0.012634216 -0.00853582 0.015323391 0.012187919 0.006569751 0.012491111 -0.010133415 0.022704206 -0.014041657 -0.0013752145 -0.017853668 -0.010504348 -0.006568999 0.013996306 -0.021414539 -0.012299558 0.0025378866 -0.010762726 0.003951482 0.01038959 0.004975858 -0.003540502 -0.013143382 0.015351733 0.004149327 0.00026015632 -0.0040042 0.0035753702 0.0037646326 -0.0047837864 0.0023621158 0.016386425 0.014848487 0.018481327 -0.01786779 -0.00820244 -0.02131611 -0.017870363 0.020759728 -0.003969373 -0.009953874 -0.025757462 0.020955374 -0.0008244734 0.007700933 -0.0057247607 0.013042044 0.003460571 -0.017685276 -0.012157697 0.013363855 0.005326664 0.0102537805 -0.012687905 -0.020925492 -0.008358579 0.021554463 0.005084447 0.005123459 0.0056689503 0.024475353 -0.0031652744 -0.008905199 0.0009882457 0.0033231284 0.00448163 -0.018798383 0.010466938 0.016764719 -0.005564051 3.416321e-05 0.023448316 0.025716249 0.009457815 -0.010358911 0.0074738674 -0.007106667 -0.00082783087 0.0058719907 0.010836754 0.012286788
8 0.016482593 0.011054484 -0.027712932 -0.023940101 0.022830661 0.01661231 -0.0051392666 0.004645872 0.019606264 -0.011374076 0.008678312 0.02140816 0.0032186876 -0.021089913 0.01748615 0.010814135 -0.013984024 0.0055154455 0.02353444 -0.010844251 -0.012301565 0.017271275 0.010218661 -0.014070829 0.019082258 0.020778146 0.020893838 -0.02693225 0.013837365 -0.013856063 0.0062293666 0.020954236 -0.02329276 -0.022933383 0.015815595 0.014876026 0.0025503165 0.011669038 0.004581217 -0.02542818 0.010227747 -0.0012807122 -0.018499203 -0.00085988117 -0.0028298064 0.013436681 0.012365188 0.009401682 -0.010060357 0.022710055 0.026608013 -0.007973968 0.01764253 -0.01580685 0.014982091 -0.026646676 -0.007278321 -0.017043322 -0.014028305 -0.017131343 0.02409647 -0.021243496 -0.005802291 0.0068760677 -0.014301979 -0.002727787 0.023754422 -0.015513111 0.0052993437 -0.016184982 0.02001871 0.012899787 -0.024535038 0.009182239 0.019081518 -0.014605719 -0.020982461 -0.014926548 0.009298209 -0.012636862 0.01498842 -0.023346458 0.0020760645 -0.02545391 -0.006648959 -0.007353168 -0.00842566 -0.017745914 -0.017271005 0.00812945 0.009952715 0.019378748 0.0011743079 0.01944589 0.0040440448 -0.013381192 -0.011039159 0.024280421 0.010838833 0.020087117 -0.0145348245 0.0050794343 -0.014783857 0.01821053 0.0011368245 0.017493686 0.0048670825 0.017571203 -0.012488351 -0.023906346 0.019215453 -0.012579511 0.0055679865 -0.021579158 0.016511872 0.019075617 -0.0115932785 0.01402603 0.019447967 0.025583507 0.020390237 -0.022127805 0.017625688 -0.0021927312 0.025891827 0.022480581 -0.018064497 0.0082161715
9 0.0019111973 0.009711369 -0.0036247135 -0.021725224 0.01937599 0.024924206 -0.022614338 -0.00010795973 0.006761494 -0.009553319 0.0026889578 0.021249315 -0.006702749 -0.006020509 0.009899659 -0.015721977 -0.012240872 -0.005402755 0.013293811 0.0036486117 -0.0024628048 -0.0043225097 0.016273854 0.006373491 0.011961895 0.0083206035 0.005338546 -0.016385319 -0.003103855 -0.010678206 -0.009629493 0.004127281 -0.022463458 -0.0063405684 -0.002021057 0.019119333 -0.015995707 -0.012111863 -0.006758721 -0.024830451 -0.010677776 -0.0078529855 -0.012268591 -0.0018683799 0.0026202772 0.012266117 0.008114954 -0.009981669 -0.0133268405 0.024688998 0.02168789 0.008748049 0.01330503 0.0014115638 0.0110484045 -0.0031691 -0.007395961 -0.024870524 -0.013123211 -0.009991214 0.01982648 -0.024078429 -0.004526318 0.017844167 -0.019476403 -0.022970073 0.008348159 0.009268906 -0.01634377 -0.015811643 0.0065891994 0.0065299068 -0.002127767 -0.0034043232 0.019648826 -0.022980593 0.00086881133 -0.012394797 0.019857632 0.0046137795 0.018375931 -0.005327427 -0.016605666 -0.016486486 0.0015925975 0.0028337047 -0.016613262 -0.016557777 -0.020747509 -0.00527494 0.015457177 0.009146361 -0.0010327759 0.003701466 0.005827066 -0.018474689 -0.017511168 0.023064958 0.019567339 0.024735926 -0.011297208 -0.01849187 -0.02068831 -0.0020045377 -0.012535789 -0.009580377 0.014220801 0.0126769645 0.00971169 -0.017538067 0.017692722 -0.015569187 -0.003944339 -0.0142139215 0.015774999 0.01663451 -0.013039127 0.019022394 0.0133522805 0.014106517 0.0038871174 -0.018433882 -0.00023660049 -0.013100937 0.00681173 -0.0060151103 -0.0034860433 -0.007112482
10 0.009256083 -0.006271601 -0.01483913 -0.011661546 0.008492168 0.014093858 -0.0090593565 0.016203849 0.009379912 -0.016653923 0.0027117368 0.005042456 0.0048162644 -0.0054119467 -0.00083873083 -0.019102065 -0.014477997 0.0046550855 0.008941637 -0.0004097735 0.007206935 -0.0012373917 -0.0025543803 -0.022448815 -0.0047278358 0.019978954 0.020550488 -0.00098392 0.003740044 -0.0038736328 -0.011085271 0.0072281696 0.0014829658 -0.017111285 0.0076394817 0.011212425 -0.0005998723 0.0092523685 -0.015901534 -0.010675359 0.0012264734 0.00858768 -0.016908329 0.0013269352 -0.011827261 -0.004316834 -0.005013799 0.0017748781 0.008331934 0.0061222836 0.014642104 -0.0020658562 0.00931506 0.00052153855 0.023813995 -0.006972432 -0.014261699 -0.0009993791 0.0015421456 -0.0042046895 0.011969777 -0.013721419 -0.013353755 0.006337006 -0.008508179 0.00565484 0.018117104 -0.0072675063 0.01294715 0.0043508685 0.02542772 0.00086403516 -0.006331201 0.004252524 0.022807783 -0.0065663266 -0.01688575 0.0066563385 0.012149195 -0.0047573186 0.006035325 -0.0077639297 -0.00037629655 -0.013324801 -0.024747966 0.00075353566 -0.007609761 -0.011392297 -0.014577672 0.025326379 0.02000341 0.0077099074 0.0016527259 0.011509956 0.014918381 0.0029629818 0.0049501234 0.0061624176 -0.0094366865 0.005124725 -0.008025879 -0.009292947 -0.009268019 0.024696559 0.0073424433 0.0013709578 0.0065192804 0.021207575 -0.0035251887 -0.012571869 0.016577275 0.008022712 0.016591595 -0.019829232 -0.006487126 0.010246389 -0.0006697018 0.017560594 0.008673983 0.00048364297 0.019234626 -0.014126798 0.008149091 -0.0005090098 0.0053365147 0.00083680573 0.0023939246 0.01915769
11 0.02226338 0.0170861 -0.016552694 -0.017263813 0.021372879 0.022406315 -0.024986057 0.019696373 0.023893911 -0.016137598 0.0015494642 0.018534027 0.0035025084 -0.024355795 0.014943541 -0.02280374 -0.028529577 0.0021676843 0.011244521 -0.01633279 -0.00767753 0.022237813 -0.0018075786 -0.013407281 0.014209522 0.024122749 0.0128084 -0.011516163 0.025568679 -0.023530297 -0.009575226 0.030798048 -0.025992585 -0.018465502 0.027906897 0.024945049 0.01106234 0.008614845 -0.012754844 -0.030381043 0.018435653 -0.007766821 -0.018971018 0.027269317 -0.02138811 0.021405494 0.005897375 0.010915163 -0.008944384 0.02339981 0.017118415 -0.006280401 0.028396927 -0.016865674 0.0203454 -0.027745806 -0.029325077 -0.008565397 -0.006488388 -0.02253803 0.01699583 -0.02441181 -0.019525893 0.012221643 0.0070215235 -0.010522864 0.018684339 -0.022222443 0.009977674 -0.018902326 0.016993351 0.0059365453 -0.02433209 0.024383238 0.02597784 -0.011468342 -0.028625214 0.010663654 0.011303581 -0.011101923 0.012252512 -0.026716258 0.008586563 -0.02935642 -0.028189076 -0.015688509 -0.015960481 -0.017591143 -0.020315733 0.0141915195 0.021011878 0.008467911 0.024350528 0.017226685 0.026403863 -0.008348458 -0.012818017 0.02408978 0.016154712 0.027495675 -0.027912004 -0.010530509 -0.019420553 0.02965631 0.014726733 0.009551174 0.007739075 0.0303586 -0.014446579 -0.019331953 0.012305691 -0.0010504681 0.02353124 -0.02384865 0.014368485 0.020196645 0.00063613406 0.0019920387 0.01635001 0.023673132 0.025645815 -0.022747336 0.019060174 0.0049657756 0.015952572 0.02662656 -0.01078792 0.0120692095
12 -0.0068758484 0.002108847 -0.0070808656 -0.009263175 0.014630757 0.020706363 -0.018103844 0.007505369 -0.0006310651 -0.021617148 0.010398838 0.007835602 -0.0004918538 -0.0044334233 -0.010794442 -0.015743984 -0.010798704 -0.00535544 0.0014702321 0.0102356225 0.004312151 0.0086366 0.0037467312 -0.005545595 0.010359469 0.015944805 -0.002085715 -0.021166379 0.01751696 -0.012306024 -0.0032526876 0.00089854456 -0.014105891 -0.0039361753 0.013933032 0.009834556 0.0015984324 -0.01137994 0.008479765 -0.009686035 -0.012661036 -0.0017489425 -0.022047527 -0.00054131134 -0.0033765319 -0.00070969155 0.012140482 -0.0025391977 0.012762695 0.016137779 0.020774126 0.0018415244 0.0236894 -0.0009866041 0.022198584 -0.01270173 -0.008492044 -0.011505846 -0.02147438 -0.0056092856 0.016993929 -0.02569586 -0.022176877 0.017607257 -0.013518802 0.0021861594 0.0155207785 0.005495812 0.0020325305 -0.005903601 0.022943517 -0.0042508175 0.003923002 0.0012578883 0.0048381495 -0.0116547765 0.0011583848 0.0016053653 0.016263552 0.0073604938 0.016369397 -0.018910564 -0.012150377 -0.0071487664 -0.014125101 0.012486497 -0.012019491 -0.017604707 -0.015332641 0.025447184 -0.0041462 0.009938267 0.0052886615 0.024278335 -0.00028876204 -0.010381953 -0.003096074 0.020765362 -0.011335487 0.019754587 -0.01613427 -0.007021178 -0.012218428 0.006284947 -0.00392169 -0.009113202 0.012699075 0.020371359 -0.0011676627 -0.0032004751 0.0005114265 -0.0041168965 0.001978983 -0.010597437 0.008715385 0.004378952 -0.001664772 0.012419111 0.017517429 0.00925775 0.0030320506 -0.017548503 -0.0060889362 -0.009241795 0.012862366 0.002388225 0.000107084605 0.019892065
13 -0.009410978 0.015752275 -0.021161824 -0.018052135 0.016247112 0.023914719 -0.015124552 0.0008223271 0.0077290046 -0.009764205 -0.014751358 0.014741857 -0.015269833 -0.009266312 0.0063774213 -0.00027952442 -0.015974665 -0.0039688814 0.009183823 0.0022601727 -0.009288669 0.0052498374 0.005952878 -0.0024893144 0.014118876 0.0075383577 0.0062173638 -0.0074185506 0.013963218 -0.016050527 -0.0030754842 -0.0056379647 -0.019252736 -0.0169062 0.011768113 0.025102343 -0.0037420494 -0.010633909 -0.0018424159 -0.015042884 0.010748592 -0.0055646803 -0.024460176 0.0019840207 -0.0014660709 0.009016777 0.012324328 0.0010663279 -0.009171592 0.01471107 0.024094956 0.0015793401 0.016338585 -0.010133982 0.017803274 -0.022772953 -0.010492597 -0.0116293095 -0.013996333 -0.016683467 0.010267168 -0.015240411 -0.020917434 0.016764462 -0.008327379 0.0015403162 0.021181058 0.001185633 0.018850984 -0.016236223 0.020304672 0.008501609 -0.006437557 -0.0009373822 0.017444756 -0.008837167 -0.008730526 -0.0070325257 0.01306081 -0.0031325822 0.013425424 -0.007437282 -0.013171497 -0.022356527 -0.013846599 0.0055349427 -0.007862107 -0.0186769 -0.021585926 0.013552361 -0.0039832266 0.018405523 0.0030812037 0.016095337 0.0020570708 -0.018119602 -0.010819066 0.016635438 0.004579695 0.007993378 -0.013785984 -0.01754762 -0.018325474 0.0093130255 -0.004228879 -0.005413963 0.015156077 0.024116348 -0.0072723962 -0.021237994 0.014489455 -0.016570836 0.0072200885 -0.015159318 0.017571118 0.021576554 -0.002387089 0.0055131274 0.019763269 0.011974121 0.0031003233 -0.023453185 0.012818969 -0.013174617 0.012099477 0.005368584 -0.011468385 0.0006694102
14 0.014935449 0.0081514735 -0.010715025 -0.026341772 0.013527349 0.01122887 -0.021943836 0.017423157 0.008712072 -0.0064290334 0.0075781997 0.019976825 0.0060179834 -0.023928886 0.016680267 -0.011109811 -0.026477432 0.0016347392 0.018184977 -0.018338144 -0.0035982847 0.01988961 -0.010168294 -0.023982132 0.016373055 0.01837203 0.02015137 -0.013720847 0.029358836 -0.009925214 -0.012954067 0.02588432 -0.026484713 -0.012511748 0.024315933 0.019325731 0.005400154 0.014257985 -0.00042248407 -0.011928501 0.004675174 -0.0025785586 -0.028088193 0.014812406 -0.030407147 -0.0011448284 -0.007643922 0.0030179645 -0.012588971 0.021245962 0.022725608 -0.018054517 0.012471561 -0.011400327 0.023509296 -0.023942368 -0.016296986 -0.00711294 -0.028479083 -0.015241577 0.01651953 -0.019820234 -0.024284288 0.003951227 -0.005380648 0.02385315 0.016788794 -0.010293286 0.0079966765 -0.012908867 0.021377824 0.0073006097 -0.020790875 0.019296583 0.026594615 -0.004979096 -0.019081354 0.017809745 0.0104137715 -0.007150094 0.023973932 -0.010052611 0.0053374832 -0.016748307 -0.025484921 -0.008418234 -0.010009591 -0.025859235 -0.02331139 0.02424517 0.025015533 0.011063154 0.01398994 -0.0038531038 0.027019106 -0.017307477 -0.009095278 0.015688391 0.008351702 0.020008516 -0.023087468 -0.006319107 -0.023991382 0.024375096 0.0059021106 0.0076202573 -0.005350322 0.01417558 -0.024178743 -0.026451439 0.00745817 -0.0023565895 0.021075852 -0.009716377 0.020111967 0.013520731 0.017086549 0.008995861 0.025012055 0.020794515 0.019347718 -0.018072233 0.007440894 0.016964447 0.0124921445 0.014430059 -0.01904599 0.0060758092
15 0.0029965143 0.00031924696 -0.017908193 -0.009511897 0.0027507388 0.018307269 0.0028384128 0.0130063 0.0042372607 -0.008526197 0.011338467 0.007777086 -0.0027452062 -0.01653699 0.012014934 -0.016921742 -0.019503502 0.011743539 -3.6024823e-05 -0.010928849 0.0054945853 0.017466148 0.004069171 -0.020600444 0.0031199777 0.0118653 0.01229422 0.001994376 0.0048868083 -0.011715499 0.006444452 0.009612524 -0.007150936 -0.0065996465 0.012490856 0.010463956 0.00085993967 0.008991365 -0.0070074224 -0.011161344 0.0131115075 0.018924369 -0.01758003 0.0011069021 -0.010523073 -0.0062001506 -0.011020838 -0.012496593 0.016896123 0.02404411 0.015097108 -0.017104045 0.021640189 -0.0036147635 0.01436041 -0.019295547 -0.021636354 -0.007701016 -0.016056694 -0.017435532 0.015113073 -0.0077850404 -0.020826507 0.006440323 0.009171392 0.0067260643 0.023465369 -0.008959189 0.007231654 -0.0051490245 0.021829095 -0.0010526057 -0.013781261 0.02112616 0.022917755 -0.00260846 -0.014596923 0.0025098443 -0.006602384 -0.0064581446 0.012317797 -0.008792171 8.771493e-05 -0.017016932 -0.01278161 -0.011097138 0.011984826 0.0041712946 -0.013593182 0.005402206 0.012546777 0.004435156 0.013814931 0.0063172895 0.015890617 -0.0037677153 0.007388128 0.019493287 -0.015296708 0.013424794 -0.024680909 0.0016252694 -0.009197085 0.019588932 0.01284044 0.008204969 -0.0002666606 0.022649815 -0.013413954 -0.020646684 0.009579206 0.001692424 0.015080181 -0.014054886 -0.008718432 -0.0055907974 0.012545916 0.0100815 0.006348482 0.00337448 0.020516902 -0.020737506 0.009429238 -0.004697325 0.005642633 0.008896408 0.01592698 0.016708832
16 -0.011572891 0.008699476 -0.023000717 -0.0139461765 0.0068113455 0.016829971 -0.020951267 0.02494438 0.009326652 -0.014139198 0.0046326057 0.024984064 -0.013345935 -0.0074676387 -0.011804425 -0.0107358005 -0.023898246 -0.016828738 -0.010417723 -0.0015094467 0.016298326 0.022215068 0.005989165 -0.010505984 0.0067808707 0.007535781 0.0034154854 -0.022324199 0.014932741 -0.024371155 -0.018611727 0.015351201 -0.01318341 -0.011863898 0.012956561 0.0114043495 -0.0058204685 -0.017612007 -0.0067004114 -0.023185551 -0.0053249877 0.011533232 -0.011961681 0.012657059 -0.020781413 -0.0017986419 -0.01238555 -0.010038151 0.018934151 0.017016355 0.013401043 0.01086153 0.02558024 -0.0025377367 0.013161397 -0.021169705 -0.021579958 -0.021686522 -0.016759232 -0.01800675 0.019287137 -0.01294994 -0.023325179 0.022398535 -0.014071024 0.00649222 0.024582583 0.007829965 0.026443567 0.0040262956 0.019848997 0.00056223606 0.010029883 0.020369587 0.024329415 -0.008904035 -0.013149546 0.01119157 0.008749177 0.019401914 0.025997795 -0.004030465 -0.009048064 -0.01771148 -0.027119152 0.0068675918 0.0053560864 -0.01957576 -0.018403824 0.021722468 0.01708142 -0.008798967 0.007301977 0.02195755 0.019772239 -0.012384197 -0.0043814 0.012820363 -0.016361278 0.018050458 -0.022366159 -0.014650691 -0.022415927 0.015665617 -0.0041358476 -0.00027022633 0.0049496987 0.010215059 -0.013122191 -0.023133796 0.007868258 -0.012507438 0.017583668 -0.015431909 -0.004488488 0.0025087115 0.0044295597 0.02482885 0.01867607 0.02123902 0.010529996 -0.015986942 0.020899577 -0.0054458897 0.0011768101 0.010241895 0.0046691075 0.02733564
17 0.0069940183 0.016651733 -0.026158206 -0.017613197 0.022042379 0.024840863 -0.020758668 0.012424533 0.02846178 -0.008717642 0.017982492 0.016394695 0.0066466015 -0.0071486523 0.019090809 -0.015079444 -0.0282375 0.010280398 0.011442209 -0.017668314 -0.007839693 0.024455128 -0.004080432 -0.027953567 0.022948002 0.02494119 0.016939314 -0.02178918 0.0061573396 -0.029507337 -0.0034139343 0.022587452 -0.025331082 -0.012366104 0.021157421 0.015725385 0.023617048 0.01677572 -0.020492809 -0.021627866 0.016498802 -0.0048876135 -0.024072638 0.01733581 -0.027852893 0.009287331 -0.008278486 0.014316276 -0.0048566 0.025765829 0.028677477 -0.01928692 0.0207321 -0.010458951 0.019853678 -0.018044174 -0.017735442 -0.010432112 -0.017069576 -0.017855316 0.027836258 -0.023875227 -0.02080946 0.022470018 -0.02199409 0.014236995 0.0116667515 -0.01654834 -0.0023026771 -0.016376045 0.013355521 0.011684512 -0.0082702935 0.02661184 0.021941898 -0.015271968 -0.02017295 0.007600701 0.01632009 0.0014273231 0.012233431 -0.008366462 -0.0029729484 -0.020609612 -0.021039486 -0.00095312565 -0.006725708 -0.005256106 -0.015171368 -0.00095504615 0.012382062 0.005780483 0.0018397735 0.010083054 0.015486758 -0.015076536 -0.021158608 0.018039431 0.0075591407 0.01576964 -0.021644447 -0.0073182653 -0.026438594 0.02240988 0.015176342 0.009853141 0.009182961 0.024676256 -0.020511052 -0.018948382 0.010997517 -0.0164718 0.024215117 -0.0108577525 0.008050927 0.0114217345 0.019746423 0.017844701 0.016235376 0.025140673 0.014983243 -0.01575959 0.029115144 0.010604617 0.023636093 0.017325554 -0.01908018 0.020167494
18 -0.014863019 -0.017527781 -0.00048460177 0.0016274961 -0.010457467 -0.0068356507 -0.025879605 0.021205092 0.0033922265 -0.006662838 0.010246051 -0.0052716415 -0.018312572 0.009179247 -0.02144151 -0.029698217 -0.010032254 -0.012570761 -0.023096593 0.015869481 0.015106958 0.01657873 0.0146223735 0.009714803 -0.0077686077 -0.009275675 -0.0046201395 -0.021307861 0.021498298 -0.009868186 -0.022259014 0.0025328333 -0.010979441 0.012896162 -1.8041857e-05 -0.0029899923 0.0062974803 -0.014749046 -0.0017296516 -0.021639857 -0.019655474 0.020299284 0.0018763099 0.019706104 -0.009514509 -0.019077802 -0.0043561785 -0.010341158 0.024166325 -0.0034577996 0.0016867223 0.018916883 0.009328469 0.00736951 0.0020799292 0.0017224387 -0.0121813025 -0.02384591 0.00086876855 -0.0001621959 0.0048404676 -0.0066175945 -0.012174008 0.012857288 -0.017119948 0.028220259 0.005226544 0.013158242 0.014844823 0.007819111 -0.0009982749 -0.014666956 0.010274568 -0.0028571899 0.0047826474 -0.00083246815 0.009044822 0.029152723 0.013377532 0.016526086 0.00025119755 -0.00655055 -0.009822635 -0.003778353 -0.0018062438 0.025707895 0.023445271 -0.015732907 0.008350667 0.011714156 0.0129023045 -0.018908795 0.0060840915 0.0068676677 -0.0052504274 -0.020586614 0.0003873342 -0.0051351073 -0.02111614 -0.0011409537 -0.00061028835 -0.027391795 -0.009478182 -0.0008820848 -0.019015376 -0.016286835 0.011416356 -0.0008281803 0.0052808397 -0.008969477 -0.02385156 -0.0154903885 -0.00087797694 0.008817665 -0.00865017 -0.017609421 0.0027665726 0.026957642 0.00068996934 0.02326502 0.0020114682 -0.0010137972 0.008312359 -0.025436807 -0.018125508 0.014455375 0.011931218 0.022407275
19 -0.011308557 -0.02036013 0.007162183 0.010958479 -0.01232849 -0.0029421141 -0.010278477 0.013463455 -0.003397119 0.005947299 0.014452719 -0.00022330362 -0.012993692 0.0048220977 -0.0034617307 -0.020216748 -0.004123559 -0.0112608485 -0.022167254 0.00018414314 0.017142437 0.02062015 0.0069158925 -0.009211067 -0.014638288 -0.01135177 -0.005846123 0.00080909685 0.016975831 0.008346388 -0.011262424 0.003648259 -0.002948726 0.014160089 -0.0012617379 -0.0025081423 0.004104201 -0.016864717 -0.014004075 0.0037944454 -0.01295688 0.024069322 0.010705783 0.011187127 -0.008726688 -0.016020501 0.0011509409 -0.009833622 0.012608895 -0.0066148136 -0.013920318 0.009594371 0.008071802 -0.0065461677 -0.013146862 0.007009564 -0.0061389864 -0.003905667 0.007549957 -0.0008488669 -0.01263906 -0.00050395814 -0.015866566 -0.0041413377 0.008778013 0.016999539 0.011554053 0.016239805 0.02716714 0.0037975656 9.5708914e-05 -0.012281204 0.019849598 -0.0074170963 -0.006942966 0.019638814 -0.00913228 0.017327322 0.004312017 0.00025533844 0.006041833 0.0059507466 -0.012063851 -0.012109007 -0.007665394 0.0073964563 0.0131615475 -0.00893098 -0.00755392 0.017253429 0.007385661 -0.0019438099 0.019492267 -0.0005263742 -0.002681016 -0.0048623434 0.004197052 -0.010095587 -0.014879503 0.0008646422 0.009356629 0.008252375 -0.0012938053 -0.009681351 -0.0022079693 -0.022665493 -0.005843391 -0.009689419 -0.0011144197 -0.0010721807 -0.01681766 0.0040062885 -0.0027487464 0.012483624 -0.00485835 -0.012648117 0.00035454246 0.026508316 -0.0061966036 4.306565e-05 0.013181265 0.008299344 0.010316949 0.008654041 -0.014600866 0.017071363 0.014031768 0.009997584
20 0.0145418225 0.0011197744 -0.014423632 -0.016262697 0.01164136 0.00868642 -0.0025843312 0.0040699993 0.016738506 0.0023554836 0.013607125 0.011860762 0.014503183 -0.024320304 0.016064674 -0.00908412 -0.02230277 0.008398192 0.0104085645 -0.022924917 -0.0056394003 0.022662234 -0.002238681 -0.008088503 0.00640297 0.006983874 0.022579389 -0.0019010436 0.01711788 -0.0041745314 -0.011456639 0.01683067 -0.01080476 -0.024255844 0.020409057 0.022513177 0.012678288 0.020440008 -0.005875117 -0.019485641 0.018854534 0.0023570291 -0.020666093 0.011606831 -0.027888313 -0.012738955 0.0036538697 0.0032164725 0.007767401 0.019229567 0.011150614 -0.019084318 0.015817305 -0.024844717 0.019141845 -0.009555053 -0.024957404 -0.0038763024 -0.006189787 -0.025792856 0.012870705 -0.012922102 -0.01483548 -0.0035226725 0.004522712 0.002638389 0.014552967 -0.006925939 0.010349656 -0.018519497 0.023516314 -0.0068534454 -0.02430527 0.016214507 0.021676555 0.0042210054 -0.026386464 0.0099718785 -0.0069974815 -0.018676056 -0.002816578 -0.014126053 0.011087515 -0.014833619 -0.016828613 -0.012770975 0.0003700946 -0.0014513812 -0.024915077 0.0081176255 0.016413275 0.0028243654 0.019327717 0.009910731 0.020637475 -0.011215337 -0.0063787713 0.013309422 -0.0021191686 0.0144088315 -0.011615567 0.011656092 -0.018290129 0.027287954 0.021050055 0.009429269 -0.006493743 0.022529503 -0.014063997 -0.018536784 0.017106084 0.0118950205 0.019792078 -0.02152962 0.016198969 -0.00017849341 0.0010506897 0.016589891 0.014906935 0.016338222 0.028884174 -0.0073540895 0.018664535 0.008040773 0.009828445 0.02545663 -0.0118583655 0.015954895
21 0.0008164332 -0.0031183169 -0.01304563 -0.0039749527 -0.0049085743 0.016213968 -0.0065612746 0.011162405 0.011974628 -0.017740395 0.012217438 0.0040839864 0.010666997 -0.0038578724 0.0019000112 0.00028705178 -0.01795196 0.006160365 0.0011059789 -0.015470235 0.0028416975 0.016924689 -0.0034934268 -0.013648887 -0.001556341 -0.0035490694 0.0133620445 0.0039826157 0.021501787 -0.0015613751 -0.0039970265 0.010553394 0.0009489204 -0.005253467 0.016226664 0.0031060297 0.0039532417 0.0050903987 -0.0064894226 -0.010207264 0.007079438 0.01339012 -0.014530214 0.017861031 -0.013153729 -0.009288471 -0.01569568 -0.011442915 0.013107554 0.0040953 0.006475938 -0.01615097 0.018599167 -0.014921989 0.018392745 -0.0068777488 -0.010359384 0.0096019115 0.0025255908 -0.015702829 0.006995823 -0.006535846 -0.022234444 -0.0064702835 0.0028462235 0.013240845 0.025432717 -0.009637397 0.013981213 0.0072561298 0.016844343 -0.006166395 -0.0056587844 0.008252323 0.01735033 -0.0035234748 -0.015587005 0.011378784 0.0037341702 -0.0033050652 0.006843539 -0.0033892724 0.0029569278 -0.0069081406 -0.025324026 -0.00087125646 0.0103702275 -0.006057233 -0.011395126 0.012835941 0.022360554 -0.011186525 0.021239834 0.0068442137 0.013770449 0.0037630612 0.0012375771 0.011675367 -0.012623916 0.003728409 0.00041869638 0.00862783 0.001798531 0.025066374 0.0076701483 0.010669007 -0.014463481 0.014229598 -0.0073629958 -0.01710829 -0.0028873344 0.014004092 0.013087533 -0.004152648 -0.0011997808 0.00094274187 0.01960495 0.01814343 -0.002459143 0.011305724 0.019226259 -0.0022392352 0.016862513 0.013014361 -0.00076045934 0.022712782 -0.0056340564 0.009642553
22 -0.004612521 -0.00826915 -0.008395767 0.0012644083 -0.003231472 -0.0028590558 -0.008024048 0.017624062 0.009955273 -0.016427848 0.0113927955 0.002539188 -0.0056001293 0.003211624 -0.007345438 -0.009477509 -0.012719719 -0.0038364383 -0.0032066745 -0.0055908435 0.011840236 0.011281914 -0.007600495 -0.013832867 -0.013589906 0.003445699 0.013715686 0.0017993518 0.011557869 -0.0065513365 -0.0055604842 0.015566277 -0.003922569 -0.0105298795 0.0018216965 0.0019421233 0.024572639 0.006204082 -0.017214322 -0.005310562 0.0013472284 0.004634565 -0.007513634 0.014452531 -0.024345528 -0.0023090036 -0.009444092 0.0027103194 0.00080705737 0.009417043 0.0076234504 0.0033782886 0.012031879 0.0029609627 0.00025368645 -0.0042440044 -0.013440204 -0.008497408 -0.005930856 -0.0131890755 -0.0041382313 -0.015119717 -0.011939373 -0.007817535 0.0075593754 0.016521681 0.021602686 0.000839075 0.0018268826 0.0006970706 0.007509306 -0.01026656 -0.0042121634 0.007109127 0.010656176 -0.003159807 -0.009703898 0.0056487955 0.007505784 0.010917328 0.0013875326 -0.004700969 -0.0036892898 -0.0063197953 -0.009362623 -0.005629176 0.009330386 0.0018577495 -0.003607333 0.009274262 0.0061768126 -0.008006991 0.0086847 0.015629718 0.018642694 0.0019614897 -0.0019628135 0.004154643 -0.0033016847 -0.0015655736 0.0047553373 -0.00093520305 0.006866034 0.0006944797 0.018541558 0.005128306 -0.009888762 0.0041445023 -0.0059937136 -0.005734373 0.002407439 0.0034110341 0.01980289 -0.0030177901 -0.0065909256 -0.0020410344 0.018534418 0.018954828 0.0108331 0.005814147 0.0070515852 -0.0037182993 0.015666904 0.0024210487 0.0015678823 0.00887813 -0.015574588 0.010088072
23 0.004826402 -0.00407426 -0.016759193 -0.015581925 0.003429431 0.025218885 -0.012802539 0.025610657 0.016043494 -0.022768443 0.016694404 0.015901377 -0.0022776455 -0.004084695 0.009899929 -0.001059538 -0.008258648 0.0022317881 -0.004130646 0.0032059092 0.00536941 0.018902874 0.014021119 -0.0147724375 0.0038972532 0.008190293 0.012311798 -0.015958035 0.028542437 -0.018474292 -0.0044724178 0.010699281 -0.016125532 -0.008164487 0.013515674 0.0031577218 0.0024043897 -0.009111425 -0.0019055345 -0.012141421 0.0013868143 0.009880376 -0.016592767 0.016450493 -0.015353402 -0.0056783776 -0.008914533 -0.009473473 0.0037666361 0.021356482 0.012483608 -0.008004864 0.014085087 -0.008105466 0.011872527 -0.0145987915 -0.0155536495 -0.018557036 -0.016773371 -0.0063331304 0.00312307 -0.001112182 -0.010674276 0.023904676 -0.0036103227 0.010032237 0.02092732 0.0015302431 0.015498896 -0.0022414709 0.013699958 -0.0054174885 0.00046265736 0.009884993 0.018140594 0.00037029065 -0.014526073 0.012472497 -0.0028042574 0.009409729 0.018806603 -0.009942366 -0.0013979024 -0.015195552 -0.014282587 0.004065805 0.0022393467 -0.021421257 -0.018903749 0.010227704 0.010069621 0.0013678977 0.0097865835 0.0077640456 0.014500503 -0.0133383125 -0.010864778 0.016981024 -0.011010665 0.020207264 -0.009791238 -0.01063018 -0.0036053103 0.013284907 -0.0017922176 -0.0061982605 -0.003236626 0.01202597 -0.012367505 -0.012319518 0.0016543057 -0.01712482 0.0063235634 -0.003197257 0.0043271175 0.008974178 0.012671831 0.017070206 0.016125277 0.018639311 0.0062240246 -0.012695525 0.016776973 -0.0016981143 0.007889135 0.015311367 0.003407082 0.008151347
24 -0.007965499 -0.00298524 -0.0028600565 -0.0008610594 0.0027723147 -0.00017704867 -0.014373125 0.007641268 0.0022239026 -0.010041175 0.012235545 0.009572565 -0.008203061 0.0047775563 -0.0054369736 -0.017273828 -0.0048781508 -0.007966112 0.0016186925 0.010782356 0.0053830324 0.015038269 0.0035267572 0.0032035145 0.0077040936 0.0006578268 0.012744779 -0.02387882 0.013675231 -0.018565856 -0.0045111785 0.009110512 -0.009506081 -0.006872072 0.0025314898 0.011165964 0.0037115654 0.00062828284 -0.011456373 -0.0017759583 0.008201061 -0.0015637041 -0.0043109427 0.009306276 -0.012037317 -0.002122829 0.0012733429 0.0056136027 0.005768446 0.009807118 0.010714507 -0.0017471488 0.014744599 -0.0026945018 0.005799885 -0.010661534 -0.011951436 -0.011294978 -0.008772425 -0.00015446791 -0.00020592572 -0.014257339 -0.0063365046 0.017230429 -0.013395169 0.010461713 0.009758995 -0.0077416203 0.011116495 -0.0075458856 0.010106011 -0.0063831587 0.0008713327 0.008357002 0.0018833604 0.00090557185 -0.007978885 0.024641596 0.019045167 0.012116127 0.0073174615 0.003464376 -0.012136452 -0.002558974 -0.0025084675 -0.00053579477 0.010499899 -0.0063965633 -0.0023047568 0.0070101004 0.00722759 -0.006035771 0.008722314 0.0062998915 0.0069365595 -0.0017973697 -0.0008669842 0.0062949336 -0.0053562736 0.008160048 -0.0042044776 0.0020124745 -0.00847028 0.013154829 0.009871635 0.0012039368 0.015807431 0.010171993 -0.014232964 -0.001556433 -0.0032471349 0.007941522 0.010113375 -0.0050334716 -0.0048659267 0.0050306227 0.00057407224 0.012706702 0.011426945 -0.00055296614 0.0006642485 -0.0105252955 0.014912713 -0.005712184 0.0071358513 0.0033433272 0.0010909303 0.012156742
25 0.008982641 0.0035890925 -0.0023652997 -0.014556959 0.0018480722 0.009327238 -0.016917603 0.008223826 0.006593389 -0.00046402996 0.010953086 -0.000474866 -0.001436685 -0.007404424 -0.0022470357 -0.024148956 -0.013535862 -0.0059778425 -0.009253087 -0.0052875853 -5.682558e-05 0.005048381 0.010382128 -0.00706017 -0.0012881185 0.009350677 0.00153891 -0.019622095 0.015093231 -0.0006600401 -0.02237803 0.00348631 -0.0016249518 0.002065648 0.00020328388 0.012255882 0.0044018505 0.00022609923 -0.015800051 -0.011942248 0.0010376286 0.002197952 -0.0070141116 0.016195375 -0.0224893 -0.011536361 -0.0102451695 -0.009929673 0.019295437 0.010273951 0.014815597 -0.0017916393 0.0057995226 -0.012531686 0.014658553 -0.006011179 -0.016685957 0.0035497085 -0.009792688 -0.008560788 0.013805358 -0.006258662 -0.007383675 0.0285618 -0.0055033737 0.0011937304 0.019142196 0.000811149 0.013002564 -0.008716608 0.011540061 -0.0044907248 0.0013870042 -3.2121432e-05 0.013525926 0.0019098605 -0.016157635 0.0018118459 0.023093967 0.013348581 0.0058107693 -0.0005949819 -0.014335649 -0.010461644 -0.0072982516 0.010391057 0.0103879925 -0.009402792 -0.009570891 0.008952178 0.008385882 -0.0006970181 0.01992844 0.0057148905 0.0048304237 -0.010057842 -0.0073516653 0.015796173 -0.0062002856 0.01855918 -0.01284044 -0.017924909 -0.004268687 0.0047641546 0.0058159363 0.0058976756 0.0017091268 0.006270581 -0.007140507 -0.009491919 0.0052060224 -0.007309716 0.014479927 -0.010766785 -0.010201421 -0.002045784 0.0033640938 0.025662303 0.011308329 0.004658519 0.015585715 -0.004727489 0.02065592 -0.013257592 -0.005593351 0.0042540305 -0.0015068647 0.013118232
