26 128
0 0.015726846 -0.021889195 0.0071377587 0.008822123 -0.005450922 -0.018608883 0.019344307 -0.015329078 -0.0075986427 -0.016499616 -0.01687835 0.011635387 0.0033039723 0.019421259 -0.012097719 0.020175714 -0.008531677 -0.024488758 -0.021056015 -0.007766228 0.012541648 -0.006750295 -0.012466702 -0.0146299135 0.008201604 -0.0013155323 -0.013701773 0.004941053 -0.01740783 -0.0048708185 0.016212182 0.005975794 -0.0155680785 0.013928265 -0.018424718 -0.01324444 0.004936605 0.015629804 -0.0008577505 -0.016369581 0.0048620645 0.025011726 0.019210598 0.0033092222 0.025873186 0.0006646733 -0.01978243 -0.01263312 -0.013049204 -0.0066558816 -0.015431156 -0.013561473 -0.009099333 0.013993718 -0.025221486 -0.007495042 -5.485324e-05 0.0010247424 0.010509026 -0.0059021926 -0.0018983053 -0.009637255 0.01512858 -0.009850344 0.01928548 0.009074495 -0.0065613575 -0.016580474 -0.014151308 -0.014197097 -0.003395366 0.00046708772 0.01780065 -0.019888822 0.017639862 -0.01901551 0.015652329 0.0028132538 -0.014469666 0.003471923 0.010345374 -0.023928616 0.008581206 0.009095168 -0.0063457936 0.015395639 0.014383416 0.017052725 0.009833742 0.013894067 0.015771767 -0.0056938026 0.008334282 -0.020674592 0.015336201 0.0009530316 -0.008275323 0.010324579 -0.0028865023 0.020394674 0.0008928289 0.005661476 -0.011542975 -0.023218786 0.009732451 -0.009127234 0.017090276 -0.008518412 0.0091321 -0.001333112 -6.205571e-05 0.016834514 -0.015548064 -8.799671e-05 0.008475114 -0.010393364 0.017013203 -0.011539585 -0.023062114 0.007890934 0.006251455 0.0017249952 -0.019234316 0.021498062 0.0022234973 0.011378977 0.005002894 0.0069363234
1 0.027463527 -0.02850934 0.027948214 0.029165817 -0.009585244 -0.02662843 0.018167567 -0.025794951 -0.02567575 -0.028971354 -0.017727014 0.003740427 0.026656255 0.018341705 -0.027374199 0.021545002 -0.0079782335 -0.007881468 -0.02525967 -0.017572014 0.027066074 -0.024273658 -0.02290668 -0.018143347 0.0015170019 0.0012418572 -0.00277891 0.02650232 -0.025607882 -0.017568296 0.018934963 0.029863305 -0.022719227 0.02501939 -0.0055870744 -0.022968369 0.025469407 0.023706764 -0.009240676 -0.01126599 0.005873826 0.02114984 0.028291484 0.024793066 0.02245961 -0.013513222 -0.026356243 -0.02735664 -0.012827357 0.0011944384 -0.02288824 -0.019474477 -0.011753862 0.015131586 -0.025593642 -0.019756477 0.018616809 0.005856995 0.0136043 -0.012692132 -0.0017930735 -0.005482138 0.017176148 -0.029480712 0.03043704 0.028498823 0.0014676849 -0.025986925 -0.0295462 -0.028750872 -0.006309612 -0.017304797 0.027253725 -0.025700858 0.029640697 -0.014699273 0.026763355 -0.017991697 -0.025395703 -0.0007215682 0.024391027 -0.010300621 0.010323109 -0.0027749373 -0.011456856 0.0329972 0.02159987 0.023469828 -0.0032602586 0.02679278 -0.0007578816 -0.025771607 -0.0060997186 -0.0099193 0.027326262 0.0006826626 -0.011835944 0.023411738 -0.012300537 0.009348645 -0.010227069 0.0047094114 -0.017294673 -0.011726693 0.033549543 -0.01633195 0.023880659 -0.013733726 0.025863238 -0.010593184 0.015692694 0.021407578 -0.0011090231 -0.020517003 0.025251884 -0.017160008 0.009523485 -0.029421391 -0.01702109 0.021861477 0.011229213 -0.0046841768 -0.028687373 0.015445808 -0.00610717 0.018935677 0.017689118 0.0065564746
2 0.0018508955 -0.025147691 0.012006206 0.0133164255 -0.0068131597 -0.015306759 0.025922712 0.0068673864 -0.020425653 -0.018627753 -0.02047213 -0.0012796592 0.021927292 0.015636714 -0.016769882 0.02089664 -0.019331336 -0.01296909 -0.020729888 -0.008290842 0.011773413 -0.02651454 -0.025443107 -0.021319626 -0.0036160452 -0.014392958 -0.029240824 0.023137009 -0.012542827 -0.022500137 0.019464908 0.013258683 -0.0028240297 0.021740623 -0.008287643 -0.0142477425 0.0063045085 0.025084957 -0.016015138 -0.00905741 0.025376085 0.02195859 0.021018634 0.016984405 0.019144963 0.004684508 -0.01609501 -0.0005146751 -0.004227894 0.0036026111 -0.021380289 -0.02042458 -0.012354941 0.018270638 -0.02558577 -0.0065308227 0.016864194 -0.0047081076 0.025625551 -0.0088933185 0.0050073727 0.012403507 -0.0032528627 -0.00048963685 0.02103358 0.021646883 0.014898851 -0.020135058 -0.007411082 -0.019225104 -0.018529976 -0.010629835 0.024960993 -0.01698143 0.019646496 -0.013037971 0.02561424 0.013539141 -0.019217337 0.0012545871 0.02327878 -0.00565965 0.016454842 -0.00091373984 -0.0040222416 0.016388549 0.02272592 0.02112573 -0.011399483 0.019935986 0.020452574 -0.012874387 0.0034164758 -0.010326678 0.024915691 0.011617884 -0.008338706 0.018201832 0.006631273 0.02563241 0.0002082861 1.3618177e-05 -0.0014665844 -0.016421525 0.016949458 0.0078818025 0.023546202 -0.016801015 0.014743929 -0.018357655 0.0060958546 0.022710072 -0.004841147 -0.016726207 0.0060467683 -0.0018051185 0.024267033 -0.01834299 -0.001637161 0.018500483 0.001285596 -0.005843391 -0.012956884 0.02445315 0.0025199766 0.015270165 0.02537919 0.01592259
3 0.006338238 -0.015532351 0.011408618 0.005135888 0.00026136666 -0.01792214 0.016460784 -0.0013005943 -0.011378282 -0.01915695 -0.012906635 0.009737592 0.012518158 0.015282811 -0.021074576 0.011496167 -0.0007975002 -0.013680253 -0.012943947 -0.015639963 0.017117204 0.00017982599 -0.01487432 -0.011055084 0.006613195 0.0004773958 -0.015532431 0.0038154249 -0.010617928 -0.010902027 0.019521866 0.0148133915 -0.017207563 0.022692053 -0.0023210389 -0.016679328 0.010456408 0.004424435 -0.0045073573 -0.023497708 -0.004637775 0.014079218 0.013309649 0.0098376125 0.021107463 -0.002723792 -0.010757025 -0.018115776 -0.019256596 0.0029003858 -0.017230304 -0.012096802 -0.0056639803 0.008882164 -0.0038692239 -0.027698744 0.0011076756 0.0152352275 0.00692007 -0.003755766 -0.006833082 -0.0053635095 0.016777987 -0.0033604782 0.0078011877 0.013946822 0.0049149897 -0.010170232 -0.01139599 -0.012601655 0.009254793 -0.007014189 0.018232906 -0.013688242 0.010241128 -0.007963326 0.0078332685 -0.010065583 -0.012219474 0.006466645 0.010492781 9.04694e-05 0.006900892 0.011841039 0.0024654872 0.012957017 0.0146038765 0.0092734825 0.008287852 0.012326578 0.008801485 -0.010298696 0.0054700677 -0.013873643 0.0034879576 0.0044754827 -0.002242494 0.028132789 -0.013930587 0.01543311 -0.007671287 0.0038370849 -0.015367919 -0.022727277 0.018525323 -0.003029624 0.0039952667 -0.011090043 0.012828223 -0.019148383 0.004293552 0.020885553 -0.008049129 -0.005430068 0.0103355395 -0.0037838249 0.018666621 -0.007951516 -0.016644636 0.013744489 0.0067211627 -0.00101911 -0.019012645 0.020704601 0.0005204326 0.0036392822 0.014899642 0.00327904
4 0.018015925 -0.020461164 0.02529267 0.0060929605 -0.003494417 -0.020433255 0.023095397 -0.014093736 -0.016414775 -0.019164115 -0.027309021 0.020684665 0.014003104 0.022234974 -0.016376311 0.018961241 -0.014975626 -0.007940596 -0.02233846 -0.020386787 0.021510318 -0.0018439379 -0.011703851 -0.019401133 0.012593355 -0.011736481 -0.019691115 0.011578076 -0.011998931 -0.015986122 0.012456675 0.011298101 -0.014115699 0.014483972 -0.007264684 -0.024718208 0.02497106 0.0009401373 -0.007776574 -0.0203913 -0.0011644636 0.009433854 0.012565761 0.015274542 0.019050865 -8.224524e-05 -0.021216515 -0.0032614502 -0.02052696 -0.014750724 -0.016023481 -0.007824025 -0.020135231 0.015598766 -0.017087737 -0.019165127 0.006821079 0.014524644 0.0039628847 -0.016193096 -0.01100341 -0.008612785 0.026228819 -0.017709784 0.007875012 0.017097142 -0.007824456 -0.021607757 -0.016375575 -0.01169996 0.011284078 0.010709989 0.015611592 -0.028039334 0.027204784 -0.017443253 0.013430825 0.007168517 -0.018211497 0.011461519 0.007169813 -0.007362022 0.022144763 0.0025648964 0.008454982 0.030448357 0.013834733 0.017229581 0.005425668 0.011250198 0.009179262 -0.022975972 0.017805807 -0.015339272 0.010403675 0.003609444 -0.007682789 0.030292155 -0.01648785 0.02415626 -0.01698051 0.014435771 -0.009441407 -0.017859034 0.015721729 0.008596243 0.015918363 -0.009953616 0.017992018 -0.01874359 0.019434432 0.021573782 -0.011683334 -0.0057232757 0.013543082 -0.017499145 0.016032971 -0.026723057 -0.020056935 0.00896211 0.02566335 0.00073831587 -0.012911251 0.020541685 -0.0008550708 0.020540824 0.0040203827 0.0035179101
5 0.004482631 -0.017796937 0.01461852 0.017295372 0.00218638 -0.02563846 0.017386168 -0.017489336 -0.015591252 -0.021564404 -0.021087691 0.011229974 0.015332723 0.023984274 -0.029224573 0.028024897 -0.017664788 -0.018795826 -0.019169405 -0.013499232 0.012025662 -0.008792529 -0.022715475 -0.016394636 -0.0024465504 -0.00033555998 -0.015350819 0.020752566 0.0007695218 -0.0064293006 0.019913407 0.021797601 -0.017022261 0.012597264 -0.026565444 -0.017150786 0.005541426 0.009637448 -0.0110650845 -0.010885199 0.019947808 0.022038747 0.016568929 0.018294534 0.014129326 0.006830146 -0.013605928 -0.018891243 0.0006669045 0.0007452087 -0.023040868 -0.02380318 -0.012850188 0.020900492 -0.024714183 -0.018809833 0.0016107338 0.0026787892 0.017324321 -0.014412322 0.0049443324 0.0114092 -0.0034337903 -0.0066677793 0.018764257 0.009717414 0.003994817 -0.015026825 -0.014126195 -0.02686658 -0.0005638936 -0.005879433 0.014658875 -0.014266712 0.027692586 -0.0038143941 0.0166142 0.0143738855 -0.019297926 0.00491756 0.012399357 -0.0053661554 0.016700052 0.012757352 -0.0047372635 0.020310052 0.019555463 0.025812536 0.00026692403 0.020818783 0.0007654879 -0.0067175897 0.0011386292 -0.017282946 0.014271368 -0.0045994236 -0.0017338238 0.021399803 -0.001332839 0.015827537 -0.017484507 -0.0035309459 -0.00494745 -0.012582983 0.01742783 0.010417765 0.011510571 -0.01943394 0.020628218 -0.0018314593 0.007252757 0.02828633 -0.0046443017 -0.009556416 0.024774488 0.0011836258 0.02068485 -0.026051804 -0.016366344 0.01689842 0.014528382 0.0067378646 -0.014427185 0.014139821 -0.0025863429 0.024233984 0.0028019717 0.011120461
6 0.025733367 -0.015150572 0.01753766 0.013457485 -0.0041561895 -0.0160671 0.022053657 -0.013410537 -0.022672964 -0.01763679 -0.016564881 0.013254829 0.012546612 0.018126195 -0.022110758 0.020138182 -0.013927254 -0.024485115 -0.02312939 -0.016652431 0.0226008 -0.02018564 -0.01824112 -0.01333411 -0.0007983139 -0.020850493 -0.015004266 0.010377261 -0.0071003344 -0.017244305 0.027286414 0.013463978 -0.028815899 0.016789515 -0.02187356 -0.009849037 0.01450015 0.010130073 0.0017787965 -0.023107953 0.012286527 0.01211157 0.022573581 0.012308588 0.007904568 -0.004596293 -0.027715582 -0.014057792 -0.002109543 -0.0054507554 -0.014969955 -0.015894424 -0.015093459 0.020915534 -0.022274079 -0.016300969 -0.0013264093 0.00985228 0.0137560675 -0.025648884 -0.019607795 0.011720506 0.0061555374 -0.0074039865 0.018762546 0.024722075 -0.0042338097 -0.011328594 -0.014175471 -0.029187813 0.0030435985 -0.013123205 0.009369334 -0.013814271 0.014910089 -0.020247946 0.011939465 0.0058801416 -0.0190868 0.008934394 0.024792735 0.0041517364 0.014475462 0.016253613 -0.001391386 0.009377567 0.023796622 0.01841941 0.000106637155 0.0071787024 0.015398572 -0.004565974 0.009831392 -0.026526785 0.011720112 0.002643361 -0.015110075 0.029333504 -0.019671977 0.028273687 -0.0033188565 -0.0010416824 -0.014421114 -0.021768197 0.0272266 0.00608342 0.019436173 -0.019954024 0.019496044 -0.028789684 0.02125944 0.019758582 -0.009178013 -0.013500105 0.017338539 -0.016025329 0.01892244 -0.01921099 -0.021727484 0.016326519 0.020060863 0.0013142623 -0.018058557 0.017789377 -0.013908693 0.014904875 0.01995679 -0.0001132671
7 0.012153208 -0.020283522 0.011067382 0.025008831 -0.006970655 -0.023401482 0.014722509 -0.0065460326 -0.014906434 -0.023288166 -0.019790107 -0.0031709427 0.024986798 0.020169934 -0.021800213 0.017453091 -0.012709534 -0.014441239 -0.017004365 -0.02160978 0.01676887 -0.018752817 -0.02040085 -0.005092489 0.004959239 -0.005504229 -0.015967792 0.014797399 -0.008665257 -0.011216177 0.022920715 0.020681126 -0.025929356 0.01715865 -0.023547687 -0.010591574 0.015402869 0.004366502 -0.0027260415 -0.014580242 0.013419408 0.014541131 0.024802396 0.00928526 0.018452782 -0.011125001 -0.02284268 -0.02304079 0.00026078423 0.006340869 -0.015793031 -0.028518325 -0.01792271 0.024675429 -0.020059682 -0.017006079 0.0039402987 0.017343406 0.013851575 -0.0024189565 -0.011066751 -0.0063377144 0.0066287857 -0.0015788324 0.026901413 0.018123304 0.00532068 -0.005042468 -0.0108794095 -0.018715603 0.0063308864 -0.006813855 0.014700899 -0.023493167 0.017514259 -0.009208263 0.01727864 0.010316898 -0.016440919 0.0073939553 0.0064327214 -0.0088126 0.012653609 0.01646998 -0.005067744 0.02330414 0.0182226 0.013810675 0.00011627459 0.021114148 0.018646766 -0.0011512437 0.011214711 -0.028895091 0.02550439 0.00083216454 0.004908126 0.013659579 -0.016881471 0.014119446 -0.014876577 0.016142622 -0.009079435 -0.016265566 0.02239969 0.0032238606 0.018828519 -0.020359384 0.009358833 -0.00689178 0.012271614 0.030188594 -0.010041688 -0.010277422 0.02239666 -0.014639512 0.015536577 -0.010631042 -0.018883757 0.011972598 0.010032762 -0.004598875 -0.017538665 0.021849336 -0.014289723 0.010660568 0.0118316235 0.0031559176
8 0.018520264 -0.009233383 0.022010643 0.010538997 0.019601418 -0.015554262 0.021532767 -0.013449216 -0.018154535 -0.026645664 -0.026902452 0.017606158 0.020985726 0.009352853 -0.017251557 0.021880845 -0.011843702 -0.019748 -0.018013908 -0.025569683 0.02021412 -0.021943578 -0.021736374 -0.024302563 -0.006669487 -0.027169771 -0.028457256 0.010752672 0.0044824923 -0.020318551 0.018661838 0.022914961 -0.020772023 0.0066943 -0.029976927 -0.014336933 0.006673687 0.020275949 -0.0052600936 -0.012499457 0.01609671 0.02734466 0.024048902 0.021085467 0.001658775 0.0035881824 -0.025819397 -0.0054744505 -0.018867614 0.00855358 -0.02058272 -0.010567252 -0.020601766 0.016125014 -0.02149598 -0.011001316 0.012647759 0.013574529 0.016247058 -0.0145115545 -0.011681649 0.0042698616 -0.0066484883 0.02056081 0.0150985345 0.021270258 -0.0052226987 0.0017220884 -0.016240008 -0.024522107 0.00076912093 -0.014986893 0.018391991 -0.02332206 0.003509193 -0.014431509 0.009590563 0.02191427 -0.015176616 0.00888125 0.019298965 0.0031035612 0.017664481 0.01245481 0.0039310716 0.015433812 0.0163229 0.028635733 -0.0013063601 0.0042952364 0.017842779 0.018161057 0.009730006 -0.010036136 0.021956883 -0.0052859373 0.011766216 0.017991142 -0.018462833 0.027389463 -0.027553642 0.014961525 -0.009271086 -0.02802575 0.021278132 0.013265604 0.018549034 -0.011028525 0.026416846 -0.020872105 0.027132176 0.021817908 -0.020622779 -0.018750329 0.024891337 -0.016703483 0.013870028 -0.018789662 -0.020152688 0.014956434 0.014740297 0.014441955 -0.013051005 0.0180296 -0.01265287 0.022241265 0.010109283 0.0036632756
9 0.024383742 -0.019170597 0.017943928 0.02459044 -0.01217724 -0.010470393 0.013643511 -0.007977932 -0.010540149 -0.019031692 -0.026512679 -0.004087359 0.019013071 0.02404805 -0.015158039 0.025010219 -0.0033669933 -0.011958668 -0.01596423 -0.019101288 0.0069215302 -0.025039338 -0.0133193005 -0.021808652 -0.008514006 -0.007938104 -0.014484778 0.012161214 -0.008507908 -0.02274503 0.020441532 0.014415027 -0.004815968 0.01192598 -0.016586838 -0.010017752 0.009654486 0.01754195 -0.012966057 -0.0062429872 0.0070364214 0.016252438 0.022534907 0.020581933 0.022217892 0.0022894596 -0.019219615 -0.01040805 -0.020893749 0.0031744414 -0.024264516 -0.014404291 -0.020974185 0.0065967278 -0.005948157 -0.01438942 0.011843581 0.0069121276 0.021581426 -0.0008868456 -0.018691432 -0.0008949414 0.004111762 -0.003653544 0.020685565 0.007854218 0.0147603005 0.0011904035 -0.026083186 -0.020160189 -0.0059957323 -0.0026392424 0.009865039 -0.014054721 0.015338233 -0.012083026 0.0077716773 0.009187916 0.001638617 0.014841061 0.022128545 0.0022686857 -0.00293344 0.001578894 -0.0036016363 0.026061691 0.022275593 0.01389929 -0.013221219 0.018794745 -0.0010407784 -0.009293934 0.00021148496 -0.0239337 0.026004098 0.0054333634 -0.0036661995 0.024811648 -0.0098857945 0.021802701 -0.014131195 -0.0009063294 -0.017200444 -0.014034651 0.027017301 0.0040940694 0.022826852 -0.008173427 0.007048889 -0.010446062 0.011053428 0.01720991 -0.0024811835 -0.016598672 0.012396706 -0.013320875 0.024878375 -0.015602298 -0.004275052 0.02409649 0.0037011374 -0.013333546 -0.021490231 0.021834282 -0.0029291315 0.0058356477 0.015833898 -0.004584586
10 0.0020077955 -0.011881072 0.020555593 0.008948126 0.019069552 -0.017461283 0.008592872 0.0034780041 -0.00888107 -0.0072283703 -0.026582593 0.016031334 0.009318504 0.017224325 -0.015740763 0.002515795 -0.021405146 -0.0218111 -0.010216809 -0.021238422 0.008604219 -0.0074778413 -0.013063342 -0.015159906 0.0018120424 -0.011996218 -0.02368041 0.007918632 -0.006955601 -0.007936964 0.015419549 0.015688447 -0.011021636 0.010874196 -0.01365882 -0.015770333 0.0038389422 0.007033751 -0.0052402155 -0.009813479 0.0155568365 0.012658213 0.025143111 0.006020244 0.016877558 0.005183551 -0.016406626 -0.014303409 -0.011020723 -0.003105789 -0.0053551765 -0.027366856 -0.009303505 0.01740357 -0.013305583 -0.011430318 -0.011952712 0.013739524 0.0062108636 -0.006421564 -0.014218692 -0.0017503065 0.010201389 -0.0033335555 0.020389086 0.015320494 -0.008749655 0.004722183 -0.010314808 -0.020656215 0.003387284 0.0015113499 0.017281746 -0.01683426 0.014330909 -0.017528307 0.010203864 0.007452196 -0.020938296 0.008500916 0.010205972 -0.0032090927 0.024301179 0.0059658587 -0.00068404485 0.012369203 0.011311956 0.0072750216 0.0062010963 0.008962501 0.022612864 0.001474729 0.01942712 -0.02183935 0.022634206 -0.009323672 0.0024516527 0.029487127 -0.009668406 0.0121492855 -0.020574141 0.017090382 0.00019702484 -0.01711262 0.021003721 0.014999162 0.02310439 -0.0073585864 0.027608214 -0.0028571193 0.017545626 0.012591739 -0.012581673 -0.014119427 0.024288915 -0.0173954 0.015524848 -0.005406718 -0.013779916 0.011507255 0.021907879 0.005858702 -0.017006507 0.013044796 -0.012500965 0.025047561 -0.008713623 0.013554093
11 0.016588809 -0.019000227 0.018867563 0.0024589996 0.020928413 -0.029875359 0.02944873 0.007185962 -0.019240407 -0.023213437 -0.030180106 0.018842151 0.019872097 0.028395249 -0.015857866 0.03172782 -0.028314153 -0.015532837 -0.02502905 -0.025623845 0.023932261 -0.01697781 -0.025247445 -0.020169264 0.02049009 -0.024528759 -0.02510198 0.028670037 0.008661011 -0.023740318 0.030438269 0.020123674 -0.011289122 0.0032553496 -0.010941092 -0.02676882 0.0090760775 0.020439688 -0.005596873 -0.018689333 0.018416844 0.03019256 0.019774962 0.022796279 0.01346708 0.022897685 -0.032988217 -0.014980456 -0.021644637 0.00014980347 -0.027283695 -0.027878417 -0.024279924 0.031241823 -0.021244502 -0.019339025 -0.00598972 0.022455992 0.026255941 -0.014516835 -0.030816814 -0.0041699857 -0.015894253 0.012859933 0.02015877 0.025528787 -0.01526708 -0.0024670654 -0.007825537 -0.030079767 0.025888477 -0.010310048 0.010305504 -0.02162929 0.015993334 0.0007525185 0.03012085 0.022531005 -0.018465757 0.015894877 0.017741602 0.016876 0.026422938 0.022416646 -0.0055503957 0.009574063 0.02661573 0.024286108 0.027281724 0.015542298 0.02959323 0.014412204 0.031096283 -0.011430934 0.020992061 -0.025927277 0.024508564 0.01803043 -0.021495687 0.023180997 -0.014345942 0.01638194 -0.021141084 -0.024300138 0.03162809 0.022287846 0.026188256 -0.028067239 0.023534983 -0.019798987 0.02821187 0.03129386 -0.011415149 -0.01533984 0.025361259 -0.014242661 0.017742936 -0.030809402 -0.017322823 0.017155979 0.02654864 0.015509534 -0.008979575 0.023185829 -0.022789547 0.024753815 0.021146314 0.0069926516
12 0.016716069 -0.021640921 0.016984312 0.02437988 0.006069335 -0.0142148025 0.026777936 -0.016699798 -0.016047593 -0.020882333 -0.021843547 0.011251471 0.012414583 0.02362237 -0.023852438 0.021464884 -0.02093177 -0.013390123 -0.0077377204 -0.018103143 0.020629406 -0.017466513 -0.017531924 -0.029250521 0.009752455 -0.013386305 -0.022143478 0.017084686 -0.018469391 -0.01887009 0.012552685 0.017708112 -0.008154762 0.00864944 -0.016173525 -0.020167794 0.020467093 0.012307967 0.0033386878 -0.0155145135 0.008316075 0.011887776 0.014145278 0.01344955 0.016387112 0.004744934 -0.011320753 -0.00709918 -0.017856684 -0.014623881 -0.019631999 -0.026914915 -0.024484506 0.01768019 -0.014867654 -0.02590314 -0.0057115103 0.016710773 0.011300068 -0.018531507 -0.017642802 -0.00058368524 0.0041355146 -0.010932089 0.014182051 0.01972843 -0.0034054974 -0.0072221803 -0.0015445172 -0.020203212 0.010919174 -0.0027352415 0.0115352115 -0.012738669 0.024051908 -0.017031142 0.013327824 0.0005605692 -0.017234392 0.021112798 0.024400136 -0.013293018 0.02871013 0.0112579465 -0.0063551497 0.011606885 0.013001163 0.025320671 0.014587605 0.018109737 0.018292204 -0.015181253 0.024125146 -0.025973087 0.02248124 -0.016080229 0.0006067436 0.011725234 -0.015224721 0.017966248 -0.0077922824 0.009971365 -0.014906277 -0.018567676 0.02368963 0.013486908 0.01108287 -0.017373815 0.01221252 -0.016911104 0.015339684 0.019734884 -0.015919628 -0.0024222648 0.027446428 -0.0051803626 0.008879807 -0.019237498 -0.01625062 0.020262433 0.020212492 -0.00022631625 -0.0054510795 0.027411865 -0.0059708944 0.019793151 0.012295023 0.01223782
13 0.027264528 -0.016320875 0.011808893 0.018466538 0.007978711 -0.020706836 0.01812697 -0.012829193 -0.025192503 -0.015245607 -0.022995817 0.0076754526 0.011758634 0.014777177 -0.014442363 0.011957324 -0.022176884 -0.022625502 -0.020905163 -0.0046353713 0.017783456 -0.022691568 -0.022926042 -0.007816287 0.003894718 -0.0115178395 -0.018513445 0.015863536 0.00673268 -0.023041537 0.021483084 0.024002558 -0.016799359 0.021138908 -0.02334615 -0.016782574 0.013446841 0.02149826 -0.010646518 -0.021543493 0.016380804 0.019040816 0.028183842 0.01809711 0.015227525 0.00725632 -0.022295743 -0.010531728 -0.0015971023 -0.0022145982 -0.02112829 -0.02215876 -0.015742013 0.022727067 -0.014329249 -0.018219082 0.009394943 0.007288891 0.023789793 -0.023377847 -0.014085974 0.009063877 0.007879372 -0.00031726112 0.02299629 0.021779245 -0.0024769239 -0.005869748 -0.01153538 -0.02360609 -0.0076694596 -0.0053335843 0.012788164 -0.008308791 0.013595275 -0.006207698 0.02179472 0.015484719 -0.009711785 0.0057014124 0.013161983 -0.0007381355 0.015526689 0.010207747 0.0053713843 0.011136878 0.0135273365 0.024169507 0.002684011 0.00586037 0.02111409 -0.00095083565 0.0033611383 -0.019821338 0.015794193 -0.000106183055 -0.0063850223 0.007627993 -0.008236236 0.01094322 -0.022623055 -0.0018244161 -0.00026088225 -0.0134865455 0.018197102 0.012294052 0.025209563 -0.010974921 0.0071367105 -0.015459615 0.007425916 0.01355748 -0.0063558747 -0.006990164 0.009096197 -0.0072293715 0.017772574 -0.024014521 -0.018831315 0.013923338 0.011916007 -0.002263993 -0.02105943 0.01674162 0.0033311576 0.01660823 0.011999063 0.007880933
14 0.018335504 -0.026694605 0.026395557 0.009845286 0.021668863 -0.01954814 0.027535275 -0.0083966125 -0.015991308 -0.029346047 -0.00781136 0.01961915 0.027014093 0.018066105 -0.0115757175 0.025107054 -0.021314502 -0.021229118 -0.015635097 -0.024113886 0.020383045 -0.026658611 -0.02732664 -0.027648723 0.008658828 -0.019310735 -0.022423936 0.02231848 0.015760094 -0.016472667 0.02698241 0.018239701 -0.016271222 0.0074979393 -0.02492838 -0.028257955 0.0066220225 0.012311813 0.012801531 -0.021767125 0.020823743 0.020495264 0.020263195 0.021726815 0.016066601 0.01023115 -0.016445855 -0.020866962 -0.01744859 -0.009235763 -0.023946239 -0.019951185 -0.020660285 0.019338932 -0.02092552 -0.018871933 -0.005553687 0.028234296 0.017029192 -0.0067889215 -0.016907526 -0.0001285614 -0.0046727094 0.0029326163 0.017974328 0.015371605 -0.017857354 0.007424857 -0.023832206 -0.031416893 0.012745581 -0.018071953 0.021125589 -0.028248437 0.023478128 -0.00065860304 0.011868259 0.011780523 -0.00813206 0.027168894 0.018474102 0.015633577 0.01847522 0.0072395625 0.0019360601 0.016121926 0.016831309 0.026939634 0.025607916 0.019456826 0.028360937 0.013670981 0.013566158 -0.018035963 0.01728791 -0.026395125 0.011255288 0.014910311 -0.022105753 0.01696013 -0.012064341 0.02012375 -0.017281929 -0.024706662 0.017674558 0.020693898 0.022156455 -0.025489341 0.016023707 -0.023960683 0.021635043 0.018784527 -0.02674938 -0.018209672 0.030233797 -0.011051326 0.01562497 -0.018777758 -0.021255694 0.011367306 0.03246747 0.024418524 -0.010640833 0.016556524 -0.03070669 0.023272669 0.0140359625 0.004487646
15 0.006031336 -0.018065963 0.0066846223 0.0063183596 0.016779799 -0.0133374985 0.010790084 -0.003784764 -0.0070384424 -0.018954221 -0.019275518 0.02182327 0.014158614 0.016394647 -0.019749902 0.013458592 -0.026930194 -0.017056996 -0.015006559 -0.014275625 0.012408999 0.0025884823 -0.013653837 -0.021503331 0.006939066 -0.019908648 -0.017745312 0.008435807 -0.004632676 -0.00813373 0.02675321 0.019492786 -0.019600485 0.01508328 -0.025602402 -0.019074135 0.015263794 0.019373553 0.010409303 -0.012797304 0.010196039 0.019163473 0.022136858 0.022110363 0.00923323 0.0013273582 -0.01719113 -0.01669771 -0.014516132 -0.023167873 -0.006288249 -0.025841128 -0.011488889 0.016290786 -0.015450783 -0.023228563 -0.009090023 0.024308516 0.013183741 -0.022885146 -0.008507439 -0.01871038 -0.0046367366 0.010942688 0.012210845 0.023381796 -0.015164255 0.0051896293 -0.016508458 -0.017627995 0.003366057 -0.0078059155 0.020905891 -0.012686457 0.016549733 -0.024040092 0.003599249 0.0168724 -0.00095649983 0.020460753 0.0119053 0.0013643645 0.018428463 0.000812068 0.003331494 0.0035031433 0.01991323 0.008968927 0.0124943415 0.004535777 0.018608449 0.00044478654 0.019462721 -0.0149762 0.00011542963 -0.018006071 0.005585848 0.015856374 -0.022633022 0.021992072 -0.014184295 0.021268837 -0.017607694 -0.015547161 0.027826497 0.013419174 0.020131761 -0.009727836 0.018209197 -0.024024643 0.022040416 0.021448953 -0.023001447 -0.019997837 0.02115271 -0.02173686 0.008917368 -0.020131119 -0.020438062 -0.00093295577 0.024412712 0.0075357454 -0.00312421 0.012086063 -0.013899379 0.014526883 0.014922101 0.020855838
16 0.027368648 -0.031642202 0.021015204 0.028786086 0.009580428 -0.023405168 0.029735245 -0.017870333 -0.013797873 -0.022423321 -0.02135924 0.020899124 0.020252973 0.020785663 -0.017708648 0.026711198 -0.027029673 -0.028392542 -0.022289079 -0.025065137 0.019811826 -0.025076192 -0.021080222 -0.02941607 0.012335978 -0.02429671 -0.015924979 0.022761552 -0.019164545 -0.023841886 0.017212087 0.018252118 -0.028621208 0.017858261 -0.021057565 -0.01870961 0.027523847 0.025931917 -0.0028952975 -0.0139841465 0.003096077 0.030450605 0.021752797 0.017154474 0.018053675 0.0007388125 -0.026595468 -0.02409561 -0.025761258 -0.014727268 -0.019235194 -0.029268527 -0.02224215 0.02807995 -0.018888071 -0.03211399 0.0071686953 0.03009941 0.019716458 -0.022628754 -0.01969162 -0.009674775 0.02072884 -0.012750464 0.020890662 0.020141385 -0.015176749 -0.011091402 -0.027488492 -0.025520366 0.020160178 -0.006141481 0.018943187 -0.023706146 0.021099068 -0.02465025 0.02083748 0.0077740042 -0.018207144 0.021817425 0.02386982 0.0038382602 0.01848647 0.005231738 0.0030766148 0.028753927 0.014826715 0.019159323 0.01535755 0.020531578 0.014177691 -0.010822578 0.018153224 -0.028339481 0.024141647 -0.013852692 0.0019457247 0.027445542 -0.02140054 0.028626615 -0.017865568 0.022383817 -0.019489508 -0.02481904 0.03021554 0.0028836955 0.023604821 -0.009120287 0.01911572 -0.026984047 0.013443011 0.024902754 -0.019935189 -0.015943214 0.017684426 -0.02397213 0.017161429 -0.015111647 -0.020045787 0.022025019 0.027868573 0.01910077 -0.030245973 0.021447822 -0.015917782 0.026728425 0.008245138 0.024742715
17 0.026799085 -0.01725581 0.0076515283 0.014565092 0.015318871 -0.005384696 0.019538812 0.0013099049 -0.026438862 -0.019394279 -0.024185069 0.008843021 0.025192466 0.01900302 -0.016858073 0.02495088 -0.012302527 -0.02045305 -0.027938353 -0.016767925 0.022842105 -0.017802836 -0.015846156 -0.02095761 0.026916271 -0.028561551 -0.022088645 0.008347541 0.0121111665 -0.025055561 0.0284845 0.022153154 -0.012990658 0.018751303 -0.022473995 -0.026291598 0.006060792 0.012698018 -0.009448136 -0.028343441 0.0069041797 0.028251786 0.025765197 0.018563442 0.009810075 0.017013079 -0.023239834 -0.010787935 -0.021105617 -0.022191104 -0.018615082 -0.015573113 -0.014871531 0.019977175 -0.011389671 -0.011992535 0.0008483309 0.018255038 0.024298722 -0.024163067 -0.025746794 0.0043430286 -0.0013318636 0.014580532 0.021721225 0.016598243 -0.023139242 0.012313804 -0.012645887 -0.02719033 0.009343006 0.007688851 0.018630257 -0.019808434 0.015022177 0.002573681 0.017316913 0.02344108 0.0019555488 0.022809621 0.02756868 0.022927057 0.017069094 0.009544733 0.012343281 0.010031092 0.010926913 0.016006993 0.027336331 0.009489692 0.026241878 0.017464153 0.015191409 -0.026557602 0.014466366 -0.027255435 0.0066310884 0.023933778 -0.015827263 0.0032904628 -0.024987314 0.018023282 -0.026884302 -0.02231289 0.025713006 0.018275805 0.0151495235 -0.0077150697 0.004212222 -0.022007994 0.019844797 0.01251212 -0.024222074 -0.013290734 0.012899991 -0.027065746 0.016358059 -0.022215374 -0.018742422 0.022825763 0.023182938 0.025473626 -0.018539526 0.024173832 -0.026733669 0.026556531 0.015087003 0.008645735
18 0.013321727 -0.0054497095 0.028000014 -0.0022474607 0.014552628 -0.014563143 0.013948444 -0.011477808 -0.012413585 -0.01896189 -0.018968783 0.029589595 0.00094536 0.0112653775 -0.014617982 0.005163451 -0.018559033 0.0047169393 -0.009227765 -0.009662167 -0.0022399297 -0.027707163 -0.0004338097 -0.014480955 0.014361014 -0.0021449302 0.0027841437 0.011450249 -0.018475372 -0.0053749364 0.023473648 0.013971453 -0.009459782 0.015826102 -0.00053265993 -0.000669721 0.01602725 0.00875399 0.023286909 -0.007161828 0.0028911505 0.020773357 0.011972363 0.0067752576 0.004686356 -0.009159955 -0.0061508073 -0.026227439 -0.0152450735 -0.017604025 -0.0056718867 0.00024572382 0.0041006813 0.008479244 -0.022561023 -0.0031495045 -0.018179607 0.0046207774 0.0052580303 -0.01741068 -0.014142759 -0.025176488 0.023968605 -0.017878227 0.022158964 0.006940801 -0.019953812 -0.021596992 -0.0049835797 0.0008427834 0.018476307 -0.00083291513 0.00933832 -0.0062198658 0.0048735193 -0.01445817 0.013109961 -0.0071865125 -0.016435182 0.012662356 0.0036654782 -0.009409547 0.028836498 -0.017222054 -0.0034725762 0.0073144394 0.020586077 0.0093325 0.026438722 0.011270468 0.007229302 -0.019575682 0.00047368143 -0.02558344 -0.004720902 -0.023470677 -0.001252519 0.025607146 0.00063675316 0.018580282 0.0028191884 0.021639697 -0.012189053 0.0048858533 0.0029887338 -0.009654608 0.0217808 -0.010916316 0.02038411 9.7348704e-05 0.015661815 0.01945896 -0.0034785792 -0.0055604316 0.006916968 -0.0005902944 0.016257055 -0.011240177 0.0061303466 0.012418374 0.020526875 0.017280601 -0.0001422764 0.0146488035 -0.005243356 0.026277604 -0.0014842281 0.025527555
19 0.016373646 -0.00014206092 0.012912104 -0.0019138479 0.0047434624 -0.013144514 0.021636315 -0.0062582465 0.0108367605 -0.0050854003 -0.006261509 0.0148266535 -0.0044628046 0.003118243 -0.0055522593 -0.007329476 -0.005043129 -0.0008266529 -0.011657587 0.002933505 -0.003404831 -0.002628806 0.010609988 -0.0124808205 0.017575715 -0.0011589128 0.008303756 0.011354363 -0.014846008 0.012663706 0.00051516853 -0.004206269 -0.015573632 0.010674312 0.0002514618 0.005816411 0.014883872 -0.004172038 0.010120318 -0.009192812 -0.005311748 0.0027989382 0.011362591 -0.0078007216 0.004010016 -0.0030110327 -0.014661516 -0.027692232 -0.0034759077 -0.011748842 -0.011711937 -0.0023052352 -0.004850787 -0.0012842997 -0.0117334705 -0.00931936 -0.00740109 0.012812157 0.0019712858 -0.012012543 -0.01408066 -0.018090088 0.024191083 -0.019290201 0.0050952574 0.00040697132 -0.027315669 -0.023017144 -0.007176934 -0.0048963176 0.018954769 0.011064624 0.0013163618 -0.011578744 0.009371076 -0.021378867 0.010370099 -0.005157946 -0.026263913 0.02298158 -0.008983696 -0.021842448 0.009256955 -0.010646513 -0.007142165 -0.0019291447 0.012133426 0.0021157665 0.009558606 0.012480752 0.011889565 -0.014949888 0.015595067 -0.016236905 -0.013309068 -0.02112893 0.017171085 0.0125498725 -0.00682861 0.012460028 0.0034659943 0.019258771 -0.013861178 0.011987429 -0.00018593326 -0.013681777 -0.00033842673 0.0030161152 0.021668825 -0.0047726613 0.0013455077 0.011064445 -0.0045371116 0.003088919 0.0052743093 0.0015730597 0.0032605056 0.0025891433 0.0066419872 0.006343006 0.01677876 0.008848289 0.0035854492 0.005598552 -0.0062716557 0.025742175 -0.0034330138 0.018094478
20 0.022625906 -0.013274507 0.010414628 -0.0024135518 0.021279411 -0.022837125 0.025590403 -0.006352521 -0.005332421 -0.020811595 -0.025032723 0.03093989 0.019869465 0.018614106 -0.026704153 0.007999769 -0.021455463 -0.019221192 -0.022187728 -0.024519086 0.017766995 -0.005801905 -0.018625122 -0.026046976 0.022201445 -0.029849587 -0.025273945 0.0046975403 0.004918285 -0.013876426 0.00761699 0.01835035 -0.0237315 0.004715857 -0.029806366 -0.0032456461 0.016193472 0.01581487 0.014869417 -0.030880045 -0.004374324 0.029644305 0.022891846 0.020553224 -0.0027736486 0.02257505 -0.016092133 -0.013319636 -0.010997256 -0.012612162 -0.029089674 -0.01656003 -0.021821283 0.022263896 -0.007930696 -0.027956024 -0.013856662 0.027191631 0.015290803 -0.011831281 -0.025197677 -0.004423332 -0.012900623 -0.000929843 0.008938156 0.018019298 -0.029007312 0.016186617 -0.020701783 -0.01699521 0.02577405 -0.0025997434 0.0072061843 -0.020078182 0.02588537 0.00390811 0.017972963 0.024137853 -0.014607655 0.030008147 0.0042907908 0.008291822 0.021692852 0.018833213 -0.0011596769 0.0078194905 0.0024469676 0.019845959 0.025962675 0.006538647 0.024562806 0.0098045375 0.02089185 -0.022824721 0.0103366515 -0.021483766 0.023631267 0.019487008 -0.027067227 0.014332907 -0.022428898 0.021537276 -0.020773483 -0.020177133 0.023971885 0.012483138 0.009382986 0.0060889213 0.031068116 -0.012363592 0.028898934 0.02503752 -0.01621894 -0.011625338 0.021385973 -0.02951906 0.0047461474 -0.023250232 -0.022979327 0.010390481 0.020605283 0.031801358 -0.011256334 0.02170286 -0.027012074 0.030383466 0.006265403 0.0009782796
21 0.016627999 -0.027122295 0.012843803 -0.0032975022 0.022434453 -0.015512534 0.021238882 -0.018801568 -0.01174352 -0.014234592 -0.012065258 0.02496108 0.011314297 0.026436144 -0.015045288 0.00529557 -0.01610582 -0.022146735 -0.022535244 -0.022931773 0.017314443 -0.0069143455 0.0027648578 -0.023386635 0.02373641 -0.01709235 -0.009010448 0.013203791 -0.004114262 0.002903807 0.0131210955 0.0037236058 -0.016823044 0.017350486 -0.016581384 -0.0035765702 0.007979779 0.0034200922 0.0033191126 -0.025518436 0.0051712547 0.018897034 0.016973779 0.0117724305 0.015506457 0.017535176 -0.0204665 -0.024028443 -0.02868197 -0.02158991 -0.027356753 -0.015057303 -0.019686792 0.013207489 -0.01315347 -0.023829876 -0.00971561 0.013899989 0.003637307 -0.007467465 -0.019485366 -0.011002268 -0.0017132977 0.0075083748 0.014914117 0.008915889 -0.011474167 -0.00050588534 -0.016032096 -0.0116779115 0.014408186 0.0075761797 0.024760762 -0.022567924 0.013592326 -0.015681641 0.020848112 0.0059990436 -0.0147783095 0.026282521 0.007110545 0.014011055 0.02602164 0.0004650369 0.02298517 0.0100916745 -0.003371995 0.025469095 0.018695682 0.016434059 0.018514857 -0.006915969 0.011640588 -0.020151261 0.0108461855 -0.016437562 0.006612837 0.028723015 -0.030941023 0.018146511 -0.01789667 0.024638783 -0.013487303 -0.011272434 0.029566087 0.0062808697 0.022812894 0.008134092 0.020483565 -0.020336254 0.02374053 0.011760015 -0.024297342 -0.004031857 0.024418397 -0.027721936 0.021771114 -0.008646732 -0.020214472 0.004497782 0.028621756 0.018780023 -0.013733129 0.017848281 -0.011317234 0.028758554 0.0021874714 0.015583099
22 0.012212314 -0.019291563 0.006078475 0.0069471677 0.0122528 -0.0088493535 0.021157222 -0.01299 -0.001173978 -0.013941567 -0.011909945 0.031439405 0.013172438 0.00932198 -0.005995286 0.0065119523 -0.021240164 -0.011940185 -0.0005680236 -0.0050139558 -0.0009493514 -0.0079332115 -0.0022060736 -0.007893408 0.013592805 -0.008744272 -0.020874454 0.003421641 -0.0075802067 -0.014964615 0.01345858 0.010012895 -0.023362782 0.011035309 -0.009570453 -0.017214607 0.008544941 0.0040213843 0.008179465 -0.007832364 -0.0029736848 0.008616092 0.013460064 -0.00078475056 0.023134228 -0.0022850202 -0.017270707 -0.010329695 -0.01245266 -0.018788215 -0.014066884 -0.009520477 -0.004650251 0.0070652026 -0.017536605 -0.022311077 -0.019823499 0.019234026 -0.00161479 -0.008286914 -0.014046489 -0.021486588 0.010805574 -0.0037331937 0.0136727635 0.0074021188 -0.016781228 -0.014444413 -0.020376345 -0.0065220874 0.013994008 0.0057339454 0.02284559 -0.019058362 0.017541721 -0.02393427 0.012193518 0.011131103 -0.012678505 0.017816484 0.016284544 -0.008593995 0.008236942 -0.005410351 0.018853853 0.009815758 0.0141240265 0.0131083615 0.02284658 0.017158436 0.020399127 -0.0063606477 0.02006916 -0.017076004 0.010652621 -0.018045345 0.014965485 0.016031079 -0.014276437 0.003966773 -0.014748492 0.022462351 -0.025918815 0.0040673707 0.004808763 0.008583551 0.029779786 -0.0005532878 0.01638013 -0.008037277 0.016835375 0.0023490433 -0.02213498 0.0015905177 0.027514147 -0.0246126 0.013106907 -0.012735429 -0.0074698445 0.009615266 0.027613113 0.026041197 -0.020243224 0.0023139175 -0.006706533 0.026603434 -0.0040490474 0.01741815
23 0.016343035 -0.028490344 0.016720453 0.014139757 0.010597796 -0.01744069 0.019808972 -0.004516502 -0.027161902 -0.020790076 -0.01684368 0.02264552 0.021913694 0.01222112 -0.025081879 0.022297526 -0.025113983 -0.016812263 -0.016336096 -0.008177484 0.013165552 -0.016473837 -0.016254012 -0.019433737 0.021043202 -0.011950753 -0.01702384 0.025681704 -0.0012494351 -0.025893828 0.0163115 0.014319474 -0.016901031 0.013461213 -0.022145879 -0.012976581 0.0055484134 0.01942385 0.0071028005 -0.009888646 0.0063711507 0.015831055 0.013486884 0.013957467 0.017272847 0.0036648386 -0.012353469 -0.021435775 -0.018029733 -0.017244898 -0.015710372 -0.021879906 -0.024360003 0.017375806 -0.018250013 -0.026783984 -0.022199243 0.021070343 0.016492898 -0.02007157 -0.02026195 -0.01900164 -0.00015132666 -0.00948571 0.029276343 0.01810026 -0.010958771 0.0029527333 -0.019746698 -0.023360878 0.013814593 0.003256495 0.024903147 -0.00930848 0.0025867708 -0.015269435 0.01893819 0.0049198605 -0.0035433855 0.024707476 0.023555253 0.004335896 0.015095135 0.0005401361 0.009692138 0.024729645 0.016334178 0.011303896 0.012969566 0.013272811 0.012189673 -0.006729546 0.020135293 -0.022390014 0.01812265 -0.021781089 0.0077642538 0.025319904 -0.017171068 0.025270373 -0.01415882 0.016907254 -0.022780059 -0.015891038 0.024871232 0.0066180993 0.017883757 -0.01215545 0.022398423 -0.019057162 0.01900107 0.013370822 -0.024050415 0.0009940632 0.031266496 -0.02518773 0.0144817475 -0.01793601 -0.012020271 0.02517101 0.015937164 0.014623347 -0.020158445 0.02039328 -0.020378781 0.016585872 -0.00022771605 0.02135282
24 0.014181592 -0.017082023 0.0068940767 0.019807883 -0.0034282166 -0.0065434845 0.024828043 -0.019444702 -0.019341324 -0.013665126 -0.012940363 0.012736877 0.02265341 0.01243724 -0.014972522 0.016744887 -0.014803348 -0.002819098 -0.0067512933 -0.0044877003 0.009233334 -0.031243453 -0.01825965 -0.015514372 0.022471525 -0.011255348 -0.0146619305 0.028325291 -0.0059857983 -0.019630902 0.014397561 0.010537621 -0.016594933 0.007977897 -0.010369954 -0.014649309 0.0051549436 -0.0036803382 0.012462257 -0.018825565 0.0088081425 0.021758005 0.009685715 0.015104374 0.0066778315 -0.0012463526 -0.0115160765 -0.017940933 -0.020250794 -0.02077578 -0.013690639 -0.007443846 -0.012796423 0.015942704 -0.022788186 -0.010418223 -0.016460445 0.012179259 0.011187337 0.0018691362 -0.0042670784 -0.01923217 0.003517177 -0.0057084607 0.023913123 0.003928498 -0.017760113 -0.00017756398 -0.020663528 -0.008152152 0.008607611 -0.008703545 0.020760605 -0.026970943 0.02365054 -0.009288887 0.023041004 -0.0047846143 -0.013487399 0.015931752 0.009546084 -0.005908623 0.004183232 0.0034867376 -0.003330829 0.013152185 0.011278265 0.0058632824 0.014770678 0.010796063 0.017847521 -0.0071703796 0.013615483 -0.016226742 0.0011610636 -0.020951236 0.006139827 0.019698432 -0.009819429 0.012091301 0.00027612795 0.0207779 -0.015975833 0.0017415306 0.010568175 0.007122941 0.026146514 -0.014721762 0.02150271 -0.009979584 0.008327111 0.0026736541 -0.02051083 -0.010453364 0.008776067 -0.01736006 0.012565832 -0.0047988202 -0.0043645985 0.0225404 0.015949778 0.010843196 -0.020828564 0.014216514 -0.024370523 0.01798006 0.014385145 0.016613558
25 0.008675653 -0.005958818 0.022962896 0.012624545 0.006158678 -0.01680445 0.0177651 -0.014316757 -0.028301349 -0.024620779 -0.013669575 0.029230725 0.0033230134 0.02022918 -0.0071399654 6.945367e-05 -0.017501082 -0.010007285 -0.002105223 -0.012785687 0.0143307615 -0.008032653 -0.0019435751 -0.020565376 0.016326487 -0.0053633237 -0.00024675258 0.014737139 -0.011248616 -0.020606352 0.0122878635 0.022967925 -0.015591147 0.023380898 -0.006973293 -0.010157242 0.02083996 0.0028462862 -0.002637549 -0.02134347 0.006517973 0.01684804 0.0090260655 0.016424555 0.009735994 -0.009451067 -0.0019984534 -0.0042514405 -0.012370636 -0.015198804 -0.019828264 -0.0074836886 -0.0042594587 0.019908259 -0.013290077 -0.0075301584 -0.009306221 0.014146579 0.017315341 -0.012826331 -0.0037743312 -0.015018101 -0.0010501628 -0.011142589 0.013132996 0.0116259465 -0.016246099 -0.005132776 -0.020912629 -0.0069741565 0.0173224 8.461246e-05 0.0041667987 -0.019079614 0.014827961 -0.017499218 0.009735867 -0.0077763717 -0.019123815 0.009018553 0.011542619 0.0019960008 0.029001068 0.0069215503 0.0010559842 0.013329073 0.010278657 0.02179905 0.0027885542 0.017887192 0.010688327 -0.008398578 0.011331453 -0.01936293 0.013845639 -0.0049696993 -0.0018840097 0.024521105 -0.015497623 0.02265634 -0.008256944 0.01990116 -0.022657137 -0.015686024 0.008518372 -0.00017200393 0.021067359 -0.017844327 0.019953055 -0.0054287356 0.0037039653 0.025524542 -0.022088615 -0.0054447902 0.0122766085 -0.007108664 0.024792468 -0.010596711 -0.0062272954 0.026926003 0.011689485 0.014647593 -0.011893957 0.02337862 -0.012762437 0.020907985 0.012627046 0.007346108
