26 128
0 -0.010227347 -0.010239272 0.007998361 -0.014627305 -0.009249065 0.0067450395 0.0021482827 0.014838982 -0.01896161 -0.01757461 -0.019193253 0.0002887874 0.0017718018 0.016523072 0.008719906 -0.015904548 -0.0068904734 0.005806126 -0.0062704613 -0.01491149 0.00017766253 0.0073100906 -0.0081665525 -0.022936806 0.014137661 0.011719841 -0.005174577 0.0025998014 -0.007620433 0.014990396 0.0060147108 0.0026020568 0.021729352 0.010312256 -0.004487835 -0.0069741677 0.012620216 -0.016305272 0.019388704 -0.011876726 0.006269683 -0.010557669 -0.0135382395 0.016532434 0.00203069 -0.013064687 -0.004328088 -0.009296592 -0.018328287 0.008257039 0.019300273 -0.002844556 0.00929129 -0.013691846 0.020232886 -0.01714808 -0.012241003 -0.016569575 -0.0150944935 0.009446017 0.006490117 0.011244029 -0.010051837 0.0056822384 -0.01369732 -0.015044821 0.01847808 0.0024932174 0.008372268 0.0040593147 -0.0035785574 -0.009440987 -0.016911464 0.018343106 0.00027866376 0.023314923 0.018450977 0.006277278 0.014210407 0.012486875 -0.0032848162 0.008219778 0.011360094 -0.011493967 0.0136619415 -0.0071641086 -0.0058900947 0.0019721666 -8.714615e-05 -0.005346654 -0.007065635 -0.004126184 0.016499287 -0.0076734466 -0.018704552 -0.008475191 -0.017741023 0.0020199027 -0.022656899 -0.016189849 -0.004527144 -0.008059291 0.013610683 0.013802809 0.0128780315 -0.018563788 -0.00053443434 -0.014642438 0.021308456 0.008219164 0.011207862 -0.015065595 -0.013144976 -0.0013827656 -0.007988725 0.020235581 0.018936824 -0.01049727 0.01709102 -0.0115966145 -0.01770823 0.0062887874 0.014960635 -0.015520572 -0.012554247 -0.002324497 0.007775723 -0.01782802
1 -0.021156494 -0.015753064 0.023204973 -0.027297407 -0.0058281315 0.032593936 -0.004616865 0.012220924 -0.022613868 -0.025406985 -0.026725378 0.0082004 0.018087953 0.012461348 -0.010842426 -0.02253371 -0.022325845 0.025538022 -0.029220223 -0.028397212 -0.0019311685 0.022377048 -0.018631134 -0.028143434 0.02400958 0.020356324 -0.015467496 0.00042943185 0.001005115 0.019983593 0.010257024 0.013467943 0.02598039 0.030266803 -0.02521235 -0.019221567 0.022234371 -0.026677594 0.019570917 -0.024688594 0.02650995 -0.027435375 -0.027788347 0.023464223 0.013858644 -0.017148899 0.0062954966 -0.01781712 -0.014469314 0.0064185415 0.01901048 0.0046128067 0.014700848 -0.0009282415 0.02510677 -0.01159986 -0.008979755 -0.026102591 -0.028894683 0.023101958 0.011246812 0.028373951 -0.020654546 0.021995721 -0.020679787 -0.01077136 0.02265932 -0.010565971 0.015737902 0.016700655 0.013383126 -0.020836469 -0.022042967 0.014004388 -0.0071038865 0.016855782 0.027112752 -0.00882074 0.025151603 0.02702917 -0.019511992 0.022113664 0.022076696 -0.024364833 0.030669466 -0.020174757 -0.028692083 0.0058969315 -0.003355652 0.00020388988 -0.016101474 0.0020737462 0.021610582 -0.017973363 -0.016357118 -0.019278614 -0.008525464 0.012994762 -0.03070401 -0.01322849 -0.020975353 -0.008738886 0.020886965 0.017847171 0.019610813 -0.025345413 0.008383637 0.00048798823 0.024656724 0.019656366 0.02005014 -0.00933774 -0.025020394 0.015769297 -0.010755316 0.028656097 0.029306319 -0.02469798 0.018910777 -0.03038622 -0.018802702 0.019104844 0.025162015 -0.027791066 -0.020915098 -0.008842807 0.012227584 -0.013219299
2 -0.015578399 -0.022893103 0.02054027 -0.027540237 -8.5494015e-05 0.01935665 0.008470214 0.00076745043 -0.023831103 -0.017078957 -0.014258688 0.010086216 0.01558328 0.016382053 -0.0064772516 -0.026715118 -0.004642264 0.017240388 -0.021103477 -0.015376003 -0.009864844 0.010413026 -0.010616166 -0.013138455 0.00053591304 0.010842256 0.0037523096 0.016068846 -0.0061336085 0.0017942039 -0.015315334 0.0057970854 0.014172256 0.015583189 -0.0022105873 -0.00659909 0.022683788 -0.015457849 0.015301628 -0.01792625 0.012047678 0.009692021 -0.019402934 0.018026162 0.0064442446 -0.021317042 0.010496475 -0.0054155984 -0.014695352 -0.0009029037 0.020907471 0.010815929 0.0038511402 -0.013462435 0.026336882 0.0043772543 -0.008673502 -0.016139232 0.004807055 0.014822917 0.010645408 0.011240446 -0.013518439 0.01795704 -0.015892588 -0.01856901 0.009427237 -0.006943844 0.0049329125 0.011489586 0.004066174 -0.02138321 -0.020014655 0.021029709 0.003038732 0.022024987 0.023771327 -0.009272063 0.0041296617 0.023330383 -0.0060665547 0.020264456 0.017029783 -0.015302901 0.013381431 -0.018703556 -0.026943386 -0.0036939315 0.0027990795 -0.0049349177 -0.013560315 0.0009347976 0.023202216 -0.021079041 -0.022376109 -7.0683775e-05 -0.022688832 -0.0030705698 -0.02257409 -0.010570362 -0.0019435054 -0.009109201 0.01009244 0.015812958 0.010751078 -0.018618396 -0.002217776 0.00032884386 0.018334016 0.0021866106 0.022800853 -0.015911466 -0.009928672 0.0068846243 -0.018452648 0.01298021 0.013081204 -0.012512612 0.016599592 -0.014787246 -0.019059293 0.022970987 0.018604642 -0.016093068 -0.0144277355 -0.007886962 0.015307664 -0.015169528
3 -0.019437142 -0.012839942 0.009646506 -0.0060254196 -0.0092526665 0.013199651 0.00048480008 0.007027355 -0.006451619 -0.006367572 -0.0042703105 0.013327289 0.0058518443 0.013190566 0.002286462 -0.010719587 -0.010918752 0.012271426 -0.009977793 -0.0077872775 -0.0024221186 0.007024965 0.0005489533 -0.014748295 0.023836559 0.0058013867 -0.009077188 0.0040990445 0.0025137018 0.008030133 -0.005475627 0.011484262 0.004041662 0.014349055 -0.0044686683 -0.022476641 0.0009650266 -0.0042639542 0.020018244 -0.010262518 0.012813919 -0.017299663 -0.015550109 0.008079244 0.0053582205 -0.013073088 0.008433703 -0.0056859953 -0.009655033 -0.0008716651 0.010241794 -0.0067307255 0.010970986 -0.0026027323 0.014337013 -0.0028052253 1.0575401e-05 -0.006492595 -0.0050332737 0.00502478 -0.00065358996 0.019178068 -0.0031494168 0.010842237 -0.016969701 -0.013232961 0.002459684 -0.010617541 0.007795641 0.0016524533 0.0021965026 -0.0063940645 -0.0036049015 0.00838433 -0.0057886923 0.010288816 0.009067176 -0.0043003005 -0.0021116892 0.008489118 2.6048452e-05 0.0045864573 0.0063574347 -0.0036090752 0.01655188 -0.0148317 -0.015832916 -0.0066963024 -0.0047732024 0.007107482 -0.0033054068 0.002923285 0.0077566006 -0.0027620322 -0.018174866 -0.010187649 -0.002025207 0.0075495774 -0.008181896 -0.01199537 -0.0007304838 -0.005948181 0.006287028 0.014340778 0.0018513772 -0.012823282 -0.004244925 0.0022173538 0.013116058 0.002673607 0.009257407 -0.0059166695 -0.0078096977 0.009910321 -0.022005407 0.010437895 0.015745845 -0.015632872 0.0060611875 -0.02313786 -0.015861258 0.00029131776 0.007902975 -0.0077124173 -0.01365282 -0.00430524 0.010097688 -0.014494438
4 -0.016761169 -0.01139789 -0.0011533253 0.001926624 -0.0017653706 0.006803228 0.00851583 -0.0010192221 -0.017865814 -0.014286483 -0.005582572 0.014028952 0.0045874673 0.010889073 0.004551666 -0.018984938 -0.00063930824 0.0040133726 -0.004320333 -0.00991648 -0.01721081 0.008415834 0.004333438 0.00031032306 0.0073870816 0.0032548695 -0.007928356 0.005293163 0.007996172 -0.0007243243 -0.003896298 0.0065088663 0.017890647 -0.010312325 -0.0036084848 -0.0096730925 0.00630326 -0.0026982361 0.0016614331 -0.0012889177 0.014064928 -0.0049295253 -0.0012942754 0.0019584256 0.016702263 -0.009952482 0.015053169 0.0075879917 -0.019391436 0.0020007954 0.009043583 0.009953356 0.0059074187 -0.016279487 0.0107079195 0.012830231 -0.016090184 -0.008738177 0.0032297515 0.008385698 0.012775273 -0.008147951 -0.0072839875 0.009247231 -0.0016319888 -0.0129462 0.014414902 -0.011314807 -0.001032372 -0.0012902385 0.009088801 -0.016520545 -0.010790404 -0.0026399102 0.01069046 0.020723946 0.020624919 -0.007886138 0.0039031475 0.0053053885 -0.020404818 0.001576311 -0.0037841855 -0.00037815757 0.00319415 -0.011072944 -0.01022371 -0.011586584 0.0074367826 -0.009317175 -0.008834654 0.0028752966 0.005822634 -0.003937691 -0.00942741 -0.009998757 0.002085423 -0.008916584 0.005134162 -0.0025236537 -0.020167343 -0.016882148 0.016272044 0.01663933 -0.0021084594 -0.0062354375 -0.0027930597 -0.0049850345 0.0076814303 -0.008813112 0.014442302 0.0022073342 -0.0054221926 0.005923245 -0.022042485 0.0038133208 0.016512755 -0.0005231749 0.00904773 0.0014898074 -0.013587147 0.009396174 0.008811603 -0.004835162 -0.0015875865 0.0017434495 0.011529789 -0.013529922
5 -0.013127428 -0.016115868 0.0065050162 -0.015556771 -0.011533033 0.007439675 -0.0028256318 0.0035355536 -0.019051759 -0.0022615732 -0.006528625 0.008652891 0.012966277 0.013526351 -0.0062869354 -0.020627314 0.0020227344 0.009296728 -0.008207058 -0.0034395456 0.0067404257 0.004989229 -0.0017515934 -0.0071542114 0.006900176 0.012360091 -0.0030125338 -0.0046370383 -9.094592e-05 0.010763543 0.0038632455 0.009746193 0.018826915 0.00039175872 -0.004186391 -0.008186146 0.013833152 -0.0038237632 0.014924975 -0.0039220597 0.013906903 0.0076326625 -0.0010491473 0.0071929637 0.006605283 -0.0134708155 0.008519581 0.004581101 -0.009709325 -0.0034024196 0.01718876 -0.005320478 0.0030408967 0.0048130113 0.0029266998 -0.0028265757 -0.015170528 -0.012520022 0.012948091 -0.00089479605 -0.0074024606 0.0018281152 -0.019062601 0.0153456 -0.01432663 -0.005326579 0.013154439 -0.015405137 0.016255254 0.0041716914 -0.009657709 -0.014698454 -0.015723955 0.0070861117 -0.010787255 0.013990594 0.0059387134 -0.004733894 0.012713682 0.014576662 -0.004100776 0.020862062 0.0219147 -0.016748425 -0.0019924734 -0.020415863 -0.008411465 -0.004415572 -0.002279231 -0.0017288039 -0.0100330785 -0.00092300883 0.019744422 -0.01482035 -0.011833318 -0.011211927 -0.0058859517 -0.00018769244 -0.012673089 -0.004134245 -0.014619516 -0.007593436 0.0040283673 0.014141583 0.005698056 -0.0147601785 0.011092472 0.0047043613 0.0012261961 -0.00030599436 0.0052748807 -0.0084617175 -0.0029197836 0.010157505 0.00023607211 0.009265443 0.010165657 -0.018048499 0.010988913 -0.0062195794 -0.01851569 0.01409414 0.014937371 -0.012390937 -0.009840865 -0.0011308254 0.008856971 -0.014827546
6 -0.020024408 -0.027201872 0.0078529315 -0.009317387 -0.0024756952 0.019022156 0.013111414 0.0056137857 -0.024104295 -0.016525805 -0.017915713 -0.0049952753 0.01650681 0.00781435 -0.013425733 -0.016030442 -3.9095772e-05 0.006287223 -0.02497829 -0.016417438 -0.014471041 0.010725177 -0.008373589 -0.023490615 -0.0017181677 0.011047047 0.0017996748 0.020295499 -0.022069683 -0.008078425 -0.0042580017 0.020977816 0.0020213847 0.0073283277 0.0011932229 0.0058444757 0.016319374 -0.01651954 0.012877268 -0.007915524 0.013822791 0.006695853 -0.016073478 0.0008980648 0.0149933025 -0.01422345 0.011653736 -0.006182965 -0.015955336 -0.0054930006 0.02449804 0.0007201184 0.022313097 -0.016677577 0.009222758 0.005616943 -0.0139467735 -0.023385243 0.0021781495 0.013400145 -0.00767039 0.0057092085 -0.026980253 0.011706007 -0.0061453627 -0.02403438 0.0082058925 -0.011621745 0.01312791 0.013300041 -0.008113035 -0.0218349 -0.018852623 0.003887705 0.014593908 0.016298547 0.016662236 -0.013399464 0.009714392 0.017765824 -0.0076084426 0.021444352 0.0074590826 -0.011070447 0.0060902997 -0.023841863 -0.020681348 -0.0014093817 -0.007808442 0.004977756 -0.013765446 0.0022305264 0.02789483 -0.009019408 -0.02535892 -0.012205603 -0.018193847 -0.009935514 -0.012485057 -0.0069085155 -0.010921158 -0.01981849 0.015007309 0.023344366 0.0048772465 -0.02026971 -0.0052494495 0.018405618 0.0045025432 -0.008339867 0.017211055 -0.021771286 -0.014829556 0.013736497 -0.018146237 0.01453153 0.025825795 -0.025689477 0.021649003 0.0067314617 -0.009869662 0.023270342 0.023770547 -0.004441961 -0.013184365 -0.0011006151 0.01939272 -0.0105505595
7 -0.018927272 -0.02454782 0.008190382 -0.007501525 0.0013040836 0.009474323 0.008029199 0.003207959 -0.021449488 -0.005802513 -0.006176037 0.009207647 0.014960038 0.016315997 -0.00984207 -0.013257807 -0.0018022776 0.014917592 -0.008751715 -0.01790141 0.00074526435 0.0063012964 -0.0030262438 -0.027505778 -0.0007292024 0.011908048 -0.0072296783 0.014178479 -0.0073892325 0.0020438775 0.006360193 0.011952561 -0.00074617827 0.009337221 -0.0042732786 0.002886365 0.018173577 -0.020345733 0.020812413 -0.002612695 0.0156713 0.005371987 -0.01949296 0.005253057 0.016200595 -0.0076050367 0.019327562 -0.0043586656 -0.01132341 -0.007309299 0.021515142 0.0036579275 0.010645335 -0.007059695 0.008191943 0.017741667 -0.023987846 -0.022825805 0.00050792197 -0.002031318 -0.009519884 0.009580633 -0.01922666 0.016577413 -0.005560096 -0.015071701 0.003958505 -0.013715288 0.020758552 0.004111774 -0.01203425 -0.019398686 -0.021435808 0.01556716 -0.001885288 0.011600624 0.024409555 -0.018165769 0.0037772488 0.019759238 -0.014570165 0.02488708 0.0074279294 -0.0020934602 0.008130016 -0.012256128 -0.023192985 -0.0006469023 -0.0026757552 0.0071439003 -0.024933998 0.0014509405 0.013171873 -0.0039119017 -0.01353085 -0.024450371 -0.010264145 -0.003883942 -0.004023351 -0.008442825 -0.010019286 -0.018100644 -0.00022778145 0.013952253 0.013107025 -0.0057732724 -0.008657323 0.009317691 0.012280017 0.0061010933 0.014787931 -0.014433228 -0.015425731 0.018849228 -0.01540341 0.0074780793 0.012136379 -0.0113562215 0.01639505 0.0022434553 -0.0143488925 0.0194797 0.017107572 -0.0095022665 -0.01643784 -0.014410836 0.021600075 -0.022078617
8 -0.0249009 -0.020109097 0.0030400315 -0.015495535 0.008933529 0.004153411 0.022802357 -0.010932362 -0.021854434 -0.0040515047 -0.015460388 0.0011403303 0.011399395 0.027505534 -0.0041618343 -0.021697056 0.008037633 0.0037421845 0.00018106122 -0.009380645 -0.01094745 0.01096775 0.002444383 -0.02871996 -0.0072429525 0.016267408 0.015924022 0.017983334 -0.012127072 -0.015649343 -0.004054131 0.025624905 0.004402049 0.0012341373 0.009113883 0.01393613 0.01747459 -0.020544646 0.022821443 -0.0040093283 0.007082761 0.021754505 -0.015785674 0.010798833 0.015314348 -0.009599763 0.025998028 0.015036924 -0.007980618 -0.015714876 0.0167114 0.009024605 -0.0038387128 -0.02378651 0.005426374 0.00970464 -0.017660188 -0.019505609 0.015794441 0.004830131 -0.0063381763 -0.0139538525 -0.017507486 0.017301308 0.0017319494 -0.01762053 0.0054450813 -0.010012055 -0.00013208447 0.005228307 -0.009265901 -0.010915625 -0.0150076905 0.00036453502 0.019190537 0.021363549 0.021791782 -0.015007269 0.003003395 0.02752068 -0.012880803 0.028304998 -0.006169825 -0.01075091 0.0017513984 -0.02732858 -0.01198667 -0.011936614 -0.0031640052 -0.0023599698 -0.02050746 0.0021749723 0.020601781 -0.004279426 -0.027746968 -0.005143103 -0.024043547 -0.014783422 -0.017143842 -0.014090203 -0.009640471 -0.027309975 -0.012371263 0.025720831 -0.005317554 -0.019977808 -0.0132313 0.01745896 0.01425273 -0.013678253 0.019136667 0.006333706 -0.009307488 0.009981786 -0.02211614 0.0008904978 0.023483342 -0.019607121 0.022948131 0.0035469614 -0.029620219 0.022604888 0.01494075 -0.020400513 -0.009602757 0.006519774 0.02235927 -0.018863231
9 -0.025325477 -0.02700094 0.00865579 -0.014188758 -0.005917486 0.026516145 0.015555614 0.007175295 -0.011566666 -0.014529463 -0.008428383 0.0042847656 0.013449238 0.005144706 -0.016962605 -0.01471889 0.012801672 0.018241322 -0.003790188 -0.009945049 -0.01850723 0.002442642 -0.012048976 -0.029099002 -0.006031825 0.009262342 0.009294978 0.007285979 -0.019518564 -0.01092403 -0.0041772444 0.011279793 -0.008183714 -0.001091314 0.0011711967 0.007974829 0.013790848 -0.014188248 0.008062435 -0.0015653152 0.0069699166 0.005373543 -0.011883004 0.0029396168 0.027135361 -0.024230732 0.026706574 -0.010308309 -0.0059730615 0.0005242686 0.029477946 0.0058202688 0.012238912 -0.01223277 0.006256606 0.026819717 -0.02419344 -0.031142814 0.0033329031 0.0069055595 -0.011654701 -0.0021473728 -0.027444037 0.017942311 -0.015046986 -0.018645613 0.0183469 -0.0019964513 0.014090291 0.012579883 -0.014731678 -0.010329191 -0.0134585565 0.0074869054 0.0014901306 0.025450578 0.017261267 -0.016968854 0.0019084843 0.0204621 -0.018887011 0.018561283 0.0027357852 -0.012720389 -0.0025560523 -0.029356916 -0.02882795 -0.000284717 -0.015937153 0.0077064293 -0.025805088 0.007519085 0.01706875 -0.007345546 -0.029692557 -0.014980123 -0.016467072 -0.008023539 0.00083358394 -0.0066462625 -0.00923874 -0.020232735 -0.0016157666 0.028052168 0.0010347855 -0.023704935 -0.00037382086 0.026759433 0.018820914 -0.002348759 0.019214002 -0.005746674 -0.01678273 0.022851352 -0.018388728 0.012333613 0.019961221 -0.01702505 0.02918177 0.008450401 -0.017754083 0.016521143 0.029313587 -0.018323183 -0.01106357 -0.020608926 0.021560809 -0.012830042
10 -0.011237758 -0.024728812 0.00970082 -0.018171953 -0.0018821344 0.02589193 0.01793033 -0.0034384525 -0.020904344 -0.016810672 -0.009303329 0.0056762984 0.00011183234 0.027857734 -0.0031673517 -0.01443827 0.00038430927 0.016369589 -0.015483702 -0.007488153 -0.015941326 0.012044761 -0.0032711085 -0.018670635 0.0014688307 0.006867033 -0.011167919 0.020854078 0.00095691864 0.0016476394 -0.00922223 0.018705161 0.018689832 0.010668641 -0.010381975 -0.017661428 0.025903262 -0.014679213 0.020338025 -0.008221126 0.020678673 -0.001186719 -0.021408902 0.0057203528 0.005270801 -0.02498354 0.018654114 0.004847359 -0.020346282 -0.0008244716 0.012132026 0.017547395 0.0043404126 -0.02247024 0.020221777 -0.00034173936 -0.013023981 -0.013534162 0.009929325 0.017158663 0.0023363372 0.0054216376 -0.007965383 0.02236091 -0.013485346 -0.019838274 0.0042126114 -0.0033152706 -0.0014399723 0.012862963 -0.00885895 -0.010541979 -0.018772738 0.017003702 0.0008553898 0.02143289 0.02188618 -0.002563131 0.008002572 0.01248151 -0.014079236 0.021311028 0.0053248727 -0.012522894 0.012284662 -0.016295806 -0.020862563 -0.01250462 0.007326818 -0.0003159665 -0.008441096 0.011593293 0.01734295 -0.0074497513 -0.016318612 -0.013562492 -0.013072004 -0.0121562015 -0.019348728 -0.013709766 -0.006477866 -0.011812166 0.010275116 0.014262838 -0.010326655 -0.025843762 -0.0002718386 0.0019222577 0.018364705 -0.007919928 0.027982013 -0.0012644551 -0.005544245 0.013956592 -0.018004535 0.008053514 0.026985327 -0.017279707 0.023320101 -0.0052313237 -0.017797297 0.014568543 0.026900172 -0.019759355 -0.015335885 0.0028663536 0.017050082 -0.01860097
11 -0.02691188 -0.022963475 -0.0014689073 -0.015261607 0.009193637 0.018330548 0.013761619 -0.02293253 -0.013321994 -0.00839807 -0.0026716315 0.010227435 0.00893989 0.0006273247 -0.011853064 -0.017278489 0.012404927 0.0073949257 0.0027678586 0.0009966608 -0.017922228 0.016428674 0.003638299 -0.011211513 -0.025019959 0.0035592632 0.0024268895 0.020536656 -0.0033682496 -0.011568445 -0.018060211 0.013930346 0.009606754 -0.0150409285 0.0122149745 0.02128083 0.009899163 -0.01735111 0.012316424 0.015721116 0.013792095 0.015620314 -0.013780883 -0.007064157 0.016979946 -0.013788787 0.0236291 0.019084238 -0.020322407 -0.020948734 0.016763793 0.015573469 -0.002632624 -0.028369332 -0.004238542 0.020654293 -0.020630803 -0.0076141227 0.023829957 0.0028321967 -0.019181333 -0.012690569 -0.016740032 0.0147973085 0.01187945 -0.015536349 -0.0020834343 -0.008995074 -0.01567112 -0.0035220725 -0.0062183044 -0.013851491 -0.022597281 -0.002609706 0.017800849 0.017564027 0.011453423 -0.0037771242 -0.007599922 0.022871487 -0.02542535 0.013705884 -0.021117095 -0.008285664 -0.00789428 -0.019651864 -0.018753793 -0.020577293 0.011794381 -0.0145200975 -0.013113747 0.015337765 0.018337104 0.008625301 -0.023297817 -0.012370086 -0.018539095 -0.02085755 -0.0072285244 -0.013144843 -0.00022978586 -0.02049309 -0.0027852203 0.009803361 -0.011739831 -0.0083399555 -0.02279958 0.008539962 0.010484281 -0.020988757 0.022827076 0.00049290503 -0.005626062 0.0060727573 -0.0139232045 0.002481889 0.018418279 -0.005341364 0.020212248 0.014328139 -0.023796199 0.015596921 0.00932337 -0.0062935725 -0.0047021834 -0.0030311644 0.012850912 -0.021724058
12 -0.013426898 -0.020667855 0.021401173 -0.021587826 0.0011071148 0.029296665 -0.0010629966 0.01073953 -0.0059040613 -0.007151446 -0.015639098 0.008983275 0.009303517 0.013263322 -0.003018712 -0.016146952 -0.0048958543 0.016836677 -0.01660172 -0.014490742 -0.013595328 0.020796254 -0.01346662 -0.01707545 0.00615331 0.009721482 -0.00091493037 0.015479384 -0.0043393397 -0.0017978767 -0.008602912 0.0077867694 0.009983769 0.0017445693 -0.0063364273 -0.015902583 0.023167923 -0.021024255 0.025914757 -0.009521764 0.014808053 -0.009444946 -0.005916735 0.0041704965 0.010796425 -0.018584333 0.0048976704 -0.0086594885 -0.012432581 -0.009992319 0.01347 0.017732149 0.014161386 -0.008117341 0.011908052 -0.008333921 -0.013466872 -0.012202133 -0.008367459 0.016957879 0.007791761 0.010169668 -0.009038709 0.016542852 -0.007984348 -0.010641985 0.0057044416 -0.013911921 0.0031672723 0.0027158733 -0.0066530034 -0.020198513 -0.013372201 0.016497023 0.0076308763 0.017237557 0.025074316 0.0015264836 0.016329985 0.010611028 -0.008309646 0.0147694135 0.015426172 -0.0099267615 0.0038887947 -0.015039731 -0.014506558 -0.0050367992 0.0032507316 -0.009745807 -0.022474315 0.014856484 0.023017572 -0.012435155 -0.016794516 -0.014050709 -0.009743965 -0.012258518 -0.015306571 -0.010499211 -0.0065669366 -0.015567838 0.008639551 0.018885864 0.0069021466 -0.008074604 -0.0047758264 -0.0039882916 0.009184596 -0.0009614795 0.011179129 -0.003791112 -0.009539911 0.0037866957 -0.019442124 0.015004567 0.015399659 -0.015822204 0.021871496 0.0030886563 -0.013588804 0.020158669 0.017627971 -0.020655353 -0.009968198 -0.011586202 0.020623628 -0.028548334
13 -0.003435794 0.0017408072 0.012530618 -0.019191025 -0.012453511 0.017070418 -0.013671656 0.02033846 -0.0065536685 -0.01966816 -0.012685361 0.019650297 -0.0027108404 0.0058513316 0.013173675 -0.0062212767 -0.0067603406 0.008060975 -0.016067356 -0.013736527 0.0069076368 -0.0015819259 -0.020246938 -8.864445e-05 0.013747278 0.019672496 -0.011211917 -0.014127909 0.0031670216 0.0064263334 0.002048947 0.004607357 0.02317393 0.009038194 -0.0037941788 -0.021893071 0.0073088184 -0.013838734 -0.004429929 -0.011912752 0.017938845 -0.0117445085 -0.009011011 0.009677432 -0.0064056492 -0.014178581 -0.0062975013 -0.0057084695 0.0041032946 0.008805874 -0.008938137 -0.0039946623 -0.0023751112 0.0060723256 0.0040062047 -0.005206264 0.004116986 -0.005662928 -0.0102082 0.009006306 0.01584351 0.009764969 0.0037587087 -0.0070623127 -0.024023738 -0.0071296026 0.006074214 -0.0059294226 0.018379558 0.014447924 0.0029373295 -9.016623e-05 -0.008303882 0.019093066 -0.0063920924 -0.0012331497 0.0090764 0.01158457 0.016147712 0.004328163 0.0018057954 0.0021505067 0.0039397446 -0.0011897112 0.020837504 0.0077283666 -0.0035523153 -0.009229555 -0.00073659606 0.0013297554 -0.008401345 -0.012450472 0.015844094 -0.020349797 0.004779061 -0.00976749 -0.009112574 0.010822081 -0.0072144875 -0.011718809 -0.009431231 0.010923101 0.001648049 -0.010584849 0.0062260306 -0.018795628 0.0099744825 -0.008753596 0.021905577 0.0113242585 0.004019624 -0.011661481 -0.0048210826 -0.005509608 0.008545148 0.010358493 0.012051386 -0.020376597 0.01191855 -0.01343076 0.0020761183 0.0151679665 0.0038987182 -0.012057251 -0.012516476 0.0041903895 -0.0063016103 0.005227224
14 -0.023643622 -0.01275533 0.013544184 -0.018281695 -0.0002935573 0.023032052 0.015964989 -0.011312931 -0.025897477 -0.0074969023 -0.023919426 0.003995639 0.015833506 0.018572073 -0.0099195875 -0.026264133 0.004322374 0.015376044 -0.0172924 -0.01553125 -0.020873474 0.010809083 -0.011440407 -0.013465593 -0.013596705 0.0040351683 0.013250168 0.022488276 -0.018397266 -0.006614308 -0.016916579 0.014759149 -0.00039699575 0.015810033 -0.0057432875 0.0035689175 0.023261871 -0.026090568 0.016718002 0.0038210892 0.0012435105 0.0070068985 -0.013919906 0.0008287406 0.01859916 -0.010395494 0.01763343 0.008459035 -0.027349941 -0.016912684 0.012646278 0.007511339 0.0075118374 -0.025763791 0.015104275 0.01261647 -0.019255692 -0.023757076 0.008334998 0.019412743 0.00022957052 -0.009176504 -0.01146933 0.019222172 -0.009964023 -0.027001299 0.021652192 -0.01009558 0.011509182 0.0066855755 -0.0040025576 -0.012777108 -0.013942734 0.008945387 0.018266901 0.023002902 0.01983964 -0.006995253 0.014301373 0.014914942 -0.02308945 0.024469232 -0.009549176 -0.025404101 0.0029142085 -0.011692458 -0.026315663 -0.01575677 -0.0035235118 -0.0086826775 -0.019734574 0.0021080677 0.025306193 -0.00027681282 -0.024325214 -0.01488891 -0.015801648 -0.0055321585 -0.018875532 -0.0018182147 -0.007588211 -0.007751592 -0.00090101594 0.01821953 0.002271485 -0.019692231 0.0016694213 0.013739643 0.0066975323 -0.016320415 0.025484268 -0.016976412 -0.01189585 0.020594336 -0.020803267 0.012674446 0.023842642 -0.006538432 0.018867739 -0.001298102 -0.022726288 0.019030217 0.01742942 -0.02288483 -0.0063476847 -0.011109089 0.004519293 -0.014383414
15 -0.014970004 -0.0062156734 -0.0013976197 0.0052448055 0.01277896 -0.006040841 0.0063547497 0.00042891662 -0.012715515 -0.006567905 -0.001234277 0.0038109869 -0.006196463 0.014543745 0.002846403 -0.016763318 0.0073707676 0.0029317732 -0.0069820094 -0.006362926 -0.012921209 0.022800015 0.007434839 -0.009774987 0.0019679388 0.018501017 -0.0041344273 0.017198145 0.0013245839 -0.00822921 -0.0105046425 0.014646613 0.0050213425 0.004564561 -0.004660442 -0.007903309 0.0119022075 -0.002537068 0.0010947944 0.009328263 0.0026656075 0.0040128888 -0.006932292 0.0021582218 0.005117953 -0.0010818464 0.011951284 0.0027971403 -0.0024331338 -0.015649967 0.0030659705 0.013269872 0.00675306 -0.009281505 0.015068676 -0.006687311 -0.0150807565 -0.010819558 0.000635777 0.012178876 -0.0013287064 -0.0025103441 -0.0009143407 0.0067120385 -0.004411059 -0.01596437 0.0033562316 -0.0029289643 -0.0027048802 0.0014829919 0.005425798 -0.021399759 -0.014780953 -0.0014863256 0.016802194 0.0040694918 0.01510764 0.005070633 -0.0075662886 0.012447647 -0.015208071 0.010069245 0.0005285898 -0.009752047 0.0076844655 -0.010627782 -0.0042765904 0.00277947 0.006661854 -0.018371757 -0.0085984105 0.020356871 0.01310704 0.0042362916 -0.014461213 -0.016460499 -0.010530071 -0.0072869877 -0.014091422 -0.016967166 0.002767629 -0.01391077 -0.0011248146 0.0019589085 -0.014970265 -0.0067001022 -0.0016929508 0.0044354615 0.0054203123 -0.00866027 -0.0047217836 0.00022357976 -0.0061877863 -0.0014568976 -0.012531103 -0.001052794 0.0052391337 -0.0032306262 0.0115505 -0.010423801 -0.0060307016 0.009820465 0.003113134 -0.010852906 -0.005744576 0.0049829828 0.021835126 -0.015332033
16 -0.020699458 -0.016349263 0.02006233 -0.021200567 0.010637196 0.02560316 0.012368769 0.0065230895 -0.021752577 -0.023949442 -0.02010568 0.025858711 -0.0015776108 0.024074439 0.017540423 -0.01629789 -0.001723054 0.015761787 -0.016803993 -0.01833187 -0.017949741 0.010592191 0.0030079558 -0.012103264 0.008486624 0.020605745 -0.013687123 0.01286149 0.011007497 -0.0036487826 -0.0111926915 0.02019691 0.0164359 0.014305059 -0.015541684 -0.009502486 0.018906059 -0.02667685 0.013824282 -0.019178 0.022968668 -0.0065230005 -0.020326782 0.0107979085 0.018054904 -0.013153053 0.015463058 -0.007832473 -0.024089385 -0.017306637 0.015478453 0.015195466 0.016128764 -0.015230706 0.015122438 0.0003978024 -0.019246 -0.021779152 -0.005108911 0.029503185 -0.00026821418 0.009714226 -0.012489224 0.026260613 -0.014372984 -0.020706546 0.013651177 -0.01824479 0.017530201 0.0040133293 -0.0024775683 -0.02100379 -0.01954094 0.0091082025 0.00064769416 0.011133268 0.027878612 0.0005223679 0.01756483 0.010360748 -0.01742495 0.022502007 0.011883679 -0.021037122 0.013822512 -0.019998645 -0.019787852 -0.023145175 0.022449583 -0.013859686 -0.014727361 0.019732384 0.0140262265 -0.01758312 -0.020100892 -0.025571687 -0.015831469 -0.010404775 -0.025478238 -0.020180162 -0.004536007 -0.01225387 0.004927292 0.01318402 -0.0015067818 -0.019269655 -0.007865985 0.0013349828 0.0284045 -0.0027571635 0.025223387 0.00061339774 -0.008287862 -0.0032607745 -0.02034759 0.020544156 0.013802532 -0.014707091 0.014255861 -0.02379788 -0.016173206 0.01955614 0.021491248 -0.019145913 -0.0144430045 0.0030026832 0.021141343 -0.026224317
17 -0.015916098 -0.013282063 0.0041289367 -0.023591354 0.020203229 0.017124834 0.0061164773 -0.0057369918 -0.019623065 -0.010250235 -0.010986004 0.008486297 0.010105803 0.022922404 -0.0028664314 -0.001054632 0.02223259 0.013395657 -0.0014924298 -0.016929377 -0.0076353746 0.01575605 -0.010712283 -0.017295646 -0.0007076332 0.018684294 -0.005082512 0.014444177 -0.012217284 -0.018438004 -0.01305647 0.026312543 0.0072028805 -0.0062340507 0.0013323445 -0.0020253486 0.024357615 -0.015287352 0.020616245 -0.0017551698 0.020643966 0.002657283 -0.014152739 0.01139755 0.0026291325 -0.00910029 0.006291614 0.0028238683 -0.025032053 -0.016032085 0.012328927 0.019314151 -0.0022951255 -0.016646137 0.010883537 0.014371113 -0.011960063 -0.012619699 0.002766464 0.00070405286 -0.0024893417 -0.007953222 -0.010917229 0.0143569335 0.00049943844 -0.010852839 0.006568348 -0.0099962875 0.008904305 0.007415968 0.0002764857 -0.024117878 -0.01751184 0.0048247604 0.013689567 0.014419827 0.008407045 0.0019257022 -0.0044509387 0.015098299 -0.012060909 0.0047134403 -0.013635722 0.009582682 0.0006476241 -0.019495986 -0.015870985 -0.01997004 0.007143167 -0.021672552 -0.024660144 0.016781498 0.017267408 -0.006065888 -0.00519715 0.009500999 -0.011234281 -0.014390085 -0.015636934 -0.006582571 -0.007143826 -0.0125304805 -0.0030030215 0.01858379 -0.008818663 -0.016917221 -0.0077760965 0.008510323 0.02609813 -0.01986224 0.011550902 0.0062004793 -0.017931562 -0.0013628448 -0.019345889 0.02494283 0.011034036 -0.010594684 0.020048644 -0.0005178029 -0.011280607 0.012784996 0.01609848 -0.009242995 -0.019721529 -0.0050929594 0.022725044 -0.011452778
18 -0.023226298 -0.026286278 0.015940033 -0.025743593 0.017208187 0.027205812 0.018969247 0.016403606 -0.028358238 -0.030381303 -0.019743364 0.030624887 -0.0056976713 0.029620916 0.028475473 -0.030797297 -0.012320691 0.016975617 -0.027377022 -0.02865136 -0.019635115 0.025929445 0.024091627 -0.029345283 0.019769162 0.029540708 -0.024695298 0.021300733 0.025778808 0.01653493 -0.02375151 0.030191906 0.021430803 0.026092513 -0.029111855 -0.027849792 0.019319972 -0.02152282 0.017412487 -0.02060459 0.017196285 -0.016043691 -0.030615278 0.0204578 0.016377624 -0.023743317 0.024763815 -0.017641928 -0.020523403 -0.017231341 0.021408577 0.026899058 0.027081741 -0.026315317 0.027336448 -0.029385177 -0.029164296 -0.027605467 -0.018657252 0.019782986 0.019555572 0.030463936 -0.015145911 0.018798437 -0.019904824 -0.024427775 0.008512269 -0.020530963 0.013465696 0.014143196 0.016974887 -0.017812125 -0.022072593 0.029477188 0.0049897563 0.0259453 0.018129129 0.015989896 0.011732618 0.024618873 -0.026544703 0.028585928 0.029172111 -0.023750199 0.02783146 -0.030808644 -0.017573476 -0.026603058 0.02368062 -0.016046224 -0.01678173 0.028162831 0.026169188 -0.015915493 -0.021054963 -0.01980105 -0.0085099945 -0.026897974 -0.02266784 -0.023575151 -0.010719158 -0.021818964 0.022356847 0.030568143 -0.026915502 -0.029137796 -0.01980388 -0.0267044 0.023707315 -0.022583112 0.022789756 -0.004758886 -0.02096948 -0.005076413 -0.028045008 0.021355309 0.03116119 -0.025192566 0.027980927 -0.029821007 -0.02291988 0.017864374 0.022521552 -0.030305766 -0.01970548 0.02322847 0.028111454 -0.027238399
19 0.0018701617 0.0016176227 0.017021513 0.0013720696 0.010687021 0.011042316 -0.0022315336 0.010043662 0.0013316011 0.003909634 0.010078685 0.022129133 -0.009793512 -0.0037738644 0.017115766 0.009349076 0.0006314764 -0.0071262876 -0.0064801415 -0.0022286274 -0.0066908496 0.0031483406 0.017655503 0.010736161 0.017222034 0.023475224 -0.0016606927 -0.0020590364 0.012437184 0.0028966179 -0.024866166 0.0073814695 0.009680008 -0.0031480722 0.0060629044 -0.015497684 -0.0023364392 0.0077434583 0.0013410412 -0.0073975343 0.010695256 0.0032246697 0.010030251 0.010553227 -0.0043986384 0.013170237 0.0075251665 0.008280518 -0.01878545 -0.012575322 -0.0036749684 0.0025464417 0.015171837 -0.007353317 -0.0037052776 -0.011297854 0.014239789 0.012111131 -0.014217572 0.021743804 0.020491773 0.010225772 -0.00074762234 -0.00645068 -0.010623967 -0.00014282245 0.0045991116 -0.023027962 -0.003295446 0.005280874 0.021034125 -0.0146451965 -0.006074157 -0.009509998 -0.015674796 0.0023940613 -0.004879657 0.019163826 -0.0049402723 -0.009014063 0.011500139 -0.012889652 0.015667582 -0.008454673 0.005875844 0.018917535 0.011937911 -0.015444637 0.012189226 -0.025483293 0.004045935 0.015950808 0.0071636965 -0.014318958 -0.0005976945 -0.014608893 0.019796744 -0.015320843 -0.012917611 -0.02507733 -0.014216055 -0.000621108 0.0138371615 -0.006351511 0.011695996 0.01388919 -0.0012453869 -0.011667883 0.017726291 -0.012265709 -0.0022043325 0.005082819 0.013261448 -0.0149089135 -0.0058502383 0.0072716945 -0.009302135 0.0042960956 -0.013395728 -0.020399053 0.003474417 -0.0053230273 -0.00046835985 -0.012276903 -0.010035334 0.016939733 0.01702545 -0.018292034
20 -0.015574966 -0.028074423 0.01443946 -0.020038985 0.028235104 0.020363994 0.025891233 -0.007197043 -0.018731605 -0.020630278 -0.016119905 0.012664345 0.006472195 0.018790776 0.0038973277 -0.016135091 0.00039984458 0.027168853 -0.021154964 -0.031537946 -0.019346818 0.025494209 0.0010849392 -0.023415038 0.0019672844 0.020286767 0.00127463 0.026970219 0.002603126 -0.007032199 -0.018509824 0.019628981 0.020797778 0.005140062 1.8500228e-05 -0.005475646 0.027452368 -0.023063587 0.021058729 -0.01004087 0.020600548 -0.004337627 -0.021826146 0.016310133 0.014381232 -0.02238412 0.02513864 0.012157225 -0.025524039 -0.02529801 0.018906374 0.016045386 0.011943828 -0.030906621 0.011646649 0.0035187227 -0.0268936 -0.02307067 0.006380551 0.015273895 0.0031334572 0.0011207601 -0.012807392 0.018755909 -0.009620945 -0.028235316 0.005541378 -0.023355218 0.011539605 0.01613404 0.007729373 -0.029426713 -0.03205971 0.005103738 0.016180687 0.022871882 0.018757826 0.0049172626 0.024406059 0.024501864 -0.019480463 0.022691254 0.022233652 -0.025915947 0.015227125 -0.02546686 -0.018223481 -0.007698467 0.018889884 -0.020697426 -0.0133150425 0.020893067 0.014488112 -0.026453406 -0.025508694 -0.012748946 -0.0132083185 -0.025909593 -0.023864329 -0.015901273 -0.0059581124 -0.024492728 0.009605502 0.01712967 -0.01928494 -0.019976994 -0.023363583 -0.0052810656 0.022046408 -0.025971442 0.012367328 -0.008178931 -0.024829583 0.010179069 -0.023532758 0.017337183 0.021189518 -0.030509776 0.026428973 -0.011999502 -0.019934453 0.020417308 0.022656444 -0.018739602 -0.021447236 0.009544658 0.017320117 -0.020172458
21 -0.008983746 -0.020973792 0.011670985 -0.017767813 0.01893701 0.017257987 0.015560015 -0.013971815 -0.022023933 -0.018615723 -0.013843803 0.0065828264 0.0077372696 0.017384207 0.00086330407 -0.025114099 -0.0047153966 0.014573754 -0.020460539 -0.008882269 -0.0127653405 0.015090882 0.010529225 -0.019633735 0.0010136105 0.03089684 -0.0037820083 0.0156160835 -0.0052500973 -0.018174566 -0.012435063 0.026190361 -0.00438175 -0.004292293 -0.0013239705 -0.0024096342 0.02552291 -0.02644566 0.015564265 0.0023248012 0.020649757 0.008603282 -0.026073657 0.0094723115 0.017889997 -0.019114124 0.009324717 0.007160446 -0.017791351 -0.019554926 0.02046029 0.024280615 0.0039531817 -0.01373298 0.009057453 0.016559768 -0.017093481 -0.008384672 0.002432536 0.012920812 -0.0054218825 -0.006349917 -0.013656516 0.016967464 -0.0032430047 -0.026567496 -0.000950548 -0.014288169 0.004580666 -0.0033755163 0.007260722 -0.023224473 -0.016121395 0.0066654924 0.007958754 0.012097094 0.0189557 -0.0061819754 0.012157224 0.020040259 -0.020286763 0.016969299 0.0012187635 0.0022496898 -0.0032053262 -0.019659653 -0.02762808 -0.01844138 0.0011370853 -0.02220086 -0.023304485 0.009026645 0.011798564 -0.016131837 -0.023035761 -0.014214036 -0.02096121 -0.01595869 -0.0012185125 -0.019500807 -0.014150739 -0.021874174 0.012259987 0.019632565 -0.013517574 -0.008893578 -0.024245089 -0.0012197678 0.018214216 -0.010622609 0.02126375 -0.0010054542 -0.013447947 0.012018431 -0.01831796 0.0052625556 0.025198605 -0.009127335 0.024784807 0.011503447 -0.01972306 0.018121166 0.01146035 -0.0066365753 -0.016001085 0.01912522 0.027309392 -0.022514112
22 -0.010902437 -0.00906339 -0.014306677 -0.010215203 0.01637537 0.007596956 0.0068901614 -0.006161466 -0.019530518 -0.027890323 -0.014031414 0.0008671742 -0.0011819804 0.0112602245 -0.006620861 -0.012120824 0.010403146 0.029297689 -0.0015158466 -0.014175764 -0.019494979 0.013999935 -0.009442358 -0.011334661 -0.009143182 0.0016555381 0.009135381 0.01649297 -0.013918687 -0.005518968 -0.01216149 0.006729233 0.006244289 -0.0125625 0.007260681 0.0064707054 0.013667594 -0.011886634 0.014097084 0.0058488906 0.017175978 0.008039511 -0.017434357 0.00038444554 0.01434051 -0.010667773 0.014261399 0.0018970039 -0.011384977 -0.018797442 0.013177714 0.01085905 3.5883888e-05 -0.018894713 0.015582372 0.0010749483 -0.016128318 -0.0076971697 0.0065161823 0.01425719 -0.010130358 -0.004714316 -0.011255859 0.018876608 -0.012688001 -0.013719651 -0.0027466468 -0.010115629 0.013148322 0.010811942 -0.011811229 -0.020717226 -0.021405837 0.0018099211 0.018635692 0.020351477 0.017646516 0.0031050425 -0.0039704437 0.018685594 -0.018480223 0.009151039 -0.00023337064 -0.008461938 -0.009677695 -0.008423562 -0.016523974 -0.008176742 -0.0056306757 -0.00860752 -0.011599103 0.01924471 0.017515402 -0.00059355365 -0.019042375 0.0047475696 -0.0025247857 -0.019287983 -0.012936181 -0.018426934 -0.014681096 -0.02065365 -0.011862701 0.020397685 -0.0026966522 -0.013366501 -0.009262955 0.00031867553 0.009562413 -0.015589978 0.0072259908 0.00073530566 -0.011312299 -1.5175494e-05 -0.014349499 0.029232122 0.017902419 -0.018204786 0.016521031 0.008138026 -0.0113801835 0.012784777 0.02588167 -0.014182912 -0.021057216 -0.007873386 0.012678063 -0.007350106
23 -0.018513944 -0.013822103 -0.001569739 -0.011460528 0.012805322 0.017929964 0.02140298 -0.009916066 -0.021409629 -0.008499486 -0.014273912 -0.0021183318 0.016541725 0.013605204 -0.00801518 -0.02365986 0.008631665 0.015429728 -0.0112185525 -0.009889596 -0.0149264075 0.013255407 0.014675931 -0.020242384 -0.009626393 0.008534536 -0.005153336 0.027253428 -0.015951648 -0.013760345 -0.019633282 0.01755757 0.0062832804 0.008295792 0.0065389574 0.0004528285 0.025708893 -0.02247434 0.026973657 0.008198184 0.011173986 0.011866769 -0.019215483 0.020642646 0.018802272 -0.019455347 0.013957626 0.009135042 -0.028158842 -0.02550387 0.011255105 0.014763953 0.008843499 -0.025382811 0.013554348 0.0047814636 -0.0152086895 -0.013427066 0.0032370072 0.025990536 -0.009148061 -0.010956792 -0.007064769 0.023114877 -0.011620054 -0.02929586 0.010219411 -0.026299056 0.004246697 -0.0038106572 0.00013702357 -0.015254787 -0.020045355 0.012105887 0.020747224 0.027523346 0.017857928 -0.007708509 0.015557223 0.020847768 -0.020061843 0.026897097 -0.0023637791 -0.013169933 -0.002589504 -0.014927565 -0.018504044 -0.008018043 0.0008496027 -0.013920362 -0.019447962 0.018658176 0.020909583 -0.012175251 -0.020541638 -0.010072806 -0.013232134 -0.023501609 -0.01805751 -0.014531435 -0.023084609 -0.027293874 -0.013372915 0.017558042 -0.012000182 -0.0140717635 -0.017106405 0.009388153 0.0066462653 -0.02019218 0.01549217 -0.0038141035 -0.01819308 0.004787687 -0.02763216 0.011537046 0.026544496 -0.028187066 0.024707021 -0.004085317 -0.017259533 0.019947398 0.01474715 -0.005342953 -0.016699012 -0.007120875 0.028966121 -0.025849458
24 -0.024495037 -0.01769024 0.0037000237 -0.010981382 0.013635456 0.010508219 0.012849894 -0.008260906 -0.015781786 -0.027455788 -0.011845652 0.014841007 -0.0015539755 0.025650265 0.0021258788 -0.012529339 -0.0054201605 0.017447729 -0.012707799 -0.015499435 -0.011497253 0.02089679 0.004735357 -0.012808282 -0.001311515 0.022732437 -0.009900251 0.024359947 -0.0002446437 -0.0053237416 -0.022431597 0.012927524 0.015272774 0.009526066 0.007312345 -0.009290294 0.020415433 -0.017081786 0.017113 -0.0032884392 0.019249855 0.009249006 -0.025836788 0.012634736 0.017773088 -0.018327894 0.0152147 0.017913893 -0.019903546 -0.016169926 0.010623073 0.014459767 0.001188156 -0.020784348 0.020155914 -0.00016365462 -0.010551061 -0.016074449 0.004308736 0.007864345 -0.006846931 -0.0013429269 -0.008657653 0.012964389 -0.005810959 -0.022355968 -0.0042691105 -0.020074211 0.0049248612 -0.003864172 0.002281957 -0.023342222 -0.01989424 0.01511744 0.012758447 0.011320642 0.020152912 0.0018398406 -0.002156266 0.019617386 -0.012745037 0.021732632 0.0053599924 -0.01178868 0.0036301801 -0.022316648 -0.015259071 -0.025692426 0.012770205 -0.029734699 -0.00890704 0.02177851 0.010723855 -0.011273493 -0.016694203 -0.008840738 -0.018117996 -0.011669535 -0.018416483 -0.020534918 -0.0036598865 -0.014440279 -0.0002579366 0.023259616 -0.022198526 -0.0150142545 -0.010540281 -0.0050421557 0.013782282 -0.010074244 0.01736316 0.0072147646 -0.023669105 4.3048407e-05 -0.021154681 0.016856179 0.018323274 -0.019056087 0.013681029 0.0031135196 -0.022603443 0.024136296 0.01812463 -0.02701252 -0.018610435 -0.0006565032 0.0154758245 -0.023961036
25 -0.010965733 -0.008550588 0.008975411 -0.009703473 0.016707987 0.018962616 0.0067930864 0.0031691345 -0.0018071451 -0.016109291 -0.0013714354 0.013006356 -0.0066538574 0.0123661375 -1.8365521e-05 -0.01273012 0.008422369 0.014793145 -0.01683548 -0.0138520505 -0.00502975 0.016406318 0.0057483064 -0.011679514 0.013123489 0.007259664 0.003421216 0.019887222 0.004004842 0.0064030793 -0.018473076 0.024197195 0.013461309 0.0030428814 0.0009954495 -0.012337722 0.025042778 -0.006697359 0.02462451 -0.0016320428 0.027413907 0.0005255898 -0.021398058 0.017163279 0.00019257396 -0.011598589 0.00715663 0.0016814364 -0.019936563 -0.0033211792 0.0012889742 0.0089713745 -0.0022458362 -0.004497501 0.019852327 0.0036582004 -0.012092261 -0.0087574385 -0.012959916 0.015724994 0.0067940494 0.005510246 -0.003086474 0.006874422 -0.0085345255 -0.008479243 0.009084715 -0.014728374 0.012554753 0.011816599 0.0054818504 -0.024533676 -0.010306938 0.005312004 0.0064659216 0.00064137863 0.02094242 0.0033975607 0.012158273 0.0052728676 -0.0068288655 0.004322219 0.008576137 -0.010399306 0.004821385 -0.013849379 -0.002304303 -0.01999867 0.0032495023 -0.01943734 -0.007836302 0.028546084 9.57927e-05 -0.014964038 -0.003242505 -0.015031271 0.0010607298 -0.010806495 -0.015458673 -0.014758089 -0.017178286 0.0003640324 0.010580043 0.0036183898 0.0056827236 -0.020029185 0.000973769 0.0038962567 0.020011047 -0.010393519 0.0023713785 -0.0039042945 -0.014346178 0.009870931 -0.02652506 0.020714475 0.011422454 -0.0040512946 0.011997002 -0.00054495723 -0.009470593 0.006069956 0.02074659 -0.012832968 -0.018559342 -0.0008674337 0.01682563 -0.008927921
