26 128
0 0.024422674 -0.01522354 0.02519825 -0.013743197 0.013204387 -0.008769194 0.01586669 0.0032387872 -0.004644976 0.0072638504 -0.0046289326 -0.014174475 0.021271048 0.0068445546 -0.006112437 0.012997918 0.006986065 0.014617366 -0.010758503 0.0042048167 0.0054917987 0.021247404 -0.012805922 0.0018484112 -0.021680089 -0.011680253 0.0025048063 -0.0007406949 0.00092189724 -0.002801015 -0.00984052 0.008796284 0.014118032 -0.0046600327 0.0023014143 0.011202402 0.007076377 -0.016951637 0.009741504 0.0024469101 0.0047097555 -0.008001456 0.023985567 -0.0059227725 0.008500609 -0.016267937 -0.0072333887 0.00220075 -0.008388241 0.008238845 -0.010110439 -0.0123595735 0.015180475 -0.01681435 -0.01564858 -0.020373141 -0.022609271 -0.0011124413 0.01941812 -0.0089503 -0.018782506 -0.008194167 0.00961421 -0.0028644819 0.009929052 0.00014863032 -0.013627344 0.01256413 0.018578261 0.0070946137 -0.019461617 -0.00245623 0.0004547596 0.011299305 -0.004867512 -0.009817513 0.019438324 0.011097695 0.00092250755 -0.009309411 0.01476893 0.02072602 0.010431272 0.01187092 0.012971072 -0.02059349 -0.011580788 0.021285146 0.020369284 0.019601934 -0.019074785 -0.012305122 -0.012438419 -0.01895824 0.019036615 -0.015728345 -0.0049613714 0.013675619 -0.0009708812 -0.009856232 0.019507937 0.012403594 0.0039567472 -0.019607648 0.009865669 -0.018318517 0.013663668 0.008466851 -0.02152686 0.006289637 0.020353712 0.022082651 0.0025129835 0.020555774 -0.0103076175 0.0016205199 -0.022897707 -0.0073828637 -0.01973869 0.010168956 0.006599089 -0.012746435 -0.013950339 0.010259091 -0.023240516 -0.0095858835 0.012926709 0.009978281
1 0.013134533 -0.020722652 0.0006998486 0.0064797928 0.0254348 -0.01801261 0.016257808 -0.007232849 0.013955473 0.016937057 -0.019736454 -0.021981442 0.018760014 -0.015041587 -0.007433891 0.008570658 0.016303325 0.022882653 -0.008759194 0.00701492 0.02321643 0.025847228 -0.024384381 0.018820941 -0.018875172 -0.023516785 0.01864877 0.01487937 0.021032758 -0.016475827 -0.008762986 0.015436401 0.026157945 0.00015675377 0.0121791465 0.02591427 0.024695551 -0.014279274 0.0145409955 0.020008733 0.0016073307 -0.02224344 0.01604908 -0.028846534 0.019206105 -0.02307424 0.0005312383 -0.010130322 -0.01916566 0.021499408 -0.017256927 -0.017439708 0.0208267 -0.019908482 -0.027436366 -0.024938853 -0.016880572 0.010307099 0.025421819 -0.010552238 -0.021561326 -0.02341218 0.030137112 -0.008557019 -0.012630106 0.0069880015 -0.03202746 0.017820789 0.022376627 -0.0023473506 -0.015073761 -0.001096146 -0.00967875 0.006726727 0.004173728 -0.020926798 0.021066736 0.013624088 0.018156352 -0.0255957 0.023094494 0.02240887 0.023978531 0.022002803 -0.006264898 -0.027362842 -0.021335991 0.019108718 0.02707072 0.025207262 -0.026229754 -0.023436021 -0.024634074 -0.02501999 0.021182932 -0.023883892 -0.00035918955 0.018913914 -0.0040488015 -0.010391061 0.0246083 0.0128987525 -0.0014696792 -0.01883162 0.023449734 -0.018690817 0.026620077 0.024952082 -0.02651657 0.025845258 0.011685892 0.019590613 0.013562591 0.023822073 -0.010310248 0.014303956 -0.021928623 -0.018140782 -0.0008624346 0.021539273 0.018244466 0.0003891416 -0.026171321 0.008201687 -0.025862852 -0.026771765 0.028800288 0.013633342
2 0.016377518 -0.025054414 0.0021690696 0.00953013 0.008169013 -0.015406509 -0.0023521772 -0.014353914 -0.011385764 0.012992376 -0.015942257 -0.010203719 0.02087576 -0.0015132534 -0.004597685 0.015497241 0.013460529 0.010245374 -0.012661047 -0.0062157563 0.004979956 0.016329708 -0.011800762 0.0083680805 -0.011737948 -0.0050406377 0.011049891 0.002310204 0.011853016 -0.0119422525 -0.004314809 0.0109971035 0.014906509 0.011571692 0.020115973 0.011474746 0.013259871 -0.015520543 0.019180275 0.005028715 -0.0010418529 -0.0072614336 -0.00014778649 -0.0007564527 0.010261102 -0.021647636 0.0146994125 -0.0043022926 -0.013601429 0.010067798 -0.017045727 -0.011725561 0.018588385 -0.014416198 -0.025641225 -0.016741406 -0.010168695 0.007343691 0.01665944 -0.008177852 -0.0116081955 -0.012025134 0.016434455 0.002213207 -0.00055702665 0.005233636 -0.017052902 -0.0048901057 0.02660288 0.00016019127 -0.02588101 0.005542736 -0.0031105953 0.014959583 0.006899544 -0.009175748 0.019571422 0.009443852 0.0125618465 0.0063163373 0.024700912 0.020672128 0.0069146627 0.026254602 -0.005472603 -0.02169472 -0.023561368 0.009899017 0.012957111 0.013244692 -0.00672243 -0.022525603 -0.010427724 -0.02431887 0.0090023065 -0.017249942 -0.011983152 0.016151085 -0.012763005 -0.026938716 0.018518407 0.019825308 0.005464535 -0.015830616 0.012889832 -0.008787618 0.012151424 0.015308959 -0.019234449 0.0050828746 0.017737601 0.01442766 0.018425824 0.015892753 -0.010028668 0.012809424 -0.021313377 -0.008187554 -0.016790144 0.021179784 0.012549674 -0.0076080384 -0.0017207863 0.01265339 -0.02532028 -0.0075835637 0.015175824 0.01336782
3 0.0008995352 -0.005468224 0.0068236636 0.004388975 0.004758728 -0.003312726 0.0017706966 -0.0084166 0.0028745579 0.0095952805 -0.012805821 -0.012166355 0.008811513 0.0031457886 -0.017493734 0.00889152 0.0074168583 0.001667243 -0.0023079177 -0.001323576 0.010453377 0.00490072 -0.0062096114 0.0020265447 -0.004386964 -0.0032836867 0.0057763164 0.004076048 0.006019995 0.0006238578 -0.0065688407 -0.0038029782 0.011688775 -0.0029391623 0.0006228808 0.007814159 0.009803829 -0.0024370677 0.0013549081 0.02198294 -0.0046067466 -0.014499616 0.0075911805 -0.01007275 0.013249158 -0.010811028 -0.0022343616 -0.0038758856 -0.017707529 0.013608154 -0.017416332 -0.006606191 0.014800685 -0.013174274 -0.004407242 -0.01573839 -0.011694852 0.0091864355 0.0033135493 0.002139867 -0.0058771227 -0.0021483954 0.010002321 -0.0061429525 0.0016113456 0.0043571205 -0.0056386124 0.011250932 0.004372284 0.0013263389 -0.013665977 -0.0026846773 0.00074473396 0.015780423 0.006661865 -0.0070014484 0.006376735 -0.00015785731 -0.0034061533 -0.001512313 0.0030331954 0.002473591 0.008306828 0.011482097 0.0022751836 -0.01442104 -0.0055411365 0.012104527 0.0124067385 0.008834564 -0.012264795 -0.0070078815 -0.011491688 -0.009708061 0.015116019 -0.015142569 0.0037384005 0.006763435 -4.2203465e-05 -0.009406768 0.01366799 0.008571197 0.0033392413 -0.009714907 -0.0006475981 -0.0022087165 0.006113964 0.0008168955 -0.008618249 0.013713487 0.02171375 0.0027980665 0.0002698425 0.016209599 -0.009251727 0.007606612 -0.0036560216 -0.00045978546 -0.009459256 0.010457236 0.0017672342 -0.0030094436 -0.0126890605 0.0022660485 -0.0076856366 -0.011830392 0.01915727 0.011085708
4 0.010567534 -0.0034008692 0.017213864 0.007907433 0.0028308884 -0.018215774 0.014353481 -0.0070789815 -0.01593316 0.01820762 -0.006504575 0.0038071012 0.017018834 0.012525942 -0.0100324415 -0.0014610484 0.008427824 -0.0018245635 -0.018596977 -0.016065182 -0.0031458626 0.021041647 0.009075656 0.0076267673 -0.006696822 -0.0006972122 0.0035902723 -0.009585017 -8.606065e-05 -0.0053725992 0.002063802 -0.009371488 -0.0043497924 0.0020296671 0.015064502 0.016091151 0.0017588988 -0.011965042 0.0030753887 0.0066336514 0.004258872 -0.010690627 0.004155541 -0.010069524 0.0061747837 -0.002756345 0.015874287 -0.003793878 -0.015371656 0.008263924 -0.004587207 0.0069893105 0.0052288375 -0.019439073 -0.0063100797 -0.0063112443 0.00546139 -0.01135833 0.004770933 0.007162215 -0.010040124 -0.015273295 0.0028828592 0.0065755285 0.009035368 -0.0025159356 -0.0022532705 0.006794531 0.016695887 0.0049808635 -0.020245878 -0.00084136834 0.008429989 0.016417406 -0.0010777954 0.0013380673 0.0074848696 -0.005284022 -0.013602697 -0.0037420325 0.006853822 0.0052127843 0.012345285 0.014422998 0.005391858 -0.011242831 -0.010856159 0.0031922692 0.004481981 0.013048958 -0.0016177703 -0.01606008 -0.011129944 -0.0073921094 4.428893e-05 -0.008282709 0.0053460086 0.007993692 0.0027298485 -0.006258862 0.0027228375 0.019096857 0.00898553 -0.004600077 -0.010929794 -0.0050474573 0.0048957583 0.013388271 -0.004767739 0.00041611365 0.02098117 0.0053937533 -0.0028991106 0.0073678647 -0.0042167483 -0.0100674825 -0.01572244 -0.005456672 -0.02150125 0.007888488 0.0013727376 -0.005518229 -0.0033538912 0.024590325 -0.0133129405 -0.0112816 0.018596658 -0.009211698
5 0.0072827446 -0.019221652 0.012276392 0.008330819 -0.008635445 -0.017865676 -0.007843185 -0.010062816 -0.005600333 0.014159823 -0.011050562 -0.0047323075 0.015132319 -0.009546739 0.0027864308 -0.001913877 0.01201648 0.00477964 -0.01705019 -0.0066836053 0.010238848 0.017107312 -0.019751502 0.012222991 -0.017911604 -0.010841483 0.0077002826 0.0043665613 -0.0037157093 -0.019679507 0.0028788436 0.010002387 -0.0037924107 0.016022876 0.009039238 0.028159285 0.0066666957 -0.0070316456 0.011365087 0.011004424 0.006654295 -0.012980626 -0.012437568 0.010311098 0.017021537 -0.009163356 -0.011936744 -0.008310142 -0.017933434 0.023556678 -0.010813404 -0.01481238 0.016485088 -0.0044206614 -0.016022388 -0.008566474 -0.011716582 0.0017965176 0.010615504 0.0020479402 -0.014689771 -0.0075659007 0.0031875628 -0.002124094 -0.0074529457 -0.0008596574 -0.012717673 -0.00027901685 0.016258245 0.007853411 -0.017522598 -0.0044254214 -0.0071107056 -0.00319954 0.0027656741 -0.017075062 0.021381525 -0.006979054 0.0065968055 0.00083660055 0.01669822 0.014132302 0.0060045416 0.0152313495 -0.0037448057 -0.008552088 -0.018377675 0.01761799 0.015533008 0.022302903 -0.0071402574 -0.009604066 -0.012712273 -0.0049587223 0.0076786596 -0.01168767 0.0011906548 0.017167127 -0.017196978 -0.01034775 0.008830441 0.016271774 0.011012631 -0.011627293 0.0015859493 -0.0069724317 0.007876101 0.017397717 -0.011890344 -0.0030455855 0.007232273 0.022045575 0.0070942296 0.0030672234 -0.012143049 0.013751365 -0.0222537 -0.014484453 -0.019890103 0.018309603 0.011927713 -0.013176853 -0.004783722 0.01010996 -0.02069594 -0.019858792 0.018616797 0.0016379319
6 0.0044776113 -0.018500932 0.010277699 0.012925469 0.000612358 -0.021598432 -0.0005545256 -0.0099424515 -0.014415587 0.016842464 -0.010018743 0.0037053218 0.016504096 -0.002887764 0.0016961249 0.011678922 0.019459818 0.017016906 -0.02197779 -0.00091235177 0.0073137823 0.025309427 0.0015678431 0.00049894914 -0.02407068 -0.0043202876 0.01615338 0.005549467 -0.0016758044 -0.010448253 -0.00041549435 0.00053209433 0.012408411 0.011131609 0.021360906 0.00459439 0.011076313 -0.019530732 0.012256332 0.009623905 -0.015282207 -0.008140943 -0.016818956 0.009607127 0.011918736 -0.008726612 0.0025589846 0.00037732243 -0.026455041 0.017424779 -0.01506674 -0.010421428 0.012422858 -0.016803259 -0.012800131 -0.008254022 0.0053688134 0.0034561194 0.009486511 0.0057924152 -0.01740304 -0.025513215 0.007826927 0.01034318 -0.009818829 0.0033310333 -0.024266746 0.010825315 0.02276161 0.010800714 -0.025148757 0.0069188336 -0.0041799727 0.012041989 0.019595286 0.012709341 0.021902343 -0.0050719213 0.0013615146 0.012844632 0.020736419 0.017560946 0.014052709 0.009622233 0.008240483 -0.023942241 -0.023408249 0.00311451 0.019340675 0.02542272 8.995063e-06 -0.024304954 -0.013483046 -0.005087246 0.009419818 -0.015894078 -0.0022986317 0.015487559 -0.020477094 -0.011706757 0.011743329 0.014555991 0.0064052343 -0.011909304 -0.002984553 -0.010464634 0.012988049 0.027188873 -0.021274634 -0.009154495 0.019522684 0.024225853 0.014001817 0.013566308 -0.0005230169 0.005305532 -0.02153859 -0.009746758 -0.014770676 0.016563367 0.023954663 -0.0048470283 0.00206845 0.01947349 -0.024270982 -0.0145232435 0.022597438 0.016036123
7 0.0040591354 -0.0075195082 0.00018795795 0.0025856374 -0.00045802337 -0.011265659 -7.591325e-05 -0.012290387 -0.008139336 0.01423735 -0.0070668347 -0.0029156182 0.01085604 -0.005591082 -0.0032041916 0.004362915 0.014981064 0.019507105 -0.009437722 -0.008834172 0.012121647 0.021363089 -0.011378934 0.004880871 -0.015804412 -0.007211161 0.014617498 0.010402354 -0.008631029 -0.020582698 0.0030108874 0.0085826125 0.0076026954 0.009862563 0.017998308 0.0004634196 0.011984794 -0.02365604 0.020601789 0.0130991675 -0.0061611105 -0.0050916714 -0.009892091 0.0108128805 0.01677469 -0.023202186 0.006419365 0.0146227 -0.01171314 0.023334043 -0.013796901 -0.010989033 0.009985542 -0.015446557 -0.011606208 -0.013068941 -0.012098334 -0.00040470928 0.023960793 0.0010167885 -0.0060149524 -0.01280726 0.0149297165 -0.003786294 -0.0042854184 -0.006261289 -0.022018684 0.0064501753 0.01823419 -0.0023691028 -0.020394292 0.008430052 -0.010337604 0.009321677 0.020175409 0.0017659812 0.011294568 -0.0049914927 0.0037932105 0.013320005 0.0154295135 0.009611677 0.0026122406 0.018353626 0.0036809123 -0.021770112 -0.021646619 0.0061633936 0.011150502 0.019001368 -0.008960577 -0.013442751 -0.010193309 -0.01367749 0.0042550974 -0.009652021 -0.0059988294 0.011710897 -0.015014717 -0.0137846405 0.016114874 0.025780613 0.012598179 -0.006094022 0.00011066513 -0.00863426 0.0016826743 0.019594701 -0.021329151 -0.0121046705 0.00914585 0.018190082 0.0072912443 0.013300357 0.0002334959 0.0121062435 -0.018373307 -0.01396044 -0.014692561 0.0062917434 0.017392874 -0.0030990213 0.010885568 -0.0013883538 -0.02126481 -0.0104464935 0.016380005 0.003736283
8 0.0077572805 -0.00899641 0.019309057 0.014533179 -0.008270484 -0.02364433 -0.010605158 -0.010942752 -0.024836019 0.019309277 -0.014308399 0.0081040105 0.011554006 0.016045034 -0.004031606 0.01776466 0.019665087 0.02020775 -0.020420885 -0.0174504 0.0009638021 0.023493847 0.0019400365 0.0060342746 -0.028263742 0.0045143706 0.011708556 0.01222699 -0.0018019961 -0.014520664 0.011552136 -0.008382861 -0.0037903124 0.0180379 0.023527406 0.017914867 0.0019274834 -0.01608587 0.016765587 0.010142903 -0.006954038 -0.009503306 -0.0133762425 0.01289341 0.018353274 -0.017639764 0.007673079 0.01922084 -0.017743828 0.026996328 -0.015988331 -0.008778879 0.02084254 -0.02254278 -0.0075316704 -0.013171326 0.00580573 -0.0037035705 0.020531086 0.004835359 -0.011772048 -0.014995251 0.008080938 0.021239998 0.0059300694 -0.0060649794 -0.020146422 -0.0061202184 0.028702913 0.011599843 -0.01703096 0.01879479 -0.014607604 0.01682743 0.01552739 -0.0037384196 0.026454877 -0.0012760179 -0.0038115056 0.02034542 0.02341714 0.011981383 0.016733719 0.026435195 0.0050177267 -0.012973292 -0.016679458 0.0014581745 0.022618875 0.016295929 -0.0010773183 -0.023531977 -0.027132047 -0.023350418 0.00395099 -0.014651196 0.0013446044 0.016641011 -0.014595872 -0.022654088 0.0063105416 0.024483979 0.021679139 -0.011399331 -0.002536224 -0.003218288 -0.0073838886 0.0086444095 -0.02145793 -0.015910337 0.018204514 0.023049764 0.017019328 0.011435231 -0.015465624 0.0012292648 -0.02327387 -0.00021440542 -0.01574691 0.021926753 0.0070134196 -0.010103641 0.013268466 0.014644495 -0.018975839 -0.0116463825 0.019120406 -0.00074468396
9 0.010719334 -0.016492771 0.012077692 0.012676313 -0.0018197121 -0.012661126 -0.0048022578 -0.017244734 -0.0076122913 0.026699303 -0.02392477 -0.010673815 0.031480007 0.0014036387 0.001355604 0.020839412 0.017030325 0.018097546 -0.026838414 -0.0129310675 -0.0005374794 0.018535104 0.00813791 -0.0011610382 -0.029843858 -0.014897794 0.015522591 0.009483241 -0.003013011 -0.018198377 0.009046365 -0.0014219485 0.0028224918 0.011728215 0.025503805 0.0076495437 0.021983443 -0.021642206 0.02880497 0.019335615 -0.011875183 -0.015676653 -0.016834943 0.019525861 0.011752229 -0.0114639355 0.008514694 0.0154972775 -0.018851977 0.022795103 -0.018745005 -0.010926057 0.023349185 -0.030106781 -0.023330977 -0.012565781 -0.0057597593 -0.0074635646 0.018971227 0.008660066 -0.02528306 -0.022337912 0.013966262 0.003595516 -0.007718194 0.008248103 -0.026232755 0.009143878 0.019916885 0.0020836855 -0.022794895 0.0071268613 -0.0121113695 0.014713441 0.013492546 0.0073199803 0.029558469 -0.0066185985 0.0018382029 0.01719815 0.025227608 0.021083143 0.022063555 0.013516618 0.0027783753 -0.030572053 -0.027797746 0.0049111964 0.026678305 0.027447417 -0.0068013826 -0.025050992 -0.033283286 -0.019427504 0.017119741 -0.01659986 -0.010662877 0.02518192 -0.021895241 -0.019991873 0.011963935 0.019387614 0.02074239 -0.012074839 0.0018004292 -0.019234804 0.0010465826 0.020823061 -0.030251898 -0.014380589 0.008564972 0.011208926 0.014909396 0.011218166 7.621659e-05 0.013705159 -0.0250578 -0.01855786 -0.01281059 0.011403087 0.016004696 -0.0026015611 0.0023648886 0.026163345 -0.021395363 -0.016138714 0.025449224 0.006422422
10 0.01487615 -0.013659176 0.022266343 0.0034816484 0.008422212 -0.028333763 -0.0032623645 -0.013030784 -0.017046249 0.019635571 -0.015734607 -0.00044241446 0.013620863 0.017064158 -0.015413849 0.0181601 0.0146932965 0.019522058 -0.016107578 -0.00627076 0.0010162145 0.027257988 -0.0126113985 0.01590009 -0.013530159 -0.0072078826 0.006555767 -0.004146848 -0.0079100905 -0.015581435 0.006034463 -0.009616985 0.010693773 -0.0024652672 0.02187002 0.01687616 0.010009636 -0.012092679 0.023488635 0.024664033 -0.00522134 -0.0062366766 -0.0036455374 0.00419523 0.0072784396 -0.021762574 0.020206772 0.0067400057 -0.015964981 0.021666586 -0.018817546 -0.01797697 0.020941257 -0.01267394 -0.017193714 -0.01395801 -0.022045402 -0.017272498 0.022729466 0.0030807229 -0.021011027 -0.019898277 0.023797095 0.007947352 0.0076124165 -0.0061463825 -0.02737822 0.010905756 0.015635097 -0.0009497253 -0.02007349 0.008341337 -0.004279191 0.014749835 0.019118512 -0.0077905077 0.013237836 0.013525331 -0.011606631 -0.0042618867 0.026853388 0.020513069 0.02240998 0.019178307 0.0108317295 -0.019926649 -0.0133615555 0.008160752 0.016297469 0.02758397 -0.015484591 -0.02151573 -0.025196992 -0.029175295 0.012242317 -0.023172041 0.010899393 0.01378323 -0.010486378 -0.024500217 0.015589525 0.029076207 0.013295865 -0.011414059 0.008959596 -0.009099679 0.00965786 0.025708893 -0.023105804 0.012462834 0.019743577 0.024553182 0.002362431 0.015986256 -0.013879957 0.009563249 -0.023783777 -0.017711867 -0.019609999 0.025569398 0.010773329 -0.0034444595 -0.011856534 0.016793497 -0.019081268 -0.019283256 0.027414361 -0.0012653455
11 0.011578831 -0.010598586 0.026712155 0.020519765 -0.01323079 -0.0050907237 -0.011833602 -0.020157486 -0.010698744 0.01140235 -0.018262623 0.015995134 0.015886143 0.027843675 -0.0069962945 0.008381133 0.013533501 0.015553121 -0.02415939 -0.02393172 -0.011668227 0.011199325 0.01565842 0.018698141 -0.021129172 0.016945675 0.010728896 -0.010488001 -0.009698874 -0.004336999 0.023731768 -0.024233062 -0.019310376 0.008883385 0.014248046 0.020858305 -0.0014599803 -0.008737035 0.014112443 0.02187468 -0.008652104 0.00280294 -0.0063192323 0.002027276 0.025688063 -0.008162317 0.005360229 0.01645839 -0.01375339 0.016191889 -0.017043049 -0.0048252917 0.016995467 -0.018596664 -0.020783138 -0.0040857107 0.007702128 -0.023533085 0.0130222915 0.014727205 -0.005540901 -0.010379988 0.0042079 0.02871625 0.004607622 -0.021669317 -0.021152876 0.0026491869 0.013990642 0.016905166 -0.01809336 0.027807515 -0.0004579242 0.01738046 0.006193379 0.024681408 0.017643198 0.004960946 -0.014803443 0.013643121 0.015946964 0.018613124 0.014055949 0.016239196 0.011669008 -0.021260625 -0.01788429 -0.015297318 0.012582463 0.021192618 0.016855134 -0.009290916 -0.015494629 -0.009485818 0.00083658786 -0.01377653 -0.0016214793 0.020977091 -0.019064704 -0.017303105 0.015844407 0.030148849 0.017649047 -0.009619675 -0.013657501 0.0136650065 -0.01222766 0.018855436 -0.010924959 -0.025302147 0.020982683 0.017669948 0.006442226 0.025738912 -0.012942831 -0.004804761 -0.016359128 -0.017211147 -0.023954943 0.013849314 0.0099889925 -0.0014658256 0.011023708 0.03063088 -0.011636061 -0.0058110254 0.020310739 0.010247701
12 0.008752695 -0.022426406 0.013201036 -0.0030519606 0.0034406863 -0.014875653 -0.0009783283 -0.008707663 0.0067214104 0.008724576 -0.00015135307 -0.0014144558 0.02013113 -0.0039731646 -0.013161687 0.003446185 0.021280585 0.0054128864 -0.022647815 -0.011818949 0.012559032 0.01660249 -0.005898428 -0.0022259965 -0.017883085 -0.006434186 0.0064671007 0.012309654 -0.0042862506 -0.007851022 0.0073961765 -0.0046190987 0.008627214 -0.0032979713 0.025615737 0.018825918 0.019539677 -0.007436591 0.01350591 0.016197471 -0.011694353 -0.0029181468 -0.009740298 -0.00912646 0.015977431 -0.015915655 0.0049660765 0.0075159185 -0.017961029 0.014868594 -0.014834441 -0.0038618254 0.010305108 -0.02279236 -0.015782647 -0.016411312 -0.012045859 -0.002510062 0.014251247 0.0071717277 -0.017854495 -0.018662933 0.011130993 0.009500576 0.006521335 0.0013462858 -0.016347513 0.009426713 0.024339762 0.0053769546 -0.022240242 0.0064135343 -0.009086503 0.015934948 -0.0013767445 0.010399374 0.022510912 0.009139087 0.00087616575 0.0023493755 0.020314652 0.0106314 0.0075597237 0.014924483 0.01314929 -0.015539 -0.00896244 0.00810153 0.012998141 0.020197516 0.0017170326 -0.021634666 -0.023462217 -0.023247594 0.011132744 -0.016154222 0.00028921806 0.021379491 -0.014724614 -0.018019639 0.0042639067 0.026617933 0.0052384324 -0.005995082 0.008280231 -0.012727091 0.0013868532 0.006174721 -0.010207871 0.0026684757 0.0153829735 0.015045527 0.011789034 0.006878047 -0.012042815 0.01324178 -0.012198019 -0.004806991 -0.01957213 0.013813317 0.006396375 -0.0074778837 -0.0036438091 0.014712601 -0.012837009 -0.011932856 0.012253917 -0.0061659436
13 0.0065012765 -0.008988272 -0.0024563323 0.00033518506 0.014276329 -0.0011400615 0.023261834 0.005834259 0.01052706 0.00020721139 0.00064030546 -0.02307672 0.0048392345 -0.01827731 -0.01690152 0.00013617793 0.006141575 6.327094e-05 0.0036140552 0.009129303 0.0091238655 0.0012279416 -0.007625844 0.007143301 -0.004403601 -0.010896744 0.007696842 -0.0033481768 0.014522908 -0.00972982 -0.012697395 0.0057853376 0.009673108 -0.011810413 -0.00034328364 0.009303611 0.0045217024 -0.006799212 -0.0064452006 0.025551435 0.015790228 -0.0075769518 0.015957145 -0.011515394 0.014103054 -0.016250964 -0.0048437975 -0.0108334925 -0.0069043734 -0.0045471494 -0.01663731 -0.0059362645 0.007714498 -0.009059022 -0.013669433 -0.011322562 -0.013562401 0.011240759 -0.0016413948 -0.006950911 -0.009475354 -0.0022183089 0.022428267 -0.018749705 -0.008108844 0.008937277 0.009827434 0.011846363 -0.0027144405 -0.0024239162 0.009151341 -0.013028071 -0.0060597383 0.0041477606 0.0030074166 -0.008543107 0.0016063278 0.00842747 -0.0040075113 -0.014288158 0.015481062 0.0070366804 -0.005668349 -0.0025159952 0.0032225242 -0.008341204 0.008224937 0.01906582 -0.009991531 -0.0048744227 -0.016496716 -0.005151815 -0.001463457 -0.014642864 0.013168916 -0.019726692 0.0042441613 -0.0058200206 0.00804397 0.0007728622 0.011578023 -0.009097324 -0.005403428 -0.011608379 0.019472308 -0.018471442 0.01635654 0.0075671156 -0.0011160296 0.021142488 -2.9887247e-05 0.005557018 0.014578546 0.0065770205 -0.010065955 0.00911464 -0.012929294 -0.013654335 0.00589909 0.010131377 0.0049616075 -0.011868516 -0.01777949 0.00023589548 -0.014697846 -0.007187725 0.018431352 0.0089270305
14 0.015331159 -0.024037275 0.01704826 0.008086358 -0.019030988 -0.003908401 -0.0052677267 -0.020605525 -0.02195393 0.02414504 -0.0152594615 0.008027264 0.017337438 0.012312963 -0.022161588 0.0071021407 0.0056355665 0.01669881 -0.023919301 -0.019456286 0.0013864308 0.012845796 -0.0010441543 0.0019029176 -0.024097202 -0.014858267 0.01632009 -0.026290342 -0.00845955 -0.0077161877 0.002955607 -0.0067416686 -0.0013366131 0.014682242 0.017577406 0.009190965 0.015685221 -0.021496296 0.019812746 0.019220438 -0.012563603 -0.007161279 -0.012761997 0.014911649 0.015020581 -0.008904308 0.0071804444 0.017900413 -0.018152554 0.014606119 -0.019317716 -0.009361442 0.023697026 -0.012078847 -0.010490846 -0.02237337 -0.016456679 -0.019559989 0.020887895 0.014937383 -0.020949874 -0.024341123 -0.0006054211 0.017343417 0.0042902012 0.0032340437 -0.027130727 0.0044694133 0.020576136 0.014284283 -0.023526294 0.014394018 -0.015872538 -0.00034507387 0.0062236306 0.0074502146 0.020099109 -0.0018014592 -0.0013558053 0.017089894 0.02188139 0.01850968 0.012239436 0.015738474 0.0067693684 -0.020104146 -0.022879343 0.016309127 0.026026355 0.025634114 0.000585811 -0.012064076 -0.02176268 -0.025604947 0.024048511 -0.024975456 -0.011031739 0.023213206 -0.018637368 -0.02181019 0.0072934036 0.025073815 0.022709858 -0.015767999 0.0048304936 -0.015884921 0.00380016 0.02413706 -0.025424138 -0.008091492 0.015671557 0.015525696 0.020519983 0.016631912 -0.0093246205 0.013044494 -0.012337518 -0.012118258 -0.018454866 0.009455974 0.020607403 -0.008437459 0.0043042684 0.025481064 -0.026064629 -0.010094491 0.020896127 0.013986512
15 0.025186123 -0.0084276125 0.011926108 -0.007832873 0.0029285052 -0.015666986 0.00017305599 -0.005226367 -0.010489625 0.022643846 -0.0004144628 0.0071534095 0.0108932 0.00870973 -0.024440292 0.014802587 0.010776064 0.0129922675 0.00027128548 -0.0028395774 0.0026571334 0.011364472 0.008069618 0.023368204 -0.022470895 0.0064128214 0.005318591 -0.0031130223 -0.0101489555 -0.0026657358 0.019731915 -0.0039209784 0.004817802 -0.01069513 0.020982439 0.012209385 0.0049239984 -0.0092038 0.016427653 0.025619091 0.0026592503 -0.0019372567 0.01725308 0.00029746373 0.0037807145 -0.014725346 0.009197716 0.015145358 -0.016105257 0.008290626 -0.012710076 3.7234335e-05 -0.00046882406 -0.0071089324 -0.009447021 -0.0051972684 -0.0041109114 -0.01240534 -0.0017756901 0.021254633 -0.014258002 -0.009384928 -0.0010077808 0.015509703 0.015696134 -0.013397872 -0.005663908 0.013993047 0.012063625 0.011266583 -0.015714008 0.011134019 0.014178149 0.0075616585 -0.0028305273 0.0010519976 0.0027150894 0.0066784206 -0.009505344 0.0023988066 0.00051424315 -0.00041054614 0.00041633763 0.013703558 0.021630367 -0.0126371635 -0.013527589 0.0125455 0.010191231 -0.0011402208 -0.006157385 -0.0026559718 -0.0051996293 -0.007487475 0.0025640007 -0.02258806 0.0068841227 0.005777215 -0.013856683 -0.02087126 0.011100377 0.009356473 0.0144229075 -0.0057581193 0.00087587885 -0.0024518287 0.008114293 0.0046108826 -0.009318837 0.0013538067 0.019360924 0.007686692 -0.0012429375 -0.009831495 -0.020181049 0.0097182635 -0.016122876 0.008925745 -0.015924243 0.012381255 0.004236795 -0.004699248 -0.024566544 0.01229789 -0.010625257 -0.022165373 0.007976388 -0.013526129
16 0.016257131 -0.0158585 0.028687105 -0.005853369 0.007651773 -0.026162256 0.00743146 -0.00801764 -0.006494176 0.017924 -0.0042834333 -0.013755171 0.024000755 0.006892991 -0.016032577 0.0069268662 0.014181739 0.0036347383 -0.019265367 -0.01540064 0.0029892616 0.023208076 -0.008634532 0.020472735 -0.024065057 -0.013732793 0.0057451352 -0.01396062 -0.008645989 0.0009852841 0.022465305 -0.0129527 0.0080349725 -0.012138328 0.025222244 0.028161444 0.009182384 -0.018091425 0.01503976 0.02346855 0.0034412113 -0.007956874 0.014095054 -0.008785634 0.008921855 -0.015124941 0.014199158 0.014292154 -0.027633686 0.022121994 -0.02730608 -0.01870436 0.025353536 -0.022568649 -0.025005171 -0.024092708 -0.011616693 -0.021848066 0.014451694 0.012488146 -0.024654511 -0.024637975 0.02211651 0.01587104 0.018754467 0.0026568298 -0.028156294 0.015475344 0.017224122 0.015715066 -0.02522031 0.018995982 0.008670246 0.013664944 0.0012096565 0.0020335244 0.012383417 0.011878262 -0.010099593 -0.009578183 0.017854363 0.021616451 0.0110644875 0.022126518 0.0057673613 -0.017075373 -0.01010683 0.013530745 0.020460289 0.02407873 -0.01331543 -0.013217508 -0.014240391 -0.023392515 0.012148707 -0.021198425 0.008450837 0.025260609 0.00067586236 -0.026961453 0.021760678 0.021049445 0.01792074 -0.012631745 0.011522909 -0.012015266 0.023072734 0.020969087 -0.0120546715 0.011305741 0.026555358 0.025831932 0.011322198 0.010287952 -0.008391292 0.010752507 -0.026940687 -0.018955825 -0.024306415 0.018414818 0.00489699 -0.012963006 -0.007980242 0.021730071 -0.021732043 -0.013110624 0.018018134 -0.007870056
17 0.028534248 -0.01650577 0.019757682 0.007145348 -0.0014533141 -0.025304833 -0.008958957 -0.007653564 -0.018674029 0.010067541 -0.009883965 0.0067273215 0.023510806 0.0098342635 -0.008571133 0.00416643 0.01641602 0.018241925 -0.018940192 -0.020187257 -0.0013451675 0.018513875 0.007167404 0.015158937 -0.009195621 -0.0018197078 0.0070213694 -0.01401398 -0.010748841 -0.0051268507 0.019993918 -0.011189142 -0.008693327 0.0050900923 0.009506334 0.0150817465 0.010286169 -0.013171004 0.013036735 0.028320434 -0.000867223 -0.0114589585 -0.007256505 0.0048645395 0.02062989 -0.010786088 0.014261282 0.017402008 -0.010365667 0.0075184773 -0.016425453 -0.014799799 0.008972686 -0.00629775 -0.0043955594 -0.0057055717 -0.0012379733 -0.016777774 0.017166678 0.016281227 -0.015321261 -0.0102724265 0.01130321 0.016884333 0.012386506 -0.01144939 -0.0039046959 0.0060869884 0.018429222 0.0046575363 -0.013953677 0.014053492 -0.009003222 0.023107607 0.005798524 0.0149470875 0.0072788354 0.0036089693 -0.027671423 0.014509477 0.010111627 0.015281258 0.014815293 0.012443907 0.01742326 -0.012139052 -0.015608161 -0.008751942 0.015962277 0.0053047715 0.005903984 -0.0137427235 -0.020061798 -0.010071601 0.017672151 -0.021692803 0.0011219858 0.015107869 -0.0027484081 -0.009813304 0.016909804 0.01585184 0.0063212495 -0.008315831 -0.00065555004 0.008399402 0.00020667883 0.016144548 -0.016052801 -0.004923402 0.008405733 0.017356062 0.006487004 0.011767338 -0.009070241 0.022068754 -0.019138776 -0.004180775 -0.0075451806 0.020692596 0.014203757 -0.004730737 0.00093487056 0.025224546 -0.008703066 -0.02250787 0.018831652 -0.00969986
18 0.026032198 -0.024561953 0.02887223 -0.025372135 0.01810861 -0.01863637 0.014831469 0.015750026 -0.022503851 0.028532235 0.015073277 -0.015925491 0.024232473 0.028156327 -0.026497561 0.018562686 0.015004501 0.0090297805 -0.01812207 -0.015628932 0.019427776 0.01834799 -0.021701138 0.022973396 -0.022651775 -0.027275674 -0.018580038 -0.02370088 -0.02915577 -0.0013289638 0.028970603 -0.017435405 0.03005149 -0.020507175 0.023965277 0.016311975 0.012282426 -0.023584759 0.015642302 0.02662942 0.02624947 -0.02577181 0.017524393 -0.023049576 0.01331563 -0.029330151 0.020065717 0.025939353 -0.03000593 0.017167138 -0.027071487 -0.014077297 0.02249476 -0.024515456 -0.02369703 -0.015091745 -0.024742533 -0.017530255 0.029871125 0.029190535 -0.020188246 -0.020124534 0.015513088 0.020922152 0.021451827 -0.020515371 -0.024628252 0.028257962 0.01936431 0.01164972 -0.025793465 0.02940537 0.013648359 0.020850662 -0.007114241 5.4887554e-05 0.01711719 0.017622728 -0.015642276 -0.018996574 0.016268918 0.018780617 0.01741248 0.02295847 0.024218582 -0.024668653 -0.014967039 0.020934762 0.020429458 0.018667366 -0.026749058 -0.014691323 -0.023387406 -0.025598783 0.01964111 -0.025189273 0.016834173 0.018710446 0.016829923 -0.02901121 0.015747001 0.030144816 0.028909711 -0.016601153 0.02122957 -0.024938019 0.016167175 0.017182328 -0.028103994 0.017862359 0.01757444 0.024633639 0.010291436 0.01292488 -0.017211003 0.015177429 -0.015211679 -0.012401141 -0.024135265 0.017471747 0.011491316 -0.025158584 -0.021262653 0.021160677 -0.021815507 -0.020916723 0.01572729 -0.025035234
19 0.018365031 0.008444513 0.017526958 -0.020314038 0.0022310466 -0.005215293 0.009796066 0.016088616 0.0008998929 0.009669432 0.02123706 0.0009780547 0.023352237 0.013801179 -0.011521858 0.0011323838 -0.00396314 -0.018392554 0.0012209773 -0.001402227 0.0004474796 -0.011879357 -0.003971716 0.01891487 -0.0016819909 -0.0064278236 -0.019332672 -0.01802391 -0.015732659 0.006161742 0.00786965 -0.016580716 -0.0055417637 -0.021588406 0.00967342 0.017975021 0.02096459 0.003767862 -0.0069705714 -0.012390247 0.023406204 -0.0034045498 0.010448352 -0.011740464 0.0030733827 0.006028942 0.010915933 -0.0025489978 0.00051521277 -0.008645095 -0.007879542 0.0016389093 0.00087833253 0.009941477 0.0036374214 -0.004824308 -0.01309222 -0.003302251 0.0074547795 0.0057643964 -0.01027034 0.012473523 0.0011273168 0.016927984 0.020316476 -0.013665873 -0.002171981 0.01037175 0.0028612183 -0.009441798 -0.0043348693 0.01132082 0.019888164 -0.0011405617 -0.019327018 0.00791102 -0.0077084354 -0.0012201192 -0.014150878 0.002061508 -0.015260611 0.0038332823 -0.004613225 -0.0052821436 0.019428365 0.012545604 0.012585507 0.012694106 -0.0043163337 -0.0021429446 0.0008570561 0.0052877474 0.012160773 0.0121065825 -0.010629969 0.005479599 0.020407207 0.003734094 0.013088915 -0.0026659556 0.014084043 -0.0006733062 0.012759598 0.0014299777 0.004657688 0.0041632266 0.0045930017 -0.0066917557 0.008380167 0.012567304 0.007961059 0.017440313 -0.020278633 -0.009198345 -0.019418024 0.0015987582 0.0033627304 0.010838894 -0.0027163594 0.013608973 -0.014697073 -0.027085649 -0.026023438 0.0041245837 0.0005473032 -0.010712774 0.0013945746 -0.0071107564
20 0.013663051 -0.011278238 0.016546445 0.003549044 -0.0073504103 -0.01957555 -0.0010448995 -0.009141834 -0.01623983 0.025936112 -0.0045740446 -0.0030994588 0.026364055 0.01731093 -0.020852001 0.00671556 0.017967205 0.01307264 -0.01374738 -0.013471986 -0.0067883404 0.019127687 0.0025466192 0.0057636183 -0.012948851 0.004504197 -0.0011072888 -0.016983062 -0.0062924544 -0.0013908556 0.021177668 -0.014067435 0.00076227204 -0.0056829615 0.012939916 0.019739943 0.007956974 -0.020775601 0.02311452 0.0152890645 -0.0059768474 -0.004872676 0.0012439898 0.0053089065 0.00957171 -0.015967257 0.020403488 0.01529975 -0.011085464 0.017537571 -0.022374265 -0.023792889 0.020363072 -0.020074772 -0.018485121 -0.017800443 -0.008378057 -0.02110456 0.016217375 0.022978187 -0.017611887 -0.008235788 0.027304528 0.02079306 0.011712341 -0.02061904 -0.016341513 0.0066976906 0.026590835 0.013829121 -0.019661706 0.025540631 0.0023742325 0.018244497 0.0031061405 0.010218096 0.012648202 -0.008317165 -0.016429031 -0.00074356265 0.02354664 0.021493146 0.0106304195 0.025265826 0.018188631 -0.027009096 -0.020775426 0.007874118 0.017347544 0.011139431 -0.0062409625 -0.015202529 -0.011896535 -0.026183434 0.021540396 -0.023460824 0.00330262 0.019927688 -0.005941147 -0.025298638 0.016082592 0.026282305 0.015283092 -0.016745182 -0.007507931 -0.021101726 0.010063498 0.025195377 -0.020383975 0.0015145468 0.020644896 0.022345945 0.0030486258 0.01626653 -0.005797895 0.01902303 -0.01771588 -0.01423628 -0.014117148 0.018307073 0.011515881 -0.0086894035 -0.004990989 0.021376388 -0.015141791 -0.01543993 0.025185317 -0.00014934943
21 0.015058149 -0.025391528 0.020849397 0.013602094 -0.01665043 -0.02536549 -0.013128473 -0.014185638 -0.013908969 0.026819047 -0.012405678 0.00016950144 0.017122284 0.022870863 -0.0045736344 0.017609525 0.017286 0.0114492485 -0.01665583 -0.022677511 -0.009477201 0.012003294 0.017600702 0.009201194 -0.012313106 -0.012443316 0.016112529 -0.0044255517 -0.016908012 -0.019272342 0.02827248 -0.018506035 -0.0011872198 0.003465145 0.01826393 0.020609753 0.0083525395 -0.019416707 0.02183717 0.026853817 -0.00776147 -0.0075009484 0.008148961 0.0008600116 0.008881997 -0.012424337 0.018352468 0.01243734 -0.0242591 0.016115272 -0.018166924 -0.0018426576 0.023647936 -0.014143878 -0.012980215 -0.01981647 0.009100997 -0.021288183 0.015086367 0.014103238 -0.01402671 -0.009601215 0.023446824 0.021527411 0.019978557 -0.0121704675 -0.028428204 -0.00071656023 0.027523372 0.01682689 -0.019377775 0.017026277 0.0061418023 0.0138644595 0.008404944 0.013749423 0.012581646 -0.008118145 -0.01890659 0.0075783627 0.018872278 0.019817844 0.016631015 0.023668118 0.027165549 -0.023636559 -0.019045698 -0.0031019463 0.017331826 0.021248676 0.0018703897 -0.023119256 -0.015625717 -0.025590738 0.020219153 -0.023215618 0.01489386 0.02423685 -0.01534207 -0.017870825 0.02087731 0.026027847 0.019024115 -0.02536923 -0.0051170695 -0.017993623 -0.0011953989 0.0127935475 -0.02203939 -0.015969394 0.02171039 0.014774762 0.020705711 0.018865533 9.881164e-05 0.0040890183 -0.027927423 -0.01614742 -0.015288454 0.019792259 0.010359234 -0.011918082 0.012572933 0.015029418 -0.026979174 -0.025107035 0.021406945 0.00298066
22 0.017921872 -0.0124946125 0.012618751 0.0014427587 -0.014832701 -0.01535068 -0.007119793 -0.0070286826 -0.019676622 0.012934138 -0.015222948 0.023168135 0.016238946 0.01904735 -0.0050840788 0.02674891 0.020814681 0.019596834 -0.020020407 -0.009108876 -0.003929745 0.015452217 0.020240977 0.015344298 -0.012088161 -0.008782674 0.011256855 -0.015978448 -0.01509532 -0.011392171 0.018219648 8.723466e-05 -0.020995282 0.0032827898 0.01304081 0.016410192 0.02249121 -0.019407816 0.011770219 0.016271299 -0.004645053 -0.00597998 -0.013076462 0.015346079 0.012849948 -0.005013491 0.008432731 0.007980797 -0.020803556 0.0069425814 -0.027500365 -0.0076490967 0.011746936 -0.019926306 -0.005458582 -0.017785551 6.733736e-05 -0.024261048 0.026961988 0.009215861 -0.01552116 -0.0045591537 0.01682537 0.01327593 -0.009018884 -0.0006613358 -0.017080365 -0.004231909 0.020217774 -0.0015410823 -0.0138737 0.021973372 -0.009837178 0.014926923 0.0028079923 0.011907923 0.016416151 0.000837167 -0.016926872 0.012215632 0.01665404 0.0054745297 0.011774703 0.010454085 0.009719656 -0.019007763 -0.01484336 -0.009677709 0.015942143 0.021387907 -0.0030704045 -0.018428966 -0.011285284 -0.02744428 0.013825179 -0.0030924645 -0.009155715 0.015320642 -0.007982441 -0.022192733 0.012655548 0.019346895 0.0031108705 -0.01308488 -0.0022492672 0.0019458187 -0.00619801 0.016255401 -0.014004619 -0.012797766 0.020767549 0.017914249 0.01900745 0.0027565595 -0.01938114 -0.00077561114 -0.029122407 -0.013030993 -0.01597346 0.023581143 0.015356325 0.0004815865 0.00063935097 0.0134859495 -0.021838602 -0.026400054 0.025690855 0.005932182
23 0.017949546 -0.027380198 0.028343514 -0.0048962594 -0.013681568 -0.019452017 -0.0060575367 -0.0077996226 -0.010786916 0.014804153 -0.013291589 0.010785014 0.025654543 0.028424159 -0.012264909 0.0113620795 0.02401478 0.014279988 -0.02776319 -0.0136455605 -0.010181312 0.027448408 0.0059605 0.012095382 -0.023926646 0.002495957 0.0071488516 -0.012265227 -0.0130042825 -0.013369592 0.017284324 -0.026549403 -0.00901289 0.0009830769 0.015306706 0.015801057 0.0066681383 -0.024109632 0.020744173 0.015999233 -0.008820182 -0.003696375 -0.00085691223 -0.002095007 0.011663079 -0.02904649 0.020742843 0.022350673 -0.024150856 0.023025801 -0.018023446 -0.015565274 0.016880663 -0.02013473 -0.020215986 -0.017834542 -0.010258719 -0.029930154 0.021536343 0.024559557 -0.024127183 -0.0201877 0.024634987 0.025951903 0.02803098 -0.013701452 -0.025016189 -0.00032804755 0.019999955 0.008346332 -0.0248347 0.028619861 -0.0021464366 0.014254584 0.002063241 0.0071536307 0.01360306 0.00057926215 -0.03032622 0.0027425243 0.01567064 0.017309317 0.020447165 0.015115195 0.020768529 -0.017507568 -0.014996684 0.008962948 0.02534032 0.021913571 -0.0037978494 -0.0132518215 -0.024664186 -0.01724156 0.030010065 -0.022466294 0.020091426 0.026355535 -0.007922668 -0.02437899 0.015652109 0.02887677 0.025053699 -0.012587179 0.0015792013 -0.022442764 0.013921287 0.017699985 -0.020910803 -0.003236282 0.01945485 0.028326828 0.021469982 0.016777046 -0.013602499 0.009804598 -0.023143902 -0.015829308 -0.016042905 0.010181649 0.012720106 -0.017077457 -0.0042378013 0.02662751 -0.020357141 -0.0154290665 0.02436685 -0.001513625
24 0.005782675 -0.02156729 0.01483354 -0.0045784987 -0.0072945305 -0.024110325 0.004682313 -0.00040143216 -0.014645415 0.00976437 -0.010733769 -0.0042349645 0.022273844 0.019857643 -0.017057706 0.018870236 0.01728217 0.0050859577 -0.01446305 -0.015441691 0.0047174953 0.012515891 0.010727443 0.022565834 -0.020221436 0.002852103 0.00018007442 -0.020279491 -0.019866696 -0.0125838565 0.02524001 -0.025123704 -0.0074503957 -0.010762648 0.02566556 0.015971899 -0.0028248224 -0.01249961 0.013183784 0.016648466 -0.00087200495 -0.011945706 0.000906806 -0.008680001 0.016373968 -0.016302532 0.02293527 0.0176178 -0.022920184 0.017794853 -0.027980635 -0.01505305 0.01864765 -0.013161256 -0.014197644 -0.006817493 -0.014636217 -0.019833013 0.012966289 0.011939732 -0.01395188 -0.011539634 0.0068404563 0.011755807 0.021725947 -0.004943347 -0.019783182 0.0026076015 0.020940386 0.013818888 -0.017488532 0.021014225 0.007445257 0.010791159 0.019365136 0.013651074 0.008741886 -0.0020353608 -0.021835797 0.010037665 0.01941684 0.025012989 0.013074495 0.0149646625 0.005015602 -0.023783363 -0.021930698 0.011089357 0.025033757 0.020102594 0.00013366013 -0.023596697 -0.016617803 -0.013863664 0.017914576 -0.018854713 0.021876302 0.019286823 -0.010915813 -0.020681983 0.008742763 0.022896115 0.01924412 -0.025015298 -0.008285377 -0.017647695 0.006175112 0.02392086 -0.017208919 -0.0052263327 0.022143058 0.012876368 0.012951617 0.012465182 -0.0025176904 0.01593955 -0.024849687 -0.0017194482 -0.025030022 0.020703444 0.013932025 -0.018926106 -0.0025035765 0.025389144 -0.019148648 -0.026795402 0.0157936 -0.0010699608
25 0.018821593 -0.0009050457 0.0020577186 -0.018700046 -0.008148286 -0.016127856 0.007202249 0.008095743 0.0006121258 0.0040973825 0.008393191 -0.0050161914 0.024406042 0.015466653 -0.02250124 0.005669861 0.0010785235 0.0048262095 -0.00059863186 -0.004804971 0.008782952 0.0022447328 -0.004860521 0.0072890716 -0.006934307 -0.005714448 0.0015635304 0.0001699262 -0.0012381902 0.0013195584 0.011097138 -0.022152113 0.010306946 -0.004691989 0.006724259 0.013345929 0.011143116 -0.008876136 -0.0027074902 0.026620211 0.005201051 -0.004978397 -0.0040350617 -0.006068567 0.013173873 -0.020593861 -0.009135393 0.015425481 -0.00435666 0.010621338 -0.018812316 -0.009305426 0.008838612 -0.011567257 -0.0050819 -0.005169181 0.0039359317 -0.005140106 0.014709617 0.008693391 -0.017251853 -0.0014173487 0.014057498 -0.0017912439 0.019805355 -0.0017120781 -0.009549168 0.014076391 0.01927005 0.007335839 -0.011590486 0.012032292 0.010008617 0.013904143 0.0023443762 0.008184924 0.011429896 0.007485207 -0.017246593 -0.010609027 0.013772706 0.018647254 0.0036460515 0.009025033 0.0031581195 -0.0018866747 -0.0031285412 0.015217376 -0.002571112 0.0021535424 -0.007448134 -0.013301901 0.0023238426 -0.01256132 0.012743446 -0.013324295 0.00040174415 0.010756745 -0.009697562 -0.013756956 0.0106767835 0.003089305 0.010808424 -0.0028051888 0.00919931 -0.0045005204 0.01629491 0.016720302 -0.0029705758 0.004797589 0.017724443 0.023770502 -0.0014534278 0.0015640222 -0.012921607 0.001265778 -0.017998045 -0.012127338 0.0059827804 0.01045303 0.017746037 -0.0044402955 -0.01329331 0.010156339 -0.008437645 -0.012452827 0.009610438 -0.0024933943
