26 128
0 -0.013011524 -0.019325381 -0.016014278 0.012339103 0.005388345 0.013421146 -0.0019031509 0.0080089625 0.010093227 0.004461549 -0.0022501815 -0.008242544 0.017126169 -0.0045356858 0.0047580907 0.00043073494 0.010157275 0.01863715 -0.013660484 0.013855898 0.017078975 0.008512347 -0.005686641 -0.0024637228 0.008688719 -0.02468505 -0.0062080035 0.01826848 -0.0011284493 0.008812745 0.011224686 0.0151834935 -0.019557137 0.015695293 -0.012132845 -0.0037581227 0.0031055303 -0.008502294 -0.002696237 0.00030936714 -0.008517529 0.009800391 -0.0038478817 0.016801333 -0.010599398 -0.009973573 0.008102189 0.007747684 -0.010460833 0.010060238 -0.012356145 -0.008346451 0.006636013 -0.014261571 0.01605877 -0.00680396 0.017437125 -0.01172239 -0.010948713 -0.0015050862 0.0005502977 -0.0064156638 -0.0090759965 0.020428076 -0.010088608 -0.023474695 -0.0020959105 -0.006894916 0.0028593906 -0.021455042 0.008581641 -0.008724371 -0.0054028207 -0.016201153 -0.017983807 0.0049256226 -0.007474521 -0.009102288 0.005728624 -0.012249197 0.020107642 -0.019800343 0.016391722 0.0021316113 0.0149803115 0.00783936 0.0080680465 -0.007494097 0.01710821 0.003385778 -0.005827764 0.017176913 -0.016831355 0.0173501 -0.0041660066 -0.014132114 -0.007816104 -0.0035356474 -0.009890552 0.012680043 -0.0013132228 -0.0029743453 -0.0013164139 0.0084439935 -0.010443302 -0.020805007 -0.0039773523 -0.0043165083 -0.0072646597 -0.014397117 0.015202342 0.01321646 0.008721129 -0.0064708795 0.014632278 -0.002245163 -0.013004266 -0.015438939 -0.009924449 0.010237039 0.016815607 0.010361952 0.019934967 0.016875839 0.0027465313 -0.017627448 0.0026315162 -0.0073744664
1 -0.022587352 -0.028325677 -0.019529652 0.0045208554 0.032159954 0.025760733 0.0046800533 0.027431497 0.028948072 0.01253361 -0.001220444 -0.01524136 0.018057073 -0.022170018 0.0065473523 0.006245515 0.01892936 0.008661884 -0.016539507 0.0073168427 0.015636347 0.027392505 0.0006046726 -0.021617895 0.015460856 -0.008284789 -0.0004623557 0.025759736 -0.014094191 0.02181932 0.026755214 0.018037975 -0.029425649 0.02533725 -0.020356597 -0.001796448 0.022446651 -0.01331563 -0.006003788 -0.00023342727 -0.017188894 0.02634244 -0.0018313734 0.017445084 -0.017753031 -0.020112537 0.008109778 0.018734774 0.0026247078 0.021604445 -0.024638703 -0.0053300345 0.016394585 -0.009046162 0.010366406 0.0214238 0.016721327 -0.0066596093 -0.009972465 0.01936602 0.013591411 -0.017443992 -0.012859627 0.020384042 -0.022381347 -0.02827829 -0.017706007 -0.0033631395 0.020371115 -0.02347409 0.014515769 -0.006643396 -0.015939524 -0.025481282 -0.027634405 0.02029204 -0.007126916 -0.016726172 0.01801142 -0.025834363 0.018962832 -0.014144859 0.01494564 -0.012153486 0.02071882 0.007769052 -0.002622889 -0.015752556 0.017828949 0.026108857 -0.01064017 0.0066583576 -0.017016875 0.0076051946 -0.013499625 -0.019296441 -0.00096564036 -0.011486307 -0.025838086 0.007511337 0.016226832 -0.0032221414 0.015164638 0.007104327 -0.022588456 -0.021931188 -0.0065041087 -0.020110633 -0.026591092 -0.023033736 0.028520556 0.0148875145 0.015222861 -0.030877212 0.00823677 0.010184437 -0.01895038 -0.009411088 -0.024375692 0.022605762 0.023126926 -0.0013369839 0.017441878 0.017617635 -0.0067651286 -0.011534058 -0.011026807 -0.02263245
2 -0.018677145 -0.02700345 -0.012608985 0.009777808 0.012185381 0.014346315 -0.012054875 0.01567377 0.016142607 0.018446494 0.0058417614 -0.010950682 0.025703855 -0.01585848 -0.014753213 0.0081864 0.011819321 0.02057064 -0.012345108 0.008558439 0.011665377 0.021228915 0.0007878979 -0.016521692 0.016214024 -0.011497479 0.0041825916 0.011902055 -0.013153877 0.025295923 0.017164377 0.00097113755 -0.020878123 0.018593378 -0.022306135 -0.01499219 0.01444578 -0.0050820545 -0.008166716 -0.012941808 -0.010823045 0.013663474 -0.007837072 0.019093247 -0.01443597 -0.01808841 0.0053638676 0.012012728 0.004473458 0.008536416 -0.020910135 -0.00046628434 0.01052938 -0.0032316125 0.017681705 0.013047626 0.014403409 -0.0040603345 -0.008587877 0.011187518 0.02139517 -0.010178363 -0.013722268 0.017398959 -0.020123258 -0.007348835 -0.016139254 0.006098868 0.013749297 -0.014183663 -0.0013573187 -0.0023983584 -0.018590953 -0.013311934 -0.023661012 0.017800797 -0.021279667 -0.023675028 0.022118477 -0.016076984 0.01617258 -0.012829136 0.024956757 -0.008571446 0.012501703 0.016428083 -0.013888862 -0.006314253 0.024874482 0.013468838 -0.012756219 0.009762769 -0.017559856 0.0024858795 0.0022315811 -0.014324855 -0.015085618 -0.025838004 -0.021129409 0.009435761 0.013581671 0.0020578357 -0.0013619345 -0.0017614552 -0.011034351 -0.02365651 -0.002038484 -0.010022965 -0.021612667 -0.021081042 0.013849682 0.007887554 0.016724173 -0.02134266 0.009211893 -0.0053966446 -0.0216075 -0.019758364 -0.014441992 0.023496894 0.018718645 0.024650209 0.019301228 0.021982508 0.0031450354 -0.024119925 0.002080705 -0.01597178
3 -0.015633611 -0.010052492 -0.011645859 -0.0025498555 0.007464254 -0.0024330253 0.00020100382 0.011439913 0.0031538315 0.006703897 0.0059560733 -0.009151866 0.015458412 -0.013709198 0.0014317277 0.007933169 0.012457465 0.013740151 -0.013720488 0.010230128 0.013429741 0.013390539 -0.004246834 -0.0059738536 0.0042644525 -0.019168375 -0.008128064 0.0035009526 0.0011409372 0.001197546 0.014292283 -0.004077787 -0.0063449773 0.016498134 -0.013400059 -0.009812657 0.0007929935 -0.0054201935 0.01817574 -0.00020039664 -0.015801715 0.014277415 -0.0021715306 -6.0425198e-05 -0.010229103 -0.013539738 0.0015269741 0.015493571 -0.0010220463 0.009842809 -0.009594967 -0.0023143364 0.009004607 -0.00034134774 0.008697361 0.0081053395 0.004464905 0.004030082 -0.0065996586 0.018564908 0.013548665 -0.010824613 -0.006160912 0.012127744 -0.025272185 -0.009197985 0.0012697305 -0.004041401 0.0020647813 -0.019435296 0.0021809398 -0.0041660583 -0.01598956 -0.016133828 -0.02151064 0.017921437 -0.0008985874 -0.017559728 0.01135908 -0.0032099357 0.009559778 0.0025088047 0.005836937 -0.0069846404 0.0020271344 0.00075650134 0.0027351533 -0.00816192 0.016889986 0.013511449 -0.007834309 0.012251682 -0.007825465 0.001728986 2.9295497e-05 -0.01627689 -0.0080076335 -0.008215254 -0.013376356 0.013635061 0.00859846 0.0059630116 -0.0032177137 0.0043334286 -0.000748785 -0.0074485242 0.006751982 -0.011366012 -0.020348955 -0.012829816 0.011678343 0.013372652 -0.00074370165 -0.010768551 0.011010823 0.008509408 0.00030909313 -0.012393567 -0.019542469 0.00783734 0.008067363 0.009251031 0.003940301 0.011670862 0.0020792556 -0.0107940575 0.007158403 -0.017794415
4 -0.015955111 -0.02250888 -0.011256366 0.017115666 0.0077464553 0.0100714015 0.0059716185 0.01919737 0.022473559 0.017666208 0.00021912369 -0.020060267 0.024535293 -0.017918846 0.0018733881 0.0072719604 0.013454127 0.014670422 -0.011963023 -4.0105602e-05 0.023592912 0.021224208 -0.009852589 -0.0056566317 0.016783418 -0.015099468 -0.004859385 0.012917707 0.00043493597 0.024018079 0.0155822765 0.024500733 -0.019163083 0.014571815 -0.020444028 -0.00019235199 0.011574582 -0.0030327542 -0.0026932259 -0.011509418 -0.017365154 0.01076977 -0.0038442658 0.019882603 -0.0038880147 -0.024369378 0.010480644 0.017948348 0.00469688 0.010559535 -0.015432508 -0.012896907 0.022797069 -0.018744418 0.00747013 0.0045301155 0.008832569 -0.007855255 -0.021684177 0.0074536214 0.014424904 -0.00019997172 -0.008138097 0.023198886 -0.022344518 -0.0146338055 -0.016191617 -0.002226274 0.012302572 -0.017992761 0.009066498 0.0047908532 -0.004122509 -0.019786982 -0.015414922 0.015585193 -0.009940262 -0.021747567 0.017572846 -0.018553639 0.017529633 -0.015185004 0.02450388 -0.006262386 0.020812409 -0.008978169 0.0010065518 -0.006964663 0.019087702 0.01872889 -0.014155643 0.009952849 -0.011019413 0.021199986 -0.0060773557 -0.019875083 0.007821557 -0.013223313 -0.02301758 0.005063757 0.0045472276 -0.0030101805 0.008601311 0.009101244 -0.024222862 -0.02070145 -0.014639311 -0.010496248 -0.019550914 -0.022016943 0.015235066 0.0047692023 0.019080294 -0.012508605 0.0017657194 0.0037302608 -0.016630804 -0.0104541425 -0.01383872 0.00779818 0.008067627 0.011007363 0.014436991 0.015898613 -0.012650829 -0.008448642 -0.009955892 -0.01172842
5 -0.015919114 -0.020617409 -0.0124452505 0.00048588667 0.018904096 0.01150559 0.0013791199 0.015680982 0.023034189 0.01461132 -0.0036628216 -0.01651854 0.0016403726 -0.013055086 -0.0062230146 -0.008159323 0.016748002 0.012962159 -0.010560353 0.0137426965 0.022327838 0.023732832 0.013713193 -0.0177557 0.021538569 -0.0086354455 -0.012160394 0.011881455 -0.016043987 0.010442111 0.015405657 0.002822506 -0.023219949 0.019105634 -0.0047435835 -0.00879563 0.004025378 -0.015016614 0.0068207365 -0.0038778437 -0.010855026 0.021134995 -0.007315543 0.012674793 -0.018382551 -0.016741259 0.00014966405 0.02011443 -0.001931138 0.007314095 -0.017000895 0.01350315 0.011478682 0.005841034 0.014386136 0.017444424 0.010316498 -0.010244425 -0.0025167419 0.010071704 0.008577854 -0.006858295 -0.012274116 0.018415332 -0.027422797 -0.027148746 -0.015777485 -0.012107892 0.017744819 -0.00077555835 0.0039307657 -0.006213498 -0.020241583 -0.022817547 -0.012682493 0.013416648 -0.010604918 -0.013192175 0.014833889 -0.014847717 0.019358711 -0.011349974 0.017230501 -0.012859022 0.014230883 0.013216614 0.008729366 -0.018794565 0.0051935446 0.022824585 -0.013538158 0.010444169 -0.022279484 -0.0060649086 0.00049291924 -0.019116376 -0.013184924 -0.015120137 -0.017483607 0.009336939 0.012076322 0.0040643313 0.0022363442 0.0021496026 -0.019912185 -0.020075133 -0.009367374 -0.0012374835 -0.018454498 -0.007615474 0.0227509 0.016548336 0.017754052 -0.023547579 0.017929815 -0.008540604 -0.01203086 -0.0069215284 -0.009788016 0.028024118 0.011356243 0.001468525 0.014398918 0.022639899 -0.012296684 -0.018227646 0.014860958 -0.016804425
6 -0.014640607 -0.0031680774 -0.004336309 -0.013731515 0.0075467224 0.013529731 0.00035374518 0.0021634642 0.0017583882 0.017212613 0.010968119 -0.00839204 0.010042454 -0.0045246226 -0.008809155 0.019410465 0.012914649 0.0044726445 -0.017971054 0.0024992323 0.008566077 0.012217487 0.0041640876 -0.019673929 0.011995479 -0.009972924 0.0036528765 0.0032400913 -0.007112614 0.0010332919 0.011998667 -0.003339163 -0.0044002244 0.015270195 -1.2916571e-05 -0.01274026 0.02483615 -0.0148387505 0.011819461 -0.008655607 -0.014472317 0.009843507 -0.00668533 0.0033003348 -0.017864387 -0.0033185824 0.009495317 0.010480088 0.0049528237 0.024030365 -0.012055934 0.011654975 0.0084125865 0.00794682 0.011171037 0.003378442 0.008199061 0.0069365646 -0.013315751 0.01139055 0.015802056 -0.009154855 -0.0096921045 0.007917886 -0.011515318 -0.013420493 -0.0013376307 0.004753887 0.011098271 -0.012457506 -0.0042822175 -0.0046420414 -0.017312052 -0.002666093 -0.01778827 0.018415097 -0.002848876 -0.0127317235 0.018658869 -0.015291127 0.013572984 0.0010572125 0.011640916 0.0027356066 0.002941933 0.004765102 -0.009564985 -0.0020678698 0.020718679 0.010544749 -0.020476345 0.00013491197 -0.0031023747 -0.0028502983 0.0137466 -0.017660778 0.0013517506 -0.009533597 -0.021200739 0.023021843 0.013858111 0.011269311 -0.008339394 -0.008498606 -0.00652256 0.00033986097 0.0055914554 0.0017163737 -0.010578461 -0.006693932 0.006597748 0.00705595 -0.0038496396 -0.024512256 -0.0017332392 -0.004340975 -0.0011531741 -0.01691793 -0.012223492 0.013818254 0.008870058 0.0112663945 0.0050523193 0.01907851 0.006544619 -0.0034651097 -0.0023967328 -0.019283507
7 -0.0042899833 -0.019348806 -0.015823876 0.0131996535 0.003301995 0.015698725 -0.0026362056 0.016288688 0.020171 0.016791236 -0.009966402 -0.01942295 0.014605045 -0.0071315276 -0.0015336534 0.004970512 0.008402198 0.0029916214 -0.003036997 0.017672962 0.012093073 0.0055381125 0.00690622 -0.014052427 0.013148633 -0.020229036 -0.0143046705 0.008370818 -0.014735804 0.02019269 0.013307765 0.0012543256 -0.020091139 0.019027995 -0.016888084 -0.018044962 0.0011399976 -0.024506379 0.008237937 -0.006670707 -0.020242753 0.016767912 0.0031806398 0.007948885 -0.0081842905 -0.022657253 -0.006716323 0.016201984 -0.010598613 0.013288574 -0.010998768 0.010320513 0.013847071 0.0030650552 0.008687594 0.0035497388 0.021128194 -0.011434154 -0.007978147 0.008841537 0.012319612 -0.0059294933 -0.010661301 0.015288781 -0.003926268 -0.013503977 -0.010210757 -0.0026274265 0.0043871715 -0.021970427 0.0050218217 0.003622422 -0.012709866 -0.014476796 -0.01222714 0.005358813 -0.006497454 -0.015683131 0.013932663 -0.0074896375 0.018198328 -0.01375628 0.019934068 -0.0007969503 0.011989448 -0.0016839372 0.0010082233 -0.008597589 0.011940687 0.010588783 -0.0020079198 0.011561463 -0.018383235 0.013858677 -0.0054908074 -0.020717964 0.0004619157 -0.008910499 -0.01516117 -0.00014714117 0.0050685885 -0.0035392153 0.0029353965 0.0125428615 -0.016484462 -0.018481461 -0.0021743448 -0.014157383 -0.018930275 -0.009537399 0.02172449 0.020075519 0.011409113 -0.009180649 0.0064841365 -0.005011441 -0.016893812 -0.01392671 -0.014531469 0.0073031965 0.012971655 0.003044322 0.010325851 0.015069341 0.0017406876 -0.0095670745 0.0058667096 -0.004876783
8 -0.02079263 -0.025360823 -0.010796451 -0.008438456 0.027376823 0.00900124 -0.00952832 0.008804301 0.020166527 0.025204973 0.006936588 -0.01635363 0.0031646267 -0.0031547903 -0.009807605 0.014239967 0.026518848 0.024084968 -0.01822819 0.013458508 0.015923057 0.02048258 0.017865106 -0.013238638 0.019942814 -0.013733596 0.00542956 -0.0042162854 -0.023034843 0.01472713 0.021190964 -0.016409071 -0.019138917 0.026005348 0.0004088267 -0.017007496 0.020529423 -0.013850874 0.005596985 -0.015129297 -0.027564246 0.016488742 -0.01485645 0.012674843 -0.013469607 -0.025506198 0.010757002 0.019789768 0.014817919 0.013059008 -0.01688194 0.012055048 -0.00946393 0.01418899 0.02553887 0.020706004 0.02130058 0.0049616657 -0.0030135175 0.0122548 0.01436846 -0.0034257518 -0.009336244 0.023105204 -0.021528881 -0.024056591 -0.008472055 0.01517302 0.021050863 -0.01573518 -0.017998077 0.0068040797 -0.022971159 -0.019006072 -0.028133638 0.024440445 -0.006131271 -0.01398051 0.019021656 -0.024232268 0.014056861 0.012357375 0.010616059 -0.019179186 0.018502923 0.0011212464 -0.0066716876 -0.021015888 0.021381428 0.017240774 -0.02569899 0.013520712 -0.015416175 -0.005700253 0.004446888 -0.014641473 -0.009904163 -0.008300906 -0.021529807 0.014241056 0.023483092 0.020052632 -0.01465281 -0.0026243175 -0.01737814 -0.013532449 0.0050696526 -0.010609975 -0.018570887 -0.003824512 0.027385844 0.018196542 0.012798723 -0.015348754 0.011241356 -0.012087054 -0.015625553 -0.0092760045 -0.024651682 0.02129603 0.0076452196 0.0146063315 0.016860193 0.024922874 0.01651208 -0.015788756 0.017671598 -0.018008105
9 -0.007853402 -0.026281988 -0.011775485 -0.014368902 0.023835948 0.011709684 0.00026754074 0.006033986 0.009639473 0.019782476 -0.00042396295 -0.013046641 0.018149951 -0.009150182 -0.01247807 0.011702449 0.025309265 0.008781459 -0.008015789 0.020624641 0.02186916 0.025911009 0.002397696 -0.020720875 0.02956254 -0.0047176317 -0.009475392 0.0040227138 -0.02181273 0.0061291177 0.021321228 0.0043586083 -0.0152703365 0.027158301 -0.009715872 -0.009099276 -0.0031666681 -0.018180884 0.01562953 -0.020904819 -0.009567332 0.010757615 -0.008872973 0.017468777 -0.009061675 -0.02056955 0.005925433 0.015518496 0.0037938128 0.025352519 -0.02057535 0.005705829 0.004098462 0.015062047 0.025118114 0.018299006 0.018687548 -0.0034981312 -0.0051639546 0.009912321 0.021153552 -0.004275416 0.005704126 0.016694713 -0.028758612 -0.011422248 -0.008955694 0.003259145 0.0252548 -0.027893089 -0.011190783 0.010232566 -0.014646266 -0.01900354 -0.021757744 0.014975874 0.011116729 -0.011199984 0.017286625 -0.016877603 0.015877472 0.0072946395 0.013632054 -0.019067006 0.026348634 0.00017998417 -0.007632548 -0.01537344 0.025474442 0.0130397035 -0.009072859 0.015134022 -0.026867386 0.0023027898 0.0030812153 -0.025166238 -0.015512461 -0.029050054 -0.014768059 0.0104117375 0.017028041 0.008822204 -0.00660153 0.012851376 -0.01794413 -0.011361028 0.007018451 -0.014199486 -0.021642715 -0.013472118 0.01983308 0.024845134 0.013421641 -0.02591441 0.013284867 -0.014522215 -0.023443552 -0.01831966 -0.024695855 0.018746892 0.017254414 0.027739916 0.022206238 0.014024655 -0.0067072767 -0.018151002 0.016854314 -0.025284424
10 -0.01809908 -0.027395317 -0.011099164 -0.003073708 0.014986786 0.019026 -0.015883645 0.0065043503 0.020745995 0.025882857 0.016433867 -0.026736967 0.015491033 -0.00682941 -0.019050915 0.012460386 0.024633596 0.0144565515 -0.009536073 0.00744205 0.01942547 0.020435154 -0.0012856906 -0.014433279 0.0122588705 -0.01214205 0.0007478166 0.00047574865 -0.02044454 0.011632614 0.021481732 -0.00039227866 -0.022423584 0.02493377 -0.012025224 -0.024281979 0.0010044456 -0.008722254 0.012747245 -0.020140644 -0.026246846 0.014817549 -0.0008675257 0.008025717 -0.022696221 -0.016033327 0.004564898 0.025143381 0.017334303 0.011531244 -0.017605826 0.010431089 0.0014380424 -0.00045564584 0.010969639 0.022498459 0.0202535 -0.0051312577 -0.00956456 0.016861565 0.026966136 -0.0055656326 -0.0061454163 0.024310475 -0.022712918 -0.013815979 -0.008025826 0.009388612 0.018155862 -0.025804285 -0.0011073145 0.002899116 -0.008901148 -0.010581602 -0.017467072 0.027215365 -0.0018223156 -0.0075003123 0.02588266 -0.018207856 0.017958075 0.0015285471 0.012848882 -0.022101762 0.021279097 0.0051077493 -0.012531087 -0.0031666663 0.013990151 0.023159448 -0.016430244 0.0019644026 -0.020334654 0.0028654959 0.009512267 -0.022683697 -0.019278795 -0.023961332 -0.017576959 0.01222531 0.015273004 -0.004068282 -0.0138013605 -0.0009500713 -0.012520097 -0.008333932 0.0058633615 -0.0017248173 -0.008690299 -0.009784137 0.019563114 0.01210391 0.011505215 -0.017526176 0.0084556965 -0.003651236 -0.025504747 -0.017361976 -0.024230339 0.013988346 0.010966597 0.013058724 0.01626665 0.02913849 0.0068280343 -0.011320023 0.0043483274 -0.02156029
11 -0.024825852 -0.026331568 -0.021769369 -0.0135164345 0.025658935 -0.0020071683 -0.020091005 0.025798164 0.011244411 0.026183441 0.025389945 -0.016910492 0.016407344 -0.0030020338 -0.013213015 0.017738448 0.024044001 0.014705454 -0.02363 0.024434136 0.02106488 0.025691738 0.010495758 -0.024234194 0.030282238 -0.019297723 0.015564036 -0.018436845 -0.016791182 -0.0017611769 0.024489772 -0.009358397 -0.02159897 0.020777237 -0.022795122 -0.012081258 0.007273338 -0.017948648 0.0109233195 -0.023917565 -0.019355273 0.021632755 -0.006086054 -0.0019385042 -0.027640056 -0.018974265 0.025137786 0.024724713 0.027341096 0.024056643 -0.0070397807 0.02425985 -0.011225236 0.009833321 0.021714581 0.025355795 0.02817545 0.01176415 0.0002485545 0.015194183 0.028559018 0.0056426087 -0.017462686 0.019554222 -0.02165428 -0.021278085 0.006835412 0.020794773 0.013218466 -0.015792847 -0.012986203 0.021168217 -0.023197217 -0.031836342 -0.025522657 0.01815778 -0.0010497919 -0.013283392 0.023409022 -0.018763313 0.015234772 0.024274245 0.02849768 -0.025243482 0.026125545 -0.01617563 -0.026788186 -0.0153826475 0.021257743 0.022152837 -0.020023527 0.016894802 -0.016049463 -0.007414897 0.02778195 -0.025627654 -0.011573803 -0.02188294 -0.02036042 0.019486375 0.02800373 0.00837076 -0.019216217 -0.006700942 -0.024862595 -0.007344076 0.013395376 -0.008953321 -0.024058675 0.010021391 0.02371286 0.019492267 0.0011403523 -0.024574744 0.016100403 -0.013119126 -0.018094115 -0.023703307 -0.02353178 0.027046012 0.016933808 0.030192908 0.020488033 0.027257748 0.022362616 -0.025670795 0.017602712 -0.030177612
12 -0.013778669 -0.0062575415 -0.003550493 0.00068139844 0.019149559 0.0017718936 -0.0019527046 0.008196097 0.0054110615 0.021138437 0.016840605 -0.012349894 0.00071455626 0.006051857 -0.0050316215 0.0201449 0.019708687 0.007554862 -0.01596231 0.009782268 0.010157765 0.021473275 0.004658573 -0.018903457 0.016597182 -0.014325786 -0.004928567 -0.007100286 -0.016564064 -0.0005469786 0.012840526 -0.007792522 -0.013993412 0.014339195 0.0065849833 -0.015100561 0.016166989 -0.018969782 0.008765733 -0.015862707 -0.01871058 0.016315458 -0.012628264 -0.0044367695 -0.01231817 -0.0033555017 0.017347502 0.0052822866 0.013906331 0.013667319 -0.014629859 0.0053855036 -0.006661452 0.008166743 0.013310133 0.018535007 0.012964314 0.007483449 -0.001448249 0.006546693 0.014098568 -0.0037211122 -0.0007225793 0.005029317 -0.01582782 -0.009433791 -0.00150053 0.0072820196 0.00026025262 -0.017922996 -0.009868358 -0.0013848115 -0.009910192 -0.005098324 -0.015584816 0.011423802 -0.0087460615 -0.015823826 0.010176065 -0.006686961 0.011725233 0.005877633 0.005971385 -0.013424009 0.0035205553 0.006648226 -0.0109677985 0.0031113818 0.021102905 0.016930195 -0.016642481 0.012437013 -0.010874682 -0.0049214964 0.012675162 -0.0059156124 0.0035495723 -0.0056233406 -0.010351766 0.014162709 0.009195233 -0.002258576 -0.0037022466 0.0006491624 -0.0027467862 -0.0017562665 0.01450869 -0.00483075 -0.016811993 0.003851988 0.015543122 0.0100591965 -0.0019052667 -0.0067053963 -0.0022537392 -0.002392953 -0.0044666296 -0.0053282026 -0.006708967 0.009200237 0.009487455 0.009929731 0.013357409 0.014833555 0.011008569 -0.0056214025 0.0023801804 -0.01973475
13 -0.006438652 -0.025028868 -0.020521495 -6.0233146e-05 0.014973176 0.011221662 -0.006335643 0.007035545 0.010607994 0.009032266 0.0023071878 -0.004695762 0.019204577 -0.0151036 0.002044824 0.0015788223 0.015999276 0.006413253 -0.020537684 -0.002082504 0.01837803 0.015224222 -0.00736016 -0.011241189 0.024838518 -0.014222159 -0.0031354611 0.012595186 -0.004047365 0.013533514 0.016707763 -0.0055065053 -0.006547548 0.019007409 -0.011152214 -0.003914722 0.008152496 -0.0055085556 0.008388962 -0.021989597 -0.016758164 0.018516714 -0.0063179233 0.009611854 -0.0076208143 -0.022628129 0.003461415 0.017762972 0.006459314 0.011045933 -0.012744014 -0.0029491214 0.0050723194 -0.0018326781 0.0029573853 0.011755633 0.0040997737 -0.0018799235 -0.008511413 0.022321073 0.004658886 -0.009598714 -0.012420412 0.0047787745 -0.017892437 -0.008982752 -0.0015925337 0.004579789 0.0022572505 -0.005940261 -0.00448712 0.003170651 -0.011637271 -0.019653663 -0.018397795 0.01317701 -0.0017267963 -0.013139214 0.011830602 -0.018862426 0.007382951 -0.0017268889 0.013915701 -0.007801799 0.008712621 0.0012295982 -0.0042029 -0.0063503804 0.011030897 0.018577818 -0.0103052845 0.009228518 -0.021412348 0.0039762943 0.00056982454 -0.016937207 -0.012227605 -0.018803017 -0.00806292 0.014684493 0.011666924 0.015156649 0.0010721881 0.004099578 -0.013311541 -0.009470718 -0.002526118 -0.014178541 -0.017233975 -0.007037774 0.016708478 0.01554977 0.014165472 -0.02111244 0.014185797 -0.009007047 -0.018377477 -0.020622496 -0.019637074 0.017339624 0.008697012 0.0055757463 0.016662903 0.013685866 0.011908898 -0.010025223 0.0031904469 -0.02111918
14 -0.010031066 -0.015488131 0.0080745695 -0.0032721802 0.004849419 0.010521911 0.002096721 0.01870743 0.015249614 0.016306607 0.010613958 -0.008131883 0.006612087 -0.015003971 -0.005733464 0.0023738213 0.015319866 0.0060263756 -0.018673798 0.00078774453 0.019532615 0.012728817 0.008101572 -0.0071632443 0.010731599 -0.00779572 0.0073729483 0.005452697 -0.0049172235 0.007875463 0.012414068 0.003722436 -0.01598314 0.0119425235 -0.0034318964 -0.018691355 0.0022582693 -0.008939096 0.0117810145 -0.017400224 -0.007401638 0.013008182 -0.0119970525 0.0026971826 -0.005807294 -0.017228752 0.007640715 0.02242144 -0.0032534287 -0.00060738286 -0.016151685 -0.0022891378 -0.009186059 -0.0012911751 0.007075897 0.0065149856 0.005631088 -0.0038433035 -0.010534347 0.01000127 0.0075256284 -0.011059322 -0.011420729 0.015820578 -0.016751533 -0.014695129 -0.017091451 -0.0023591095 0.018193142 -0.019778132 0.002270394 -0.0019617022 -0.0074147163 -0.017161865 -0.019029127 0.002142617 -0.0007280621 -0.003827536 0.010116345 -0.0064958334 0.026969694 0.00042790448 0.020961488 -0.00409727 0.0029898833 0.00818311 -0.010349089 -0.0049909176 0.016587028 0.011354236 -0.0123738535 0.002980092 -0.014059313 -0.0033515834 0.016432973 -0.018545352 -0.012988492 -0.020865574 -0.01591668 0.013204388 0.01390304 7.222296e-05 -0.013126853 0.0012474293 -0.014312962 -0.02258351 -0.0012438907 0.0090901675 -0.0063598477 -0.014529623 0.011794102 0.022173842 0.016385768 -0.013207124 0.0010916789 -0.0018633549 -0.0074095274 -0.007139871 -0.013095124 0.008726722 0.0204247 0.0049995948 0.017151656 0.009582021 0.0016463752 -0.016313674 0.0060985554 -0.005401164
15 -0.018078648 -0.01108433 -0.010409762 -0.0034177045 0.0074350513 0.01814901 -0.0014419123 -0.001735945 0.021435343 0.0083238175 0.0012882054 -0.0049945633 0.022564579 -0.016041873 -0.00040765802 0.0045794505 0.00870372 0.005890641 -0.008751205 -0.0071151396 0.015443024 0.010379506 -0.0047877347 -0.010440393 0.016143436 -0.015702961 0.009850563 0.019862015 0.0039320635 0.013021851 0.013543985 -0.00292216 -0.023027066 0.013329243 -0.011929582 -0.018902041 0.012442475 -0.00808632 -0.00042685482 -0.004257856 -0.017486366 0.016910162 -0.0076989643 0.0052991514 -0.021416545 -0.009099798 0.013512454 0.019046172 0.007951506 0.003956752 -0.008477423 -0.007457272 0.011931325 -0.005199455 0.012041906 0.0115853585 0.003678251 -0.006286448 -0.0022436269 0.010241642 0.00303384 -0.0067691463 0.006115412 0.014674579 -0.018785706 -0.020825302 -0.00605164 0.004262437 0.017367788 -0.006877238 0.002010551 -0.0044500763 0.0005374863 -0.004682108 -0.018369276 0.0030077728 -0.0060498393 -0.002614744 0.008777077 -0.0040563215 0.026385643 -0.0012850019 0.0075965435 -0.013463816 0.013444067 -0.013185017 -0.0034311924 0.00043126312 0.011195719 0.009606125 -0.00088853296 0.0009246459 -0.006042544 -0.005600131 0.01125425 -0.011716782 -0.00019511965 -0.027857263 -0.016774522 0.001574689 0.014186148 -0.00058521435 -0.0045685368 -0.013755457 -0.013763251 -0.017608508 0.0014811642 0.00043992285 -0.00018729764 -0.015126121 0.0051362836 0.004056166 0.009505815 -0.011782235 -0.0037152742 0.006983426 -0.013951113 -0.006550704 -0.0153395375 0.007715987 0.020106636 0.0009708042 0.017680628 0.004944016 -0.004606165 -0.0083823465 -0.0068299775 -0.0108430805
16 -0.02391902 -0.0005347101 -0.01792459 0.0010476724 -0.0071681538 0.016517788 0.00476184 -0.0033654724 -0.0074847643 0.011805908 -0.004180356 -0.00024699443 0.009947939 -0.0051076543 0.01820755 -0.00036658227 0.015063747 0.006074315 -0.014694011 -0.016556682 0.0046019037 -0.001915329 -0.0145080155 -0.0041929637 0.00406133 -0.008775845 0.009319518 0.0035325275 0.010237063 0.01789589 0.0044275583 0.007005838 -0.0154819805 0.0066964705 -0.0060996646 -0.019131465 0.014387691 0.0037794425 0.00651015 -0.008863306 -0.01423895 0.0073096296 -0.006942911 -0.0014141693 -0.006016241 0.010658805 0.020752363 0.008889894 0.010093352 0.0046545113 -0.008949095 -0.015229143 0.005353293 -0.013210996 -0.0022393423 0.0070233936 -0.0028842972 -0.0031032774 -0.013862187 -0.004524134 0.0021069143 -0.019017667 0.004209563 0.004330569 0.0010081872 -0.02046168 -0.001820663 -0.0012039694 -0.003317385 -0.0064898236 0.0050541824 -0.005794372 -0.0049708374 0.00046493422 0.0011642068 -0.006236512 -0.0070313513 -0.00844729 0.00022298115 0.0040798187 0.003701998 -0.0052742516 0.0061477884 0.0038222936 0.010050921 0.015042318 -0.0033447146 0.008233761 -0.0030433352 0.0057232217 0.0048297676 -0.002123495 -0.0042871833 0.0026603 -0.00022230076 -0.02378694 0.0067866766 -0.013350105 0.00034571608 0.0067654997 0.005481758 0.0052345796 -0.0011565883 -0.012117739 -0.0027247816 -0.01433098 0.0007810585 0.010005564 -0.012490068 -0.007932447 0.00048269855 -0.008439765 0.010054951 -0.0022737314 0.0004092608 0.014034202 0.004632423 -0.0083540045 0.0033332198 0.0055990038 0.012927471 0.0054365066 0.007238904 -0.0009932086 0.005298509 0.002290278 -0.016564554 0.007270271
17 -0.020962818 -0.01889316 -0.0015109912 -0.01748834 0.029363016 0.008012434 -0.004675438 -0.0037872395 0.002043317 0.01841199 0.020624386 -0.013299782 0.017835444 0.008688028 -0.021088546 0.026089571 0.026452309 0.020163583 -0.025540754 0.00564071 0.006620123 0.015963972 0.0121933045 -0.01873574 0.00807837 -0.018821906 0.021585414 -0.012624598 -0.004981915 -0.010822534 0.0059467037 -0.01328275 -0.019080628 0.008205585 0.00472134 -0.012001834 0.013804012 -0.022638481 0.014683798 -0.015751144 -0.027008211 0.026815593 -0.010301393 -0.021987116 -0.028334916 -0.008777313 0.012660053 0.0064465646 0.02538586 0.005545875 -0.010982113 0.017783627 -0.018430222 0.009540098 0.015189115 0.019722061 0.009958062 0.01739299 0.008331305 0.009719331 0.022327185 -0.00014510023 0.0006650285 0.01175789 -0.017992646 -0.012671988 0.00786183 0.016677432 0.014491385 -0.022503948 -0.014720826 0.010342797 -0.019626504 -0.0036776362 -0.022807723 0.024090277 -0.00984934 -0.0015763099 0.015643587 -0.013975289 0.0055126124 0.026689392 0.00950461 -0.0014385544 0.018173756 -0.021790195 -0.020020096 0.008430703 0.019294841 0.017549677 -0.018929733 0.028605107 -0.008705072 -0.009801804 0.0164809 -0.017532568 -0.012737919 -0.015407225 -0.010302864 0.029218443 0.027873438 -0.004662163 -0.0154147465 -0.022491489 -0.01256475 -0.013022142 0.016828828 -0.0048643034 -0.02352667 0.008930053 0.02144602 0.012692347 -0.01536502 -0.026779085 -0.013968238 -0.0023960413 -0.012719545 -0.019852303 -0.020819366 0.014387348 0.014213024 0.025080835 0.01485686 0.010671427 0.028271632 -0.010654844 0.009435999 -0.013613501
18 -0.016536513 0.0066798558 -0.0067468244 0.01818605 -0.0034893735 0.012326315 0.008679332 0.022161167 0.017468644 -0.0098459525 0.005327547 0.009741948 0.018819949 -0.019741165 0.014113538 -0.017176162 -0.009553302 0.0055432897 0.0052659092 -0.024707213 0.0028856755 -0.011101358 -0.014007757 0.013709771 -0.0055162623 -0.01633746 -0.015735783 0.013800441 0.020233324 0.01611206 0.006092459 0.012553659 -0.0028836536 -0.0044064056 -0.023423268 0.0039061296 0.01436357 0.012023616 -0.011195021 -0.010756039 0.007953172 0.01151132 -0.003391401 0.027408624 0.010369671 0.0013304319 0.021849772 0.018364193 -0.007275783 -0.007275625 -0.015905138 -0.01796981 0.019278187 -0.016269045 -0.0054702493 -0.003080489 0.0063800905 -0.014796532 -0.018546028 -0.01736401 -0.012123235 -0.018842066 0.019279495 -0.0110485265 -0.0002397761 -0.0016108053 -0.016000273 -0.009199538 0.017059123 0.0030616329 0.02061803 -0.0036703674 0.014636708 0.0072288727 0.012940579 -0.017800145 -0.013465746 0.0026871935 -0.003153474 0.016273517 -0.0046927184 -0.023531562 -0.0061543253 0.013971276 0.013239121 0.0053989543 0.016835915 0.017206337 0.00726436 -0.00060292426 0.012997142 -0.0033449533 0.010834628 0.0065869046 -0.012379631 -0.017842026 0.020593343 -0.0054910243 0.010540871 -0.008600882 -0.008574701 -0.025467038 0.012694175 -0.009449705 0.0036824904 -0.0134672625 -0.014605194 -0.009984114 0.006463175 -0.02144383 -0.0008642487 -0.012842593 0.025784206 -0.0003399019 -0.015748193 0.009753309 0.009738533 0.012569976 0.0072836173 -0.016588239 0.0071637025 -0.013536067 -0.013196445 -0.004578171 -0.02244152 0.014236552 -0.01732137 0.011835919
19 -0.006542507 0.007943909 -0.019584322 0.008954016 0.0013135497 0.008168457 0.017949134 0.02273216 0.019231863 0.015732132 0.01847519 -0.0011029437 0.008384867 -0.027232146 0.0032791786 -0.00016690798 -0.009595743 0.021775603 -0.016191382 -0.020366743 0.009292906 0.009284289 -0.023019504 0.0104652485 -0.00638585 -0.006191192 0.01944531 0.017273119 0.01129959 0.018069914 0.007146785 0.016881587 0.0034845807 0.009879765 -0.01602618 -0.019842133 -0.0017041814 0.0016669044 -0.0033152387 -0.001603606 -6.927352e-06 0.021091772 -0.022631735 0.021844378 0.0077580633 -0.007048969 0.013828978 0.008258815 -0.009642655 -0.01489241 -0.004806099 -0.023893692 0.020826112 -0.0206116 -0.012491382 -0.009583054 -0.0004987804 -0.017994067 -0.01779775 -0.0038093678 -0.014099839 -0.013365773 0.0145565355 0.0025051427 -0.0009175055 -0.010341521 -0.030950861 -0.012781775 -0.0010677443 0.00254169 0.013577471 -0.0004347982 0.0075951666 0.0068212706 0.0043267156 -0.003938084 -0.019630494 -0.0014628677 -0.012316272 -0.0015494745 -0.0051061073 -0.011274803 -0.001695646 0.011656771 -0.0030592445 -0.017948654 0.01295771 0.0076312823 0.025926124 0.0028936244 0.0017775128 -0.003290174 -0.010564786 0.0019485542 -0.003754239 0.0013185267 0.022100534 -0.01482657 -0.008602168 -0.0042602033 -0.013190762 -0.0233831 0.014517871 -0.0043837694 -0.004045782 -0.009098368 -0.015249466 0.0041795033 0.008130978 -0.019784767 0.011698086 -0.0071039037 0.017465629 -0.0061191143 -0.017015705 0.0071233576 0.006316206 0.0018261685 -0.013971188 -0.007547582 0.018869812 -0.0003954494 -0.008734868 0.0030632783 -0.0028575356 0.0041538933 -0.022602037 0.00793847
20 -0.029003125 -0.0015126322 -0.0021480026 0.008610613 0.0041801333 0.017036462 0.010011192 -0.007246649 -0.0033660028 0.016526457 0.019427586 -0.014110076 0.010324639 0.009718951 0.0045873746 0.0055552255 0.005762518 0.011590303 -0.021857224 -0.009384698 -0.00023298868 0.00071410654 0.000539835 0.005854314 0.008456499 -0.012802585 0.016278958 -0.0026292964 0.003210679 -0.0012547434 0.00027440453 0.005125327 0.0023821583 0.0076273847 0.003074899 -0.019622287 0.0146486955 0.0016971121 0.010531509 -0.013883613 -0.015949113 0.0115277935 -0.021407511 -0.0050709886 -0.013708484 -0.0012510768 0.02183826 0.013843568 0.013913253 0.0042826794 -0.009615508 -0.015349337 0.003044393 -0.0040880083 -0.007825902 0.008486015 -0.00067673216 0.0013389483 -0.003598536 -0.009549429 0.01008258 -0.012418375 0.013768997 0.014508912 -0.011034655 -0.013400402 -0.0070655383 0.004296438 0.003855688 0.0018262615 0.007619431 0.0045394464 0.0103101125 -0.0013830909 -0.0050192443 0.007963603 -0.0175657 0.003084068 0.0035257484 -0.0010175258 0.008487733 0.00073337293 -0.0019729573 0.00936633 0.0049236487 -0.02122135 -0.01100211 0.011637078 0.019840406 -0.0034632124 0.004430273 0.00015629214 -0.005588236 0.0017215341 0.004564539 -0.0026179778 0.0081985565 -0.0069707297 0.0013610923 0.0096052345 0.009012134 -0.011930731 -0.015419773 -0.017277608 0.009032223 0.0017676833 -0.003185188 0.006788816 0.001282139 0.0006311181 0.0005867059 -0.005214991 0.004440666 -0.004441059 -0.009925733 0.009254522 -0.0047543137 -0.012332331 -0.010072632 0.0061521037 0.029989474 0.008805863 -0.00038036756 0.0127666285 0.0038534126 0.0095555745 -0.0044464394 -0.005532584
21 -0.019258114 -0.016825575 -0.001013842 -0.004987205 0.01254011 0.012010897 -0.010630035 0.01684683 0.031163644 0.024120407 0.013496045 -0.0118620265 -0.00017164217 -0.0022560009 -0.006564211 0.01279062 0.02697173 0.016958782 -0.018659972 0.0028155358 0.011360707 0.024236057 0.01340218 -0.0030421044 0.024117814 -0.017436255 0.007552746 -0.0028279168 -0.005967369 0.0040035634 0.014997605 -0.0073765665 -0.019307239 0.019290583 -0.009022414 -0.019921247 0.015992068 -0.016699495 0.008968076 -0.01836092 -0.024349634 0.014938266 -0.004410537 -0.0071549634 -0.023990404 -0.01508234 0.020267425 0.020718312 0.024528837 0.0060030934 -0.012894068 0.013306782 -0.0034899288 0.0072273407 0.007710389 0.023439735 0.008913661 0.014561431 -0.0040111877 0.0088622505 0.020104773 -0.0035724693 -0.014119696 0.030332392 -0.014467316 -0.0097420495 -0.0031839414 0.009507793 0.01508582 -0.019465132 -0.0035522152 -0.002105989 -0.011313066 -0.021388132 -0.017439086 0.01866533 -0.008600864 -0.007221114 0.019741056 -0.009830626 0.01320221 0.010065254 0.012444172 -0.016549058 0.011907778 -0.011683236 -0.0233366 -0.013060534 0.014850991 0.022464778 -0.01872892 0.017869152 -0.025013655 -0.0028682817 0.017337317 -0.015289884 -0.008884314 -0.012120128 -0.025359921 0.018824061 0.014059148 -0.0019859998 -0.011544956 -0.012199414 -0.01661155 -0.021632817 0.0140649285 -0.01357535 -0.015412592 0.0037215608 0.01446355 0.018850628 0.0045047957 -0.012093842 0.008126 -0.014148721 -0.022881342 -0.010173202 -0.025124349 0.01759423 0.024223054 0.022217387 0.016712634 0.02562333 0.008966555 -0.0057072267 0.009365504 -0.008161707
22 -0.018370802 -0.015833717 -0.014781486 -0.0037920729 0.026590783 0.017333083 0.0038554976 0.0076717217 0.014128501 0.014026322 0.027138427 -0.014535026 0.02293577 -0.004537944 -0.0042989254 0.024353586 0.01572404 0.020704413 -0.02264919 0.013818233 0.013659832 0.025745407 0.0010267813 -0.023031209 0.025593404 -0.02700835 0.024069553 -0.0054739024 -0.013589644 -0.0016766367 0.020861484 -0.0048088133 -0.014844784 0.021964964 -0.007550564 -0.019984066 0.025141053 -0.027756019 0.020929635 -0.013364346 -0.0288872 0.026254393 -0.019419342 -0.0018665651 -0.01474307 -0.020291293 0.027231524 0.016863177 0.016454164 0.010002431 -0.015327141 0.016887072 -0.012268579 0.0032331378 0.012630805 0.017043117 0.027517797 0.011004448 0.008551441 0.002970954 0.016284602 -0.010079552 0.00018464279 0.028979387 -0.015443634 -0.015325178 0.0031410963 0.02583694 0.012193911 -0.017110813 -0.010580987 0.009375957 -0.015163444 -0.027754873 -0.023934307 0.018118188 -0.015222534 -0.01285917 0.012219126 -0.013068461 0.019197907 0.018738355 0.012536193 -0.013864919 0.024010992 -0.02331232 -0.012467489 -0.012254864 0.023385152 0.026681757 -0.023667628 0.013762834 -0.025921036 -0.00012824047 0.025142645 -0.026933555 -0.014134803 -0.019878253 -0.02652413 0.021892935 0.01990232 -0.010398864 -0.01858404 -0.0063168197 -0.02583901 -0.016950315 0.017742766 -0.005286207 -0.016694266 -0.0033852963 0.017944869 0.005161489 0.0020529008 -0.022204898 0.003670823 -0.0026725144 -0.017247424 -0.015667913 -0.02547048 0.01855132 0.014302825 0.018577807 0.012234671 0.023862373 0.017551454 -0.019598491 0.002868995 -0.018374592
23 -0.01805642 -0.009255221 -0.0067722145 -0.0051210746 0.0081671085 0.0016887123 0.0075549865 0.007811488 0.020380659 0.019119464 0.012866738 -0.012567253 0.0119647505 -0.003643983 -0.013560057 0.018010002 0.01279501 0.005534086 -0.020616231 0.0015431754 0.014413301 0.007857719 0.00649264 -0.0036614803 0.010402509 -0.019294845 0.01541257 -0.0048714895 -0.0060990974 0.0058647357 0.023976829 -0.0003641754 -0.01548362 0.018700402 -0.01874225 -0.01880122 0.0044962554 -0.015027004 0.008497348 -0.014947086 -0.013338351 0.01062347 -0.007212121 0.00817265 -0.01845066 -0.0062227463 0.008442485 0.0099627655 0.02180262 0.014318107 -0.016321868 0.006178689 -0.00095919037 -0.001332389 0.008010827 0.00899058 0.01834158 0.0016517603 -0.0065735746 0.008513713 0.010569024 -0.0059213494 0.0032672435 0.013680745 -0.017976128 -0.0077924402 -0.009208517 0.013508769 0.0162528 -0.017798264 -0.011180106 0.0074049626 -0.0072937184 -0.008706939 -0.010218707 0.010703427 0.0035260604 -0.013502016 0.015742593 -0.004730344 0.018704645 0.0025489067 0.0036495551 0.0010285822 0.010460443 -0.0030719687 -0.016832571 0.003789992 0.0091558555 0.023671387 -0.01840444 0.01282076 -0.023179352 -0.009599471 0.015763095 -0.00869591 0.0056512184 -0.016458202 -0.00985843 0.0098751355 0.010074361 -0.0051427935 -0.004487874 -0.011491156 -0.010049831 -0.008381044 0.0122259855 -0.012775457 -0.013794154 -0.0056809527 0.010686188 0.0019992187 -0.0010822576 -0.006799572 0.008896878 -0.0031164277 -0.0091025075 -0.013529139 -0.02068188 0.0079401815 0.016166814 0.0071361056 0.0037788518 0.019428233 0.0033233482 -0.015264303 -0.004552748 -0.0150563065
24 -0.018079365 -0.0095570525 -0.01661991 -0.005069304 0.01187127 0.017659545 0.0010594344 0.01633995 0.013014107 0.016859146 0.005580716 -0.006962793 0.014895036 -0.008502925 0.0008745626 0.002317942 0.0033195014 0.013297288 -0.021868324 0.003623073 0.0074341223 -0.00031908974 -0.0073573613 -0.0009577493 0.014329306 -0.008358121 0.008392693 0.0126512535 0.004853285 0.01954567 0.010244382 0.005687095 -0.014055964 0.022542262 -0.015843743 -0.00812855 0.011630141 -0.009127154 0.017925698 -0.004257764 -0.022963876 0.015440094 -0.008767491 0.0033220218 -0.010484907 -0.010803514 0.015464967 0.015320644 0.009799302 0.017251613 -0.011678722 -0.0036897836 0.0042295908 -0.009512397 0.000506845 0.017357184 0.00032046973 -0.0015873675 -0.01642629 -0.0029431114 0.005124955 -0.004375514 0.0044278735 0.006957301 -0.013823404 -0.015593696 -0.0026869173 0.006353885 -0.004601867 -0.008629781 -0.004216466 0.009959564 -0.00984972 -0.0150616765 -0.005986196 0.012700412 -0.013185279 -0.009082521 0.007997649 -0.016238306 0.021515261 -0.00311172 0.0070404876 0.00097580336 0.02156621 -0.014235533 -0.014269784 0.011135998 0.017758057 0.016828703 -0.000413974 0.0067749624 -0.0215329 0.004362398 0.0069946637 -0.013874344 -0.0045823175 -0.019112809 -0.008737826 -0.0028287675 0.0047766333 -0.016349409 -0.0007034791 -0.012931003 -0.018897964 -0.014697029 0.0066357567 -0.0006125581 -0.01033453 -0.016122133 0.0019001034 0.0061617536 0.0019939374 -0.010730364 -0.0021816168 0.007840106 -0.009478171 -0.013247946 -0.0016662448 0.004620978 0.01598219 0.015374947 0.011021184 0.009680929 0.011108681 -0.008047377 -0.010396644 0.00059447455
25 -0.020790618 -0.027874313 -0.012438415 -0.012160675 0.022878615 0.00082532456 -0.00045609957 0.015675845 0.015911235 0.013541888 0.027537985 -0.022011405 0.01806193 0.0013706647 -0.01930265 0.019864514 0.025461037 0.010262581 -0.024289193 0.007335546 0.019352341 0.02652547 0.0050818617 -0.011972886 0.020212652 -0.02234759 0.015630428 -0.001318663 -0.008049882 0.0005602163 0.016495539 -0.015962815 -0.02837519 0.013207272 -0.004998212 -0.0218624 0.01754263 -0.0241578 0.004420745 -0.024132065 -0.0125416685 0.020883363 -0.0054076263 -0.011893307 -0.0062813363 -0.016680097 0.012339857 0.004070228 0.01445305 0.011395519 -0.015438234 0.014324966 -0.013543009 0.004231919 0.009640939 0.02267397 0.016268421 0.018020548 0.0034092185 0.010839397 0.025105791 -0.010350141 -0.0048132944 0.023874162 -0.02410412 -0.015563899 -0.009571485 0.018268611 0.0127525525 -0.011323666 -0.009114466 0.01734622 -0.021665463 -0.015397214 -0.026358712 0.022362068 -0.007663003 -0.015561158 0.020744404 -0.01645623 0.0046779043 0.0038710162 0.01752497 -0.0047599524 0.019615585 -0.028189346 -0.017142884 -0.014779019 0.025767528 0.01977954 -0.01876217 0.0065413024 -0.012207068 -0.007887981 0.0237665 -0.011277005 -0.011487181 -0.015146982 -0.021235762 0.018610436 0.015667852 -0.008662389 -0.016578713 0.0012521739 -0.019887473 -0.014869117 0.008449662 -0.017086826 -0.016748087 -0.006963312 0.024312451 0.010264894 0.00493317 -0.018143084 -0.001455185 -0.011657729 -0.018803392 -0.012409355 -0.02695907 0.019743301 0.0003122695 0.026055988 0.024543779 0.016869402 0.015020935 -0.015745591 -0.0009231331 -0.021755144
