26 128
0 -0.011918148 -0.0015703244 -0.009998086 0.0013555265 -0.01312858 -0.008743173 0.0134915 -0.012892171 -0.0038395352 0.008267095 0.010517967 0.0028158873 -0.0051664533 -0.01838857 -0.0070080115 -0.0050429264 0.01323896 -0.006885633 0.012535754 0.005473598 -0.0003259452 -0.013901817 0.0012689282 -0.0041072182 0.006823652 0.004836875 0.005341091 -0.0028774121 0.011022146 -0.0007951035 0.0037559334 0.009192974 -0.0055546723 -0.002601834 -0.0028392796 0.0026269255 0.01393064 0.0052048955 -0.017671572 0.0022307814 -0.015602928 0.015664935 -0.009412905 0.0047426173 0.0068805157 -0.007266155 -0.00310144 0.0073694987 0.009836232 0.0037675665 0.0070417095 0.029465888 -0.0092633525 -0.010222339 0.014931746 -0.0125884665 0.0005453504 0.0011698438 0.010004767 0.0131993815 0.012961761 -0.010383426 -0.015071444 -0.0031286723 4.3366163e-05 0.016751956 -0.0043256837 0.0054031443 0.011138622 0.0077754124 0.02090406 -0.008019478 0.01072341 -0.01288854 0.0050868075 -0.005532578 0.002150667 0.003192909 0.00595974 0.008040222 0.014101324 0.014641201 -0.01693197 -0.012004766 0.012917719 0.0024138268 -0.004112291 0.0110904025 0.010716371 -0.0014692536 -0.013054097 0.0060152966 -0.006939062 0.0073846937 0.02200466 -0.0048561324 -0.005447651 -0.008455426 -0.020761555 0.0056988737 0.012550545 -0.007183572 0.0015880492 -0.011340397 -0.008568252 0.0038730921 -0.0021204362 0.006544381 -6.1111816e-05 0.010324918 -0.004824661 -0.008830718 0.0099283215 0.012625717 -0.004795326 -0.00091466797 0.012653319 0.00023149239 0.008389426 0.019217346 0.0027004564 0.0053741387 -0.012916768 -0.019185308 -0.0012743017 -0.015293132 -0.007886952 0.016170712
1 -0.019252477 -0.008241714 -0.013194522 0.02792817 -0.018515198 -0.005853831 0.019767223 -0.019707633 0.014077472 0.0056702774 0.008996847 0.012834583 -0.013904418 -0.02700675 -0.016858604 -0.012628504 -0.00527958 -0.005262578 0.0072284467 0.016726613 -0.0016084822 -0.026215782 -0.017408153 0.02282339 0.00926125 0.010056882 0.010299885 -0.021211756 0.018866654 -0.012013639 0.018472042 0.004810648 -0.019605163 -0.022206215 -0.0026463496 0.004225251 0.015436624 0.022300532 -0.017380297 0.018289981 -0.026656171 0.017804129 -0.029289369 0.01004327 -0.0006031443 -0.01747128 -0.010177632 0.023107667 0.015507755 0.008371896 0.01368192 0.025632588 -0.017749969 -0.022411026 0.0287885 -0.01986851 -0.013631024 0.013616486 0.02317548 0.014857244 0.0075009665 -0.0232617 -0.024437001 0.0032393248 0.022294397 0.009767606 0.002247218 -0.007214748 0.023959164 0.017556533 0.030306509 -0.018703582 0.0058090533 -0.017650766 0.0058272583 0.006752596 0.022848714 0.022372447 0.022973752 0.018706528 0.018463116 0.023233555 -0.02273017 -0.025549913 0.023813013 0.012597453 0.00825129 0.0011153633 0.017324176 -0.024149243 -0.019498091 0.015445125 -0.014586152 0.024067929 0.01586676 -0.009458112 -0.004384243 -0.02147909 -0.024789777 0.014881528 0.023316234 -0.021460902 0.0068259933 -0.0067589856 -0.024663253 0.026057344 -0.011324318 0.0023473366 0.01020239 0.022004886 -0.023729498 -0.027259007 0.003567845 0.009933663 -0.025594786 -0.02177717 0.025308209 0.01591367 0.02248718 0.016306028 -0.006795367 -0.0064166845 -0.020817524 -0.02706722 -0.020217372 -0.018522393 -0.022535786 0.030214045
2 -0.008821353 -0.012589389 -0.01705602 0.0095754 -0.022323383 -0.012861846 0.022321275 -0.012738187 -0.013295816 -0.00025823936 0.009763455 -0.010288965 0.0034927726 -0.022417607 -0.026361546 -0.010717064 0.01606138 -0.013079355 0.015260319 0.0074089565 0.011972307 -0.02115849 -0.011115058 0.008542387 -0.005398171 0.0066352743 0.0109607065 -0.016489943 0.028346825 -0.014698727 0.018057933 0.005172264 -0.016259072 -0.014224053 0.005721097 0.013900037 0.025971925 0.02144653 0.002349076 0.022101484 -0.024632456 0.030768976 -0.024996016 0.012736533 0.011804943 -0.021083495 0.0014877305 0.022079663 0.017943816 0.010386499 0.016871706 0.008619317 -0.018163688 -0.012320003 0.019764462 -0.00014093379 -0.02252128 -0.004758299 0.019061152 0.018912772 0.016228944 -0.012639491 -0.008673428 -0.005681551 0.013941802 0.019149665 0.0039681667 0.0135322325 0.025849555 0.014023754 0.014569829 0.0037618782 0.016617771 -0.022026444 -0.006182281 -0.00087378116 0.016188376 0.017379852 0.022439485 0.023694554 0.027651383 0.01392472 -0.015452077 -0.016097482 0.016084464 0.0129902605 -0.022314422 0.014630511 0.013107901 -0.027618142 -0.018000383 -0.010370089 -0.012748144 0.011742619 0.010822403 -0.017708775 -0.0031030886 -0.0194484 -0.01549239 0.009929584 0.022221403 -0.026605904 -0.005766239 -0.013857929 -0.02468182 0.01697078 -0.015508748 -0.016053688 0.027561296 0.015052445 -0.018075824 -0.02280374 0.012472074 0.018710952 -0.027657906 -0.01768562 0.0122873 0.018046413 0.009634943 0.013359419 -0.022471331 -0.013167022 -0.016911294 -0.016559126 -0.012642851 -0.024427975 0.00031135947 0.017746352
3 -0.008482829 -0.006647244 -0.012318963 -0.0038684946 -0.006326217 -0.0033021115 0.004337652 -0.016407365 0.0017163424 0.0008149655 0.013913861 0.007301933 -0.008989105 -0.018511746 -0.00933368 -0.0048460816 -0.0008705871 -0.0072898045 0.008864259 -0.0019160252 0.014777761 -0.005350027 0.0034579951 0.0035287512 -0.012478877 -0.0001692799 0.0034233178 0.0010635603 0.006266538 -0.0014719398 0.0062296297 0.019875789 -0.019895235 -0.002192411 -0.009487063 0.0025831787 0.010923673 0.004064934 -0.0021153232 0.009723277 -0.01422575 0.010916194 -0.0030648792 0.006232719 0.017679894 -0.011590325 0.0019294894 0.02005861 0.004031011 0.003900249 0.005795142 0.009876508 -0.007039503 -0.015756816 0.00196542 -0.018755129 -0.0013813622 0.003587758 0.011841746 0.011846492 0.0014249941 0.0063188146 -0.015060593 0.010121788 0.013161602 0.007578931 -0.013350625 0.0041153645 0.010097082 0.012664549 0.012967284 -0.010415087 0.0074895737 -0.020649983 -0.0039468613 0.014585228 0.0048364187 0.0025711055 0.014085598 0.010974119 0.0126675805 0.0058835945 -0.02179129 -0.010856437 0.006698126 0.013975737 -0.011139922 -0.001007216 -0.0011004314 -0.0032531768 -0.008421298 0.011696705 -0.009948943 -0.011597628 0.019038988 -0.0027562617 -0.00505086 -0.016242972 -0.01963058 -0.010855066 0.006963862 -0.0071553607 -0.007922456 -0.012441058 -0.005660136 -0.0016619327 0.0031667666 -0.0055871834 0.010368781 0.0018284216 -0.013117116 -0.010420698 0.0010400645 0.008772655 -0.011826042 -0.0071194516 -0.0013711764 0.0095809745 0.0038064762 0.0058395118 -0.0011494203 0.0004233154 -0.009214519 -0.021392444 -0.0004272418 0.003701763 -0.009721285 0.004265828
4 -0.008771198 0.0063556386 -0.01636878 0.011353901 0.002550068 -0.00085143093 0.0065300553 0.0024630853 0.0018121738 0.014200435 0.019738318 0.009917355 -0.009303082 -0.009838615 0.003478538 -0.0031502242 -0.00050512364 0.0022464439 0.005537106 0.006285217 -0.009384423 -0.0037009655 0.00911027 0.005264569 0.020226697 -0.0057426966 -0.005425014 -0.014377821 0.005886883 0.0059746443 0.0022782777 0.011740751 -0.0033566654 -0.021465192 0.012541818 0.002021396 0.010314741 0.01003125 -0.015562807 0.0020772472 -0.018981235 0.018309832 -0.0068994435 -0.0029988952 -0.010956133 -0.008804078 -0.015581979 0.0041894284 -0.0051951837 0.005581766 0.012947887 0.011361407 0.0049418854 0.0059312647 0.0067233862 -0.016121019 0.00579888 0.010506601 2.2027176e-05 0.004424401 0.0013873458 -0.011612207 -0.009358519 0.0009960459 1.3376935e-05 0.0007340596 -0.0013155252 -0.0007816119 0.008801379 -0.004031999 0.017511481 -0.009852559 -0.008556033 -0.0010091864 0.0028896783 -0.008143851 0.0012856914 0.013744571 -0.004339301 0.0045618806 0.00028044678 -0.0020961543 -0.014964053 -0.00069243053 0.009760961 0.006586759 0.0032273878 0.0040527605 -0.0060499636 -0.013173614 -0.000961907 0.00878927 0.0012163802 0.0050999695 0.006924485 0.0036881366 -0.0033970098 -0.004631971 -0.016671913 0.014468298 0.0054157563 -0.0017398517 0.0040096757 -0.0054501435 -0.0013564781 -0.0021274015 -0.0028877612 0.004392211 0.013079703 0.005989513 -0.0026940315 -0.0057063815 -0.0023830181 0.0014619518 -0.008709323 -0.010414441 0.013751034 -0.00055925874 0.015521446 0.009968965 0.009721712 0.0037072627 0.0038624788 -0.005613699 0.0116648935 3.859331e-05 -0.012673676 0.0010830592
5 -0.0047974274 -0.00851103 -0.012217578 0.0139062125 -0.010559836 -0.010014283 0.023113707 -0.006227045 -0.012952947 0.0049522608 0.022289746 -0.0074742814 -0.012075976 -0.019762998 -0.020307995 -0.0234868 -0.005363144 -0.008566394 0.008943432 0.013172309 0.0023432185 -0.012556155 -0.014292025 0.009425111 -0.007323764 0.014108749 0.003070087 -0.02282241 0.012735183 -0.01965368 0.015559836 0.008984984 -0.019140523 -0.025287379 0.008664347 -0.00017986062 0.017343033 0.015991714 -0.013458331 0.0054745637 -0.010408329 0.01385929 -0.022663616 0.0056217196 0.006237973 -0.018467398 -0.005301798 0.0016962294 0.0073103737 0.015517222 0.0097937565 0.023539985 -0.01398232 -0.0043580225 0.01434752 -0.0055208234 -0.017135916 0.014412307 0.0076626325 0.016293306 0.01850538 -0.019281013 -0.0127893435 0.0007979722 0.0065551237 0.010149138 0.00075222965 0.0030005537 0.015192285 0.008867683 0.022274742 0.0036590444 0.013944045 -0.0060102036 0.009750012 0.0040544053 0.01884178 0.01603792 0.017412333 0.018791754 0.021888873 0.019559808 -0.012481235 -0.010591547 0.011454098 -0.0068130763 -0.017869953 0.0073257578 0.0112990895 -0.01760535 -0.00445142 0.0011548987 -0.0033058051 0.025589256 0.0121019585 -0.016288552 -0.0107687395 -0.024685381 -0.009027919 0.015613071 0.0075903977 -0.022688616 0.0068814107 -0.006246967 -0.01759847 0.021378564 -0.013320519 -0.0018722439 0.014424318 0.021436967 -0.013277066 -0.01188937 0.015647504 0.008124553 -0.0129033625 -0.0047427425 0.015858993 0.009502154 0.017137691 0.010697028 -0.0023695978 -0.005644375 -0.007860173 -0.01887712 -0.0077223466 -0.0060029672 -0.00088610477 0.017019749
6 -0.009524585 -0.007527677 -0.017636877 0.010129835 -0.006942814 -0.010533671 0.00855121 -0.012351199 0.0031835558 -0.0046047433 0.0076893116 0.0029921257 -0.008020622 -0.015418935 -0.016169012 -0.0124889845 0.014283594 -0.00760789 0.013408096 0.002348323 -0.001020989 -0.020834029 -0.0037243515 0.00995042 0.0024970237 0.005116463 0.01547023 -0.006225552 0.018272782 -0.014691599 0.008705652 0.0020401932 -0.015635017 -0.016254846 0.0061434116 0.0008129256 0.006687794 0.011970504 -0.007150117 0.0074225254 -0.01781984 0.010387756 -0.0069051585 0.004861583 -0.009581858 -0.013022956 -0.009522063 0.010237512 0.0058121583 0.0074941223 0.009930868 0.012188394 -0.012561581 -0.014094425 0.014173074 -0.0063854516 -0.005983192 0.018925829 0.018875951 0.011289647 0.00032485297 -0.0049671354 -0.0087070605 0.0117649855 0.0087379115 0.0043257847 0.001832067 0.009681576 0.004448757 0.00900637 0.012459413 0.001360309 0.0045914566 -0.01607721 0.011759717 0.0050475323 0.013851887 0.015181754 0.011596347 0.017108362 0.018185515 0.0049687475 -0.017510127 -0.016249664 0.007065705 0.014949816 -0.005223693 0.005193312 0.009410639 -0.011064877 -0.008439299 0.0033123845 -0.009106116 0.015089338 0.0015364565 -0.004954355 -0.014014941 -0.008775324 -0.015745679 -0.003721573 0.015514715 -0.009183717 0.0053681047 -0.019474462 -0.013209993 0.015350087 -0.018826827 0.007891912 0.0057020136 0.0042173807 -0.018715102 -0.015418929 0.0071746036 0.008894104 -0.013873544 -0.002600323 0.01164367 0.020707158 0.007499466 0.017208094 -0.0061068838 -0.014192845 -0.013500247 -0.012806712 -0.004345357 -0.010345721 -0.018548485 0.015136609
7 -0.008588189 -0.013059452 -0.01690197 0.008058031 -0.026701495 -0.017054332 0.013714558 -0.015262187 -0.008108921 -0.014368226 0.016324427 0.0064875465 -0.012654032 -0.006441204 -0.01660335 -0.012933888 0.0059457277 -0.006914739 0.0014139435 0.016180476 0.0023317998 -0.014259565 -0.015965216 0.011769925 0.00518814 0.01983225 0.015464228 -0.01555262 0.011682132 -0.016164146 0.009950891 -0.00589675 -0.013228949 -0.029502496 0.020151205 0.009086258 0.011422824 0.025239198 -0.01586025 0.018981578 -0.014452219 0.022545585 -0.013945479 -0.001890486 0.005037727 -0.020527475 -0.016116934 0.015496798 0.015651362 0.016734932 0.01237735 0.02329858 -0.016078368 -0.008665733 0.021465203 0.0037562787 -0.013895575 0.008821854 0.022833686 0.016661681 0.0120389 -0.0055108075 -0.0041716686 0.005135771 0.018564425 0.01497164 0.015037735 0.0050090123 0.019132111 0.017659154 0.02351743 0.0098448545 0.012185548 -0.011570382 -0.004703603 -0.0013396335 0.018790286 0.013756728 0.014836817 0.016096966 0.025748009 0.026609335 -0.022251612 -0.019296551 0.019079292 0.022722995 -0.015188657 0.027333952 0.02155976 -0.014019012 -0.008299182 -0.0036566071 -0.015044205 0.029013034 0.017174227 -0.010445469 -0.010436045 -0.00838604 -0.008147851 0.014098224 0.010791693 -0.011697937 -0.007364492 -0.01515596 -0.02679494 0.01583338 -0.019337164 -0.009615343 0.020829214 0.017336363 -0.011476552 -0.016534831 0.02351347 0.013539515 -0.016386127 -0.012600176 0.0046735206 0.007074429 0.014840875 0.018015746 -0.012550707 -0.004512447 -0.012768207 -0.013971044 -0.006849598 -0.026343726 -0.0014643401 0.01241857
8 -0.0040799864 -0.02166348 -0.020823007 0.017806208 -0.028233742 -0.018423114 0.02463796 -0.0050700307 -0.020448426 -0.015245333 0.027446834 -0.004601525 -0.01828196 -0.008862061 -0.024999917 -0.01877679 -0.005785577 -0.014548452 0.020711657 0.023567151 -0.01729278 -0.004331686 -0.013873076 0.003978962 0.02187487 0.019437663 0.013934407 -0.021937976 -0.0018072347 -0.020047761 0.011258369 -0.014988454 -0.009360522 -0.026797265 0.017807549 0.012191573 0.009841384 0.025343103 -0.022346238 0.009408048 -0.019094624 0.017604968 -0.01803431 0.010089339 -0.0018152922 -0.027475119 -0.018634066 -0.00065092626 -0.004077945 0.02749178 0.018543255 0.02707497 -0.017194236 -0.01302246 0.024813632 0.0059150383 -0.015134733 -0.013161755 0.027742662 0.014117178 0.010562895 -0.024358967 0.007213381 -0.014375176 0.010686227 0.013008267 0.020555202 -0.012438603 0.017170494 0.0028743618 0.02470659 0.011170212 0.014144392 0.0045864144 0.021331461 -0.014509295 0.017505711 0.010752915 0.0044761025 0.023860833 0.027364321 0.013201778 -0.013303814 -0.02168489 0.018722251 0.010419466 -0.016476374 0.012482384 0.0117309205 -0.027776323 -0.005259732 -0.0064296992 -0.0016190632 0.015342187 0.01988232 -0.0051556616 0.008782412 -0.022540465 -0.008286195 0.02694491 0.014585157 -0.02543906 0.01428964 -0.015994154 -0.02258525 0.012644009 -0.016668882 -0.0052904338 0.026926707 0.025911583 -0.0119108 -0.015978474 0.013286028 0.0038466274 -0.016947009 -0.020200748 0.016467758 0.012161198 0.01625772 -0.0011329968 -0.0041296906 0.008171979 -0.021107102 -0.024739953 0.006513654 -0.015835324 0.009585119 0.030654509
9 -0.019682039 -0.021661526 -0.01782758 0.0075668497 -0.01535601 -0.018249264 0.03056831 -0.011831666 -0.019641645 -0.012467601 0.014744804 0.006564592 -0.012097806 -0.017557384 -0.025334898 -0.0148469545 -0.00030413788 -0.0063847955 0.012908556 0.026727414 -0.0015736045 -0.019733297 -0.018931478 0.017590364 -0.0024053955 0.011869048 0.013736788 -0.024781367 -0.0016397694 -0.022877669 -0.009236614 -0.0005851063 -0.019820169 -0.017502652 0.012681211 0.0049614566 0.012568094 0.021890948 -0.009836866 0.016130049 -0.017999908 0.0119370865 -0.008618496 0.009529632 -0.0086378055 -0.023469392 -0.011676703 0.007816172 0.001269866 0.020386422 0.028799105 0.014981079 -0.030668162 -0.014824787 0.030048555 0.0077631488 -0.014213342 -0.0013198914 0.025872797 0.013619896 0.009283418 -0.017583322 -0.005724905 -0.0072099227 0.008007215 0.0039415364 0.0061952886 -0.0043022675 0.014735155 0.012079228 0.01798197 0.010064326 0.014523303 0.0010591022 0.0071327803 -0.0062719774 0.02823188 0.007601881 0.00847991 0.02251763 0.017317472 0.004216093 -0.0123475 -0.027249176 0.0136449775 0.024621587 -0.0072635724 0.02037736 0.023180505 -0.025889503 -0.0043365057 -0.0027323724 0.0018275469 0.012499215 0.019317688 -0.013301336 -0.010424063 -0.019726077 -0.016252885 0.00887545 0.015956664 -0.018194813 0.0012070338 -0.01556183 -0.016397549 0.025653878 -0.017607633 -0.0061132014 0.0160182 0.020364374 -0.0064535057 -0.02381139 0.011470829 0.013389189 -0.015447727 -0.014645169 -0.0012277117 0.018964043 0.018865583 0.0046532014 -0.0066545354 -0.0034364238 -0.0077582267 -0.024132278 -0.003740723 -0.0212707 -0.006780951 0.012492753
10 0.007889703 -0.009327894 -0.015856303 0.012352453 -0.010018596 -0.0143650565 0.020529645 0.000407176 -0.0034290978 -0.0083157495 0.018190682 -0.00042221582 -0.017254256 0.00068423117 -0.009720488 -0.018709842 0.012228206 0.00902172 0.007323662 0.018425008 -0.015303394 -0.0063958843 -0.022145271 0.012370734 0.010113942 0.012765193 0.010058715 -0.01436378 -0.0016739063 -0.016507905 -0.003848296 -0.009957619 -0.0004305687 -0.016563496 0.01682342 0.0113764405 0.0064999983 0.0091932565 -0.020786913 -0.0040697837 -0.0049691373 0.008300726 -0.0028698992 0.0064183776 -0.014429127 -0.017285204 -0.016325584 0.014541198 -0.013948475 0.017948689 0.0050489022 0.0073765246 -0.025896834 -0.008111115 0.016416555 -0.009987188 -0.0077797836 0.008923619 0.015606483 0.005838578 0.0009399639 -0.018655566 -0.005621796 -0.013825236 -0.0050078332 0.017246127 0.0135246925 -0.018188845 0.019282881 -0.00227177 0.010475452 0.012195911 0.006739402 -0.00242808 0.00573562 -0.014622982 0.017234655 0.0026699055 0.0033159882 0.0066433493 0.013847248 0.014363786 -0.008465257 -0.016682504 0.011523222 0.014879417 -0.012185894 0.010221158 0.021867402 -0.008357806 -0.004694802 0.004721565 0.002999615 0.025749097 0.007996377 0.0033811347 0.007633269 -0.009406961 -0.02143346 0.013140048 0.008269301 -0.015505595 0.007636171 -0.012031197 -0.019533034 0.019084534 -0.009039989 0.018183688 0.023208754 0.018512754 -0.0029730243 -0.014907754 0.0058705728 0.0052711307 -0.009970827 -0.0177552 0.0143860625 0.017032137 0.018366532 0.02035551 0.0076533607 -0.0040898668 0.0059993383 -0.0020335088 0.008086852 -0.014452202 -0.015264505 0.021916589
11 -0.0049570287 -0.018866502 -0.021363342 0.003517793 -0.026999913 -0.023447303 0.030541949 0.0107228095 -0.022718465 -0.006685021 0.026725689 -0.013731869 -0.022603024 -0.008796798 -0.029739205 -0.025607131 0.022073945 -0.0039159544 0.029524732 0.02168745 -0.021141648 -0.012415058 -0.010946205 0.011520312 0.018942192 0.028381895 0.022000762 -0.018493604 -0.007900504 -0.011825508 -0.012211633 -0.0062747537 -0.012460023 -0.02814346 0.016620275 -0.0067153936 7.526309e-05 0.019586217 -0.015190059 0.015546838 -0.024857238 0.023065025 -0.02913778 0.00405926 -0.023032948 -0.0142521905 -0.02041046 0.015014567 -0.0050585372 0.026639707 0.023117656 0.021033894 -0.0245954 -0.023154726 0.020611448 0.005471127 -0.016824283 -0.010481886 0.018982995 0.02202504 0.019451505 -0.030657792 0.005841075 -0.019049397 -0.0028413583 0.017686293 0.0168075 -0.021616314 0.028315758 0.0066272444 0.022853008 0.022039892 0.011445111 -0.0012063943 0.0072270827 -0.0149162635 0.03045974 0.019550871 -0.002617583 0.01404687 0.01900772 0.016964812 -0.005426222 -0.018593535 0.011571332 0.022190161 -0.02032689 0.02372076 0.024491167 -0.021941993 -0.004113397 -0.00505307 0.011403121 0.020653568 0.015195538 -0.0069813863 -0.006521053 -0.016901433 -0.012868288 0.018026441 0.014523827 -0.02129286 0.01851929 -0.02640803 -0.028026663 0.018797092 -0.019531086 -0.0145542985 0.030321779 0.026621433 -0.0049488223 -0.017328365 0.019547828 -0.0070512234 -0.02604142 -0.019086001 0.014129861 0.01382512 0.01583135 0.026238458 0.0015301816 0.0020297505 0.0034130875 -0.024290636 0.0075117275 -0.02842732 -0.011326444 0.016792286
12 -0.00926988 -0.0015914151 -0.016290471 -0.0034530296 -0.013733832 -0.009708158 0.025941893 -0.0052813366 -0.010203806 -0.0078104986 0.0040729297 0.010677668 -0.013409883 -0.0094401 -0.014318315 -0.015321628 0.014801969 -0.0028441031 -0.0005187084 0.021449426 -0.012352915 -0.007870205 0.0011221062 0.01559405 0.0036536609 0.016823951 0.010838937 -0.020972347 -0.0056264955 -0.019691065 -0.006473307 0.0031709645 -0.015230856 -0.012563426 0.0193616 0.0038473045 0.0069298497 0.01789544 -0.020471482 0.0030544198 -0.01704792 0.018903825 -0.020410564 0.0030842628 -0.0019944475 -0.012482783 -0.024334976 0.0013167888 -0.0067091524 0.021557895 0.0074798088 0.02144594 -0.025446746 -0.010981346 0.017504727 0.006662794 -0.008685061 0.011011206 0.014652494 0.011599579 0.013358185 -0.01909094 -0.001166105 -0.0022643043 0.001114974 0.0021813163 0.009738727 -0.001785297 0.012029875 -0.00534271 0.011001829 0.007690008 -0.00079113827 -0.006289744 0.0061925985 -0.0054158904 0.01251783 0.011239346 0.0010325883 0.010862922 0.021398252 0.025393808 -0.0064502265 -0.025865884 0.012269074 0.010681607 -0.011985945 0.015994562 0.00481057 -0.008436402 -0.002934286 -0.00476854 0.0018181147 0.0067239543 0.011179534 -0.00176385 -0.0030902447 -0.020179477 -0.01807009 0.0147080105 0.00952175 -0.021637373 0.016047083 -0.00982759 -0.023375822 0.0013457437 -0.0047217435 -0.0076077376 0.025546908 0.024554688 -0.0114539135 -0.011271362 0.005187955 0.008043688 -0.0131821595 -0.015809197 0.016453486 0.0148409605 0.010694319 0.014842302 -0.0041388106 0.0009815397 0.004457973 -0.023607234 -0.0044311006 -0.016884571 -0.0069202315 0.003290323
13 -0.010083623 -0.010751075 -0.008973659 0.021279285 -0.0052249245 -0.0075959265 0.012728378 -0.0018168031 -0.00050737057 -0.0014533977 0.018443907 0.0052644885 -0.023583833 0.0020217549 -0.011892998 -0.010507615 -0.0031066523 0.003684153 0.012752835 0.009719996 -0.011659443 -0.005805098 -0.00588571 0.01515715 0.0051755602 0.0028060197 -0.0007025433 -0.014704478 0.0029537303 -0.00029545606 -0.0030414064 0.0012866639 -0.0013668633 -0.011512124 0.0043630595 0.011898668 0.002404088 0.006141289 -0.012498055 0.003606894 -0.016858704 0.0036564479 -0.0025907517 -0.0032865559 -0.012287569 -0.015738964 -0.020097904 -0.002451174 -0.0006967685 0.009488284 0.0047752075 0.023148367 -0.013375218 0.0021643355 0.01475141 -0.0024910574 0.0012105582 0.0049154717 0.005604387 0.008176295 -0.0038675761 -0.019275274 -0.007507105 -0.004024874 0.004165522 0.009950895 0.0073780385 -0.011035289 0.0061720796 -0.00013898371 0.0061353575 -0.0016365119 -0.008027748 -0.008087444 -0.0057381387 -0.0063083144 0.0026723612 0.0062263208 0.0025238 -0.0019451664 0.009448995 0.006821224 -0.0070060296 -0.010750972 0.006335276 0.005054187 -0.0018934644 0.00012081361 0.00957076 -0.004084768 -0.0029987376 0.0076938933 0.009444704 0.016983546 0.009195137 0.004135866 0.0070423433 -0.0074650925 -0.0080350805 0.011783433 -0.003340105 -0.0066876328 0.008824629 -0.013277538 -0.0054958053 0.016865645 -0.010396143 0.018397845 0.01366601 0.0020331608 0.002289165 -0.008423032 0.010076011 0.005825966 -0.0032005305 -0.020288968 0.010100253 0.000676934 0.0095123 0.009237869 -0.001748009 0.007497741 0.0019300169 -0.013390626 -0.009779056 -0.018673934 -0.00089759426 0.0129736345
14 -0.0079040965 0.0028047583 -0.018939955 0.01487112 -0.015673747 -0.008007703 0.02239794 0.016163487 -0.0009113753 0.000575576 0.018099098 0.013635989 -0.02436411 -0.022232596 -0.00011178653 -0.016351556 -0.003279652 0.0030916112 0.029153692 0.025665268 -0.020716734 -0.008944306 -0.009349924 0.017206455 0.012817681 -0.00327142 0.001660397 -0.011756521 -0.015499749 -0.013993067 -0.021091834 -0.016833048 -0.00026702846 -0.008918182 0.011117276 0.01799657 0.0031396267 0.01642525 -0.01805201 -0.011243368 -0.022674028 0.0130812405 -0.008862901 -0.0039999275 -0.013988946 -0.018209316 -0.021491762 0.0034772595 -0.017341396 0.017146828 0.02335309 0.011112478 -0.02799193 -0.006684708 0.018093262 -0.0016274644 -0.0059758746 -0.0005015405 0.007686411 0.0064558983 0.0014423869 -0.02275282 0.013781989 -0.023643663 0.011394243 -0.0029823417 0.024438694 -0.01844658 -0.00038849103 -0.022786733 0.026269183 0.012177541 -0.014643838 0.015177314 0.008337877 -0.012473587 0.0049700793 -0.0068250448 -0.0034606196 -0.0055852192 0.010282937 0.00897278 0.0027237711 -0.010116023 0.006773621 0.01157794 -0.005011457 0.0052928617 0.005528507 0.0006324911 0.006231077 -0.0074844663 0.0154333105 0.026348582 0.007844533 0.0031013307 0.015457892 -0.019621346 -0.024972461 0.012321078 -0.003809343 -0.0041134087 0.01445691 -0.0126848165 -0.02571029 0.022993261 -0.016728241 0.0031258713 0.0086883595 0.0072631687 0.0048043313 -0.021893386 0.00010920651 -0.004155159 -0.008823576 -0.020274302 0.009302697 0.0064102816 0.020574894 0.024686718 0.025350668 0.018010873 0.010003329 0.002141884 0.0026653307 -0.010590528 -0.023263771 0.029509272
15 -0.0018392487 0.015818203 -0.005272074 0.016781976 0.0086926725 0.011749854 -8.442678e-05 0.004456148 0.014835504 0.02045943 -0.0023908396 0.015478148 -0.01968742 -0.0100459615 0.0097504305 0.0015238262 0.00023796901 0.009957429 -0.002781189 0.022728277 -0.017208908 0.00030142165 -0.0015681521 0.018189404 0.023249889 -0.008749293 0.0043329815 0.008701769 -0.012102884 0.006534161 -0.010590096 -0.008889618 0.005044505 0.008553656 -0.010363537 0.016270522 0.00071438856 0.0006422347 0.0075672423 -0.01370112 0.0006855539 -0.00043997128 0.0025643022 -0.019038135 0.013347503 0.0062143854 -0.014443243 0.007407241 -0.013091433 -0.0029953392 -0.0041717566 0.009831164 0.0067571886 -0.0014751314 -0.0020405136 -0.014581147 0.002678076 0.018816516 0.0019040657 -0.008757737 -0.014506942 0.0042882683 -0.01252258 -0.019867346 0.0031175278 0.017748604 0.0075289453 -0.015865032 -0.008587831 -0.018302929 -0.0011077492 0.005642464 -0.019573828 -0.000459003 0.010960359 0.00031769928 -0.01057449 -0.012994965 -0.0062076882 -0.009254703 -0.008265223 -0.0023506342 0.003559388 0.0058440194 -0.004898416 0.0011019397 0.010611685 -0.005745618 -0.009113064 0.0076323417 -0.00018707085 0.004949227 0.012571189 0.020398773 0.0055214223 0.014529303 0.012684546 -0.0037623427 0.0024903675 -0.0014305173 -0.012835678 0.0031815749 0.0031293584 -0.02095735 0.005990479 0.020423826 0.010559189 0.017902024 0.0015304047 -0.0016508331 -0.0030187457 -0.015444263 -0.018367887 -0.00035294745 0.010946148 0.00083407667 0.00228248 -0.013595941 0.0040956647 0.022844268 0.022083368 0.019972907 0.0067671626 -0.0005716741 0.012888301 -0.0107474495 0.0038649144 0.025860442
16 -0.011638983 0.008907094 -0.022592107 0.015890723 -0.003320008 0.0081334 0.017515404 -0.0020064365 0.00023723952 0.0074288673 0.012397804 0.015171518 -0.011369955 -0.022503946 0.002163106 -0.009877138 0.0028644826 -0.00037585536 0.0066152913 0.013047849 -0.019549819 -0.006867882 -0.0051740413 0.023445424 0.0058705215 -0.0066853985 0.0076074204 -0.0039030025 0.0043114107 0.0029266453 0.00057929335 -0.012396533 0.004293405 0.0055627143 0.0030541783 0.021483706 0.0043345913 -0.0038023528 -0.015164467 -0.00048363506 0.002722649 -0.0026405193 0.0014925746 -0.00097226957 0.0038555667 -0.005624246 -0.017165659 -0.00060539274 -0.012940438 0.009859908 0.0036974475 -0.0053331535 -0.013140579 0.0018963639 0.0022052703 -0.007593063 -0.009919965 0.011323121 -0.00030716497 0.005654486 0.0022269038 -0.010472914 -0.0039403816 -0.011378901 -0.0040268134 0.0021984947 0.016292838 -0.014054644 0.016663752 -0.007167474 0.004521759 0.0056886575 -0.01610659 -0.006621479 0.008945301 -0.019463034 -0.0007497897 0.0052549685 0.000912357 0.011140358 -0.003393801 0.012768386 -0.0062851594 -0.006093697 0.011276614 0.0032508115 0.0041153543 0.011297977 0.0029453607 0.0025551217 0.0072569586 0.0047797076 0.009099539 0.020788725 0.023401052 0.007852389 0.008470078 -0.029011184 -0.024891034 0.0075813904 -0.0021640803 -0.007124202 0.020793935 -0.01003957 -0.02207906 0.011170254 -0.001942446 0.0028395907 0.016323105 0.011643009 -0.0076774308 -0.016374793 -0.0121683525 0.008097816 -0.005972634 -0.010906891 0.007886004 -0.008501535 0.011263516 0.016135665 0.0075562834 0.012418336 0.0034080248 -0.015207658 -0.009078127 -0.017433457 -0.007236492 0.01074106
17 -0.016832784 -0.014546889 -0.013770294 0.016882682 -0.013615898 -0.005675246 0.024371626 0.003179037 0.00062732614 0.00038524874 0.010691211 0.008473145 -0.023512412 -0.0004093324 -0.0090736635 -0.0027011922 0.015627384 -0.0052207527 0.009850766 0.013939292 -0.003924252 -0.0054592136 -0.012989203 0.02432993 0.029204205 0.017570185 -0.009598587 -0.0133356685 -0.0051121674 -0.0049334154 -0.01395908 -0.0017543877 -0.018995522 -0.0151956435 0.007510463 0.018047895 0.0065479097 0.023970384 -0.018882664 0.0030649183 -0.02012872 0.014995593 -0.010749817 0.006812577 -0.014330704 -0.009695232 -0.017171346 0.011910841 -0.014415495 0.01657888 0.0077964813 0.013964208 -0.016529925 -0.012192176 0.007988622 0.004553202 -0.010150567 -0.005256159 0.008877429 0.018597763 0.0056713014 -0.007501027 0.013161821 -0.01144587 0.004104402 0.0036578446 0.0064598015 -0.01677151 0.019021412 -0.020727275 0.021522284 0.009979445 -0.014378351 3.806525e-05 0.015545571 -0.011128099 0.01343064 -0.005141951 -0.0016669893 0.012704277 0.019366868 0.018896177 -0.011838696 -0.005432649 0.008769567 0.006783595 3.05773e-05 0.010586017 0.014311611 -0.016006729 0.0048995125 0.007584788 0.022110868 0.0208944 0.014953224 0.007887653 -0.0011513488 -0.024276972 -0.010175081 0.011914976 0.0045720832 -0.018741734 0.006772815 -0.018026676 -0.005464453 0.00927328 -0.010849566 0.0032729371 0.008242699 0.01730505 -0.012394845 -0.019560447 -0.0012092071 0.0121249035 -0.01943069 -0.015247795 0.011723335 0.014449251 0.017453939 0.018684698 0.015618539 0.0037216272 -0.01142644 -0.016349887 -0.00075552746 -0.014537943 -0.008472559 0.029142715
18 -0.019277135 0.00707702 -0.0093002785 0.022398096 0.01021776 0.008986793 0.005907506 0.0012401353 0.0131585775 0.016330767 -0.0027469213 0.024255363 -0.0048524938 -0.021391291 -0.00065736996 0.0026379328 0.01334142 0.009377043 0.013797721 -0.003836612 -0.014620163 0.0018925655 0.007977733 0.015268501 0.012505223 -0.011250926 0.0063387165 0.004373245 0.0017024875 0.006565841 -0.010769218 0.009475663 -0.0085898265 0.006945985 -0.017089738 0.012044508 0.010584012 0.0075842924 -0.005566941 -0.008675912 0.007505077 0.004282127 0.008356467 -0.001921825 -0.016333543 -0.017462395 -0.012427723 -0.0032561955 -0.0062294076 -0.0112490775 -0.0013303296 -0.0006500253 -0.0013870435 -0.021441806 0.010362437 -0.022558033 0.02196459 0.013366785 -0.0015866406 0.0004975154 -0.014208812 0.0028054852 -0.013257101 -0.024854753 -0.001494996 0.011079578 0.00403994 0.00069614826 -0.0042870636 -0.0058825472 0.028654115 -0.009708844 -0.021313101 -0.024065148 0.0120953685 0.010704043 -0.01588793 -0.0028216678 0.009551884 -0.0034433198 -0.007374763 0.0030475191 -0.019277046 0.004132834 0.010351594 -0.0058381944 0.009561477 -0.015222518 -0.017531702 0.014162771 0.00052640634 0.0019612953 0.002002968 0.014323333 -0.0019849478 0.013248012 0.016912192 0.009817278 -0.008024077 -0.008688891 -0.0055879634 0.012921925 0.006871866 -0.0035860995 0.015848588 0.0058368407 0.014197016 0.016617112 -0.008653032 -0.003657795 0.008608681 -0.012576076 -0.019303624 0.004023963 0.0054041264 -0.016344864 0.015168055 -0.01667896 -0.0035550885 0.0096255625 0.011048529 0.0122151505 0.008897494 -0.0031137115 0.01791952 0.008270065 -0.0019474598 0.022206541
19 -0.02813368 0.015214211 -0.012049927 0.022952344 0.012264065 0.013799769 0.003025266 -0.004402432 0.021035723 0.012193058 0.01162059 0.022727577 -0.003647132 -0.02984918 -0.0024047005 -0.005462865 0.012980786 0.015953852 0.025804995 0.006541966 -0.026625616 -0.008796513 0.0057499306 0.02206517 0.0054996163 -0.01939454 0.008365089 0.0073281946 -0.005169851 0.016971098 0.0052561625 0.0024894397 -0.009508037 -0.00011900641 -0.011010592 0.012628543 -0.0019774325 0.010663449 -0.010014909 -0.0149693005 0.010658246 0.024348669 -0.0071358494 -0.0058587817 -0.012924557 0.0019356289 -0.011986412 0.009506189 -0.01723074 -0.011134411 -0.0066827117 0.004046396 -0.005218906 -0.014128049 0.0026916806 -0.021280989 0.016310574 0.0030344413 -0.00599914 -0.003456229 -0.02389626 -0.009606711 -0.016487181 -0.013985937 -0.0035693864 0.007026952 -0.0065783816 -0.015850544 -0.0056428616 -0.011842277 0.0037032524 -0.020222204 -0.008867671 -0.016819067 0.009961095 -0.0029393558 -0.010290519 0.0040693628 0.0052409503 0.0020442107 -0.012903525 0.006279352 -0.004734557 -0.00013945161 0.012479803 -0.001436615 0.014289832 -0.015032716 -0.0070859455 0.0009631568 -0.0037826085 -0.006690478 0.00832793 0.009766875 0.007317615 0.0070923944 0.011574766 -0.0020867072 -0.011975476 -0.010544379 -0.005538594 -0.00018043543 0.0126644485 -0.008859523 -0.0005379397 0.0073218886 0.017754182 0.017881582 -0.010612566 -0.010611328 0.005594106 -0.020489318 -0.016718337 0.0035407215 0.0083596585 -0.014728345 0.014519238 -0.0037700536 0.009677753 0.014906574 0.018427908 0.019789707 -0.0038724164 -0.0056877304 -0.014955233 -0.0050489428 -0.02614723 0.02228222
20 -0.004671895 0.0024473548 -0.012282088 -0.0013408966 -0.0062000556 -0.0014561912 0.020393923 0.0022052778 0.003261698 0.0012407006 0.0075489786 0.0023522894 -0.01529726 -0.016284237 -0.008690604 -0.013115926 -0.0010214505 -0.0015186525 0.01908413 0.014243996 -0.0023060953 -0.017146049 -0.012382757 0.021190073 0.023713013 0.005548298 0.005213771 -0.007025863 -0.0008667677 -0.0011146375 -0.0069132303 -0.0012295137 -0.02270227 -0.012472971 -0.0027047573 0.004067912 0.013887318 0.012348772 -0.0003965579 0.006302606 -0.0123979915 0.01221391 -0.013355587 0.004693518 -0.017733894 -0.011014132 -0.008451595 0.0040359795 -0.012506628 0.0102741 0.006312822 0.015610948 -0.002790315 -0.009498716 0.012156392 -0.0057499087 -0.0061552143 0.006937108 0.01238274 0.022708524 0.0023315782 -0.0059495606 -0.0029494462 -0.021454453 1.3204641e-05 0.0004896224 0.0017969455 -0.01093581 0.0060159992 -0.012414641 0.018725805 0.008343259 -0.008852601 -0.0047193537 0.0043930346 -0.011953668 0.014265189 0.008019491 -0.005010203 0.02186133 0.007800374 0.012669461 -0.0011803745 -0.015133953 0.020709261 0.009944615 0.0072112256 0.018807495 0.0073271366 -0.014590386 -0.0041715694 0.0075806705 0.015307991 0.0081415335 0.008391583 0.012716537 0.017671157 -0.02499422 -0.019637251 -0.0019406318 0.009220598 -0.011016541 0.012312517 -0.022298416 -0.0053922264 0.02680448 -0.0030413847 0.013599195 0.013059176 0.016280409 -0.0150984805 -0.015066906 -0.0072807856 0.005465431 -0.00021719141 -0.01442203 0.008610513 0.015953265 0.013955703 0.018545374 0.018550336 0.008536764 -0.0016852013 -0.02535468 0.008672511 -0.011824366 -0.0058500594 0.02004987
21 -0.013098184 -0.004859051 -0.013333441 0.005832945 -0.0003260966 -0.0012673524 0.0019303497 -0.01155959 0.005377984 0.009880986 0.007808066 0.010134922 -0.004833352 -0.021786021 -0.0006238499 0.0019216936 0.0055887843 0.0047053713 0.012435953 0.00042903173 -0.025525289 -0.016318617 0.007990991 0.017764542 0.016477201 0.0028078146 0.012263271 0.0007524146 0.001922328 0.0013775437 -0.0026730835 -0.008448391 -0.010438019 -0.007029549 -0.008298389 0.010011934 0.013335928 0.020415677 0.002677585 -0.0052816463 -0.0031210342 0.01261374 -0.0101252245 0.00927015 -0.008014415 -0.022897579 -0.010454567 0.018908821 -0.021908604 0.0007484887 0.008074425 0.024588984 -0.00069786224 -0.012706533 0.008725589 -0.021201715 0.009020142 -0.0024685026 0.004279189 0.0002754138 -0.0125760725 0.004291021 -0.010930855 -0.027197259 0.021193976 -0.0027432411 0.00708649 -0.01698873 0.01191719 -0.02001441 0.008731219 0.0059698992 -0.005306299 -0.011550876 0.0072057704 -0.011138393 0.010133185 0.020667518 0.011043643 0.013229151 0.009242674 0.020687135 -0.023055855 -0.007977011 0.0067390567 0.007573699 0.0068931347 -0.0031661403 -0.0027269176 -0.010831574 -0.0076210685 0.01323206 0.009521091 0.018711766 0.009782793 0.010461126 0.019582033 -0.0060544726 -0.009716577 -0.009438108 0.013165248 0.0013338667 0.0089326985 -0.018366912 -0.003910022 0.02161609 -0.0006059487 0.019489206 -0.00076310337 0.014212796 -0.0149727855 -0.010639092 0.00022773174 0.0050683604 -0.010280764 -0.0096725365 0.011468992 -0.0010963923 -0.002861158 0.019284887 0.015841642 0.010757077 -0.00494144 -0.018445812 0.012308703 -0.008252881 -0.00064654334 0.024849094
22 -0.01900564 0.0028380197 -0.011221055 0.0041985093 -0.018299924 -0.0059247036 0.0113853775 -0.0003750757 0.00079572934 -0.00043646956 0.01728282 0.0035498652 -0.0047709635 -0.009043788 -0.014822537 -0.014178167 0.0083362255 0.0027764256 0.018585438 0.0071638343 -0.012001347 -0.012349986 -0.005373512 0.014568988 0.0131711885 0.011202407 0.00053322327 -0.0153312115 -0.0043822625 -0.008730844 -0.008695513 -0.0069592777 -0.017438658 -0.01952296 0.007409065 0.024455996 0.011018929 0.0125838695 -0.01577041 0.013947781 -0.0062876306 0.015299994 -0.017855128 0.0026213662 -0.021614505 -0.01600176 -0.015116481 0.0041374597 -0.012159776 0.008584316 0.020111812 0.016169587 -0.015152564 -0.0137001835 0.015355493 -0.0060218894 0.0022198758 0.009363161 0.0102977585 0.01670399 0.007170732 -0.018272877 0.007463804 -0.012259141 -0.007906016 0.008321736 0.008359155 -0.01709288 0.016029421 -0.017334215 0.016536219 -8.306943e-05 -0.0076570325 0.0072326637 0.005947497 -0.021844449 0.0048188427 0.008480017 -0.0028784222 0.0238139 0.007921596 0.018949963 -0.020889346 -0.022140598 0.02109237 0.01212624 -0.009019962 0.014216198 0.004151709 -0.011207376 -0.002807 0.006016969 0.01435721 0.010621769 0.0202688 0.018277979 0.003996297 -0.023837963 -0.016553348 0.01462405 0.01563757 -0.022201713 0.006076701 -0.015128631 -0.018942073 0.015271981 0.0039771567 -0.004468304 0.022842277 0.013029821 -0.0135394335 -0.01229277 0.003762761 0.00086337654 -0.016886428 -0.0119512435 0.020386647 0.0064611817 0.013404511 0.014641367 0.008217348 0.008765263 0.005040118 -0.012983316 0.008279502 -0.00656472 -0.010042157 0.015237254
23 0.0035460957 -0.008062659 -0.0067885714 0.0133508835 -0.0035506594 0.0057408186 0.0003730589 0.0011313218 0.0030422993 0.006017861 0.00044443485 0.0056547653 -0.0038364173 -0.0036876649 -0.0067900214 0.005645378 -0.0056851152 -0.0057008164 -0.007167564 0.007779497 -0.008818737 -0.004194988 -0.008767854 0.00014034414 0.0018033981 -0.012357276 0.0082922 -0.00085094594 0.012452598 -0.001141153 -0.006585598 0.0015075883 0.0045151287 -0.0030458788 -0.003714598 0.0064376253 -0.0006123256 0.012442623 -0.0032539256 -0.007488178 -0.0014623437 0.0009934553 0.01170113 0.0035856802 -0.010327492 -0.007357247 -0.0065513854 0.006106969 -0.015336772 -0.0037131512 0.008119634 0.010776733 0.0020004774 -0.008520464 0.0030634177 -0.0006559168 -0.009958724 0.0050143967 -0.0039910157 0.0050025694 0.0024334327 -0.0050287615 -0.0024876238 -0.011514817 0.0066642915 0.00660045 -0.0035421217 -0.009353345 -0.008893436 -0.016144337 0.019390084 -0.005972938 -0.0023134523 0.0029828062 0.016254911 -0.0007249333 0.01132145 -0.008452514 -0.0060253297 -0.008657844 0.013238774 0.012446711 -0.012034037 -0.0031458768 0.009252131 0.0065927394 -0.006279783 0.0014347301 9.902593e-05 -0.0028704796 -0.005769692 0.003981011 0.018535519 0.02128686 0.0059239473 -0.0078510735 0.0076169544 -0.0033247499 -0.014546772 0.0071541066 -0.0046405634 -0.019117523 0.009544913 -0.0134227695 -0.0023113769 0.010401066 -0.0043072067 0.011324059 -0.0029039988 0.013520117 -0.0036560039 -0.014470739 -0.0034323866 0.0030486756 -0.01524506 -0.018105317 0.004869729 -0.010258093 0.009402687 0.0048931735 0.012350274 0.00113918 -0.01872634 -0.0019757221 0.005204152 -0.007504327 -0.0029493838 0.016561555
24 -0.0127633335 -0.01231588 -0.028242119 0.014149283 -0.016367523 0.00013298629 0.0136200255 -0.0018349928 0.0031161879 0.008462937 0.011545919 0.0025799978 -0.02081802 -0.018098913 -0.01554642 -0.021906476 -0.0046305675 0.020514164 0.015696384 0.017206475 -0.024559496 -0.020303983 -0.011858744 0.0063857953 0.023995684 0.011254456 0.0060633593 -0.014655837 0.002308911 -0.008462219 -0.013240142 -0.010969433 -0.019011965 -0.024548844 0.01623166 0.01563447 0.013573186 0.027489861 -0.018244924 -0.0013217987 -0.0113856075 0.019585729 -0.011777003 -0.015405443 -0.012680653 -0.02673221 -0.023871807 0.016019894 -0.0263921 0.01032676 0.017118845 0.016139628 -0.016408987 -0.021815585 0.024392758 -0.0106225535 -7.325236e-05 0.01107663 0.012829339 0.01334544 0.007572075 -0.017984752 0.0020475218 -0.00980183 0.0057923244 0.013527449 0.015882209 -0.020179315 0.014104623 -0.0305488 0.024548322 0.010001859 -0.02309136 0.00091649813 0.008326027 -0.019718848 0.011133359 0.011460597 0.0007079538 0.01791431 0.01911039 0.026137047 -0.021216407 -0.024658145 0.010058743 0.017163688 -0.0076661636 0.0012103575 -0.00516924 -0.019085515 -0.00813587 0.009243638 0.01323971 0.013526024 0.029200222 0.02739734 0.012286299 -0.017047595 -0.012970773 0.008589103 0.017187858 -0.0131578995 0.025115041 -0.025344795 -0.019088125 0.017038347 0.00048276078 0.01518603 0.020951543 0.015352566 -0.014805407 -0.012206802 -0.0059437463 0.0034970222 -0.023722764 -0.021363141 0.019932248 0.0029994147 0.010516894 0.009746615 0.026224762 0.018993188 -7.5194694e-06 -0.024251489 0.0019392434 -0.011334016 -0.0073894626 0.023694351
25 -0.0071561434 0.0031706209 -0.012947375 0.0057153855 -0.0093843425 -0.0050110603 0.0187658 0.00751727 -0.011562097 -0.003537946 0.007014704 0.018182723 -0.012999715 -0.011223021 -0.021455536 -0.012317842 0.005969985 0.00036418653 0.020841831 0.023082597 -0.011628793 0.0052593867 -0.0015427521 0.020833455 0.017071541 0.008847277 0.0028403704 -0.020901527 -0.0065939175 -0.014744214 -0.010078425 -0.018355206 -0.026161 -0.020395827 0.014375097 0.024435263 0.008458886 0.010037137 -0.012522337 0.0072646216 -0.02525379 0.0164356 -0.011598402 0.00034506083 -0.025224855 -0.01628719 -0.024089355 0.012425566 -0.02539038 0.017454872 0.009006971 0.022804981 -0.026078995 -0.0026681193 0.017889002 -0.0021885955 -0.013638279 0.014717261 0.010099765 0.015984267 0.009885117 -0.013687847 0.011720246 -0.01782991 -0.0047960323 0.0033084408 0.010951514 -0.013881117 0.013084449 -0.028504144 0.015014184 0.014965583 -0.0063870214 0.011487924 0.01771303 -0.015429943 0.0065054116 0.003121316 0.0017133751 0.0076311976 0.011407556 0.017168622 -0.014925764 -0.015237193 -7.500872e-05 0.0059529264 -0.0019384141 0.018415295 0.0107999435 -0.009444231 -0.008636537 0.013197548 0.013910239 0.02216644 0.011625968 0.0092213275 0.0026784334 -0.024524136 -0.0049526473 0.009402202 0.0062430426 -0.016122969 0.014639135 -0.01095617 -0.019320162 0.013014242 -0.016952893 0.00452917 0.0112366155 0.014831861 -0.012694547 -0.022737933 0.014420264 0.0049556037 -0.020049514 -0.014904191 0.026227213 0.010130025 0.010798677 0.015111589 0.016486658 -0.0059027877 -0.007285644 -0.0116953775 0.006224167 -0.024999155 0.0009548057 0.019265695
