26 128
0 -0.0037710837 0.0063153934 -0.007654249 -0.0024282672 0.0019244656 0.018271847 0.008501666 0.0052812877 0.0076570585 0.0050926153 0.008705594 -0.02402156 -0.007516425 0.008876006 0.002312858 -0.01228053 -0.0092735905 0.0072644856 -0.009404541 -0.0016758027 -0.0020821425 -0.021851957 0.013836288 -0.008381301 0.0009144879 -0.002939234 0.015108704 -0.009529329 -0.0077782855 0.0026315209 -0.0016890246 0.0054721367 0.019899571 -0.011767023 -0.012713539 -0.011096302 -0.014623175 -0.0016864161 -0.011915022 -0.0012639705 0.004726263 -0.014813905 0.01211718 -0.010435659 0.00020845988 0.009656638 0.0046509625 -0.006174517 0.007059162 -0.004515157 0.0066610426 -0.0009897538 0.0039215335 -0.0049703037 -0.0063065765 -0.0035925037 -0.00043450718 0.016297229 0.010557725 0.0056360867 0.008797428 -0.0062447684 -0.0127677955 0.0077954265 -0.004203868 0.009501569 0.0075010746 0.0010792764 -0.0060599623 0.010136174 -0.0048013288 -0.0076333755 -0.021635968 0.0030056876 -0.012617465 0.002558548 -0.0015009915 -0.009913517 0.010918581 -0.022503002 -0.014210826 -0.013190152 -0.0014996303 0.010054565 0.0066428506 0.007685668 0.004005053 -0.0076830294 0.0043965336 -0.010466476 -0.004189522 -0.008832475 -0.0006993114 -3.776137e-05 -0.0010141511 -0.009842866 0.010277027 -0.015683722 -0.002855985 0.010009385 -0.015940236 0.006397207 -0.012119084 0.009068518 0.0016035901 0.0056718127 0.003392937 0.0058950884 0.0017973168 -0.0030117843 0.01514574 0.0107803615 0.018895127 -0.00033487566 -0.0033721384 -0.006042408 -0.004708735 0.005470071 0.015106281 -0.009627499 0.005869772 -0.005909425 0.020038823 0.014773112 -0.010323532 0.000952512 0.015936658 0.0016747033
1 0.014393668 0.018565532 -0.007588303 0.016776891 0.0074893287 0.022837874 0.01649872 0.021834174 0.0185977 0.002676204 0.020720365 -0.017267223 -0.019704582 0.029483844 0.01035271 -0.02395234 -0.0053197797 0.017997574 -0.00652546 -0.0063822577 -0.020709237 -0.010800785 0.020357136 -0.01764542 0.03098378 -0.008425935 0.01431589 -0.019740071 -0.024211518 0.019242989 -0.014941257 0.009142435 0.01374824 -0.011758509 -0.022439385 -0.010452762 -0.023448508 -0.023700068 -0.014685387 -0.015013742 0.014983351 -0.022096902 0.021135326 -0.016372202 0.007770142 0.008966601 -0.0072674626 -0.0098328795 0.011594975 -0.02361092 -0.010521985 -0.0042755934 0.025400763 -0.0010562981 -0.023544583 -0.008450554 -0.013652239 0.016568435 0.0121976165 0.0069743264 0.011833634 -0.008466641 -0.0047055 0.025876656 -0.020663671 0.01780233 -0.01257446 0.015400614 -0.03101365 0.015849805 -0.017700674 -0.013981292 -0.008367189 -0.004987894 -0.02614517 -0.005822627 0.022297971 -0.015055736 0.020955833 -0.01830072 -0.021267021 -0.020392744 -0.023650592 0.011535568 0.0036629073 0.00035198775 -0.009035504 -0.010286499 -0.0022235312 -0.008611275 0.016770678 -0.026155582 0.020613756 0.005348287 -0.015898753 -0.017854478 0.017593004 -0.01893566 -0.0031709995 0.022787321 -0.019457648 0.015932161 -0.015616547 0.017888524 0.024788348 0.023902563 0.00827926 0.0074615227 -0.0155764725 -0.026002096 0.024248805 0.017809168 0.0075424565 0.014068267 -0.0024880318 -0.0013050928 -0.019058729 0.022052728 0.0032633138 -0.024523778 0.002034589 -0.02244964 0.00826862 0.021155005 -0.01729679 0.025234802 0.022616262 0.028297761
2 0.011141151 0.018835293 -0.013702569 0.013754398 0.010650356 0.010676492 0.027681865 0.019770563 0.020765338 0.0069835493 0.016184796 -0.019579172 0.0076603573 0.020037565 0.007336187 -0.026660992 -0.015582677 0.025135629 -0.021780195 -0.005225145 -0.022664525 -0.018211685 0.0074781827 -0.02438714 0.017238567 -0.0069972035 0.02630878 -0.027945958 -0.021077441 0.029759044 0.00016286186 0.0032032258 0.010990968 -0.011766763 -0.02031435 -0.015868742 -0.025801154 -0.02627227 -0.021352597 0.00086479384 0.017995806 -0.027527243 0.02945625 -0.0039126105 0.02495169 0.019886356 -0.011691413 -0.017404035 0.012958192 -0.016657207 -0.0037132336 -0.023660762 0.01809707 -0.001858668 -0.025495367 -0.0015557851 -0.0145905875 0.010218201 0.012107533 0.008560121 0.014832104 -0.012833237 -0.02276528 0.015692495 -0.018905746 0.010405147 -0.023076013 0.024744814 -0.024720041 0.015463813 -0.012237694 -0.02110169 -0.006836348 0.019866094 -0.0012276382 -0.01935578 0.014137019 -0.017670128 0.02612475 -0.0268591 -0.025737878 -0.026130682 -0.013122453 0.022308342 0.012581879 0.015663456 -0.015857672 -0.02672072 -0.006257009 -0.022236893 0.009615588 -0.023394983 0.025869694 0.010282717 0.00034984906 -0.027376764 0.022935458 -0.017520083 0.004657326 0.017794173 -0.02260859 0.00978149 -0.009572286 0.019907424 0.018176112 0.019480724 0.005803913 0.012955998 -0.0019069872 -0.017068597 0.013792813 0.023166023 0.009862164 0.022614544 0.008000274 -0.007977021 -0.017668787 0.028221976 0.007800014 -0.023564871 -0.0012210126 -0.015519463 0.0011296436 0.015930384 -0.016957723 0.022742517 0.025452854 0.022597605
3 0.007995628 0.005321858 -0.0027646536 0.00061973906 0.017570518 0.011458455 0.007514957 0.005745716 0.010188967 0.00033947255 0.014700278 0.0005016845 -0.014717204 0.01465097 -0.012455875 -0.0037962806 0.0025750906 0.013583084 -0.0033240984 -0.0137781305 -0.00032591217 -0.015886493 0.003735497 0.00030225303 0.005384977 -0.018372195 0.016998718 -0.004933974 -0.011313796 0.007236013 -0.01573693 0.020283647 -0.007920244 -0.022051405 -0.012415324 -0.012233408 -0.010046721 -0.009154193 -0.002023665 -0.00023911535 0.012232683 -0.01579677 0.0030338566 -0.0065338826 0.00081763044 0.010422905 -0.0011401619 0.008242741 0.011996448 -0.010919535 0.009108161 -0.009777309 -0.0002493225 0.01464272 -0.012866806 -0.012057606 -0.01916594 0.012874994 -0.010757728 0.015834935 0.009749555 0.0067605437 -0.0011161575 0.015776064 -0.005999471 0.018162819 -0.0019159613 0.0013932784 -0.018503483 0.016983856 -0.010014954 -0.012044933 0.013061472 -0.012778992 -0.015497298 -0.013068639 0.0075607193 -0.006186058 0.008152546 -0.0045436854 -0.013832061 -0.014221787 -0.0072139925 -0.0033065854 0.0005022055 -0.0021786275 -0.0029418855 -0.014245413 0.0035886804 -0.014418568 -0.0023262089 -0.0058454596 0.009528651 0.0063539967 -0.011076677 -0.014327369 0.012711057 -0.007974404 -0.0014307713 0.0127827255 -0.010238904 0.0050551426 0.009355927 0.003923579 0.015522505 0.01643482 -0.0012563581 0.0080191605 -0.013883682 -0.005810927 0.0057053245 0.013752614 -0.0006422426 0.016565796 0.013164382 -0.007579793 -0.012885582 0.0057826955 -0.0019799278 -0.0070753917 -0.002388471 -0.020314174 0.020193081 0.020144634 0.0021287506 0.00728795 0.015089966 0.009468008
4 -0.0060545825 0.00221905 0.0010808805 0.015463072 -0.009556293 0.011646277 0.0017395013 0.006600856 0.004757126 0.004248016 0.008024995 -0.0054533565 0.006144996 -0.001429385 0.0040668324 0.0006673204 0.010700445 0.009061819 0.00031502408 0.0021059178 -0.00039504468 -0.0004539846 0.019888509 0.00034733053 0.01225923 0.0025885075 0.00045743136 0.0058850246 -0.0011553799 0.007302291 0.0027025368 -0.008781595 0.006802746 -0.0032512557 0.00024033122 0.0028872124 0.003399739 0.00043864604 -0.011171529 -0.008570706 -0.0054714438 -0.0043744966 -0.00051058666 0.0020646895 -8.857899e-05 -0.0023404802 0.0012871128 0.0047696014 -0.0037522516 0.006168709 -0.004433448 0.0048793624 -0.004889481 -0.004214232 -0.011543874 -0.00014001704 -0.001122822 0.0070523224 0.013804122 0.0037429302 0.004313652 -0.009558255 0.009168601 0.0100402525 -0.007718322 0.014049407 -0.004903185 0.008485321 -0.0008664197 -0.00025046492 0.0025108734 -0.0019249843 -0.0058663096 0.00569868 0.002115099 0.0066468953 0.0015192938 0.0003201262 0.004560318 0.000991694 0.004003728 -0.0003864849 -0.009788953 -0.0047074095 -0.003994407 -0.007188641 -0.017533142 -0.0072595524 -0.003259297 0.006966543 -0.0049976264 0.0021881745 0.0037829292 -0.0073798024 -0.0024834378 -0.010348366 -0.0013936585 -0.007125033 -0.003162165 0.0023581246 -0.0041603376 0.0027518421 -0.002039214 0.00856012 0.005852807 -0.0037034592 -0.008196878 -0.0019573742 -0.0056137764 -0.008691767 -0.006111322 0.005339961 0.010702409 -0.004707356 -0.005434734 0.0016699461 -0.0068653044 0.015313647 0.015937196 -0.0036504313 0.004261773 -0.005333147 0.0029406804 -0.0022802004 -0.0009394161 0.0059043374 0.005345062 -0.002144793
5 0.014045817 0.011674492 -0.009896948 0.01847605 0.012166635 0.019180767 0.012780207 0.004492296 0.00626108 0.0068046176 0.016953424 -0.014699478 -0.0034208037 0.011474266 -0.006370254 -0.020718668 -0.010657958 0.007927352 -0.019040953 -0.0017188421 -0.013786051 -0.010220212 0.013963302 -0.014609564 0.0048408294 0.008350824 0.01173177 -0.018410755 -0.013824918 0.016865885 0.0024903398 0.00027019533 0.015970578 0.001348223 -0.014221724 -0.018152116 -0.015048238 -0.01050452 -0.0149471965 -0.007405637 0.02166479 -0.019836158 0.015352512 0.0031664409 0.018892322 0.0033741985 -0.0070898817 -0.010957476 0.014278257 -0.021498257 0.0073492355 -0.005593866 0.015435974 0.004081376 -0.01010597 0.0001924206 -0.009917956 0.009155251 0.0146215325 0.0034052376 0.0046040043 -0.000632401 -0.007812037 0.011998538 -0.019255035 0.011832162 -0.008080613 0.019772887 -0.0033251296 0.009706824 -0.0033445 -0.0005770895 -0.005184563 0.0056034923 -0.0018528848 0.002575425 0.02086946 -0.01190225 0.021215132 -0.0125878025 -0.0046403385 -0.014433903 -0.011322995 0.014063451 0.0038836934 0.014957822 -0.0011001651 -0.02174345 -0.010750239 -0.0109555945 0.02255651 -0.013336006 0.013940997 0.0054566707 0.00037551386 -0.01455794 0.0033484106 -0.015474741 -0.0016490219 0.004869853 -0.010151887 0.008767265 -0.013363053 0.020922907 0.020375127 0.019340048 0.013223711 0.020209335 0.0008626991 -0.009385616 0.019691836 0.009770344 0.023784943 0.0067297737 0.004515187 -0.0056412434 -0.00731783 0.019973438 0.009142306 -0.019135196 0.0114946095 -0.010209776 -0.0057687643 0.004094337 -0.007873391 0.022499925 0.002626621 0.013609819
6 -0.001424856 0.017372087 -0.013063358 0.008203686 0.009597177 0.0041226256 0.011401148 0.015001261 0.0076713287 0.0044867005 0.020570692 -0.0063093803 -0.006411406 0.010515736 0.008134991 -0.01611957 -0.007946474 0.010226396 -0.0011915986 -0.011252103 -0.014204811 -0.01823983 0.0026506912 -0.0054428536 0.0103562735 -0.007820537 0.011875217 -0.009161491 -0.00739309 0.0067363083 0.0014754026 0.005072314 0.0049233884 -0.010683103 -0.019472532 -0.010683395 -0.005000086 -0.0083764065 -0.0045711044 -0.0013133868 0.0013230178 -0.009776205 0.018233107 -0.011087736 0.01591004 0.010401886 -0.008477446 -0.0068105026 0.011486352 -0.007359351 -0.0022975125 -0.0034628208 0.009885369 -0.005282935 -0.01813299 0.00022899997 -0.0060783415 0.004166539 0.0026324291 0.004414343 0.01719362 -0.017193375 -0.009462977 0.021144418 -0.004969406 0.007651738 -0.004181048 0.0129438555 -0.016512435 0.015718885 -0.012680359 -0.01572847 0.0066933455 0.0065791258 -0.008087149 -0.012733785 0.01395859 -0.019071292 0.012175668 -0.006439749 -0.012458469 -0.008313918 -0.008385565 0.014752613 0.007420412 -0.0016179266 -0.005394282 -0.011635352 -0.012017637 -0.010428771 0.009127003 -0.01612051 0.016357163 0.0134853525 -0.013507062 -0.020641677 0.0074927 -0.012664146 -0.012888433 0.0137637025 -0.015281893 0.0034429838 -0.013147573 0.0054217153 0.018096434 0.013904369 0.005918647 0.014736303 -0.007667345 -0.002709577 0.016340416 0.008530054 0.0071166977 0.010999805 0.0020938818 0.0058166846 -0.009498539 0.017466905 0.017986573 -0.010588264 -0.007003202 -0.016987003 0.016274273 0.008739097 -0.005334778 0.009567001 0.01706824 0.009414638
7 0.018876763 0.01964006 -0.011213162 0.022791345 0.013154675 0.00644058 0.019678747 0.019752244 0.016383061 -0.007664367 0.007903576 -0.016726391 -0.0028720119 0.0057739043 0.007417656 -0.020755984 -0.01943675 0.0124209 -0.018356426 -0.004123086 -0.02449371 -0.009186874 -0.004105076 -0.024090447 0.017886056 0.0030312533 0.02519647 -0.01927201 -0.021021241 0.018667258 0.0013436122 0.0024502065 0.019394387 0.011792138 -0.012168672 -0.020752039 -0.019312149 -0.025621107 -0.013401093 -0.011961005 0.015248411 -0.009263468 0.016843522 -0.01554637 0.023210406 0.003819583 -0.020905461 -0.01635103 0.016089598 -0.019953491 0.001977019 -0.013269303 0.019840192 -0.010312 -0.014445164 0.009663754 -0.00056841166 0.01055512 0.018553235 0.013252153 0.011180061 -0.008014397 -0.00783236 0.016179288 -0.014134415 0.011829286 -0.00949741 0.023269197 -0.0133866 0.019792262 -0.019107336 -0.01502456 -0.010966708 0.018647196 0.010112913 -0.0009729187 0.019591361 -0.02834954 0.018855395 -0.015643435 -0.01776711 -0.017472524 -0.008543815 0.025839949 0.013616836 0.008973122 -0.006651806 -0.02251983 -0.020772709 -0.014527573 0.019966757 -0.020286622 0.013826404 0.010932982 -0.0050209523 -0.0168486 0.0011977153 -0.006307401 -0.0066365455 0.005661445 -0.010247263 0.022281775 -0.0047026444 0.011570584 0.022115903 0.017313367 0.0036824443 0.025171574 0.00015462961 -0.02532507 0.017331127 0.01868775 0.016749749 0.012694408 0.011537874 -0.008372485 -0.020228295 0.019688983 0.008522125 -0.02598016 0.01113203 -0.01371173 0.008043075 0.0011928037 -0.005759418 0.026150398 0.008692588 0.012758427
8 0.0014605441 0.011286106 -0.021208692 0.019158896 -0.0111525655 0.017654277 0.0120458845 0.016798973 0.0019317777 0.014751932 0.015048452 -0.018719492 0.015177108 0.009754712 0.0033204267 -0.02023338 -0.010184751 -0.0039539617 -0.012313158 0.013297358 -0.02439111 -0.009147655 0.0025884446 -0.010738 0.01782577 0.01281092 0.028555118 -0.014510717 -0.009874721 0.02390694 0.0068330797 -0.018535173 0.017740052 0.012058478 -0.014513795 -0.012858489 -0.023861904 -0.026963849 -0.010497715 -0.021074668 0.025515987 -0.019037697 0.019386893 -0.02238975 0.015510283 0.0056385766 -0.013894529 -0.02142203 0.0126629425 -0.025812369 -0.014956077 -0.00081517163 0.014382156 -0.0070882738 -0.013889797 0.015166534 0.0006396397 -0.01666737 0.018126538 0.0071410444 0.002569709 -0.0036215137 0.013339749 0.014796252 -0.0180539 -0.0037697684 -0.009895045 0.026341071 -0.013394676 0.015001029 -0.008412192 0.004953566 -0.027639933 0.011557228 0.012952097 0.0033338163 0.012078368 -0.026253026 0.021607859 -0.022853946 -0.01736922 -0.014592083 -0.016278503 0.019086855 0.012105548 0.008778686 -0.011578448 -0.0111651635 -0.010663002 -0.0093802065 0.013514173 -0.019935666 0.0023050758 0.0107341865 -0.017389288 -0.011553744 -0.00044407404 -0.005785589 -0.018816052 0.0020870126 -0.009180204 0.017757889 -0.023673207 0.009301454 0.019486327 0.024198607 0.009584941 0.0174795 0.014530892 -0.0186411 0.025845487 0.013047566 0.011873043 0.001458979 0.000110304565 -0.007858713 -0.012892948 0.017725874 0.022553358 -0.024749946 0.0018821524 -0.0063543865 0.0035773525 0.0006612028 -0.024990596 0.0150271775 0.00035902494 0.018003142
9 0.011385175 0.014891769 -0.010924472 0.01179527 -0.004092699 0.025651444 0.023215987 0.007848993 0.015815077 0.0136145195 0.010365352 -0.031515267 0.009576315 0.014908786 0.01872874 -0.016501095 -0.01584711 0.010775157 -0.022677721 0.003786821 -0.022563389 -0.017570179 -0.0003379233 -0.006016412 0.012246923 0.011556133 0.022538386 -0.017820125 -0.011743927 0.025358213 -0.0020252909 -0.006164432 0.022389563 0.002235316 -0.016868474 -0.0134537835 -0.007639596 -0.022684969 -0.02453434 -0.0090365615 0.018966299 -0.017376544 0.017475901 -0.016247677 0.029028622 0.008595925 -0.013866531 -0.011483541 0.009653521 -0.016267605 -0.0046623982 -0.012713886 0.010208503 -0.011698368 -0.01944291 0.0037680513 -0.012475961 -0.0013587588 0.02080822 0.007827904 0.01841734 0.0056326 -0.009236413 0.01582148 -0.018830657 0.009153882 -0.016771682 0.020460932 -0.01374438 0.0133521445 -0.013112819 -0.006364298 -0.015639592 0.019651348 0.0077488776 -0.0127309915 0.013217142 -0.022736207 0.01725259 -0.021884253 -0.016306957 -0.01684212 -0.013253604 0.02576947 0.009655891 0.0014364037 -0.011967849 -0.021727176 -0.018035643 -0.006276345 0.016306784 -0.02429652 0.009908458 0.012011324 -0.008101257 -0.02557046 0.0076306965 -0.002729225 -0.010812293 0.012604188 -0.01685769 0.019186923 -0.017852988 0.014904254 0.026823254 0.01608157 0.01251261 0.014964296 0.006745218 -0.023407578 0.0068736062 0.008006016 0.016906852 0.0071239937 -0.0045280256 -0.014450977 -0.0126358615 0.023248885 0.020012066 -0.02892143 0.024895195 -0.007306125 0.0024605892 0.0069885077 0.0003198317 0.014367925 0.003960739 0.019732503
10 0.0015164962 -0.0020788107 -0.00559663 0.019898176 -0.013017494 0.013713341 0.012329449 0.008405259 -0.0003167505 0.0150467 -0.0021432242 -0.021353386 0.00624086 -0.0033534972 0.009970609 -0.023638086 -0.0057133744 3.4335855e-05 -0.0107915355 0.005271947 -0.01988049 -0.00723167 -0.0005618336 -0.0055004205 0.01207952 0.0123312 0.01635909 0.0047908216 -0.010694651 0.0013592495 0.005711372 -0.004557823 0.009921054 0.009532413 -0.0054066107 -0.019627858 0.004605389 -0.017556513 0.001473207 -0.010390183 0.01204724 0.0017193942 0.007363952 -0.00028321682 0.01707529 -0.008611351 -0.008866888 -0.008011462 -0.00064111635 -0.019577872 -0.007113208 0.0057326737 0.0066172164 -0.00836271 -0.00054304185 0.0035349284 0.00075353624 -0.01270789 0.014526493 -0.009700246 -0.0022384753 -0.012529021 0.010895454 0.016574437 -0.015224138 -0.0027653794 -0.01786502 0.018227778 -0.0018739938 0.0119724525 -0.008239187 -0.0006575268 -0.021385463 0.00890897 0.017753256 0.012966782 0.007670564 -0.019389775 0.0042410768 -0.022070719 -0.004334448 -0.0009988424 0.005835851 0.007450112 -0.0052626496 -0.0024226832 -0.023750035 -0.0061554005 -0.007648072 -0.0017053301 0.022710284 -0.017365567 -0.0029168676 -0.004184461 -0.0072995634 -0.017249566 0.0020557158 0.00062204443 -0.01167864 -0.0043012197 -0.0025252444 0.013476064 -0.02203224 -0.007660122 0.009162959 0.013691497 0.00949711 0.0055101407 0.015253844 -0.022556173 0.007995668 0.003164626 0.02174774 -0.0053319936 -0.013246546 -0.0019793748 -0.0051657185 0.01925939 0.018472176 -0.02525055 0.011510025 -0.00083271397 0.013169629 -0.0007382177 -0.0005511856 0.006345795 -0.008059908 0.011829149
11 0.012405364 0.0105540175 -0.014187818 0.024073845 -0.01166454 0.013600355 0.021814093 0.016933387 0.017661918 0.01095869 0.0026520775 -0.019945268 0.021428913 0.00878227 0.015624056 -0.018529933 -0.018724043 -0.0057664453 -0.01631091 0.018254977 -0.024058338 -0.025672348 -0.013089577 -0.015613823 0.024517993 0.02370113 0.026120411 -0.010741391 -0.010780439 0.026001122 0.017695712 -0.013298629 0.027738795 0.010741214 -0.019830046 -0.017699748 -0.007350688 -0.02095083 -0.0052422695 -0.014892038 0.028595721 -0.014850639 0.026299829 -0.02195566 0.017353918 -0.0013951941 -0.017286796 -0.010071449 0.023373038 -0.019218205 -0.010882978 -0.0042966558 0.020364609 -0.024735807 -0.011379026 0.014102573 0.0018088282 -0.014220231 0.020791085 -0.007083257 0.0080570355 -0.00077529566 0.017303212 0.015320797 -0.008406405 -0.013997005 -0.01573531 0.021567402 -0.014069566 0.018251302 -0.023020137 0.008268808 -0.027186504 0.012877624 0.017875526 0.0070097516 0.016838063 -0.020548558 0.021228379 -0.02403702 -0.011035019 -0.011562436 -0.010511028 0.015700374 0.0147526115 0.010443581 -0.01745155 -0.022772651 -0.017082406 -0.005045588 0.01739061 -0.0268682 0.0075400625 0.017620277 -0.017404018 -0.030599797 -0.00687385 0.0111512095 -0.017875694 -0.0073996703 -0.004455812 0.01854761 -0.023806196 -0.010647248 0.02663535 0.021387687 0.016679699 0.011408632 0.016342033 -0.014840102 0.01697309 0.013906502 0.016923398 -0.005819056 -0.022582669 -0.018313874 -0.021530401 0.022339214 0.014920009 -0.013813215 0.017851342 0.000987967 -0.0005884193 -0.00022403713 -0.022805251 0.022695767 -0.0064706886 0.007847979
12 0.0045695603 0.01608854 -0.012813262 0.019796466 -0.0065096216 0.02083819 0.01961303 0.016848907 0.0055876384 0.010134181 0.014931402 -0.021487763 0.00520567 0.021034932 0.009716223 -0.020660056 -0.015220738 0.0011969882 -0.013470253 -0.0018379109 -0.024216415 -0.009521486 -0.008890842 -0.009003788 0.012206344 0.016679762 0.025074247 -0.0123708 -0.010734074 0.023139473 0.010231389 -0.0054270905 0.021885127 0.0027986327 -0.015252759 -0.007442587 -0.008384913 -0.01282521 -0.012839279 -0.016572962 0.016189672 -0.018990478 0.024428314 0.0010151656 0.0248253 0.012521154 -0.007932939 -0.00839495 0.018127104 -0.011469906 -0.013817713 0.006544691 0.006169008 -0.006431636 0.004524498 0.007878242 0.0005919563 -0.00749909 0.009261824 -0.00048780817 0.011421847 -0.0018660695 0.0056852996 0.0068502 -0.020385081 -0.001015551 -0.020223608 0.017836288 -0.013127617 0.012268673 -0.009552802 0.0067614703 -0.020686667 0.009224512 0.01436027 0.0029206134 0.01954918 -0.0145014655 0.017471354 -0.018449577 -0.014536754 -0.017693967 -0.018635431 0.019344462 0.0032412454 0.0097886445 -0.022659559 -0.015418933 -0.014874278 -0.012985074 0.0138179315 -0.027063623 0.0026919856 0.014066996 0.0033910887 -0.0047276 0.007129006 -0.0071531422 -0.01176695 0.0060931346 -0.015989752 0.00891969 -0.017513718 0.019473374 0.01580774 0.007890101 0.012799826 0.008435965 0.012915853 -0.010752651 0.012716159 0.0080947 0.018182568 -0.0051959064 -0.011799835 0.0004965906 -0.008024597 0.025464075 0.018055033 -0.015109389 0.01871293 -0.004517684 0.0010217805 0.008063395 -0.014492289 0.0129028205 -0.0028499435 0.02442833
13 0.0019617346 0.0033368298 -0.00513723 0.020532068 -0.00092108577 0.015056173 0.010353861 0.0100238845 -0.0068621067 0.018111054 0.011305341 -0.017938847 0.009514874 0.010994962 0.014555277 -0.010436295 -0.0018566735 0.0029126098 0.003233252 0.013479982 -0.007671624 -0.011418067 0.009339382 -0.006876027 0.017109787 0.009816692 0.00935328 -0.0098225195 -0.007135339 0.02132611 -0.0023417508 -0.0079656895 0.006247486 -0.0046438295 -0.019984195 0.00022492383 -0.014553709 -0.009552296 -0.019487634 -0.013072035 0.002156667 -0.016661769 0.0010205013 -0.018993234 0.013803548 0.0062247277 -0.0041441885 0.0041289125 0.012333924 -0.0062546264 -0.013213011 0.0031861493 0.0044363933 -0.010011308 -0.018887801 0.012964879 0.0024299272 -0.006456037 0.013380014 -0.010395869 -0.0038698115 -0.007746144 0.0051598796 0.021382418 -0.021609392 0.0015748788 -0.010790565 0.01799514 -0.0029062252 0.003850204 -0.0076306225 0.008712096 -0.009167653 -0.0013503276 -0.0023550917 -0.001360817 0.014681852 -0.01147809 0.018493874 -0.013539874 -0.013287223 -0.00559723 -0.0012797685 0.004758834 9.299361e-05 -0.008744036 -0.022712735 -0.012326015 0.0045066397 -0.0033643155 0.008307274 -0.016372537 0.00030662364 -0.0023033025 -0.0067480216 -0.019233968 -0.0026462525 -0.0013214296 -0.009781934 -0.0037622845 0.0025001375 0.013648944 -0.010362231 -0.00182962 0.006318942 0.012209159 -0.0012747382 0.005592925 0.0035101897 -0.008572434 0.010354842 0.010420464 0.013365734 -0.0057310476 -0.0073833237 0.005904501 0.008001611 0.018842055 0.01662748 -0.0026592186 0.015478391 -0.0060054446 0.0108029 -0.005339826 0.0016160269 0.007507518 0.0021065807 0.009489823
14 0.0024365834 0.00450233 0.0019176158 0.012018324 -0.013851859 0.0196329 0.0034279565 0.003118205 -0.010063894 0.012495272 -0.0067695854 -0.027268045 0.0035181842 -0.007407728 0.018908473 -0.002125872 -0.0022168325 -0.012377393 -0.0033674166 0.022239018 -0.008301278 -0.013191866 -0.0007948733 0.0016308146 0.020165099 0.003178683 0.014722021 -0.010376174 0.0005819781 0.02004661 0.0026861653 -0.023411179 0.00864657 0.0028602115 -0.00957837 -0.008617324 -0.006747255 -0.003274447 0.0046902574 -0.024538921 0.0120868655 0.0001278306 0.014739823 -0.00706471 0.013138833 -0.013501765 0.011174414 -0.014484472 -0.0116475625 -0.0070926617 -0.022514671 0.014398769 -0.0033519468 -0.024551474 0.003945417 0.009797393 0.013311963 -0.020041203 0.026367517 -0.015876122 -0.0035059066 -0.016086064 0.014861374 0.01609633 -0.014202082 -0.013066943 -0.009543697 0.010900162 0.0071240715 -0.005188445 -0.01292262 0.017578118 -0.015123992 0.008246652 0.009663295 0.019790875 0.012872644 -0.013203144 0.0021505277 -0.0121619 0.0032085462 0.00013170275 0.0024291906 0.0070443843 -0.0061399606 -0.010627302 -0.017353883 -0.00849841 0.0043594935 0.011698443 0.017576411 -0.011723032 -0.0064944034 -0.011193855 -0.017155666 -0.00804205 -0.016132018 0.009376487 -0.011345091 -0.007282729 0.008402205 0.00089162134 -0.0215519 0.01145078 0.008374243 0.020687157 0.0010460251 0.011098404 0.01199577 -0.024246743 0.005514005 0.003277825 0.019113844 -0.007914583 -0.027808001 0.01701828 0.010885128 0.0141143 0.00737759 -0.015857842 0.01830124 -0.0105432235 0.004905326 -0.007204759 -0.0050466154 0.0016165196 -0.016846223 0.0070778728
15 -0.005060522 0.0037486474 0.014460693 0.0043604327 -0.0030441773 0.012101726 -0.014214446 -0.0100476295 -0.0034837043 0.019164223 -0.014604281 -0.006711324 -0.010847463 -0.0060722246 0.0055621243 0.011384541 0.009792946 -0.01588921 0.009628847 0.009216139 0.008627378 -0.0024075771 0.0041359565 -0.002004172 0.0076791556 -0.0130379675 -0.005280225 0.00501232 -0.00052494986 0.011052487 -0.012431133 -0.014618326 0.0024811574 -0.0068707536 -0.006128954 0.008217123 -0.0041104727 0.0020872308 0.010523887 -0.012959982 -0.0033386622 0.010585826 -0.007299298 -0.0016284948 -0.014246267 -0.0028199812 0.015379089 0.010642768 -0.008180296 -8.359981e-05 -0.010068025 0.016555859 -0.0012213325 -0.011528111 -0.0007109286 0.012303142 0.007438995 -0.0001964582 0.012728025 -0.019495076 -0.005562551 -0.010641309 0.014754936 -0.002046243 -0.021420583 -0.0011958984 0.007675821 0.0121031655 -0.017320594 -0.007995733 0.007947382 0.01285815 -0.012180909 0.008111513 0.0024782745 0.009609263 -0.0018438527 0.012927356 -0.008798319 -0.0067065223 0.00083617645 0.014958545 0.006057297 -0.015070101 -0.01522565 -0.012101352 -0.011262538 0.0050962884 0.014352515 0.011917536 -0.005996445 0.003755074 -0.005677252 -0.015985949 -0.011525586 0.007912836 -0.0046981564 -0.0017371494 -0.009861237 -0.00719984 0.0034093563 -0.008933501 -0.010241062 -0.0042273733 -0.013360432 0.0118221305 0.009286144 -0.017734595 0.0057437657 0.011579784 -0.006932511 -0.011300851 0.00462745 -0.008009853 -0.01132838 0.004333267 -0.0024662667 -0.010442643 0.006277741 0.0016116889 0.010979783 -0.008758651 0.01580671 -0.009510964 -7.770109e-05 -0.0032982097 -0.00807642 0.00967653
16 -0.007243719 0.004848924 0.0068809004 0.019476265 -0.011290742 0.012316158 0.0034110765 0.012968784 0.0023636287 0.024962736 -0.0032886364 -0.022659138 -0.010039055 0.0015511591 0.01803753 -0.0010342951 0.010101887 0.0010582742 -0.0006746324 0.010265317 -0.001509757 -0.009094928 0.014898251 -0.01041565 0.010014366 0.0012817075 0.0059021455 -0.0015216493 0.0048538223 0.012936888 -0.015422469 -0.009678007 0.012254657 -0.016266381 -0.0025212583 0.0038189462 -0.00019028533 -0.010285231 0.001087781 -0.023065226 0.026786454 -0.0061597135 0.0084544 0.007798843 0.0068995953 -0.0010059475 0.014983201 0.0026570517 -0.010584656 0.0006689585 -0.018087462 0.0011237669 -0.0031276355 -0.021679748 -0.009091709 -0.014832387 -0.0034300357 0.007925612 0.011389207 -0.004254498 0.0012349479 -0.015871543 0.00868577 0.0011698625 -0.021501716 0.0043513332 -0.0010358202 0.008589233 -0.0037176406 -0.004987638 -0.006916051 0.0041012433 -0.019843552 -0.004770447 0.00057810923 0.011242681 -0.005912237 0.00013957341 -0.004345324 -0.010913533 -0.008387259 0.0027591134 0.0054850876 -0.0047474774 -0.009934293 -0.015001494 -0.008010643 -0.0043083276 0.0021712193 0.008391182 -0.003145128 -0.0044925036 0.00029507081 -0.008387679 -0.00765044 -0.0076967306 -0.007385562 0.0084527545 -0.007697497 0.00072903465 0.00092351856 -0.0028094214 -0.02550781 0.019175056 0.003071222 0.011137245 0.009066447 -0.0009972865 0.0033467403 -0.02321818 0.009003855 -0.0031831139 0.013869891 -0.007602943 -0.020419115 0.008036125 0.012592729 0.0051923944 0.025145032 -0.017020455 0.0009357027 -0.016286302 0.015310441 0.0059344964 -0.007943615 0.002883478 -0.003343671 0.0021387022
17 0.005986057 0.004653763 -0.012206072 0.017815433 -0.004235482 0.019340942 0.004868003 0.017828764 -0.0029024202 0.025020037 0.012453089 -0.01161074 0.0055176057 0.018978573 0.018311735 -0.016938077 -0.005069022 0.019516077 -0.016098294 0.008961566 -0.012967731 -0.0066904947 -0.0053443145 -0.0025982456 0.013417512 0.013515234 0.025592055 -0.019063456 -0.014338309 0.013633317 -0.00031428842 -0.0046196515 0.010637356 0.011430257 -0.009312104 -0.0074251806 -0.010655112 -0.009535843 -0.011871395 -0.0054892167 0.024248334 -0.009102181 0.00561126 -0.017550193 0.009548117 -0.008931042 -0.010265375 -0.014142261 0.009893137 -0.0051569357 -0.022686565 0.0070228917 0.015937392 -0.008601059 -0.008403424 0.007369172 0.008160982 -0.0035606984 0.014120383 -0.019628443 0.009872721 -0.024128407 0.0058395145 0.015371223 -0.014498123 -0.011160303 -0.018085137 0.007709749 -0.020599283 0.007977877 -0.0043275794 0.01697734 -0.013674073 0.006694141 0.01577199 0.014276625 0.022816405 -0.0088690445 0.02775758 -0.0061739963 -0.019068614 -0.010407092 -0.008569236 0.010979973 -0.0015843182 0.004017565 -0.011216553 -0.01278384 -0.0064886776 -0.0060614697 0.0033078613 -0.016812788 -0.0041385093 0.002320205 -0.018532034 -0.019628651 0.012324105 -0.0019184821 -0.013188387 -0.006641044 -0.013600187 0.011426129 -0.0084666945 -0.0002249647 0.016132405 0.02118415 0.013611324 0.012106613 0.01552801 -0.008070159 0.016203307 0.008234658 0.006118063 -0.009762554 -0.008262126 0.009388503 0.0120240515 0.005586005 0.019530328 -0.011264393 0.017357947 -0.01113411 0.008799996 -0.0065822913 -0.008950686 0.020264398 -0.009506806 0.025392912
18 -0.006170084 -0.008509136 0.019084502 -0.0016682228 0.0016550535 0.008970728 -0.019658817 -0.013846659 -0.011493414 -0.0032522492 0.006037106 0.012421546 -0.009861635 -0.0036266055 0.022981238 0.0020723315 0.020996664 0.0026758192 0.011739355 0.0006557363 0.010599741 0.000120330806 0.0168402 0.019505715 -0.004088903 -0.0049451985 -0.003752401 0.010582739 0.0041476307 -0.016926697 -0.0035235235 -0.009202131 -0.0069626565 -0.015893549 -0.001685853 0.021436246 0.0067538368 0.015129635 -0.013505713 0.008387267 -0.0013510102 0.0012746842 -0.0016974176 -0.0132797975 -0.010453015 -0.015124647 0.011385526 0.011310349 -0.010501892 0.0031624155 -0.006321451 0.013162783 -0.008839041 -0.006646963 -0.0074148052 -0.0047867075 -0.0035758354 0.011008914 -0.00794704 -0.013209813 -0.0031806394 -0.0074197543 0.012281428 -0.004631695 0.007911152 0.011989046 0.012145682 -0.004811959 -0.016309954 -0.015591779 0.014570253 -0.0033621313 -0.0018332868 -0.016707057 -0.009901798 0.00982611 -0.011954732 0.012573236 0.0018762465 0.015840994 0.00402316 0.0016369654 0.013509561 -0.015268934 -0.01041575 -0.016701652 0.00036864256 0.0006025161 0.022501342 0.011055219 -0.017361553 0.0014353853 -0.002299105 -0.012607251 -0.00029044723 -0.0080366535 0.00553949 -0.008593094 -0.0072202627 -0.00044469218 0.0049538356 -0.006525695 0.0059222984 -0.006934092 -0.0153448945 -0.004684467 -0.012277725 -0.018608287 -0.005631699 0.009218529 0.0059342845 -0.005063997 -0.005580112 -0.0057263738 -0.00054563733 0.017300403 0.010012891 -0.011947558 0.005951019 0.010242499 -0.009005069 -0.022218237 0.015204791 0.01756095 0.01459925 -0.00883033 0.018032702 0.0059835846
19 -0.019365408 -0.0072193346 0.015139228 -0.011310636 0.010301393 0.023142824 -0.013610187 0.0033841697 -0.005258381 0.00443444 0.0036476073 -0.00043984846 -0.022203555 -0.0026724564 0.017979013 0.006052564 0.022551028 -0.008120342 0.0032114668 0.0004092896 -0.010262905 0.0026945565 0.017861253 0.018112743 -0.009822795 -0.016397849 -0.0019906007 0.009569502 -0.00081959466 -0.012999202 -0.014581261 0.010359212 -0.009025733 -0.025911171 -0.0007010557 0.022635562 0.010228763 0.004708115 0.0029571184 -0.003140718 -0.013917669 -0.0041896612 -0.0065610427 -0.0054522697 -0.0032212662 -0.016774857 0.027165893 0.016516784 -0.01589396 0.0073008193 -0.019519199 0.022696847 0.0067069717 -0.01695311 -0.01955188 -0.023828018 0.0024226836 0.017426675 0.010525759 -0.010228471 -0.013331803 -0.015405443 0.009457824 0.00072091515 -0.0024413045 0.015340727 -0.008510534 -0.0038007363 -0.023541091 -0.0012641944 -0.0066656433 0.0034924126 7.063444e-05 -0.013593619 -0.0135413315 0.0018807641 -0.0054051424 0.009290374 0.002821448 0.00735534 -0.012928586 0.009884021 0.0044516283 -0.014824569 -0.011161571 -0.025032844 -0.011256202 -0.009603693 0.023467652 0.021309197 -0.02004521 0.007644154 0.009953712 -0.013987626 -0.00048027074 -0.004509564 -0.005154701 -0.015384687 -0.0022594663 0.0023761706 -0.007094489 -0.0030708457 -0.0029231962 -0.015018236 0.0003766145 -0.0056563276 0.0015991771 -0.011984759 -0.020981481 0.015188806 0.001712639 -0.016666071 -0.006576629 -0.005181512 0.006864965 0.026376467 -0.00024526208 -0.012569434 0.013671521 0.009885457 -0.0031242482 -0.017319255 0.027254755 0.011431219 -0.0018219447 0.0022947167 0.010058081 0.007266004
20 -0.000938233 -5.7260215e-05 0.010257056 0.004415694 -0.0077618263 0.022233173 -0.0014084959 0.011920511 0.011419181 0.024475494 0.015819985 -0.011821565 -0.00227048 0.0069767875 0.02310164 -0.019037612 -0.00097366393 -0.0005832248 -0.0027540808 0.001117224 -0.017798882 -0.012420798 0.0038298073 0.0044080997 0.005202165 0.0023789092 0.010876317 0.0020924187 -0.019575555 0.012426418 0.0017747576 -0.0026893592 0.009039923 0.00054491684 -0.022937851 -0.0027390562 -0.016269265 -0.01704657 -0.0067886915 -0.003804936 0.007726782 -0.0009907226 0.015518208 -0.014063322 0.007525132 0.001168973 0.0012263001 -0.0058552516 0.006990122 -0.017854659 -0.007025107 0.007843275 0.023766985 -0.016290607 -0.017275065 0.00091361784 0.000485924 -0.0071497513 0.013941077 -0.0056721396 0.0061040623 -0.02125247 0.008493374 0.0069389134 -0.008075196 0.001394482 -0.016593296 0.008630289 -0.0049823504 0.0064807227 0.0046453485 -0.0018508909 -0.012891194 0.002151962 -0.0036394352 0.017763756 0.0075501697 -0.011199954 0.013432002 -0.008361635 -0.015634801 -0.017139673 -0.0025768916 0.011187311 -0.010577806 -0.01678558 -0.0150154205 -0.017648892 0.0022295925 0.0010689683 0.0055864425 -0.014688092 0.0070871823 -0.008478685 -0.014808136 -0.014709037 0.012293623 -0.009995564 -0.0060436716 0.011964475 -0.018817734 0.023110135 -0.009374669 0.0019625763 0.013840336 0.010804745 0.015622724 -0.002994562 0.004612128 -0.01502323 0.006545343 -0.0043651666 0.013035596 -0.01429669 -0.018808218 0.013278307 0.0023642713 0.0066749053 0.018075576 -0.01862874 0.0023298815 -0.006940544 0.0176938 0.001161472 -0.021630833 0.016415467 0.00454831 0.025965028
21 0.012517031 0.003406502 -0.0015399698 0.0019842447 0.0070153996 0.009750183 0.0059870565 0.0026276358 0.0034295465 0.011691966 0.018918507 0.0029454525 -0.0031961517 0.0075150384 0.021236392 -0.010902095 0.011792854 0.010203468 0.0089865625 0.0042683575 -0.003920728 -0.004985245 0.016107561 -0.000109837216 0.003681076 -0.0057501784 0.016440734 -0.004845013 -0.005728855 0.0061570373 -0.008251561 -0.0033238707 -0.006799252 -0.013395623 -0.0031775653 -0.006692172 -0.01447427 0.0041961554 -0.011795917 0.0017994535 0.011341661 -0.019684134 0.0032247673 -0.020236338 -0.0035507316 -0.004027655 0.0058123367 0.00092501804 -0.0102728335 -0.0013318422 -0.0074597625 0.016105201 0.0101362 -0.0062872753 -0.015978066 0.00029173493 -0.00044899253 0.0035766538 0.0132198315 -0.0022214062 0.0057005286 -0.017196706 0.010830472 0.0027294408 -0.027338007 0.013307482 0.0011987092 0.007369095 -0.0048202868 -0.0064086975 0.0022016424 -0.0013758095 -0.010586358 -0.0065988195 -0.008301138 -0.0026789021 0.012308611 -7.835188e-05 0.009411299 -0.007185441 -0.026084403 -0.0026106597 -0.008293523 0.0034147426 -0.015622 -0.0099150585 -0.010109502 -0.017159047 0.0119548 0.0118637495 0.00406961 -0.016703235 0.017224155 -0.019891823 -0.0028021673 -0.020700242 -0.003821123 -0.01834585 -0.010173127 0.0124507835 -0.013054942 0.0017809737 0.0016753259 0.004952548 0.004311609 0.018127844 0.007129753 0.0014451637 0.00033952575 -0.0027526417 0.02885134 0.020151103 0.0028526275 -0.0015363125 -0.009402259 0.004955383 0.0010240675 0.0066115716 0.015452441 0.0032878234 0.01770868 -0.015190947 0.019777436 0.0070713637 -0.016250147 0.006032792 0.0102360025 0.022682276
22 0.007969244 0.018471394 -0.012783517 0.0032465695 -0.010393699 0.01828496 0.02159254 -0.0004061155 -0.008285766 0.011128229 0.00677332 -0.017705612 -0.000620633 0.017576205 0.020016497 -0.012889757 -0.0031966162 -0.0066536106 -0.016169159 0.001993655 -0.018111441 -0.0024044584 0.002916953 -0.003381344 0.0077203135 0.0036980947 0.013855555 -0.01799837 -0.017766275 0.007188773 -0.0044714636 -0.013535014 0.008879714 0.0019055384 -0.022250297 -0.011291951 -0.019128863 -0.0061095487 -0.0036598528 -0.005658075 0.018583482 -0.01756529 0.015014861 -0.0035571968 0.007971227 -0.0018323576 -0.009305478 0.00021384296 0.00097585213 -0.019054145 -0.008651593 0.011004492 0.015756497 -0.0146232415 -0.006498113 0.013503076 0.006853545 -0.0034480877 0.015520069 -0.005344017 0.002106236 -0.004648632 0.016825946 0.019369515 -0.012167201 -0.0062866793 -0.010880816 0.0074973134 -0.013349278 0.012139239 -0.0140496995 -0.003069961 -0.007966978 0.005768121 0.00018368082 0.009534552 0.0039028476 -0.016216815 0.026661675 -0.002532422 -0.021037657 -0.016931823 -0.011564402 0.017058197 -0.01020714 0.0024098766 -0.019183952 -0.017400004 -0.0004528652 -0.0020572324 0.0045204414 -0.003250276 0.007340067 -0.010294602 -0.018132988 -0.010424036 -0.0008387979 0.0053012283 -0.010741011 -0.0124160675 -0.02216321 0.0016323149 -0.013428308 0.015473811 0.008495605 0.01387016 -0.00708182 0.017556597 0.0011256227 -0.010702241 0.024910945 0.01642287 0.017516755 -0.0043329936 -0.018827163 0.015233556 -0.0021044866 0.01700325 0.022490252 -0.004714095 0.0028451902 -0.0076608746 0.021603676 0.001641881 -0.003776946 0.012946312 -0.0030806656 0.023194134
23 -0.003983992 0.008892076 -0.0020771313 -0.0046732756 -0.006769416 0.002475334 0.0046954523 0.009633044 0.020819422 0.0015681882 0.0046230727 -0.010045247 -0.0046698996 0.011804504 0.010846766 -0.009008319 0.009056395 0.008011266 0.003831989 0.0012219724 0.0050851586 -0.01797096 0.007642643 0.008117707 -0.00040342312 0.009689737 0.01612605 0.0012781413 0.0012862391 -0.007997195 -0.0012057208 0.0076637426 0.0034920173 0.008323569 -0.013606011 0.00010403714 -0.0003846222 -0.0056605977 0.00043099123 -0.0016691581 -0.0014124872 -0.014921278 0.0050896234 -0.010549888 -0.0052217846 0.008240502 0.01189928 0.006243615 0.0015189209 -0.0030396103 -0.016756171 0.0033113968 0.014512832 -0.0072866613 -0.0036246749 0.0031020276 -0.0018033993 0.014394065 0.011014117 -0.0032976891 -0.00045406146 -0.0036460063 -0.0005548394 0.012981129 -0.0075538494 0.0052049244 -0.0025049031 0.00873415 0.0075945393 0.013413455 -0.0011935291 0.0024970518 0.0021309513 -0.0016946606 0.0064160875 0.01444206 0.021827567 -0.004794626 0.011829954 0.0045777312 -0.006652823 0.008856702 -0.013668425 0.01172223 -0.0072031906 -0.005943677 0.0013898889 -0.019757386 -0.009841803 0.0023634296 0.0008672318 -0.0001653173 0.005956155 -0.0048895283 -0.00073992496 -0.021893594 -0.0063224975 -0.0040821037 -0.009791891 0.0071646026 -0.0019279685 0.009841555 0.0015308198 0.004630446 0.009969704 -0.005307453 0.0036763414 0.009194934 -0.005122928 -0.0051659252 0.010067223 0.007868407 0.011271161 -0.018271225 0.0013945578 0.002327107 -0.011056747 -0.0020496096 0.00641378 -0.007636741 -0.0015702477 -0.00046211315 0.0055031697 0.0075659296 -0.013186488 0.003048841 -0.0062938235 0.009901551
24 -0.0076508876 0.01894831 0.006889996 0.018553171 -0.01714541 0.020121614 0.015194353 0.013849639 0.01077698 0.026912231 0.010793418 -0.01576697 -0.00025023404 0.015437638 0.021397905 -0.01824929 0.0059661246 0.0058811926 -0.011218857 0.007024534 -0.02333223 -0.014626395 0.017071597 -0.009395086 0.021534802 0.01022721 0.011031613 -0.015740447 -0.015791148 0.018109605 0.0025384324 -0.0120199965 0.01613316 0.0052128816 -0.015524026 -0.0138752125 -0.02585829 -0.019473985 -0.013265309 -0.019532174 0.01788725 -0.023847062 0.020380806 -0.013651245 0.017058803 -0.011636276 0.019511547 -0.010752636 -0.0020341247 -0.00883854 -0.012510979 0.019593958 0.009961627 -0.021283157 -0.010673635 0.0016826941 0.0027188603 0.0041783373 0.011671964 -0.017310653 -0.00547689 0.0070462534 0.020480067 0.0088000465 -0.018279282 0.005741146 -0.01611449 0.013195231 -0.013956317 0.005914681 -0.003476405 0.0029054398 -0.016660143 0.0048898393 0.008145905 0.011423469 0.009543311 -0.008648224 0.015545795 -0.019091327 -0.018626014 -0.017174881 -0.01531459 0.012476161 -0.026852336 -0.010249765 -0.023760675 -0.017460389 0.006409627 0.004526645 0.002231141 -0.014841529 0.023485776 -0.013384619 -0.011561449 -0.013776997 -0.013408697 0.001634124 -0.012772745 0.0023537786 -0.011207379 0.01125503 -0.020376576 0.0077683753 0.012176542 0.01199317 0.0055476404 0.015211311 0.008167581 -0.014126169 0.010475134 0.021400642 0.016426368 0.0013809153 -0.019079706 0.012091579 0.001105292 0.01798779 0.020116514 -0.014989303 0.011489333 -0.010255598 0.011839324 0.0053266045 -0.013279566 0.012772812 0.008505652 0.016035505
25 0.0008089575 0.025205202 -0.011659874 0.014688389 -0.019925274 0.016987626 0.017611997 0.012122242 -0.0023811064 0.021338003 0.0070159985 -0.022559188 -0.00016440367 0.010743302 0.016941369 -0.015976626 -0.00434601 -0.0053909114 0.0017737638 0.011606653 -0.011262824 -0.008223329 0.00059345004 -0.011397754 0.018884385 0.008499778 0.018381465 -0.0144387325 -0.020223355 0.012524144 0.0076973066 -0.020351117 0.020082625 0.012139061 -0.008735434 -0.01642552 -0.01328565 -0.01479987 -0.0041732956 -0.010775829 0.0148595795 -0.021213777 0.022950158 -0.00934699 0.013682795 -0.00494866 -0.009072953 -0.008325514 0.0071782796 -0.01939232 -0.008754291 0.017184876 0.007555645 -0.011362203 -0.0061577847 0.017634228 0.013291385 -0.006042619 0.018004261 -0.025068251 0.011788345 -0.010281546 0.0078033917 0.021468347 -0.012847499 -0.008326436 -0.0076535693 0.010815407 -0.018381104 0.02366626 -0.018061904 0.0077531426 -0.019824533 0.012995399 0.0055402643 0.011455756 0.0010252468 -0.010880176 0.02054402 -0.024876457 -0.016291272 -0.025165046 -0.02500881 0.010917307 -0.011762303 0.0045452663 -0.020617548 -9.066501e-05 -0.0020390917 0.008040557 0.01380308 -0.0155285485 -0.0013903625 0.00031623986 -0.01632684 -0.013773449 0.011008473 -0.00074333424 -0.013923524 -0.0024863854 -0.013266811 0.012644292 -0.017418178 0.010350296 0.011534549 0.008461162 -0.00011528548 0.009047526 0.011864537 -0.019810176 0.0038552086 0.023514628 0.024216058 -0.0105980225 -0.015752349 0.006222523 -0.003056257 0.013402005 0.02445223 -0.024085915 0.016593197 -0.012568469 0.010110122 -0.004874616 -0.0041404227 0.009528969 -0.0041307732 0.025538735
