26 128
0 0.008575968 0.017944654 -0.018690165 -0.012547037 0.0026889953 -0.0024773506 0.008095229 0.012419284 -0.0013031381 -0.015881477 -0.008371657 -0.014684236 0.021456143 -0.00339555 0.007123008 0.0127664255 -0.010477825 0.0028048193 0.004586305 0.011608549 0.009824514 -0.01162557 0.014279594 -0.0051017646 -0.00782581 0.011707088 -0.013645566 0.01175576 -0.015360934 0.023335377 0.017716313 -0.020373795 0.009777373 0.021739688 0.014278936 -0.018987201 0.019631047 0.011810481 0.00594096 -0.018121986 -0.0015123184 -0.030487018 0.01098178 -0.015739495 0.017501384 -0.0037153773 -0.001106471 -0.015624383 -0.019171061 0.00865422 -0.004941587 0.018895723 0.0121182045 0.01498614 -0.015160314 0.0021121276 -0.007879884 -0.007490901 -0.015910167 -0.017270282 0.0027105669 -0.0011195275 -0.0071664546 -0.011159807 -0.00839779 -0.0106282905 -0.0051829093 0.008073259 0.016561303 0.013541642 0.016143912 -0.015238714 0.0078054867 0.01437292 -0.014666794 -0.020044705 -0.010579225 0.019321019 0.0055400943 0.004550759 0.002533758 0.008722715 0.021239888 -0.022492701 -0.003521024 -0.00039219466 0.018274693 -0.012030722 0.0038815858 0.0005099862 -0.016747694 -0.0035587826 -0.013376315 0.011029553 0.008484784 -0.021211552 -0.012638739 -0.0052180304 -0.016226703 0.021316696 -0.017177533 0.0054803295 -0.013186865 -0.012547347 0.01185042 -0.009248521 0.024164783 0.008613981 -0.0053296275 -0.016655307 -0.01694545 0.019806018 0.0070477407 -0.01364672 -0.0128729185 0.01260791 0.011896639 0.01245891 0.02024128 0.013379379 -0.004665363 -0.014893028 -0.008121132 0.0033433354 -0.015976364 -0.00010500912 0.019618442 -0.0044516684
1 0.0244935 0.01822335 -0.023671292 -0.026925161 -0.010864527 -0.016045317 0.00344836 0.027973196 -0.022596782 -0.0026581415 -0.011661737 -0.015808746 0.027013447 -0.007991956 0.01295402 0.021551948 -0.0011247543 0.010098211 0.011436407 0.013651567 0.01853966 -0.026293376 0.01615639 -0.009948672 -0.010310911 0.00614296 -0.02557544 0.011323922 -0.006007045 0.020847859 0.024762606 -0.00717339 0.022888962 0.024588516 0.009040286 -0.02442952 0.01891221 0.02438184 -0.019224549 -0.026191097 0.01092039 -0.005111695 0.023541806 -0.020569472 0.023761377 -0.013331271 -0.031139156 -0.022133907 -0.0010978009 0.01461961 -0.024066135 0.027971022 0.006036998 0.018531002 -0.015567197 -0.0022411766 -0.014550945 0.009931457 -0.027440364 -0.016514355 0.013128883 0.02360177 -0.02579268 -0.023409307 -0.02369443 -0.02128523 -0.016059617 0.018940136 0.024667416 0.011773631 0.010520393 0.002923963 0.016941274 0.017815365 -0.025220914 -0.026113532 -0.024232395 0.017831156 -0.015838217 -0.003678495 -0.022764746 0.010948874 0.015745275 -0.020433791 -0.020604815 -0.0042827497 0.018772153 -0.025529047 0.014382207 0.005736043 -0.020833546 -0.013214367 -0.018851833 0.026322886 0.013409372 -0.024673974 -0.022062697 -0.0027568163 -0.019000087 0.021672562 -0.020609424 0.024553817 -0.020939434 -0.02512455 0.022684837 -0.025893576 0.0118584465 0.008478959 0.009561456 -0.021362383 -0.018418018 0.021475868 0.021686587 -0.018476745 -0.0117448345 0.017984727 0.01779873 0.029352212 0.02217336 0.02626829 -0.025298405 -0.02526196 -0.020410217 0.0074043847 -0.026276244 0.0048733507 0.024375444 -0.006136189
2 0.008044892 0.024558352 -0.02424224 -0.027566181 -0.010307632 -0.008284726 0.0039792187 0.02070066 -0.009848914 -0.008451907 -0.011106213 -0.0150327785 0.020043375 0.008948338 0.009489401 -0.0058051245 -0.01488413 0.00933915 0.010350359 0.019675594 0.017925054 -0.014482608 0.004495778 -0.0063016135 -0.0029374666 0.019626534 -0.016760385 0.011186812 -0.016080683 0.024887351 0.02046007 -0.010850026 0.009638978 0.016418163 0.018221898 -0.019914586 0.013055557 0.015786428 0.0063743857 -0.018199101 0.0012381467 0.0027837385 0.020165667 -0.01615033 0.010589802 -0.0073791584 -0.005334814 -0.010350455 0.0015612679 0.0071985386 -0.01463983 0.01301256 -0.0051908162 0.020012833 -0.02001822 -0.008816093 -0.022758247 0.0048264973 -0.0019735734 -0.023255961 0.0089168735 0.016836338 -0.020098627 -0.010467293 -0.017148446 -0.012776606 -0.010476971 0.0207976 0.019359909 0.003964807 0.0090744775 -0.014056091 0.011597019 0.010047611 -0.024652448 -0.025356038 -0.016993139 0.015073418 0.0026387055 0.005787135 -0.009179141 0.009814805 0.025375515 -0.014865122 -0.015067445 -0.019810567 0.02621459 -0.020317126 -1.384411e-06 0.01334519 -0.018487133 -0.010516733 -0.0063989856 0.024155429 0.014092991 -0.008167852 -0.017824175 -0.01745988 -0.020449158 0.024412286 -0.012671701 0.021610541 -0.02072736 -0.014197448 0.007808811 -0.01905351 0.014348593 0.018721966 0.02159916 -0.010125252 -0.014455749 0.01744976 0.017975828 -0.017981328 -0.012713293 0.02053335 0.018398156 0.013352895 0.010333322 0.024436526 -0.013768894 -0.015492128 -0.01540737 0.012337233 -0.02083069 0.019173143 0.0077345073 -0.0025776187
3 0.0039100787 0.007281353 -0.012925164 -0.019464077 0.0026913248 -0.013485406 -0.0013834622 0.0061797737 -0.006725853 -0.0035543435 -0.0066612004 -0.021407997 0.00986562 0.004522769 0.008102006 0.016718302 -0.003492307 0.009095315 0.00044449852 0.018699957 0.0046839174 -0.008777389 0.01010965 -0.007892919 -0.00429025 -0.007945946 -0.012044075 0.0055926368 -0.02300139 0.018963557 0.017681304 -0.01657951 0.003913374 0.014016661 0.010010769 -0.019928075 0.0135445185 0.01864507 -0.022968832 -0.012165136 0.00013768852 -0.008122213 0.020584421 -0.009385309 0.016909977 -0.019282542 -0.016855326 -0.008421429 -0.010413414 -0.0011675706 -0.01003237 0.016178934 0.010653563 0.012294725 -0.008075006 0.003106944 -0.011184236 -0.0076131304 -0.01732013 -0.017846819 -0.00054673234 0.0077976948 -0.012786283 -0.009281322 -0.0021487197 -0.019767703 -0.0039641936 0.00786972 0.01791688 -0.0009128323 0.0059564244 -0.009551491 0.019059286 0.013879439 -0.0097285835 -0.016778477 -0.014181169 0.016657948 -0.008931953 -0.024914145 -0.016678771 0.00984965 0.01595305 -0.009573588 -0.0099285 0.0024655326 0.005844793 -0.016263371 0.0041972958 0.0033819177 -0.01213743 -0.0070513743 -0.013242874 0.010708006 0.011013387 -0.00870597 -0.007812247 0.00019385897 -0.014389762 0.018349212 -0.009914262 0.02122981 -0.004961181 0.0006462167 0.020947998 -0.0066628167 0.012223323 -0.004215963 0.011449472 -0.014088314 -0.015220617 0.020176044 0.0051067285 -0.01701073 -0.012182057 0.020566601 0.019682398 0.014280186 0.006403641 0.0068963785 -0.014370423 -0.019441606 -0.019834364 0.0058101607 -0.013149394 0.017960157 0.01623552 -0.0021778066
4 0.009138394 0.015903706 -0.02197231 -0.011031331 -0.0022010813 -0.016750282 0.004638755 0.015303775 -0.012284633 0.005932161 -0.0073963557 -0.019751254 0.009366351 0.0038018601 0.0088685285 0.011488939 -0.017582977 0.0076067746 0.010443788 0.02311584 0.011708229 -0.017546032 0.0057201176 -0.016407518 -0.011373035 -0.0021511638 -0.017181551 0.010142147 -0.015204653 0.0228974 0.02080043 -0.0083167115 0.014892042 0.014502213 0.013350075 -0.02393069 0.010887156 0.012875085 -0.009723566 -0.019529475 0.01212008 -0.017474014 0.022358792 -0.014091563 0.01496288 -0.018223915 -0.022816759 -0.015584231 -0.006302868 0.0030101053 -0.018105378 0.012911121 0.010842087 0.01246785 -0.0070861066 0.0025638787 -0.010191193 0.0055369376 -0.013586129 -0.016734095 0.009189167 0.013088237 -0.021011325 -0.026443029 -0.0032048114 -0.015621194 -0.011700756 0.021459164 0.011695543 0.012522965 0.013827848 -0.0010603546 0.018131368 0.012947874 -0.011521398 -0.022791091 -0.01391731 0.021099024 -0.013253854 0.0062251035 -0.0137200095 0.017581146 0.018244462 -0.012598072 -0.0125614 -0.005148051 0.0195791 -0.018983515 0.00082107406 -0.00046984342 -0.015871394 -0.01757369 -0.016524807 0.022360587 0.012168528 -0.021844694 -0.014713672 -0.010514646 -0.008115278 0.010851782 -0.015589523 0.013852919 -0.0171422 -0.0010844481 0.019331826 -0.02263413 0.020104745 0.004027392 0.010920612 -0.01809024 -0.018954245 0.01644476 0.010811906 -0.019756345 -0.0024775462 0.018586216 0.022055471 0.013655957 0.02224574 0.022165671 -0.017337985 -0.017945297 -0.014711248 0.0075661168 -0.021391975 0.010229405 0.011949472 -0.016706241
5 0.010441936 0.012600326 -0.016315043 -0.02060686 -0.0014639901 -0.015110637 0.0045917593 0.016752992 -0.016515294 0.008367721 -0.0006712485 -0.015884263 0.0197809 0.007929746 0.004571197 -0.0023576575 -0.023402318 0.0097304415 0.007082422 0.022842119 0.018660622 -0.018230315 0.008254228 -0.0057411157 -0.008131558 0.018926328 -0.017397808 0.005871205 -0.00795542 0.016758531 0.021402737 -0.024567872 0.004981363 0.011933827 0.011285771 -0.015324143 0.0077663744 0.015150375 0.009577716 -0.014265183 -0.006712357 -0.016294189 0.012089375 -0.008261629 0.015830968 -0.019327728 -0.012005988 -0.012124266 -0.019001102 0.0015292389 -0.009719662 0.012688803 -0.011181251 0.012651994 -0.008290663 -0.0025239903 -0.017241038 0.0033387197 -0.0028260367 -0.018773245 0.016547466 0.007591016 -0.009864828 -0.01656349 -0.015523312 -0.017108254 -0.0023133594 0.018925382 0.0149313435 0.005684825 0.009827049 -0.01570242 0.019239197 0.021118157 -0.011296761 -0.02150065 -0.012553838 0.021738792 0.012286338 0.004069946 -0.010666162 0.01994678 0.0091152955 -0.023568388 -0.012237665 -0.0039520576 0.0155241545 -0.012267562 0.004962237 0.006466876 -0.0097746 -0.010916528 -0.007908904 0.019554384 0.009377089 -0.020967195 -0.023001365 -0.012048847 -0.013407831 0.009924084 -0.01645942 0.010705749 -0.014359172 -0.01206395 0.006161105 -0.020753592 0.007287615 0.009545478 0.013137234 -0.021591954 -0.018175423 0.007913482 0.01229142 -0.027202992 -0.008627915 0.013580069 0.014507711 0.013432298 0.016087389 0.020798245 -0.020648329 -0.019586641 -0.011839468 0.009258842 -0.013452727 0.011704374 0.01715992 -0.0011513635
6 0.0027107107 0.011426463 -0.0071146246 -0.015550726 0.0020745082 -0.023585718 -0.013487822 0.016985755 -0.010639949 -0.00011229055 0.013139252 -0.015874166 0.017156549 0.01721477 0.0055983746 -0.013319758 -0.012013902 0.019676577 0.00607991 0.013471863 0.01202387 -0.021603456 -0.0015589108 -0.0022730243 0.011781534 0.012956999 -0.022501903 0.014923783 -0.008591554 0.018123863 0.00942179 -0.022509858 0.0014179468 0.023833526 0.017519979 -0.012131907 0.0062593915 0.0037351155 0.00063834054 -0.0128650945 -0.0055944123 -0.012167001 0.009289331 -0.017373517 0.020697823 -0.011863656 -0.0113830855 -0.021009753 0.0018932065 0.0024767192 -0.005801207 0.010426051 -0.008097582 0.022692489 -0.010295865 -0.006311919 -0.026488325 -0.015732951 0.005221555 -0.021063514 0.017919917 0.02182033 -0.01785492 -0.018618673 -0.0135795465 -0.019462252 0.005940961 0.0117544215 0.008186264 -0.00731957 0.020065965 -0.010587766 0.015815338 0.00840127 -0.019008813 -0.014208001 -0.014397647 0.0063315257 0.0030811224 -0.0059046694 -0.01831125 0.016579013 0.028277902 -0.021111708 -0.01726683 -0.00906759 0.009022337 -0.01219515 -0.012993121 -0.0065434566 -0.0023776297 -0.017740518 0.0034377356 0.016157754 0.019524503 -0.01021567 -0.0099799 0.0059553864 -0.010820753 0.008775526 -0.006688077 0.009144391 -0.0024074959 -0.026686346 0.015319791 -0.020552874 0.024502035 0.013238302 0.013362017 -0.01474169 -0.00985847 0.0062043974 0.025302127 -0.007832822 -0.017394902 0.0010714678 0.023520904 0.01667246 0.021927908 0.024934994 -0.013609685 -0.009575364 1.7670012e-05 0.019822367 -0.009690441 0.0076172957 -0.0036693981 -0.0073981015
7 -1.7103623e-05 0.011692674 -0.008129051 -0.013274145 -0.002476559 0.00092070707 -0.0015722151 0.016081646 0.006824298 -0.0017231961 0.0070973006 -0.016370906 0.00996746 0.0035093399 0.0049421503 -0.0032711257 -0.0060275076 0.004522919 0.0015014871 0.022538088 0.013697597 -0.0013832764 -0.0017671393 -0.012987299 0.0018909144 0.0053512836 -0.006774417 0.007293398 -0.017213577 0.012703317 0.007365542 -0.027234508 -0.0034780605 0.015276897 -0.00014972425 -0.005114016 0.006676081 -0.001952411 -0.006076774 -0.0033001574 -0.01471795 -0.023782048 0.0031605735 -0.004445458 0.020574838 -0.008452254 -0.02069143 -0.0035852531 -0.017310932 -0.005064402 -0.0015714987 -0.0014669825 -0.013714144 0.013665691 0.0005609036 -0.0038733121 -0.009323604 -0.015534342 -0.01383125 -0.016137015 -0.0036075069 0.014586866 -0.006806222 -0.02012061 -0.01146427 -0.0075616813 0.006608915 0.010017984 0.018889833 -0.011973772 0.009106461 -0.0065725427 0.009770987 0.0065211407 -0.017965147 -0.0047556306 -0.015288605 0.0069499766 0.003943774 -0.011792857 -0.008538658 0.0036813682 0.016937893 -0.015496043 -0.024921834 -0.009865522 0.013996354 0.0050746333 -0.00045498007 -0.006262429 -0.0011495776 0.0034339642 0.00042233727 0.018124925 0.0016771337 -0.021565828 -0.0065373764 -0.00091190205 -0.013496491 0.0020840713 -0.012061476 0.015249084 -0.012573545 -0.01894149 0.0066134604 -0.0024850469 0.027492935 0.018765423 0.0007652557 0.0014739716 -0.008948517 0.005198381 0.012681436 -0.01828074 -0.009881794 0.007828597 0.013570592 0.013209163 0.0069698407 0.006040781 -0.008165232 -0.0048098713 -0.0051070643 0.0107373465 -0.008571997 0.01167953 0.0035315875 0.0013876655
8 -0.00059716264 -0.0010677916 0.0034578622 -0.02804538 0.017304678 0.002566501 -0.01692013 0.022360828 0.0022404203 -0.009700023 0.022936154 -0.0039017003 0.006479417 0.018216623 0.016809989 -0.018841542 -0.026411328 0.015878761 0.018396232 0.025562765 0.022242527 -0.012030367 -0.003927298 -0.00075242994 0.01827522 0.026974559 -0.0072454736 -0.0039907317 -0.016681785 0.0063070273 0.016981728 -0.009830979 -0.002730565 0.0055840868 0.011843808 0.0016588685 0.00225916 -0.010099319 0.013834462 -0.009925217 -0.020179207 -0.007640545 0.0059489906 -0.0023930464 0.026809791 -0.023965389 -0.01014017 -0.012458404 -0.025245262 -0.0032802655 -0.0028318402 -0.0046857423 -0.014194577 0.002716026 -0.005713095 0.00868908 -0.0089189345 -0.017370123 0.013338476 -0.014734295 0.008153111 0.02127396 -0.0053503383 -0.027412452 -0.0024153453 -0.015380358 0.017394044 -0.006005767 -0.0028868557 -0.010919303 0.012360969 -0.023873232 0.024783304 0.022069164 -0.024129454 -0.0008992174 -0.014603054 0.01515408 0.0025141684 0.0116040865 -0.024363214 0.008951734 0.02186074 -0.018153237 -0.020583875 -0.0035509863 0.00852279 0.005045363 -0.022471746 -0.0066037835 0.004236794 -0.017972067 0.0073431907 0.014125138 0.013054157 -0.009078014 -0.0074392753 0.0020478442 0.0005417757 -0.0053713 0.0033696797 0.011506578 -0.01027092 -0.009338509 0.014782888 -0.01194119 0.023773022 0.0077959844 0.014800307 -0.0002223858 -0.0034112895 0.0012189909 0.007117716 -0.02435878 -0.010045041 -0.004387117 0.0107927555 0.0033431926 0.019807033 -0.006435167 -0.008440992 0.00777344 0.011838928 0.01185982 -0.009333381 0.01674328 -0.017861357 0.0045981724
9 0.011070202 0.021771094 -0.022470616 -0.017908078 -0.00689944 -0.014948571 -0.0014317491 0.017177887 -0.0059769237 0.00074848457 -0.007391813 -0.025131559 0.02303464 0.020458711 0.013447342 -0.013723834 -0.018368622 0.028585894 0.02449021 0.020560525 0.021197734 -0.027525695 0.011784802 -0.014079681 0.0015317136 0.018223735 -0.027842065 0.02060759 -0.031258896 0.015169387 0.024498979 -0.017384458 0.010480687 0.017057734 0.027493645 -0.018900385 -0.0016365421 0.01690009 0.009078729 -0.015005275 -0.0067430097 -0.00718404 0.02781016 -0.019769892 0.015472723 -0.02046312 -0.01243894 -0.022638973 -0.016630972 0.0011900063 -0.013452058 0.017427584 -0.010555549 0.012993531 -0.01151088 0.0007173864 -0.030106552 -0.0075931796 0.0043710098 -0.011984375 0.022327347 0.007917073 -0.022999741 -0.031465832 -0.016677398 -0.011495476 -0.006928866 0.013777636 0.014159836 0.0020909447 0.024827221 -0.0154559305 0.022920595 0.019801918 -0.008912962 -0.019751398 -0.02742995 0.024986535 -0.010723004 -0.004688775 -0.010367285 0.026718412 0.025007393 -0.023602169 -0.015037926 -0.00011876371 0.022400526 -0.0078140795 -0.0067814323 -0.00066583283 -0.011946137 -0.010707585 -0.001057911 0.021246405 0.02583718 -0.021647813 -0.017503034 -0.009494508 -0.015648065 0.0091662165 -0.0055715325 0.017618239 -0.015772017 -0.01684092 0.019052407 -0.022036165 0.01959594 0.0054700524 0.020625135 -0.014313841 -0.0015448715 0.012287606 0.025518693 -0.02988695 -0.026452383 0.013359319 0.016515983 0.02669133 0.027386365 0.019713439 -0.024193054 -0.006524799 -0.009723022 0.015939798 -0.010589524 0.0137424 0.006299839 -0.020986807
10 0.0007881201 0.0056785373 -0.00042209838 -0.01598935 0.015513946 -0.0084811635 -0.013151775 0.00822237 0.016944285 -0.008921499 0.01806779 -0.01069755 0.016357964 0.019842235 0.006709431 -0.019460063 -0.021848876 0.003293189 0.0038851842 0.012525069 0.016819175 -0.011571809 -0.014326256 -0.0069445246 0.015383199 0.016438946 -0.011558889 -0.0037816295 -0.016125645 0.004257112 0.013232877 -0.015712632 -0.0076446724 0.016334288 0.0064918296 0.0019132714 0.009434866 -0.010818301 -0.009669618 -0.012115053 -0.013567099 -0.0069105932 -0.001433627 -0.0048922077 0.025493162 -0.022039197 -0.021795854 -0.008123318 -0.0118887825 -0.008612561 0.00070122327 -0.0058654225 -0.022186212 0.0022747624 -0.0034680536 0.0058178664 -0.0048530037 -0.019310704 -0.00029673422 -0.01752375 0.012334348 0.017415913 -0.010490893 -0.021112438 0.00024380843 -0.008753653 0.0057919016 -0.007181815 0.015701955 -0.015024 0.0072718933 -0.016385352 0.015340825 0.013496349 -0.009681891 -0.0048966785 -0.016624792 0.006309077 -0.0032730396 -0.0032477386 -0.019447977 0.004733578 0.028453553 -0.0059082843 -0.020079954 0.0024577675 0.0071774856 0.009013029 -0.020190509 -0.0176808 -0.0017115967 -0.00209624 -0.003720223 0.02248512 0.018263835 -0.018319262 -0.011315817 0.010037336 -0.0038876617 -0.0015048159 -0.00012438976 0.0076838518 -0.028451858 -0.010197125 0.012825615 -0.003145283 0.011477707 0.024195276 0.008178741 -0.0046239058 0.0015354165 0.00452593 0.010339641 -0.020192277 -0.0071067093 0.0019977977 0.012154806 0.0083665205 0.0078748595 0.0043281377 0.001338061 0.002260698 -0.0005749512 0.01934707 -0.008292395 0.022183461 -0.00061507174 0.009720715
11 -0.00830674 0.022312604 -0.010012608 -0.023016741 0.024272267 -0.021424001 -0.021187168 0.021008054 0.01216723 -0.009276809 0.0125673665 -0.02724594 0.028492788 0.027825044 0.013502294 -0.01894623 -0.021518119 0.019754173 0.012479108 0.022945067 0.02868672 -0.024501435 -0.016093856 0.0015679416 0.016497742 0.019319637 -0.021663956 0.0058051427 -0.029668616 0.026746867 0.026360894 -0.023512546 -0.0035062544 0.018002769 0.026056802 -0.018271547 0.0027670497 -0.007302576 0.008866744 -0.03056394 -0.02197584 -0.01611546 0.017424908 -0.029301738 0.022077221 -0.022831645 -0.015943058 -0.021717263 -0.019429635 -0.02138158 0.013323901 -0.0053866105 -0.023267448 0.022389702 -0.014963162 0.007997658 -0.0221792 -0.027056787 0.008730862 -0.024324298 0.027298423 0.026957948 -0.01817542 -0.016243806 -0.020023309 -0.020573206 0.017020943 -0.008944165 0.004957454 -0.021940669 0.028833011 -0.02393341 0.021332646 0.019117191 -0.026339943 -0.012416863 -0.026294068 0.021059424 0.013676715 0.012305747 -0.022436094 0.025446601 0.01598693 -0.024360975 -0.024413548 0.00059650803 0.021902418 -0.0004038281 -0.018407026 -0.023836147 -0.008135537 -0.020877505 0.0054680165 0.019294024 0.018858083 -0.018923592 -0.014704741 -0.0025316365 -0.01617697 0.00037161948 0.015991194 0.01879982 -0.0002118668 -0.020230228 0.012609968 -0.02898042 0.025621228 0.027187068 0.024743032 -0.00846924 -0.004626982 0.0021696438 0.021383364 -0.027871517 -0.02268735 0.00061973534 0.02698483 0.027473053 0.017102187 0.0059504346 -0.019093446 0.013131209 0.019106528 0.028518569 -0.0037690974 0.02424666 -0.020956265 0.011761544
12 0.0035233705 0.0025944398 -0.020997496 -0.01880665 0.014915037 -0.011821757 -0.004727372 0.0044954126 0.008177108 -0.004245989 0.0035665657 -0.011937576 0.017481925 0.02246665 0.0033525396 -0.021493679 -0.021436507 -0.0010680412 0.008489278 0.012591385 0.022559233 0.0010245895 -0.0057680584 0.00016285363 0.010797472 0.013260064 -0.0059043816 -0.00076439034 -0.028304184 0.018863 0.019837812 -0.023153119 0.003094452 0.020685049 0.012680648 -0.008733065 0.020164315 0.0032047164 0.006794281 -0.008337291 -0.008658328 -0.015254478 0.008962256 -0.011039762 0.016244369 -0.019087762 -0.026955958 -0.010080187 -0.011326275 -0.015993161 -0.0044529466 -0.00030292955 -0.023351384 0.012117978 -0.0096102515 0.011614329 -0.016752115 -0.011494594 -0.010445782 -0.02657786 -0.0021462778 0.025160313 -0.013319422 -0.02305826 -0.0011800795 -0.010390685 0.009093396 0.0073643876 0.020181341 -0.006334676 0.011423456 -0.022330713 0.023978854 0.0025182478 -0.008424562 -0.013487011 -0.019846525 0.020098682 -0.0048503084 -0.00029884165 -0.011057264 0.012995049 0.016514223 -0.016085438 -0.015716448 -0.011114511 0.007984563 -0.00041936658 -0.011725674 -0.016174613 0.0030248421 -0.008631113 0.0037865762 0.020679455 0.009267196 -0.009654927 -0.007690829 -0.0061042304 -0.0023648706 0.007420826 0.0037708867 0.02163685 -0.01749147 -0.024867492 0.013957585 -0.009568277 0.017977856 0.025629418 0.010408217 -0.0032712985 -0.0017071115 0.0011030638 0.020960866 -0.02307384 -0.009073028 0.016518222 0.017251344 0.015861955 0.015008056 0.009704398 -0.003041228 -0.0053051068 0.000691761 0.0099944025 0.0020848175 0.015218825 -0.00037897614 -0.010774225
13 -0.0013759802 0.01081773 -0.010936084 -0.016203944 0.000116599054 -0.008967899 -0.00433099 0.01622898 -0.010562747 0.0032317135 -0.0047744857 -0.006818306 0.009510949 0.010218479 0.0008277343 -0.006066443 -0.0059012757 0.0018718403 0.014186965 0.0076639783 0.020360641 -0.01592685 -0.006521153 -0.0032648148 0.011146875 0.0013646797 -0.004346249 0.015587472 -0.005723757 0.016958933 0.015492891 -0.012653771 0.001038118 0.01105635 0.017984582 -0.009092121 0.0068656746 0.0014867582 0.0018249128 -0.019405343 -0.008604028 -0.018333063 0.011771332 -0.011724929 0.00940817 -0.020171342 -0.0033470418 -0.011338092 -0.011530048 -0.002918717 0.0029084343 -0.0003174538 -0.0018877672 0.002827548 -0.016933504 0.0020887528 -0.0185883 -0.014221714 -0.0060193627 -0.016330568 0.008047493 0.0062789 -0.010995214 -0.006941881 -0.0062537203 -0.0069736657 0.0114671085 0.0036710508 0.015519434 0.003280238 0.012462958 -0.0076355496 0.0081011765 0.011795027 -0.015619292 -0.0123924585 -0.016296398 0.017890658 0.0011052261 0.014637739 -0.017137963 0.01897606 0.020278258 -0.022176333 -0.021863198 -0.009551429 0.020372158 -0.010887603 -0.004168672 -0.0036867396 -0.005728122 -0.00945457 -0.005285658 0.013950906 0.0154096605 -0.00038996246 -0.0041192686 -0.008944975 -0.012210779 0.006765811 -0.0020769266 0.022051685 -0.014280489 -0.016324617 0.016287168 -0.0069130543 0.015265615 0.017168377 0.017788898 -0.0015760527 -0.0101439 0.006908493 0.0104187885 -0.014018568 -0.010137058 0.0017122565 0.0143350465 0.011419876 0.018239815 0.01573229 -0.01614873 0.0006659526 -0.00113776 0.00100425 -0.0046121795 0.015140493 0.0071238037 -0.017036827
14 0.011185475 0.020762777 -0.020033581 -0.018631496 0.0121826995 -0.006059771 0.004653717 0.010746978 0.0021801048 -0.00030864886 0.000605812 -0.025532436 0.022831114 0.000320216 0.010203666 0.0016404309 -0.011610442 0.009127582 0.0056767035 0.015458273 0.0097945 -0.020156847 -0.00722149 -0.003528227 0.0063290293 0.009221265 -0.024956653 -0.004477796 -0.004951095 0.025571197 0.017495366 -0.013639652 0.0049070404 0.016255798 0.019198647 -0.011186526 0.016625911 -0.00089519925 0.0034099396 -0.016551768 -0.0031725203 -0.009568535 0.025471399 -0.019394599 0.014158523 -0.020074222 -0.010785113 -0.017729286 -0.013305694 -0.0047717015 0.0010367186 0.017973686 -0.011908676 0.005406116 -0.009992629 0.01578193 -0.021330195 -0.008004391 -0.0049125734 -0.020120569 0.012948381 0.0049445466 -0.01674827 -0.02273048 -0.0054410766 -0.021387178 0.015914021 0.0129058035 0.0048720147 -0.0053490484 0.005746212 0.0012338147 0.011504987 0.014681912 -0.012764761 -0.02733053 -0.02315741 0.02027283 0.0021209512 -0.008898264 -0.020225596 0.016605088 0.015876729 -0.023601834 -0.0253852 -0.0039578616 0.018102502 -0.012186403 -0.00686782 -0.018035706 -0.00937973 -0.01746238 -0.014242059 0.006637611 0.022833204 -0.017655417 -0.021590203 0.008024412 -0.009559562 0.016854096 0.004654412 0.016134646 -0.015033053 -0.013816238 0.009572327 -0.02567242 0.017360773 0.015114091 0.008482385 -0.00998788 -0.00808608 0.010982908 0.01590046 -0.0136875175 -0.013982044 0.0065231547 0.013756276 0.011352121 0.019011999 0.0059135524 -0.013727188 -0.013857361 -0.013573953 0.01818439 -0.0012911258 0.00785831 0.0018538764 -0.0014688079
15 0.012430072 0.020240761 -0.011902936 -7.509452e-05 -0.0015604744 -0.011432492 -0.0034389163 0.0026305055 -0.009686414 -0.012313952 -0.007160992 -0.019111304 0.017174069 -0.003239145 0.00569517 0.0036904565 -0.007315298 0.0056633484 -0.0060486826 -0.00042328652 -0.004041266 0.0011906754 0.0013209217 0.00097273896 0.0125048645 -0.008647542 -0.00024397392 -0.0076813805 -0.006533338 0.010461643 0.006100616 0.007988517 0.005437256 0.001580249 -0.0070612906 -0.011428104 0.013138843 0.005845533 -0.011440435 -0.012554609 0.0008201473 0.0019142684 0.012154458 -0.011146345 0.009046775 9.43428e-05 -0.0017294078 -0.009467223 0.0045263227 -0.00091221096 -0.007088158 0.014178677 0.0024086197 0.01993842 -0.01603324 0.0028252052 0.005979734 0.0034144898 -0.011248104 -0.010326346 -0.010241636 0.010221366 -0.014793187 -0.00047316056 0.0013439057 -0.0041624103 0.0049977046 0.013769219 0.0044590468 0.010400774 -0.0009747284 0.0027991694 -0.003792277 0.012289598 0.0018900549 0.00051030895 0.00024586247 -0.00043379725 0.011933936 -0.013161619 -0.015761659 0.016809626 0.004270263 0.00028432728 -0.005696273 -0.00015760447 0.025808025 0.00063275226 -0.0049486505 -0.0021386996 0.0038406753 -0.007877679 -0.013534689 0.004024105 0.012022151 -0.012037781 -0.008559149 0.010164581 -0.007450264 0.015831696 -0.01382575 0.005898168 -0.014513532 0.00054242334 0.011501522 -0.0061229467 0.013165911 0.0083821295 -0.008298505 0.0025130762 -0.011276251 0.009868216 0.0081512565 -0.004133063 0.0027048388 0.013077663 0.013547291 0.01025556 0.015091421 0.018061962 -0.009739123 -0.019746516 -0.008010765 0.0031647482 -0.014971022 0.012994125 0.013838566 -0.0025102315
16 0.0045063295 0.015688593 -0.015014398 -0.004840704 0.0015704269 -0.0048404997 0.0045948047 0.016482249 0.00066771684 -0.012844814 -0.0013228937 -0.009029111 -0.0034126302 0.0013849827 -0.00543591 0.0047178725 -0.012640226 -0.013330015 -0.012240371 -0.001037671 -0.005771188 -0.004254741 0.00015691301 -0.018998291 0.0018706387 -0.008443667 -0.010553297 0.0071589733 -0.0065235686 0.019690659 0.005043858 0.0029888533 0.017633975 0.005411251 -0.007681647 -0.016482802 0.020116752 0.016482655 -0.013436074 -0.0054723173 0.006701501 -0.011524785 0.016466837 -0.013744509 0.0008678019 -0.013036476 -0.0055435733 0.00054139923 -0.004818916 0.00040569803 -0.006878552 0.016361466 0.011549084 0.010512217 -0.008719881 -0.005039331 -0.0016478826 -0.0010570998 -0.022965303 -0.012085855 -0.0070495103 0.0007049296 -0.0003524557 -0.002809075 -0.003653071 -0.006120869 0.009507562 0.015290975 0.026235951 -0.0029606686 -0.0097488165 0.0048853075 0.009984078 0.02304401 -0.010357124 -0.018597197 -0.0011158596 0.0058026034 0.0061327172 -0.0017567783 -0.010542015 0.00082656497 0.008230371 -0.009466146 -0.011678682 -0.0012466197 0.010026079 -0.014430165 -0.002398352 -0.010158416 -0.020161124 -0.0036024842 -0.012227285 0.008121018 0.011201559 -0.02174155 -0.014016192 0.014103986 -0.00798943 0.018909628 -0.013104911 0.005073811 -0.010314171 0.00063237513 0.005086777 -0.0100487 0.009326371 0.00025073398 -0.011166637 -0.016147234 -0.020504903 0.0062250895 0.005939127 0.0021945478 0.0015983561 0.022265177 -0.004633884 0.012493668 0.016661353 0.0046142656 -0.016270591 -0.022132456 -0.019719657 -0.0040922 -0.014873671 0.0060769133 0.005713615 -0.007947777
17 -0.007896788 0.025772512 -0.019552285 -0.02086548 0.015407757 -0.014313808 -0.013421958 0.0284707 0.0028409613 -0.008764392 0.016676802 -0.028489273 0.021793684 0.016114617 0.02357543 -0.0139067015 -0.023678234 0.019719316 0.0186191 0.021207046 0.019988753 -0.0138999 -0.017895024 0.0026858517 0.01733588 0.019054055 -0.022939226 0.0013567683 -0.022533074 0.021186352 0.02217402 -0.020520393 0.0025866101 0.021570789 0.018024309 -0.010512838 0.0011159843 -0.0022610002 0.014099867 -0.029450046 -0.017608862 -0.018590776 0.012644873 -0.02460537 0.023599105 -0.024904968 -0.014704299 -0.018267866 -0.01745255 -0.006547795 0.0026586289 0.016966855 -0.017281407 0.019207925 -0.010559856 0.0049517704 -0.024389375 -0.021128243 0.00841894 -0.017742429 0.012190505 0.018169228 -0.026892174 -0.028262602 -0.022333456 -0.023930606 0.004383187 0.011477124 0.0056795143 -0.016006615 0.019190114 -0.024230214 0.021824664 0.020492623 -0.020496132 -0.0073773726 -0.028167063 0.022578923 -0.008220202 -0.0019492647 -0.019735828 0.015327999 0.013722351 -0.026310176 -0.01795327 -0.01639812 0.015567981 -0.0014585658 -0.025724899 -0.01696924 0.009528609 -0.0062936367 -0.0008055273 0.025460364 0.016191432 -0.014276734 -0.009998189 0.010802962 -0.025737992 0.013606696 0.009938714 0.019650675 -0.02256458 -0.015815055 0.025735404 -0.028466765 0.021401174 0.023077656 0.01694049 -0.018120617 0.004815684 0.018878307 0.029130261 -0.018806087 -0.02126867 0.0057948832 0.0178944 0.020281233 0.02433313 0.022806956 -0.018706746 0.005258967 -0.002642832 0.016161598 -0.015753657 0.022217428 -0.002291222 -0.00087631086
18 0.019865146 -0.003153352 0.0046050567 -0.003932455 0.007824366 0.0071041835 -0.011343921 0.010970705 0.009578156 -0.018760664 0.016824177 0.003883195 0.006115174 0.023105174 0.014485776 0.009918548 -0.013832984 -0.008662305 -0.0065403855 0.010141466 -0.008955704 -0.00011902696 -0.016962823 -0.017421417 0.008647679 -0.0059177144 -0.00075054786 -0.019671313 -0.013178376 0.005474965 0.0038711235 -0.0015495737 -0.00088792 0.012905494 -0.017112354 0.008619159 0.016378507 -0.0068958923 -0.021268137 0.0037609437 -0.005802242 -0.017187688 0.0016506976 0.0049884957 0.010881216 -0.012769119 0.009100249 0.0045026313 -0.005300964 -0.01680175 0.015327973 0.01708562 0.0068835746 0.0028452938 -0.005446478 0.010586669 0.010618286 -0.013918447 -0.014529673 -0.0052848184 -0.022387525 0.007789193 0.008358511 -0.0052685444 0.013780164 -0.004103055 0.010503879 -0.0058939327 0.000818301 0.00025120276 -0.0006855087 0.008368727 0.0023926722 0.015219057 -0.0051957928 -0.014820854 -0.0027064628 -0.0021076044 0.0096564805 -0.01152032 -0.012100045 0.0013781079 0.021085532 -0.009592276 -0.018792875 0.023484116 0.018711725 0.0070702685 -0.002406072 -0.021821624 0.0033347756 -0.0057361107 -0.013988212 0.016326526 0.0023374038 -0.017221192 0.008174043 0.02306371 0.008316092 -0.0034925344 0.0043266607 0.015124416 -0.016707815 0.0016169451 0.004980661 0.011037674 0.020895131 0.018041205 -0.0056558624 0.006472971 -0.015251837 -0.0072406987 -0.00111958 -0.023445083 0.01257142 0.005316329 -0.0028381567 -0.0023812235 0.002836348 -0.002219753 -0.009731275 -0.0012791873 -0.00075811846 -0.0010076327 0.0019616678 0.014409781 0.0084353145 0.0030282824
19 0.015407012 0.019496353 -0.02169642 -0.009153097 0.0055449987 0.0055566854 -0.0034386378 0.022505425 -0.00083864026 -0.023648364 -0.0022139102 -0.0077730967 0.01611743 -0.00013806218 0.009018194 0.014536452 -0.0039730654 -0.020669661 -0.0034741128 -0.0037935772 -0.010589335 0.0065254304 0.011924746 -0.003897677 0.0055488525 -0.019200385 -0.0071922243 -0.02382374 0.00863927 -0.003277682 0.0042549456 0.0072258194 0.018947085 0.014615788 -0.021065865 -0.021251773 0.01191468 0.008956754 -0.024163794 -0.014717687 0.015443794 -0.023621915 0.010654899 0.0003772219 -0.0054624015 0.004514298 -0.010589382 0.0061755683 -0.0045907614 0.0017907704 -0.006248522 0.019563735 0.016040623 0.010879798 -0.006692381 0.012049522 0.012096021 0.004636805 -0.011513035 -0.0063020308 -0.015476002 -0.0014562597 0.0032460196 0.0032706656 -0.0030804928 -0.016863529 0.01482773 0.019797591 0.017217597 0.007258302 -0.007106469 0.0038316615 -0.0051371744 0.007998354 -0.018025646 -0.021358192 0.004453329 0.009354152 -0.0015564383 -0.010752959 -0.010400557 0.00818949 -0.0007083771 -0.007322295 -0.0054469816 0.018177368 0.015701104 -0.021234322 -0.0017214904 0.006312554 -0.0035245994 0.0028757162 -0.008027538 0.010405946 -0.010715096 -0.024589952 0.0017314943 0.017121024 0.003583947 0.018442724 -0.010168892 0.00426533 -0.012919357 -0.0036921846 0.014839558 0.0068211313 0.018291876 0.007807643 -0.022618052 -0.0007245906 -0.007515653 0.020588556 0.0023397522 0.00431441 0.01805419 0.018158443 -0.006454416 0.005513019 0.005188981 0.019273417 -0.018238757 -0.014087918 -0.018632371 -0.012095949 -0.013131454 0.0036270393 0.012014785 -0.015259967
20 -0.011189243 0.013777846 -0.024549948 -0.021088706 0.013620993 -0.01123132 -0.004504016 0.0077605983 0.017437914 -0.008898364 0.019204648 -0.020797312 0.016722912 0.023199465 0.020115186 -0.017755428 -0.018711383 -0.0014748416 0.015570462 0.020750219 0.020168955 -0.01116631 -0.012444819 0.0044462318 0.009582905 0.008362764 -0.020531036 -0.0007376692 -0.008358483 0.019118922 0.019209202 -0.019591661 -0.0051209447 0.016404148 0.010935866 -0.009917003 -0.0017957105 -0.009012363 -0.0036332335 -0.019824779 -0.02207996 -0.01897341 0.02192074 -0.012040954 0.021545159 -0.022014556 -0.011085879 -0.022522388 -0.020578979 -0.018449137 0.010413346 -0.0059939544 -0.017795028 0.021206364 -0.0043724957 0.014938199 -0.016228387 -0.023198709 0.0143188005 -0.026404984 0.011164186 0.006453313 -0.011039393 -0.0136065865 -0.0059561566 -0.011621585 0.016475003 -0.008181823 0.008937602 -0.008870289 0.009989466 -0.01204703 0.017085394 0.023769408 -0.015129337 -0.023813682 -0.017707465 0.021184774 0.009855032 -0.0025583447 -0.0147523815 0.018130222 0.02053021 -0.01899722 -0.022351423 0.0032986884 0.0023978315 -0.0011956233 -0.019245338 -0.011682956 0.001965069 -0.006316065 0.008712561 0.014029531 0.02072678 -0.011175546 -0.008716203 0.0054001533 -0.015035772 0.007728219 0.0053458977 0.011998383 -0.00839744 -0.017263608 0.01808723 -0.0126836635 0.0074444194 0.014989085 0.021419115 -0.02769271 0.0028441162 0.010651606 0.014454207 -0.01487894 -0.012662659 -0.01088605 0.019334236 0.02145262 0.011740678 0.006582233 -0.02506615 0.0019832698 0.0025603243 0.01949752 -0.020000517 0.021361247 -0.004096732 0.002459765
21 -0.008849192 0.011794214 -0.02651182 -0.009036369 0.018626248 -2.99057e-05 -0.016771013 0.025720483 0.019846156 -0.015634594 0.0101192845 -0.012891957 0.019642483 0.020847883 0.023350468 -0.0029542346 -0.022433244 0.0047346326 0.009715236 0.020608155 0.008160496 -0.022078749 -0.01726083 -0.013699578 0.02227258 0.017712748 -0.013478428 -0.009819469 -0.016272852 0.025320578 0.022620406 -0.022324186 0.0025394927 0.011253926 0.01083716 -0.015572099 0.014308484 -0.012379949 0.009711271 -0.015314628 -0.0093114795 -0.010003717 0.023757452 -0.027909916 0.008558416 -0.018235724 -0.0054362435 -0.015945239 -0.005384651 -0.019261716 0.015738303 0.013793145 -0.007343721 0.004498867 -0.013122898 0.025536556 -0.018601904 -0.022096887 0.0010272745 -0.013629781 0.0062195337 0.012533088 -0.019632677 -0.016706398 -0.008998312 -0.016270695 0.011773498 0.003721954 0.021994844 -0.011572031 -0.001728565 -0.0040430995 0.020906078 0.015608695 -0.006460317 -0.01808853 -0.01632211 0.01829213 0.0017557817 0.006502614 -0.015070766 0.021941813 0.023339141 -0.015140358 -0.012460158 0.009641192 0.007610763 -0.0021915447 -0.0091767935 -0.020165911 -0.0057622683 -0.009033675 -0.008884623 0.010103451 0.022977926 -0.01863908 -0.017391365 0.02467748 -0.02062814 0.0069194096 0.0077300244 0.025857383 -0.0055247 -0.010842266 0.025589557 -0.021242276 0.020787567 0.0077080145 0.013973967 -0.0111596305 -0.013337451 0.014459622 0.023988442 -0.010196144 -0.0073685744 0.005415685 0.015637862 0.018110959 0.020535907 0.008162053 -0.009475492 -0.0046709264 -0.001301983 0.017935399 -0.019860893 0.02073925 -0.0026358932 -0.0116431955
22 -0.0060719224 0.010422268 -0.013125702 -0.009879584 0.0146465935 -0.012836892 -0.011347766 0.017596897 0.013703005 -0.012532036 0.007637581 -0.017287908 0.00914556 0.013042313 0.015841324 -0.009299078 -0.012324405 0.0048617874 -0.0013709092 0.004358503 0.0036599413 -0.0130118085 -0.012243771 -0.016616505 0.005515922 0.0065963026 -0.007311914 -0.014434661 -0.008562367 0.01670383 0.005977059 -0.014383784 -0.0025258604 0.0064188214 0.003965636 -0.012369763 0.01225989 -0.0031952308 -0.0044545718 -0.0036549072 -0.0059331 -0.006418456 0.012180856 -0.017585889 0.013007482 -0.014768808 -0.019352105 -0.014312504 0.0031945768 -0.014337692 0.011864266 -0.001290986 -0.012526235 0.011266907 -0.016921863 0.0072341603 -0.0022990135 -0.0108074695 -0.0033974734 -0.023364216 -0.005061942 0.011889664 -0.023206314 -0.01156854 0.005135125 -0.012140459 0.00992542 0.013718545 0.018262263 -0.00932365 0.01136763 -0.007867288 0.012570232 0.020559616 -0.005502988 -0.015273171 -0.0046577137 0.012563189 -0.008277078 -0.020756805 -0.0058498504 0.02241467 0.013225497 -0.015793635 -0.017689006 0.00038731558 0.028480299 0.0022916137 -0.0101527 -0.004198448 0.004209813 -0.0074471054 -0.013930567 0.008605615 0.0075060357 -0.0072334176 -0.0016384413 0.010899335 -0.011146378 0.019104745 -0.002023828 0.0034697056 -0.01576411 -0.010120132 0.012514607 -0.0047583324 0.018527938 0.012698451 0.0008556927 -0.0022299115 -0.010455296 0.009616827 0.0061891708 -0.016028292 -0.0008583615 0.01590267 0.009926621 0.010773289 0.00058862247 0.018954545 -0.013044026 -0.0060667736 -0.0020344623 0.0040855063 -0.021221654 0.0069256243 -0.0042762808 0.0044343807
23 -0.004237649 0.014646486 -0.012791915 -0.014590191 0.012899364 -0.0030763396 -0.008970614 0.003179997 -0.0019224947 -0.010452109 0.0022859985 -0.015674364 0.0034370716 0.008183316 0.015797606 -0.011714423 -0.0058044735 0.008764181 0.007435161 0.008512303 -0.00097388437 -0.0077879564 -0.004502275 -0.007011838 0.010804281 0.0031181106 -0.0031507101 -0.013253152 -0.006648125 0.020399557 0.020763885 -0.0042354437 -0.00026365888 0.016489344 0.005394629 -0.02340639 0.0042080088 -0.00560901 -0.01249504 -0.012569816 -0.010767966 -0.022062363 0.018220747 -0.016370092 0.013973461 -0.012113833 -0.0016412034 -0.00768493 -0.010475699 -0.011728602 0.00039232976 0.009620973 -0.008632114 0.015923377 -0.013681168 0.01262011 -0.005592509 -0.0004954623 -0.007836565 -0.0039745737 -0.0033470076 0.01770378 -0.013322101 -0.006529796 -0.0018136196 -0.013669641 0.012151275 0.0056849974 0.016958483 -0.009676929 0.008722967 0.0021364614 0.0038107708 0.0124944765 -0.017586414 -0.019499574 -0.010806485 0.018921375 0.019157795 -0.0015458302 -0.010930019 0.0069521717 0.0033776327 -0.0070851278 -0.009576915 -0.0033480597 0.014539343 -0.0055632615 -0.024006465 -0.00887998 0.0058108885 -0.015178884 -5.5062934e-05 0.006529334 0.01937347 -0.0096097365 -0.0107329935 0.01203258 -0.022537364 0.010972555 -0.0035156184 0.0096415235 -0.015082532 -0.009886252 0.01379885 -0.012066944 0.011546802 0.00939673 -0.0008798641 -0.0071024112 -0.007946342 0.01006474 0.008117475 -0.0073519195 -0.0029117963 0.000452011 0.008768177 0.00011623412 0.0055291294 0.008768358 -0.018830128 -0.004078163 -0.011086552 -0.0024026511 -0.015980994 0.023793261 0.0060676443 -0.0014427141
24 -0.012626591 0.017750988 -0.013247938 -0.013619559 0.011219618 0.0011042673 -0.013634226 0.016805502 0.0009432664 2.1799933e-06 0.012702968 -0.0045200507 0.012847205 0.011382907 0.013544507 -0.0010931174 -0.002914428 0.0043916334 0.016919453 0.011470067 0.008062841 -0.0055820793 -0.02194123 0.005636941 0.013817141 0.0116531765 -0.028063906 -0.008314116 -0.015301989 0.013433165 0.01793876 -0.008036427 -0.0036610859 0.020276485 0.0032380705 -0.0006556996 -0.011315854 -0.0042959135 0.0020514587 -0.020199258 -0.014151476 -0.013843234 0.023918658 -0.021580756 0.024637446 -0.014673107 -0.017430743 -0.015397895 -0.026533812 -0.024410708 0.013422328 0.012074478 -0.005600954 0.011338179 -0.006642233 0.010967021 -0.017992707 -0.019965997 -0.0064893886 -0.025024464 0.0073106033 0.0024973815 -0.019607263 -0.0122889485 0.0053361394 -0.01750082 0.014382181 0.010147674 0.009089421 -0.013500135 0.0103060985 -0.021737745 0.01998665 0.009345732 -0.014747033 -0.010875559 -0.013845891 0.01913802 0.01234644 -0.014339897 -0.00064509537 0.024023913 0.012678863 -0.010658777 -0.024741245 -0.0041839657 0.0080539035 -0.0049294364 -0.014879388 -0.023097698 0.0062759267 -0.0065829693 -0.008385247 0.012248346 0.015857983 -0.015138891 -0.017710408 0.017272804 -0.012340437 0.012506052 0.001678138 0.01797983 -0.012611359 -0.020821376 0.0126563795 -0.024861027 0.024854107 0.0050454773 0.013844777 -0.005324283 -0.012221863 0.011681376 0.023391716 -0.009672882 0.0010123777 0.012713788 0.00856797 0.021520618 0.024267001 0.022814149 -0.007834906 0.009739422 -0.0040349565 0.017526636 -3.1787145e-05 0.02156124 0.005920022 0.002399741
25 -0.004189469 0.0073971944 -0.0028637398 -0.02884437 0.020204758 -0.008354372 -0.015684163 0.026520181 0.00807442 -0.003993767 0.024846146 -0.005381171 0.018706337 0.021024937 0.02765437 -0.014332141 -0.019869426 0.013657601 0.019512838 0.027376933 0.02528334 -0.013045136 -0.019165458 -0.0038083177 0.013996711 0.020826962 -0.0177979 -0.010020001 -0.023137724 0.007881233 0.024550406 -0.012335345 0.013285754 0.018573588 0.014125152 -0.014884031 0.015981486 -0.010781157 0.0032375203 -0.007776284 -0.019693274 -0.0061847446 0.0126364315 -0.022927321 0.017719794 -0.023146972 -0.021444865 -0.016189085 -0.011839981 -0.023266004 0.011339116 0.012206307 -0.024379818 0.02724161 -0.0059281313 0.018333867 -0.025357543 -0.021819603 -0.002511349 -0.017761666 0.008901631 0.016648937 -0.012964735 -0.018908491 -0.0021459996 -0.02126314 0.02364831 0.002548142 0.00825353 -0.023971323 0.01684074 -0.017757596 0.021312138 0.023109289 -0.0265509 -0.008383188 -0.019856067 0.016663695 0.0028426345 -0.009009458 -0.01376855 0.021550143 0.010715409 -0.026165467 -0.017560223 0.0021774005 0.008273166 -0.0064741685 -0.014776868 -0.010818843 -0.0013447487 -0.012581209 0.0034080655 0.022711687 0.0119027095 -0.029381717 -0.022662796 0.01835098 -0.025660282 0.018668512 0.011069029 0.026127918 -0.008733455 -0.02422665 0.004405005 -0.02616062 0.02608542 0.020629445 0.00735713 -0.023027098 0.0007970162 0.0091521405 0.026332656 -0.023673102 -0.009775623 -0.0016149735 0.013260719 0.015755486 0.019696824 0.0116475085 -0.014919872 0.0015165899 0.00893054 0.022796497 -0.005321893 0.021368122 -0.009756814 -0.00013875455
