26 128
0 -0.021644954 -0.024076972 -0.030032257 0.0031449276 -0.008523389 0.007921494 -0.006944639 0.004723324 0.013263651 -0.0076309266 0.0056318883 -0.015589573 0.0026388299 -0.005799569 -0.0066869976 0.0019040874 -0.009733872 0.013370074 0.016080892 0.01716609 -0.0006250929 -4.3054926e-05 -0.011186628 -0.004812768 0.0087132435 -0.0053972485 0.0070504444 -0.009298477 -0.009459429 -0.01278603 0.021618327 -0.016318152 0.0056749755 0.019081786 0.01938259 -0.021466259 -0.010600844 -0.014716007 0.0030097927 0.00065947685 -0.006427346 0.009475352 -0.012648052 -0.02775766 -0.01336344 -0.01809225 0.01543402 -0.009449886 0.011787713 -0.0006876461 -0.020491075 -0.01644194 -0.008287529 -0.013216229 -0.00048821204 0.0096913995 0.0034875113 -0.012822388 0.003529839 -0.004445842 0.0014189138 0.006462337 0.0004362543 -0.015900185 0.009597502 0.014611032 0.0048447493 0.009829071 -0.001809319 -0.0065227523 0.0072470815 0.014351719 -0.0097954385 0.013706511 0.017499307 0.007919909 -0.004598434 0.017310983 0.0058039287 0.010788289 0.013808025 0.018477092 -0.012414889 -0.0023793648 -0.020885224 0.022760265 -0.0022929208 0.0008528383 0.014122778 0.011999953 -0.016709289 -0.011752487 0.012937518 -0.0032298116 0.00014724598 0.024612173 0.012077315 -0.0024039352 0.0018660002 0.0016619784 0.011848093 0.0046847565 0.020407956 0.01746263 -0.015226033 0.014690649 0.002980114 -0.0023360276 -0.011880607 -0.0012561 -0.0018783482 0.002003642 -0.0024377278 -0.009686671 -0.004616248 0.012124499 0.01921832 0.004439457 -0.012029085 0.010051837 -0.004388585 -0.016044235 -0.010822369 -0.007354321 -0.021478549 0.009495954 -0.016961845 -0.018351424
1 -0.019718248 -0.02849772 -0.024700359 0.023270287 -0.019506665 0.013405831 -0.022429124 0.018253969 0.027363354 -0.02391531 0.02252595 0.0046344693 0.008924408 -0.013985828 -0.02070398 -0.013436492 -0.026443705 0.016006576 0.01625085 0.02304041 -0.008137637 -0.02605554 -0.027748443 -0.020145696 0.028236385 0.00051521044 0.01888577 0.02037288 -0.012801973 -0.021581395 0.019524105 -0.0071403133 0.023675399 0.017874457 0.01789375 -0.029807715 -0.027098455 -0.029297877 0.015128089 0.02320525 -0.024939664 0.007251397 -0.028266137 -0.017310798 -0.021775106 -0.024827743 0.021677323 -0.026741756 0.017604567 -0.023907017 -0.027834905 -0.016826639 -0.017974399 -0.022502836 -0.021045784 0.020098373 0.015889995 0.0010751446 0.020963363 -0.019422868 0.029960405 0.01416634 0.015117566 -0.025357962 0.026744962 0.013317931 4.185119e-05 0.018336862 -0.015964337 -0.022614567 0.022997463 0.005354408 -0.014952762 0.013897491 0.023917686 0.0142438505 -0.012551641 0.02516986 0.0010848129 0.026715986 -0.0076212175 0.014831316 0.020781077 -0.012287421 -0.023016006 0.017268028 0.025400681 0.02045462 0.024308315 0.027668145 -0.024821293 -0.012897067 0.026174808 -0.032114327 0.013850918 0.023694485 0.017402358 0.014144671 0.016622225 0.025976023 0.023666427 0.008044671 0.025394756 0.024430722 -0.023493528 0.021405075 0.004577513 -0.027100516 -0.0015785536 0.0067293136 -0.020243138 -0.024438513 -0.018512527 -0.020268068 -0.029814458 0.027188443 0.025255855 0.022398438 -0.019203756 0.027408915 -0.009735375 -0.020420546 -0.02812047 0.0051866113 -0.028331563 0.01862429 -0.020782137 -0.022600763
2 -0.02390727 -0.016156908 -0.022710705 0.011831556 -0.015734183 0.00043227986 -0.011459141 0.0149991205 0.026885808 -0.018045172 0.007748376 -0.01609353 0.009714263 -0.019516867 -0.017256783 -0.003991909 -0.020020489 0.0079504 0.023822598 0.015966672 -0.0025356186 -0.0064110686 -0.021212913 -0.0111774495 0.015939714 -0.006424961 -0.0021471297 0.0009433483 -0.006487201 -0.020581793 0.003033791 -0.012897431 0.008945053 0.009339366 0.012825958 -0.012835419 -0.015357341 -0.0068575917 -0.003456839 0.0069349566 -0.014403467 0.013248509 -0.015020799 -0.024802305 -0.006720449 -0.020802498 0.018076478 -0.00993932 0.015236345 -0.004615488 -0.016609732 -0.029534759 -0.008971085 -0.024535012 -0.027316354 0.0211191 0.02014708 -0.0011387535 0.014901138 -0.01677786 0.016135752 0.008282166 0.016859474 -0.01750823 0.0049154153 0.021643098 -9.109144e-05 0.013297633 -0.011379071 -0.0123399 0.017166218 0.005552852 -0.011549378 0.012760584 0.02028353 0.014090236 -0.016847244 0.008207453 -0.011415787 0.0091452 0.004312717 0.0074992618 -0.011708384 0.00448996 -0.020653006 0.023314878 0.019042715 0.021027328 0.027187195 0.0127425175 -0.0035614474 -0.013397921 0.005190182 -0.015788697 0.002937533 0.018012598 -0.0073390286 0.0035820697 0.011089616 0.009000847 0.0042078965 0.0039995536 0.0054877615 0.012664475 -0.029285654 0.017502517 -0.0006518262 -0.031501956 -0.02124981 0.010082502 -0.00026453697 -0.015183812 -0.0135114165 -0.0039106617 -0.025017446 0.021236246 0.014760859 0.02084054 -0.020416468 0.014666179 0.0076806173 -0.017610662 -0.017080888 0.018657865 -0.021922529 0.02494321 -0.014103736 -0.016718416
3 -0.009936757 -0.007866126 -0.027080564 0.021711938 -0.0057889954 -0.004222193 0.0038813935 0.010450166 0.021625426 -0.010586034 0.01104676 0.0009563307 0.015509025 -0.017195076 -0.008146747 -0.011324239 -0.014852399 0.009243167 0.009086172 0.017851427 -0.0023879283 -0.015033181 -0.016617633 -0.0087458715 0.016950302 0.00480704 0.019250961 0.0090013025 0.0015390759 -0.017937513 0.002018724 -0.011759748 0.012012006 0.012981556 0.015530344 -0.012462005 -0.012890843 -0.0063207243 0.011627852 0.0134403575 -0.0045088483 0.021985756 -0.010866556 -0.00043889892 -0.01454433 -0.016032988 0.010690851 -0.00994656 0.013890577 -0.012527284 -0.020559087 -0.012327563 -0.012527478 -0.008947149 -0.0146230385 0.0007715388 0.009862873 -0.0075090537 0.004294887 -0.014028859 0.013281146 0.0014240537 0.014018551 -0.013898075 0.010559523 0.013830289 -0.0055214646 0.0007687751 -0.010392185 -0.0055186227 0.0047573918 0.0011674105 0.0050408305 0.008406502 0.020251704 0.0060922694 -0.013591602 0.016277704 0.011542467 0.015326636 -0.001774565 0.008465829 -0.0016780341 -0.026690776 -0.0044085495 0.013552469 0.024013598 0.010778539 0.011456668 0.010261867 -0.0036343164 -0.0011009908 0.01955035 -0.0095063 0.0024987352 0.011622288 0.00031569556 0.009327486 0.00021425096 0.00698628 0.010273942 0.001856814 -0.0013617701 0.016575325 -0.016170021 0.009205436 -0.0010526578 -0.026689135 -0.0024163784 0.0065997746 -0.0131482 -0.024835613 -0.012406654 -0.01028854 -0.019771425 0.017920334 0.006946633 0.012002808 -0.013477397 0.013509987 -0.0024543186 -0.008843228 -0.017542 0.013014153 -0.016325207 0.004741848 -0.006683782 -0.018711345
4 -0.007963213 -0.013865035 -0.01692377 0.013189614 -0.0077912137 0.0058495924 -0.01746632 0.006669057 0.011210421 -0.008667127 0.0074468055 -0.0018852871 -0.0054919785 -0.020139854 -0.008157612 -0.0042409664 -0.0143005 0.008109746 0.0013827474 0.0071875136 -0.00614665 -0.004776449 -0.005753313 -0.013584233 0.022065394 0.0005033266 0.012520872 0.0012881511 -0.006983684 -0.012739357 0.019132772 -0.026050676 0.0104607195 0.016791452 0.020582099 -0.005981922 -0.006270803 -0.015484416 -0.0018308155 0.0013212941 -0.008103704 0.009406789 -0.015236371 -0.013002338 -0.009191672 -0.0147687765 0.01759588 -0.016099535 0.0048250095 -0.007000752 -0.023803912 -0.016622128 -0.00069484947 -0.009259875 -0.010820321 0.004631626 0.012612887 -0.0057099527 0.005542719 0.0023680644 0.009971622 0.006221798 0.005033536 -0.0026137922 0.017289657 0.011426433 0.0046904725 0.008133883 -0.013033079 -0.017731352 0.012144139 0.0001392025 -0.012248907 0.0067889104 0.01787402 0.017568426 -0.0015262552 0.010589899 0.0059384974 0.012574826 -0.0040805545 0.013964292 -0.0030486924 -0.007175446 -0.005897981 0.01073767 0.00031943928 0.013185232 0.005931646 0.0021841344 -0.014320743 -0.0049738246 0.0248114 -0.021949917 0.002431267 0.022869335 0.013542149 0.014987341 -5.0977105e-05 0.0076430556 0.012090635 0.0059106704 0.008960066 0.020959467 -0.0067122746 0.019152245 0.010720892 -0.010446581 -0.008896353 0.006719647 -0.008915293 0.009268909 -0.008028905 -0.00045930635 -0.0055898502 0.021198962 0.0019624357 0.0051785195 -0.009950862 -0.0025043823 -0.018339451 -0.0064278306 -0.002708403 0.009078722 -0.0133235585 0.012748001 -0.028741384 -0.015947362
5 -0.015738644 -0.025964903 -0.013958601 0.005124416 -0.01755575 -0.0041890703 -0.006818736 0.0193033 0.01839144 -0.012303731 -0.0025568448 -0.015749523 -0.0068474556 -0.004562383 -0.01210155 0.014697877 -0.020882927 0.011298987 0.024466515 0.026152574 -0.009411662 -0.011818189 -0.014137074 -0.008721669 0.017744234 -0.01838506 -0.0033335895 0.016370734 0.0056079347 -0.01877794 0.024833981 0.004893864 0.017819647 0.019129945 0.009024245 -0.014350614 -0.0125118885 -0.01845301 0.014064072 0.016337948 -0.009261517 0.00069264264 -0.014003093 -0.009841872 -0.023108885 -0.026372297 0.026155371 -0.020776726 0.024221811 0.0028332134 -0.023335662 -0.009294154 -0.000339029 -0.016164767 -0.008363109 0.015236674 0.012268303 -0.00034812646 0.020940045 -0.015672576 0.013766564 0.018113757 0.007826403 -0.023653973 0.012713597 0.017514534 0.0038455797 0.014464493 -0.017329948 -0.00927821 0.022140834 0.010322093 0.0034131224 0.016898312 0.0107356645 0.0162288 -0.024098847 0.014177595 -0.01677851 0.009105662 0.015448168 0.0077643935 -0.020327639 0.0054045073 -0.011237862 0.02762731 -0.0040843976 0.01697022 0.024113052 0.012491376 0.007094596 -0.0057623726 0.009471471 -0.017479064 0.003760299 0.02155026 -0.0050881775 -0.0026391617 -0.002429 -0.009672197 0.015767487 0.015557889 -0.0012987021 0.029079892 -0.013407946 0.014189387 -0.0012040781 -0.013699257 -0.001338077 -0.001941064 -0.013828045 -7.12031e-05 -0.021921178 0.0043431697 -0.015799861 0.015815653 0.025811275 0.021743387 -0.022751065 0.0074788034 -0.0027650853 -0.022112086 -0.0064832657 0.0066515487 -0.01221188 0.026172899 -0.014343525 -0.02972315
6 -0.021182965 -0.008488445 -0.015025425 0.021939749 -0.0053852536 -0.0012997431 -0.017169667 0.006503678 0.01702654 -0.02395233 0.003099633 -0.012370091 0.0054064645 -0.0048923297 -0.027592722 0.0005160242 -0.018037261 0.021574542 0.011786375 0.017720735 -0.008290553 -0.02213619 -0.018878544 -0.013663095 0.019549128 -0.016061373 -0.006100394 0.020699168 0.0035714952 -0.017076675 0.0051881266 -0.0005894665 0.01417909 0.01920711 0.013190316 -0.012818594 -0.02426886 -0.018978775 0.014034012 0.027823023 -0.01668882 0.0147928875 -0.012576545 -0.0051599597 -0.006866726 -0.015299274 -0.0012413258 -0.012926707 0.027425714 0.000793641 -0.0111260405 -0.007096648 -0.013565748 -0.027334256 -0.010400539 0.017563712 0.0088179065 0.005528064 0.008588979 -0.021826968 0.007233215 0.013741242 0.02175091 -0.020681428 0.019155383 0.017029656 -0.001072766 0.009578046 -0.019960582 -0.013980938 0.023532957 0.0028942465 0.01037001 0.01416321 0.031464886 0.025092728 -0.020436214 0.013549519 -0.008612075 0.018114092 0.0037944112 0.016090596 -0.0031876096 0.0027233125 -0.014364638 0.024211105 0.017559167 0.02508964 0.016510608 0.022104837 0.00823115 -0.012548945 0.016773399 -0.02747789 0.011080263 0.0066702636 -0.0048095393 0.013169679 0.016988033 0.009423042 -0.0013541717 0.0021489828 -0.0032485914 0.02636692 -0.025686093 0.019628068 -0.00066705537 -0.009193646 -0.0104192 0.008324718 -0.013127052 -0.009395214 -0.028102566 0.0011666609 -0.01974729 0.031095961 0.02165821 0.021353427 -0.020576555 0.008468739 0.010934506 -0.0218761 -0.014752946 0.012516162 -0.009579937 0.024245106 -0.013794805 -0.011012066
7 -0.014147142 -0.011320511 -0.013559473 0.005171545 -0.022887552 0.0011209871 -0.013322745 0.002365805 0.014965523 -0.0044996324 0.020941537 -0.014409668 0.004981599 -0.0026957125 -0.023694802 0.0045541013 -0.023710836 0.012603176 0.022045588 0.0090652015 -0.009571983 -0.009770841 -0.004906048 -0.015144888 0.018036114 0.0018147404 0.0042314474 0.0022546751 -0.013946073 -0.016106972 0.0008156743 0.00022770668 0.010034935 0.015444075 0.009881086 -0.011698676 -0.009850446 -0.021510072 0.0013785984 0.0183673 -0.024547333 0.01742548 -0.018229773 -0.014095125 -0.020381818 -0.012059001 0.014711025 -0.0042209094 0.023426846 -0.013019252 -0.015808767 -0.008029217 -0.0047014933 -0.019192517 -0.01772232 0.007625918 0.012244766 0.011560716 -0.0023293335 -0.010444257 0.003677028 -1.4720543e-05 0.014544167 -0.01885069 0.01330535 0.020124402 0.013026892 0.02081551 -0.0075529814 -0.0071816538 0.016296852 0.0052591735 0.006323374 -0.00330933 0.021893026 0.023845743 -0.027828224 0.0030770716 -0.014296662 0.022636507 -0.011336606 0.0006828913 -0.002610994 -0.0021741434 -0.012630381 0.018041104 0.017366948 0.016247867 0.022005437 0.0073379846 0.0053225416 -0.009023746 -0.0008617373 -0.020513674 0.017695462 0.014275366 0.004398052 0.016595582 0.017592348 -0.0049083894 0.0011159232 -0.0070919376 -4.725199e-05 0.01192558 -0.007869892 0.01672893 -0.0019492116 -0.020498162 -0.011923714 0.017029487 0.007379951 -0.015637696 -0.0053728744 -0.0054099048 -0.022297442 0.01412848 0.013536448 0.00630347 -0.014042476 0.015290541 -0.0064196144 -0.013096992 -0.0218507 0.012373198 -0.014596702 0.014728138 -0.016879626 -0.019708388
8 -0.006005429 -0.0216792 -0.018770134 0.009266831 -0.019787692 -0.004860808 -0.031719446 0.0034059915 0.014613967 -0.008018814 0.007222565 -0.02730424 0.004115105 -0.020230329 -0.026552036 0.008643428 -0.017821638 0.016371794 0.024771826 0.01218367 -0.003029515 0.0024899628 -0.013414193 -0.02000093 0.019090563 -0.010274723 -0.0169026 -0.0031278094 -0.0030906925 -0.007607173 0.017077107 -0.01858161 0.017086258 0.023836184 0.005383329 -0.020051487 -0.011365145 -0.017993303 -0.008451217 0.020820798 -0.0058904556 0.028344985 -0.016807865 -0.023152065 -0.008351106 -0.02772559 0.026177837 -0.014853391 0.025665 -0.0028289906 -0.019095387 -0.018409546 0.021991558 -0.020605499 -0.022758532 0.018850913 0.021181399 0.021720309 -0.000519721 -0.011763649 -0.0065397453 0.019399857 0.013938879 -0.022826921 0.018921424 0.024045656 0.023088502 0.020330356 0.0022776192 -0.007855378 0.015135335 0.0021148222 -0.012597684 -0.0064570867 0.026271118 0.020123705 -0.017657286 0.0056614764 -0.010736301 0.01744252 -0.015420955 0.007350728 -0.01896503 -0.009502794 -0.02758073 0.016942948 0.01518023 0.02327599 0.02382117 0.023112264 -0.0089701405 -0.007286668 -0.014808206 -0.030374015 0.018817613 0.022450112 -0.011241173 0.011019023 0.023668306 -0.009590874 0.004929589 0.0025455835 0.007512896 0.020090878 -0.021651177 0.022510018 -0.015302336 -0.010872926 -0.02104817 0.025615944 0.016302384 -0.015759625 -0.023420792 -0.005346948 -0.013070231 0.017873662 0.020461343 0.003131119 -0.01498531 0.008631412 -0.004508944 -0.026413903 -0.016035248 0.022540722 -0.02567589 0.014967948 -0.019248147 -0.014120675
9 0.001128142 -0.01999663 -0.008948575 0.008559435 -0.02461457 -0.005281955 -0.021205213 0.007440736 0.014739966 -0.007074259 0.014625231 -0.020707026 0.0062489198 -0.024605561 -0.012542792 0.007414126 -0.013293434 0.0106540015 0.008128743 0.0076803383 -0.008974485 -0.006447647 -0.017350104 -0.011071163 0.013992342 -0.009532576 0.0059554814 -0.003222665 -0.008948441 -0.017596807 0.019885475 -0.0076984772 0.027564198 0.026262704 0.01562335 -0.007197232 -0.010631089 -0.01153292 -0.0017507172 0.014395886 -0.010665229 0.024301311 -0.021737527 -0.0041862205 -0.0050730594 -0.01982013 0.015059887 -0.011872858 0.020831417 -0.007863261 -0.011785893 -0.024064694 0.0066254167 -0.023446653 -0.016843865 0.016263228 0.0072881323 0.0002108339 0.011152923 -0.015871294 0.004343606 0.022683054 0.015044261 -0.01015599 0.013155814 0.022374991 0.0073329434 0.021703847 -0.007243472 -0.009022099 0.025160661 -0.017189668 0.0007396346 -0.0052908175 0.020600399 0.017852942 -0.017396007 0.014397284 -0.017865706 0.015372906 -0.013574669 -0.0016690162 -0.016925035 -0.016479522 -0.023486864 0.02085971 0.010069936 0.019464333 0.013244963 0.014819931 0.0033526686 0.00039791683 -0.00027654943 -0.013341826 0.023205645 0.018057697 -0.008040376 0.01072134 0.01569159 -0.00055497704 0.013584888 -0.0051854495 0.00556565 0.005964373 -0.012281471 0.006214512 -0.0056917965 -0.01922078 -0.014090149 0.016569836 0.0014276596 -0.01672423 -0.019319056 -0.005124855 -0.010745652 0.011862795 0.0098306965 0.004209338 -0.018605717 0.0044815503 -0.011720466 -0.009869548 -0.011200476 0.01605249 -0.02131829 0.022000473 -0.0068474626 -0.0150812585
10 -0.0074183517 -0.010710685 -0.013822832 0.01005905 -0.004896182 0.0143043 -0.026941476 0.0073847407 0.02336463 0.004178987 0.013715317 -0.00034146436 0.0050756545 -0.012875699 -0.025438968 0.00037775314 -0.0074811224 0.014173671 0.021538604 0.014834486 -0.005196452 -0.010187214 -0.0077310246 -0.021821402 0.013412575 0.0076240273 -0.0014349585 0.008539064 -0.012682418 -0.01829778 0.013478389 -0.017515903 0.019222882 0.025541892 0.0071478323 -0.0052203424 -0.008869268 -0.01854834 -0.009070896 0.017210495 -0.024270851 0.020442503 -0.007523084 -0.029089104 -0.0241613 -0.019575953 0.027318554 -0.013214938 0.021247903 -0.014900092 -0.027684245 -0.026741166 0.002304583 -0.016156469 -0.027009498 0.013158972 0.01482112 0.0062366705 0.014511207 -0.016333997 0.006787079 0.010962168 0.02522137 -0.026359713 0.026539458 0.029839898 0.015859015 -0.0013651577 0.0041699796 -0.007511581 0.0071821706 -0.0041398625 -0.015933303 -0.0044475705 0.02008898 0.010546899 -0.015652051 0.010237529 -0.0059367204 0.010998683 -0.008394816 -0.0030820663 -0.0065385313 -0.016740274 -0.0034431703 0.016085612 0.025393032 0.01603724 0.026914187 0.016809668 -0.023104634 -0.017766958 0.0057899132 -0.022729198 0.010289195 0.022115447 0.00020362374 0.013878907 0.012675145 0.0013381909 0.0056084553 3.004924e-05 0.010122854 0.022415698 -0.018695876 0.016177285 -0.013242349 -0.018550346 -0.027595975 0.01525931 0.00876949 -0.009095665 -0.016955761 -0.013238966 -0.026160747 0.021111414 0.01599468 -0.00089515606 -0.024237568 0.022420868 -0.017642288 -0.018510934 -0.012055617 0.0060479557 -0.017564056 0.012695644 -0.0148503175 -0.019067878
11 -0.004341077 -0.012636133 -0.018269299 0.014516084 -0.01218098 0.005185242 -0.024751378 0.0013960381 0.020519255 0.0048225555 0.00019629864 -0.006778365 0.019057302 -0.012669686 -0.018482897 0.0069431555 -0.024476428 0.027004147 0.024577623 0.019362997 -0.01027623 9.4343326e-05 -0.018708704 -0.022941962 0.0062238527 -0.0072487984 -0.010972846 -0.00080398424 -0.009161294 -0.027672235 0.0065091634 -0.0063790414 0.029068042 0.022135876 0.014793409 -0.012508459 -0.02198067 -0.014041941 -0.013628204 0.023404127 -0.023402646 0.027351214 -0.00927929 -0.017412275 -0.013941153 -0.020396527 0.022828935 -0.017575325 0.022783373 -0.00015511649 -0.016181197 -0.031801123 0.008059202 -0.027257605 -0.028059894 0.01517917 0.022774316 0.024929253 0.009142499 -0.02066597 -0.00037934075 0.01880329 0.02750761 -0.015556291 0.0047812047 0.02608808 0.017010747 0.014498763 -0.013098435 -0.009228189 0.016310863 -0.0069964374 -0.007342441 -0.0055710333 0.02503596 0.013579834 -0.017580656 -0.0004166189 -0.027594207 0.018961469 -0.025748903 -0.0075507504 -0.015152488 -0.0006525899 -0.010764384 0.03225912 0.02396687 0.01390775 0.032278802 0.019913716 -0.007228081 -0.02063904 -0.014882316 -0.025422001 0.028024435 0.02267531 -0.0071660546 0.020484459 0.02347537 -0.0004083232 0.00089829316 0.010284144 -0.011528744 0.0037016452 -0.019336363 0.0275568 -0.018410912 -0.023797015 -0.026434386 0.0147887105 0.011453117 -0.014739085 -0.02584932 -0.0027603204 -0.022666767 0.013198056 0.016491551 0.014689668 -0.030508375 0.012745803 0.009874574 -0.028630601 -0.01574952 0.032724414 -0.02593874 0.023927843 -0.005487684 -0.014059629
12 -0.02007462 -0.0029268053 -0.026078982 -0.0046827155 -0.018039832 0.0015724261 -0.024730979 -0.0045747254 0.025941698 0.0029016917 0.012545507 -0.009411843 0.009710904 -0.024022883 -0.013911494 0.004058431 -0.022433577 0.014226187 0.022409154 0.0116178645 0.00031934606 -0.02847709 -0.01999985 -0.027024725 0.0131875 0.006047845 0.015622396 -0.0032621447 -0.018250735 -0.01923669 0.0057366067 -0.0059955902 0.017695324 0.013180486 0.0121152215 -0.0078069777 -0.0030378045 -0.015565279 -0.009464333 0.009491913 -0.0103294635 0.01992941 -0.021806957 -0.012396549 -0.016702564 -0.019556224 0.01823464 -0.010635185 0.01357428 -0.023589436 -0.022229206 -0.024527509 0.0016981536 -0.014403222 -0.017957568 0.011744693 0.011029773 0.0070151854 0.004996266 -0.012990401 0.018784916 0.013368135 0.021020256 -0.025859136 0.008224547 0.021308394 0.014808523 0.0013816383 -0.0035142356 -0.01322565 0.0130745685 0.004489656 -0.009117963 0.0055633592 0.0132700335 0.01457849 -0.02401626 0.00898147 -0.0026381742 0.007977201 -0.014649499 0.005445888 -0.011094733 -0.0033808823 -0.0116082365 0.010206581 0.026988726 0.019981159 0.022277595 0.013720198 -0.02438338 -0.00903817 -0.0023670206 -0.02344459 0.018230854 0.026982222 0.007352916 0.017005205 0.020190526 0.0030680334 0.0065096035 -0.00047675817 0.0020215625 0.009809381 -0.0058811526 0.022642372 -0.0076864706 -0.018206637 -0.02554327 0.018836532 -0.0036336982 -0.015004011 -0.007224609 -0.014109091 -0.026393875 0.015453864 0.015819728 0.012927172 -0.027593642 0.009910145 -0.010585844 -0.02527384 -0.016919322 0.013175824 -0.017813182 0.020830803 -0.012680248 -0.024456726
13 -0.00733497 -0.019129118 -0.013525621 0.009663672 -0.011974049 -0.009363738 -0.010429236 0.014511101 0.015208928 -0.01475525 0.010108103 -0.007919778 0.00086769613 -0.018866343 -0.010959431 -0.011923897 -0.014645802 0.020407988 0.011229658 0.0226175 -0.018876333 -0.017311545 -0.020175401 0.001697162 0.022673015 -0.015983835 0.014988247 -0.002626605 -0.00079195097 -0.0226194 0.0002753749 -0.0013338097 0.014963739 0.02394223 0.0066866777 -0.0025923387 -0.019847024 -0.020267516 0.00943406 0.023555752 -0.018126816 0.017027786 -0.012320012 -0.0063633677 -0.011712542 -0.018449614 0.019332314 -0.022697212 0.007077126 0.006198913 -0.017335672 -0.008373452 0.01115763 -0.016034704 -0.009285686 0.013164883 0.009480268 -0.0029654694 0.020007765 -0.020492084 0.01044804 0.0065169963 0.011578995 -0.022458697 0.0026402436 0.007706386 -0.007696516 0.0009842588 -0.015391138 -0.0101293875 0.015031805 0.007086431 0.00232289 0.0038226962 0.01662546 0.021145988 0.0050206846 0.007717442 -0.008306191 0.012614652 0.010582619 0.01645271 0.0022783917 -0.0067230766 -0.027214097 0.016186992 0.010440033 0.014435966 0.0067384094 0.015801445 -0.015855167 -0.004656678 0.010444939 -0.014463292 0.0012077998 0.013816377 0.010973725 0.005004577 0.004130669 0.0044455733 0.011301583 0.007977687 0.005512924 0.0037019614 -0.009778625 0.010330289 0.0064600185 -0.0175626 0.0021941916 0.0072692703 -0.0052127824 0.0037794365 -0.014130541 -0.0036741241 -0.009285012 0.013924605 0.02599627 0.010038535 -0.01772531 0.017660728 -0.010097521 -0.009339701 -0.01483852 0.0019066036 -0.0067862403 0.014436486 -0.013330756 -0.02329378
14 0.0059231725 -0.013026866 -0.00063501316 0.016342256 -0.014127086 0.0030216663 -0.012565579 0.01420455 0.02239302 -0.018418506 0.015645089 0.0047333166 0.00657659 -0.02579338 -0.011485761 0.0066387355 -0.0112254135 0.010717959 0.018283488 0.004937842 -0.016913472 -0.018914167 -0.015000518 -0.0044891504 0.015402787 -0.0038855572 0.0027490903 -0.006145197 -0.015239065 -0.0145340795 0.007191356 -0.013881745 0.016871747 0.019970331 0.026380716 -0.027081134 -0.029194899 -0.009315447 0.0013339317 0.014400016 -0.012721288 0.0064303596 -0.00883965 -0.00050865504 -0.01642191 -0.014530616 0.021170039 -0.02832083 0.021094728 0.0006421362 -0.0069925524 -0.016607631 0.0015879796 -0.014019482 -0.010510993 0.024796717 0.01425029 0.0072880606 0.013927233 -0.012255745 -0.0060131624 0.010456698 0.021640709 -0.014852105 0.01879762 0.017486237 0.0051517845 0.010406154 -0.008847786 -0.002645131 0.013741593 -0.0073414384 -0.018501142 -0.0031894203 0.027988305 0.0045885295 -0.006511963 0.01831041 -0.005024226 0.024155248 -0.0032566143 0.006524019 -0.00633003 -0.015883632 -0.021106102 0.024404839 0.013129169 0.014786072 0.010761288 0.00406381 -0.020323552 -0.0036503766 -0.007095915 -0.009662185 0.008267572 0.013948552 -0.010129368 0.00028867257 0.009197822 -0.0033748501 0.015482794 0.011809769 0.0067182686 0.0034332094 -0.025507359 0.015215946 0.0046064933 -0.027278204 -0.011055218 0.0057047727 0.009262825 -0.019559003 -0.014124339 -0.01860327 -0.008381392 0.019736413 0.024223108 0.01838017 -0.0064459224 0.013486782 -0.0069238166 -0.02066991 -0.016891778 0.0041003157 -0.021953814 0.022860613 -0.019416222 -0.015857529
15 -0.01673781 -0.020425607 -0.01058924 0.012658445 -0.005846259 -0.0052108243 -0.021901667 -0.0016108919 0.0236258 -0.011359192 0.018391127 -0.0126047 0.0073367474 -0.017455097 -0.026579175 -0.004548471 -0.01062499 0.025439203 0.013931477 0.0006150259 -0.007994549 -0.006305481 -0.009319874 -0.01997115 0.026413128 0.0038598683 0.0057779388 -0.005783513 -0.007021724 -0.02482009 0.00869451 -0.028027374 0.013565394 0.019267766 0.025328487 -0.009576617 -0.026447292 -0.014416007 -0.0043465556 0.025306212 -0.023292659 0.029443286 -0.016084211 -0.013653948 -0.02188627 -0.01937911 0.021658355 -0.028633047 0.01860781 -0.009675387 -0.024730682 -0.020127676 0.010798611 -0.013768882 -0.016539082 0.01754542 0.026689025 0.009148755 0.0077301487 -0.01633711 0.0032821996 0.006536401 0.023299228 -0.014159872 0.0032296071 0.021717392 0.02055254 0.013286744 -0.007153151 -0.010382526 0.016371183 -0.00048371434 -0.010740134 0.009742742 0.02656408 0.0180409 -0.0103765605 0.002403187 -0.0097356 0.02117262 -0.016520381 0.0005456389 -0.007568421 -0.02504474 -0.016428234 0.021046026 0.021670287 0.021999473 0.0285201 0.021928797 -0.01078459 -0.026997773 -0.0013889204 -0.027491517 0.015477676 0.018361052 0.00794464 0.0284507 0.0154483635 0.006256334 0.0065026 -0.0022896978 0.012099099 0.014675333 -0.01597524 0.025307694 -0.0041723168 -0.021810936 -0.021103214 0.008439854 -0.004636168 -0.016503183 -0.018317876 -0.024222136 -0.023188353 0.020640397 0.02595435 0.02005116 -0.024687357 0.016274277 -0.005919506 -0.024930403 -0.026248062 0.022332903 -0.01579211 0.013515497 -0.019255446 -0.028214399
16 -0.020609645 -0.025768885 -0.015349775 -0.00050919235 -0.005167338 0.015546054 -0.0058053616 -0.00070294907 0.016909996 -0.008748406 0.023725051 0.0060902587 0.002674575 -0.008618729 -0.009899928 -0.007933936 -0.01952601 0.0054613464 -0.0005078999 0.009514466 0.012947095 -0.011789385 -0.008318771 -0.012207427 0.01164215 0.008703713 0.0071561374 -0.007577392 -0.021211376 -0.002347368 0.025110599 -0.01394339 0.004720596 0.012134018 0.009695268 -0.027441498 -0.009344288 -0.018231006 -0.005163471 0.0059451493 -0.004164251 0.008888643 -0.022157166 -0.026497742 -0.012462805 -0.004407165 0.013369532 -0.009907173 0.010333319 -0.022997444 -0.026239915 -0.020163456 0.0012641284 -0.010796229 -0.013478038 0.013040754 0.003390048 -0.009556718 -0.00041410833 -0.0013229514 0.011304081 -0.014355145 0.0098339105 -0.022597317 0.014099483 0.0082569765 0.001411033 -0.006980309 0.0075723464 -0.023742722 0.013492323 -0.0059597273 -0.016716816 0.017094286 0.012869608 0.007203411 0.0036189256 0.01982314 0.00417087 0.0069776517 -0.010342428 0.010366988 0.0012604549 -0.019553343 -0.017860353 0.012614554 -0.0031684896 0.0042516026 -0.0018890644 0.0063442364 -0.016735341 -0.016819386 0.008528445 -0.016658012 -0.00093489676 0.0178676 0.012032619 0.021315675 0.005655196 0.017225169 0.017911334 -0.012988946 0.021677556 0.013934584 -0.020047773 0.024005553 0.0011404045 -0.014960749 -0.017657416 -0.0004858217 0.0010559465 -0.003456716 -0.01196151 -0.0220216 -0.015846116 0.016237786 0.017405625 0.0102241095 -0.0037589024 0.0148976175 -0.017666394 -0.019744026 -0.0005023511 0.015770776 -0.027182076 0.006819481 -0.02452002 -0.015938008
17 -0.015666218 -0.02661094 -0.025061201 0.00785095 -0.02191249 -0.0025953697 -0.023148658 0.004440673 0.019300748 -0.021258699 0.006465148 -0.009022547 0.015670095 -0.020853465 -0.02582916 -0.0005726725 -0.023673445 0.014175214 0.01997764 0.016673237 -0.012163595 -0.0003342306 -0.0214182 -0.01442962 0.014861691 -0.012802236 -0.013151853 -0.008555979 -0.004052157 -0.027220001 0.016542654 -0.017598724 0.016441748 0.012420571 0.02628994 -0.0073817945 -0.012147457 -0.020936895 -0.0016640999 0.029340811 -0.004254876 0.01552722 -0.024164287 -0.010366297 -0.020143706 -0.015582722 0.01356942 -0.012621501 0.013873488 -0.005205796 -0.008258153 -0.01651145 0.0040058796 -0.022115443 -0.009494214 0.029429955 0.0141612375 0.0039256294 0.01715307 -0.016040057 -0.008035301 0.0106845 0.015724216 -0.014036228 0.008814374 0.012221339 0.009988819 0.021099173 -0.0031225071 -0.0209639 0.019801928 -0.010251835 -0.0276327 0.0041592102 0.027527638 0.021843057 -0.018536745 0.00024563205 -0.009292289 0.019381624 -0.0057074092 0.020009303 0.003542439 -0.008237758 -0.015588964 0.023388224 0.020717574 0.01693607 0.00997833 0.014879172 0.003164636 -0.014534793 -0.0010370156 -0.021826517 0.017355071 0.013875266 -0.0031447543 0.014303914 0.010163152 0.009941458 0.0071546254 0.0120874625 -0.0067881593 0.016271695 -0.013354274 0.013491041 -0.0019294386 -0.014732297 -0.016678458 0.01775781 -0.0005512898 -0.010377308 -0.020407282 -0.020598197 -0.019581972 0.023641659 0.027525432 0.02528982 -0.021412337 0.015135083 0.0077720378 -0.025649168 -0.017150825 -0.0011298123 -0.025883166 0.023830725 -0.021027561 -0.025044244
18 -0.022091541 -0.020925902 -0.025476411 -0.004633839 -0.00866412 0.014484569 -0.023967909 -0.005316021 0.017241629 -0.004869931 0.018915175 -0.009188862 0.022945372 -0.020635149 -0.020668924 -0.02571788 -0.019976772 0.0012106707 0.012092827 0.0073993662 0.010743742 -0.018140713 -0.0014626429 -0.022795597 0.012829653 0.014266827 0.027126232 0.0005422585 -0.02355389 -0.017832303 0.026414705 -0.024146222 0.018075198 0.023406578 0.019220177 -0.028798485 0.0019751112 -0.017077014 -0.0007084908 -0.0054664714 -0.008625029 0.01817783 -0.009821367 -0.020896984 -0.011657292 -0.023022301 0.026293576 0.00020004681 0.014306453 -0.016087264 -0.012643227 -0.025694428 -0.015149784 -0.007773959 -0.027433107 0.023301393 0.004110938 -0.0043941075 -0.00032555993 0.0034666616 -0.0014580649 0.00089413417 0.024223883 -0.021346452 0.020702211 0.021483885 0.014255816 0.007122614 0.016411306 -0.01105439 0.0122305695 -0.006875572 -0.01001084 0.010805511 0.019512936 0.01593089 -0.018109929 0.008247382 0.023007711 0.0121837165 -0.019153254 0.031126104 0.0069058593 -0.0247216 -0.01613122 0.021912318 0.012153785 0.007074422 0.0238287 0.014533324 -0.025417252 -0.02082446 0.023758542 -0.014746412 0.008733656 0.026240835 0.029045336 0.028112553 0.016139362 0.007972323 0.011396173 -0.0132599 0.02386927 0.0248493 -0.02848816 0.029195355 -0.013786949 -0.016146487 -0.021125726 0.030834746 0.008633338 0.0010874539 -0.012663563 -0.023207273 -0.020282242 0.015039828 -0.0013229316 0.0039657108 -0.023543492 0.0064614187 -0.028389052 -0.016299106 -0.00599477 0.01416877 -0.010894891 0.0056563104 -0.024326712 -0.006154601
19 -0.032190412 -0.02546405 -0.017018214 0.025011042 -0.020831665 0.030860726 -0.02055313 0.028449012 0.030262034 -0.019387715 0.023006972 0.018724844 0.03125301 -0.018222367 -0.024273794 -0.019129556 -0.025380308 0.029988589 0.021848438 0.017327977 0.026413783 -0.020813733 -0.020460617 -0.023453793 0.021114353 0.027251994 0.0231178 0.027210865 -0.02072006 -0.020401994 0.024635058 -0.020099694 0.020510634 0.022402497 0.028069355 -0.025499487 -0.019272951 -0.024687313 0.030044882 0.020253234 -0.021006092 0.019005418 -0.030251646 -0.02708571 -0.026185278 -0.020576475 0.02723659 -0.028275797 0.030029736 -0.031005634 -0.021576218 -0.016895067 -0.030818982 -0.029312769 -0.023947226 0.013496945 0.008777843 -0.008976937 0.020366738 -0.006758405 0.03046305 0.00093133247 0.017475354 -0.02505172 0.02444233 0.016999276 0.024070801 -0.0017794445 0.0067463242 -0.023723708 0.029039225 -0.007392725 -0.025735306 0.027102044 0.019057598 0.01952926 -0.018192317 0.021803088 0.015400584 0.019717926 -0.02951238 0.031747807 0.014293387 -0.021776369 -0.021109886 0.030472975 0.029614981 0.01276074 0.031096159 0.0272803 -0.021667669 -0.028317908 0.029190589 -0.020656683 0.019422773 0.022787737 0.03206817 0.024845777 0.021348955 0.024015639 0.016690897 -0.0017587206 0.027740099 0.023901466 -0.028778924 0.028071133 -0.00046809018 -0.017158508 -0.026739914 0.023123484 -0.020278875 -0.017850501 -0.026766498 -0.023870273 -0.03120474 0.029955463 0.03061428 0.03182597 -0.025066594 0.028028801 -0.02018571 -0.030131638 -0.022901408 0.022000873 -0.025406504 0.029998828 -0.018621402 -0.01799778
20 -0.009653275 -0.0011481302 -0.00931023 0.01964213 -0.012141899 0.014246295 -0.013625774 0.013419487 0.023715664 -0.012576852 0.0044251853 -0.00042453362 0.01671644 -0.02229074 -0.025992896 -0.016814377 -0.016849793 0.0038767664 0.015320286 0.015394853 0.010780915 -0.013423445 -0.015609175 -0.016745651 0.010211467 0.0044727703 0.0019686338 0.0010271186 -0.027377238 -0.022939306 0.016807733 -0.016779162 0.025146382 0.016812548 0.017019434 -0.027409086 -0.020136757 -0.009769897 0.012019518 0.013478415 -0.012222078 0.022635479 -0.014370035 -0.0014080368 -0.016485417 -0.009506918 0.027693849 -0.016640728 0.013493821 -0.0011800827 -0.018172722 -0.01759 -0.0037547867 -0.020173425 -0.020348044 0.007915629 0.01700019 -0.0059532067 0.0018320882 -0.008509305 -0.002673175 -0.0007786848 0.028605029 -0.015185196 0.023292951 0.022521311 0.027387459 0.013876109 -0.0033637183 -0.0043498334 0.026548 -0.0024960255 -0.024416229 0.012207436 0.022369714 0.011970894 -0.012612009 0.018270008 -0.0010076483 0.019816956 -0.012929157 -0.005061105 -0.0073088747 -0.019134287 -0.02718441 0.024508905 0.028188339 0.017407553 0.02187665 0.020617357 -0.016544959 -0.02115289 -0.0046590143 -0.022516513 0.018473404 0.01632597 0.0007617281 0.003955752 0.024764705 -0.001599002 0.013269567 -0.004779358 0.012625513 0.0037617784 -0.0281472 0.007743692 -0.005569011 -0.025410492 -0.02594804 0.015296114 0.0076465043 -0.0200904 -0.0127985105 -0.013240759 -0.02313777 0.019262848 0.010079404 0.02169345 -0.014037114 0.013140594 -0.0041630836 -0.01964492 -0.015992763 0.023466608 -0.020067882 0.024631144 -0.017801838 -0.025453689
21 -0.02167084 -0.009641838 -0.022379821 0.018472685 -0.020444358 0.009994267 -0.012878005 0.0057166386 0.015618116 -0.018873675 0.026408114 -0.00010338347 0.011878229 -0.0134198405 -0.013747986 -0.009709798 -0.022957787 0.02286201 0.014862349 0.02511637 0.008818096 -0.017027548 -0.02042359 -0.016606655 0.023655258 0.016716205 0.012616428 0.00047915542 -0.016475344 -0.02483556 0.025321638 -0.026234955 0.025337217 0.019871457 0.021957146 -0.029900415 -0.018859468 -0.019051068 0.0037063912 0.005367968 -0.020278407 0.02117605 -0.023200955 -0.023918768 -0.017496882 -0.029210567 0.022955777 -0.02931985 0.017446859 -0.017614372 -0.024592383 -0.020608991 -0.008420563 -0.020726994 -0.0262612 0.012438708 0.014846578 -0.0039430847 0.015955754 -0.00086041476 0.008492227 0.0051139463 0.024953283 -0.015270244 0.028552752 0.008609263 0.0057727247 0.0044936063 0.010367647 -0.019274574 0.020076606 -0.012588877 -0.008669025 0.009382869 0.0217737 0.01396513 -0.010577214 0.0011296785 -0.0050978237 0.018518854 -0.020620994 0.019235983 0.009406459 -0.008004337 -0.016461536 0.021945842 0.010191523 0.016541708 0.019715361 0.0195993 -0.021585396 -0.022481153 0.0060064243 -0.030184235 0.0150226215 0.02061955 0.004104129 0.014787307 0.027184196 0.015392966 0.016831407 -0.00034136965 0.014946263 0.026565447 -0.02881519 0.017684989 -0.011720627 -0.019624194 -0.02503468 0.01611357 -0.0063076965 -0.012548944 -0.016888412 -0.020286903 -0.022579709 0.015651017 0.01512039 0.022889152 -0.016270448 0.020123545 -0.0141831925 -0.023340484 -0.016188446 0.018063568 -0.016265068 0.02244479 -0.021338359 -0.022039246
22 -0.023618182 -0.01718527 -0.015343217 -0.009648355 -0.01907423 0.0072139776 -0.015097188 0.013978715 0.012897943 -0.0059967637 0.007884155 -0.0029234022 0.0074558887 -0.010102505 -0.008373943 0.0061919447 -0.015641913 0.01101362 0.006615106 0.015873918 -0.0005702584 -0.008121382 -0.016900644 -0.01370862 0.021367991 -0.0013995637 -0.0050630593 -0.003989317 -0.015548385 -0.01610681 0.015421618 -0.009121749 0.009006771 0.01362143 0.013942107 -0.011445042 -0.013191824 -0.009349924 -0.0116600115 0.011597513 -0.0017076202 0.015031881 -0.012989213 -0.020213751 -0.012861686 -0.017930081 0.014741166 -0.016275104 0.01858695 -0.0235676 -0.01802272 -0.011152097 -0.0060493844 -0.012459831 -0.017486619 0.009789791 0.011156279 0.010125945 0.014706253 -0.0033423703 0.0124217225 0.0064085275 0.005535994 -0.021333814 0.01671331 0.017965063 0.014761785 -0.00080769556 -0.0054078856 -0.0142481 0.007927483 -0.0072120307 -0.02316715 0.0071986164 0.017735392 0.024918724 -0.015832674 0.00027123498 0.0026563401 0.026375573 -0.017425489 0.013088815 0.003218434 -0.010610998 -0.009206578 0.017743107 0.011722066 0.008908482 0.015311367 0.021876486 -0.0045653004 -0.0153077375 -0.0023552568 -0.021867316 0.011010469 0.023953049 0.011248327 0.0133757675 0.01049081 0.0112829 0.010048094 -0.0012849191 0.012958326 0.0096792495 -0.014974067 0.024745498 -0.01188553 -0.023355857 -0.0070653474 0.0057946416 -0.0052679535 -0.0072682304 -0.01184551 -0.027677745 -0.02065265 0.012014075 0.012408936 0.022964098 -0.010821517 -0.0017254592 -0.007337613 -0.0099436445 -0.0045690504 0.0025313648 -0.01822058 0.016265947 -0.019741675 -0.014701484
23 -0.007209438 -0.0046882965 0.0017156252 0.012262469 -0.006313034 0.0069099683 -0.008138052 0.015506587 0.012954765 -0.0140401935 0.003913846 0.007825927 0.017616278 -0.009237336 -0.015511887 -0.0049097766 0.0025208518 -0.00069129746 -0.00059333234 0.016571093 0.007586938 -0.0048179743 -0.020111654 -0.017508268 0.01804278 0.002192379 -0.013417092 0.011700608 -0.009677911 -0.011090205 0.010098076 -0.016389234 0.0096798735 0.028468551 0.017074356 -0.020352822 -0.0156443 -0.011680841 0.0118155265 0.011256547 -0.020706108 0.021029277 -0.016172798 -0.008755622 -0.00045346274 -0.0005319916 0.019654067 -0.021565458 0.015849367 -0.0056697787 -0.01212241 -0.0118979635 -0.0011544363 -0.011114984 -0.0026317735 0.009614135 0.016821014 0.0017145971 0.00941884 -0.005607238 -0.0021766913 0.00477957 0.015682867 0.0019568307 0.017504418 0.016989082 0.01910355 0.010929392 -0.0041137645 0.0032492639 0.014466298 -0.0033910796 -0.015707029 0.01085959 0.010264877 0.011125118 -0.009730204 0.0073710643 -0.0062557366 0.015864238 -0.0011233927 7.495837e-05 -0.015946068 -0.02114946 -0.013969602 0.009033307 0.0073295003 -0.0048531997 0.007915414 0.0050472636 -0.011370276 -0.008131478 0.008834129 -0.011725428 0.00076701865 0.013523119 -0.01237687 0.0028412484 0.021333203 0.007754494 0.012657867 0.0032190292 0.011917993 0.007832671 -0.01576161 -0.0018982074 -0.005132293 -0.023097359 -0.0018051192 0.00013690052 0.015554514 -0.0116110435 -0.01699818 -0.0028272795 -0.0035577049 0.01466525 0.004096849 0.023380902 -0.008046596 0.016809937 -0.015954737 -0.005410022 -0.0037287932 0.016895197 -0.008165455 0.0262213 -0.016577153 -0.014286485
24 -0.011789732 -0.015149488 -0.01969881 -0.007677524 -0.0065379655 0.0031658695 -0.009164139 0.010667879 0.0038331465 -0.009941153 0.014918067 0.010375029 0.009719166 -0.007549505 -0.017007302 -0.014940959 -0.014851748 0.011768494 0.0037403335 0.026851682 0.0106982365 -0.018000947 -0.00036322454 -0.0046518333 0.0125377765 0.01410587 0.007403337 -0.003106951 0.0005718653 -0.0025172473 0.02158417 -0.015159604 0.00023721682 0.016253626 0.019880788 -0.015859004 -0.0057901726 -0.012349869 0.008046295 -0.00060945464 -0.0068052164 0.01753782 -0.0035215034 -0.017558252 -0.022633186 -0.013484917 0.020234583 -0.020521589 0.0028108356 -0.017875357 -0.027134646 -0.017943904 0.0018383784 -0.011584189 -0.0070758644 0.018112583 -0.0027201972 -0.0041570263 0.0132678645 -0.006155257 0.0019402466 -0.008629947 -0.0014160916 -0.016220743 0.016251998 0.013136328 -0.0012835136 -0.008106314 0.002030257 -0.009439314 0.0018924547 -0.00476107 -0.022473017 -0.0016589913 0.011233445 0.012636759 -0.006254146 0.007622121 -0.00046599322 0.019618891 0.0043112254 0.012026291 0.006748823 -0.011754885 -0.012461721 0.004042983 0.0036816546 0.0069237533 -2.7385191e-05 0.0048607267 -0.019290125 -0.009778218 0.0054893703 -0.013547533 0.0032679145 0.022483034 0.009910475 0.007139801 -0.003141018 0.003499009 0.006324132 0.009457065 0.010188125 0.018239409 -0.010352616 0.017508343 0.0016260921 -0.021165084 -0.0010737802 -1.0809483e-05 -0.009728384 -0.016378218 -0.000877811 -0.026671987 -0.015457073 0.02405638 0.020917406 0.021970673 -0.00013597528 0.02701106 -0.013032938 -0.021151053 0.005727218 0.0018358938 -0.0062996177 0.009869723 -0.016159656 -0.021502297
25 -0.014444648 -0.020766418 -0.006149292 0.0059719547 -0.013710095 0.0056330343 -0.015672011 0.0023173657 0.013708555 0.003183566 0.012045367 -0.005953095 0.01000674 -0.01873156 -0.027108436 -0.0028461413 -0.023150282 0.01649638 0.016316492 0.016140027 -0.0028461001 -0.016987817 -0.018962873 -0.020884342 0.027115937 -0.0048779943 0.0016651772 -0.009290199 -0.0030444602 -0.027842904 0.01265632 -0.025854005 0.022978753 0.018584995 0.014067855 -0.011548444 -0.010577389 -0.030983368 -0.014507239 0.023186717 -0.01696426 0.024350123 -0.006473607 -0.01829231 -0.014359493 -0.016267277 0.01087623 -0.023556616 0.022269765 -0.017345708 -0.022043286 -0.01952617 -8.424882e-05 -0.023393989 -0.015608335 0.016713914 0.02150705 0.01788501 0.022865385 -0.021224305 -0.008047578 0.019315422 0.0193793 -0.022419851 0.00023448095 0.018414259 0.015449539 0.012409 0.0077344337 -0.008180771 0.0115191005 -0.020488193 -0.023624243 -0.0015295779 0.028878823 0.029285284 -0.025807947 0.0060570873 -0.013545047 0.00511283 -0.01935834 0.0068241516 0.0010874295 -0.009179604 -0.016780786 0.028910981 0.023731735 0.015247242 0.012646859 0.015051223 -0.018475773 -0.01909718 -0.007517045 -0.027051538 0.01856541 0.02411977 0.009742406 0.01480759 0.02420158 0.01008645 0.0026546242 0.003815572 0.006516152 0.025315134 -0.029064305 0.01462172 -0.0065170554 -0.010119731 -0.025362723 0.023565885 0.0017383475 -0.014261947 -0.023237078 -0.017953677 -0.024104651 0.019974377 0.024144152 0.029818097 -0.021121912 0.011299182 0.0039322306 -0.023103682 -0.02441893 0.0128721865 -0.021261057 0.020295642 -0.020979038 -0.021552892
