26 128
0 -0.01542177 -0.016339013 0.016898395 0.009157384 -0.0038930997 0.016422363 -0.0020314397 -6.649329e-05 0.019947894 -0.01378331 -0.009698651 -0.0059400615 -0.016180102 -0.004853753 0.0006114354 -0.0007981287 0.008450957 -0.0010364051 -0.0013338975 0.0104596615 -0.0033066482 -0.023329508 -0.01119964 -0.005251905 -0.009337225 -0.015998838 0.00084948743 -0.0070388447 0.002246211 0.008361148 0.008854959 -0.0050484487 -0.01281333 -0.0037415442 -0.0015610603 -0.0007452845 -0.014241701 0.01742824 0.021996254 0.008428794 -0.019421237 0.012840437 0.00359571 -0.007279933 -0.023258064 -0.002800484 0.007050626 0.012687337 0.0100179175 -0.010514247 -0.011567054 -0.014893008 0.0002232829 -0.011161011 0.0077422834 -0.01523338 0.015378017 0.003148095 0.0010733374 0.008331154 0.00028611062 -0.007167685 0.010836043 -0.013457678 -0.012900661 -0.008291042 0.0046333787 0.0031422686 0.006054395 -0.01356021 -0.010543564 0.0065445635 -0.00950229 -0.008100168 0.01705583 0.0021488068 0.0070511997 0.027102148 0.018298386 0.012874979 -0.00033655137 -0.010054333 -0.014136107 0.0031205097 3.8674247e-05 0.0037617024 0.008516819 0.025681444 0.0055123568 -0.0050012995 0.0031122137 0.012835712 -0.0040580705 -0.02887122 -0.0021199386 -0.023567842 0.013258123 -0.010116177 -0.004726713 0.012108914 -0.013870892 -0.0038080774 0.0068257703 0.004995454 -0.011266448 0.0035016006 -0.018376105 -0.0018600089 0.01131617 0.015959814 0.0045090024 0.010715671 0.0034270184 0.0095314635 0.009123508 0.013684696 -0.011425202 0.021448163 0.021758886 -0.001211874 0.002163064 0.01229755 -0.002237575 -0.012508092 -0.005779481 0.008234079 -0.019015536 -0.0090463
1 -0.008244442 -0.016247384 0.008375813 0.016331658 0.007148936 0.017245658 -0.014793461 -0.0050758114 0.008455521 -0.027523194 -0.016338818 -0.021447547 -0.02852268 -0.016940868 0.014838305 -0.020582302 0.025556967 -0.020668162 -0.0161307 0.013041418 -0.018829616 -0.015380048 -0.016866704 -0.029983504 -0.013451909 -0.021017684 -0.012731177 -0.00880443 0.01636688 0.022449257 0.014574708 0.0053423992 -0.02154451 -0.007081899 -0.004612237 -0.012937501 -0.011002589 0.024861747 0.023076512 0.012121839 -0.026792737 0.019111456 -0.00758035 -0.023557985 -0.028679235 -0.005374421 0.017407881 0.00475109 0.013772222 -0.02265263 -0.020089626 -0.024167988 -0.004067071 -0.016947348 -0.00836811 -0.013375938 0.014201429 -0.010731793 0.0026577832 0.014217161 0.004745662 -0.021989413 0.011052903 -0.012124733 -0.017291892 0.0031102425 0.02220555 -0.0022809757 0.012652208 -0.026822975 -0.0081705805 0.013540203 -0.017482918 -0.00071051053 0.021124577 -0.01575868 0.024689214 0.011521773 -0.002842938 0.01702732 -0.005158706 -0.021073624 0.014566113 0.013681892 -0.00890728 0.018340738 0.019260153 0.00739808 0.01793433 -0.013105447 -0.0037587916 -0.008920774 -0.023557777 -0.003952125 -0.007218796 -0.019816512 0.028538473 -0.019322217 -0.0061190547 0.010309027 -0.014532187 -0.011168805 -0.006088411 0.015511925 -0.017734991 0.0077790706 -0.013949223 -0.016400836 0.025419377 0.017997786 0.023149109 0.021631006 0.017006626 -0.004654132 -0.0041877157 0.026023528 -0.023552138 0.00269231 0.0040798746 0.013158435 -0.017702239 -0.0033328156 -0.004503736 -0.02337852 -0.011392297 0.017304724 -0.020332146 -0.026301242
2 -0.018077662 -0.028953958 0.0238848 0.02177787 0.005064875 0.010823764 -0.030285906 -0.006176365 0.0066396254 -0.027214058 -0.010617437 -0.0293913 -0.0037425882 -0.024649872 -0.0065259067 -0.025209947 0.024793694 -0.02546955 0.0011588713 0.015642678 -0.009118983 -0.019331042 -0.026823977 -0.012873451 -0.028898181 -0.0077917655 -0.008243831 -0.015325513 0.02635592 0.024668131 0.01709759 0.016032362 -0.010398847 -0.008108112 -0.0073598158 -0.012523905 -0.011175414 0.026787508 0.023245491 0.02229226 -0.024096388 0.0143431295 -0.01072051 -0.02646014 -0.023624698 0.0004037299 0.013835089 0.014885176 0.025223741 -0.017072864 0.0027356162 -0.009207888 0.0039959806 -0.012139947 0.014072681 -0.019931836 0.021014135 -0.0027038725 0.027568728 0.010519099 0.024765618 -0.02285273 0.0205755 -0.018874466 -0.030914336 0.013279455 0.019902175 0.009162409 0.012326298 -0.01246776 -0.012692932 0.016521495 -0.030234644 -0.00319487 0.0057807444 -0.018140301 0.015263217 0.01851032 0.0091530355 0.016937938 -0.00067793176 -0.007808225 0.004817 0.018359918 -0.021269934 0.022220973 0.018860687 0.010612941 0.016817264 -0.018278634 -0.01645955 0.016617605 -0.02517538 -0.016094014 -0.02319839 -0.018255163 0.026473427 -0.02575303 -0.014303492 0.016334264 -0.01577548 -0.0046179392 -0.0026721691 0.021846583 -0.022234932 -0.0055767577 -0.010776518 -0.022915352 0.028206056 0.020867595 0.008668752 0.025458876 0.024807082 0.019448482 0.025513535 0.021869471 -0.024182433 0.0012061199 0.018643552 -0.0025674417 -0.01423739 0.0036445865 0.010156779 -0.012287197 -0.02124897 0.0231044 -0.0233252 -0.02386738
3 -0.02666919 -0.009386481 0.021850424 0.012450292 -0.0015083264 0.0069748913 -0.008809726 6.239827e-05 0.013011805 -0.00886641 -0.0004934076 -0.018702067 -0.019611292 -0.010270515 0.0054537095 -0.008997989 0.0045018867 -0.0120797455 -0.0018084618 0.014210122 -0.019557212 -0.021465527 -0.01351955 -0.017036071 -0.009034136 -0.014313966 -0.008488461 -0.013720243 0.01307437 0.011372913 0.009443483 0.008080201 -0.015892783 -0.015395346 -0.0005290347 -0.0031749713 -0.0048955395 0.018710312 0.021983322 0.016928244 -0.02430915 0.027586015 -0.0053669657 -0.01622641 -0.018580586 -0.0146069955 0.008481292 0.007623699 0.021475006 -0.030059438 -0.008855713 -0.015789488 -0.0061481036 -0.004205806 0.0105098495 -0.012210601 0.0063902945 -0.002418233 0.014119738 0.010110331 0.015292915 -0.01945269 0.015655763 -0.01568835 -0.012579558 0.0024328942 0.015870644 -0.0045898412 0.011004939 -0.013768211 -0.015131663 0.0101018455 -0.011425306 -0.02012243 0.001556677 -0.014555402 0.0070724157 0.01899944 0.00459666 0.013667724 -0.011347328 -0.025680322 0.0049967086 0.012204557 -0.010507247 0.013876106 0.011316498 0.010998542 0.02459057 -0.0034445059 0.0060718176 0.013325153 -0.011258815 -0.026232796 -0.006568297 -0.0229625 0.00680309 -0.0031565893 -0.006259385 0.007307725 -0.016218327 -0.0113565745 0.003272431 0.021553438 -0.019728342 -0.007084958 -0.01719603 -0.016779972 0.010703851 0.014451381 0.01667951 0.020082112 0.021146882 0.008028261 0.018776419 0.017893853 -0.020195428 0.007841845 0.013420097 -0.008997717 -0.009455678 0.009030603 -0.0057113287 -0.020449623 -0.0024423182 0.010660499 -0.016938768 -0.009297244
4 -0.015561232 -0.007842682 0.0077297324 0.013273903 -0.012062654 0.013866477 -0.022169836 0.009817266 0.013456471 -0.006571511 -0.0031128938 -0.024685113 -0.019236587 -0.0033707372 0.003815766 -0.027690426 0.0057565277 -0.016491741 0.0027600047 0.008023146 -0.022456054 -0.015036614 -0.026280867 -0.02442482 -0.016261904 -0.019316563 -0.008395335 -0.0007772278 0.01125787 0.01576631 0.0031374479 0.007715454 -0.009223863 -0.022294067 0.0016794195 -0.00065117195 -0.01218497 0.011191119 0.015889814 0.016132303 -0.013052041 0.022563618 -0.0074359565 -0.0029339269 -0.019601507 -0.01096943 0.016513716 0.011618122 0.011817786 -0.015806166 -0.009379313 -0.0053480165 -0.001843733 -4.1685358e-05 0.00022666989 -0.019267254 0.002808302 0.019595455 0.005438185 0.012580232 0.013273193 -0.025375215 0.011384492 -0.016411364 -0.019629292 -0.0047238544 0.013295785 -0.01028075 0.0055723274 -0.017085554 -0.025373017 0.007897978 -0.013370578 -0.014507311 0.015050311 -0.011602269 0.011812435 0.018221088 0.018198261 0.017311044 -0.010487451 -0.019608606 -0.0009361674 0.012320832 -0.011730875 0.01411512 0.009769364 0.008691565 0.019605212 0.0007536705 0.008043826 0.019262826 -0.006656132 -0.01813583 -0.019563906 -0.030011354 0.01942599 -0.007522497 -0.0070306845 0.0016362502 -0.016696095 -0.018978586 0.005526374 0.022497697 -0.016886473 -0.010152856 -0.011932776 -0.012842536 0.029309168 0.0060674734 0.008156592 0.011898925 0.017723853 0.009715 0.015424165 0.022768471 -0.018038772 0.010108908 0.024847923 -0.007120921 0.0036399195 0.018474095 0.0041327607 -0.013410857 -0.0016074951 0.009183793 -0.012105723 -0.016134279
5 -0.01672037 -0.014729273 0.023120672 0.017886668 -0.0019411035 0.0087530045 -0.01449246 0.0042340006 0.005046863 -0.018735662 -0.011252234 -0.016958602 -0.0077843596 -0.023004815 -0.0063696136 -0.021678448 0.02323726 -0.0067536305 -0.005139643 0.013930022 -0.007946515 -0.015843095 -0.006472992 -0.018415332 -0.015036219 -0.009606226 -0.0046265144 -0.011938255 0.0064965435 0.02133458 0.016947329 0.0032924803 -0.014371242 -0.011166654 0.006442476 -0.0022238994 -0.014711325 0.02313296 0.01645944 0.006016283 -0.01583495 0.015814358 -0.015021381 -0.009082898 -0.022041943 -0.01782593 0.020209633 0.0014082311 0.011142175 -0.023694195 -0.023165327 -0.015866384 -0.0052764057 -0.02121618 0.004327735 -0.014798491 0.00640346 -0.0017276697 0.009060761 0.009351553 0.0053843493 -0.01885145 0.022091651 -0.009906181 -0.017879719 0.016292255 0.010221886 0.014352051 0.015600045 -0.014681809 -0.008052907 0.02706028 -0.010564496 -0.0036810162 0.006269219 -0.01907377 0.017784387 0.027513934 0.01329179 0.018325789 -0.014870628 -0.014144162 -0.017006267 0.011601027 -0.0051458906 0.021040516 -0.0011706994 0.02831227 0.01653249 -0.009042563 -0.00602544 0.0063382788 -0.006606102 -0.026457591 0.002269398 -0.017961731 0.007933198 -0.011327598 -0.016007798 0.014414242 -0.024256667 -0.010172638 0.004048034 0.018212853 -0.009542682 0.0005500161 -0.014273612 -0.004608397 0.013550307 0.028142251 0.025427124 0.019332554 0.0051323688 0.0039002867 0.027232053 0.019981492 -0.019992406 -0.0017432799 0.01671739 0.00035084767 0.0029244535 0.01161041 0.0006891935 -0.027069785 -0.013708948 0.024204666 -0.025304254 -0.010201055
6 -0.028912935 -0.029462403 0.017984042 0.021370914 -0.009515196 -0.0049848454 -0.01932889 0.0115710525 0.024828913 -0.027634384 -0.012680172 -0.03184383 -0.028095711 -0.023012934 -0.009039777 -0.025951121 0.024547217 -0.01842315 -0.007683394 0.024651844 -0.020012416 -0.024635462 -0.026519028 -0.02826048 -0.017309241 -0.025871288 -0.0073429416 -0.016194247 0.016408876 0.028408669 0.029691678 0.002787989 -0.005821056 -0.020480728 -0.011456743 -0.0124043375 -0.0030097489 0.024688007 0.028967967 0.028486611 -0.023692168 0.026188847 -0.02294269 -0.023543699 -0.031079797 -0.0146220215 0.0141198 0.025323445 0.024270019 -0.00037761114 0.0015726794 -0.009727813 -0.016408246 -0.025810998 0.0114378985 -0.011330492 0.02384306 0.0027697184 0.0008038585 0.00710284 0.02274461 -0.031071588 0.024072291 -0.018612614 -0.026047114 0.012681213 0.024537291 0.004690245 0.025075853 -0.028546609 -0.0269518 0.028750632 -0.0135924565 -0.019455092 0.0004229219 -0.017795723 0.014365753 0.007678439 0.025503574 0.011954628 -0.01458349 -0.030927934 -0.007674034 0.018619183 -0.02214732 0.022633938 0.008798419 0.020816203 0.011133848 -0.015626086 -0.012040453 0.019802682 -0.02885848 -0.007858447 -0.022656232 -0.00442007 0.021014279 -0.015077357 -0.016839303 0.011130441 -0.026585529 -0.01047142 -0.0004404883 0.029093722 -0.024104526 -0.013859963 -0.02412221 -0.012518096 0.029611796 0.020336706 0.031368937 0.010417251 0.028719252 0.008997161 0.021020254 0.0080174925 -0.01913693 0.010685638 0.027127542 -0.007102556 -0.018171113 0.0040191635 0.015008592 -0.008502263 -0.014231119 0.008293484 -0.027779967 -0.02318896
7 -0.017526045 -0.025186868 0.019585595 0.023043288 -0.00820963 0.0029774979 -0.018709287 -0.013856729 0.0056599947 -0.018897887 -0.002940001 -0.016831735 -0.02635415 -0.023990018 0.008156222 -0.022268416 0.0141844 -0.021315511 -0.0014746361 0.019254945 -0.004691488 -0.018363563 -0.017380191 -0.017302712 -0.025774388 -0.017078955 -0.0156139005 -0.0018409118 0.012364436 0.018421628 0.025810594 0.014309763 -0.008652938 -0.019654233 -0.007986873 -0.009420511 -0.012178384 0.027354615 0.030953802 0.0161089 -0.020261623 0.02656646 -0.022604972 -0.018069433 -0.018976463 -0.012325283 0.014916718 0.011260415 0.022547957 -0.01121345 -0.0052640587 -0.005451211 -0.00025890517 -0.013612919 0.012220534 -0.010416324 0.015520935 -0.0097501455 0.018455278 0.018406047 0.011051406 -0.018623501 0.012461941 -0.025572453 -0.020911373 0.011396393 0.017279059 0.006348029 0.008435249 -0.0154378945 -0.018496148 0.024099099 -0.028357405 -0.019864032 0.0038074122 -0.02221048 0.010219724 0.014589491 0.01756662 0.02928834 -0.009145953 -0.017916936 -0.0007123511 0.014689723 -0.017217878 0.0107897 0.007136648 0.0060809627 0.015564229 -0.020923512 -0.0012802917 0.009653009 -0.015224007 -0.015755817 -0.020606311 -0.016204929 0.008754035 -0.014296092 -0.026878826 0.012280273 -0.025241988 -0.02364213 -0.0015489402 0.019548884 -0.014871003 -0.0033396853 -0.03091766 -0.019506337 0.019779218 0.017347565 0.02885094 0.017471414 0.011963201 0.014834699 0.010852941 0.020008478 -0.018885778 0.006184928 0.024667813 -0.008317752 -0.0032671816 -0.0005806149 0.004868366 -0.015725289 -0.014228318 0.014689082 -0.016128646 -0.017808601
8 -0.018475551 -0.016682934 0.016995443 0.026290722 -0.008040772 -0.01842262 -0.027980385 -0.01719294 0.019850599 -0.026227174 -0.012727469 -0.029631404 -0.022206755 -0.029450085 -0.0005666456 -0.026276642 0.02449839 -0.025458599 0.011538187 0.01651088 0.0104577625 -0.006306767 -0.014015498 -0.016646076 -0.023743043 -0.024917841 0.006858529 0.0049376376 0.019301228 0.020984631 0.015837755 0.005120295 -0.0017102016 -0.019645274 -0.01519284 -0.0059284503 -0.024437603 0.01541469 0.02871358 0.026630495 -0.021669377 0.006908362 -0.02286612 -0.027742699 -0.0222059 -0.026021177 0.02118105 0.012532909 0.019530928 -0.0013234655 -0.00087062817 0.0021535652 -0.012096216 -0.015735297 0.004272283 -0.0038788468 0.030160585 2.0028092e-06 -0.0034510389 0.015795935 0.015385907 -0.027477242 0.021445649 -0.012833995 -0.027072446 0.015648425 0.019744033 0.010426865 0.010120713 -0.03029586 -0.023429917 0.017918546 -0.016534032 -0.01689675 0.008533543 -0.019702362 0.0061375457 0.01493325 0.0213743 0.013265373 -0.0024412544 -0.017483426 -0.015454762 0.020149434 -0.022486502 0.019068494 0.008738317 0.0084848255 0.0043400014 -0.022395164 -0.0053813937 0.01752649 -0.020252557 -0.030887516 -0.012478537 0.00033599336 0.021714963 -0.013840055 -0.023085862 0.02470567 -0.025723295 -0.021131974 0.002295801 0.028690329 -0.007756614 -0.006704118 -0.017287254 -0.014572608 0.025132004 0.032785673 0.020993117 0.00982516 0.011074459 0.008775958 0.011540032 0.011990963 -0.030305494 0.012033348 0.026645854 -0.011769777 -0.0064008813 -0.017276354 0.015324785 -0.015833478 -0.02150703 0.021208568 -0.022484418 -0.025493842
9 -0.023077827 -0.023015376 0.02328498 0.029345158 -0.0020351852 0.0067628077 -0.029042382 -0.006037337 0.0141190905 -0.029056285 -0.020004494 -0.021308033 -0.008683223 -0.023726592 0.008892248 -0.023992794 0.018395526 -0.025817115 1.6182981e-05 0.02615515 -0.0031850557 -0.024584405 -0.026601462 -0.024652703 -0.020556292 -0.009778338 -0.015132165 -0.010674564 0.025741477 0.0227422 0.022685489 0.016523741 -0.015339226 -0.024206964 -0.012713269 -0.009782602 -0.007370402 0.018328484 0.01717479 0.021069974 -0.016090456 0.0151599245 -0.015077098 -0.017956158 -0.014659901 -0.011584281 0.023388041 0.007752533 0.021166628 -0.0136800045 0.0067677354 -0.012470758 -0.00888969 -0.001408311 0.0057753525 -0.027102616 0.024935631 -0.009234362 0.019214645 0.019874195 0.019508777 -0.02106127 0.023434633 -0.02577643 -0.02892915 0.018515281 0.019191232 0.0050960844 0.022805894 -0.025436016 -0.02937637 0.019816445 -0.024399461 -0.0065951236 0.0010428984 -0.027870076 0.011322416 0.013324759 0.008560246 0.0126377875 0.0043777837 -0.023860553 0.013684368 0.022515917 -0.017180843 0.018459832 0.014882253 0.0057148263 0.017232444 -0.02540824 -0.012042567 -0.00010412163 -0.019095084 -0.007953488 -0.0083732335 -0.013715143 0.024459852 -0.02316697 -0.017742153 0.018114839 -0.025372464 -0.016395496 -0.0020285428 0.029366681 -0.019162042 0.0076017994 -0.0231187 -0.01510437 0.025481235 0.030025672 0.016946577 0.02955381 0.021557994 0.007086125 0.008256291 0.02178006 -0.02528784 0.0048792977 0.01580329 -0.0023585786 -0.018594442 0.007823796 0.006183234 -0.0028056367 -0.021598667 0.027989972 -0.014193792 -0.022627182
10 -0.017641727 -0.013510935 0.0147613995 0.015975902 -0.015665352 0.00560389 -0.022287842 0.0058773626 0.013221409 -0.010333973 -0.0052860077 -0.017241655 -0.02374755 -0.021495543 -0.0063346215 -0.023803648 0.014759953 -0.022395972 0.014822135 0.008371605 0.0057935864 -0.010367019 -0.011929683 -0.015929522 -0.013867041 -0.021732204 -0.0025785405 0.0018523877 0.012374414 0.013916962 0.012891837 -0.013150431 -0.0048616626 -0.01731483 -0.013726136 -0.01194893 -0.012590823 0.02826243 0.01764033 0.022495873 -0.023720404 0.011340505 -0.008534085 -0.0141277835 -0.026734602 -0.022999413 0.0053325365 0.023770984 0.011441996 -0.02854363 -0.010230974 0.008874854 -0.017308619 -0.023597958 0.011418911 -0.007651264 0.021852039 0.0039190063 0.018795688 0.01442851 0.011037461 -0.01861008 0.0074478965 -0.004940453 -0.015420116 0.011761522 0.026254745 0.016066024 0.008088818 -0.0246908 -0.014693989 0.020759333 -0.017809972 -0.014374748 0.006390404 -0.010180795 0.014010783 0.020366287 0.016083106 0.02194483 -0.009793541 -0.020561015 -0.020686306 0.022938812 -0.0011039374 0.016629623 -0.010394899 0.02213024 0.010108251 -0.002996691 0.00046583408 0.018425623 -0.021273453 -0.02321841 -0.019776065 -0.020870512 0.02103451 -0.013028642 -0.016336877 0.015992522 -0.02161089 -0.014741867 0.0074007506 0.02440953 -0.0050407504 -0.017619088 -0.030493079 -0.0028256387 0.024292266 0.022088816 0.019314475 0.01177671 -0.00037430925 0.014536923 0.014054371 0.0070828334 -0.027078861 0.025174256 0.013309469 -0.01784257 0.0070921197 0.010854118 0.013137129 -0.013571745 -0.0051821116 0.017396223 -0.02709726 -0.012834966
11 -0.024125066 -0.02159321 0.021686306 0.014496518 -0.012673433 -0.012635825 -0.029539853 -0.0077404897 0.014128922 -0.02692276 -0.007059951 -0.01684243 -0.013857957 -0.025584003 -0.01790669 -0.02509436 0.030923406 -0.013398416 0.014772719 0.020121668 0.005669507 -0.006569466 -0.030755986 -0.020112364 -0.028662642 -0.024907202 0.007928282 0.0065223086 0.02623462 0.029602775 0.02487717 -0.014513325 0.0013787188 -0.0068818377 -0.0057622106 -0.013755943 -0.011754327 0.030506987 0.030630862 0.031426646 -0.02740186 0.0006431742 -0.016177703 -0.020857923 -0.02211807 -0.027567314 0.015152069 0.027298609 0.023145225 -0.02378435 0.0091685755 0.005131624 -0.021706032 -0.01905501 0.015151965 0.00034985633 0.020097302 0.005397563 0.009072302 0.019880239 0.024909869 -0.014231305 0.02086424 -0.005754933 -0.030391073 0.025265567 0.01881539 0.02552291 0.028102925 -0.02892871 -0.014820048 0.016960546 -0.031981226 -0.0263425 0.006878145 -0.03055093 0.0012553327 0.014295569 0.014216591 0.025609905 -0.007945523 -0.017468642 -0.024952527 0.029785458 -0.013919633 0.0286779 -0.008577354 0.016970292 -0.0019639074 -0.028262991 0.0019260077 0.023919359 -0.01839481 -0.030706497 -0.017738024 -0.021532323 0.013279058 -0.025230324 -0.029675858 0.021206612 -0.032186538 -0.032478355 0.005522826 0.033313885 -0.033778902 -0.014034066 -0.03186064 -0.03180643 0.030487828 0.01978235 0.019128703 0.022757687 0.016878424 0.025180427 0.006402851 0.007555413 -0.02024363 0.022557285 0.021237414 -0.020534946 -0.009201135 0.019144718 0.015295874 -0.0103275385 -0.026980674 0.017009642 -0.026123606 -0.024513258
12 -0.018779185 -0.002333705 0.020980977 0.0084082205 -0.021130426 -0.013760793 -0.009436172 0.0073768324 0.020826114 -0.025096266 0.008863264 -0.02442977 -0.002810839 -0.012748553 -0.0035174089 -0.021031825 0.017191332 -0.01722336 0.013822598 0.01389301 -0.008704998 0.00034354435 -0.023089416 -0.016138814 -0.016815927 -0.029287217 0.009477842 0.005354258 0.013850293 0.023962919 0.012664387 -0.006483308 -0.00662069 -0.03184057 0.006284322 0.0021704927 0.0007151311 0.017171357 0.017130777 0.019825542 -0.012263387 0.004608661 -0.0011259641 -0.015450282 -0.00780867 -0.019420631 0.008655705 0.026899405 0.025176985 -0.020300392 -0.0061164876 0.00645913 -0.010830784 -0.0056638117 0.00709231 -0.028069196 0.0041145817 -0.00030243502 0.019125491 0.021231133 0.008790854 -0.007215212 0.0034845187 -0.011118198 -0.02929133 -0.004246025 0.019788668 0.0016029908 0.009616255 -0.012959032 -0.025195312 0.0138012115 -0.014951735 -0.015752222 0.016875872 -0.009767125 0.014401745 0.0102412645 0.012952825 0.02820548 -0.01324624 -0.014641978 -0.012174387 0.008755272 -0.0023349402 0.02689775 -0.00034162312 0.016281376 0.010092896 -0.0039766845 0.010749727 0.026991377 -0.0258043 -0.020491678 -0.00678682 -0.017322864 0.020985708 -0.003242981 -0.024340127 0.005019273 -0.014574253 -0.01899863 0.014796692 0.020119313 -0.014394584 -0.01661216 -0.030946586 -0.0132376235 0.021774055 0.019394033 0.019659823 0.012954454 0.011609482 0.013493648 0.013900003 0.011026663 -0.0141670285 0.028574992 0.018461099 -0.014497797 0.0024026409 0.02061869 -0.0003199185 -0.010667628 -0.008713532 0.016700974 -0.009557317 -0.014210195
13 -0.01741674 -0.00599344 0.020317523 0.017717961 -0.0068438114 0.0004286616 -0.0052560484 0.00794314 0.00036757893 -0.0037869532 -0.0067265267 -0.023954611 -0.016420238 -0.0026702303 0.0068660043 -0.014991491 0.0153467925 -0.011490014 0.0037401298 0.0021794108 -0.010530128 -0.0104933875 -0.016764706 -0.011898167 -0.017949007 -0.017155778 0.0024733443 -0.0079529695 0.01555325 0.008155674 0.014858762 -0.0023620878 -0.0077766133 -0.02396299 -4.2188913e-05 -0.0145452535 -0.00798366 0.014685312 0.0032015631 0.017495072 -0.010209241 0.012939478 -0.011522921 -0.01526479 -0.0056087994 -0.00033296924 0.015167251 0.0042449357 -0.0030476348 -0.017543932 -0.010783351 -0.009452234 8.457468e-05 0.0015229408 0.008789835 -0.014847038 0.0138332 0.0072561675 0.0028504904 0.026197672 -0.0011295383 -0.01584736 0.02015031 -0.02105415 -0.016179428 0.002222871 0.014457317 0.00094490894 0.020257229 -0.026035098 -0.025672287 0.01083261 -0.02707904 0.0018061933 0.024099031 -0.014290849 0.008264974 0.025976917 0.012744026 0.0150406575 -0.0152875865 -0.0194682 0.0010866653 0.018565413 0.0014742622 0.012001328 0.010621291 0.011061673 0.009603801 -0.008976194 0.008150367 0.013329853 -0.007974112 -0.02533914 -0.0146381175 -0.015258422 0.016523954 -0.011505941 -0.00058577507 0.01054955 -0.007956775 -0.00705156 0.0077576763 0.012407119 -0.020695368 0.0005678296 -0.013188104 -0.012000403 0.018657349 0.004834605 0.015677575 0.010088955 0.009968238 0.009720717 0.013669259 0.018635856 -0.01478222 0.012389925 0.009614445 -0.001735272 0.008514397 0.015508502 0.0007994661 -0.01569681 -0.007965473 0.013399696 -0.020611254 -0.01901546
14 -0.02963052 -0.02913535 0.021449683 0.019194188 -0.025347989 -0.009033 -0.023780536 0.0001829374 0.013253483 -0.020436555 0.008552775 -0.019508215 -0.012308377 -0.015667519 -0.009472147 -0.017975036 0.014551631 -0.0056616813 0.021809058 0.019432643 -0.009732103 -0.0073421746 -0.027133 -0.013700333 -0.019979043 -0.012883553 0.008430442 0.0010503395 0.017731823 0.017473204 0.025448747 -0.019669136 -0.0013380187 -0.018416204 -0.013164489 -0.013748312 -0.0029669856 0.017343314 0.023860505 0.02535251 -0.02608427 0.008851274 -0.018101232 -0.02163228 -0.025931044 -0.016896108 0.02203298 0.02547795 0.020979702 -0.016191289 0.014187229 0.0010172192 -0.010404874 -0.010862402 0.017645836 -0.010908763 0.017821524 0.009032249 0.01643156 0.009964329 0.013060123 -0.017902773 0.021933815 -0.006527939 -0.027194377 0.015259379 0.028874978 0.011618088 0.003379572 -0.027425863 -0.016671477 0.014192822 -0.01377511 -0.013714696 0.007371445 -0.008678933 0.007967113 0.020850064 0.021437861 0.027059289 -0.01880702 -0.022758193 -0.015031204 0.02260515 -0.009920783 0.017451804 -0.019753456 0.016333709 0.0105529735 -0.0213963 0.02598241 0.025014892 -0.020932354 -0.022019714 -0.016654557 -0.012327141 0.0151197165 -0.015591672 -0.01554858 0.01739918 -0.025814444 -0.020484937 0.0125961425 0.028740168 -0.021899564 -0.02674653 -0.01993423 -0.027153056 0.02608323 0.023192823 0.017078603 0.013665661 0.008468182 0.010334546 0.02018477 0.0048600286 -0.021407576 0.013725608 0.02063749 -0.012098912 0.029049119 0.0066247066 0.017905073 -0.0047997376 -0.024199583 0.023946803 -0.015826331 -0.015024756
15 -0.01686254 -0.014407983 0.016426703 0.007569653 -0.009770278 0.0023866561 -0.01934421 0.0059212977 -0.000609421 -0.0062293843 0.006567137 -0.011378304 -0.008923998 0.0010851774 -0.016041294 -0.018671148 0.01681654 -0.008245554 0.019037336 0.008511011 -0.027778052 -0.016892087 -0.018025195 -0.019200008 -0.016932221 -0.01917772 0.012262015 0.0053275493 0.018268378 0.008017704 0.00600679 -0.012186084 -0.0047765737 -0.024230918 0.0014063426 -0.010404843 -0.006764953 0.012079825 0.018672165 0.0074849483 -0.027491696 0.012027242 0.0027622099 -0.0081472695 -0.015417646 -0.022768248 0.009309415 0.024767196 0.007919054 -0.008455638 -0.002294671 0.0037957567 0.004488464 -0.005272703 0.006580433 -0.015535486 0.0020242902 0.024314394 0.013651477 0.023602942 0.0020022406 -0.0047419663 6.183068e-05 -0.009639833 -0.018438073 -0.007709285 0.024145119 0.010831023 0.008270077 -0.019474093 -0.016644912 0.003826533 -0.012557585 -0.009685313 0.0066562025 -0.00059576705 0.011121502 0.0033531662 0.021974705 0.02022029 -0.013667308 -0.02191481 0.003044283 0.010673783 0.006713504 0.013442158 -0.008031633 0.018036861 0.01404969 0.0057020355 0.015908783 0.01820048 -0.011523197 -0.020153143 -0.018686607 -0.022983124 0.008960817 0.0017369494 -0.012672942 0.0013985187 -0.0052376706 -0.026002875 0.018402822 0.0077570667 -0.018725572 -0.014564265 -0.020038622 -0.00705793 0.014678578 0.01234257 0.010719465 0.020183109 0.020522593 0.006616413 0.020729508 0.020300437 -0.02376493 0.0137634585 0.012865026 -0.009141623 0.011949288 0.008519489 -0.010334171 -0.013034708 -0.017993396 0.012022599 -0.020132506 -0.020329358
16 -0.018420521 -0.0125641925 0.017504353 0.0071598156 -0.0073796865 0.021776931 -0.012534546 0.022560466 -0.004039083 -0.0007949382 -0.009515287 -0.010009855 -0.022411173 -0.0012110221 0.003564944 0.001978986 0.011213039 -0.016280336 -0.0056274794 0.018903945 -0.018888295 -0.018758573 -0.004899724 -0.005912015 -0.013405254 -0.009597188 0.010292863 -0.020041652 0.013916108 0.018468108 0.0026160725 0.0016269893 -0.022620013 -0.023602385 0.014073844 -0.0030818158 -0.021662015 0.007186345 0.00065008976 0.007373953 -0.003013921 0.02141681 0.00788678 -0.016028186 -0.007521542 -0.012942881 0.025940912 0.012895526 0.0071910652 -0.024031037 -0.011516692 -0.020931948 0.015644437 0.014631596 0.012085715 -0.008417631 0.0045170197 0.0075744954 0.018557472 0.02354789 -0.0055552972 0.008146824 0.010226465 -0.026276845 -0.018360583 -0.015354067 0.011956509 0.002988529 0.005079368 -0.014231797 -0.018343933 0.008229313 0.0028692991 -0.008599746 0.020148829 -0.010845398 0.027306186 0.022126164 0.006655548 0.011893377 -0.022144333 -0.02861455 0.0068580587 0.010866056 -0.0064953365 -0.003080581 0.013965554 -0.0019028762 0.024622697 -0.005216869 0.024028325 0.004069863 -0.010009852 -0.0039836816 -0.01395117 -0.012712982 0.015429711 -0.011905908 0.001795836 -0.0048954724 -0.0065353997 -0.0063711707 0.02059685 0.0021994724 -0.00788004 -0.004585498 0.0027416786 -0.0022274149 0.009195188 0.01688957 0.006162443 0.024014518 0.017202739 -0.0046771523 0.0053514624 0.016395453 -0.0102247195 0.023010788 0.0094674835 0.0067471475 -0.011995512 0.023997348 -0.018216755 -0.01029743 -0.012064022 0.018212803 -0.007640675 -0.022963025
17 -0.02072395 -0.030129056 0.02926221 0.03226117 -0.024080118 -0.0065589757 -0.028544337 -0.0031818107 0.022013089 -0.02441619 0.015809903 -0.022022583 -0.020404875 -0.015286024 -0.024125818 -0.02268143 0.018368013 -0.01752017 0.026867425 0.023817722 0.008924066 -0.02354179 -0.019096402 -0.03054167 -0.018245596 -0.026985766 -0.0036737337 0.008808425 0.0154492045 0.025422798 0.014254275 -0.008662918 0.00064536295 -0.029792054 -0.008434287 0.0010659997 -0.017106647 0.023214834 0.023608642 0.023304254 -0.029397165 0.01799997 -0.016078375 -0.026907539 -0.02380157 -0.016523192 0.018456882 0.02792104 0.023629885 -0.014033694 0.007373313 0.0023890045 -0.0067030434 -0.02145278 0.026393378 -0.022451052 0.018268354 -0.008204794 0.0156069035 0.008561181 0.016062608 -0.024884209 0.021333251 -0.025527634 -0.024122495 0.002886841 0.017562602 0.020604104 0.017270537 -0.027008776 -0.030102268 0.02955541 -0.022717554 -0.013128474 0.012860785 -0.026846286 -0.0019686155 0.0051199556 0.028710354 0.031828877 -0.0017252527 -0.022833858 -0.01600649 0.017207494 -0.011111854 0.025099602 -0.011541639 0.02102056 0.009908523 -0.022275181 0.018106237 0.020817231 -0.021847324 -0.0267784 -0.024030562 -0.023387872 0.02802208 -0.011076956 -0.022017496 0.012637712 -0.027882097 -0.029121425 0.02810305 0.01848795 -0.021841314 -0.026786799 -0.027031807 -0.014177397 0.018538464 0.02433285 0.025596451 0.017231429 0.0210947 0.015031838 0.021103118 0.016045513 -0.03151993 0.01661193 0.025844982 -0.018078836 0.007116588 0.014911058 0.0012753896 0.009610306 0.00018834037 0.01995416 -0.016702859 -0.030543404
18 -0.01094949 -0.011301635 0.0058425525 0.013660779 -0.015896104 0.00055235473 -0.01480565 0.014575879 -0.007860147 0.0028170163 -0.0020014835 0.0003679238 -0.022186806 8.892693e-05 0.0086566955 0.0039271587 0.00681649 -0.017187858 -0.009585816 0.013935906 -0.008499145 -0.0012383254 0.008230639 -0.0018398833 -0.013443429 -0.0031924366 0.01495544 -0.011097572 0.024854394 0.012729928 0.007922791 -0.013401471 -0.004684074 -0.0041863825 0.00310611 0.005217741 -0.020369709 0.012312552 0.012662046 -0.0043104226 -0.02187575 0.0046303226 -0.0013243177 -0.0017730634 -0.001078597 -0.0055817775 -0.0034301311 0.0018534126 0.008397646 -0.010125892 -0.006350841 -0.005680728 0.00801571 -0.001331482 0.013871058 -0.007288112 0.0059551615 0.011220856 0.0016950365 0.0078030135 0.021392537 -0.005312252 0.0069590453 -0.007905803 -0.017500445 0.0011105838 0.012934353 0.0049656355 0.012384173 0.0034712832 -0.005975735 0.002466212 -0.017526567 0.0023727673 0.022157231 -0.0061911386 0.016752968 0.011296218 0.021451883 0.0124978 -0.017025523 -0.020565305 -0.0010612176 0.024526155 -0.016810827 0.0027760547 0.0044351947 0.0034901153 0.002569847 -0.008608296 0.026594756 0.0008025134 0.0010563682 -0.020191671 -0.016240034 0.0029535806 -0.0007596381 -0.01420202 -0.0066327434 0.0050514783 -0.019009922 -0.0016665878 0.009778595 0.018500581 -0.007307744 -0.00040268584 -0.004866145 0.009105399 0.008490208 0.00026004156 -0.0013623899 0.0044520176 0.0054590935 0.007823034 0.0063992064 0.016797762 -0.007700195 0.0033052962 0.020072673 -0.00941559 0.018421026 0.010042774 -0.0026961395 -0.008254119 -0.015029819 -0.0072386367 -0.020429727 -0.013555739
19 -0.022112254 -0.0043944847 0.016115619 0.01742161 -0.00849507 0.0025466203 -0.015092191 0.011100419 -0.0053150808 0.00013036892 -0.0032744042 -0.02096085 -0.011135654 -0.012505342 0.0060467026 0.0011642362 0.014060485 -0.020981302 -0.0034734777 0.014838784 -0.0100955665 -0.013261922 -0.0055093146 -0.0043171197 -0.023901911 -0.017919766 0.008493375 -0.0013761274 0.018183269 0.023508005 0.0151257645 -0.008255548 -0.010924873 -0.009416467 0.0120730195 -0.004590792 -0.013795804 0.014204871 0.013978339 0.006405661 -0.024701146 0.0065567866 0.0020057147 -0.018744564 -0.007305787 -0.016532624 0.01308789 0.004023651 -0.0021755937 -0.012448823 -0.009509562 -0.0071909586 0.006385052 -0.001944966 0.0076043587 -0.015707022 -0.0031799672 0.020354742 0.01509774 0.022961995 0.011910318 0.006546588 0.005956207 -0.003594226 -0.01940247 -0.0048591057 0.013447547 0.0073856693 0.008858779 -0.0051110415 -0.0010197004 0.002464665 -0.02255303 0.0010553112 0.017133895 -0.015029285 0.007813369 0.023524318 0.017013125 0.0149417445 -0.017606815 -0.021355726 0.0019036036 0.013728219 0.002150616 0.009008553 -0.0030920797 0.0074572107 0.013366213 0.00036275596 0.015757605 0.019845115 -0.0035610704 -0.01593394 -0.016353037 -0.0061070747 0.009115003 -0.009089084 -0.003381278 0.013944228 -0.015510058 -0.018607913 0.013526297 0.020128675 -0.0121368915 -0.021826895 -0.008396599 0.006568736 0.0071516735 0.004477832 0.006958368 0.0075943996 0.006870934 0.0031009202 0.0068809064 0.01707238 -0.014626513 0.0043459847 0.0055143335 -0.0028222376 0.019742358 0.019277504 0.008392959 -0.018684443 -0.0259327 0.011110926 -0.015384852 -0.008271398
20 -0.017736081 -0.018610403 0.020672007 0.020007 -0.027775217 -0.02004859 -0.03015682 -0.0094081145 0.028786208 -0.00829879 0.014579192 -0.03097636 -0.009276456 -0.029870287 -0.027947031 -0.028903631 0.021633016 -0.011701126 0.022431795 0.024279345 -0.009064397 -0.009550668 -0.027442519 -0.022905242 -0.022903446 -0.026043652 0.02013566 0.010625879 0.0206173 0.008270256 0.015442197 -0.025868908 0.01053385 -0.013258799 -0.011330004 -0.009823262 -0.016625827 0.017270645 0.022392137 0.024674937 -0.021257577 0.0028067545 -0.011740152 -0.014241923 -0.016230717 -0.029984843 0.0039752247 0.019488193 0.017912341 -0.0023964923 0.016265202 0.0068309293 -0.016627667 -0.020648925 0.012702137 -0.017529083 0.021690533 0.015898675 0.026139593 0.021650972 0.009027684 -0.024159921 0.017013716 -0.0186346 -0.027712468 0.019422594 0.027448025 0.015402818 0.018445695 -0.017398933 -0.0045831306 0.01971733 -0.024896171 -0.030098999 0.0025981674 -0.016913671 -0.002484955 -0.002240167 0.011494414 0.017930744 -0.025003282 -0.013921266 -0.009463956 0.020502327 -0.017999887 0.02743404 -0.017670657 0.020572947 0.0011625052 -0.021259794 0.01484533 0.026129529 -0.029623013 -0.031405654 -0.021539811 -0.010714855 0.0053920243 -0.023085678 -0.02314269 0.011782479 -0.019306112 -0.010380821 0.0034528577 0.031026654 -0.02692867 -0.023904128 -0.027987866 -0.015686577 0.021464454 0.0309375 0.027646301 0.0023270077 0.020807218 0.02325884 0.020883221 -0.0024040004 -0.026130287 0.017343896 0.01823787 -0.023372548 0.022013042 -0.008275113 0.010083924 0.0006147234 -0.013317516 0.015025817 -0.01681715 -0.01530699
21 -0.026708998 -0.022593481 0.022146342 0.007307367 -0.026287783 -0.008414024 -0.017338315 0.01816038 0.010857907 -0.019757042 0.004994253 -0.011730904 -0.023081917 -0.0034626566 -0.021065386 -0.02397801 0.012540363 -0.010041067 0.018074669 0.00644167 0.0026109698 -0.021798385 -0.019307777 -0.022010893 -0.0077062855 -0.023825318 0.008875378 0.0076430147 0.0014661696 0.007824156 0.0070858663 -0.022855716 0.0038002688 -0.020566799 0.0044484367 -0.0012940099 0.0018888949 0.01932827 0.014443468 0.0045019886 -0.01544166 0.02175236 -0.00053842994 -0.007898809 -0.0179364 -0.017048378 0.0016840617 0.021719867 0.0139123015 -0.021679321 -0.010818738 -0.011035596 0.0028920271 0.0018361905 0.016342817 -0.017940968 0.012418639 0.019431895 0.026540004 0.020137072 0.008602828 -0.0015005447 0.0114013 -0.011381781 -0.01830021 0.0034351873 0.024279736 0.02489546 -0.0011829382 -0.030669129 -0.032510903 0.005723651 -0.018604731 -0.017670214 0.017058156 -0.002614058 0.010703313 0.016396577 0.01822636 0.023649663 -0.028395236 -0.022450063 0.007881244 0.0131601 0.0033704028 0.019476453 -0.015365517 0.02787072 0.0056891995 -0.0003724141 0.012927811 0.03270713 -0.005717889 -0.027608627 -0.029031605 -0.021663206 0.02534651 -0.008742759 6.017764e-05 -0.0017815344 -0.016510114 -0.027526205 0.017734395 0.019623287 -0.012242428 -0.024198387 -0.017646642 -0.019320508 0.010970321 0.009201304 0.017317725 0.029415654 0.022065602 0.01687238 0.027088046 0.009973703 -0.02820521 0.014937296 0.01685411 -0.024071373 0.009772773 0.01197165 -0.00068024144 0.0025451165 -0.0036348016 0.010992415 -0.018162139 -0.01632737
22 -0.012572482 -0.029972272 0.013838533 0.01782586 -0.01784866 -0.011978638 -0.024503002 -0.005329442 0.012438753 -0.025298087 0.015742641 -0.028124642 -0.012656172 -0.027981713 -0.016070258 -0.026276493 0.019801913 -0.017621916 0.022818407 0.02245498 0.00539117 -0.016954 -0.018068338 -0.024917345 -0.019534448 -0.018086169 -0.0038098525 0.01887165 0.016420746 0.029240394 0.010001879 -0.017305013 -0.004725515 -0.029770527 0.00018193247 -0.015177793 -0.015321813 0.020274865 0.016380308 0.01680176 -0.022029078 0.0128460815 -0.015370027 -0.019020189 -0.022951597 -0.023631478 0.023639817 0.018398434 0.011303527 -0.022856072 0.010038377 0.0072908234 -0.011940333 -0.013799102 0.015211678 -0.008832329 0.018662205 0.0084121935 0.017126312 0.011864932 0.0067970385 -0.022244887 0.020787196 -0.011557772 -0.017530935 0.0047793468 0.031262487 0.026262946 0.011735795 -0.017998166 -0.016224626 0.025734019 -0.02602376 -0.017610274 0.012217043 -0.026598003 0.012271921 0.007664754 0.016591974 0.023823751 -0.019694477 -0.017610397 -0.0135054095 0.0195926 0.0026190476 0.014278555 -0.015407111 0.021991422 0.018327355 -0.012496203 0.02501506 0.02797942 -0.009363597 -0.028401721 -0.022863388 -0.012842458 0.025241012 -0.02272633 -0.013917654 0.008319846 -0.03099233 -0.018317401 0.016135992 0.025079709 -0.029621705 -0.023611909 -0.028818347 -0.016583206 0.018076029 0.029628625 0.027444076 0.010099956 0.021190874 0.024573382 0.025322042 0.016205838 -0.019204937 0.022332747 0.023421302 -0.020239249 0.01702344 0.01192528 0.0025101604 0.0021549026 -0.015122288 0.026289728 -0.026956012 -0.025424972
23 -0.026514003 -0.014558148 -0.0026275471 0.0062461486 -0.014295429 0.005507185 -0.01919035 0.019604528 -0.0031774011 -0.0004760414 -0.0011937743 -0.0152594345 -0.016439583 -0.009230855 -0.0080319 -0.006247158 0.0046867635 -0.021078845 0.014977339 0.016023377 -0.012376872 -0.004363655 -0.001544097 -0.01050633 -0.020352164 -0.0243894 0.017048545 -0.0068828575 0.025055123 0.020535203 0.013987061 -0.017737927 -0.0016392355 -0.013563098 0.013308992 -0.01416262 -0.011211148 0.012672538 0.013802803 0.016925273 -0.017504437 0.018570788 -0.0023879586 -0.025614124 -0.017006489 -0.011097074 0.02007208 0.017248899 -0.00039360934 -0.016302444 -0.00042157565 -0.0005881088 0.0025294689 -0.0046899416 0.013445432 -0.0047342586 0.0038336343 0.010109819 0.0105128335 0.016837254 0.0016562194 -0.00442734 0.017283933 -0.0063047525 -0.016941633 0.0015358098 0.0024341831 0.012010157 0.009914114 -0.009427827 -0.0061651096 0.015166619 -0.023492184 -0.0051139477 0.01672113 -0.009043245 0.01599244 0.011156283 0.022931471 0.01485907 -0.011453629 -0.020498037 -0.011280418 0.014019457 -0.016246833 -0.0004628045 -0.008130384 0.0093879895 0.002206177 -0.008417075 0.012438746 0.021685712 -0.007642485 -0.02052681 -0.013930933 -0.010967508 0.026017364 -0.01174676 -0.0051357634 0.014947132 -0.02522526 -0.011757727 0.016605303 0.0057612523 -0.0151638845 -0.020986106 -0.012974381 0.0005558231 0.013683238 0.0077608917 0.0026576815 0.013578208 0.0090903 0.016714701 0.001576292 0.017245965 -0.017760426 0.007432913 0.017894004 -0.012316521 0.009373297 0.014801439 0.0051850346 -0.010230719 -0.008534841 -0.0017090552 -0.013653448 -0.011194764
24 -0.016663354 -0.028349508 0.019226098 0.023468293 -0.009453117 -0.0038664 -0.013953342 0.0015526393 0.009982558 -0.0060819294 -0.009573061 -0.018979158 -0.012193151 -0.01970241 -0.009291118 -0.015753208 0.027795658 -0.01756562 0.005778219 0.020892117 -0.00012408035 -0.008768231 -0.019916985 -0.021166138 -0.027684268 -0.026503533 -0.0033052866 0.0032908993 0.027525313 0.027192792 0.013308999 0.003887625 -0.0060284273 -0.030346453 0.0028830043 -0.015834283 -0.0057911584 0.016187115 0.027619459 0.023075165 -0.023730425 0.0131770875 -0.015268529 -0.026375564 -0.022540893 -0.011781997 0.022169381 0.010621829 0.0057357396 -0.02310506 -0.0024132675 -0.0021789335 -0.0075530154 -0.018633265 0.010351693 -0.00853379 0.026794933 0.010985754 0.01573395 0.019484641 0.012128879 -0.017860288 0.014476741 -0.0160385 -0.023163889 0.013329144 0.02663679 0.00803009 0.013933274 -0.01610422 -0.020189816 0.026302958 -0.02169713 -0.013906017 0.0012371272 -0.009447343 0.011910899 0.020246947 0.024290277 0.020012138 -0.00821317 -0.009573533 -0.010535587 0.018611968 -0.01639921 0.011757791 -0.00598377 0.021594757 0.015302214 -0.01963843 -0.0029982035 0.024708439 -0.0074594277 -0.031105675 -0.0241605 -0.026552258 0.023819646 -0.017611679 -0.015454818 0.023615588 -0.021572208 -0.012860549 0.0013024447 0.019208325 -0.017975178 -0.015033671 -0.01487909 -0.0137357665 0.028448906 0.02743637 0.017894402 0.01751488 -0.0021750745 0.011651173 -0.0006250033 0.015141991 -0.028364433 0.00071021134 0.008238853 -0.006541719 -0.0051816474 0.016711421 0.0049187667 -0.005540407 -0.011055749 0.02629518 -0.013674837 -0.027671708
25 -0.011838243 -0.011129994 0.0120973615 0.015926093 -0.011904715 -0.016622946 -0.014736456 -0.010707907 0.0055324 -0.009871295 0.014220454 -0.02458525 0.007898349 -0.011991477 -0.010244603 -0.0142669175 0.014446586 -0.014431571 0.016358912 0.016692312 0.012190271 -0.016966362 -0.015943076 -0.022676723 -0.018683335 -0.020061886 -0.001943614 0.0036139572 -0.0039448077 0.010169002 0.019050878 0.0038840673 0.009987454 -0.027731642 -0.00887773 -0.01997673 -0.008799285 0.010585282 0.016550748 0.00782748 -0.012798968 -0.00024447672 -0.008425378 -0.02378481 -0.01966832 -0.020519579 0.018459579 0.011275942 0.012572295 -0.004117669 0.0011851733 0.0013823269 -0.005595425 -0.018465145 0.011502101 -0.010598371 0.02095484 -0.0059106 0.008815668 -0.0030834484 -0.00037456135 -0.019944297 -0.0060335374 -0.021919506 -0.015025429 0.010624738 0.022495681 0.005523171 0.0099493805 -0.011853043 -0.012317318 0.013444051 -0.015877003 -0.01035881 0.0063430574 -0.013595035 -0.0019654816 -0.001431813 0.011113294 0.02268366 0.005289402 -0.009879548 -0.0024252683 0.01080326 0.011340317 0.0098687885 -0.0025641446 0.02333697 0.00050912774 -0.020978963 0.024752963 0.016989073 -0.022079648 -0.0018697102 -0.020881642 -0.013105362 0.0127537 -0.001766894 -0.018046536 0.0014625775 -0.010945438 -0.011885928 0.021670347 0.026054908 -0.021719458 -0.012664638 -0.024745671 -0.015549904 0.014498295 0.015856825 0.018549139 0.010151284 0.009290947 0.016780825 0.015318857 0.004529816 -0.022098668 0.023135709 0.008828394 -0.019947713 0.0008322261 0.00049023994 0.0092916675 0.0077418205 0.008774463 0.017233433 -0.023341145 -0.009661723
