1034 128
0 0.08138692 -0.12299598 0.08285854 0.11655783 -0.1255034 -0.019522365 -0.25378847 -0.13081363 -0.035469983 -0.30142826 0.18639587 -0.08692223 -0.036820162 -0.2388374 0.2815841 -0.14765114 -0.13153188 0.049658526 0.1324178 -0.09138559 0.020962892 -0.062747635 0.13788766 -0.17110807 0.14792137 -0.014946697 -0.053189438 0.03935222 -0.08206981 -0.23032767 -0.12394071 -0.028052611 -0.008408269 0.01997764 -0.0723251 -0.19888766 -0.0934572 -0.061721984 -0.03824804 0.034253653 -0.19387987 0.018090526 0.22106752 0.2224274 0.027143465 0.18217537 0.012008742 -0.05829879 -0.072928965 0.018130621 0.18640275 0.20287259 0.04368541 -0.17206733 0.15334658 -0.19187409 -0.07956141 0.12160687 0.055489577 0.09857485 -0.1914397 0.08990579 -0.13077301 0.1605576 -0.19536717 -0.09561613 -0.103122294 0.084765755 0.09230637 0.021968575 0.20181862 0.09007612 0.24567732 -0.14186773 -0.14084272 0.18923287 -0.2694126 -0.13910504 0.24079637 -0.08654246 0.17318965 0.23683704 0.17487161 -0.1019951 -0.036899965 -0.06586841 -0.036863472 0.12807941 -0.18215801 0.16605641 -0.079733096 0.09431196 -0.20299537 0.010333097 0.08559474 -0.23725262 0.025773713 0.24141906 -0.13012508 -0.035520487 0.20012468 -0.12187484 -0.2813661 -0.14679034 -0.15373601 0.0635951 0.13126138 0.11910471 0.14579341 0.16895914 -0.024095122 -0.13274069 -0.16369538 0.077287056 -0.14843377 0.06025809 0.12742814 -0.07598748 -0.0039825663 -0.18593213 -0.14530249 -0.10965663 0.2591683 0.028576396 0.111250944 0.1301969 -0.00061916927 0.10642133
1 0.01627145 -0.24817777 0.09482655 0.11449454 0.032541703 0.0007151314 -0.099014744 -0.12387653 -0.034001213 -0.18383223 0.06363866 -0.041552324 0.04583792 -0.14463793 0.1550768 -0.11079883 -0.16887131 0.018127143 0.10495961 0.030092353 -0.075697884 0.02612158 0.10894021 -0.14284979 0.05637318 -0.087236844 0.010332422 0.05322439 0.006723337 0.00025356357 -0.02545209 0.06405239 0.10682008 0.038273364 -0.04641209 -0.15356936 0.0106116 0.047775354 0.08097957 -0.112988524 -0.08262676 0.040543683 0.066182 0.14457622 0.03814939 0.15337327 -0.08904945 0.03236724 -0.0051352708 0.023917789 0.16420658 0.12860572 -0.06164129 -0.10002614 0.033449333 0.039742526 -0.04694537 0.0992885 0.03022011 0.1022738 -0.0066670836 0.009001933 -0.034064494 0.13616483 -0.08235774 0.10068378 0.026653644 -0.022654885 0.066045925 0.1077625 0.10520744 0.04974738 0.15769464 -0.078760855 -0.11577934 0.15389943 -0.18144757 -0.058499746 0.15771607 0.07570778 0.15843555 0.10736573 0.17069331 -0.06642185 -0.08313168 0.04040441 -0.019901505 0.112270534 -0.1536079 0.11613938 0.02073212 -0.1302442 -0.14801054 -0.08166269 0.081131704 -0.18343012 -0.0006282672 0.16167684 -0.12610276 0.06975785 0.15849704 -0.14802597 -0.08853571 -0.16307904 -0.11483513 -0.070087336 0.1375326 -0.05722817 0.059352342 0.1338142 -0.00044265183 -0.13194107 -0.114614226 -0.015361169 -0.07558888 -0.05377622 0.087048076 -0.013497254 -0.0017954464 -0.1597715 -0.13949683 -0.08184932 0.16767913 -0.05571804 0.10585501 0.121631816 0.012471653 -0.017313663
2 0.06293936 -0.16363227 0.0278158 0.018089255 0.13812493 -0.105878025 -0.06151786 -0.07483366 0.06348513 -0.15115283 0.19023834 -0.0453672 0.044539962 -0.25834244 0.13240696 -0.037319303 -0.11439669 -0.002485452 0.035427097 0.07020404 -0.062144857 0.095899165 0.054815892 -0.07733114 0.16790722 0.0025621962 0.058603983 0.036013763 -0.105126195 -0.019188713 -0.15878427 0.06318545 0.019400245 0.019914636 0.06830114 -0.088640004 0.069599345 0.07321593 0.0420569 -0.018292043 -0.026911 0.052968647 0.09562965 0.182972 0.07891096 0.06185461 -0.14973004 0.08137018 0.020774549 0.063245825 0.26730502 0.081403926 -0.088900395 0.012744594 -0.019874662 -0.03805758 -0.13488859 -0.13879098 0.10042 0.07770044 0.0057374146 -0.06809313 -0.15146884 0.038341906 -0.05708742 -0.050166387 0.08662477 -0.028981851 -0.00942608 0.041876912 0.12623918 0.15049306 0.1585712 -0.1372091 -0.050322108 0.08275577 -0.208267 -0.21808821 0.098131165 0.089801066 0.09910765 0.048363928 0.10753654 -0.012866061 0.047186904 0.08131998 -0.0016349651 0.028619498 -0.103542306 0.17960222 -0.05499725 0.032558534 -0.1518538 -0.06927597 0.035753373 -0.12284823 -0.04017025 0.11600601 -0.029402388 0.05084242 0.09578663 -0.041454446 0.16044097 -0.08732202 -0.062180884 -0.08676397 0.03846874 -0.09777982 0.17546022 0.07118751 0.07955891 -0.027577799 -0.08531995 -0.08691431 -0.037987825 -0.13372563 -0.0013335653 0.05739593 -0.011153948 -0.110681616 -0.017431036 -0.19422905 0.083819926 -0.04746764 0.019973084 0.06025128 0.05169504 -0.08580402
3 0.07755581 0.0002836082 0.11516324 0.10351347 -0.059271306 -0.1004666 -0.13276848 -0.12732245 -0.028320726 -0.18426414 -0.055460956 -0.038467314 0.13114832 0.017934838 0.038784806 -0.11550851 -0.09511662 -0.21556489 0.06443495 0.0043576397 -0.0033933748 0.019229868 0.1209968 -0.1341132 -0.053101465 -0.16711429 0.07107547 0.018943133 -0.036084477 -0.14473777 -0.022133298 0.051897533 -0.21212104 0.16582443 0.1211318 -0.02168632 -0.01546299 0.050171856 -0.0016878386 -0.005032279 -0.08384434 0.15181556 0.029407945 0.06575209 0.071283154 0.16343573 0.10005009 0.055583194 0.11832768 0.13633347 0.08712334 0.14502549 -0.10090791 -0.16783263 0.04433207 -0.060074586 0.16320854 0.24995863 -0.026304208 0.04230444 -0.043933306 0.046508335 -0.027809381 0.14072622 0.03735318 0.13658307 0.022361992 0.024791256 0.09141396 0.035898823 0.055677794 -0.0826731 0.1316744 -0.16700542 -0.0828441 0.12235571 -0.2099846 0.13928145 0.14402062 0.105009 0.051617764 0.1253678 0.16346298 -0.09679526 0.06005144 0.05790425 0.08885547 0.05995544 -0.054871455 -0.026087007 -0.02501888 -0.2033246 -0.11378566 -0.1824195 0.21922833 -0.14004408 -0.10288994 -0.005794007 -0.11437972 0.07552587 0.10358532 -0.13385694 -0.26898575 -0.010340897 -0.025520891 0.0004738561 0.12361425 -0.10028944 -0.11120209 0.10090866 0.0644402 -0.097340696 -0.1612832 -0.020135462 -0.13104284 -0.08933802 0.16295761 0.119337305 -0.1860238 -0.13200171 -0.11948261 0.06850859 0.12461205 -0.052402593 0.06250447 0.0882026 0.1356834 0.10038671
4 0.15660258 0.15111808 -0.032508064 -0.025162626 0.09478542 -0.11474241 -0.06288471 0.031133542 0.121385805 -0.019747356 0.014299774 -0.16500315 0.1366092 -0.054557763 0.06460582 0.011281337 0.02041514 -0.1704194 0.022356287 0.15741423 -0.15303186 0.16245852 -0.035240576 0.034261413 0.15654063 -0.21040311 0.10889027 -0.14247783 -0.1260103 -0.20526795 -0.12677032 0.1647137 -0.14512032 -0.12647767 0.113916926 0.03237067 0.114120334 0.1241811 0.1658734 -0.13444583 -0.023219442 0.14144213 0.18620653 0.074460275 0.1578927 -0.055722676 -0.14508145 0.124019444 0.12830563 0.14814739 0.014271773 0.022813307 -0.15855742 -0.015801586 -0.14262225 -0.21027069 -0.14374898 0.121041596 0.13627696 0.008327274 -0.16842824 -0.12875451 -0.17009556 -0.01931184 -0.03512149 0.19244364 0.124285236 0.25517693 0.11565136 0.06809475 0.01272591 0.12868151 -0.01662467 -0.19115435 0.03788226 -0.010820757 -0.018372286 -0.046159126 0.023140553 0.14232378 -0.037032545 0.07554899 -0.04199558 -0.077634305 -0.16197826 0.12735125 0.15870684 -0.018704219 0.043526158 0.15486434 -0.14075683 -0.20143501 0.004661706 -0.12111144 0.102389686 -0.0150083415 -0.12876742 0.0015852684 0.04052503 0.18167746 0.013498891 0.021900803 -0.008988471 0.009513113 0.030325904 -0.1496024 0.025790365 -0.16288157 0.08373953 -0.011791188 0.1273515 0.035198998 0.00065936253 -0.12209856 -0.105671585 -0.11837433 0.075123616 0.1652481 -0.17206742 0.04551644 -0.05558671 -0.10938467 -0.0030982804 -0.20384775 -0.029342024 -0.059992816 0.12781578 -0.12374648
5 0.15070623 0.186845 -0.026086185 -0.026404561 0.09024784 -0.10950526 -0.07081847 0.025046706 0.123325676 -0.012367746 0.0033283606 -0.1772606 0.16451323 -0.041001055 0.0597786 0.017226646 0.021882178 -0.1943183 0.023989333 0.17213337 -0.18409061 0.14937401 -0.030378325 0.039657127 0.1441476 -0.24126297 0.13487536 -0.16245937 -0.1330533 -0.24304532 -0.11296009 0.18790495 -0.18759461 -0.13221459 0.12223876 0.031421285 0.116553694 0.11884957 0.19006594 -0.1623948 -0.02087304 0.16620567 0.18791191 0.08710018 0.17607278 -0.0709327 -0.12972866 0.11912034 0.13176414 0.15157552 0.025217239 0.023022812 -0.17068537 -0.0141148465 -0.15071183 -0.20279251 -0.14618805 0.15177706 0.12720928 0.024474194 -0.19147016 -0.13007133 -0.15688968 -0.0476594 -0.042541016 0.21479604 0.12994453 0.24966921 0.1804234 0.100218765 0.016501553 0.12660958 4.3178763e-05 -0.19195165 0.049151115 -0.026681786 -0.02104286 -0.023755187 -0.0013480245 0.15543708 -0.015607404 0.06898835 -0.041977406 -0.087489955 -0.19250852 0.1346687 0.19516972 -0.019021496 0.054127812 0.12575226 -0.14128596 -0.22964062 -0.0022586277 -0.13595909 0.113156945 -0.01783101 -0.13844153 -7.752632e-05 0.04756196 0.22666138 -0.0015511493 0.02750033 -0.027861264 0.012224659 0.034186862 -0.14677611 0.008978339 -0.1606472 0.052344717 -0.011339109 0.1289881 0.032454427 -0.015202075 -0.12868522 -0.11771185 -0.13426365 0.13121569 0.17018001 -0.20091392 0.0413747 -0.057788458 -0.091885515 -0.025949122 -0.22092192 -0.02306223 -0.07192555 0.13506529 -0.123770826
6 0.053357754 -0.19143936 0.056327984 0.0767284 0.07688546 -0.058163043 -0.070011385 -0.09483965 0.0078093605 -0.16874447 0.13930288 -0.054332137 0.049642254 -0.19028188 0.11742485 -0.07395499 -0.13721542 -0.012779955 0.08017184 0.027806778 -0.05543519 0.05063087 0.08027865 -0.11453866 0.08122953 -0.046158556 0.04433766 0.022181187 -0.03555104 0.007214734 -0.08288121 0.049451657 0.049691014 -0.0067976285 0.012791717 -0.12867512 0.05134586 0.07497404 0.060341943 -0.07484792 -0.060735147 0.056553382 0.03307379 0.15024981 0.040305793 0.10100861 -0.09826596 0.055775158 0.016322399 0.026810475 0.24070416 0.121883966 -0.09406929 -0.0349252 0.012848494 0.011812186 -0.06880805 0.057032757 0.048176657 0.072784506 0.0003521404 -0.016971163 -0.06753391 0.09984789 -0.048536263 0.051755227 0.05993725 -0.05260082 0.008786061 0.06756643 0.088693425 0.086420424 0.17051513 -0.08618539 -0.090434484 0.10448013 -0.19356002 -0.14785074 0.122653484 0.10737319 0.12368955 0.0721156 0.12454903 -0.0074913856 -0.041326173 0.06090055 -0.004004091 0.069585524 -0.11235696 0.14830801 0.005936694 -0.09028778 -0.16372088 -0.07680617 0.0027803918 -0.15506676 -0.02134236 0.13301261 -0.08565189 0.046041768 0.12796848 -0.08732413 0.0031657913 -0.1206575 -0.0933288 -0.08508729 0.09114814 -0.07440704 0.1252592 0.090355136 0.029167537 -0.07687563 -0.07329029 -0.046934642 -0.03393706 -0.06758952 0.046637706 0.022707246 -0.008821324 -0.13407974 -0.087236755 -0.13193223 0.12861764 -0.040725138 0.059842303 0.10263722 0.015239706 -0.05202234
7 0.19124931 0.23779447 -0.048341118 -0.05825572 0.09915242 -0.13992913 -0.09096466 0.03771088 0.1505788 -0.01884237 0.034516107 -0.21558373 0.20190468 -0.08958162 0.076849 0.04039423 0.046390805 -0.20275567 0.024513828 0.21193156 -0.1739637 0.19343324 -0.0503203 0.05135148 0.15491436 -0.23479769 0.1738619 -0.1960897 -0.16329314 -0.22379102 -0.14651956 0.2121483 -0.23547189 -0.16579838 0.15310982 0.05353876 0.16276158 0.16909094 0.18674517 -0.14908761 -0.036562663 0.19539991 0.19188853 0.10730373 0.19812557 -0.09556659 -0.15917748 0.16604881 0.17398818 0.20304912 0.04319608 0.060272593 -0.20042047 -0.017056638 -0.1848341 -0.22211602 -0.17761388 0.12675086 0.17043343 0.022642588 -0.19603468 -0.15714027 -0.1808704 -0.056372665 -0.029955223 0.2231064 0.16022103 0.23456267 0.14778882 0.09337136 0.01625982 0.13131475 0.0011036983 -0.20097815 0.0633455 -0.042145938 -0.026735686 -0.05122362 0.010696564 0.18104482 -0.044291437 0.0763556 -0.05787451 -0.071150385 -0.16683829 0.15911932 0.2292214 -0.04699181 0.079437345 0.1533 -0.19344403 -0.18975851 -0.008609227 -0.16989455 0.11241748 0.0014129955 -0.19551185 -0.0008375299 0.07225021 0.22010402 -0.0017335493 0.046173763 -0.034678448 0.02433668 0.05813248 -0.1734539 -0.0008272465 -0.19660881 0.062920965 -0.009397577 0.18351872 0.059916552 -0.012351431 -0.16116238 -0.10957806 -0.16411936 0.118521385 0.19922975 -0.2402241 0.073410615 -0.04921397 -0.124492325 -0.024384163 -0.21047302 -0.04269528 -0.10270722 0.17373212 -0.1539698
8 0.03797766 -0.18807639 0.06670655 0.08085961 0.08575308 -0.035595495 -0.04340685 -0.120637335 0.011002386 -0.15100405 -0.023766477 -0.05860933 0.07581056 -0.11294084 0.11053999 -0.07564188 -0.1491382 -0.040783796 0.04823094 0.07598925 -0.14209881 0.034045983 0.08319809 -0.1321437 0.10219036 -0.045700386 0.049825057 0.021285128 -0.00012140425 -0.011781882 -0.06741537 0.06705116 0.08794367 -0.033102844 0.011722217 -0.10758788 0.05622949 0.0450203 0.13234149 -0.29741067 -0.06510094 0.067797616 0.06545297 0.039601833 0.038529117 0.06201204 -0.12203112 0.054740176 0.038013 0.044410445 0.22927974 0.1058715 -0.11843741 -0.039741702 -0.008516161 0.062070023 -0.066498704 0.10299928 0.023656571 0.1105033 -0.003238886 -0.016099645 -0.058214474 0.07264376 -0.086458266 0.13070785 0.041772947 0.03195997 0.047420938 0.13232528 0.17246981 0.07126751 0.09365554 -0.060446236 -0.064874336 0.09110785 -0.15912382 -0.10503869 0.08495268 0.13727334 0.09812969 0.023547012 0.10771992 -0.12167132 -0.18665783 0.06425608 0.07084728 0.07012454 -0.094745204 0.13833213 0.027488522 -0.23376013 -0.12708329 -0.06307616 0.07871926 -0.1418782 -0.04855732 0.1274804 -0.07168539 0.09625003 0.09640869 -0.109915055 0.18625475 -0.084092736 -0.1013584 -0.09015575 0.08711843 -0.08783083 0.03368238 0.10193294 0.037295498 -0.082239814 -0.01861936 -0.041094705 -0.0776202 -0.04122682 0.053951405 0.0051983255 -0.00041536833 -0.12870036 -0.08047991 -0.05482429 0.116596535 -0.065487 0.053404942 0.09529639 0.009496172 -0.0704301
9 0.036019284 -0.047626164 0.02449115 0.03327765 -0.042230573 -0.03326232 -0.11667902 -0.06938575 0.022802034 -0.18507373 0.15992436 -0.08188636 0.024286104 -0.16215397 0.10935259 -0.05907612 -0.023988692 -0.060514 0.038378812 0.082896754 -0.010245727 0.07284457 0.07627173 -0.074196026 0.119634375 -0.047739867 0.049325462 -0.027181644 -0.052512746 -0.12705702 -0.08943715 0.03537428 -0.03631285 -0.0238705 0.014793963 -0.11300622 0.0104856575 -0.0051063458 0.06306807 0.012166621 -0.08887191 0.06486107 0.059203617 0.13389738 0.033680163 0.09022183 -0.07623286 0.027403556 -0.046979517 0.050437793 0.1481285 0.045376007 -0.060375847 -0.04283233 -0.009219063 -0.16946846 -0.10120486 0.09336478 0.036635537 0.10267046 -0.07053424 -0.005892992 -0.10594936 0.0685848 -0.096822985 0.065189384 -0.004478148 0.11551942 0.090598226 0.10063947 0.09064374 0.067530885 0.14624034 -0.07308214 -0.060535293 0.08535846 -0.1576243 -0.07250393 0.107070215 0.015863342 0.10765363 0.14816095 0.10234694 -0.08073884 0.02246597 0.07565928 0.10579158 0.046539314 -0.12499528 0.13605416 -0.02087504 -0.0719235 -0.10274045 -0.025139036 0.12384764 -0.13076605 -0.017660204 0.12877537 -0.06340784 0.034082107 0.086641826 -0.037848406 -0.14695802 -0.012644336 -0.087397255 -0.047126364 0.075712346 -0.06792359 0.07923464 0.06164684 0.02946645 -0.057363153 -0.1081359 -0.06538475 -0.08585924 -0.035635218 0.041023403 0.0613604 -0.09600646 -0.08382542 -0.097751714 -0.061714873 0.125163 -0.076599814 0.036371756 0.048004903 0.031723645 -0.056082677
10 0.073682494 -0.19360076 0.046706095 0.052114867 0.15573554 -0.10414372 0.0044545373 -0.09014571 0.072055206 -0.10940507 0.0039075017 -0.0649349 0.10820619 -0.11186392 0.0735006 -0.056665998 -0.14688487 -0.06838463 0.03938937 0.072751455 -0.1249889 0.059132483 0.07017513 -0.09223039 0.11730626 -0.05933165 0.08595031 -0.031740367 -0.056150407 0.016493939 -0.09635625 0.09248593 0.06350355 -0.073251955 0.059760854 -0.09024916 0.08121371 0.10164604 0.1441903 -0.3114069 -0.038499158 0.07897625 0.06708993 -0.0053046364 0.07007626 0.04742548 -0.13765875 0.095932335 0.09991831 0.06062371 0.25386676 0.08107491 -0.1240877 -0.010783029 -0.054259423 0.061101306 -0.062743336 0.11803903 0.047991354 0.087269746 -0.031717356 -0.078304775 -0.050952975 0.066791624 -0.022809098 0.10690417 0.093425035 -0.05117335 -0.03975197 0.056447458 0.14147142 0.11345596 0.074002385 -0.07454255 -0.045989078 0.06862139 -0.13740672 -0.18409239 0.04039591 0.15470023 0.068328924 -0.028989559 0.079982504 -0.06653763 -0.2180687 0.08377309 0.0800473 0.051674474 -0.07086686 0.14517158 -0.026692217 -0.2306429 -0.114093594 -0.09562845 0.024361271 -0.10791439 -0.08020839 0.10871311 -0.059488885 0.085598655 0.080473855 -0.0863202 0.26270467 -0.08426316 -0.07626447 -0.12716332 0.05813782 -0.0900645 0.084963836 0.057766207 0.07265659 -0.059765264 0.01627999 -0.08014495 -0.03135551 -0.07535813 -0.025242051 0.053399075 -0.008276703 -0.10110619 -0.028305383 -0.091808 0.07482115 -0.055766977 0.038730256 0.08451319 0.058168437 -0.107552506
11 0.037130043 -0.16890274 0.057312228 0.07899362 0.059393175 -0.04419413 -0.080255814 -0.10126459 -0.0002151333 -0.16207094 0.1025194 -0.039172176 0.06052933 -0.1563186 0.13797893 -0.08229748 -0.1562749 -0.005476333 0.079139 0.028373078 -0.06351495 0.054358397 0.06912871 -0.12301514 0.08100733 -0.06590983 0.039707348 0.021816067 -0.028595636 -0.021457555 -0.05547275 0.044686794 0.07123968 0.014278971 -0.0061618015 -0.11182128 0.026046418 0.054467488 0.08100165 -0.10903029 -0.052879043 0.048366483 0.06972027 0.16069801 0.047578517 0.096752286 -0.11115717 0.045811586 0.02109668 0.03301044 0.16392475 0.124863885 -0.07140729 -0.052344665 0.019121997 0.00213056 -0.0558687 0.11147019 0.05025803 0.0803069 -0.0048860363 -0.022453409 -0.050045803 0.09422806 -0.07691778 0.053714793 0.031561803 -0.021130566 0.028951079 0.12753746 0.087502316 0.08233227 0.13132994 -0.118213125 -0.078295045 0.10517913 -0.14315113 -0.12295545 0.14284712 0.068908736 0.11510575 0.095868625 0.10571037 -0.06721169 -0.078467116 0.054329116 -0.004748246 0.077944405 -0.10481621 0.12452241 -0.017573161 -0.10747962 -0.1411541 -0.08861954 0.03938639 -0.1575945 -0.015918503 0.12842281 -0.07565763 0.0954693 0.12885283 -0.11576197 -0.0034440148 -0.107560314 -0.0839635 -0.079085775 0.092425905 -0.08873451 0.095358774 0.10871489 0.023833113 -0.083182335 -0.07751871 -0.038055133 -0.041365046 -0.05389617 0.05482257 -0.0007373434 -0.025503084 -0.106206566 -0.115126066 -0.083585985 0.1163984 -0.05759552 0.056619257 0.093765095 0.01171919 -0.035454363
12 0.022265581 -0.20478559 0.05620213 0.07055719 0.08623632 -0.05523083 -0.08316107 -0.101335995 0.011263153 -0.18545285 0.1614092 -0.03189971 0.059568062 -0.25290355 0.13032025 -0.07255372 -0.13152671 -0.015862815 0.06671857 0.03929739 -0.07088756 0.04736761 0.081122756 -0.12788649 0.11189878 -0.040041633 0.060820855 0.038215935 -0.04260181 0.003672522 -0.07284571 0.047011156 0.073249966 0.027636535 0.011318524 -0.14139643 0.031953327 0.059906628 0.080357 -0.063895546 -0.049088914 0.060951084 0.058551107 0.19501184 0.03566169 0.10278238 -0.113317735 0.0739422 0.021875905 0.047756787 0.26683655 0.113681085 -0.095654674 -0.0300909 0.027281549 0.0050744247 -0.059028666 -0.013122467 0.042141676 0.08629907 0.017676417 -0.02506824 -0.06772399 0.091992505 -0.041090526 0.037543282 0.04379046 -0.054054666 -0.013732855 0.100050636 0.111660905 0.112432614 0.16485137 -0.10978832 -0.08508415 0.10587137 -0.20971784 -0.14371148 0.11990943 0.092848144 0.13212322 0.07629724 0.14621451 -0.043709707 0.022295237 0.050718766 -0.014839599 0.0686099 -0.1111339 0.17518494 -0.0024002418 -0.102833964 -0.18145072 -0.06951392 0.032212123 -0.15586182 -0.016514963 0.13397813 -0.08329342 0.073915705 0.12436456 -0.08373775 0.0014433371 -0.10917418 -0.081942864 -0.07702353 0.08417154 -0.07333918 0.120552786 0.11011215 0.031337954 -0.08314875 -0.0711519 -0.05245621 -0.036184814 -0.08163333 0.040403385 0.01932584 -0.0069656046 -0.14243118 -0.081905626 -0.12843578 0.12522696 -0.039068457 0.05433466 0.110667475 0.018113304 -0.060427807
13 0.07480053 -0.11977997 0.045201145 0.05055587 0.117570445 -0.0917837 -0.038441937 -0.06600365 0.050664358 -0.12294608 0.07359402 -0.080282815 0.070365585 -0.13875084 0.069646016 -0.0625256 -0.10232303 -0.022039399 0.064608485 0.07957502 -0.05046004 0.07821351 0.0549331 -0.063042805 0.092166305 -0.06190814 0.1013343 -0.012677396 -0.09091607 -0.031154757 -0.098648176 0.07152262 -0.036548436 -0.020653866 0.074287325 -0.077940956 0.08196372 0.096881025 0.060983073 -0.026602384 -0.024196515 0.06383143 0.042404514 0.085875064 0.07818073 0.081364155 -0.11927092 0.080131486 0.061054047 0.090782896 0.120149545 0.04728442 -0.09912889 -0.038968302 -0.03410978 -0.015290533 -0.10199192 -0.09495765 0.10789279 0.06381172 -0.029142853 -0.0679807 -0.08977172 0.07927109 -0.028294116 -0.0017860048 0.106037974 -0.015467219 -0.025177203 0.0073209684 0.079665996 0.101668335 0.10614156 -0.093466505 -0.07573469 0.07917239 -0.15153398 -0.13734391 0.08712249 0.1022335 0.06737959 0.037744157 0.09791518 0.0018945142 -0.005067568 0.081658594 0.024769278 0.05323983 -0.08004179 0.098945655 -0.076124035 -0.026954178 -0.09871647 -0.09759484 0.052496877 -0.085995354 -0.08214451 0.10251763 -0.049897533 0.06409674 0.09857101 -0.068982445 0.065750234 -0.10269828 -0.049065173 -0.09927684 0.07365106 -0.092235066 0.10689679 0.060234565 0.0955867 -0.055666998 -0.06776505 -0.0685954 0.007197606 -0.12260067 0.026660062 0.035034925 -0.04963239 -0.08162114 -0.036521647 -0.1323223 0.07865087 -0.07958998 0.03546203 0.054185104 0.06368859 -0.094471104
14 0.06807287 -0.10654906 0.052076235 0.05937609 0.0026125845 -0.03278312 -0.11193368 -0.06752915 0.001513838 -0.15762438 0.13532534 -0.04295053 0.047219936 -0.18345033 0.1692023 -0.061883494 -0.07243636 -0.02939625 0.08147432 0.06399701 -0.030479683 0.049471147 0.054699454 -0.09564173 0.09277565 -0.07625824 0.01721071 0.0015467557 -0.033563204 -0.10814526 -0.050074365 0.036145475 0.013754575 -0.014629882 0.0053234305 -0.097142935 0.012657769 0.027689751 0.08255261 -0.023832504 -0.07010375 0.059985332 0.10197098 0.16251482 0.047878906 0.080337524 -0.070535146 0.026873827 -0.009092318 0.043463025 0.17108737 0.09383473 -0.07242581 -0.06125155 0.018108524 -0.09978389 -0.07215571 0.09631183 0.044659004 0.06584398 -0.013654523 -0.010028634 -0.070863 0.078858994 -0.08757399 0.06715328 0.01753727 0.08949649 0.060817763 0.077810876 0.119980894 0.06488614 0.13776788 -0.112883374 -0.06770985 0.08585542 -0.17911473 -0.08981446 0.11870058 0.059394814 0.08418441 0.13631296 0.09505102 -0.08039024 0.0006433261 0.026629502 0.025206646 0.051796306 -0.08617525 0.13859732 -0.022451509 -0.058996864 -0.12902832 -0.05024748 0.10274143 -0.11807897 -0.019197937 0.12705381 -0.054256983 0.09110374 0.10170932 -0.06563437 -0.06867714 -0.06864327 -0.060504396 -0.07891474 0.066670544 -0.060943943 0.061515156 0.06718971 0.03644985 -0.06663415 -0.084229425 -0.025008762 -0.10131614 -0.04391422 0.058518764 0.027646758 -0.07396425 -0.07459433 -0.07316337 -0.07558395 0.12556423 -0.08323588 0.05381301 0.07202712 0.01826099 -0.01582135
15 0.06858313 -0.18026549 0.028463777 0.029288583 0.1716005 -0.092201404 0.0068109124 -0.073245555 0.050446328 -0.14054154 0.07740756 -0.057477172 0.11400312 -0.19110465 0.10199845 -0.045171976 -0.1508842 -0.07586303 0.012831183 0.073703974 -0.1441037 0.07987106 0.057885215 -0.09273338 0.141522 -0.01730266 0.09675798 -0.025964314 -0.058628216 0.060884513 -0.111856274 0.0739315 0.11000648 -0.0544596 0.05258658 -0.103848375 0.08173782 0.107134834 0.14077814 -0.32948813 -0.011562579 0.08211308 0.08909884 0.09434468 0.07546363 0.003893655 -0.16887043 0.111419976 0.08276159 0.055820517 0.3215176 0.118692935 -0.15377429 0.02763142 -0.022667352 0.05699538 -0.08136819 0.06866799 0.062224735 0.07732285 -0.009022427 -0.059667014 -0.08637771 0.04149105 -0.0064378614 0.109264135 0.10755599 -0.07713052 -0.06289098 0.07849958 0.14974387 0.13976398 0.105058074 -0.0652538 -0.035484377 0.04523473 -0.18532091 -0.19748372 0.039497264 0.18582374 0.053421002 -0.034347758 0.0767286 -0.050302234 -0.24401982 0.09202852 0.06432095 0.0137254 -0.06274129 0.19304137 -0.019546302 -0.19546095 -0.15088032 -0.09987844 -0.0046585114 -0.11783581 -0.07588525 0.108626895 -0.04512635 0.06088513 0.079893686 -0.065338515 0.27885446 -0.071353935 -0.04265526 -0.1561053 0.027323572 -0.12149196 0.112646624 0.06405272 0.076460615 -0.030714264 0.03376067 -0.08558468 -0.04740999 -0.083855346 -0.05500744 0.044429284 0.015602007 -0.08610127 -0.012499763 -0.1287591 0.06882599 -0.029814998 0.009530776 0.05535319 0.05317648 -0.12874052
16 0.057694897 -0.2019241 0.04767613 0.064690456 0.16412906 -0.05700459 0.009623379 -0.10461816 0.03566113 -0.14036179 0.0085176425 -0.0683583 0.10994178 -0.09699548 0.11093466 -0.06560685 -0.18205746 -0.0734229 0.036503024 0.06949159 -0.13784 0.039843213 0.07017319 -0.12485049 0.120844126 -0.06256064 0.06643074 -0.024390548 -0.024808617 0.00250581 -0.08776973 0.07175427 0.10470425 -0.08396929 0.05314091 -0.123186275 0.07844018 0.100867696 0.16962343 -0.30595103 -0.054118942 0.09304801 0.09973536 0.037092175 0.08179754 0.020644277 -0.15541837 0.0928964 0.09190387 0.048833545 0.26148853 0.08693938 -0.13587537 0.017316815 -0.04134983 0.037822623 -0.06613514 0.12615559 0.020122249 0.09791108 -0.03483302 -0.04227787 -0.063437305 0.05596029 -0.016891446 0.11331772 0.08623808 0.013923172 -0.012345365 0.11893714 0.19572297 0.08791748 0.06720719 -0.072380506 -0.037757475 0.07145502 -0.16982913 -0.16548829 0.03375206 0.17665437 0.080689654 -0.054932907 0.09302966 -0.10997707 -0.21117331 0.05797695 0.084705755 0.034926616 -0.071752444 0.13719137 0.0031430698 -0.22859989 -0.13942114 -0.076165184 0.06611056 -0.13639306 -0.07072934 0.124613576 -0.068909794 0.10990255 0.08652055 -0.096890755 0.3348139 -0.09496568 -0.08651361 -0.14020868 0.052705448 -0.10074566 0.04395519 0.067419596 0.05807835 -0.07090132 0.032058977 -0.050901063 -0.10036035 -0.041248497 -0.034526847 0.0128160585 -0.010994508 -0.12788963 -0.031385753 -0.08048105 0.09498634 -0.04686213 0.03902156 0.07453089 0.039452992 -0.09673534
17 0.047257017 -0.07600537 0.0734998 0.068599 -0.033438932 -0.065526105 -0.15790522 -0.09154003 0.023976186 -0.17863268 0.15367058 -0.048353776 -0.05920106 -0.13823916 0.17263675 -0.12634063 -0.10878431 -0.054334 0.11112418 -0.023995887 0.028056486 -0.044501245 0.12732008 -0.13676153 0.11207822 0.0024943035 0.046159312 -0.11900019 -0.06506759 0.046296846 -0.12250981 -0.037767686 -0.0087396875 0.1453661 0.045238137 -0.17111817 0.051629957 -0.06859063 0.016620746 -0.14304091 -0.13441452 0.09482866 0.09095849 0.0825066 -0.09583226 0.15125152 -0.036547802 -0.008145195 -0.048465453 0.034463927 0.11549864 0.077708066 0.05945697 -0.13244694 0.002681607 -0.121663846 -0.09488353 0.19430643 0.040766668 0.014184838 -0.1000555 0.00092685566 -0.106035 0.13175003 -0.19802271 -0.041676678 -0.02430221 -0.07967743 0.089956105 0.12995422 0.1482956 0.12588926 0.1806669 0.068460554 -0.1209506 0.16740553 -0.1840569 -0.15328883 0.2112722 0.05936433 0.12667994 0.15558967 0.14127101 -0.037521664 0.08563608 0.032067306 0.20532598 0.086789496 -0.20723632 0.051866885 -0.12931284 -0.026005218 -0.17797165 -0.011818292 0.2317817 -0.15204133 -0.099363185 0.16912119 -0.11510878 0.015533226 0.12977065 -0.086870424 -0.2898288 -0.08685349 -0.14582758 0.053180132 0.11438782 0.03131155 0.035621893 0.12800631 -0.013350176 -0.071784124 -0.12334046 -0.06249378 -0.043782238 0.026836352 0.06762856 0.095959395 -0.06486257 -0.13831255 -0.07415303 -0.18345946 0.19692841 -0.038986742 0.07186591 0.118157245 0.038824633 -0.0013754873
18 0.16585818 0.20260316 -0.033259198 -0.032571413 0.07497422 -0.09469031 -0.08735966 0.02706881 0.1092141 -0.009332925 0.016102802 -0.20072094 0.19055547 -0.103139095 0.07581049 0.018559298 0.026024783 -0.19720124 0.045142632 0.17901163 -0.1690115 0.17321923 -0.046233572 0.052528385 0.15203989 -0.23331153 0.1336787 -0.16588289 -0.110506505 -0.21938105 -0.12454753 0.20119631 -0.17820808 -0.12725627 0.112997204 0.05515756 0.11414837 0.13615996 0.18744828 -0.13377383 -0.050447345 0.17432511 0.1767015 0.08982493 0.16649733 -0.074388444 -0.14527844 0.1280879 0.14660767 0.16921891 0.06862457 0.0210261 -0.19671938 -0.03349033 -0.165851 -0.21459475 -0.1711956 0.19918787 0.13711622 0.021389928 -0.2185839 -0.11905451 -0.18290947 -0.04118886 -0.030110065 0.23571023 0.11769582 0.2084509 0.16022994 0.087962285 0.00961835 0.1180302 -0.020122461 -0.20235123 0.048654612 -0.041997187 -0.023610331 -0.028713396 0.00074730586 0.16299696 -0.04646585 0.08876443 -0.05500899 -0.08155239 -0.17749096 0.14831129 0.21039988 -0.0259768 0.07469505 0.14603838 -0.14256403 -0.22743957 0.011126961 -0.15659113 0.14040574 0.011589534 -0.14422883 -0.0012873122 0.06120906 0.22368139 0.0049927337 0.023878096 -0.045270104 0.01002356 0.04312546 -0.1488344 0.018446643 -0.16761819 0.040085535 -0.019524008 0.14292589 0.026479397 -0.03570531 -0.13533674 -0.12682557 -0.13065681 0.1141533 0.16592029 -0.217287 0.069944896 -0.060242783 -0.08786949 -0.025614997 -0.223834 -0.0211243 -0.082635045 0.1348584 -0.1329384
19 0.069340676 -0.21733382 0.045752533 0.060607836 0.15342848 -0.10083002 0.0026008857 -0.10143121 0.045092784 -0.12591149 0.017709458 -0.054800723 0.11134642 -0.1109174 0.084910415 -0.07060513 -0.18070556 -0.06274542 0.038581867 0.057971276 -0.13098615 0.055647485 0.07925767 -0.10213108 0.09306775 -0.040615547 0.08677632 -0.030796297 -0.049066406 0.030895371 -0.086941555 0.09974562 0.07891341 -0.057243917 0.04686085 -0.11734378 0.09009359 0.10394106 0.13148293 -0.29549137 -0.028478915 0.07777804 0.06954134 0.049927656 0.07955566 0.049031768 -0.12399721 0.10403549 0.090171635 0.0651037 0.22102049 0.1083193 -0.118604496 -0.006833097 -0.035717543 0.05847312 -0.07296109 0.103573665 0.04590643 0.07871243 -0.020356212 -0.055494305 -0.05442227 0.06550156 -0.018127916 0.11266668 0.099304445 -0.054305665 -0.03312042 0.055856034 0.14158076 0.11160938 0.09597489 -0.0601836 -0.05755104 0.079918556 -0.16659644 -0.17880891 0.059873756 0.15599126 0.08370482 -0.025911966 0.10229233 -0.073214956 -0.19873458 0.073222466 0.06022383 0.045658164 -0.08899939 0.117985144 -0.012301059 -0.18712743 -0.13772005 -0.08943816 0.021708624 -0.12296044 -0.07629784 0.12552239 -0.059054773 0.07622857 0.09524171 -0.096842036 0.24851693 -0.11040306 -0.069578335 -0.11424915 0.066644415 -0.10172253 0.06439833 0.08043844 0.06267613 -0.05969901 0.005620652 -0.06571295 -0.050901067 -0.07721181 -0.014320077 0.034603134 0.002657369 -0.11148541 -0.033424914 -0.090428874 0.10255492 -0.041086204 0.039239023 0.08994231 0.051699057 -0.09476597
20 0.07261337 -0.19110912 0.06837046 0.062192887 0.14363581 -0.07708365 0.00716533 -0.11505547 0.018556036 -0.117220394 -0.020603709 -0.03901512 0.123624824 -0.12394831 0.101196595 -0.07868091 -0.1569855 -0.07599816 0.044509593 0.065828 -0.15115818 0.038298514 0.0850211 -0.12295428 0.09301525 -0.050462004 0.054019924 -0.060391203 -0.02048338 -0.002931915 -0.06976454 0.07638838 0.08246709 -0.07851774 0.024811339 -0.12763488 0.07247791 0.09529633 0.12886828 -0.27451566 -0.044377197 0.10379101 0.08396426 0.052938756 0.087303005 0.042295117 -0.11951624 0.0888119 0.09227359 0.032890763 0.22576399 0.07908402 -0.115008995 -0.00097538915 -0.0221249 0.0197096 -0.080049075 0.112139985 0.045123894 0.10563434 0.0014308683 -0.029545935 -0.05281107 0.07216242 -0.042616293 0.12126625 0.08476981 0.025057161 -0.0052320734 0.113164425 0.17431824 0.07821377 0.07519288 -0.06161066 -0.06265291 0.07816581 -0.13993664 -0.16284278 0.051998146 0.14530395 0.07739826 -0.018437548 0.089897394 -0.11079629 -0.2150658 0.056317527 0.09353079 0.04907214 -0.08734888 0.13301249 -0.021601746 -0.23089954 -0.1210287 -0.0918871 0.0822246 -0.12865165 -0.067895874 0.09080367 -0.07777754 0.08839121 0.08317897 -0.118631326 0.28078485 -0.09205918 -0.07113545 -0.11990125 0.08987057 -0.10275506 0.037031107 0.08012668 0.03908452 -0.06787081 0.03163493 -0.043546554 -0.093340896 -0.038641885 -0.013080162 0.009683532 -0.020724127 -0.11546983 -0.04871127 -0.06379748 0.088318944 -0.043216825 0.046995655 0.091940515 0.030572366 -0.07277273
21 0.04001315 -0.20068437 0.048034865 0.046753574 0.13125633 -0.0704182 -0.0033701956 -0.090707466 0.017933084 -0.15840365 0.02100732 -0.058631167 0.111670814 -0.14951204 0.10979872 -0.06117143 -0.14692053 -0.071582675 0.04029642 0.09930042 -0.13805617 0.042525418 0.06964213 -0.12076041 0.13469228 -0.043418013 0.052036334 -0.012923663 -0.040125538 0.018648554 -0.091076985 0.06612721 0.07772224 -0.05676009 0.015238224 -0.11959886 0.062240258 0.08464034 0.15806876 -0.3275265 -0.047614273 0.09950069 0.12361788 0.06162903 0.06971639 0.03313073 -0.12975337 0.0813187 0.06423521 0.03760953 0.24273236 0.10580959 -0.12999476 0.0055497945 -0.0035703515 0.019986019 -0.07895229 0.0958783 0.038746834 0.08589425 -0.006803569 -0.03106704 -0.06337181 0.069244966 -0.04516967 0.12539244 0.065881155 -0.03363639 -0.015604046 0.10312027 0.16125521 0.09603066 0.096683204 -0.06366341 -0.04866468 0.060482096 -0.18583348 -0.16739272 0.048498414 0.13992554 0.059341624 -0.013177561 0.07715379 -0.093109034 -0.25916472 0.06860893 0.09705806 0.0346473 -0.07830901 0.1576339 -0.012039655 -0.23529254 -0.17046434 -0.08319845 0.024537258 -0.117029995 -0.05569482 0.09368593 -0.0606877 0.086914964 0.075716764 -0.073599204 0.24014792 -0.07575698 -0.072397895 -0.107142314 0.063110806 -0.10802801 0.06521888 0.06591523 0.045970235 -0.058179192 0.014427213 -0.05768352 -0.07500836 -0.06682398 -0.009242666 0.030382229 -0.015043964 -0.103603415 -0.03957582 -0.07954208 0.101387724 -0.023186138 0.035027757 0.070787236 0.025713632 -0.09294358
22 0.059639677 -0.16630794 0.06197099 0.0692614 0.14787224 -0.048022803 -0.002366212 -0.10842081 0.006395309 -0.10238883 -0.026305018 -0.06778452 0.12424054 -0.08253307 0.11743968 -0.07426102 -0.16242348 -0.08452441 0.04596113 0.06577501 -0.15725788 0.049885977 0.06269248 -0.103856094 0.09333824 -0.082808726 0.08317908 -0.012567378 0.0018638098 -0.025308913 -0.059350435 0.10485661 0.10218781 -0.06304051 0.024014913 -0.08013911 0.06990547 0.086049065 0.16638571 -0.28790015 -0.05438011 0.098624416 0.07522344 0.04230691 0.061495163 0.028312592 -0.14049429 0.070749596 0.07569137 0.037471287 0.21385968 0.09317799 -0.13810383 -0.01958948 -0.033271603 0.046004318 -0.052304797 0.17243691 0.029308934 0.13198763 -0.04711697 -0.047418874 -0.049853392 0.06140624 -0.04998597 0.1534119 0.07773414 -0.02220005 0.020657042 0.13841991 0.17422314 0.07495833 0.04838207 -0.09595691 -0.034246784 0.055564165 -0.13195002 -0.11679124 0.047911227 0.1481551 0.054798506 -0.02300012 0.05963316 -0.11540068 -0.25562102 0.0673424 0.109472156 0.0610573 -0.06411715 0.11063176 0.022270849 -0.22759046 -0.0932423 -0.09906945 0.11369286 -0.09016149 -0.07137988 0.107785635 -0.063258566 0.119720966 0.07389285 -0.10391978 0.23665273 -0.085056886 -0.080491476 -0.13967595 0.080617175 -0.097556114 0.007854468 0.06825122 0.053712584 -0.073795125 0.02657376 -0.040644128 -0.10600876 -0.034163445 0.008767889 0.021140192 -0.027098712 -0.10093229 -0.08786781 -0.02645543 0.061641227 -0.072613224 0.043733742 0.065250024 0.024433928 -0.08749354
23 0.06152536 0.026303267 0.053105615 0.060670927 0.036502015 -0.029921679 -0.0652764 -0.053382605 0.033522345 -0.035885476 -0.03293708 -0.08036388 0.10195413 -0.049853746 0.04222534 -0.05327184 -0.079403795 -0.07999679 0.072014354 0.07731943 -0.116415285 0.066322975 0.04222667 -0.045565914 0.06793215 -0.14046517 0.06281315 -0.062292006 -0.0394628 -0.078848116 -0.02147781 0.10608471 -0.06599336 -0.050957117 0.038171522 -0.052426353 0.054490708 0.07627997 0.1030672 -0.10706991 -0.04736883 0.07116939 0.08179767 0.09658398 0.08517333 0.022582928 -0.09202409 0.07184068 0.08635251 0.08506827 0.038740814 0.06766262 -0.09034411 -0.10076999 -0.07414687 -0.062757485 -0.088254 0.088330396 0.05878416 0.06405784 -0.10199656 -0.060883753 -0.07876364 0.033045396 -0.053935587 0.12362555 0.07029734 0.082091905 0.11579423 0.08347003 0.017701492 0.056875654 0.038033225 -0.10380906 -0.03417266 0.054067682 -0.0026000931 -0.009087792 0.06771101 0.096981265 0.08258079 0.07733897 0.037812322 -0.09063299 -0.09383485 0.09232881 0.08105104 0.059663136 -0.03538917 0.03459545 -0.048107497 -0.11876793 -0.06870667 -0.07608467 0.06802911 -0.08600518 -0.06334584 0.052469708 -0.036050353 0.103824005 0.057791285 -0.05388088 -0.05866131 -0.06185777 -0.045180883 -0.07844273 0.08478003 -0.10284473 -0.004912686 0.06060333 0.054690547 -0.05052319 -0.06755773 -0.06677779 -0.052026164 -0.071133055 0.13726552 0.07191687 -0.08392524 -0.056428123 -0.10784042 -0.047264818 0.03828843 -0.121741205 0.061539836 0.01700413 0.06493525 -0.0839303
24 0.0069260956 -0.10994546 0.057165414 0.092043124 -0.11136311 -0.022984225 -0.19040374 -0.12961182 -0.0015627863 -0.26705655 0.27882838 -0.12199578 -0.0014873552 -0.20651329 0.14867209 -0.099343866 -0.043075845 -0.03772871 0.06479841 0.06842761 0.055207055 0.036456954 0.12300404 -0.14136541 0.16109909 -0.017898882 0.040635142 -0.0066296062 -0.043938607 -0.11672949 -0.089064725 0.018433135 0.017335938 -0.065622725 -0.020126559 -0.15022245 -0.009481748 -0.031266745 0.032704066 0.15589534 -0.13643631 0.046011772 0.020568797 0.1473496 0.01141757 0.16920143 -0.02325637 0.020872932 -0.13377738 0.05583708 0.123646356 0.09653774 -0.03659041 -0.07123231 0.027700214 -0.24265523 -0.08490702 0.19997047 0.018528221 0.11295876 -0.1439475 0.023063865 -0.087354705 0.11631607 -0.108723365 0.03735853 -0.027347436 0.13238901 0.09668096 0.110090174 0.11110983 0.08536683 0.22935583 -0.026748538 -0.113451794 0.13698092 -0.17634316 -0.07607662 0.15129294 -0.02141102 0.1528701 0.19572447 0.17386901 -0.056389645 0.15802363 0.10110221 0.16361514 0.09923925 -0.21163456 0.07007593 -0.001861351 -0.025650902 -0.12667467 0.0044879294 0.07201948 -0.23292808 -0.0029846854 0.20301892 -0.107147485 0.011933413 0.14073761 -0.0727135 -0.35533315 -0.018119099 -0.15472466 -0.045161154 0.113311015 -0.051821005 0.060241934 0.10644583 -0.0034703524 -0.0842584 -0.13594127 -0.067317344 -0.09689033 0.008287745 0.009939185 0.10255862 -0.07528375 -0.100655794 -0.10420116 -0.08696868 0.1964088 -0.05715161 0.08966727 0.12776095 0.010234543 -0.07619599
25 0.1634668 0.23840283 -0.038291622 -0.03720221 0.06266235 -0.11510186 -0.10403714 0.027517254 0.13176754 -0.027882079 0.029294048 -0.17876445 0.1742539 -0.092624836 0.05007632 0.040106162 0.052598245 -0.19590554 0.036867067 0.16629517 -0.17396925 0.19068049 -0.047021545 0.022910256 0.1455566 -0.2188505 0.13316476 -0.1750686 -0.13366967 -0.26067406 -0.11260994 0.18018462 -0.20875302 -0.12745151 0.12599932 0.04380199 0.12770912 0.149497 0.1934849 -0.10608591 -0.045823257 0.17709142 0.20870198 0.10730013 0.19072448 -0.0837478 -0.14650308 0.12520193 0.1281739 0.18820372 0.035251256 0.036229167 -0.17758542 -0.032634463 -0.17524889 -0.20976757 -0.15347414 0.15799916 0.1590521 0.025790658 -0.20038089 -0.13824484 -0.1819936 -0.059146717 -0.05549781 0.17099938 0.12514643 0.2458424 0.16662125 0.096595235 -0.0037373635 0.12166646 0.025904529 -0.19523646 0.065702 -0.012780594 -0.024127267 -0.010255056 0.0045215604 0.13792752 -0.0138090495 0.09280067 -0.037139732 -0.09048864 -0.16427682 0.17298228 0.20436376 -0.027238594 0.078145556 0.12795556 -0.14823738 -0.15663724 -0.030636579 -0.17199504 0.12046906 -0.01555287 -0.16566816 0.011131395 0.055542283 0.18423064 0.008858895 0.050890453 -0.07532068 0.017809298 0.03934703 -0.1596026 0.0031896452 -0.18361217 0.056074508 0.016404428 0.14480636 0.047604255 -0.060138945 -0.14620602 -0.14552078 -0.1401482 0.1362647 0.19359761 -0.22411653 0.048214544 -0.07318507 -0.08627681 -0.025131518 -0.21177696 -0.020205563 -0.097907074 0.15544687 -0.12842827
26 0.045198992 -0.1869675 0.05727887 0.06990071 0.08013044 -0.052545507 -0.030204207 -0.09847287 0.05016432 -0.09509012 -0.002493565 -0.04992137 0.06806637 -0.107095554 0.09589854 -0.072966196 -0.14407578 -0.051414616 0.05706373 0.095549226 -0.08050691 0.0738563 0.10195889 -0.09895161 0.098395064 -0.04881164 0.038482588 0.007271406 -0.061525743 -0.073879525 -0.058880627 0.06452969 0.015588944 0.0079793865 0.037435334 -0.1198897 0.051715348 0.049543064 0.07812722 -0.1028316 -0.047590874 0.052911926 0.08187395 0.08477382 0.085758805 0.07931755 -0.11855307 0.05485903 0.045089494 0.055976164 0.102551974 0.08262218 -0.08415012 -0.049770724 -0.012420189 -0.057316598 -0.108781695 -0.14790732 0.057218775 0.09797491 -0.03866528 -0.050810076 -0.119840965 0.072480775 -0.07704464 0.022120984 0.043708146 0.03699034 0.018225923 0.036031745 0.13109481 0.0938753 0.11027986 -0.12454091 -0.07301683 0.09059386 -0.12007695 -0.08805523 0.10021945 0.09348964 0.12759893 0.026068944 0.11512892 -0.06069247 -0.04095584 0.0867774 0.03614963 0.06836275 -0.1167616 0.086762466 -0.037961047 -0.067473345 -0.14376014 -0.07999452 0.061746605 -0.11825355 -0.037090205 0.108640425 -0.082477756 0.077014156 0.09750339 -0.07679819 0.138791 -0.10710882 -0.07715663 -0.081922956 0.07619891 -0.10629396 0.057341523 0.10175485 0.049701393 -0.07419596 -0.073421314 -0.073406585 -0.029724682 -0.09623622 0.07314781 0.054310985 -0.032168716 -0.13016123 -0.06345909 -0.08506287 0.10547252 -0.0673641 0.07049536 0.08671701 0.051592175 -0.06384418
27 0.15270345 0.1944421 -0.02988335 -0.01976692 0.0545953 -0.09662123 -0.08381242 0.011992495 0.11587792 0.0020990444 0.0116546955 -0.16553369 0.14885567 -0.08174265 0.07457758 0.012576845 0.034102578 -0.17533918 0.023742076 0.19073725 -0.17359337 0.16218776 -0.014709003 0.02629036 0.16316733 -0.20495312 0.104279645 -0.15733072 -0.10596714 -0.23922451 -0.10270426 0.16289863 -0.17717792 -0.12046596 0.10516045 0.010385649 0.09851673 0.11163747 0.17863941 -0.14193405 -0.051524397 0.16104856 0.18158522 0.106512465 0.1742898 -0.06103445 -0.12943405 0.11444981 0.11124422 0.14535385 0.041717574 0.031918958 -0.14788713 -0.030580662 -0.14663227 -0.2243132 -0.14898893 0.0969622 0.12567137 0.02465777 -0.17670661 -0.10539379 -0.17139883 -0.032693613 -0.0672521 0.1837096 0.101810135 0.2950869 0.16999248 0.09161965 0.022787027 0.108402245 -0.00039725096 -0.17511208 0.035841953 -0.02886945 0.004511006 -0.04077724 0.0074631856 0.12931211 0.0018210288 0.06969167 -0.044512082 -0.10517548 -0.1483177 0.12593062 0.19986627 -0.007911109 0.052368335 0.13961193 -0.1364959 -0.15945211 -0.013904131 -0.12992272 0.11363796 -0.0020830077 -0.11778622 0.010548386 0.043463554 0.1881796 -0.011971434 0.022727173 -0.050806418 0.018091947 0.032242622 -0.14474837 0.015285157 -0.15129183 0.03415163 0.016553553 0.121249355 0.021771437 -0.023989579 -0.10456498 -0.117401294 -0.12016284 0.10976278 0.15501364 -0.20676531 0.030163005 -0.05480024 -0.09189652 -0.026077837 -0.2052736 0.0018221893 -0.07093915 0.13292666 -0.10686734
28 0.12737516 0.044858556 0.14512087 0.13165103 -0.0243448 -0.12080969 -0.17709698 -0.17529991 -0.012287543 -0.19123696 -0.014573993 -0.0070712087 0.07227828 0.04792806 -0.012345128 -0.1196438 -0.111034915 -0.18687592 0.049227923 0.008831831 0.023679366 0.0012606748 0.1461299 -0.12662624 -0.03571003 -0.15594317 0.099108964 0.047923476 -0.082496114 -0.14789696 -0.05050618 0.06038385 -0.23138559 0.16119954 0.15907462 -0.018471269 0.0030701584 0.023930037 0.008736293 -0.0029342452 -0.08547225 0.10441475 0.028120367 0.06249177 0.09929509 0.1786909 0.10541321 0.045771845 0.09415672 0.11029064 0.09277116 0.17156269 -0.11216387 -0.1959936 0.06974663 -0.04672004 0.13328485 0.1897823 -0.016339904 0.038070668 -0.04167268 0.053504627 -0.06420308 0.18862441 0.07694551 0.054879785 0.01824611 0.040286116 0.07194723 0.030012188 0.05634136 -0.031876504 0.13372192 -0.15810877 -0.06870125 0.17136885 -0.18377951 0.10887191 0.17675854 0.11951387 0.052234035 0.103495225 0.1690687 -0.03783418 0.043092106 0.074561276 0.11547829 0.091446616 -0.04465984 -0.0469586 -0.05779706 -0.12865706 -0.14054213 -0.13751091 0.208135 -0.12396055 -0.065725885 -0.06933058 -0.14580333 0.05558585 0.098169655 -0.14502992 -0.28234416 0.020193256 -0.017150177 -0.020311143 0.1070651 -0.1177813 -0.093880385 0.10145225 0.09242071 -0.10877484 -0.21672909 -0.04436609 -0.15110944 -0.12061403 0.121364884 0.11219691 -0.17649008 -0.12478724 -0.12441004 0.059850615 0.16477513 -0.024706962 0.07621407 0.12833223 0.15189824 0.079489954
29 0.12961099 0.1924347 -0.008085257 -0.0046942323 0.052454405 -0.09226088 -0.0844638 0.011190016 0.1058229 -0.011637111 0.004791894 -0.16167963 0.1605796 -0.09308155 0.06217669 0.0046465164 0.03152438 -0.1865507 0.05321021 0.17215657 -0.14555463 0.13797489 -0.022421556 0.03950433 0.138169 -0.20678322 0.09520788 -0.1549875 -0.094178624 -0.21310395 -0.09262022 0.15949662 -0.16657071 -0.110610016 0.085620485 0.028337678 0.092936 0.09684995 0.18324062 -0.12457884 -0.05581593 0.13586122 0.1599161 0.109290026 0.15313599 -0.04608013 -0.10858316 0.10641124 0.11943032 0.14614552 0.06753205 0.028290853 -0.14932601 -0.047527917 -0.14371647 -0.18056801 -0.13282922 0.17948946 0.106692284 0.068590775 -0.17151082 -0.08627167 -0.14013655 -0.03293877 -0.066934645 0.20855388 0.08931934 0.22973658 0.15442728 0.13802971 0.016074877 0.08342935 -0.00024238454 -0.1803868 0.045667488 -0.029905297 -0.010681349 -0.00861434 0.024027098 0.13830923 0.0027157448 0.09603375 -0.06437225 -0.11123821 -0.15739545 0.12268693 0.19599451 -0.007709456 0.07237471 0.13124774 -0.108986795 -0.19226132 -0.004114404 -0.12255479 0.12870933 -0.011828203 -0.12842435 0.003486923 0.042158164 0.18023057 -0.0135814035 0.0083938455 -0.11295101 0.015535825 0.021418445 -0.13978325 0.035396613 -0.14345035 0.034285184 0.0029053495 0.110643476 0.009540336 -0.046289682 -0.12018498 -0.12370969 -0.09407399 0.11920633 0.14061001 -0.18727759 0.03416385 -0.07812626 -0.056063127 -0.0029381388 -0.21328782 -0.0037784365 -0.05060222 0.10960286 -0.10412572
30 0.17023404 0.21577644 -0.0518054 -0.033221766 0.06964328 -0.106640875 -0.09216995 0.03713505 0.12575746 -0.047174778 0.099213175 -0.21141341 0.19164294 -0.11055354 0.08363999 0.027539112 0.0624453 -0.19795969 0.019640502 0.19296525 -0.15600517 0.14831899 -0.042922277 0.040316377 0.18311355 -0.23184016 0.13806935 -0.18590866 -0.12703054 -0.25404575 -0.13396277 0.18491295 -0.18581484 -0.15206994 0.113962844 0.026180932 0.12472732 0.114502236 0.17757826 -0.11468126 -0.019444166 0.1699914 0.1784307 0.12554987 0.18798134 -0.091288775 -0.1300822 0.11636525 0.12822954 0.16321065 0.08458609 0.04960115 -0.16645135 -0.015835462 -0.13630843 -0.23321815 -0.16087632 0.16072676 0.1406194 0.021557279 -0.19841942 -0.12950373 -0.19774339 -0.05291059 -0.04109455 0.19986792 0.12522256 0.2467926 0.16037588 0.10442529 0.023685103 0.11609382 0.024178727 -0.19184263 0.06096893 -0.025694484 -0.043635525 -0.053614713 0.018965507 0.14940608 -0.026089067 0.095649794 -0.059989393 -0.08084596 -0.14412037 0.1486088 0.22168025 -0.037123524 0.06538635 0.1553622 -0.14475892 -0.18012029 -0.0015599696 -0.16919933 0.0822075 -0.01801212 -0.15245223 0.021084001 0.058608156 0.20201787 -0.0061690877 0.03874649 -0.053600796 0.028529534 0.03806893 -0.16015673 -0.008582465 -0.19022079 0.08018738 -0.007970238 0.14176634 0.057957675 -0.023635162 -0.12690698 -0.1226212 -0.13574699 0.108266465 0.16763869 -0.20472068 0.05944228 -0.06730319 -0.09832158 -0.013690808 -0.23769024 -0.031637 -0.09494589 0.14657898 -0.13243954
31 0.016153632 -0.07806295 0.07540372 0.09724025 -0.10509202 0.028148625 -0.0831281 -0.086602904 -0.011764877 -0.18673055 0.038375583 -0.11176098 0.07171922 -0.090565026 0.10652731 -0.11636034 -0.060168672 -0.037507676 0.08777956 0.058874562 -0.025141113 0.044838242 0.122750066 -0.14416012 0.06329715 -0.16104673 0.030045554 -0.18593304 0.019449832 -0.06359928 -0.090928495 0.06296691 -0.10511055 0.08453177 -0.07423083 -0.19174723 0.03505021 -0.03099409 -0.020577984 0.0053984453 -0.1343727 0.07207568 -0.022952162 0.0344499 -0.043357823 0.14868784 -0.062495857 -0.013054837 -0.021054506 0.03625035 0.11027716 -0.0011219298 0.0018736551 -0.20789528 0.054879684 -0.005433583 -0.059510477 0.2468737 -0.050866082 0.1498111 -0.13712013 0.017064491 -0.0028606085 0.17901823 -0.11181862 0.19107024 -0.033143338 0.014851524 0.14798287 0.13523038 0.18944904 0.030224318 0.15389216 0.042627186 -0.16292001 0.2058717 -0.068085335 0.002299848 0.21882889 0.05616493 0.15801486 0.09850459 0.1359691 -0.061198264 -0.1476 -0.0047326693 0.1943293 0.10237193 -0.22042902 0.06493293 0.022361323 -0.23329394 -0.15228806 0.009234205 0.20110887 -0.09287462 -0.10922563 0.23357849 -0.127724 0.028943747 0.090711 -0.10325909 -0.34517506 -0.08267118 -0.12850723 -0.0075253914 0.20184217 0.02355064 -0.040598355 0.093131505 0.000757471 -0.12600459 -0.17190415 0.005232056 -0.11278453 0.053899243 0.15855406 0.044205904 -0.074491106 -0.116103254 -0.21888272 0.02883457 0.23108661 -0.1194294 0.07321455 0.08023098 0.0055761742 0.011789237
32 0.0060658287 0.017664548 0.023943236 0.07017035 -0.15542428 0.05623704 -0.22189642 -0.05446483 -0.01361602 -0.18434078 0.19563675 -0.090442784 0.057108823 -0.117132254 0.13911104 -0.08237627 0.021051412 -0.03962229 0.084303364 0.019472163 -0.0055135647 0.068984404 0.10128996 -0.10936064 0.12584652 -0.08927958 0.020726528 -0.09643369 0.02638867 -0.13629347 -0.071992874 0.057689622 -0.06850917 0.0040911105 -0.04910848 -0.14209689 -0.0774199 -0.07471903 0.07811753 0.022116095 -0.17317939 0.026516482 0.0968623 0.091367655 0.034625843 0.096853375 -0.048107475 -0.038756073 -0.11400436 0.03746765 0.1359792 0.09778779 -0.03044631 -0.16754705 0.032833952 -0.15581761 -0.081605665 0.19313449 0.01126656 0.108932994 -0.15786551 0.07352521 -0.10913052 0.095903136 -0.1084323 0.04633643 -0.06307376 0.17883642 0.1451795 0.08754191 0.06282924 0.057744157 0.17147826 -0.06701923 -0.122026116 0.15568008 -0.16835816 -0.006164407 0.1941413 0.0069892886 0.09570342 0.16976276 0.14077364 -0.091304205 -0.08234143 0.0497204 0.14916328 0.07954403 -0.14014414 0.13598754 0.0060396423 -0.11014072 -0.11727138 -0.03424585 0.095354766 -0.19845188 -0.026612764 0.18274218 -0.099010296 0.108793944 0.14787087 0.016474465 -0.37567747 -0.04789954 -0.11852242 -0.06211094 0.14511694 -0.03933671 0.11973274 0.080840394 -0.01584085 -0.071408585 -0.15342131 0.034249447 -0.1526116 0.041936282 0.15000296 0.097383335 -0.08177959 -0.04450304 -0.15340994 -0.043400966 0.20106113 -0.12905484 0.07679518 0.097240135 0.033832856 -0.020965885
33 0.06331663 -0.26468885 0.07186437 0.07004355 0.14967869 -0.05968863 0.0031754042 -0.111936994 0.03439322 -0.16274866 0.008795799 -0.060528647 0.10703846 -0.117061965 0.12765259 -0.07426373 -0.20587191 -0.08697705 0.03756001 0.06954467 -0.13821883 0.03790664 0.08535831 -0.13172668 0.107177526 -0.042926613 0.05506878 -0.014765594 -0.027900832 0.025061563 -0.08753714 0.062400892 0.104822636 -0.056077793 0.027848078 -0.13389933 0.055856768 0.079334065 0.1463749 -0.3207113 -0.052719783 0.088204876 0.0893027 0.0561532 0.06040324 0.05179577 -0.14758293 0.09067415 0.067215465 0.05003253 0.2378309 0.1031348 -0.13959183 -0.0075937985 -0.008863865 0.039044242 -0.08010553 0.10215502 0.03959535 0.11831714 -0.010964848 -0.03242792 -0.057348616 0.07387287 -0.0568005 0.11835733 0.06883541 -0.020867582 -0.032460403 0.10257583 0.184704 0.0831595 0.09965282 -0.06653054 -0.04958458 0.09283873 -0.17821528 -0.157493 0.06832434 0.14239976 0.08962034 -0.03110902 0.113692865 -0.1143318 -0.22139366 0.05799837 0.06263399 0.05743279 -0.11408873 0.14290522 0.00857762 -0.19792287 -0.15182634 -0.08661989 0.048447803 -0.14222002 -0.05032807 0.13651417 -0.07955764 0.09035185 0.11083297 -0.11231686 0.29382586 -0.10818784 -0.08125798 -0.11221337 0.07347598 -0.09594266 0.053083934 0.09358967 0.04737945 -0.073255524 -0.00517104 -0.050321057 -0.07206132 -0.054202855 -0.0040771253 0.027724212 0.012488775 -0.14276114 -0.064768866 -0.07763824 0.11691343 -0.043921776 0.04642916 0.10071318 0.028480377 -0.08040109
34 -0.0067488444 -0.09449002 0.03520599 0.06092023 -0.14390498 -0.018189134 -0.235285 -0.1132471 0.012996361 -0.29173496 0.29134223 -0.11443861 -0.027543975 -0.28520393 0.23443463 -0.062617674 -0.0063575087 -0.027620258 0.07692726 0.07821223 0.10243371 0.0573918 0.12429692 -0.14935681 0.18557763 -0.008347414 0.0112512745 -0.00014009453 -0.01656985 -0.17697705 -0.09897105 -0.0023611388 0.05432094 -0.075570114 -0.05749536 -0.1636005 -0.01341824 -0.07048391 0.005109988 0.21590567 -0.17408375 0.05795911 0.03019117 0.20269728 -0.011658072 0.14254932 0.014834624 -0.0071968744 -0.16342968 0.010889779 0.16332583 0.14428899 -0.0037717086 -0.055406194 0.09395506 -0.36118054 -0.09805549 0.2858261 0.01814696 0.117576316 -0.1290539 0.050955746 -0.11664061 0.083525635 -0.18263328 0.032959986 -0.056495745 0.2617364 0.14550143 0.18087156 0.16280751 0.08712806 0.28060928 -0.04660567 -0.098899655 0.13878575 -0.22726472 -0.10905121 0.1473925 -0.06703036 0.13433228 0.23970918 0.16348048 -0.11762701 0.23377715 0.073961616 0.18505839 0.08348613 -0.17403628 0.10972862 -0.027615767 -0.041017488 -0.13738629 -0.011718952 0.07433173 -0.29469064 -0.000274098 0.21147643 -0.0698567 0.023280757 0.1271139 -0.038503546 -0.3585301 0.025474899 -0.14722472 -0.05670225 0.110515766 -0.040634207 0.08337125 0.105460234 -0.013692843 -0.05519868 -0.12505038 -0.041383315 -0.14276013 0.012341802 0.040496316 0.08215964 -0.07759369 -0.0943415 -0.10702863 -0.09723067 0.18402928 -0.114177026 0.07663244 0.106472686 0.0026956492 -0.038111724
35 0.05341652 0.0764238 0.02249157 0.038276345 -0.068204574 -0.017202638 -0.14361258 -0.02659662 0.039402343 -0.08195316 0.086989306 -0.11964359 0.040749352 -0.10770869 0.08130284 -0.056634568 0.007881217 -0.08804224 0.076838806 0.052446317 -0.033509724 0.044702157 0.049161788 -0.049143337 0.09223569 -0.15526664 0.04219895 -0.17155832 -0.053015485 -0.09704231 -0.07880877 0.04678074 -0.1721245 -0.026156211 0.054317575 -0.06905129 0.03507391 -0.011964475 0.043247838 -0.06387897 -0.0960308 0.09061139 0.089400806 0.05583951 0.016611947 0.042580176 -0.04645809 0.007446671 0.06963529 0.06719337 0.053468477 0.024327254 -0.020616397 -0.15553337 -0.07330835 -0.15759593 -0.09096509 0.18769702 0.024765447 0.032998733 -0.16822025 -0.05428797 -0.10365403 0.061037786 -0.11880592 0.12160461 0.01752911 0.0938236 0.13999848 0.08741392 0.045014866 0.05826828 0.07097558 -0.021744281 -0.07846542 0.08559432 -0.06946152 -0.03486342 0.11834706 0.08996621 0.06630803 0.14190826 0.027572459 -0.09333961 -0.09301246 0.053066142 0.16969232 0.04366981 -0.0631313 0.09107904 -0.08075148 -0.1493203 -0.10643759 -0.038181018 0.16952552 -0.093334556 -0.10350858 0.10293029 -0.050681803 0.10986001 0.051139094 0.0017857883 -0.31578472 -0.017980648 -0.047025118 -0.034370344 0.095568016 -0.03053349 0.058789145 0.06244535 0.061069526 -0.019303551 -0.10522665 -0.06432097 -0.09651981 -0.0022955684 0.15675351 0.12414173 -0.13663383 -0.036220174 -0.12590733 -0.05249283 0.08769918 -0.1426502 0.040600948 0.03377426 0.08143538 -0.03439986
36 0.038971994 -0.12792729 0.038050033 0.05702733 0.08397515 -0.06346578 -0.08128956 -0.081184216 0.021341346 -0.12057126 0.12531781 -0.053537976 0.062313367 -0.11778721 0.120639615 -0.056295555 -0.11434896 -0.03323857 0.081888355 0.06451538 -0.0730112 0.06236265 0.06077959 -0.091414444 0.119365536 -0.07377796 0.048100185 0.013177736 -0.056841154 -0.055272836 -0.07858739 0.06460867 0.04242772 -0.0019513536 0.030377535 -0.08545698 0.052973825 0.060632613 0.062245194 -0.051301673 -0.034660142 0.06521866 0.08135418 0.13083397 0.046907194 0.056471623 -0.103181906 0.05960524 0.03397314 0.035399977 0.18887487 0.12106563 -0.104228795 -0.03249631 0.010601266 -0.017560685 -0.06883492 0.061215457 0.052147724 0.08591853 -0.021284604 -0.04329978 -0.08301432 0.061974067 -0.053396836 0.07132265 0.058174264 -0.017236667 0.03227922 0.076292135 0.11352929 0.0898003 0.1070758 -0.119276464 -0.04903407 0.07007288 -0.13504052 -0.1577432 0.0968105 0.088966034 0.08747 0.10585741 0.084253855 -0.02579962 -0.054067403 0.07304266 0.0013969594 0.046393484 -0.07120767 0.110662095 -0.022702087 -0.0790525 -0.12982556 -0.08131027 0.067112684 -0.114089034 -0.0383585 0.11553893 -0.056652207 0.09164339 0.10128103 -0.065171346 0.018060232 -0.1009672 -0.069167994 -0.077846475 0.0756659 -0.087952964 0.09505592 0.07803824 0.04500749 -0.07005094 -0.06742606 -0.048026696 -0.05172656 -0.08467881 0.03448724 0.0215887 -0.042783283 -0.09284271 -0.065656446 -0.122608945 0.08170819 -0.061558675 0.04176793 0.07726483 0.035170835 -0.06170897
37 0.062194645 -0.26745746 0.07772928 0.08454525 0.17708816 -0.07512092 0.031258445 -0.12807608 0.021191271 -0.13142096 -0.071853064 -0.043902066 0.13960026 -0.08727874 0.11732974 -0.07426986 -0.23483005 -0.06678145 0.050981637 0.06247854 -0.16500047 0.032086287 0.07989161 -0.13143201 0.11689663 -0.08952108 0.068935975 -0.017485099 -0.009810505 0.04870012 -0.064936064 0.09302406 0.14846623 -0.09100313 0.03547805 -0.12645134 0.07270825 0.11852309 0.20142749 -0.4403221 -0.060481697 0.08527038 0.09681349 0.017182842 0.0321689 0.03591522 -0.15728165 0.10431431 0.11510913 0.033456437 0.2477259 0.11382498 -0.15676565 -0.010414556 -0.031517696 0.08680296 -0.051643115 0.2332317 0.014140482 0.115474656 -0.029285058 -0.04349307 -0.02307691 0.080862574 -0.029271754 0.16942896 0.07749659 -0.029175656 -0.003327274 0.123150185 0.23615217 0.07067694 0.062454455 -0.065684885 -0.053913705 0.075213775 -0.15535228 -0.16024756 0.03483635 0.18716487 0.07343848 -0.057973247 0.096760415 -0.134136 -0.3225331 0.057398498 0.083984494 0.07026337 -0.08646848 0.16482 0.021293275 -0.3186742 -0.1426139 -0.09075613 0.09812423 -0.12383283 -0.06701215 0.14929387 -0.08396987 0.13461368 0.101176485 -0.12759957 0.35175067 -0.12408729 -0.090670235 -0.13415045 0.095415756 -0.109667234 0.0031049964 0.08409259 0.048453268 -0.08312293 0.054202106 -0.04365114 -0.11821625 -0.03968788 0.0012629792 0.01398076 0.03874418 -0.12815626 -0.069379374 -0.04261652 0.085388735 -0.06765689 0.06258781 0.11285492 0.017648924 -0.10901859
38 0.014318583 -0.2348042 0.07854884 0.08475122 0.09061841 -0.022465762 -0.081031315 -0.112278245 -0.009936173 -0.15319331 0.11261248 -0.029979704 0.068122834 -0.18200056 0.14311422 -0.0929123 -0.17189868 -0.030871367 0.07624502 0.052156575 -0.09322627 0.034235485 0.077650666 -0.12759241 0.091325924 -0.07311791 0.033442445 0.046313662 -0.01828504 -0.004509652 -0.04681101 0.062295683 0.08682284 0.027361132 -0.0149203595 -0.13877784 0.04023129 0.049769778 0.09576692 -0.1062013 -0.04930995 0.031717017 0.0754334 0.16721758 0.046296705 0.1058304 -0.109406784 0.03716049 0.012104676 0.018716393 0.22049366 0.14437635 -0.11102294 -0.04626183 0.036979407 0.007213594 -0.058527023 0.073396176 0.036614403 0.10447682 -0.001698736 -0.01833805 -0.061783418 0.09662391 -0.05669635 0.09572564 0.044879384 -0.08125519 0.017547818 0.12704201 0.10641952 0.086855486 0.14760886 -0.096166566 -0.09206141 0.09293835 -0.19209771 -0.12737124 0.120235294 0.10875155 0.14070089 0.10341063 0.14703676 -0.064812064 -0.082476094 0.044382304 -0.0052985926 0.08103471 -0.12568225 0.114424825 0.025124276 -0.14459407 -0.17392302 -0.052898377 0.06131403 -0.15230155 -0.012011124 0.1407531 -0.09038312 0.08491049 0.13623823 -0.110788375 0.025917577 -0.12679671 -0.10137084 -0.08223179 0.108956575 -0.08237808 0.09893827 0.10595394 0.031819507 -0.08803447 -0.08840871 -0.04174167 -0.044820707 -0.06490769 0.051477637 -0.0009466924 -0.01307937 -0.15324944 -0.098284975 -0.09992575 0.11587844 -0.04832465 0.06899523 0.112284504 -0.0076474254 -0.053170614
39 0.02677096 0.0650775 0.055105764 0.06866912 -0.13800976 0.04329231 -0.20522894 -0.042500902 -0.031880222 -0.12041313 0.081531875 -0.09554268 0.057931773 -0.15311153 0.15666674 -0.06932579 0.0031640474 -0.09131923 0.10783736 0.070692986 -0.043811 0.0386945 0.093643695 -0.071697734 0.10142621 -0.16144742 -0.019333571 -0.12836753 0.03523937 -0.18506972 -0.04060886 0.026864313 -0.07949908 -0.0045622187 -0.0349672 -0.09595276 -0.07630874 -0.05392993 0.10015466 -0.018818254 -0.1394347 0.03722889 0.12052208 0.09668084 0.050940465 0.091973566 -0.05745922 -0.027399557 -0.08013448 0.046269268 0.074645884 0.07526789 -0.056197446 -0.1678912 0.05010303 -0.1956313 -0.09345794 0.18039562 -0.0041635977 0.09340916 -0.17525508 0.05016843 -0.108086616 0.097896695 -0.121003926 0.1206096 -0.037355445 0.18503475 0.1593135 0.08979711 0.040254764 0.032441497 0.13816287 -0.09264347 -0.09601505 0.123987764 -0.15009457 0.05824821 0.17466134 0.062078226 0.0857852 0.23397276 0.03906104 -0.13469565 -0.06687951 0.05615166 0.15421635 0.07417611 -0.06777109 0.11981504 -0.018909393 -0.18012792 -0.10211334 -0.061708927 0.1490247 -0.17107701 0.0152431335 0.12533706 -0.084773436 0.13865261 0.1234152 -0.014934773 -0.3521078 -0.034456734 -0.07883771 -0.03350087 0.14737453 -0.054757144 0.02420965 0.06488082 -0.0072816503 -0.06333362 -0.16183084 0.011799427 -0.17102186 0.05019639 0.16072594 0.09858512 -0.14660524 -0.03413124 -0.17130251 -0.011692822 0.124264605 -0.16417171 0.064731434 0.052829474 0.011435742 -0.027626583
40 0.13750531 0.21624476 0.01251777 -0.0015417453 0.022965506 -0.06042736 -0.09206612 0.017338473 0.086019486 0.017245768 -0.06419117 -0.17516448 0.17962362 -0.02567989 0.065464534 -0.0011637817 0.037685577 -0.18723543 0.07103273 0.15336563 -0.18592583 0.12499701 -0.02119307 0.028024655 0.09905556 -0.21324529 0.08786635 -0.16398808 -0.08558303 -0.24515964 -0.04349153 0.15830632 -0.18543069 -0.14507237 0.074001186 0.048500497 0.088555254 0.10890174 0.17725575 -0.13533032 -0.07578732 0.15818135 0.15750588 0.08419476 0.14857434 -0.049412373 -0.09606832 0.101279594 0.13104276 0.1386495 0.012197203 0.036017396 -0.14711753 -0.10348409 -0.1470885 -0.17771997 -0.102246806 0.22582355 0.10800427 0.06216756 -0.17592032 -0.090803124 -0.10728551 -0.02582315 -0.108427815 0.22323294 0.08044171 0.2541548 0.2212586 0.1426974 0.011157287 0.049764663 -0.010880765 -0.17115532 0.05968304 -0.015072642 0.028277338 0.057016682 0.005006155 0.12552236 -0.012440623 0.11967297 -0.066497676 -0.1573372 -0.18525647 0.1168042 0.19722925 0.019961584 0.07400524 0.093955286 -0.103394024 -0.20938714 0.015070657 -0.13749164 0.18706715 0.0064703543 -0.13042589 -0.020218007 0.027835445 0.1988563 -0.008359847 -0.0028614632 -0.14321542 -0.009276082 0.022343915 -0.13160738 0.04456873 -0.1380358 -0.03881673 0.011237452 0.09385933 -0.0013198362 -0.07783493 -0.10079515 -0.1555494 -0.1035109 0.17622937 0.15400021 -0.21580623 0.059861537 -0.13229491 -0.03079893 -0.008894477 -0.2144702 0.01454873 -0.071463324 0.11608491 -0.086577356
41 0.1564619 0.25290975 0.006528813 -0.015306133 0.062705316 -0.07054551 -0.08284236 0.018050894 0.11611825 0.020621452 -0.04110658 -0.17896016 0.17954864 -0.07652231 0.07742116 -0.00908469 0.049708176 -0.19509715 0.08046869 0.17570658 -0.17197676 0.15174243 -0.03369574 0.056334823 0.1340918 -0.23150152 0.10846066 -0.17589176 -0.113944694 -0.24912173 -0.10410041 0.19474156 -0.21396998 -0.13789079 0.11082722 0.060528837 0.1306246 0.118379705 0.20136063 -0.16070276 -0.058571924 0.17184919 0.16925208 0.11011952 0.17004894 -0.08352613 -0.11991331 0.11908144 0.1429134 0.17178863 0.028224481 0.048257686 -0.15083887 -0.07073987 -0.17411524 -0.20427084 -0.13072237 0.21696079 0.1286386 0.059308745 -0.20277132 -0.13898556 -0.15625824 -0.023337374 -0.08533245 0.22106376 0.09924208 0.25529832 0.21671163 0.14913715 0.019871498 0.10236638 -0.018732777 -0.17240198 0.054109477 -0.03106442 0.024105024 0.0059348163 -0.025181282 0.15296268 -0.020235492 0.12479804 -0.061419602 -0.14291085 -0.16637285 0.15041035 0.21544828 -0.01588589 0.0854651 0.12803188 -0.13443282 -0.23092623 0.0030630648 -0.13139361 0.14910714 0.0029780944 -0.14780205 -0.0053704423 0.03653104 0.19028996 -0.010664062 0.011273628 -0.11872484 0.0014446423 0.048223194 -0.15273055 0.05495742 -0.18589176 0.0011849174 0.005592821 0.13029705 0.027431075 -0.060113072 -0.119139254 -0.14150731 -0.10571457 0.16935383 0.15639772 -0.215472 0.0667866 -0.112792365 -0.079994455 -0.015364232 -0.24257441 0.0067191045 -0.08155468 0.13860156 -0.10833099
42 0.009971681 -0.2782606 0.06810987 0.09238844 0.05716208 -0.03384434 -0.14001334 -0.107992165 -0.012152551 -0.2213656 0.14195816 -0.02511245 0.053820394 -0.21998833 0.1483683 -0.10095644 -0.19616197 0.026694981 0.10438648 0.037652824 -0.036037955 0.016557232 0.0966014 -0.1442129 0.092305146 -0.06537159 0.044946413 0.04216839 -0.028937077 0.055658437 -0.07497791 0.040082887 0.0833076 0.015175725 -0.013076442 -0.19540145 0.038893227 0.053774744 0.057900976 -0.07765495 -0.059842546 0.0055293282 0.08339517 0.21021524 0.008188714 0.1240664 -0.09108906 0.041666195 0.029305857 0.0015340411 0.2561286 0.1909537 -0.07251979 -0.06862728 0.053632654 0.007571734 -0.0373513 0.059401758 0.017496923 0.07872544 0.0031049873 -0.0032795828 -0.051447943 0.099900715 -0.028533563 0.062734656 0.03391589 -0.09819735 0.032194037 0.1464189 0.114282854 0.07801751 0.2630792 -0.07297419 -0.10971256 0.10908112 -0.24848014 -0.11932497 0.14615 0.08543784 0.16026308 0.12820944 0.20312129 -0.028962234 0.057191428 0.03133694 -0.03992948 0.08788786 -0.13642994 0.14053838 0.016974123 -0.17654197 -0.3071765 -0.048274178 0.022538658 -0.21971193 -0.023715446 0.19045213 -0.09726315 0.06787451 0.17055534 -0.12248372 -0.06932493 -0.14683267 -0.10022601 -0.05691629 0.11931708 -0.06922579 0.086576186 0.0981029 0.021983994 -0.092253655 -0.09470034 -0.035851803 -0.030624399 -0.06285984 0.11263051 -0.0038197835 -0.0028134882 -0.17364822 -0.10863348 -0.123067416 0.14324409 -0.027204935 0.062707566 0.12068493 -0.009358306 -0.02895152
43 0.020064266 -0.22284815 0.070383385 0.07640485 0.07576886 -0.013437366 -0.099727675 -0.12427139 0.0025086158 -0.1822005 0.1500737 -0.018936334 0.060336977 -0.17218186 0.13768847 -0.08502537 -0.15248595 -0.04535661 0.07682456 0.02416718 -0.056984566 0.033509355 0.09235212 -0.13184947 0.08848143 -0.062490486 0.05527478 0.029919464 -0.020886574 -0.015785329 -0.0719174 0.044081315 0.07090891 0.013685631 -0.0076450184 -0.14670949 0.03457134 0.06655211 0.085002154 -0.09275042 -0.04240546 0.024788158 0.07566493 0.14853853 0.030587886 0.105092146 -0.07696857 0.046385136 0.026635254 0.020314723 0.2291786 0.1296392 -0.05936773 -0.053485654 0.009669031 -0.015047976 -0.025807032 0.07552365 0.014306846 0.10112723 -0.010406436 -0.018131696 -0.030377822 0.09977091 -0.04419344 0.04994113 0.032876708 -0.003792976 0.02701323 0.10250009 0.09974625 0.08423136 0.19499293 -0.08419436 -0.10272916 0.11128258 -0.22361845 -0.12410294 0.121595815 0.0860143 0.13564746 0.09397549 0.14849699 -0.056922115 -0.049142584 0.03172512 0.0017289559 0.079854526 -0.13714822 0.112887114 0.002890083 -0.12706116 -0.20366827 -0.06744347 0.05431675 -0.1619278 -0.016422203 0.13064905 -0.09014177 0.07619023 0.12604801 -0.10587922 -0.01738921 -0.13020152 -0.09638389 -0.06832874 0.08809519 -0.046213027 0.11271038 0.098248035 0.030268136 -0.09209392 -0.08168496 -0.028842805 -0.08264283 -0.05461516 0.061639033 0.012712698 0.010006645 -0.13950512 -0.08826769 -0.102977246 0.13150807 -0.03881833 0.051289193 0.10910233 -0.0054838303 -0.039812338
44 0.013027166 -0.0026513794 0.069594696 0.066496775 -0.15879779 0.06719994 -0.12810782 -0.08326755 -0.028307578 -0.17825839 0.034621026 -0.15039036 0.06261776 -0.10625519 0.14384952 -0.09741354 -0.069189884 -0.036241554 0.09594288 0.06237947 -0.036255624 0.03328079 0.108427174 -0.11185315 0.07440487 -0.2244956 0.018728323 -0.21790132 0.053306572 -0.067339115 -0.080525026 0.07510369 -0.11935104 0.12612806 -0.06568783 -0.1437467 0.009050573 -0.05947629 -0.0053513986 -0.030741526 -0.11477249 0.08402381 -0.047265675 0.045481004 -0.06196349 0.10597182 -0.052789405 -0.063480616 -0.027348563 0.046819806 0.15619989 0.058770448 0.025183255 -0.18968597 0.034830112 -0.017546264 -0.05432971 0.24224196 -0.092251964 0.16752999 -0.19720276 0.00736001 0.0011466888 0.13256162 -0.13774055 0.26883388 -0.047402963 0.032302275 0.19006038 0.19359036 0.17562608 -0.003545857 0.13965353 0.051341876 -0.1199516 0.15335849 -0.10251763 0.02461514 0.17488994 0.078861624 0.14227925 0.11745689 0.08232693 -0.0961353 -0.20668954 -0.009047912 0.28063047 0.08750507 -0.16702276 0.06151805 0.057105396 -0.30265006 -0.12296293 0.037914027 0.25935835 -0.09775877 -0.1240751 0.22103713 -0.10446795 0.05636802 0.07823654 -0.0944263 -0.3369471 -0.078404084 -0.11968799 0.01716539 0.1506888 0.03786267 -0.059379365 0.10951893 0.007806215 -0.09134739 -0.13498797 0.01045833 -0.14383161 0.10212294 0.19348554 0.057100732 -0.10845234 -0.11237153 -0.23432115 0.061960876 0.1693661 -0.15335062 0.06324737 0.060348745 -0.0022491484 0.014495811
45 0.051700745 -0.24024108 0.09551781 0.10349887 0.123300605 -0.027687045 -0.033872005 -0.13989721 -0.0065039606 -0.1300054 -0.11457982 -0.007858128 0.12311978 -0.08826702 0.14244302 -0.11319183 -0.2222335 -0.089939006 0.06611679 0.07632328 -0.18069352 -0.0026617744 0.10840645 -0.17482208 0.08050349 -0.086666174 0.042582676 0.0051852567 0.007803982 -0.0068440232 -0.022995045 0.062668525 0.13789828 -0.059150837 0.002378154 -0.1549744 0.045529097 0.067226365 0.19350274 -0.42022514 -0.10168204 0.08146946 0.10257951 0.03707037 0.040583193 0.04886569 -0.13660145 0.06026859 0.08028129 -0.002786131 0.21538986 0.11397965 -0.13112351 -0.054119088 -0.022044726 0.040970504 -0.02204987 0.18434261 -0.0047373767 0.1183279 0.0050514494 0.0014601478 -0.03276518 0.09925405 -0.08231588 0.19251934 0.041331787 0.014244221 0.042165093 0.15149312 0.24130204 0.025266685 0.08603616 -0.06508114 -0.08406412 0.11534217 -0.15699807 -0.12206933 0.06177164 0.15896617 0.09614717 -0.010093939 0.115064874 -0.15488449 -0.31161922 0.042142842 0.10680055 0.0907079 -0.10975482 0.11564871 0.040198043 -0.30608138 -0.1553982 -0.09233669 0.10372936 -0.14224681 -0.03289639 0.12923168 -0.11236395 0.10280354 0.12294677 -0.12751426 0.33246806 -0.13915408 -0.12120679 -0.11212398 0.13471688 -0.08428475 -0.03813518 0.11336142 0.01355953 -0.106647596 0.010055534 -0.0030021493 -0.1308836 0.00726169 0.04005667 -0.00912701 0.013147767 -0.16876025 -0.09248976 -0.011419922 0.11018252 -0.068418965 0.076498225 0.12912086 -0.00012457873 -0.06201384
46 0.013660474 -0.02400186 0.06552348 0.06691844 -0.11411976 0.054176286 -0.14295967 -0.09482811 -0.044577863 -0.20471773 0.028635724 -0.12331167 0.060280677 -0.1013685 0.123176225 -0.12049624 -0.05937391 -0.013864612 0.09561652 0.052829046 -0.01599781 0.03824125 0.117127396 -0.1471109 0.07627368 -0.19007379 0.009546826 -0.21869901 0.035339214 -0.027374994 -0.09036487 0.072653726 -0.12335012 0.11426139 -0.081494026 -0.17803001 0.021461157 -0.0738307 -0.024451684 0.0037438981 -0.13000926 0.049917992 -0.056068785 0.0033170735 -0.06791758 0.13930482 -0.063160494 -0.046245757 -0.022181245 0.053585947 0.15072352 0.018996406 0.012464042 -0.21826158 0.05656 -0.0051089395 -0.083904766 0.24854685 -0.070303254 0.1538118 -0.17976825 0.013448908 -0.0059214355 0.16218911 -0.13027757 0.24658783 -0.045544367 -0.0073909676 0.17202477 0.16883607 0.19516173 0.03379941 0.1521907 0.056331802 -0.15857275 0.18145458 -0.0570544 0.004450259 0.2205248 0.07888942 0.1533521 0.1137348 0.12551622 -0.07214136 -0.18663165 -0.007434952 0.2649715 0.091136195 -0.20011808 0.04880004 0.033407155 -0.29271472 -0.17712085 0.029995508 0.2538639 -0.10248147 -0.118586965 0.23696221 -0.11893084 0.03461088 0.09821268 -0.09029079 -0.34697294 -0.08510373 -0.11251281 -0.008032929 0.19734569 0.033241075 -0.06165643 0.08761632 0.0022111456 -0.1110222 -0.1538743 0.0031778496 -0.122473195 0.07894973 0.18011914 0.044826813 -0.08160848 -0.12293 -0.2803343 0.032165766 0.22522964 -0.12412591 0.055661537 0.062055424 0.0038694353 0.02014951
47 0.0015802076 -0.16701056 0.102956615 0.15886909 0.06155507 0.013731004 -0.12168479 -0.16574545 -0.064338416 -0.1692683 0.0993247 -0.021650173 0.008390885 -0.09598094 0.15108791 -0.14998426 -0.1036653 -0.040540367 0.12394028 -0.023234902 0.010726209 0.04969295 0.15084553 -0.1717099 0.09300256 -0.07598353 0.0062810895 -0.023192424 0.022014115 -0.044663593 0.0006912182 0.058788832 0.16160119 0.018226903 -0.04638673 -0.15256383 -0.030408943 -0.022061054 0.05232199 -0.10209548 -0.14437088 0.00020321354 0.07938128 0.113572225 0.013758657 0.17647001 -0.080895185 0.0018020584 0.00033219537 -0.03905284 0.12230299 0.107118 -0.04557778 -0.17976502 -0.10974106 -0.033835005 -0.03045319 0.14469472 -0.007835293 0.1262512 -0.0059274933 -0.021192234 -0.03902297 0.13736765 -0.17072916 0.010850216 -0.019977435 0.080913715 0.104457885 0.022776043 0.13556038 0.03815996 0.10889869 -0.019224972 -0.17532457 0.15791193 -0.13456954 -0.06747663 0.15672103 -0.04711133 0.20512341 0.10019861 0.18443285 -0.1370832 -0.10723237 0.054360002 -0.014335686 0.09027627 -0.19980653 0.10711297 0.01472812 -0.15891416 -0.15431893 -0.06280951 0.15154515 -0.12190157 -0.012154117 0.11942039 -0.1368451 0.06570371 0.15453525 -0.1208217 -0.1895249 -0.13134228 -0.15228541 -0.02202555 0.14117719 -0.03289965 0.0055373358 0.14203216 0.035606883 -0.1443851 -0.13660008 -0.038037796 -0.060913876 -0.030394757 0.057450026 -0.061344244 -0.090671025 -0.1813089 -0.10346403 -0.09829587 0.16403493 -0.06953101 0.12343027 0.1664937 -0.02892629 0.014122741
48 0.18470731 0.27830088 -0.042304453 -0.054698877 0.06645848 -0.108599655 -0.1006423 0.044239126 0.1332792 -0.01603387 0.029034685 -0.21430026 0.17529449 -0.08887773 0.06724537 0.043374185 0.053770795 -0.22846006 0.041966252 0.22474377 -0.21339642 0.2056059 -0.04583199 0.025533559 0.14665991 -0.22863899 0.15345445 -0.19571674 -0.1481293 -0.27647552 -0.1074305 0.1879596 -0.2289402 -0.16313785 0.13230304 0.03352176 0.13752334 0.13904569 0.21031475 -0.14348485 -0.057215527 0.20439847 0.19405338 0.09473523 0.22438724 -0.09241759 -0.1589221 0.1360225 0.15233165 0.18047692 0.040337924 0.041613936 -0.17153484 -0.037495732 -0.19413021 -0.2295802 -0.17390063 0.1264099 0.16725437 0.021926004 -0.21942933 -0.14536145 -0.18924813 -0.07070971 -0.089047484 0.2078313 0.1431558 0.29572117 0.20014192 0.13773465 0.016195456 0.13684697 0.0069783097 -0.21138051 0.08159915 -0.042968713 -0.027295725 -0.014845235 0.0025008444 0.17503862 -0.01885978 0.0923695 -0.067213394 -0.12145908 -0.17208259 0.15308127 0.21732718 -0.027678594 0.07887906 0.14834897 -0.17668071 -0.15089436 -0.024032671 -0.17201622 0.1315434 -0.026935052 -0.16434951 -0.017219339 0.075209096 0.20500702 -0.006370288 0.046600003 -0.10341283 0.04172254 0.048817914 -0.17309383 0.0010314117 -0.16073874 0.04473861 -0.0041322955 0.16025627 0.06698148 -0.053108387 -0.16972084 -0.14044222 -0.15204298 0.14808838 0.20042026 -0.2612201 0.044308584 -0.06710846 -0.09657315 -0.009176478 -0.22518016 -0.035294652 -0.09814725 0.17975913 -0.12844786
49 0.136485 0.24349648 -0.0022684336 0.0062059416 0.040292576 -0.07315221 -0.10141092 0.00027283127 0.11606014 -0.012197206 -0.041822128 -0.16921651 0.17205876 -0.03702521 0.086310305 -0.010889803 0.022161627 -0.19040234 0.08155123 0.17426509 -0.15489589 0.12829274 -0.029327637 0.03659636 0.10647148 -0.19666933 0.11666717 -0.17909518 -0.10641816 -0.22698727 -0.075426884 0.17088424 -0.20300902 -0.13909298 0.10676931 0.03223293 0.1135711 0.10282551 0.15027374 -0.10852605 -0.060701277 0.16889611 0.147302 0.052680533 0.15191497 -0.052982204 -0.110771485 0.10480749 0.1304505 0.1416338 0.02597844 0.04777613 -0.16121462 -0.054806765 -0.1688726 -0.19378026 -0.12840399 0.16296577 0.12406852 0.05621851 -0.17625716 -0.105644606 -0.13544084 -0.024182368 -0.0776979 0.20330422 0.110415936 0.24091484 0.16912079 0.12616637 0.025267472 0.08551618 -0.02747783 -0.18242006 0.024419906 -0.009930085 0.007782002 0.02468564 0.01331392 0.15513213 -0.020078177 0.13276762 -0.054718807 -0.112062395 -0.14845619 0.12861069 0.20064373 0.009866739 0.0738146 0.10558103 -0.122048184 -0.18260631 0.0022502486 -0.12824585 0.1464614 -0.01659379 -0.12761576 0.024650272 0.02960559 0.19208103 0.016486092 -0.009793519 -0.077919416 -0.0008938941 0.022061769 -0.12070845 0.039425876 -0.13660638 -0.0066613145 9.624439e-05 0.112246625 0.02293823 -0.036565877 -0.12416609 -0.12915774 -0.09945848 0.1431088 0.16006258 -0.1955479 0.04468314 -0.09978775 -0.045014966 0.0038291272 -0.21111754 0.0069099404 -0.07678972 0.12715118 -0.10021759
50 0.17653005 0.22953865 -0.0093930885 -0.012851151 0.05285998 -0.10236702 -0.07712471 0.024569115 0.12811147 0.0082820235 -0.03634405 -0.18357064 0.1728907 -0.027069554 0.06402799 0.0059314864 0.028257173 -0.19314703 0.0607248 0.19975688 -0.15788879 0.15900269 -0.02410061 0.027158003 0.11413346 -0.24575825 0.13112538 -0.21123455 -0.13187565 -0.24170531 -0.1197627 0.18816598 -0.21227002 -0.14363088 0.13436335 0.026844837 0.11648965 0.1410969 0.18934144 -0.14474835 -0.041564524 0.16742368 0.169953 0.068588175 0.17204759 -0.07538724 -0.12591375 0.11349791 0.1587332 0.16834712 -0.010805943 0.03616617 -0.17266114 -0.047357995 -0.18706734 -0.23337603 -0.14592874 0.115834616 0.15410244 0.03285231 -0.20380099 -0.12638931 -0.14637327 -0.027394077 -0.05184001 0.21158591 0.14625125 0.25583166 0.16999444 0.10320872 0.0262282 0.08234072 -0.025481742 -0.19003023 0.019573193 -0.0085509885 0.033026442 -0.0038208873 0.0069970326 0.14774285 -0.01988891 0.09364993 -0.055119168 -0.11873143 -0.18014331 0.12994613 0.20183352 -0.007755144 0.061405174 0.093148716 -0.16418868 -0.20799038 0.018896172 -0.16402261 0.13858485 0.0029494464 -0.1495912 0.020489696 0.035895456 0.19368742 0.015640244 0.005243614 -0.058212068 -0.008026052 0.03221573 -0.14201245 0.023525376 -0.17797433 -0.0053619766 -0.003893233 0.15822324 0.030381175 -0.03615274 -0.12343676 -0.11101384 -0.13586004 0.13762674 0.17486769 -0.22987464 0.06476953 -0.06817824 -0.07438143 -0.024131455 -0.2287411 -0.004168856 -0.08015432 0.15246364 -0.124639966
51 0.010346942 0.064955674 0.05876685 0.086550415 -0.146025 -0.007603351 -0.17082657 -0.07069946 -7.7686185e-05 -0.14895588 0.11444948 -0.0920032 0.028001772 -0.15197642 0.14185144 -0.07588487 -0.06595828 -0.111019075 0.114152275 0.0074823564 -0.01980012 0.02288635 0.096438766 -0.09912346 0.13405707 -0.17527923 -0.002669476 -0.049207784 0.007384262 -0.16526493 -0.020379901 0.032940865 -0.022330862 -0.022835748 -0.0043834695 -0.0849956 -0.03113393 -0.016584782 0.070748016 0.09519342 -0.16336721 0.06817438 0.042246774 0.12308597 0.04669221 0.13542713 -0.016673908 -0.02392064 -0.07433253 0.032894995 0.02238283 0.13090438 -0.00987785 -0.09069158 -0.029327376 -0.23387232 -0.04642308 0.22639118 0.054551516 0.08291301 -0.1127849 0.030538913 -0.07214875 0.07429664 -0.17793094 0.059681658 -0.036818936 0.20222835 0.14564888 0.082103394 0.07341044 -0.014115071 0.14917903 -0.036829542 -0.08931918 0.14103672 -0.089953445 -0.035744324 0.09220997 -0.07489052 0.10361645 0.18080857 0.10646216 -0.14670317 0.104591876 0.025964621 0.15885925 0.097081974 -0.14753342 0.047747783 -0.08403461 -0.01921157 -0.08253487 -0.0045214747 0.17417417 -0.15374176 -0.050510477 0.1568317 -0.086775936 0.08758031 0.13606428 -0.066547245 -0.39627582 -0.044721145 -0.13660866 -0.051007487 0.12587616 -0.013701388 -0.009094696 0.10662447 0.02088467 -0.088314906 -0.11500334 -0.01734582 -0.10375759 0.0629435 0.16468345 0.082173176 -0.12358353 -0.060153764 -0.14060757 -0.03132249 0.18324898 -0.15392344 0.10201452 0.081348695 0.048042305 -0.030167554
52 0.0050728223 -0.24966665 0.08728537 0.10722456 0.076763615 -0.008719471 -0.092030466 -0.123402126 -0.028006846 -0.16488233 0.13559774 -0.028689748 0.09208028 -0.12689516 0.14372972 -0.10275475 -0.19872792 -0.009956732 0.10165252 0.021063777 -0.07099144 0.030664565 0.10336201 -0.14678931 0.061509527 -0.05787595 0.04380182 0.01962391 -0.003898151 -0.002788039 -0.053500336 0.04761912 0.081396654 0.03493582 -0.022105634 -0.14683034 0.050006073 0.067703865 0.08172637 -0.080047145 -0.037082892 0.039610777 0.040374704 0.12366771 0.012322464 0.11640808 -0.10223785 0.049656738 0.031536024 0.037005607 0.19476707 0.1298458 -0.07512351 -0.074717484 0.016135544 -0.0061615203 -0.02609981 0.09886397 0.013443447 0.09916206 -0.00883927 -0.02297593 -0.033409446 0.122903176 -0.049771983 0.10356458 0.050766055 -0.041969337 0.0027679184 0.09354455 0.12206739 0.0743367 0.1430934 -0.088377446 -0.11893493 0.13096014 -0.17568871 -0.118070155 0.14335537 0.100994326 0.13783221 0.07262268 0.15827489 -0.058780175 -0.07401768 0.047831688 -0.0095426 0.08304144 -0.13497156 0.118603215 0.038448635 -0.166938 -0.17243001 -0.07135841 0.07951439 -0.16863059 -0.03161179 0.16153917 -0.11130904 0.073902026 0.13922389 -0.13623874 0.0031919489 -0.15467636 -0.1122007 -0.09053655 0.13704236 -0.0732679 0.08089858 0.12102664 0.01660978 -0.1144281 -0.10193121 -0.028651802 -0.05028326 -0.05127598 0.064423345 -0.0163092 0.022658221 -0.14358306 -0.13011308 -0.09681263 0.12559019 -0.045972954 0.083557226 0.13090895 -0.00096114975 -0.051523324
53 0.078149274 -0.18106005 0.0013258876 0.02257526 0.19467133 -0.111553445 -0.112126306 -0.08098848 0.05176786 -0.17448002 0.2643752 -0.018016562 0.04123317 -0.18774989 0.11287893 -0.030064013 -0.12746885 -0.02193195 0.060504638 0.037428953 -0.042234156 0.07129883 0.062257223 -0.10557837 0.117300436 0.0061762817 0.09339537 0.013909508 -0.10444314 0.04146535 -0.1596383 0.056365013 0.04198409 -0.010529525 0.042141907 -0.10073691 0.075471096 0.1102172 0.018370328 -0.065765575 -0.029611403 0.033033922 0.09959041 0.18790677 0.074383385 0.033267934 -0.10535667 0.10308301 0.045914117 0.019800147 0.29263118 0.17344186 -0.0704912 0.030257577 0.043433167 0.013636653 -0.069620565 -0.0026174418 0.09678407 0.05073646 0.032527868 -0.06783793 -0.077843055 0.03753661 -0.012325187 0.032347087 0.11326372 -0.06978758 -0.08822984 0.061951403 0.1282608 0.1496127 0.1575731 -0.076859005 -0.059519712 0.06946418 -0.23025183 -0.24468806 0.10744851 0.06863201 0.09850259 0.07758272 0.13544938 0.02976867 -0.01349433 0.007542475 -0.056261744 0.013000005 -0.10490707 0.17240818 -0.06956013 -0.04410966 -0.18849371 -0.043783505 0.004745673 -0.1258234 -0.03783877 0.15209146 -0.030856192 0.023044411 0.11827691 -0.055630688 0.06462522 -0.12384005 -0.06573749 -0.096946955 0.020257523 -0.071126804 0.21744202 0.09597393 0.07638668 -0.020234605 -0.0487986 -0.078214645 -0.03128168 -0.14132005 -0.023741657 0.029023461 0.0011678587 -0.108255364 -0.016398951 -0.20271532 0.07694128 0.024497872 0.0005082195 0.047641322 0.03316876 -0.08669887
54 0.014928542 -0.082550265 0.09180565 0.085057095 -0.08259717 -0.02573784 -0.15766267 -0.09413326 -0.024173534 -0.14256112 0.11454133 -0.019229338 -0.03415742 -0.15722893 0.15813242 -0.12291198 -0.14700553 -0.09796356 0.1491181 0.0219933 -0.008055415 -0.0733293 0.11767861 -0.14429687 0.081703216 -0.07810276 0.009429674 -0.11325832 -0.034062326 0.010859874 -0.06522634 -0.03944826 0.015067763 0.14273776 0.017851029 -0.16033389 0.015284144 -0.097691566 0.038156226 -0.17235352 -0.13527735 0.071697265 0.09219897 0.085204005 -0.07481442 0.15808599 -0.036874555 -0.039313823 -0.049013145 0.00491014 0.11470285 0.108480215 0.051564645 -0.17059167 0.002112616 -0.10961204 -0.071964316 0.16241442 -0.0058685904 0.0405297 -0.10169775 0.026172645 -0.07749854 0.1414387 -0.15567787 0.0027109203 -0.06267729 -0.027885297 0.112719364 0.11480802 0.14348799 0.11651046 0.15528105 0.02446226 -0.14006904 0.16413154 -0.16990924 -0.13065593 0.16834995 0.08960396 0.15303089 0.14708516 0.14718704 -0.06411157 0.012280824 0.008651405 0.16908632 0.10007808 -0.18872859 0.056017824 -0.071518846 -0.10021982 -0.20454837 0.016706076 0.21473986 -0.14266813 -0.03479044 0.17478335 -0.11167206 0.07174682 0.13968429 -0.105353765 -0.28870073 -0.12667334 -0.13965894 0.07709829 0.15643494 0.0032677562 0.015836282 0.105115905 -0.032214582 -0.08137391 -0.1296073 -0.031284284 -0.05595972 0.02821644 0.14358605 0.067618586 -0.074360915 -0.14463866 -0.10154557 -0.14682983 0.16796246 -0.09229406 0.093574926 0.12478207 0.011640001 0.04981157
55 0.11236055 0.17134556 0.010449183 -0.0022155663 0.034775548 -0.05762346 -0.0776605 -0.0004560603 0.097516246 -0.024829367 -0.010507858 -0.14038523 0.1535332 -0.0835366 0.07858399 -0.01541016 0.037306998 -0.16028666 0.0531707 0.15396702 -0.16177316 0.12761576 -0.013281996 0.0017840986 0.09321969 -0.1828731 0.087710924 -0.1429006 -0.10182254 -0.21365176 -0.0673354 0.1174506 -0.14456438 -0.09915741 0.086966865 0.027839575 0.09508533 0.09967748 0.13786015 -0.12395349 -0.054698408 0.15057555 0.14674878 0.095642015 0.1273707 -0.047934406 -0.119871534 0.082456 0.09272906 0.12532996 0.039140344 0.04966085 -0.122016445 -0.053719357 -0.110871114 -0.14743385 -0.11653192 0.1365416 0.115138866 0.06404618 -0.14710025 -0.094735906 -0.12508607 -0.021248361 -0.10227905 0.16032371 0.094762035 0.18957521 0.16359621 0.13099296 0.03817256 0.09654148 0.020439181 -0.16784263 0.03314357 -0.0038075822 -0.03421999 -0.002485243 0.020665351 0.13516499 -0.013715367 0.103173904 -0.043828193 -0.11895964 -0.15607072 0.11525396 0.1683222 0.0020251481 0.04725152 0.11527361 -0.10404709 -0.1773455 -0.007880969 -0.11847101 0.14465843 -0.0062475377 -0.11038056 -0.0018797473 0.02162897 0.1767965 0.009401448 0.0070943097 -0.055525426 -0.00039286242 0.017598256 -0.12780093 0.04271055 -0.14891785 0.0055625187 0.009713539 0.09520235 -0.0054027084 -0.049803276 -0.08635224 -0.1164251 -0.0928513 0.13184233 0.12874894 -0.1744796 0.03042258 -0.10940619 -0.06317289 -0.0013256425 -0.19201699 0.0028574753 -0.054143075 0.10092617 -0.09191032
56 0.07854893 0.118672065 -0.007897213 0.029341359 -0.13454244 -0.035599794 -0.12909986 -0.00353883 0.04087732 -0.14137694 0.14317495 -0.08316132 0.06717728 -0.17190295 0.1383454 -0.02443524 -0.039437737 -0.12665306 0.054007865 0.0008006028 -0.09822541 0.031160083 0.04657369 -0.06790113 0.16430569 -0.1850992 0.024790447 -0.07236802 -0.041590475 -0.16224761 -0.063347146 0.064075 -0.07626162 -0.020415049 0.058506962 -0.045197196 -0.011656329 0.034234613 0.061097573 0.055044334 -0.1273858 0.067436874 0.052505787 0.07206052 0.07324438 0.08141084 -0.05853342 0.005555994 0.0152496295 0.067300625 0.026079435 0.1204477 -0.03698606 -0.06388262 -0.06290404 -0.22341357 -0.045530234 0.09771618 0.09631622 0.03544936 -0.10795154 -0.008552603 -0.06833091 0.017070912 -0.13042375 0.058248617 0.003041823 0.17419624 0.11015597 0.049023703 0.07158252 -0.00036748583 0.11412546 -0.08182691 -0.058230296 0.10747476 -0.13286735 -0.07710157 0.07920794 -0.037037823 0.075740516 0.10681568 0.06849669 -0.11536281 -0.016226353 0.03366422 0.07691777 0.042057507 -0.0731761 0.09390394 -0.11495818 -0.031088138 -0.0837376 -0.0049810843 0.15729368 -0.105268195 -0.08547205 0.11442492 -0.023351617 0.09250726 0.113596894 -0.026272396 -0.30875263 -0.030964859 -0.06872388 -0.088475384 0.08583593 -0.05114153 0.041284032 0.05650661 0.067161955 -0.021020107 -0.080410875 -0.032001823 -0.0799458 0.048450448 0.1517789 0.08557388 -0.11529396 -0.020104952 -0.08043206 -0.053276 0.12887116 -0.16400358 0.060908053 0.047266446 0.104214594 -0.04059443
57 0.15917785 0.20463775 -0.04177368 -0.030842675 0.08055664 -0.122301415 -0.09720644 0.0392106 0.14896604 -0.018896725 0.060956784 -0.19157596 0.16751824 -0.078243755 0.052764352 0.027765818 0.027874481 -0.2096191 0.041255843 0.18577322 -0.16868393 0.18061079 -0.033593457 0.046946958 0.13572237 -0.21169198 0.120813906 -0.16015808 -0.15185246 -0.2539385 -0.111054726 0.16408898 -0.20150559 -0.14776959 0.12379771 0.025546296 0.11133202 0.13152072 0.18437143 -0.09793826 -0.03604805 0.17197023 0.17771113 0.084839486 0.19579512 -0.057615183 -0.13786143 0.12325182 0.12119822 0.16364844 0.01322117 0.034846514 -0.15752803 -0.024541289 -0.15624207 -0.24069574 -0.17590754 0.08484026 0.1580996 0.012255821 -0.19529651 -0.13250934 -0.18315175 -0.038244613 -0.051662516 0.15602937 0.123686135 0.26591283 0.15824303 0.0887564 0.002586755 0.14064378 0.01530656 -0.21051906 0.047659848 -0.010633143 -0.00681879 -0.030704197 0.008902407 0.14761294 -0.023429735 0.09553335 -0.044960126 -0.07755995 -0.111359216 0.15577783 0.16918015 -0.024662718 0.05475436 0.12232217 -0.16654254 -0.12382573 -0.0081468765 -0.16333833 0.12029147 -0.0191064 -0.13233086 0.010546992 0.0518147 0.19278851 0.0011242894 0.035072334 -0.05387632 0.012262931 0.038614955 -0.16569486 0.00062412384 -0.17048259 0.060522847 -0.002786666 0.14626451 0.04499628 -0.035734046 -0.14820178 -0.111340515 -0.14445883 0.10787715 0.16795579 -0.23331605 0.052353997 -0.045973644 -0.09321515 -0.012750833 -0.2172474 -0.01776127 -0.08429421 0.15852802 -0.12904559
58 0.092654444 -0.30818117 0.14035638 0.13546905 0.03704763 -0.03209289 -0.12897927 -0.1294698 -0.005928066 -0.12327088 -0.028569419 0.016453993 0.05895281 -0.054818913 0.08812309 -0.15260983 -0.21451259 -0.08867721 0.11139724 0.052867346 -0.083689034 0.020981982 0.16664055 -0.171875 0.050466664 0.013945018 -0.014338701 -0.0774345 0.021054378 0.0014479765 -0.044819634 -0.00909916 0.054017726 0.05521779 -0.029413696 -0.17914264 -0.033652313 0.022780843 0.018205091 -0.048518635 -0.14379078 0.07971777 0.108607635 0.15024239 0.11291894 0.17621587 0.0050804713 0.024579484 0.037127122 -0.03998279 0.15663609 0.14452332 -0.041999582 -0.10280861 0.017847968 -0.031303618 -0.05053364 0.0731894 0.058876764 0.06677701 0.050661962 0.020088775 0.00075786596 0.17780393 -0.13824546 0.07041363 0.02487462 0.007096984 0.08046678 0.11237874 0.10725622 0.08439109 0.18537182 0.04854492 -0.16339298 0.15776756 -0.19082007 -0.060370307 0.1484139 0.092586845 0.17686242 0.11384751 0.21567526 -0.13247178 -0.06443004 -0.04612549 -0.024265312 0.13225745 -0.24075408 0.06339184 -0.07240159 -0.05864861 -0.19137913 -0.019586364 0.044643104 -0.11321327 -0.012188264 0.07366573 -0.14840695 0.021813894 0.15992782 -0.18769392 -0.21177755 -0.15028335 -0.14916909 0.02143167 0.14687592 -0.060001772 0.0072382074 0.15013298 -0.038849838 -0.15175885 -0.12138652 0.00040712347 -0.07032346 -0.05442833 0.083955325 -0.005239585 -0.041846156 -0.19264522 -0.10156972 -0.06827616 0.1813124 -0.03491201 0.122228764 0.17657648 -0.043868277 -0.032870367
59 0.02755573 0.07833111 0.08158581 0.090729184 -0.15174994 0.060294665 -0.16192439 -0.055553388 -0.028855197 -0.12941535 0.020157546 -0.09348533 0.12241969 -0.12506235 0.1345707 -0.07947963 -0.028448626 -0.1307492 0.12971534 0.07869917 -0.08121306 0.01013222 0.08374423 -0.09445155 0.060715605 -0.16630635 -0.054312397 -0.06381936 0.026413541 -0.17893045 0.0006708467 0.055774752 -0.10844597 -0.005919324 -0.035531316 -0.10322456 -0.026761172 -0.047492687 0.07811037 -0.06757763 -0.15620787 0.06593365 0.13054146 0.11965211 0.04728867 0.069104806 -0.0036917806 -0.032448318 -0.019747868 0.0296178 0.052021228 0.09235232 -0.023002338 -0.19315103 -0.019537656 -0.14206445 -0.043548916 0.20471713 0.027781125 0.12756486 -0.10977794 0.053736344 -0.0805795 0.0860097 -0.106139235 0.15927263 -0.07169113 0.19823785 0.19484805 0.116023034 0.11423866 -0.03408812 0.14157237 -0.10967606 -0.11268395 0.11203599 -0.10567015 0.066986606 0.13429093 0.009189908 0.10431767 0.15661544 0.0678702 -0.14774458 -0.10337135 0.023278242 0.13703108 0.083674334 -0.079474136 0.094243325 0.025925208 -0.17200062 -0.1229468 -0.056626644 0.14379029 -0.13024786 -0.022467693 0.098657005 -0.07709502 0.1154535 0.10765564 -0.04717976 -0.35118842 -0.061224278 -0.08544174 -0.0041049053 0.15664569 -0.047926713 -0.03687315 0.07687746 -0.039004594 -0.074616775 -0.12881243 0.037009407 -0.1347424 0.03715553 0.20556411 0.03889366 -0.122662716 -0.073922336 -0.19288501 -0.003178767 0.116331086 -0.1415886 0.09573317 0.07454715 -0.0063896943 0.02082388
60 0.18797542 0.28760642 -0.03560565 -0.020940173 0.062462125 -0.12558049 -0.09780591 0.030612169 0.13777374 -0.055044394 0.04893161 -0.19108936 0.188158 -0.07533132 0.09307497 0.03538434 0.031657226 -0.19233903 0.06640131 0.17527473 -0.16923073 0.16105548 -0.049463693 0.03842187 0.12537384 -0.23019595 0.14302862 -0.19229555 -0.14115828 -0.23497166 -0.11522838 0.17474984 -0.22040606 -0.17262611 0.14389236 0.064997286 0.13253051 0.1663915 0.17491688 -0.13012342 -0.050749674 0.18321253 0.16972993 0.11732109 0.17486829 -0.1035553 -0.14335215 0.14697234 0.1716065 0.18146034 0.052010406 0.06062526 -0.17774524 -0.046210464 -0.19684218 -0.2141198 -0.15197076 0.14359139 0.17038682 0.061549928 -0.19133614 -0.14239192 -0.1543754 -0.064791106 -0.08707658 0.19897276 0.13354546 0.22977573 0.19638452 0.14114396 0.03608043 0.09952521 0.006611424 -0.19660169 0.083381265 -0.02667798 -0.015326495 -0.046267603 0.015740138 0.14387587 -0.031314276 0.12899715 -0.06326205 -0.12796253 -0.15518208 0.13522364 0.21861023 -0.027457261 0.0866198 0.119178824 -0.16946444 -0.16611971 0.0048057204 -0.17875026 0.14883043 -0.011066761 -0.18694404 0.0050525 0.061949063 0.193265 -0.008576232 0.034452554 -0.0695353 0.02494181 0.030066622 -0.16097277 0.017383762 -0.17099312 0.051472675 0.035601094 0.14637004 0.036669195 -0.047494385 -0.13065428 -0.13175248 -0.13158889 0.15319832 0.17931654 -0.2175006 0.06737461 -0.09182022 -0.08873571 -0.012893578 -0.21446322 -0.036922164 -0.10508625 0.16220689 -0.12547743
61 0.051220868 -0.25970197 0.077536225 0.09290076 0.1601513 -0.055854972 -0.025121043 -0.12759922 0.009473058 -0.1373366 -0.049498774 -0.013780211 0.12557787 -0.108916186 0.14766154 -0.09004579 -0.2562041 -0.078168996 0.060028415 0.054286227 -0.14246717 0.009457681 0.09643399 -0.15985757 0.08166439 -0.068486124 0.04524316 -0.0005247067 0.001030348 0.014447371 -0.038941666 0.053110857 0.13763192 -0.060173225 0.0130550945 -0.14508212 0.04684711 0.08791436 0.16496794 -0.34520736 -0.08878041 0.06560191 0.09534966 0.05764506 0.035489906 0.053870056 -0.13862076 0.08953593 0.08785591 0.019656407 0.2313357 0.11975503 -0.12762384 -0.024222763 -0.03653842 0.049652252 -0.042722613 0.15430813 -0.003929376 0.13888828 -0.010578717 -0.02198282 -0.020979863 0.08038902 -0.06742969 0.15071388 0.057633203 0.0096595595 0.024617448 0.13844585 0.23854819 0.06128971 0.08313109 -0.049707033 -0.0625814 0.12641434 -0.16503619 -0.14712858 0.060918048 0.14789267 0.09945067 -0.035482887 0.13083692 -0.15644957 -0.25192535 0.05031815 0.07154998 0.07126465 -0.10951387 0.14094824 0.035096828 -0.24349934 -0.17517877 -0.08132131 0.09405079 -0.12518562 -0.048282314 0.15193163 -0.09204782 0.09801222 0.12903 -0.13717912 0.35030705 -0.15063065 -0.097123794 -0.11542538 0.11079134 -0.08225199 0.012031226 0.09980266 0.024971347 -0.09966504 0.008828638 -0.030836133 -0.12241927 -0.017365148 0.035600264 -0.006425958 0.020892192 -0.15598136 -0.079471774 -0.04196719 0.10985926 -0.056140386 0.061496817 0.123472564 0.019179465 -0.07767571
62 -0.042489998 -0.18069158 0.106069945 0.13073948 -0.18060528 -0.0012666536 -0.27120736 -0.16758879 0.0029498618 -0.28532407 0.3604007 -0.0919036 -0.032054316 -0.32316956 0.22039826 -0.13564721 -0.08039683 -0.019138603 0.13022175 0.060080912 0.1556679 0.036187213 0.17759323 -0.17916289 0.21203089 0.02663569 0.0051479517 0.024804672 0.012434822 -0.16347641 -0.083060436 -0.015134001 0.07268993 -0.08129616 -0.07066177 -0.20761563 -0.006132469 -0.07082393 -0.010105539 0.26263082 -0.20903805 0.04275144 0.003370217 0.20667589 -0.057552055 0.1984196 0.05999986 -0.003375755 -0.16193712 -0.0008998267 0.1614302 0.19954444 0.0021768755 -0.105283774 0.0772217 -0.35568938 -0.07241268 0.33065015 -0.003255148 0.1679687 -0.1571801 0.068853 -0.091894925 0.1598453 -0.1809632 0.06686284 -0.091891736 0.2899575 0.20279121 0.19311474 0.22103997 0.07724393 0.28073686 0.011870194 -0.15649715 0.19930564 -0.22329323 -0.17427137 0.1831119 -0.11292237 0.17115653 0.27090123 0.21350358 -0.13617729 0.3108032 0.07563689 0.20119478 0.13679913 -0.23287353 0.058333557 -0.0152809 -0.03830101 -0.15813226 0.0067330496 0.11245889 -0.28159645 -0.0071369517 0.25145254 -0.13494584 0.031309232 0.19133162 -0.09876691 -0.39786956 -0.037710667 -0.21753342 -0.044723023 0.1783529 -0.048950545 0.08035434 0.13193592 -0.025831394 -0.121604994 -0.15163648 -0.048209503 -0.16805108 0.042892076 0.08494932 0.07844847 -0.067523606 -0.15215735 -0.17607853 -0.088921726 0.21624748 -0.08421338 0.1347341 0.18860628 -0.0037850987 -0.01565507
63 0.015180425 -0.18634576 0.07241106 0.09944359 0.041647132 -0.021124175 -0.07008598 -0.10480085 -0.016917333 -0.09913939 0.06536463 -0.029743727 0.04726631 -0.09578812 0.067062736 -0.10226651 -0.14434935 -0.05059126 0.1049282 0.03517755 -0.057316735 0.022139873 0.09784122 -0.11024958 0.07501123 -0.0951542 0.04002592 -0.0018807643 -0.030153215 0.012089214 -0.03926619 0.062427092 0.027216446 0.060455017 0.00021224828 -0.14805545 0.04100811 0.021140791 0.06011037 -0.08994423 -0.052510016 0.057856597 0.030763168 0.10127875 -0.006819039 0.12640168 -0.09592791 0.03975298 0.03351091 0.046099577 0.10375178 0.10512561 -0.055735696 -0.11630713 -0.0055114394 -0.02579612 -0.06150329 0.06249229 0.027765118 0.06626881 -0.07000814 -0.022098675 -0.064334355 0.10419668 -0.0358663 0.081436895 0.019862963 -0.049940538 0.048555072 0.082202055 0.07542784 0.07275741 0.11508881 -0.07409016 -0.1055379 0.11232232 -0.08956718 -0.07565984 0.13745508 0.10546301 0.14318003 0.094361834 0.1441298 -0.011160774 -0.023772364 0.054697208 0.05418204 0.0963087 -0.14753368 0.024076013 -0.020666284 -0.14032336 -0.17303772 -0.049999613 0.08502309 -0.1507913 -0.03769151 0.1296098 -0.10500796 0.09254406 0.14590776 -0.11136704 -0.1291805 -0.13050051 -0.09879174 -0.021581968 0.12997687 -0.087645 0.042077392 0.097162805 0.022211354 -0.10066839 -0.102998145 -0.036366705 -0.007521323 -0.044246458 0.11038406 0.06179698 -0.033738963 -0.14434505 -0.11422226 -0.11681839 0.12138533 -0.08359728 0.07717786 0.13143614 0.03099388 -0.03812346
64 0.13097776 0.22252357 0.013371559 0.008746655 0.019171234 -0.04306453 -0.115616426 0.011042226 0.095132984 -0.009158423 -0.07984165 -0.17439088 0.1432826 -0.04481391 0.07433305 -0.0029055122 0.026234983 -0.17653969 0.08141085 0.19158012 -0.14569259 0.140877 -0.0006189948 0.011481307 0.07573631 -0.23941243 0.08340239 -0.1622542 -0.09002541 -0.27505907 -0.046233717 0.13989364 -0.20146403 -0.12677515 0.09639103 0.0304185 0.08703014 0.09443719 0.15707302 -0.09127265 -0.049201075 0.16935726 0.1546634 0.074235655 0.16675666 -0.054930698 -0.11026213 0.0749012 0.10807497 0.13605551 -0.045425367 0.011623867 -0.11879073 -0.09220449 -0.15833333 -0.20463337 -0.12634438 0.16776948 0.11268419 0.07398553 -0.19579862 -0.087157734 -0.12856317 -0.022106003 -0.09984011 0.18733029 0.08231764 0.28400606 0.23476289 0.13063893 0.018960414 0.05429203 -0.0093006855 -0.1916385 0.039379 0.007313225 0.044626195 0.09258817 0.017593628 0.115559645 0.008632305 0.110774145 -0.041029193 -0.12554805 -0.14928146 0.13753195 0.18825993 0.023992635 0.0481963 0.082599446 -0.111163996 -0.17557369 -0.001616445 -0.11976933 0.14400461 -0.0130670965 -0.121188164 -0.004704391 0.03000103 0.1920572 0.006050705 0.01913578 -0.20339997 0.013968188 0.012832092 -0.12905483 0.047551323 -0.15514855 -0.050275896 0.027302912 0.097645395 0.009641029 -0.082289256 -0.10748182 -0.13386513 -0.0936724 0.18658794 0.16178879 -0.21620186 0.036089312 -0.10672518 -0.020757005 0.005153978 -0.22177753 0.022255784 -0.057226676 0.12799981 -0.09332165
65 0.022667933 -0.21462801 0.101057015 0.12365429 0.028585417 0.016194798 -0.11734945 -0.12757479 -0.03038517 -0.15372671 0.117797166 -0.011263473 0.09973229 -0.16579823 0.18087287 -0.09533164 -0.18045807 -0.021213999 0.08559884 0.033966225 -0.09709384 0.025438154 0.12716822 -0.16435958 0.085671395 -0.048706543 -0.029941436 0.05272226 -0.0011084118 -0.046613622 -0.03528601 0.04265898 0.047460273 0.022860061 -0.0243514 -0.18000102 0.04497372 0.01819806 0.04581589 -0.06030518 -0.09350706 0.047507558 0.075371474 0.16012423 0.018001381 0.122722566 -0.034246955 0.017898181 -0.0034305633 0.035106782 0.1930693 0.10429983 -0.04579292 -0.10945248 -0.030045541 -0.0073401155 -0.016300686 0.04815068 0.05386184 0.14666171 -0.011311526 -0.0012332946 -0.084050834 0.1299568 -0.037909403 0.118634894 -0.0018906924 -0.008107584 0.06526359 0.097294405 0.19946894 0.059348565 0.2292671 -0.05810065 -0.13223103 0.1517039 -0.21506836 -0.06265598 0.16982858 0.068099216 0.19340497 0.088808164 0.18426228 -0.06062201 -0.1203346 0.02202551 -0.0241958 0.09450413 -0.15977752 0.11907046 0.049758077 -0.19915345 -0.20150891 -0.043105613 0.09095074 -0.20770404 0.007213469 0.15010151 -0.1213719 0.0855065 0.16126862 -0.113309905 0.04553827 -0.13037106 -0.12152531 -0.03952379 0.15034673 -0.05133558 0.035655938 0.16090338 -0.023626901 -0.115264915 -0.1101437 -0.005809267 -0.036647927 -0.0410012 0.10957545 -0.073040865 -0.004262379 -0.20361713 -0.17049856 -0.10209513 0.1457746 -0.04948636 0.09734073 0.14190048 0.00656836 -0.014533595
